1182 50
comfits -0.07144092 -0.0710144 -0.07424669 0.014870517 0.07639819 0.018334981 0.015703166 -0.06119353 -0.008116279 0.025694126 0.05779864 0.013143718 0.0050685112 0.07720057 -0.03888083 0.094137795 0.011810355 -0.08197086 0.071435325 0.03321019 -0.030494625 0.017307263 0.0033571073 -0.036290307 -0.027767964 0.01769648 -0.078114174 0.098024555 0.03123031 0.067380756 -0.06786205 0.06922882 0.08090219 -0.030384587 0.010038922 -0.032933507 -0.03979235 0.04881794 -0.032038033 -0.03641248 0.010657534 0.0044657015 0.0071318774 0.0195399 0.02098934 0.074540704 0.03554263 0.045256685 0.031222194 0.02904217
moment -0.0999056 -0.09222528 -0.006961397 0.0015552308 0.060888205 0.031074941 0.06906291 -0.05857525 -0.035992738 0.089321636 -0.008908858 0.08362223 0.011639224 0.07664976 -0.07999453 0.076727524 -0.03713643 -0.097775765 0.03526106 -0.036517993 -0.030221839 0.013691803 0.011861963 0.05614931 -0.072259694 -0.0877959 -0.050857835 0.10316773 0.04453567 0.07728957 -0.10982103 0.06926895 0.073589236 0.02098319 0.01124287 0.012211462 -0.015707204 -0.031405985 -0.03512683 -0.062683254 0.04834475 0.105522044 -0.055366516 -0.00033925998 -0.010307148 -0.02120003 -0.082834356 -0.03602121 0.0072524836 0.026294913
pointing -0.069376156 0.009706568 0.028353328 -0.054866444 -0.049780305 -0.020753102 0.047585655 -0.06600094 -0.05553909 0.016677476 -0.008789038 -0.03402147 -0.023427108 0.0004842357 -0.07065169 -0.055661365 0.00800706 -0.021498192 -0.029448222 0.045952227 0.03430903 0.03863349 -0.048324864 0.0134110525 -0.0019459579 -0.07542146 -0.05341375 -0.025054147 -0.019409938 -0.0041784793 0.056811064 -0.04891088 0.060292188 0.004583619 -0.08004734 0.02495864 -0.059177928 -0.0029896537 0.019791773 -0.06934312 0.0060917973 0.07795444 0.061052896 -0.048181344 -0.07219735 0.035907354 0.020778049 -0.048683334 -0.04902112 0.03977635
seems 0.022463007 -0.0025318475 0.019351695 0.014375074 -0.012660428 -0.071778424 0.029555349 -0.045948472 0.08413765 0.07321411 0.01127081 0.019736685 0.08031625 0.02094837 -0.05253078 0.08016215 0.027563915 0.014706298 0.026982795 0.014680166 0.051134843 0.06434548 0.0065324255 0.07031512 -0.002507029 -0.06601969 -0.015068325 0.04061323 -0.026221965 0.065425366 -0.059023242 0.0961193 0.05494914 0.015466016 -0.05776808 0.07508823 -0.02827088 -0.016006636 0.031505775 0.019120712 0.09173395 0.006089362 0.08942987 0.021557614 -0.090224236 0.0343359 -0.08771241 -0.03606696 -0.0030224028 -0.023034438
and 0.3475515 -0.16775356 -0.17569941 0.2695018 -0.120873235 0.06081434 0.2582171 -0.109254174 0.019545225 -0.14001945 0.058159158 0.027963698 -0.044187605 -0.04244596 -0.1767187 -0.049182978 0.14587073 -0.07728319 0.22347789 -0.15633383 0.09406637 -0.02382531 -0.14938433 -0.10107995 0.0230033 -0.029584607 -0.15989174 0.06675068 0.09336386 0.035699964 0.06624297 0.010533251 0.14002883 -0.032852534 -0.06231915 0.030389346 -0.06704336 -0.07107598 -0.1566525 -0.10204718 0.15147616 0.14261708 0.11053966 0.27924567 -0.0040384755 0.18130681 -0.14067906 0.18120131 -0.09926617 0.08150879
distance -0.020534176 0.055146106 -0.08140583 0.014635123 -0.019602343 0.040894754 -0.026079021 0.049852263 0.034423023 -0.045350112 -0.03451752 0.04445372 0.0831878 -0.066387504 -0.05063559 0.05532033 -0.047420345 -0.024626756 -0.071401894 -0.005267488 0.0526015 -0.039333247 0.018336264 -0.018649304 -0.044467263 0.03797059 0.042849857 0.074311 -0.05437099 0.10432996 -0.048506223 0.05850041 0.011655359 -0.010795405 -0.004988981 -0.04650678 0.048478004 0.08682691 -0.020492297 0.07059416 0.029551841 0.09990274 -0.014813169 -0.02372444 -0.048012204 0.018811636 0.048342887 -0.0042765914 0.040183824 0.022292059
day -0.004491959 0.021511786 0.01207322 0.1088394 0.08024251 -0.077005155 0.062336173 -0.056739002 0.08602071 0.035412733 0.11594095 0.028249571 0.07232318 0.09068201 -0.06255979 0.09774897 -0.028950555 -0.038759995 0.07484135 -0.04503068 -0.024327178 -0.014444886 0.0073246243 0.008581752 -0.056008935 -0.03738362 -0.09825098 0.059399147 0.091285154 0.008083825 -0.026129903 0.037703793 0.07376462 0.030132284 -0.030624416 0.035822656 0.01030397 -0.04019899 0.056352813 -0.051108 0.048620388 0.07278726 -0.025567392 0.08085437 -0.0223661 0.051607277 -0.0062840222 -0.11907067 0.017945996 -0.014758152
after 0.016767731 -0.10581171 -0.04213733 -0.0061283843 0.052799057 -0.03530502 0.0567831 0.054480523 0.12724926 0.08316752 0.079642706 0.0027718835 0.06949227 0.048422385 -0.0022443347 0.11464164 -0.048146445 0.015778182 0.06538259 -0.070774466 -0.0018537183 0.035295647 -0.054621805 0.009827828 -0.09492118 -0.076225206 0.018606704 0.06295885 -0.013016063 0.029336307 -0.008305428 0.115493245 0.090071335 -0.054918487 -0.07713227 -0.0064772945 -0.102501795 -0.036781564 0.016830066 0.029588975 0.11999044 0.01941294 0.00275411 -0.04927989 -0.052384812 0.051716335 -0.0026436523 0.0062653874 0.049635373 -0.030973744
own -0.03921113 -0.036881607 -0.08633722 0.047434464 0.09962445 -0.09226698 0.08110844 -0.013773122 -0.02642112 0.028206501 -0.045038924 0.045203514 0.12210416 0.02223961 -0.031487547 0.07827512 -0.101937786 -0.014023069 -0.028719822 -0.06677459 0.10194361 0.030675702 -0.034958947 -0.021960605 -0.0054642987 -0.099499606 -0.07755975 0.06700907 -0.028488588 -0.01982653 -0.028622845 0.0101057645 0.06519059 0.00080172054 -0.06684918 0.03569432 -0.09682702 0.054343853 0.03798931 -0.03745727 0.022874614 -0.016938481 0.05358213 0.04982336 -0.0047596106 0.046635214 -0.059213378 -0.03042429 -0.03375475 0.0067871064
life -0.07982262 0.032673992 0.025387269 0.03464176 -0.019950472 0.008953605 0.04289016 -0.010861962 -0.041150223 0.0071451757 0.086515896 0.054188162 0.050346307 0.030959558 -0.0788744 0.043689754 -0.06773845 -0.027659088 0.057406772 -0.094225764 0.08617575 -0.013613199 0.031064041 0.043355353 -0.035299115 -0.06486631 0.034761805 0.013461154 -0.026866786 -0.013026683 -0.040654086 0.10540566 0.03345855 0.000127292 0.044944458 0.026871853 -0.09409524 0.014967432 0.07217884 0.031696733 0.059229966 -0.01633256 -0.024271619 0.027106516 0.027317183 0.0054483 0.057406437 0.021425482 -0.07081501 -0.06428461
doth -0.057896994 0.046777874 0.03041436 0.07963486 -0.02948535 0.015143102 0.08114102 -0.045210596 -0.046404973 -0.010694737 0.050827853 0.026574956 0.015084185 0.04158559 -0.041335437 -0.0015287178 0.0074293525 -0.061499413 -0.045909263 -0.038755044 -0.020991955 -0.048711892 -0.083568074 -0.013940494 -0.05008524 -0.021658983 0.008037767 0.07883177 -0.037967633 0.033529386 -0.04245483 0.066173606 -0.02116479 -0.0849498 -0.018885346 -0.009114267 -0.01945048 0.03014456 0.04927738 -0.03142096 0.03943138 0.071745366 0.094032496 0.0819363 -0.04882175 0.057276856 -0.035319537 -0.069529235 -0.009958943 0.036931314
bright -0.045683146 -0.08149722 -0.02259364 0.060681947 0.059310555 0.006875242 -0.009284636 -0.06216499 0.040635698 0.00392814 0.044438243 -0.044740207 0.07664804 0.047371104 0.014233609 0.09261234 0.004675852 -0.09514833 0.073316954 0.030252278 -0.019391144 -0.014151366 -0.06690068 0.042201575 -0.08759848 0.046375755 0.024910051 -0.016570238 0.097696185 0.0939524 -0.100189716 -0.0067108776 -0.03279903 -0.027415669 0.019143576 -0.0156925 -0.062945664 0.045235146 0.06694569 -0.028013231 0.09612227 0.07991861 0.10199607 0.00088901096 -0.05573354 0.005387827 -0.094981566 -0.06547873 -0.0034957114 -0.027847152
disagree -0.031773243 -9.348604e-05 0.018083397 -0.040864013 0.012990812 0.057474583 -0.009367854 -0.0008103843 0.06092511 0.01441212 -0.049223524 -0.05368786 0.005121121 0.028402412 -0.050377015 -0.034206796 0.033179644 0.056828387 0.052671295 -0.04834843 0.040291704 0.05172878 0.008982986 0.002789334 0.029387236 8.807576e-05 0.034709554 0.028135084 -0.054096375 0.04905488 -0.017538823 0.03652874 -0.045966882 -0.02385003 0.04356715 0.045301225 0.0068124244 -0.02919799 0.07006726 -0.07666251 0.05733921 0.033876676 -0.029696627 0.07946783 0.035693336 0.07735804 0.02587799 0.0012076278 0.047241554 -0.061036345
measure -0.014597952 0.015704196 0.004309044 0.062455468 -0.057567134 0.04189514 0.062912166 -0.05754646 0.06930331 0.08291415 -0.0015113094 -0.0068290187 0.008900375 0.028046653 0.0369495 -0.040143676 -0.07265393 -0.0065148496 -0.034361865 -0.047644045 0.06558013 0.059265368 -0.006824822 0.028575616 -0.008501478 -0.027872948 0.020249905 -0.0521627 0.05877866 -0.060148697 -0.052566133 0.07127991 -0.045049526 -0.027148746 -0.056413297 -0.031615235 -0.051479664 0.0107671 0.0051592193 -0.06554033 -0.051175687 0.016622042 0.07231725 -0.027076006 0.014664186 -0.008041233 -0.05141431 0.05435473 -0.0031518522 -0.070080265
uncomfortable 0.029955968 -0.04476053 0.043055374 0.0013526833 0.0155379865 0.048132807 0.01640579 0.061481025 -0.006500714 0.067714736 0.026973277 -0.033180103 0.07482271 0.078680016 -0.03049199 -0.006903887 0.012799446 -0.06284056 0.030195825 -0.052433316 0.06983585 0.0001610606 -0.016018664 -0.043862123 -0.017061673 -0.05694309 -0.006382735 0.055254452 0.055848483 -0.022235617 -0.049990483 0.08129212 0.017588599 0.0054737185 0.0076821744 0.08374826 -0.040035844 0.04892269 0.05375905 0.010281689 -0.048400983 0.077111684 0.057629112 -0.045447778 0.04475719 0.042550117 0.049454045 -0.05115937 -0.016556764 -0.033420615
vanished 0.040868953 -0.020111183 0.02567239 0.07933861 0.050146043 -0.009300253 0.07824087 -0.01725607 -0.018226337 -0.00013018784 0.030431874 0.046193857 0.07902199 -0.04334205 -0.00966683 -0.014950633 -0.0068243667 -0.039947107 -0.050008964 -0.023307877 0.058829837 0.010138431 -0.0079021165 0.02970085 0.01471716 -0.0469018 -0.036266755 -0.026917346 -0.0042799423 0.02404675 -0.014627378 0.004470555 -0.052100673 -0.06874618 -0.033338312 -0.017381815 0.02142513 0.059746232 -0.054171685 -0.030510604 0.031247815 -0.020962136 0.038993653 -0.03442341 -0.04646948 0.048980575 0.027352117 -0.02191784 -0.017137118 -0.05069675
her -0.056598645 0.04696722 0.010529328 0.0403991 0.07372487 -0.023215136 0.097736225 0.04343258 0.106061004 0.083242305 -0.01403311 -0.16685046 0.13094074 0.27438557 -0.019749902 -0.003672624 -0.04836013 -0.048849743 -0.08248654 -0.05853143 0.014047239 0.29530156 0.007256726 0.046543743 0.02133694 -0.08915142 -0.06942674 0.05150047 0.1588453 0.0956744 -0.009174606 -0.030255241 0.044676244 -0.0035153315 -0.040831607 0.0063763103 -0.0634418 0.077995844 0.2073743 -0.098664284 0.059853643 -0.09171575 -0.050296895 0.07619666 -0.025563361 0.117328085 -0.10051705 -0.26062667 0.029460806 0.12980117
normans -0.055504434 0.010771776 0.025757004 0.00975892 0.007499286 0.0043802643 0.04752724 -0.009587331 0.0073938966 -0.05410234 0.0114915315 -0.041892387 -0.0027492335 0.053837847 0.020737732 0.05526806 0.026645172 0.018780611 -0.004844635 -0.03541402 0.03448474 0.010097714 0.021915028 -0.0147620365 0.011370895 -0.026699107 0.051333606 0.05420228 -0.017838303 0.05949077 -0.039593972 -0.045653637 0.0180863 -0.032429516 -0.023494465 -0.047475368 0.057492614 0.021727808 -0.0440289 -0.020212496 -0.045261364 -0.01945098 0.070224114 -0.029719539 -0.023590446 0.071826 -0.048336834 -0.0085922405 -0.009828765 0.022949563
chain 0.05497382 0.05423069 -0.060182765 0.007629329 0.05961894 0.04839644 -0.04358793 0.027487615 -0.02528457 0.016071917 -0.0016639903 0.03658219 0.03959964 0.030671269 -0.059400298 0.023578767 0.02352977 -0.055568103 0.016787972 -0.0497529 -0.046618477 0.026231926 0.057152085 -0.0067191506 -0.045009848 0.007242282 -0.0015977079 -0.05419797 -0.03920373 -0.0031539248 0.022127468 0.0373259 0.037546247 -0.035234176 0.011011874 0.012142395 -0.038695883 0.06956365 0.006493946 -0.048269995 0.03994975 -0.03985629 0.018586427 0.06225071 -0.061126083 0.008968993 -0.024288412 -0.005076224 -0.016748762 -0.07509965
funny 0.014765809 -0.0635338 -0.07600773 0.06207726 -0.025356688 -0.07081309 0.045805216 0.029493367 0.057043828 0.030096281 0.00023936585 -0.05134396 0.03625802 0.06556641 -0.012171808 0.01782716 -0.08448123 0.03392539 0.04969225 0.036002662 0.0047615264 0.07252613 -0.014918668 -0.041979373 0.04587125 -0.05998174 -0.021647137 -0.04399815 -0.022792447 -0.020177528 -0.005370369 0.002857278 -0.0406423 -0.016335752 -0.07217137 -0.03321173 -0.08632924 0.00060391787 0.02967432 0.018808184 -0.01772149 0.0834454 0.06518234 0.017761638 0.03778143 -0.010165718 0.0056654965 -0.0038540005 -0.006749407 -0.04768283
fanning 0.048021324 -0.01337891 -0.07977637 0.06645605 -0.034782197 -0.046992775 -0.0012244226 0.04820365 0.05818739 -0.010231249 0.005564115 -0.03611374 0.07926487 0.06771863 -0.050863042 0.05855372 0.008699989 0.04453847 -0.02398964 0.0029662834 0.06825216 -0.052385315 -0.06954738 0.07441884 -0.01344207 0.04691742 -0.031559985 0.036009815 0.056739744 -0.026262699 -0.020861896 -0.055093586 0.0265929 0.013340104 -0.010542394 -0.03643214 0.037899602 0.06760043 0.018250858 -0.02408807 0.030059354 -0.016284686 -0.031878233 0.046129007 -0.060433615 0.048583873 0.04484705 0.024170507 -0.041633684 -0.07210629
noise 0.02626161 0.052720286 -0.011540141 -0.05581357 0.022602703 0.0344073 0.029909749 -0.035188492 0.03162713 0.036844023 0.057193093 -0.05338394 -0.04553939 0.0506603 0.016910933 -0.0110301245 -0.06830533 0.006038977 -0.018743418 -0.034595057 -0.021424934 0.037332643 0.041510344 0.04484659 -0.07076579 0.030191727 -0.07131021 0.057599705 -0.010553457 -0.025026154 0.0013165856 -0.010766532 -0.014339382 -0.04445794 -0.0015344513 0.061523415 -0.07857971 0.048967052 -0.026012264 -0.019565402 -0.0011795072 0.07058625 -0.05403982 0.023781661 -0.046694085 0.029961245 0.055740442 0.042150207 0.0082660075 -0.0150743555
since -0.056540083 -0.01185043 0.050879225 -0.037624095 -0.007423712 0.025585435 -0.035243854 -0.046069637 0.025688738 -0.012936499 0.059864245 -0.0047067907 -0.038697347 -0.048099827 0.040178064 0.020633923 0.04302061 0.01027146 0.05069894 0.0074522076 0.013126489 0.0015224675 0.023241036 0.01299276 0.043184564 -0.04085811 -0.023599662 0.004428341 0.02563767 0.0034174977 0.019185696 -0.0055182716 0.07461972 0.05459208 0.052901093 0.041746076 0.032630254 -0.03180718 0.024839193 -0.03411824 0.021042325 0.0009200199 0.074248865 0.021152021 -0.0075113727 -0.05596247 -0.0007308675 0.045989197 -0.015056999 0.05493588
close -0.06259837 0.0043620327 0.04438636 0.042621832 0.050823852 -0.072325684 0.037749328 -0.08080284 0.014014382 0.047950972 -0.030168682 0.026086584 0.04707197 -0.045355212 -0.06689571 0.0009906538 -0.07874835 0.028771393 -0.041579418 -0.080106236 -0.026610639 0.08435483 -0.05018251 -0.049110122 -0.063477494 0.05631505 0.014608026 0.028513782 0.086672336 -0.050288286 -0.047864273 0.06610398 0.05060504 -0.09575844 0.022705555 0.050978024 -0.06329668 0.03779117 0.036232475 -0.0035720905 0.08069708 0.035325494 -0.0024893938 -0.021184478 -0.056155387 0.08650168 -0.0021295052 -0.073645815 -0.05859465 -0.07558788
toys 0.0386416 -0.049063276 -0.005109628 -0.03618798 0.027104918 -0.02029654 0.044244133 -0.056507226 0.054900456 0.06279319 0.039633133 -0.01805644 0.070838206 -0.0073106284 -0.0071965884 -0.028058205 -0.0009922796 0.011130765 0.077478826 0.0375969 -0.008601081 0.061789498 -0.062158566 0.060165964 0.014387131 -0.009421177 0.009331429 0.043681987 0.0006107803 0.07159205 0.022370595 0.03895657 0.037683275 -0.06617893 -0.03637832 0.0074694725 0.05060921 -0.030046958 -0.02651958 0.014769236 0.0639776 -0.028840834 -0.0011160522 0.08004761 0.014357418 -0.061173927 0.022051891 -0.07883138 -0.056955434 -0.0058969236
moderate -0.039105076 0.037449423 -0.035747707 -0.012980187 0.035666022 0.037405677 -0.023734976 0.034889363 -0.031890415 0.030911952 0.005761693 0.026855899 -0.007067332 -0.047879394 0.004983983 0.02199248 0.0016982589 -0.06146481 0.019712407 -0.016612947 0.07268234 -0.032422017 -0.05307302 -0.0028336274 -0.05935446 -0.06518284 -0.036145013 -0.019227548 0.054171696 -0.01310193 0.051385522 0.04353078 -0.03535489 -0.028389711 0.01426686 0.00892335 0.047636677 0.065255225 -0.0048855385 -0.06758374 -0.060025595 0.005819513 0.043398816 0.031209422 -0.029557943 -0.034240633 0.055796895 0.0028943429 0.029150551 0.01244294
welcome -0.017890984 0.057231143 -0.0421946 -0.054221723 0.030588077 -0.05926324 -0.05530085 -0.039221127 -0.019269481 0.010012294 -0.003703842 -0.04877187 -0.017169414 -0.020219397 0.05343775 0.040186863 -0.07472223 0.045213275 0.00376165 -0.06350515 0.011106538 0.045843784 0.010391514 0.008075432 0.025102038 -0.039690875 -0.012468929 -0.007795919 0.020337526 0.018459545 0.053113755 -0.028238837 0.050656907 0.0013463215 0.04770226 0.0034515741 -0.05696942 -0.03626948 -0.011346678 -0.07941852 -0.040748883 -0.02368316 0.0019081113 -0.0126529755 -0.037320197 -0.0017182692 -0.059502017 -0.06326076 0.025984293 -0.053321447
pulled 0.028097296 -0.030937543 -0.0058676163 -0.021621948 -0.016208682 -0.01279743 -0.041802417 0.05570973 0.057062488 0.08313758 -0.056900322 0.049644183 0.07781681 -0.02256356 -0.062462196 0.05890206 0.018160198 0.019827448 0.06109713 0.0118592335 0.009953504 -0.037657496 -0.07451106 -0.0029611776 0.02886317 -0.0042760414 -0.07400244 -0.014337707 -0.011841833 -0.04978777 0.045968495 -0.038032226 0.03621762 0.0014462683 0.058010526 0.024121406 0.045631725 -0.04024832 0.044150785 0.013689999 0.058934264 0.0045395093 -0.0066490714 -0.044735864 -0.041386165 -0.043062314 -0.06222922 0.003769463 0.021990538 0.02746833
high 0.00916164 -0.120165996 -0.008756551 0.10164579 0.008673193 -0.10457143 0.03212213 -0.08884656 0.032368477 0.04455697 0.0093194675 0.043338757 0.029013637 0.021209963 -0.07357973 -0.017832147 -0.079522714 -0.095122725 0.021664135 -0.016166197 0.101098314 0.10623483 -0.059718866 -0.030937996 0.014986708 -0.08009702 0.017904218 0.03220387 0.11653597 0.011021644 0.0037655523 0.055849973 0.028335374 -0.017344154 0.029334053 0.04110529 -0.022753825 0.078952536 0.118140526 0.0024244594 -0.013054805 0.069879055 0.017155627 -0.0024926 -0.08909404 0.06164228 -0.10635885 -0.119118884 0.05899105 -0.038211063
presents -0.044161733 0.036976602 -0.07117704 0.062704474 -0.018510282 -0.016599441 0.056293365 0.007937568 -0.0475075 -0.020672217 -0.04430499 -0.02688456 0.052866705 -0.028585855 0.014739744 0.047536656 0.019009305 0.038734652 -0.025986087 -0.035504304 0.05238608 0.07674992 0.04264189 -0.011239222 0.042291697 -0.06778914 0.010091003 0.021545231 0.055411655 0.026944363 0.025455747 0.006232513 0.04188797 0.05471171 -0.062868945 0.06895834 -0.00692191 0.038204342 0.032305017 -0.040898312 -0.0063669607 -0.055253018 0.009316538 0.04061259 0.02331667 0.036134914 -0.040343672 -0.0017837357 -0.017300272 -0.0013048596
dare -0.06599895 -0.013191858 0.009982362 -0.039368607 0.03926605 -0.05745291 0.014395715 0.017924078 0.04529091 -0.023207065 0.022136902 -0.047427356 -0.0477794 -0.050574962 0.033941153 -0.04704117 -0.050377443 -0.08345697 0.0075439 -0.052565362 0.04404613 -0.016258165 -0.052455503 0.002397369 0.020712456 -0.029876094 0.03769144 -0.055469442 0.058888696 0.034584526 0.023211483 0.05215138 -0.0044463025 0.045780513 0.0027057906 -0.012308212 -0.055628214 0.013999755 0.0035774722 0.03341728 0.0669272 -0.009835914 -0.010212042 0.06597094 0.004265026 0.08097918 0.033436276 0.016291227 0.035855774 -0.08188071
eaglet -0.026090372 -0.05211488 0.0011933002 0.04465526 0.056435015 0.0017371355 -0.010978913 -0.03281949 -0.009880367 0.047439434 0.0036897087 0.08653271 -0.019399375 0.06363717 0.026104787 0.10535332 -0.010392268 0.025061307 -0.016480993 -0.08424336 -0.017841335 0.04598163 -0.050410382 0.0735329 0.017891413 -0.006401467 0.027815346 0.014273634 -0.006407779 0.061380304 -0.03300354 0.024165103 0.0039305864 -0.017642068 0.024006482 0.063613705 -0.02356532 0.068860166 0.039075486 0.0040682973 0.070119806 0.07297349 0.019800242 0.088149786 0.0020848003 0.040336307 0.0019032863 -0.03869196 0.030978391 -0.048837934
go -0.13317722 -0.080033354 -0.007903967 0.06124328 0.11696274 -0.0037937693 -0.004420898 -0.07274976 0.11906709 0.108395465 0.07116377 0.035545386 -0.054327648 0.030514145 -0.0068602315 0.057561018 0.0635656 -0.089198865 0.009681789 0.0013191112 -0.044120625 0.10487354 -0.07580388 -0.024568148 -0.01851912 -0.05257983 -0.15705577 0.021785835 0.10038636 -0.05905766 -0.046976186 0.087504625 0.05241052 -0.01558069 -0.12623243 0.042368818 -0.028355606 0.00076196296 0.08991963 -0.012309593 -0.034480333 -0.010444593 -0.05063536 0.041969348 -0.12247175 0.0058606626 -0.07024385 -0.03345855 0.019465463 -0.06522391
bird 0.0023360369 0.04553991 0.025992336 0.0017619472 -0.047585357 -0.019062527 0.004752254 -0.046821073 0.065845594 0.055799056 0.015693434 -0.049272556 -0.050937574 -0.0027800298 0.048763942 -0.051844288 -0.026106983 -0.058699254 0.0077289613 -0.03549614 0.04961282 0.03925761 -0.01688988 0.01510209 -0.060346417 0.007196053 -0.010493463 -0.03324641 -0.020583292 -0.03948925 0.030483976 0.023345808 0.07829258 -0.06298831 0.05616943 -0.009626089 0.05380621 0.0037814097 0.07691113 -0.071124226 0.042846233 -0.0072919624 -0.010648738 0.057646226 0.021756617 0.032031063 -0.056183144 0.018815255 -0.04124752 0.056965142
general -0.06889374 0.051543258 -0.0779127 0.05981108 0.046322796 -0.0616562 0.026938505 0.04366705 -0.028121833 0.066686064 0.03942057 0.07357395 -0.058548648 -0.035072383 0.023944415 0.057915367 0.004179123 -0.052277423 -0.047369834 0.005943305 0.0065487837 -0.016143382 -0.054471117 0.03317427 -0.031329084 -0.05492107 -0.03757437 -0.023668164 -0.011185837 -0.04480635 0.0042226384 0.074426025 0.016721439 -0.010393865 -0.029421968 -0.054068364 -0.024124067 -0.011462796 -0.01662846 0.018211806 0.0042384746 0.0126849245 0.05264577 -0.005608063 -0.05317643 0.06653529 -0.020044213 -0.027787188 -0.06308712 0.026426615
our -0.04117736 0.010181388 -0.009150141 0.06693835 0.021125676 -0.012523844 -0.029574534 0.021667035 0.06602266 0.095619045 0.055895146 0.06666909 0.01768118 0.069298156 -0.069993235 0.019586103 -0.037496198 -0.080294624 0.02860838 -0.06152831 -0.038587 -0.021485321 -0.07538348 0.09396218 -0.10050833 0.0015240033 -0.01578428 0.055524018 0.036980864 0.028861638 -0.05042352 0.0023385445 0.10268321 -0.043901153 0.01497681 0.094669774 -0.11092914 0.13152666 0.12250017 0.0035660556 -0.021915158 0.038368903 0.07076014 0.050256502 -0.067265555 0.0045181187 -0.058864944 0.00039091392 -0.10044038 -0.016912414
mistake 0.029476508 -0.043904237 -0.028993428 0.056228742 0.036255267 -0.040154472 0.0050028544 -0.050247464 0.047907513 0.036549293 0.07030102 -0.05236651 0.005573856 0.06192186 0.040930286 -0.043108363 -0.038260568 -0.059556104 0.08108568 0.007975755 -0.010036118 0.045108434 0.004482302 -0.030707685 0.031692587 0.03637531 -0.04609126 0.072531536 0.02259186 -0.027338507 -0.023554605 0.081920356 0.05927943 0.052330278 0.033214204 -0.02834563 0.021763228 -0.0008746444 -0.014019996 0.024310652 -0.03883481 0.048635513 -0.038001515 0.07451032 -0.041270837 -0.027355287 -0.005302814 -0.047320534 0.033510316 0.049318478
pointed -0.05401432 0.005961311 0.04374436 -0.047649033 0.016003372 0.019648843 -0.0028448296 0.03818077 0.022325609 0.019712584 0.0046265065 0.010570988 -0.03521758 0.07835153 0.022787135 0.011395058 0.0005958829 -0.0020076092 -0.04189649 -0.0017681543 0.0666021 -0.018843556 0.0031840636 0.062831044 0.00981685 -0.0069388486 -0.040444057 0.05310421 0.07227084 -0.010397117 0.002703169 0.036189385 0.051102895 0.057032987 0.029913446 0.059209496 -0.038679227 -0.03186887 -0.050105367 -0.04768027 -0.036358472 0.060540438 0.050088767 -0.019991461 -0.026156532 0.080988824 0.012371229 0.032867122 0.032936435 -0.069913805
fishes -0.06565341 -0.059958167 -0.047136437 -0.048777346 0.018419411 -0.009447627 0.03308227 0.030752067 0.0018505933 -0.0361477 0.07168677 0.069747545 0.040345717 0.02603358 -0.024701457 0.008216363 0.01231131 -0.03173619 -0.0010531816 0.036037065 -0.01229525 0.0066982955 -0.047454268 -0.0060719806 -0.023534065 -0.02457834 0.051610827 0.005798066 -0.007553816 -0.05179326 -0.017836953 -0.04441713 0.04471941 -0.06856243 0.03331044 -0.02318863 0.0026115105 0.06292161 -0.0283674 0.052703895 -0.053410724 0.013078753 -0.042100564 -0.026738105 0.009440409 -0.048664916 -0.027608097 -0.035292666 -0.06206785 -0.07409142
head -0.05068597 -0.029402552 -0.066376485 0.006547872 0.08630644 0.011800866 0.048865218 -0.09339477 0.09669435 0.011674818 0.011127545 0.088043004 0.11940147 0.0008665819 0.013235202 0.098421596 -0.015172858 -0.07847625 0.08084046 -0.04470795 -0.0054127863 0.055062626 -0.026985617 0.080625854 -0.028321212 -0.07351059 -0.0245547 0.029564645 0.01824456 -0.0127979545 -0.1125033 0.08658975 0.05445186 -0.079341196 -0.05462794 0.016400583 -0.054255318 0.06767085 0.010791774 -0.029472724 0.022531772 0.04005381 0.057325434 0.08190524 -0.079101816 0.08493856 -0.02687894 -0.08263115 -0.001563659 -0.036076237
let -0.134158 -0.072076276 -0.0010474119 0.037218783 0.062238436 -0.017083917 0.076683536 -0.1442278 0.12521201 0.112130195 0.047333747 0.14389472 0.022790574 0.11316876 -0.09129307 0.033765696 -0.09269702 -0.079603195 0.064439386 -0.043451022 0.048353758 0.092728734 -0.14281031 -0.008353344 -0.13252784 -0.08856815 -0.0898014 0.022246886 0.077472165 -0.05519208 -0.0076325 0.068173684 0.06225414 -0.061883587 -0.014022611 0.008344451 -0.08951889 0.0076543894 0.08866938 -0.04736099 -0.0054252036 0.07341208 -0.0040065236 -0.02455429 -0.10275827 0.016645184 0.0055810944 -0.06109086 -0.11116127 -0.12440716
wonder 0.012992673 -0.084018424 0.07155782 0.011655231 0.15742418 -0.074953265 0.027743857 0.014150607 0.059331436 0.097320355 0.12637359 0.16249079 -0.025956782 0.1754364 -0.066533595 1.5260419e-05 -0.11522184 -0.0008610401 0.15908109 -0.13634507 0.02061182 0.011507726 -0.053464007 0.13863444 0.04379299 -0.13528001 0.012000169 -0.057920992 0.016704256 -0.110147 -0.11898676 -0.0626199 -0.06583743 0.0014923741 -0.039272588 0.01677985 -0.13554555 0.16234435 0.049827456 0.04643622 -0.043022018 -0.026008485 -0.03570304 0.16235316 -0.09903985 0.011470435 -0.10028169 -0.07287601 -0.1074735 -0.06579372
bye 0.035688505 -0.019040847 0.0036635143 0.03843117 0.035098147 -0.0074446406 0.047491822 0.03762334 0.03250217 -0.01288816 0.057890434 -0.021841368 -0.013706896 0.07017456 -0.007611971 -0.0063549145 -0.018501151 -0.043872114 0.069195285 -0.08046609 0.0099797975 -0.028786294 0.014467005 -0.007894707 -0.062429007 0.028554354 -0.041937083 0.039124645 -0.036953148 -0.054102458 0.028980464 0.057890173 -0.04511017 0.008080002 -0.08364042 0.054522082 -0.017359314 -0.055079456 0.0757347 0.033319753 0.06236663 0.065355234 0.075411454 0.040710617 0.03698333 0.011414431 0.052588705 -0.0025997623 -0.061270654 -0.0040411483
ran 0.02693349 -0.048256427 -0.01645144 0.01960326 -0.010381488 -0.10850669 0.033165775 0.028119694 -0.011011556 0.10354994 -0.00056970643 -0.045669056 0.07642405 0.038549032 -0.04756724 0.10324021 -0.06332456 -0.08589639 -0.015700174 -0.0484594 0.102533825 0.062063687 -0.036192004 -0.0430596 0.01660353 -0.04439198 -0.024794327 -0.0587369 0.12226676 0.041472442 -0.050634593 0.10196898 0.09036936 -0.09064553 0.04720096 0.036003824 -0.06641335 -0.0062551857 0.10096223 -0.029798023 0.009407435 0.037907567 0.023308488 0.015393757 0.03688851 0.05609563 -0.013755722 -0.02476366 -0.023190623 0.0272445
hate 0.015215325 -0.03335067 -2.5083544e-05 -0.033856355 -0.0039322237 -0.042155813 0.045338105 -0.036182474 0.025443511 -0.03132012 -0.029572245 0.06383703 0.07416503 0.08536011 -0.037971642 0.013453404 -0.008564872 0.02273045 -0.036194522 -0.054594494 -0.058025666 0.0877022 -0.009790102 0.066643305 -0.06340704 -0.028351579 -0.05506377 -0.04671892 0.044585958 0.0692418 -0.084993936 0.02262741 0.013261888 -0.0026124872 -0.032153886 -0.007892435 0.020054366 0.048813026 0.0070352755 0.049812432 0.06916427 0.012083197 0.037179176 0.0003540757 -0.049766835 0.00030663086 0.005929141 -0.009976255 -0.06068766 0.010011832
venture -0.07672934 -0.034226302 -0.02700238 0.033364527 0.057029378 -0.06525986 -0.056148242 -0.027493913 0.023996044 0.036675025 0.051489018 0.081466496 0.04769929 0.02852792 -0.0524784 0.033207968 0.039130658 0.008235781 -0.008875524 0.042098783 -0.0071412465 -0.034144178 0.051335014 0.03375785 -0.009935912 0.043682102 0.007800089 0.06421978 0.035844512 -0.0076129558 -0.0365192 -0.03864114 0.059925012 0.03564552 0.046283696 0.011498102 0.028466538 0.045684025 0.0101680495 -0.07718304 -0.044767506 0.027462816 0.004600802 0.03699343 0.0075224694 -0.037095744 0.010452613 -0.0143378675 -0.02575044 0.058826946
matter 0.023485506 0.037333574 -0.08547858 0.062451433 0.04324442 -0.020867474 -0.024104187 -0.07808031 0.029654587 -0.0319733 0.085895516 -0.042222697 0.08083322 0.02074702 -0.06282813 -0.00369452 -0.038952768 0.010289546 0.06306858 -0.07687122 0.08098674 0.05222908 0.009426499 0.056579575 -0.06910753 -0.07654875 -0.011785145 0.07283504 -0.039706156 0.031462368 -0.084142275 -0.0059415633 0.07136348 -0.058741245 0.036129206 0.05020338 0.039440826 0.08760788 0.051739864 0.015382927 -0.039606098 0.062196035 0.07715348 -0.035162218 0.020261128 0.003282198 0.00085022324 0.02395158 -0.05171832 0.007454382
hippopotamus -0.06811443 -0.044258438 0.049987108 -0.0027559474 0.037305456 -0.06609626 -0.028654154 -0.08010499 0.018599752 0.032580774 -0.046119925 -0.023036325 0.03587845 0.007250589 -0.021514472 0.0478523 0.024778496 0.013475584 0.031850852 0.03669789 0.08088458 -0.04795352 -0.045129124 0.04102413 0.043677025 -0.034617133 -0.009243495 0.009069562 -0.030766841 -0.0002485197 0.014795698 -0.051149175 -0.029656984 0.0010999329 -0.058915023 -0.014700944 -0.06560322 0.07003773 0.0059824055 -0.05222794 -0.040735964 0.065877594 0.00059374305 -0.025857192 -0.034152236 0.030632772 0.027373277 0.049496952 -0.024726951 -0.037268475
yesterday 0.019447625 -0.06921688 0.035614554 0.008329325 -0.010057678 -0.004822742 -0.03171683 -0.011558729 -0.051654097 -0.033873104 0.015892446 0.016291171 0.0013943721 -0.0036836811 0.04910297 0.021231774 0.000646963 -0.07315591 0.017802412 0.033662613 0.009096603 0.029592585 -0.06482963 -0.042846635 0.04098962 -0.06814902 -0.058023456 -0.03351193 -0.021120613 0.0065466124 -0.08017667 0.03352157 0.08360945 0.053244386 -0.052565098 0.061582778 0.017266639 -0.04734509 0.036375944 0.021510996 0.06348867 -0.053868555 0.061344936 -0.016875727 -0.0079753 -0.043200333 -0.0213686 -0.08253517 0.011618409 -0.05500353
get -0.110398084 -0.040770914 0.031542394 0.092968866 0.0123757 -0.017578214 0.0792876 -0.10881288 0.06435438 0.037863806 0.08237237 0.13581347 0.086562395 -0.013244087 -0.045947053 -0.022654837 0.05504124 0.010002879 0.08723116 0.04279987 0.085314386 0.11362683 -0.10418009 -0.024650356 -0.100096904 0.035637572 -0.01794121 0.00833954 -0.005206761 -0.0007013576 0.0050689555 0.056661543 0.06756972 -0.044329807 -0.107367955 0.09218955 -0.07584611 0.019077262 0.054082464 -0.044835288 0.0888968 0.089973316 -0.05028624 0.120025046 -0.059057586 -0.012439644 -0.1323898 -0.050385565 -0.1001317 -0.056808956
bats 0.015328877 0.011806998 -0.0012160626 0.027847068 -0.008557645 -0.015541193 0.019361936 -0.04464535 0.007050464 0.098283924 0.034252435 0.10874268 0.1188913 0.09005732 -0.10412702 0.071953736 -0.060439054 0.003942943 -0.01930525 -0.030249977 0.019963175 0.08758614 -0.09116655 0.0678117 -0.0026730238 -0.045087196 -0.09864034 0.046188552 0.06752408 0.08686935 -0.057222746 -0.016594026 0.108526774 -0.0552032 -0.0021968568 0.003377032 -0.043177273 0.043063637 0.104907215 -0.09825245 0.016186249 0.039337203 0.08232732 0.052775532 -0.09311975 0.08422634 -0.07558004 0.0061577274 -0.056319084 -0.010947637
tale -0.0010158079 -0.0076616043 0.009786449 0.062089734 0.03164837 -0.014291733 0.01639354 -0.08093003 0.07715983 -0.028877966 0.031355806 0.016500639 -0.02971371 -0.016311292 -0.029073166 -0.036678426 -0.04923065 0.009837245 0.017794687 -0.04952054 -0.023035731 -0.04278265 0.031138383 -0.047882475 -0.05601192 0.009010304 0.0066382694 0.090444595 0.022689799 0.03626027 0.024474993 0.029771257 0.0040099416 0.02106274 -0.101674266 -0.007413197 0.025356365 0.016524801 0.042040948 0.036378328 0.023579003 0.031315897 0.07781192 0.06857554 0.034315802 0.07660633 0.015034158 0.0019206571 0.025345996 -0.08490644
hedge -0.026111927 0.035099484 -0.06874569 -0.029063825 -0.0512566 0.05546777 0.07525695 -0.027340196 -0.049954012 0.00699975 0.062019635 -0.0338139 -0.041915018 -0.0009858761 0.0012863523 0.037719835 0.04557923 -0.056555424 0.040343903 -0.056203276 -0.020737898 0.0049872035 -0.0420637 -0.00073201105 0.010265946 -0.068275146 0.047947124 0.04140662 0.036058515 0.06411597 0.05490642 0.0529354 -0.02095545 -0.057888616 0.03226229 -0.048831694 -0.012804421 0.0011254563 -0.050400373 -0.04199613 -0.017157296 0.033366863 -0.019190589 0.06942308 0.037940666 0.06587134 -0.013691836 0.010203817 -0.008480566 -0.011269041
nicely 0.046873793 -0.037712626 -0.033326123 0.0091242045 0.035985425 -0.052417267 -0.05159973 0.052150898 0.01664851 -0.040600713 0.056459498 0.039061915 -0.009681032 -0.032922294 -0.053758167 0.0046623563 -0.06432035 -0.0071667954 0.08366034 0.048206165 0.080231644 0.008022266 -0.08178671 -0.047254033 -0.046449866 -0.012988182 -0.05075722 0.017314367 -2.3402972e-06 0.031372424 -0.04604909 -0.05506903 0.025248498 0.049328145 0.040178828 0.028707027 -0.041523762 0.05839582 -0.05437469 -0.003913633 0.06580168 -0.034436103 0.016058173 0.045454297 -0.07661025 0.039454114 0.038575284 -0.0019848037 -0.046185914 0.0048996517
pressed -0.058169104 0.031384718 -0.055559333 0.06540391 0.066038184 0.0154436845 0.0039063403 -0.037228692 0.021316385 0.075841434 -0.023548 0.045809608 0.05414487 -0.039284647 -0.06637159 -0.028206706 -0.08194177 -0.021632163 0.050434157 -0.03446158 0.0522545 -0.013952296 0.007146096 0.004516055 0.0016679857 -0.06237488 0.0091386605 -0.019913564 0.026516508 0.07600331 0.03586927 -0.052973498 -0.03869418 -0.0068975063 0.04885568 0.037162345 0.05015295 0.022967545 0.06031427 0.030960128 0.04907836 -0.05286133 0.009585991 -0.029880784 -0.028724395 0.051892977 -0.011115836 0.05230463 0.006430408 -0.07216203
seaside -0.03330944 0.03299365 -0.044971157 -0.050164428 -0.013527021 0.0154438345 0.060039237 0.0018113168 0.029309366 0.023683097 -0.038997494 -0.013803491 0.008301012 -0.036901556 -0.0044695013 0.06900296 0.035261534 0.0028748128 0.019385086 -0.029423403 -0.03874814 -0.03347377 -0.032645024 -0.04670935 -0.07473959 -0.05540479 -0.05959903 0.06440512 0.014957806 0.021834232 0.024764959 0.024945565 -0.0057895477 0.032389946 0.012718719 -0.036070883 0.013567321 -0.054285016 0.008498155 -0.02931805 -0.0055430215 0.058659002 -0.050612774 0.0084456215 0.016993012 0.02345844 0.06037162 0.03848251 0.009280282 -0.02402283
particular -0.03252909 -0.04713497 0.014798042 -0.040451963 -0.053800255 -0.045189466 0.048765 -0.06953607 0.053912424 -0.009009921 0.00064804486 0.0776742 0.017446313 -0.060303137 -0.021053176 -0.014386807 0.04018689 -0.0048846663 -0.026891604 0.03653367 -0.003919371 0.0055639604 0.04273305 -0.053437527 0.026082298 -0.029028334 0.020808255 0.041420523 0.013487259 0.062203262 -0.022899432 -0.016444815 -0.027394466 0.04310795 0.055877402 -0.043910027 -0.028869322 0.06883438 -0.041532055 -0.06072717 0.048753448 0.039371785 0.06236931 0.010707824 0.053253926 -0.005887704 0.046949174 -0.06220687 0.039748825 0.015122605
field -0.04541034 -0.05735776 0.0055459826 -0.036185555 0.04608262 -0.008539238 0.042446863 -0.06363504 -0.06646924 -0.001963243 -0.01710052 0.07109549 0.062391445 -0.046606 -0.0332786 0.018527504 -0.05257031 -0.0731903 0.009325331 -0.0030934592 -0.034743167 -0.03648423 -0.07616247 -0.04719352 -0.07114458 -0.028760517 -0.048847213 -0.01698998 0.024429142 0.034629837 0.004290331 -0.044605546 -0.026682863 -0.009749341 0.017315824 -0.011397912 -0.007861729 0.050265748 -0.024877667 0.0004818025 0.064238325 -0.03274038 0.025406346 0.060443826 -0.028223705 0.055771865 0.059442993 -0.03578397 0.032659583 0.034950897
legged 0.038837068 -0.023008041 -0.007826881 -0.014890229 0.022419803 -0.057913873 -0.038083583 -0.03612213 0.059222806 -0.0014997049 -0.016082387 0.04958634 0.030646013 -0.05384315 0.054918848 -0.0043017566 -0.0071404967 -0.025583688 0.034471653 0.054331094 0.052351683 0.050098598 -0.06499666 0.0016419333 -0.07628985 -0.023728825 -0.04979811 0.065496266 0.032871965 -0.03994187 0.024684785 -0.044398297 -0.013065852 -0.045461383 -0.033604488 0.038103133 -0.040649265 -0.03202181 -0.003814525 -0.029885817 -0.0039850706 0.027899344 0.07770827 0.07220976 0.042365797 0.056652345 -0.07348518 0.042246845 0.032062616 0.0010455629
inches -0.036274586 0.0073222294 -0.05242533 0.06541906 -0.020589132 -0.05263518 0.06586037 -0.051613618 -0.02135022 0.09062271 0.0021647625 0.044443894 0.060036562 0.028302047 -0.0869285 0.034021527 0.033144813 0.010215324 -0.022635752 -0.022982081 0.0057195053 0.07882283 -0.001239486 0.051999558 -0.06353512 -0.03188862 -0.02242 -0.0050544413 0.08949976 0.010728041 -0.029112116 0.06224391 0.093320265 0.0039550485 -0.021633025 -0.029173322 -0.04409004 0.0945749 0.08907016 -0.1001011 0.060644027 0.08208901 0.078208745 0.014013373 -0.0949187 0.014454476 -0.028897164 -0.028771613 0.037520576 -0.08094087
shoes -0.074417844 -0.061719824 -0.03566521 -0.030944679 0.080338985 -0.037342526 0.03857505 -0.06430553 0.055627268 0.028842926 0.06646389 0.043255 0.031244805 0.011374545 0.03323871 0.07068621 -0.0054242723 0.035298355 0.0729811 -0.07575846 0.034261186 0.0670179 -0.006403293 0.0739055 0.015280796 -0.06085945 -0.057214268 -0.027394634 0.0396845 -0.023273252 0.00795359 0.06445547 0.07433493 -0.07677044 -0.0118213 0.049144793 0.028785206 -0.040970452 0.0015392258 -0.017215636 0.009997702 -0.0047936714 0.073586 -0.026202735 -0.006771398 -0.03594108 -0.05270023 -0.08350449 0.008754453 -0.0055445787
rather -0.01033007 -0.034711678 -0.028195925 0.07368561 0.037197024 0.019988116 -0.02547228 -0.038627744 0.023877598 0.012289616 0.05644702 0.041562676 0.12598118 0.030982915 0.0021946076 0.025853867 -0.070354186 0.023132551 0.037993036 -0.06830906 0.037999585 -0.003318132 -0.084754266 0.07733612 -0.07255396 -0.0030443284 -0.074356966 -0.022283928 -0.006867203 0.046965998 -0.0046711154 0.002119427 0.028447468 0.0083641205 -0.075023 0.123407334 -0.08236728 -0.001743208 0.019376684 -0.01792397 0.07339527 0.0045801 0.08133109 0.05323259 -0.10348755 0.04076496 -0.015499292 -0.073356554 0.011885257 -0.031748936
deeply 0.020759353 -0.054001883 0.057671145 0.04992378 -0.0045158076 -0.04184016 0.07134598 -0.050868005 0.008528353 -0.0073413285 0.06183077 0.020684484 0.04666868 0.0146734165 0.035627663 -0.012585047 -0.081249885 -0.035538092 0.066679224 -0.04380873 -0.02063775 0.022465833 -0.06563481 -0.02918925 -0.0049683824 -0.023109552 -0.023324989 0.043736257 0.0011931333 -0.03974308 -0.03506676 -0.03579428 0.071833625 -0.03874045 -0.047074057 -0.053658206 -0.024996644 -0.037070025 0.048983302 0.002306805 0.023275852 0.02675147 0.058749832 -0.037074815 -0.024675751 -0.0023032129 -0.043605432 -0.015034706 -0.041182797 0.018078564
advisable -0.004577564 -0.038615324 -0.002902621 0.025482593 -0.030290145 -0.009225316 0.09484743 -0.0660849 0.04315047 0.08412948 0.04221885 0.018937618 0.004524332 0.049261328 0.007601827 0.0030740183 0.028492397 -0.060234394 -0.003948304 -0.044600315 -0.01812658 -0.042228185 -0.06952752 0.05549759 0.011863249 -0.09267208 -0.026055707 -0.029500624 0.051601477 -0.013336556 -0.025137354 -0.03474522 0.064872965 -0.010434638 0.055547982 0.029273842 -0.049065262 0.04521064 -0.010837834 -0.07489982 0.01205136 0.09738447 -0.010038715 -0.00052264717 0.014084483 0.06618013 0.02136937 -0.035660297 -0.060258973 0.048338614
blown -0.07564052 0.016704265 -0.057008598 0.034243412 -0.0066701863 -0.021197287 -0.04884219 -0.080498286 -0.051589508 0.026497496 0.009358256 -0.05263593 0.035406414 0.0779962 -0.044331603 -0.052488532 0.03350082 0.026695807 0.012982513 -0.055444524 0.0016585862 0.03085033 -0.029429944 0.008973914 -0.044225577 -0.053519968 -0.02126016 -0.019043328 0.057460513 -0.04431015 -0.0606454 0.02294241 -0.030324131 -0.01547515 -0.0027150558 0.06250897 0.049410056 -0.00042209227 0.022222646 -0.04392525 0.057131812 -0.013044693 0.06312158 -0.007968701 -0.008695197 0.06855648 -0.042649396 -0.045532733 -0.03940416 -0.014607011
deal -0.094865434 -0.027899472 -0.06616504 0.08265612 0.06929488 -0.023963673 -0.027874192 -0.02487662 -0.008925352 -0.025776647 -0.02093327 -0.00534489 0.048405353 0.023685658 0.023674276 -0.030893855 -0.031456918 0.029036384 -0.009089924 -0.010456069 0.059811767 0.07441878 -0.06309927 0.01429833 -0.04855112 0.029466616 -0.022350717 0.021482408 0.10366902 0.0032215575 -0.0024009412 0.08926607 -0.025050115 -0.026262054 -0.04410605 0.025635729 -0.10053544 -0.007863404 -0.008708236 -0.031589452 0.053876873 -0.038170036 0.074558415 -0.006894826 -0.0152622815 -0.026009977 0.015781695 -0.09258496 -0.05458062 -0.0050644684
past 0.02235813 -0.07202816 -0.0036776257 -0.0432931 -0.037782867 -0.052657627 -0.03764034 -0.036785606 -0.016968684 -0.04138851 0.050318256 -0.0064844126 0.006687931 0.055269126 -0.006513419 -0.030052096 0.008371076 -0.04223757 0.006250548 0.033087958 0.060983613 -0.03660096 -0.0634039 -0.014773193 0.0597581 0.02320921 -0.051781572 -0.061452325 0.07018124 -0.04590295 -0.015034746 0.0066675865 0.015939105 -0.07894746 0.02840565 0.041688412 0.05028061 0.03290693 -0.01678415 0.021733308 -0.007973778 0.0514966 0.023995796 -0.02340486 -0.056149963 0.078808084 -0.07991397 -0.0064731254 0.017753549 -0.014628436
curtsey -0.060140494 -0.07520149 -0.048105773 0.0006249114 0.06626406 -0.022202302 0.06281948 0.051473375 0.0068066884 0.05026901 -0.02269297 0.0094442945 -0.023465602 -0.0502891 -0.039102454 0.060601633 -0.07988785 -0.055761132 -0.007782038 0.05073981 -0.03280657 -0.016926926 0.014745629 -0.02294522 -0.0703589 0.0047941282 -0.07532673 -0.021073326 0.054109927 -0.034568567 0.02550167 -0.040034946 0.0037279422 -0.06798501 0.023456171 -0.01974776 -0.0074984054 0.060099605 0.01304975 0.0517249 -0.013640583 0.00058724696 0.006285156 0.07688472 0.05761894 0.02864432 -0.06297609 -0.013342464 -0.038903154 -0.0038749406
jumped -0.04812961 0.0071252882 -0.044568323 0.05160649 0.08342046 -0.004788299 -0.029976632 -0.051964745 -0.0516367 0.025316503 -0.00841156 -0.07430535 0.012954506 0.07402193 -0.07234136 0.048801158 -0.019361759 -0.044555355 -0.03680853 -0.07310651 0.024063678 -0.051468134 -0.057415996 0.048077486 0.0167616 -0.07216545 -0.06802571 0.03032757 -0.039194733 0.041710597 -0.05010726 -0.016345974 0.06737387 0.045750454 -0.0092324205 -0.04240449 0.055440567 -0.01663604 0.030727198 -0.035165604 -0.015556438 0.035599712 -0.04696228 0.031059483 -0.005904407 0.04596887 -0.012135428 -0.050144948 0.050922137 -0.04504028
morcar 0.007315613 -0.06627761 -0.014491326 -0.025366025 0.05764505 0.030989068 -0.022270096 -0.029966328 -0.017514778 0.06978528 0.04928827 0.009752376 0.017155068 -0.027592659 0.0148755545 -0.028326986 -0.079800345 -0.016135495 0.07497557 -0.034538746 0.013618026 0.01786345 -0.08414756 0.0136494925 -0.0800967 -0.06875001 -0.059725612 0.013779093 0.017467806 0.09498001 -0.06957505 0.077626295 -0.021108745 -0.0012947719 0.0033151298 0.0042572063 -0.011397368 -0.007985779 0.0220824 -0.019301493 -0.021536121 -0.0069829347 0.036479086 0.06133485 -0.0044136094 0.041714095 -0.059869092 0.039678797 0.049852986 0.018673029
able 0.0554647 -0.044585653 0.056964826 -0.023006456 0.059834555 0.00968549 -0.009649098 0.004466737 0.047136944 -0.0118530365 0.0036716799 0.027027855 -0.021611935 0.08229987 0.034355666 0.03190919 0.00737593 -0.07893369 -0.032401357 0.015026661 -0.025620835 0.0128343245 0.05370014 0.056883737 -0.070550226 0.031018648 -0.042513523 0.011577673 -0.008377199 -0.010753536 -0.016328491 -0.031080978 -0.0009962722 -0.026731536 0.015258271 0.06318714 -0.03494312 -0.053820673 -0.03839299 -0.006072721 -0.01937395 -0.036202285 -0.018943481 -0.02711337 -0.049755532 0.07043383 0.05170848 -0.03609486 -0.071052425 -0.057664525
sounded -0.050597835 -0.07669969 0.010996734 0.053080924 0.042604525 0.042225 0.018754339 -0.008509546 0.05106636 -0.006085164 -0.032338433 0.05857426 0.014301203 0.045897294 0.0056959675 0.028182501 -0.06737653 0.011694847 0.06293823 -0.05932735 0.0019425204 -0.011775253 0.046637844 0.014309176 0.0052467696 0.054612894 -0.049570467 -0.0024029808 0.01102913 -0.03135808 0.007397956 0.07092643 0.010390333 -0.05729376 -0.042250324 0.010986485 0.048584227 0.027506154 0.027271274 0.013731132 0.013480905 0.07781482 -0.029123556 0.004056362 -0.005877479 -0.010836788 -0.021954235 -0.07244737 -0.0024647824 0.014761658
jaws 0.03509077 0.01106366 -0.052726276 0.053139985 -0.00653176 0.05432105 -0.041670687 0.0047116084 0.024080746 -0.010686383 0.07314759 -0.055562183 -0.034768563 0.08073966 0.049938176 0.07314389 -0.03367244 -0.059571106 -0.040442105 -0.06210766 0.07459574 0.04451855 -0.07773546 0.047193713 -0.025971938 -0.02877764 -0.045185413 0.017779566 -0.017492676 0.070723236 -0.08123976 -0.02618264 -0.009543398 -0.07576886 -0.034330346 -0.045987662 -0.07544816 -0.016121516 0.038284242 0.015803628 0.028314555 -0.022555131 -0.0028108964 0.04114457 -0.023261879 -0.02685276 0.0020816657 -0.063488476 -0.0034174505 0.010416923
rapidly -0.060807183 0.039754923 -0.06326885 0.07482149 -0.013763513 -0.0788278 0.01453318 0.0077884668 -0.06005324 0.0051809433 0.025495749 -0.04323427 0.0072956085 0.054027464 -0.044607703 0.06418805 -0.06979747 -0.038286146 -0.0025722855 -0.0017607333 0.07206067 0.013221812 0.036901277 -0.05709333 -0.060248364 -0.0531741 -0.013884618 -0.025721736 -0.010310355 -0.013000412 0.058728043 -0.01847994 0.06889826 -0.041698575 0.01027395 0.014613997 0.004653357 0.0445281 -0.054863688 0.022917235 0.01196702 -0.05589814 -0.037592392 -0.05476362 -0.0500264 -0.031464547 -0.021664802 -0.0077356696 -0.047054313 -0.048392586
meeting -0.05123509 0.04177987 0.016216863 0.021070506 -0.03205679 0.006666109 -0.034532584 -0.011864076 -0.029488824 0.058399744 0.043273553 0.039030604 0.07901109 -0.052662533 0.021575944 0.06700285 -0.03942973 -0.04529788 0.0320455 0.04339011 0.015982158 -0.057633888 -0.05096989 -0.036964025 0.015415974 0.05534891 0.015983943 0.002799993 -0.060039047 0.054795235 0.010934372 0.08215975 -0.051134277 0.02370323 -0.03965406 0.011511095 0.017301273 -0.011216037 0.01843557 -0.05410958 -0.031437937 0.056224912 -0.0101340925 0.04099495 -0.02074 0.045127843 -0.06226961 -0.045102697 -0.07396196 -0.009929682
leaders -0.061258294 0.018667037 -0.033933092 0.031438164 -0.032897726 -0.024933502 -0.020915523 0.04565858 0.02049083 0.060315493 0.047292843 0.010481929 -0.03298508 0.0055354577 -0.04269097 -0.005355129 -0.062034447 -0.013863714 0.01196543 0.02730846 -0.04220791 0.025140626 -0.05970927 -0.04858121 0.04836472 -0.03877484 0.013283126 0.040358253 0.0005371084 0.061052617 -0.067250684 0.011103091 0.03118594 -0.039290678 0.052639194 0.07308762 -0.06932472 0.025131527 0.070408314 0.024760114 -0.049898818 -0.04921901 -0.036544487 0.05692024 0.006998212 0.030911708 -0.007847088 -0.056968436 0.041750852 -0.040686447
soothing -0.041242946 0.0047576884 0.05497604 0.039514787 -0.018053923 -0.004827589 -0.022566905 0.015360452 0.016916981 -0.009302536 0.00975844 -0.029095797 0.056200385 -0.02647592 0.015265401 0.003836256 0.037112657 -0.058004647 0.039907705 0.053035516 0.05785736 0.014727924 0.011399999 0.044118028 -0.073401354 -0.05391424 -0.010932099 0.06782829 -0.038863234 0.01754917 -0.015186574 0.058568817 0.079011075 -0.04328462 -0.0085657695 0.018886536 -0.05913855 -0.0026373025 -0.025710674 0.052140106 -0.04268605 -0.010547038 0.03764013 0.06310553 0.016443722 0.0030875998 -0.08070066 -0.012971801 -0.03664773 0.035112925
best -0.028620152 -0.004246482 -0.119475365 0.032104652 0.047143184 0.059034236 0.006087388 -0.13640939 0.014479598 0.027103424 0.09133073 0.089924596 -0.010662895 0.01276014 -0.05605819 0.07867857 0.0385231 -0.05566191 0.03084192 0.020199545 0.08852371 0.041134544 -0.012081354 0.03857535 -0.09734707 -0.073026285 -0.10429712 0.11696528 0.043022685 0.03818745 0.013010373 0.0078023546 0.10115396 0.01125237 -0.083607234 0.033839453 0.020101141 0.020137684 0.07592627 0.0023311146 0.06365647 0.117955625 -0.020124018 0.09212943 -0.07932195 -0.0080663385 0.0048441878 -0.062448684 -0.04744289 -0.0142872315
bank 0.0074574924 0.05076344 0.010556075 -0.058890074 0.05656601 0.048599616 0.049035132 -0.04737243 0.04469113 -0.038200323 0.021135805 0.07362164 0.07468196 0.022955265 0.04086042 -0.009285791 0.0015638085 0.056756683 0.016951626 0.05774503 -0.014398906 0.020583605 0.08156424 0.0029270742 -0.005410867 0.027274355 -0.022132447 0.02877441 0.06621588 0.016995376 -0.08381927 -0.015629405 0.005686025 0.025651976 -0.07766349 -0.015603864 0.030341271 0.05904871 0.031100845 -0.02434106 -0.053032603 0.040678304 -0.025621181 -0.052937668 0.02295531 0.050831668 -0.0009824523 0.030881269 0.019658027 0.03680353
cool 0.013859665 -0.059379034 0.0045983708 -0.044647656 -0.055618588 0.0046097375 0.071184665 0.039481387 0.06076444 -0.05385509 -0.011536825 -0.061057337 -0.02798795 -0.022984171 -0.06659953 0.04572812 0.009114265 -0.029228734 0.02366485 0.036338992 -0.046037108 0.039472826 0.0038139457 -0.040559597 -0.063438684 0.036014184 0.010456305 0.004947291 -0.041150894 0.016680796 -0.02557068 -0.050121922 -0.0029783375 0.015040483 -0.015003238 0.03248728 0.05821742 0.074930795 0.005902636 0.04356967 0.002625627 -0.04851204 0.03531584 0.021016564 0.03174539 -0.039998513 0.004936478 0.048240997 -0.011639751 -0.03725735
declared -0.04180407 -0.00025582337 -0.081731655 -0.04285557 0.03007414 -0.07464621 -0.053176306 -0.014026622 0.02438856 0.05249213 -0.0059618847 0.023535088 -0.021429379 -0.026568882 -0.0064434577 0.04714316 0.02454966 0.011980265 0.019782424 -0.057866793 0.0012438518 0.045592465 -0.052482292 0.022327643 -0.02538729 0.05839677 -0.014284792 -0.04147896 0.017972488 0.01663094 -0.0659382 0.013709715 0.06930927 -0.058916487 -0.05372116 0.060199637 0.013074484 0.026136639 -0.0033022785 -0.07899103 0.071522586 0.024133198 -0.013894794 0.02763452 -0.041401546 0.0148767 0.05701235 -0.07692071 -0.053367745 -0.06593354
hole -0.018418854 0.013899619 -0.0017872426 0.08237644 0.029423764 -0.09420984 0.08790416 -0.09474823 0.015771229 0.011536808 0.010031027 0.026167838 0.07426401 0.06908731 0.027981572 0.09708581 0.01031736 -0.08702647 0.09871943 -0.10588633 0.06957863 0.096888684 0.0026810102 -0.029452907 0.008796208 -0.036222424 -0.061261736 0.053789414 0.038805906 0.069000855 -0.09195597 0.1072579 0.031086514 -0.060006592 0.0010155085 0.06863451 0.0026844188 0.011601571 -0.027829126 0.014141985 0.008077849 0.0976388 -0.0064151017 0.0012321171 0.0012583612 0.03445391 -0.024099523 0.010104904 -0.08676871 -0.052968513
number 0.05354581 -0.07087972 -0.057549465 0.072648935 0.05965659 -0.06821547 0.0014289677 -0.04688139 0.023385597 -0.039874833 0.0010232884 -0.0018181531 0.04080954 0.041350566 -0.036962543 -0.006315563 -0.044906452 -0.055364598 -0.03051748 0.044296987 0.030038657 0.029141793 0.030601319 0.062731735 -0.04860613 -0.048400998 -0.014603 -0.02228115 -0.0126499 -0.028283246 0.01693207 -0.03547575 0.056414273 -0.0073368875 -0.0044817356 -0.0066857915 0.013697523 -0.063717365 -0.00094713026 0.009524347 0.00350333 0.034202278 0.07517877 -0.007930337 -0.059280377 0.031204633 -0.05600635 -0.027104868 -0.0650172 0.0022719041
turned 0.009414768 -0.042133417 -0.05351946 0.06318076 0.02337734 -0.09625943 -0.031901438 -0.044702843 0.00039757194 0.08929382 0.059066363 0.076411 0.08858301 0.021600597 -0.035515327 0.07282926 -0.11012494 0.06692693 0.10698921 0.012594979 0.08080729 -0.04829892 -0.035143442 0.07526211 -0.018534008 0.07034471 -0.023882903 0.081746645 0.070233576 0.066608 -0.042998694 0.089496374 0.0016603051 0.019074041 -0.07606019 0.019369503 -0.03448565 0.10563065 -0.033442687 -0.059602078 0.04731556 0.046051778 -0.005018103 0.030632695 -0.040054087 0.0883021 -0.0068186605 -0.08341026 -0.07035588 0.035040677
angry 0.013738804 -0.085222386 0.019791087 0.020796636 0.0029041453 -0.045503568 -0.0033201529 -0.08444618 -0.028807217 0.080887444 0.06849582 0.03678523 -0.0037009856 0.084753886 -0.06559982 0.02167381 0.0350808 -0.074094884 0.004370103 0.0023245919 0.07657022 0.06435472 -0.019733574 0.095162384 -0.09039937 -0.09707754 -0.015593967 -0.025132298 -0.013771254 -0.03685421 -0.06291385 -0.017650202 0.039646506 -0.022299394 0.009651236 0.069731966 -0.041504312 0.07297679 0.04423141 0.02822119 0.03248158 0.020934092 0.014003416 0.023794215 -0.05108474 0.016700966 -0.029123886 -0.09035967 -0.050564107 0.024096001
shore 0.029270591 0.057664044 -0.000293685 -0.032431714 -0.018363042 0.043620005 -0.020497512 -0.04959838 0.023916623 0.0041293628 -0.020288058 -0.014350919 -0.019175485 -0.04979341 0.017557576 -0.046288796 0.043725103 -0.04932759 -0.01864172 -0.020644166 -0.035042807 -0.055261698 -0.047657233 0.010096308 0.02421891 0.046092674 -0.061519664 0.01328813 0.05916296 -0.026076078 0.009715782 -0.00034690008 -0.016748318 0.01778586 0.026186477 0.05560107 0.055015676 0.027919091 -0.044165075 0.049886763 0.052781746 -0.03340735 0.066668786 -0.019314522 -0.038758088 -0.010942228 -0.009650591 0.012661241 0.029220697 -0.025386667
cried -0.0717356 0.047591086 0.0094934525 0.06581484 -0.018485261 -0.005701469 0.046093028 -0.021904465 0.019914027 0.108558536 0.037342023 -0.035937935 0.07304591 0.09892773 -0.013777999 0.03341452 -0.057836372 -0.10552056 0.04554777 -0.07972123 -2.8082868e-05 0.0021942856 -0.11968779 0.055195283 -0.10697838 -0.103608534 -0.010718168 0.05765418 0.034696903 0.09096805 -0.12594943 0.09559463 0.036896914 -0.086651474 -0.032629404 0.03202017 0.01041432 0.036664043 -0.015119794 -0.001747164 -0.0058255782 0.022933464 0.099608906 0.022676283 -0.032919854 0.046040677 -0.0124804145 -0.118319675 -0.07617171 -0.06593945
apple 0.03575723 -0.03850337 0.041264843 0.053183757 -0.059992276 0.03670128 0.05830193 -0.0683531 -0.0404389 0.035877645 0.026146779 0.0076482487 0.07571086 0.032222852 0.0138890855 -0.012156237 -0.0010328789 -0.02923512 -0.039967973 -0.07679383 0.016735846 -0.004503818 0.035986222 0.023573171 -0.060510788 -0.0103433505 -0.060684916 -0.0013208782 0.074575186 -0.034883928 0.04474488 0.0008010237 0.023514096 0.015371082 -0.048418216 -0.01994625 0.012310335 -0.049620062 0.015464209 -2.3929519e-05 -0.04253807 0.072369345 0.07701278 -0.043535035 -0.01871686 -0.015819179 -0.020196328 0.050733387 0.012268176 -0.039266456
duchess -0.03790088 0.055488948 -0.0220122 0.1078925 -0.03299988 0.04211202 0.08416359 -0.011628621 0.039286286 0.039824843 0.065970704 0.008040373 0.023080852 0.038653057 0.019838613 0.10999928 -0.0862001 -0.04133049 0.11001115 -0.07539948 0.09950288 0.005640408 -0.07251158 0.05001504 -0.021734921 -0.08210337 0.0019665668 0.0025995527 0.113577574 0.10722798 -0.06346685 0.087981015 0.040923554 -0.0931299 0.0005266542 0.0112408595 -0.0068926876 0.07996868 -0.03799247 -0.014222899 0.090814665 0.009862494 0.06085937 0.08632374 -0.104298554 0.016802613 0.026151216 -0.06700178 -0.049375623 -0.049965777
shut 0.035509426 -0.028448466 -0.03989522 0.0759795 0.04057924 -0.0923968 -0.0083015505 0.048749298 -0.03252851 0.02319861 0.052313246 -0.052523322 0.07264529 -0.007930373 -0.09220475 0.08742296 -0.021727394 0.001997978 -0.0073389816 0.016823374 -0.0035281172 0.09154606 -0.0563327 0.005174826 0.048296135 0.020476783 -0.03449629 0.042635188 -0.008955839 -0.018911093 -0.056949627 0.009721268 -0.02207742 -0.042205635 0.01530031 -0.023415674 -0.05014769 0.040307622 0.011404479 0.008340633 0.04647968 0.040907368 0.09119892 -0.022854416 -0.0011659468 -0.027285993 -0.0010929869 -0.04292001 -0.038575783 -0.015770894
twice 0.02694989 -0.05026146 0.01717091 -0.018791923 -0.04155818 -0.057201706 -0.031713832 0.008070887 -0.038305797 -0.012968077 0.04932242 -0.04496023 -0.028698772 -0.032311425 -0.032677386 0.059065185 0.051140353 0.047157943 0.018381953 0.02978076 -0.01746084 -0.038062423 -0.0078053544 0.0093916925 0.048360698 -0.068105884 -0.028587874 0.03570447 -0.045926243 0.008048474 0.0042681796 -0.025526362 0.072712734 -0.064389296 -0.070966616 -0.004867393 -0.03261449 0.07957849 0.045391034 0.009743817 0.07339246 0.012021214 -0.010456178 -0.014395181 -0.056311578 -0.010563564 -0.046690494 0.017847562 -0.0022186143 0.026859097
gravely 0.037686814 -0.059372194 -0.023372255 0.046621993 0.003175171 -0.0247655 0.010101266 -0.02304733 -0.01801487 0.06979752 0.0095288735 0.032722846 0.03703503 0.010324067 -0.048513584 0.059102874 0.034889977 0.0065910164 0.004424677 -0.054300845 -0.002887051 -0.0057070637 -0.034396112 0.082548946 -0.0169526 0.019285653 -0.029531844 -0.026261613 0.011915727 0.07681179 -0.0017342704 0.07226236 0.007415765 0.006308357 -0.01026503 -0.0038366728 0.030169763 0.065507464 0.058275465 0.01825305 -0.0280873 -0.039474078 0.07230364 -0.017737128 0.01735822 0.010916601 -0.06463161 0.0010723564 -0.06431519 0.048414152
sulky 0.051075067 -0.016549358 0.0397495 -0.039906133 0.080042325 -0.06495713 -0.012826805 -0.08252121 0.017161608 0.06698558 0.033816405 0.0015333531 0.01499 -0.028141353 -0.0036322977 0.037878573 -0.01900881 0.0030964008 -0.0061437003 -0.06986646 0.0026724515 0.07184318 0.040328022 0.030865591 -0.0040945727 0.04030436 -0.029808022 -0.053214535 -0.020942573 0.009988409 -0.03688307 0.080939315 -0.055428572 0.022639612 -0.020713968 0.07712422 -0.06396781 0.014933374 -0.050921693 -0.009276734 -0.006331524 -0.04080878 -0.03357988 -0.05435813 -0.066525415 -0.00010876241 -0.066146515 -0.029305363 0.0118691 -0.002941552
reply -0.05826682 -0.009058362 -0.0046657724 -0.0016487984 0.03666698 -0.061846007 -0.036398396 -0.044223685 -0.027790714 -0.03255696 -0.029129822 0.027072126 0.05491022 -0.026981443 0.020988777 0.0263125 -0.06833817 -0.013685213 0.0705827 0.03494032 0.050722968 -0.048808627 -0.0044489736 -0.031155856 -0.019178947 -0.015112065 -0.027981268 0.07370734 0.022572022 -0.034984566 -0.02371634 0.06853519 -0.018263854 -0.06443136 -0.01136126 0.027565677 -0.029827185 -0.038985156 0.058357127 -0.06235921 0.05442819 -0.05092565 0.025767626 0.011959044 -0.04478266 -0.013112967 -0.053306617 -0.07706772 -0.021255543 0.05956953
c -0.049563862 0.04212283 -0.01837565 0.04843653 -0.024210235 -0.028082054 -0.049310274 -0.07845858 0.07519976 0.0074437545 0.035989776 -0.005217201 0.064943895 0.041285284 0.0091908425 -0.038033318 -0.07072261 -0.037001394 -0.030410096 0.04155085 0.027280033 -0.04106106 -0.060425203 -0.03549811 -0.040087808 0.05339109 -0.008542923 -0.038000796 0.05690423 0.045994055 -0.04542403 -0.0048413863 -0.015275262 -0.013335515 0.022783974 0.039937526 0.052917592 0.014527366 0.013708707 -0.08091474 0.0370128 -0.007146704 0.07437291 0.044377677 0.053829588 0.071405165 -0.008216275 -0.04760497 -0.061749328 -0.07283229
being -0.0087274825 -0.0605694 0.03594142 0.04733036 0.046901684 -0.02244014 -0.021941468 -0.0627885 0.10365792 -0.009185594 -0.032592226 -0.01850468 0.06331545 0.00856957 -0.07186173 0.017042914 -0.032282658 -0.024793886 0.06248395 0.0027983044 0.021324225 0.08115564 -0.02555838 -0.027163452 -0.049027227 -0.07310047 -0.06239486 0.0688394 0.048274726 -0.028620256 -0.0337821 0.018357806 -0.022758491 -0.012484001 -0.07861163 -0.012241343 -0.030578917 0.038432866 -0.018059846 0.023978654 0.07968704 0.040361807 -0.0061074686 -0.0049577747 -0.10680989 0.06004206 -0.034534905 -0.044798717 -0.069061786 0.025804615
bend -0.045712236 -0.061630182 0.03858479 0.05830056 0.044248525 -0.035644315 -0.05550458 -0.035072643 0.046138566 0.081625044 -0.010765534 -0.015170893 0.035246056 0.060341172 -0.026904624 0.053012792 0.039625134 -0.06073252 0.075181775 -0.014833109 -0.021259598 -0.048035085 -0.06628632 0.0075913416 -0.06630467 -0.05723517 0.048802122 -0.021877572 -0.011887547 -0.018410156 0.025079487 -0.039403714 -0.046079785 -0.05920657 0.015394539 0.037758444 -0.012704084 0.082621925 0.0037519988 0.04209345 0.011364125 0.066941336 -0.038983047 -0.011783859 -0.05214338 0.0054144226 -0.007934574 0.044604156 -0.040312108 -0.065937854
off -0.06966279 -0.05554666 0.003514519 0.061669245 0.015968138 -0.007673212 0.08785656 -0.034361143 -0.03656087 0.11016733 0.1464662 0.011052373 0.11246896 0.073679626 -0.12250201 -0.014877631 -0.10342938 -0.012929412 0.078835964 -0.0058676074 -0.016819341 0.033066493 -0.011805868 -0.023590717 -0.040628992 -0.039841548 -0.040809594 -0.05210106 0.0033085712 -0.046361536 -0.08539797 0.13197 0.030023556 -0.090750396 0.0033367984 -0.0029814388 -0.06939231 0.12870948 0.01984941 -0.008652545 0.0202636 0.11101875 0.09536217 0.041262757 -0.04602262 0.12610148 0.02838441 -0.07752297 -0.0111800125 -0.0756035
house 0.067676 -0.039076466 -0.07500293 0.09588178 0.05152733 -0.07173373 0.10001653 -0.07287539 0.075505055 -0.04091365 -0.014467319 0.124997824 0.009251129 0.005535598 0.0139705725 0.046286725 -0.020046964 -0.090393685 -0.02887156 -0.07814552 0.061074756 0.028393105 -0.10025688 0.039457325 -0.01006015 0.02147016 -0.03662799 0.09145055 0.0036574858 0.036331963 -0.10010802 0.036176696 0.020888506 -0.02373342 -0.003249297 0.0019449758 -0.005272188 0.041712448 0.016737923 0.01950568 0.05342212 0.13675416 -0.018441357 0.006280362 -0.07339614 0.016857624 -0.027913062 -0.010136721 0.006948052 -0.08906887
thing -0.0597004 0.06939339 -0.096641146 0.031161718 -0.012914042 0.028189344 0.104700424 -0.0020925184 0.049311947 0.047263075 -0.010611562 0.04739071 -0.008051531 0.058172762 -0.103581324 0.063986115 -0.06875758 -0.14256954 0.03712893 -0.016250266 -3.9309496e-05 -0.031214895 -0.021559903 0.07917661 -0.054108255 -0.042366087 -0.1196467 0.07862143 0.0587961 0.0068902643 -0.10859051 0.10311718 0.039484024 -0.05291175 -0.013799236 0.032884315 -0.03733776 -0.0038179064 -0.037075303 -0.018138014 0.026053201 0.046936415 0.07560112 0.022453962 -0.050011415 0.035291597 -0.08158268 -0.07167795 0.010850472 -0.03574508
who -0.045985445 -0.07917565 -0.0015846681 0.038047507 0.07375479 -0.009977503 0.10441268 -0.04521031 0.075324476 0.0777663 0.096888274 0.06858277 0.016420808 0.10569144 0.0076245237 0.10373248 -0.0035975487 -0.095880665 0.11756293 -0.062346138 0.082726076 0.0476548 0.03010236 0.016149204 -0.10409907 -0.100349545 -0.011893735 0.092410326 -0.00796897 0.08081875 -0.016129464 0.08016831 -0.010635302 0.005052407 -0.012449054 0.05882891 -0.10343589 0.025864687 0.00070706673 0.003962034 -0.02898079 0.10540623 0.117689654 0.04937522 -0.11667531 0.019418035 0.030725218 -0.112517856 -0.078356445 -0.023665199
makes -0.038964562 0.008421262 -0.0382408 0.016790252 -0.00661887 -0.064897865 0.09547902 -0.0900052 -0.018821737 0.028164975 0.08832883 0.01608241 0.0038737415 0.03664267 -0.07586742 0.05186809 -0.02770566 -0.088820465 0.01710833 -0.050860364 -0.028990578 0.0906463 0.019834151 0.025060114 -0.0766624 0.023613542 -0.07082664 -0.024554007 0.083580054 0.06430483 -0.083003506 -0.018654095 0.030903988 -0.091667645 -0.03759651 0.0034892473 -0.065562695 0.08650539 0.048974816 0.028401788 0.029657366 -0.016779922 -0.018114273 -0.022463597 -0.0419396 -0.01265626 -0.014977015 -0.061982393 -0.038184308 0.00059793494
wept 0.06578395 0.03742201 0.0011029594 0.014657086 -0.03550189 0.033837095 0.011757683 0.0046185814 -0.04252209 -0.020218674 -0.008927707 0.033800665 -0.0069977343 0.067729324 -0.009156556 -0.040126212 -0.04485107 0.04929776 0.05688913 -0.0054452852 -9.2172064e-05 -0.027697034 -0.054195512 -0.03190391 0.04538298 -0.0059577525 -0.047388498 0.05793722 0.030306544 0.016875021 0.0628886 0.029830195 -0.004611139 -0.04273934 -0.06575259 -0.027227843 -0.0010952647 0.06560401 -0.005834872 -0.07775611 -0.047915116 0.004038691 -0.012170086 -0.017055841 0.011419751 0.024887538 0.033231847 -0.02460622 0.053690303 -0.042201415
heap -0.004797055 0.027883148 -0.06068346 -0.050075937 0.008869967 -0.035722975 -0.05106985 -0.044313148 -0.004752335 -0.001542822 0.0481716 -0.061286125 0.05925463 -0.0008770706 -0.05517044 0.07228901 0.05642623 0.052024573 -0.029972889 0.011081182 -0.023829894 0.033793584 -0.0066553317 0.060979187 0.056235146 -0.062206518 0.028215293 0.0686714 -0.027352767 0.047079474 0.014711082 0.022824317 -0.030666908 -0.016429666 0.03303406 0.005003796 -0.068825275 0.012322349 -0.046135027 -0.071799956 0.0489979 -0.008026973 -0.025181632 -0.007175375 -0.045723367 0.0042495998 -0.033960223 0.02277565 -0.025491979 0.008767914
growing 0.022715025 -0.029452233 -0.013195954 -0.057935964 -0.03292978 -0.011249239 -0.0105843 -0.04144135 0.048119277 -0.0516179 0.02771918 -0.011130847 0.035947315 -0.032109123 0.01855752 -0.040303618 -0.02677673 0.02188671 -0.015992114 0.013086678 0.031136809 0.09111118 0.012838658 0.06403035 -0.076936364 -0.051602792 0.018403072 -0.01777409 0.049861822 -0.026167555 0.06019915 -0.00046021817 0.09114285 -0.03762183 0.047091216 -0.016004592 -0.047546 -0.003372447 -0.02437881 0.003430014 0.06636448 0.011968105 0.024731545 -0.03614491 0.027176127 -0.031690553 0.018289307 0.037952714 0.06950598 0.00038006052
waters 0.032327693 -0.064048536 -0.012161877 0.024165276 0.023840094 -0.06416813 0.04204032 -0.07231913 -0.025998205 0.06119475 0.04847818 0.072706476 0.018118324 -0.053675726 0.06427634 0.014641408 0.022985766 0.027572565 0.006462501 -0.017578676 0.027786793 0.051875714 -0.054004174 -0.019573355 -0.048209656 0.03803371 -0.0065884716 -0.0049364315 -0.026891332 0.032066878 0.00909161 0.058954258 0.015502358 0.013588251 0.05136415 -0.028505418 -0.009166392 -0.0028280448 -0.04554131 -0.0006245101 -0.022601848 -0.048110053 -0.052261602 0.063795015 -0.018654458 0.043102376 0.032374617 0.010564711 -0.025910683 -0.008958427
punished -0.025253808 -0.044954 -0.011044546 0.0027933982 0.035786606 0.01806101 0.038842063 -0.058198035 -0.04363826 0.055727556 0.046578955 -0.027036313 0.07462446 0.0028978975 -0.021397173 0.01928912 0.038418017 0.031449184 0.007137133 -0.03612569 -0.03960513 -0.03324583 -0.02528524 -0.00021122256 -0.009476817 -0.057065696 0.044267237 0.039442755 0.029582012 -0.0047093355 -0.037021216 0.0506046 -0.059416983 0.031775553 -0.06644141 0.064680345 -0.011176707 0.014186764 0.012260962 0.008641031 0.009750703 -0.017792216 -0.00020468654 -0.03417802 0.04197971 0.06998899 0.027287854 0.03966117 -0.02341876 0.020421496
occurred 0.021311099 0.052687343 -0.020339955 0.024890045 0.0058159316 -0.0027673654 0.009532364 -0.034761876 0.074300565 -0.008058615 -0.010210464 -0.0068833316 -0.07094403 0.02461904 -0.04544272 0.05675969 -0.017791739 0.033315748 0.058402892 0.06809427 -0.06813817 0.05689633 -0.056511357 -0.06160525 0.081441045 0.008086662 0.06813546 0.031842034 -0.06973842 -0.03858725 -0.050024018 0.0681671 -0.0032336945 -0.03250397 -0.051033784 -0.037192777 -0.053332195 -0.00905649 -0.018888649 0.014280889 -0.065594584 -0.07453332 -0.037103843 -0.0656102 -0.017928075 0.004219877 0.007951466 -0.0066045844 0.022033699 -0.0004201081
fixed 0.008203069 -0.0011266537 -0.066660605 0.011443311 0.025112033 0.054450277 0.07868647 -0.0007750689 -0.04653142 0.07974035 -0.040118743 -0.01451538 0.07542073 0.007533062 -0.025145536 0.015600085 0.028941419 0.05642618 0.012531017 0.03692523 0.061329447 0.06570174 0.002520075 -0.013263495 0.001916048 -0.04989512 0.032841694 -0.04436591 -0.039436217 0.041206434 0.045418125 -0.039455388 -0.03566375 -0.08275737 0.020253455 -0.013072487 0.03605125 -0.013444599 -0.0071401536 0.022549964 -0.056756567 -0.029589217 -0.019411767 -0.01564322 0.043636013 -0.016982703 0.004842891 -0.019028267 0.04793446 -0.015257828
solemn -0.03046522 -0.04008509 -0.024112156 0.0494165 0.07852813 0.0004431234 -0.0135773495 0.014164039 -0.031982813 0.07188781 -0.013983315 0.029729681 0.010052372 0.004872877 0.008478101 -0.0076979534 -0.01956606 0.018634273 0.034247834 -0.028454393 0.041498378 0.021606343 -0.041444797 -0.009741385 0.061706256 0.009397765 -0.06657859 0.054777168 -0.006106789 0.077839755 -0.06689987 -0.0180841 -0.033502776 -0.011764102 0.037579507 -0.020518962 -0.066876225 0.0095818015 -0.022585422 -0.040753674 -0.039077982 0.057296246 0.05525935 -0.0067584687 0.03868797 -0.049670495 0.04926775 0.012636064 0.0011480653 -9.302306e-05
find -0.09238253 0.007141467 -0.00036994927 0.07382651 0.031058678 -0.016773775 -0.069767945 -0.017122868 0.12519637 -0.01941536 0.062083013 -0.0064405682 -0.036900982 0.07575276 -0.009146767 0.05747564 -0.018849602 0.0054587172 0.12671849 -0.048595537 0.008760704 0.07342061 -0.108405806 0.001895379 -0.050498344 -0.11859986 -0.06251831 0.04228425 0.0016703969 -0.07226386 -0.095747046 0.05506172 0.061741322 -0.02876797 -0.035307948 0.014260458 -0.047462113 -0.017368142 0.026461137 -0.04053031 0.11752545 -0.04783383 0.0015138685 0.103839725 -0.02586196 -0.048457976 -0.13762714 -0.055578317 -0.067186624 -0.062921904
those -0.010765253 0.009467676 -0.058741376 0.08945658 -0.017838994 -0.12596 0.04037208 -0.054994475 0.12068214 0.07483992 0.054688822 0.025559744 0.024962755 0.017723087 -0.03674277 0.085371576 -0.108419605 -0.022265052 0.022375815 -0.046661343 0.06200081 0.04596107 -0.027821543 0.09070341 -0.07187671 -0.090056725 -0.025672423 0.074769914 -0.008933452 0.05290953 -0.037821878 0.08718765 -0.008104848 -0.083681025 -0.04729685 0.09884972 -0.07501951 -0.019106163 0.077751786 -0.10826288 -0.007664078 0.018259749 -0.010058848 0.039898638 -0.10400651 0.07196876 0.0028207684 0.012742211 -0.06940746 -0.1129701
usual 0.03689179 -0.072742596 0.014958006 0.025369717 -0.052063394 0.013413683 0.04539657 0.008571725 0.06954569 0.059707765 0.01935228 0.010228216 -0.050578553 -0.00356288 -0.039070588 -0.035426397 -0.00093519536 -0.054449234 -0.007914743 -0.056318685 0.008668175 -0.010248377 -0.031126961 0.072237216 -0.018331127 0.04798163 -0.03322824 -0.048503768 -0.026357941 0.067060426 -0.06608222 0.08361186 0.08146555 0.03483352 0.023273494 0.025308862 0.008608241 0.06718635 -0.048016287 -0.0735338 -0.0032731753 -0.026645388 -0.012183534 -0.044273015 -0.027364435 0.05261779 0.020761939 -0.064390264 -0.022559926 -0.06758235
climb -0.039277904 0.06046842 0.04144039 0.0022370631 0.06256531 -0.015916122 0.081230134 -0.07145681 0.0049765813 0.054708276 0.06821591 -0.029263252 0.0135087725 -0.017030321 0.032787737 -0.022724226 -0.062066164 -0.011716941 0.045426942 0.018426808 -0.0035354672 0.017038079 -0.01151812 0.039701868 0.032940026 -0.011117363 0.03671883 -0.045062155 0.083538495 0.028007234 -0.03972192 -0.00094358553 -0.006217405 0.03154039 -0.0075103533 0.08287409 -0.05977672 0.04442165 0.0214413 -0.0013051024 0.009399001 -0.008091801 0.056184243 -0.03764151 -0.0019009179 0.026436685 0.031917937 -0.0075589847 0.053657133 -0.035021506
hurrying -0.04296961 -0.059312936 0.028115798 0.06524918 -0.006276317 -0.024714764 0.04820664 -0.013598909 0.009718219 -0.013681319 -0.01068891 0.02785661 0.00019821292 0.025557956 0.010720475 0.009577282 0.021631952 -0.057613958 0.017188787 0.029616185 -0.047848005 -0.007431919 -0.043657288 -0.022016238 -0.06385208 -0.0032388996 -0.041450907 0.010396718 0.068853006 0.04506868 0.0095490925 0.03633587 -0.056106474 0.056374364 -0.077659875 0.046000645 -0.027037451 0.06527817 0.025802225 -0.0018493751 -0.042363748 -0.008791397 -0.034763463 -0.055564467 -0.0480553 -0.041547198 0.010991024 -0.011855721 -0.07562517 -0.043782827
but -0.089002386 -0.084836185 0.010974542 0.06453204 -0.0063822046 -0.0715501 0.07024693 -0.1425184 0.03355582 -0.028935177 0.12999198 0.22542328 0.0039957296 -0.056854066 -0.034170557 0.11758594 -0.088770226 -0.08990531 0.19609344 -0.123392306 -0.0107452385 -0.06195973 -0.0052646957 -0.034392104 -0.12885089 -0.19840647 -0.04405959 -0.038086586 0.023239255 -0.019829603 -0.05811818 0.012243818 -0.0831171 -0.10099962 -0.09457513 0.00018824334 0.0018081517 0.08497614 -0.015540963 -0.058971755 0.013192375 0.14168778 0.051747378 0.16106498 -0.055939313 0.04732049 -0.03803194 0.023229884 -0.14955652 -0.06936587
drop 0.014953318 0.039354946 -0.008642588 0.030260693 0.0021369057 -0.00055366394 -0.02211761 -0.011092125 0.06153896 0.064963005 -0.004861588 -0.028699236 -0.05189219 0.060494184 0.0040045213 0.06636937 -0.000985318 -0.07066573 0.024635488 -0.07188371 0.024397742 -0.027194647 0.037167564 -0.05074324 -0.018786533 0.041604187 0.001510409 -0.029709019 0.044044018 0.0080789225 0.004464271 -0.026735775 -0.042786114 -0.0013211762 -0.023336163 -0.033915013 -0.06255332 0.042727266 -0.0039933445 0.050185353 0.07550333 0.07463189 0.061884604 0.07583038 -0.03368015 -0.022761246 -0.025641713 -0.0583986 -0.020554693 0.036313605
splash 0.043605514 0.035538733 0.027049635 0.01765641 -0.04803299 0.00079536205 0.058123156 0.03017702 -0.0293095 -0.0030233252 0.040885355 0.043948457 0.028219828 0.039088782 -0.03515798 0.041078653 0.028751768 0.027495354 -0.05229405 0.03211565 0.081515074 0.053302176 -0.05917502 -0.0131824035 0.043480106 -0.06300748 -0.06571913 -0.051144533 -0.046585653 0.017641502 -0.08381328 -0.027961787 -0.011420298 0.0089474395 0.051054664 -0.03380084 -0.01971285 0.07768812 -0.031188007 -0.049856156 0.015878018 0.033510424 -0.015278444 0.08079985 0.03074801 -0.0061305435 -0.06080231 -0.07036738 -0.06739184 0.04786531
age -0.062027447 -0.00578702 -0.08634362 0.067362055 -0.0049988776 -0.061081115 -0.035134993 -0.06291783 0.009710691 0.052031517 -0.050371774 -0.033001464 0.047501728 0.009014335 -0.03255124 -0.012640193 0.032742385 -0.08416968 0.051145732 0.04660196 0.044111934 0.07704169 -0.031190425 0.07013939 -0.05871883 0.040129572 -0.052894447 -0.012651562 -0.01140065 0.07776829 0.005815489 0.036887527 0.07428795 -0.087132014 -0.021193916 0.059720986 0.015218396 -0.000493621 0.07048259 -0.05149589 0.060836595 -0.0051834146 0.0427531 -0.05296826 -0.023309443 0.07350069 0.025800435 0.018063677 -0.069060005 0.039898988
adoption 0.006129832 -0.047253937 -0.052928586 -0.04157006 0.077731505 0.0013144205 0.028494531 0.05224928 0.060544208 -0.0043741744 -0.053433467 0.065913655 -0.009616848 0.03852674 0.0045374604 -0.012689492 0.04117296 -0.045102637 0.006284739 0.0067447894 -0.010981423 0.054935735 -0.06123555 -0.01319699 0.01333355 -0.072371304 0.026845008 0.07419374 0.0675073 0.024214732 -0.029020237 0.04903908 0.021737259 -0.014333987 0.035499103 0.0013515735 0.051215373 -0.02807552 0.051772606 -0.0033147503 0.022033198 0.06997724 0.052813955 -0.018622074 0.0017905319 -0.04256299 -0.048835848 -0.065508336 0.018485673 -0.039296087
prosecute -0.020392943 -0.05534724 -0.06302171 -0.040432166 0.061554655 0.0049918443 -0.045087323 -0.065448284 -0.06700434 0.030219711 0.026697688 0.04730416 0.015324675 0.066391796 -0.023079082 -0.027173799 -0.05423063 -0.05240325 0.00435552 -0.012648221 -0.024695508 -0.010899555 0.028543897 0.06515372 0.056028575 -0.031977504 0.025296323 0.068307415 -0.03460753 -0.0012167841 0.0079576075 0.010427117 0.054276086 0.02147846 0.007724203 0.06589188 -0.003161803 -0.042452507 0.02308695 -0.0008709654 -0.016936198 -0.02580344 0.04149493 0.030094959 0.004379116 -0.0030002594 -0.05015502 0.010672189 0.016578034 -0.010024235
question -0.13276064 0.003554238 -0.007966822 0.11372252 -0.03294689 -0.07593456 0.0083621135 -0.025823222 0.06601368 -0.0367866 -0.033608794 0.021294601 0.10326164 0.09842463 -0.062471833 0.019196887 -0.04668068 -0.12152536 0.07317257 0.00047313503 0.041147348 -0.04344471 -0.024864657 -0.009556561 -0.08894063 -0.008443926 -0.107483745 0.14131743 0.040001526 0.02784152 -0.0783491 0.08725721 -0.0021584523 -0.05410132 -0.018369697 0.08935584 -0.0058773616 0.04639202 0.0043733823 -0.07810933 -0.01969079 0.14516307 0.012212994 0.042433478 -0.026215961 0.07792339 -0.038519304 -0.039269842 -0.00559172 -0.088033974
put 0.0017271009 0.004579724 -0.11009177 0.11023219 0.028306069 -0.09908629 0.055827875 -0.0999222 -0.04581213 0.031129623 0.094617024 0.049871445 0.037845917 0.054389503 -0.067734726 -0.031956356 -0.08324252 0.012661432 -0.013174716 -0.12520956 0.0740877 0.00048610347 -0.09612617 0.007533121 0.01968517 -0.114546575 -0.045787964 -0.023704078 0.09224204 -0.017003328 0.02189033 0.08098546 0.12863132 -0.08125053 -0.045146327 0.037013162 -0.03528138 0.00032024586 -0.031660903 -0.024762157 -0.0075297644 0.059649747 0.02550465 0.050798543 0.03129649 0.059767805 -0.0103911245 -0.08476639 -0.07494063 0.033346865
bathing 0.051804863 0.0045665167 -0.012966816 0.025871031 0.0060447236 -0.030227046 0.059573393 -0.07505039 0.04972693 -0.03554529 -0.008302186 0.043979242 0.059696347 0.0016260061 0.0580255 -0.04975191 -0.043670107 -0.079767436 -0.005457504 0.045553554 0.016543267 -0.019011356 -0.045540035 0.02115157 0.005478478 0.043234076 -0.07495078 0.0716638 0.07474413 0.0010438631 0.011185147 0.020014126 -0.0061918995 0.045604516 -0.025976107 -0.011067981 0.03349218 0.00667405 0.030471036 -0.016030578 0.020305388 0.007560097 0.056009043 -0.021794206 0.041076284 0.028013764 0.015489822 0.043487743 0.009346435 0.03149702
feelings 0.05446276 -0.070866585 -0.03472909 0.08001256 -0.043061472 -0.081012525 -0.016867092 0.053058367 -0.023401706 -0.046260197 0.031920407 -0.039870318 0.04363229 0.035279345 -0.03993154 0.05631648 0.028825454 -0.033815 0.08008862 0.027849928 -0.0334447 0.009354892 -0.080460116 0.054952342 -0.061661825 -0.06753312 -0.070753455 0.0741883 0.035882547 0.04996952 0.015083848 0.05049531 0.016767576 -0.0119091775 -0.0038003866 -0.051718783 -0.02232199 -0.0069057303 0.041349802 0.026521599 -0.030162156 0.06304979 0.08038184 0.059879467 0.04847915 -0.0468502 -0.019439314 -0.01995079 -0.046671003 -0.041349974
till 0.0049932264 0.00867662 0.03971064 -0.025315553 -0.027686585 -0.0766282 0.046006672 -0.006814525 -0.003953211 0.080808654 0.06910711 -0.0087136645 0.04571982 0.017145198 -0.019896941 0.03578499 0.028839951 -0.015252192 0.07440943 -0.023689784 -0.030236715 0.06423115 -0.042464197 -0.027008062 0.041901093 -0.05149801 -0.049625847 0.060283396 -0.043175817 0.017312093 -0.06569546 0.014753457 -0.033705436 -0.017403122 0.05396388 0.024983704 -0.013631873 -0.017942786 -0.0107330745 -0.06559905 -0.025991192 -0.0076896297 0.07223056 0.016924614 0.039643258 -0.007317509 -0.03964795 0.006867901 -0.06660261 -0.0067130937
shedding 0.03033574 -0.039725706 -0.025616385 0.016234642 -0.039399974 -0.05795423 0.0666092 -0.008083545 -0.017958585 -0.016967848 0.057184067 0.0378156 -0.016263008 0.031271502 0.03576535 0.014202852 -0.069181874 -0.03807399 -0.02540833 0.018175706 -0.046820387 0.070540294 -0.0072085196 0.037782647 0.03978571 -0.012351098 -0.041458104 -0.0037675407 0.06011443 0.013124818 -0.049863998 -0.015478842 -0.05109831 0.022471769 0.032352015 -0.020215511 -0.044486176 -0.04058396 0.0003537403 -0.036480714 0.049034826 0.0551892 -0.021965785 0.059452347 -0.0014085278 -0.043735318 -0.027964773 0.022889204 0.049249727 0.03905211
read 0.054596663 0.052988306 0.043034308 0.0070169736 -0.021514762 -0.026417999 0.06007359 0.036599033 0.053978458 -0.0143454615 0.024036199 0.03507164 0.05961618 0.04748411 0.045263562 0.05225499 -0.04222783 0.031873222 -0.030688753 -0.050327733 0.06389077 -0.03531896 -0.07688609 -0.05214724 0.038792122 0.009876456 0.0512532 -0.03191153 0.05971311 0.04152865 0.04572572 -0.0454762 0.07181215 0.01331643 -0.063430466 0.043744065 -0.060506266 0.028713178 -0.04302034 0.048553433 0.052616518 -0.0429678 -0.012411362 -0.028629929 -0.038468745 0.070038214 -0.07855083 0.04882012 0.025338802 -0.06617244
knot -0.0022910703 0.013878498 0.031446602 0.06106264 -0.008064339 0.066396445 -0.06405423 0.069100335 0.08111779 0.008544927 0.016761975 -0.014542419 -0.039771557 0.043052234 0.024711058 0.054196782 0.004157475 -0.07723794 -0.01485726 -0.022263316 -0.061748005 -0.06484935 0.053196024 0.05274256 -0.06537188 0.03898111 -0.002926218 0.08285206 0.018892981 0.05603215 -0.045672394 -0.011056434 0.037841164 -0.046222597 -0.055757653 -0.020426305 -0.04671953 -0.050342385 -0.056699418 0.020103658 -0.002822205 -0.016265556 0.038451277 0.012392125 0.014375489 -0.07411913 -0.05713032 0.04052081 -0.04049127 -0.05294007
likely -0.00818491 -0.0026678045 -0.060048264 0.085310675 0.05888461 -0.013219249 0.055657294 -0.051076133 -0.020761576 -0.02310916 -0.03740508 0.03535692 0.013596131 -0.03503119 -0.051447213 -0.049511164 0.013903385 -0.07256045 -0.017732989 -0.028799852 0.021580813 0.025546286 0.0007428471 -0.0324609 -0.05089363 -0.0105373915 0.03222149 0.08472206 0.011853235 0.049720466 0.020911805 0.05310981 0.03174544 -0.00057584536 0.04246254 0.07915767 -0.0911271 0.040754806 0.048958782 -0.011711617 0.07818872 -0.037840728 0.049851365 -0.036780994 0.03356496 -0.05084927 0.033060245 0.029085927 0.0024286069 -0.023178153
while -0.052357756 -0.050851677 -0.11306371 -0.008785046 0.052374505 -0.050651792 0.013262068 -0.07492682 0.04351931 -0.048411965 0.049153935 0.044533785 -0.006395326 0.072975665 -0.075303145 -0.010181475 0.013672769 -0.06495899 0.07035233 -0.046515144 0.048898283 -0.005275243 -0.018205857 -0.0033747572 -0.059155807 0.011764252 -0.11005785 0.04962408 0.12888625 0.069786154 -0.024478884 -0.012443564 0.077364445 -0.097096376 -0.014535485 0.0067517133 -0.058629416 -0.018295757 0.03555 -0.10953836 0.06056134 0.06358654 0.06275254 0.029155696 -0.029481463 0.07331567 0.010694515 -0.060319863 -0.08757374 -0.04781551
meaning -0.03672845 -0.031879757 0.038692772 -0.0055452595 0.022378188 0.046909858 -0.05646818 -0.032696392 0.07220873 -0.006689465 0.034401417 0.012700797 -0.040840134 -0.016948465 -0.07657411 -0.05131526 0.03350744 -0.0035910434 0.035424717 0.05864006 0.0712994 -0.043234855 -0.031320076 -0.031474136 -0.041945726 -0.003147236 -0.030724257 0.0059568277 0.056209564 0.03311753 0.02708026 0.06521608 0.04838896 -0.05097284 -0.065623716 0.0385297 0.046555024 -0.0112506 0.050486628 -0.07273245 0.033755165 0.029230123 -0.03120637 -0.015337696 -0.033516616 0.074548095 0.037869334 -0.013479879 -0.009453886 -0.0088960305
sighed -0.011544116 0.046616238 0.047683578 0.052169148 0.013182638 -0.057043787 -0.0055006575 -0.049953848 0.057658136 0.044719372 -0.01145575 -0.020451698 -0.023046438 0.021748103 0.029228188 0.037480973 -0.05750199 -0.013253678 -0.009881317 0.013571305 -0.048540235 0.062471014 0.004433658 0.0056682816 0.0013576461 -0.014056664 0.021775678 -0.0019528124 0.0791386 -0.019947488 -0.07422586 0.028361684 -0.012964437 0.03378999 -0.026716894 0.03173589 -0.057604842 0.079036266 0.024398351 -0.06852768 -0.017780455 0.047743008 0.033687394 0.0044977907 -0.04497778 0.01502032 0.042500474 0.029990397 -0.08302832 -0.068439126
means 0.027585084 0.018414326 0.05162823 -0.017048689 0.00022812141 0.0064990837 0.049896233 -0.029973837 0.06726608 -0.05432331 0.08191613 0.06572249 0.06473611 0.03743339 -0.06582243 0.019020176 0.009296511 -0.027739689 -0.0473099 -0.035898246 0.05561987 0.020424277 -0.027383445 0.0065486464 -0.037830494 -0.044992015 0.021781981 0.0073160683 0.073868826 -0.02878685 0.03618814 0.033006854 0.0071567376 -0.06709975 0.0021999727 0.08246707 -0.02899986 0.029033039 -0.05709558 -0.020497559 0.027204935 0.007007642 0.07091608 -7.2168885e-05 -0.002762464 -0.009163108 -0.044849295 0.03939931 0.04474492 -0.0029076696
then -0.066410094 -0.08022448 0.033231985 0.0005829837 0.02463784 -0.062972225 0.0815339 0.07592535 0.07162932 0.090777725 0.15409367 -0.06933614 0.031043138 -0.0029187407 -0.016244974 0.09334658 -0.1343801 0.0018019974 -0.018545873 -0.13777757 0.08089942 0.1432385 -0.060579352 0.04525134 -0.031668253 0.0072345426 -0.03033942 -0.017994247 -0.027884 0.015179431 0.027119879 0.051466286 0.048358254 -0.047302157 -0.012523385 0.02836414 -0.08435359 0.07871463 -0.01135363 -0.02980896 -0.04200138 0.099322245 0.027085979 0.056017973 -0.1404179 0.09172333 0.004448083 -0.07303798 0.027541935 -0.028560223
dinah -0.05564317 -0.09095744 0.0054274546 0.092723 0.15736075 -0.05495031 -0.018114831 -0.02190397 0.10122839 0.12690742 0.0864707 0.10305174 0.06961635 0.042038567 -0.058720626 0.12732702 -0.08298978 0.027851215 0.08436608 -0.009306534 0.020117562 0.062339917 -0.042448647 0.025258837 -0.031269237 -0.14262871 -0.055172816 -0.042460624 0.016708223 -0.05245385 -0.011681682 -0.014113095 -0.04870591 0.006005356 -0.061593443 0.115563504 -0.018733516 0.14698465 0.1420076 0.06931419 0.0499671 0.121010035 0.047936156 0.03858963 -0.09373458 -0.059036385 -0.0780203 -0.020241722 -0.031602185 -0.08413446
fell -0.03097558 -0.0589822 -0.072223954 -0.0019020484 0.005186176 -0.023062816 0.047829416 -0.08459915 -0.02682247 0.07731752 -0.016833492 -0.005282211 0.07587762 0.026143774 0.013083392 -0.012727907 -0.013894227 -0.051467 0.054750353 -0.054376937 0.065106176 -0.011559734 -0.054407902 0.058219496 -0.0028277817 -0.046402443 -0.021156497 0.0032092142 -0.023899937 -0.024688499 -0.063012846 0.09361941 0.0052714236 -0.03334463 -0.032009684 0.04288173 -0.06451822 0.049405098 0.049664278 -0.09357042 0.12562914 -0.0059331004 0.007178113 0.04814598 -0.05155053 0.08622982 -0.06264698 0.016100695 -0.07820794 0.0005961964
presented -0.07465161 0.004320139 -0.010008438 0.012702502 0.02077547 -0.071082845 0.024107832 0.013825471 0.015827239 -0.019494884 0.0056917286 0.04704785 0.05249679 -0.022198878 -0.027761132 0.05036414 0.019653643 0.01889298 -0.008046893 0.02359508 -0.032052997 -0.023118546 0.035413694 0.0023513325 -0.063860595 0.05543041 -0.011375643 -0.041091792 0.009133754 0.07822417 0.05348798 0.03308272 -0.025602262 0.023732228 -0.06288844 -0.042965088 -0.06232538 0.003838424 0.053422846 -0.053331655 -0.023148885 0.03765472 0.004728641 0.012332929 -0.06994821 0.075256094 -0.023246456 0.010354107 -0.050256718 -0.036472306
pretexts 0.022815734 -0.010179657 -0.015556022 -0.05541262 -0.0043694335 -0.076226994 0.036716375 -0.06879939 0.025760584 0.077566475 0.057703014 -0.0346182 -0.04364271 0.043047532 -0.07164681 0.034905262 0.01753645 0.021388866 0.073311195 -0.06742562 -0.03012874 0.018464478 -0.0011699034 0.026728325 -0.0714262 -0.061210938 -0.014673871 -1.2421166e-05 0.02122357 -0.042108998 -0.024108812 0.079805925 0.040474582 -0.02391206 -0.041456487 -0.0008780274 -0.06936663 0.0682892 0.04840373 -0.00019950618 0.03623825 -0.009531692 0.02451057 -0.04317348 0.016928775 0.047731746 -0.005083998 -0.03584922 -0.014518291 -0.0026331495
iv 0.006571637 0.021462752 0.020034742 -0.010103704 -0.05520683 -0.047095913 -0.012438752 -0.0628585 -0.05671076 -0.038749192 -4.210684e-05 0.027684992 0.080771685 0.05436709 0.035972204 -0.008777279 -0.011222906 -0.08377521 0.08328495 0.04971572 0.024083102 -0.051430278 0.01481957 0.06119043 0.017253444 0.034143128 0.05374663 -0.053154916 -0.020102987 -0.014169745 -0.019963492 0.020103056 -0.007547917 0.023378223 -0.07026274 0.0056347544 -0.016049277 0.044080127 0.040118862 0.04206833 -0.01876048 0.063525565 0.07057669 0.03134615 0.042618882 -0.021743225 0.0053163487 0.030780133 -0.010533824 -0.041827705
edgar 0.054935504 0.03598287 0.024891604 0.048727714 0.016672717 0.02004081 -0.043789763 -0.002446789 0.012409249 -0.0045076297 -0.040515874 0.011070728 -0.051260293 -0.040871512 -0.056971945 0.065749064 0.0387312 -0.032793295 0.04682314 -0.07845001 0.07847674 -0.019709323 0.032856364 -0.0006781153 -0.0720198 -0.012540534 -0.014569512 -0.011798351 -0.011998698 0.0008731643 -0.013526258 -0.042420816 0.0120837325 -0.032650273 -0.08303829 0.0559305 -0.008679705 -0.020048106 0.019117348 0.051942434 0.006283676 0.052302532 0.057594318 0.07798045 0.04560824 0.040211428 -0.057490878 0.04291292 -0.025857322 0.010442553
think 0.045329716 -0.142207 0.0920406 0.04759897 0.057111572 -0.05888402 -0.026716722 -0.0737312 0.11795879 0.076339714 0.16116399 0.062411997 -0.009985577 0.11898725 -0.17397225 0.06059314 -0.01869554 -0.018914962 0.17519777 -0.08556324 -0.029603729 -0.009650532 -0.10447082 0.13557169 -0.0035501258 -0.105909325 0.035365056 -0.08747824 -0.049542144 -0.17720814 -0.14527892 0.015908707 0.00048047013 0.036813516 0.012615666 0.14407907 -0.04142758 0.13717613 0.01958207 -0.0031345882 -0.017420512 0.081330106 -0.11364313 0.15671179 -0.07070544 0.014459369 -0.0730196 -0.1360124 -0.10047098 0.13079715
never -0.106834345 -0.024018696 0.029829549 0.014426564 -0.0020240713 -0.018990522 0.0508602 -0.12255785 0.091944285 0.035758883 0.017640408 -0.016410517 0.023087038 0.09216971 -0.11919646 0.03872293 0.030424668 -0.016775088 0.09151246 -0.08184176 0.012569075 0.053830758 -0.049920533 0.06385795 -0.022757972 -0.08637125 -0.115502514 -0.04103959 0.014717286 0.044664126 -0.0024394398 0.025373546 0.1038314 0.04776672 -0.019231258 0.030999325 -0.08266724 0.06583067 0.05449309 -0.06270243 0.044560958 -0.020006338 0.040046044 0.08474038 -0.0014381262 -0.033567462 -0.088463016 -0.047514025 -0.09247996 0.018014532
remarkable -0.023931526 -0.09749756 -0.058078013 -0.041347533 -0.020654524 0.009493198 -0.022854924 -0.028151227 0.049826983 -0.0070804236 0.08426003 0.06257999 0.052141618 -0.024228463 -0.03402214 -0.021567723 0.01643791 0.020734102 -0.04783918 0.04361562 -0.016537383 -0.04408374 -0.011484778 -0.007845434 0.032569222 -0.0010634487 -0.05126562 0.023319604 0.0052654347 0.057006963 0.045518596 0.06305587 0.050923783 -0.019367054 0.04738955 0.072696134 0.036856864 0.0046583205 0.015112957 0.022755738 0.031433422 0.05027993 0.021000374 0.07731941 -0.04568935 0.013168131 -0.04102218 -0.03728215 0.04276529 -0.007823391
o -0.022167483 -0.082224764 -0.04951851 0.08878298 -0.0074196514 -0.04394023 0.08759835 0.028185533 0.0748545 0.0034290052 0.07100191 0.06462902 0.0684645 0.014470966 0.00066378614 -0.029355204 -0.033901412 -0.08195067 0.104020394 0.024481231 0.011818476 -0.018312033 -0.031641442 0.0047021406 -0.05725379 0.017779395 -0.066857725 0.097994424 -0.0076283477 0.053242374 -0.053768065 0.06979725 0.07616575 -0.0120947305 0.028893437 0.07170876 -0.035213046 -0.03386364 0.05886875 -0.030762793 0.081105694 0.07098091 0.0067234365 -0.013940343 -0.02545189 -0.0076958975 0.018012742 0.023852248 -0.105187714 -0.002725117
reading -0.044359572 -0.018139346 0.043210056 0.07938214 0.049066413 0.013183971 -0.06204497 -0.071461335 0.051552504 0.027829576 0.027966443 -0.031380195 -0.030940922 0.038934123 -0.057328515 0.072563246 -0.06023897 -0.036502846 0.0014084305 0.03276822 -0.01986318 0.042420488 0.026365887 0.023103412 0.048172258 -0.004412452 0.054491885 -0.01764192 -0.008970259 0.047936868 0.059995092 -0.045109328 -0.024808966 0.0206891 0.041680265 0.0059955865 0.044670723 -0.049347773 0.028989997 0.043302476 -0.0050677233 0.019209929 -0.0188227 0.0699275 0.055147935 0.012215465 -0.06929212 -0.030752633 0.035154987 0.059955742
times 0.022033263 0.010881074 0.00807789 0.028233735 -0.0005141777 -0.020094395 0.0466875 -0.0058813444 0.006758758 0.11027463 0.05194477 -0.041945018 0.091205865 -0.017439047 -0.032901246 0.04133342 0.026922585 -0.0007200852 -0.015047282 -0.10255948 0.039273024 -0.0052639595 0.022470068 0.07239435 -0.09319184 -0.080532506 -0.08667709 0.051661402 0.06878357 -0.014464745 0.025722323 0.021425363 -0.023928545 -0.077241994 -0.030253794 -0.026770646 -0.070953056 -0.034176704 0.0955973 -0.031162536 -0.017820919 0.050757825 -0.029690823 0.017555952 -0.031135362 0.06528445 -0.0924692 -0.017954802 -0.056090936 0.028890183
lory 0.014801388 -0.03451071 -0.041944485 0.05102831 0.04525476 -0.062819496 0.07123211 0.024665752 0.102101 -0.0090008285 -0.04506279 0.030302335 0.021997513 0.06954467 -0.021430105 0.090291925 0.015784016 -0.09114463 0.033425327 -0.024349123 0.0853475 -0.032041304 -0.014878181 0.0379506 -0.08347474 0.022770012 -0.08813386 0.11371598 0.062331315 0.07886815 -0.033270355 0.06736197 0.009696813 -0.12306433 -0.055643823 0.1126797 0.025796074 -0.009324124 0.06400786 -0.020611413 0.07589523 0.074253984 0.093198806 -0.05119134 -0.100053534 0.087105386 0.0054710833 -0.06433512 0.005785602 -0.001178909
spread -0.06672274 0.043256145 0.017416375 0.02966273 -0.03772234 -0.049394343 0.06297634 -0.04914001 0.028391175 0.022578746 -0.056980297 0.042687275 -0.026717473 -0.031301778 -0.0268281 0.024344262 -0.07396572 -0.03184711 0.024624519 -0.016187906 0.06056778 0.06962378 0.0033657094 0.054300334 0.021821251 0.053577293 -0.034045056 -0.009399662 -0.020982808 0.015007693 -0.049993303 0.06299013 0.060244545 0.03802987 -0.028240355 0.043637976 0.012187837 0.06299 0.0022427912 -0.0798621 0.08116289 -0.01864354 -0.025247373 -0.024252139 -0.0015461673 -0.011744121 0.05250834 0.008053303 0.029503912 0.025689732
actually -0.045650583 0.03047984 -0.06009088 -0.022045035 0.037863195 0.0546576 -0.05338318 0.04201886 0.039775513 -0.05403791 0.02855904 0.0013358017 0.02240736 0.056030758 0.02489711 0.08355317 0.032895453 0.008148887 -0.020492205 -0.05788983 0.074478135 -0.057141565 -0.04868446 0.01775479 -0.05664389 0.008270624 -0.057050623 0.018196125 0.015631935 0.0029078657 0.00916277 0.00043353683 -0.010991355 -0.071823016 -0.014877298 0.0023838729 -0.03749933 0.009566495 0.03888342 0.012796558 0.011020874 -0.009445128 -0.053123288 -0.023444675 0.00010063674 -0.017863013 -0.056226086 0.010563087 -0.013247043 -0.051538568
brave -0.027698575 0.050077632 -0.030796949 0.031379994 0.041297898 -0.03870889 0.023054361 -0.04078388 0.038350843 0.035376687 -0.043523658 0.010481313 0.08099766 -0.00088894204 -0.02620335 -0.050648186 -0.04434439 0.006586495 0.03976781 -0.02595559 0.047628414 -0.028454099 0.03105675 -0.03258215 0.041568257 -0.030583203 0.03791908 0.015704848 0.044886995 0.039678723 0.029199027 -0.05610093 -0.014148245 0.012900919 -0.019702792 -0.0029810127 -0.081007406 0.07235243 0.02168598 -0.06263207 0.059964016 0.06978254 0.037109464 0.07258806 -0.015200231 0.008716794 -0.057004146 -0.036550585 0.04209845 -0.005717663
dinner 0.009637469 0.05259242 -0.018827677 0.07134935 0.010870917 -0.01423396 0.047935102 0.022884605 -0.02809301 0.01168387 0.029489154 -0.006338032 0.0009125086 0.03325441 -0.040207446 -0.037731756 -0.02645932 -0.028791003 0.034713972 -0.015841357 0.026145007 -0.033186026 -0.019300759 0.049878206 -0.0016344825 0.02006018 0.04295747 -0.027304014 0.050133005 -0.044890232 -0.03321024 -0.028980713 0.050981265 0.035356574 0.01597725 0.04944262 0.027178094 0.034980465 -0.038568214 -0.023063883 -0.00283692 0.020555196 0.08290751 -0.029913668 0.010590684 -0.03933861 0.0040369104 -0.023607671 -0.023343552 -0.0049432367
rats -0.008089163 -0.051443018 -0.06395345 0.07467759 -0.050622232 -0.042876497 0.012404552 -0.027108926 0.048419174 -0.0010842358 -0.008183042 -0.0103845075 -0.012594552 -7.993192e-06 0.040272925 -0.037780225 -0.017381502 0.009784937 0.011861673 -0.04606114 -0.016486442 -0.06378782 0.03448837 0.066275015 -0.077441454 0.0022651576 0.01029706 -0.046939086 0.018512778 0.022982553 -0.02505836 0.003448614 0.012539629 -0.058414817 -0.0017357501 -0.03490592 -0.076828204 0.00792475 -0.05214367 -0.019649517 -0.050070547 -0.022299763 0.05880219 0.07529106 -0.011615826 0.011055967 -0.018352907 -0.020719357 0.03544792 -0.06701628
feel 0.02548725 -0.05694388 -0.07998361 0.028200565 0.02509093 0.047549475 -0.015615315 -0.092615835 0.055044465 -0.022931306 0.08232211 0.008734018 0.025675692 -0.00042488414 -0.028658502 0.026928108 -0.010615577 -0.0026278268 0.06368181 -0.0882732 -0.04343951 0.027904406 -0.0018144253 -0.0027854745 -0.077819206 0.04994508 -0.064279646 -0.006068011 0.05117782 -0.024377475 -0.020452997 0.010583697 0.06262092 -0.010606658 -0.050231673 0.04735582 0.00031164556 0.0139819095 0.0746031 0.028961845 0.052251127 0.06708696 0.0781912 0.05507959 -0.00069238094 0.074267745 -0.05952814 -0.068736754 -0.01489514 -0.06346006
swam 0.0014410301 0.033118878 -0.018184122 0.10361424 -0.02128491 -0.015738182 0.08522298 0.0028784706 0.07873688 0.01411629 0.005468903 -0.0048908717 0.052868165 0.039908275 -0.08488816 0.059082054 0.025727497 0.00031054253 0.10132797 -0.032653034 -0.0034626725 0.1303854 -0.1124968 -0.029951362 -0.09900335 -0.04121428 -0.07031687 -0.0336514 0.06958059 0.036503833 -0.06883735 0.12418852 0.052329507 -0.010599781 0.045420684 0.08885427 0.008669716 0.03666991 0.016011974 -0.11384037 0.0721741 -0.018607099 -0.02742289 0.012429621 0.012041153 0.112017974 -0.06162359 0.007542303 -0.09113842 -0.03670174
upon -0.039327346 -0.08173343 -0.11630491 0.0025477489 0.0039337026 0.016362293 0.050074458 0.020965217 -0.020710172 -0.041864157 -0.017058553 -0.019366262 0.10127043 -0.026066715 -0.15097508 -0.0069619967 -0.006368526 -0.07334448 -0.015892776 -0.03663681 0.06536605 0.102193385 -0.13156252 -0.033501707 -0.00068806275 -0.10368553 -0.027390515 -0.01046918 0.030448603 0.1468493 0.012618594 -0.016168252 0.07897568 -0.11498527 0.042554542 0.09353137 -0.12424107 0.11580732 -0.070790805 -0.11721811 0.08781399 0.032324478 -0.0013613278 0.084760286 -0.11459174 0.01902916 -0.15528086 0.024259722 0.041035756 -0.003044772
shrinking -0.020117316 0.04801531 0.0036819815 0.023056285 0.05127186 -0.08616106 -0.017708847 -0.09393954 0.050072197 0.053297147 0.08110957 0.042190414 0.02640597 -0.007965965 0.024137901 -0.0016263316 0.025802335 0.041625604 0.05368242 -0.018790403 0.05793524 0.08639498 -0.070457876 -0.008509904 -0.028374348 0.008957448 -0.07451378 0.091963045 0.025953643 0.0752436 -0.08330866 0.043313663 -0.03015755 -0.055264693 -0.06842823 0.09693716 -0.0807555 0.06432683 -0.0041539175 -0.082887895 -0.0008136948 0.04377103 0.06288271 0.042691234 0.010717608 0.017022843 -0.08012533 -0.038138352 -0.086851165 0.01913821
thirteen -0.03129316 -0.0049893945 0.053812552 -0.059393633 0.013762543 0.021911636 -0.027689368 -0.062442865 0.06524434 0.027499016 -0.047495633 0.051440176 0.035716996 -0.013550021 -0.06042497 0.0070574125 -0.05031653 0.0407246 -0.031555355 -0.06239196 0.07604874 0.024715094 0.040278155 0.0010224069 -0.0015050177 -0.039759297 0.054074034 0.035457186 -0.022294428 -0.015385935 0.04796292 -0.006452387 0.014689264 0.015640393 -0.012755923 -0.04933551 -0.07750203 -0.054093335 -0.031449478 -0.065978676 -0.046229325 -0.009461117 -0.054183796 0.030636793 -0.03901975 0.04304376 -0.013901074 0.023438374 0.019551625 0.038072843
capital -0.11813657 -0.008398389 -0.113904364 -0.0033515696 0.022061223 0.005032843 0.09495137 -0.100563586 0.021985734 0.0289688 0.0013432032 -0.023166511 0.07546732 -0.0006852655 -0.10051208 0.091414966 -0.07249239 -0.05630902 0.02638158 -0.01599533 0.0015078456 0.023844505 -0.06852279 0.039153527 -0.08350634 -0.019009331 -0.062722 0.11335499 0.025522493 0.02246766 -0.026996888 -0.019128568 0.030210288 -0.10782189 0.016994042 0.042958938 0.0014512917 0.005919299 0.04525573 -0.06217846 0.08995661 0.007833546 0.01568126 0.072115846 -0.025351053 0.033118874 -0.023805013 0.0031518592 -0.06019601 0.009518263
birds -0.027737515 0.07013479 -0.027202599 0.06105964 0.019565692 -0.08151592 0.03559804 -0.085750304 0.03933628 0.032049555 0.06844198 0.09783283 0.01702449 0.078672454 -0.07526887 0.0010632866 -0.02166595 -0.012948801 0.06690227 -0.0088014295 0.10206731 0.0047718883 -0.09285252 -0.02324851 -0.057322696 0.0009210425 -0.116394386 0.13116671 -0.007910277 0.061523717 0.0077801663 0.017966058 -0.017779544 -0.066971935 -0.08584479 0.105443284 -0.034778632 0.039397325 0.033006508 -0.056678295 -0.025020858 0.083759084 0.13503085 0.080802634 -0.059973598 0.1134988 -0.046539303 -0.062419776 -0.01834859 -0.10974986
cat -0.027325066 -0.06488172 0.013589047 0.05420852 0.013263605 -0.06991348 0.10539712 0.019076139 -0.018297955 -0.019794371 0.018200343 0.08078893 -0.011973845 0.025630912 -0.024431484 -0.028585816 0.028228894 0.004251308 -0.011593052 -0.06523936 0.042824797 -0.03714802 0.042665217 -0.025513532 0.01825967 -0.07859553 -0.04578263 0.052255113 0.043145813 -0.025809115 -0.022907699 0.011515498 0.0517453 -0.007644492 0.020886943 -0.00013884495 -0.082185596 -0.0026862905 0.056710817 0.047659278 0.019945191 0.009062429 0.016662853 0.06747936 0.013261983 0.026812878 -0.014915418 -0.05832179 -0.06586812 0.034073602
d 0.031220086 -0.054711435 0.016581336 0.025177388 0.04624619 0.0024570655 0.054245282 -0.060922567 0.02058854 0.091157354 0.019078536 0.05945684 0.0864253 0.094671346 -0.093760476 0.07730173 -0.08246054 -0.05181273 0.0558211 -0.068791255 -0.025792552 -0.005899327 -0.047761742 -0.023658562 -0.07009368 -0.087808356 -0.011207156 -0.071166955 -0.0030433729 -0.07046165 -0.06242296 0.04037719 0.10223523 -0.013143551 -0.014633582 0.00017538923 -0.086536966 0.10489455 0.120851085 -0.06100581 0.095140226 0.03332932 0.05089885 0.09818074 -0.11567382 0.048477344 -0.050499093 0.015633456 -0.077216215 0.04832197
