1182 150
key -0.06580887 0.06907375 0.030158577 0.037151366 -0.010682987 0.06860554 -0.05411009 0.06234568 -0.0474173 -0.0055759586 0.0043877885 -0.028061023 -0.025638854 -0.00971619 -0.032897778 0.013262024 0.041581262 -0.0048385826 0.043218184 0.02745485 -0.05287607 -0.06831501 -0.0023446803 0.06181212 -0.058954675 -0.04598595 0.07344218 -0.061287448 0.044799913 -0.0281866 0.019455101 -0.021415588 -0.06628576 0.009935233 -0.007921043 0.008929641 0.0747834 0.031266343 -0.052827127 -0.031972896 -0.023667602 0.02846109 -0.049602013 0.013550124 0.0134887425 -0.07239391 -0.038874537 -0.028889876 0.0421625 0.029951882 -0.016721418 0.035044096 -0.08295269 0.037512317 0.042291075 -0.061567485 0.024793876 -0.0177094 0.056124896 -0.057644047 0.014788197 -0.027516749 -0.04543453 0.061664797 0.02888588 0.0013448694 0.07404513 0.039260734 0.035169728 -0.022218116 0.08710147 0.028929831 0.060069002 0.034603342 -0.035079375 -0.016800253 0.0016492065 0.06493695 0.0040788664 -0.006710547 -0.05868736 -0.043900818 0.007083392 -0.07897469 0.021793053 -0.0117591955 -0.025436396 0.05088978 0.04137513 -0.008507795 0.014031524 -0.062463365 -0.057029996 -0.032959927 -0.06429851 -0.022105414 -0.010809417 0.062579304 0.02518643 -0.018252052 0.0022105474 0.008551288 -0.009422477 0.016947336 0.03767444 0.011498263 -0.016222792 -0.0022236914 -0.030231014 -0.029225847 0.0565126 0.056012385 -0.039436642 -0.04868912 0.03046851 -0.0016276347 0.029297328 -2.0418083e-05 0.016061613 0.0025000405 -0.081781834 0.009485987 -0.010332665 -0.052583948 0.05546992 -0.0027093652 -0.081379235 0.06300138 0.07483695 -0.01098457 -0.0007371232 0.04757285 -0.073936306 -0.043348815 -0.026923083 0.022633694 -0.039129436 0.0009801358 0.0058269706 0.028223082 -0.048381355 -0.03794524 -0.084658735 -0.004823175 0.017004892 0.0145022 0.055194285 -0.036232296 0.03971806 -0.031172147
rapidly -0.057447627 0.0014285779 0.0035876585 0.039212137 -0.041723922 -0.013777952 -0.005594383 0.03731222 0.052513566 -0.028124059 -0.027304722 -0.020687591 -0.018663522 0.021574885 -0.034476984 0.012718953 -0.004016287 -0.039544895 -0.015961109 0.037262958 -0.041675646 -0.03436496 -0.055617657 0.03384511 0.079422735 -0.07257675 0.0073297173 -0.06996022 -0.021357393 0.041590545 0.011856807 -0.0125420345 0.06540272 0.0039054984 -0.046272337 0.05434932 -0.044631116 0.006081391 0.07623726 0.038986955 0.038626373 -0.009662034 0.04069504 -0.041781317 -0.009643381 0.012977275 0.029705638 -0.019430308 0.048310436 0.013036635 0.007967738 0.023546953 0.035043426 -0.03276645 0.01965971 -0.02183929 -0.057764344 -0.058172118 0.025688235 0.039646447 0.054487187 -0.05439116 -0.044692613 0.049872413 0.022235233 0.042592417 0.056927092 0.026619496 0.05249376 0.02119545 0.054681204 0.020233883 0.018865187 -0.011845537 0.0009207843 0.0047218846 -0.03660843 0.031819098 -0.040777937 0.000984001 -0.048660733 0.0036621015 0.04407255 -0.030340698 0.0063242707 -0.025234375 -0.06254932 0.046359517 0.04473788 -0.026729777 -0.06630291 -0.04606982 0.06320291 0.046997566 0.05778337 -0.028333988 -0.04861448 0.063250534 0.07789268 0.01360186 0.059977118 -0.05961107 -0.06301287 0.060966965 -0.02972237 0.047535434 0.029925805 -0.00017255452 -0.008964379 -0.02729198 0.016238045 0.061833154 0.0070878323 -0.0041476693 -0.039150447 -0.059621368 0.029578138 0.005749626 0.028784396 -0.0028444557 0.05304776 0.00095754827 -0.042426653 0.017033653 -0.067201674 -0.06047389 0.034467287 0.0058346954 -0.058593262 -0.034379624 0.069120884 -0.039497975 0.020581085 -0.06532673 0.0059232144 -0.0028679117 0.020581173 -0.058412936 -0.024288002 0.02659367 0.037566476 0.0005684261 0.06113974 -0.028262988 -0.025774406 -0.05600805 -0.016707601 0.04196815 0.06481262 -0.048869923
finish 0.048353747 -0.012891537 -0.0259624 -0.04288351 0.010209658 -0.018060962 0.0105017815 -0.014689124 0.015981294 -0.017445097 -0.04969001 0.036426242 0.0070778336 -0.0061407555 -0.051330768 -0.041776054 -0.018425118 0.047406003 -0.058712974 0.008724095 -0.009264592 -0.03889091 0.010940855 -0.038482647 0.05347181 -0.05493889 0.007063165 -0.034516312 0.006065495 0.001143247 0.015620015 0.021389378 0.02090614 -0.030669518 0.04593623 -0.014903925 -0.03972637 0.00028486445 -0.02554178 0.05041075 -0.01044245 0.028850507 -0.029326815 0.04261235 0.043400634 -0.053640243 -0.004275953 0.009233609 -0.058257055 0.0016292 0.031851783 0.026215795 0.05066463 0.012997433 0.02249005 -0.04898695 0.04796104 -0.029717356 -0.05230362 -0.029815804 -0.057475265 0.012815891 -0.002019349 0.007985601 0.022362573 -0.027979406 -0.056644727 -0.028507248 0.017212637 0.026034417 -0.044353396 -0.045998316 -0.034581196 0.007267357 0.011407964 0.052923884 -0.034843348 0.06304715 0.06560119 -0.05620838 0.011695362 0.029445041 -0.053171605 -0.0850913 0.06670339 0.027483044 -0.048319332 -0.030574584 0.077971 -0.06788944 0.03497081 -0.013009973 0.035820577 -0.0351003 0.05177437 0.037709806 -0.06200733 -0.045031846 0.047716994 -0.0448421 -0.06451559 0.048390273 -0.06319156 -0.011244308 -0.016284704 -0.027137108 -0.01413915 -0.013762885 0.0021551657 0.054954257 -0.002434212 -0.016555917 0.032606393 0.08682625 0.062417623 0.040474363 0.061966635 -0.0070908945 -0.025421942 -0.01256514 -0.06776896 -0.016090468 -0.06494778 0.040183228 -0.07817949 -0.048081275 -0.04062258 0.014000501 0.03673337 -0.01137647 0.025378222 -0.06309687 -0.017964931 -0.033832926 0.000455632 0.032047898 0.050938033 0.042771712 -0.055471905 -0.018262232 -0.036468904 0.038694534 0.03420739 0.05808446 0.00082750164 -0.050160147 0.060646888 0.034209814 0.010074571 -0.05586485
curious 0.048215143 -0.057370164 -0.022862885 -0.07635762 -0.05896021 -0.072581075 0.016707666 -0.00377891 -0.04412495 0.051971283 0.053457372 -0.007197153 -0.06830276 -0.015098708 -0.004531487 0.002118007 -0.01661085 0.061033837 -0.026852611 0.0109281745 0.011781684 0.01609554 0.012346918 0.0033756802 -0.05864615 0.05172217 -0.03160363 -0.01614194 -0.0644514 0.042520307 -0.0001570452 0.051652074 0.04226268 0.0562588 -0.003193519 -0.074354514 -0.0024727192 -0.054349497 0.08163759 -0.017839773 0.056468844 -0.03916879 0.020145897 0.005492677 -0.0076325396 -0.02305195 0.007843061 -0.026043367 0.035193827 0.022275915 -0.06004181 -0.037356943 -0.07129799 -0.027801808 -0.066915505 -0.032545403 0.04285134 0.008024022 -0.0012303286 -0.07189276 0.014204479 -0.0024293708 -0.056165393 0.04059957 -0.06944568 0.04097814 -0.039772637 -0.019276498 -0.034835212 -0.07505895 -0.02400007 -0.056805458 -0.0113041755 0.050635606 0.06886565 -0.04802581 0.028050367 -0.029504739 -0.02166976 -0.059342906 0.030906152 -0.000101512065 -0.024405362 0.019110754 -0.0719426 0.009116176 0.0083362935 -0.0057065175 -0.01882358 0.00091407564 0.0048720706 -0.055016514 0.06626241 -0.06072705 -0.042369388 -0.069639966 -0.0037730006 -0.017044043 -0.058114756 0.073289074 -0.0031195073 0.05057186 0.008899856 0.007317886 -0.0369329 0.01693879 -0.027139887 0.009937338 0.053651698 0.019105837 0.012123054 0.03260034 -0.0038453075 0.054562025 -0.06300216 -0.030142384 -0.044891004 0.016093213 0.035832435 -0.054854088 -0.023998283 0.024228374 -0.024195043 0.0026985824 0.033946212 0.07236097 0.008696972 -0.021271504 0.0047865785 -0.036851674 -0.05495015 0.08096824 -0.02892437 0.042718302 -0.034128826 0.026588699 -0.013571533 0.035353992 -0.007499206 0.011350994 -0.0323183 -0.0032075392 -0.022086509 -0.04978446 0.021380074 -0.0049634012 -0.02415432 -0.0722257 0.030302623 0.05071473
rest -0.060741317 0.018570809 0.050522696 0.05903357 -0.0025230707 0.047325794 -0.021054216 0.0002608652 0.049713016 -0.0058377977 -0.02475448 0.028878463 0.020810414 -0.023387032 -0.037384108 0.008709964 0.0070439153 -0.02401751 0.011539288 -0.028993418 0.015020928 0.04403972 -0.03791608 -0.05243917 -0.034139905 -0.00975986 -0.03228894 -0.045817148 -0.01732565 0.011384915 0.051967084 0.0384614 -0.054911163 -0.013588558 -0.030259436 0.054055467 -0.0077371425 -0.029320221 -0.048717692 0.016600758 -0.0009049091 0.023747949 0.052614402 0.026070844 0.0585732 0.01873116 0.06424136 0.014168658 -0.074338205 -0.013738799 0.011879329 -0.042860355 -0.016220825 0.03327756 0.044065207 -0.04145912 -0.049237154 0.031087913 -0.05344039 0.06325741 0.041196164 -0.00035999052 0.03266438 0.072882034 0.060996 0.039733447 0.009753766 0.015170801 0.043392844 0.037697025 0.022378646 0.05271872 -0.004456619 0.0451405 0.021894587 0.0021256378 0.038468875 -0.0030593511 -0.038562987 -0.019222287 -0.072561994 -0.05604962 0.0030835457 0.041722536 -0.06259511 0.008629002 0.016599514 -0.051539756 -0.03532625 -0.013351269 0.04040082 -0.05061647 -0.024768176 0.04223601 0.010511452 0.0035298245 0.07761237 0.0613346 0.021799877 0.01087127 -0.031016411 -0.056960784 0.0451544 0.024366444 0.06345735 0.056160957 0.050316885 0.037171513 0.0007217092 0.04885381 -0.017929994 -0.0112581635 0.041797224 -0.07082592 -0.031090442 0.00025317632 -0.014417607 -0.01261267 -0.017559726 -0.01808382 -0.052291825 0.050746057 0.015059703 0.05287839 0.050955806 0.045490045 -0.079836465 0.029502025 0.016465789 0.029475912 0.04962483 0.03064328 -0.052352134 -0.025626667 0.031835735 -0.016302997 -0.07279315 -0.010851258 0.026841324 0.07258324 -0.046233904 -0.026378501 -0.009211548 0.01662654 -0.032070424 0.039314546 0.009935109 -0.0037668636 -0.04899867 -0.0407596
made -0.013032584 -0.004996746 0.007606239 -0.08002629 -0.048929077 0.0007550444 -0.007264022 -0.07523055 -0.053969115 0.009991359 -0.053719904 0.050669573 0.02301888 0.04313706 -0.07303092 -0.067930095 0.05570685 -0.03825328 0.0325933 -0.068461925 -0.039718647 -0.0069309096 -0.02310274 -0.031383768 -0.04025552 -0.06785336 -0.0037889471 -0.0073098727 0.031896118 0.04765942 0.058362607 0.039014146 0.040177032 -0.058995917 0.063760474 -0.0014787363 -0.011908662 0.05886238 0.06278281 -0.017843716 -0.008987907 -0.09720736 0.065328166 -0.059065007 0.05269159 0.015869854 0.015329948 -0.055082437 -0.033543207 -0.050795596 0.045436382 -0.019829277 -0.0053102933 0.016892832 0.0876653 -0.022431703 0.05586001 0.028983004 -0.0036028158 0.019759806 0.04742898 0.048378862 -0.013108429 -0.0036877105 0.013394599 -0.06391149 0.00038129243 -0.0036381918 0.011995518 0.011278601 0.020053877 -0.0072712847 0.068560205 0.030445313 0.04115362 0.053609222 0.047990777 -0.023491787 0.07281749 -0.044749957 0.05069809 -0.010231235 0.027994318 0.07102165 0.05901377 -0.03054875 0.035429496 -0.0610738 -0.08088612 -0.028330738 0.04903067 0.008680538 -0.010114306 0.07268294 0.06639457 0.037073437 0.009168295 -0.022888087 0.02630573 0.018186664 -0.058490597 -0.0018398404 -0.0039688027 0.038656324 -0.07701164 -0.03282821 -0.046971556 0.033629775 0.011591756 -0.053048898 -0.00799986 -0.008086084 -0.03362236 0.061987903 0.06349019 -0.046852022 -0.021307278 0.027829805 0.039234925 0.070402086 0.027676878 0.056664657 0.082318164 -0.011415849 -0.055852056 0.015891353 -0.05837746 0.0067998525 -0.063097805 -0.08602288 0.077963114 -0.044433296 0.048290923 -0.022257267 0.023531625 0.037675016 -0.02954559 0.05018707 -0.048045345 0.059289355 0.05024004 0.08187255 0.049877606 -0.012120909 -0.05061716 -0.0032104398 0.028923195 -0.008752472 0.07121811 -0.03957599
drop -0.04523054 0.011244331 -0.0032367073 -0.057618078 -0.022017863 -0.056546 0.0035712407 0.033353806 0.053083695 -0.007392523 0.048934437 -0.052299123 -0.009673728 -0.048895366 0.005622105 0.010653691 -0.028125726 0.033321135 0.06298807 0.06947633 -0.06864777 -0.07538571 -0.0503387 -0.046156697 -0.026446223 0.027512122 -0.035158277 0.054518312 0.016912436 -0.015117077 -0.0516009 -0.07081867 0.04130185 -0.032735094 0.03706608 0.0016573032 0.03767917 -0.018850153 0.02523061 0.05761001 -0.008997077 -0.065874204 0.05457511 0.029312534 -0.036360286 0.016901195 0.025221242 -0.05995424 0.016831461 0.0051325737 -0.009587338 0.03448426 0.04688306 0.0339738 -0.024275808 0.04338002 -0.0066223443 -0.009822922 0.006624399 0.016602624 0.046486467 -0.043860804 0.0044087693 -0.018442938 -0.020387031 -0.016463012 -0.07706348 0.03315676 0.002707358 -0.018436367 -0.055466294 0.06958047 -0.05185868 -0.058905542 -0.06307414 0.02309323 -0.051352646 0.034978744 -0.03266843 0.022094952 0.03916905 -0.040861547 0.048977025 -0.03331218 0.05202447 0.0030476097 -0.073713616 -0.061195686 -0.020423857 0.05374616 -0.024716187 0.060067564 0.0066042338 -0.04444532 0.051021256 0.03093315 0.041660894 0.024785107 -0.019111687 0.072298124 0.05285028 0.059777796 0.044690754 -0.060744207 0.03229142 -0.025860708 0.011575646 0.019563705 0.024368856 -0.007995492 0.042608816 -0.012375555 0.012968652 0.0033033448 -0.06940258 0.06198937 -0.04340999 0.029403457 -0.02953994 0.034671918 -0.023962375 -0.060126863 -0.021171024 -0.009082902 -0.0040264744 -0.029238634 0.05148774 -0.053479496 -0.016623711 0.0052215615 -0.04192091 0.004169228 -0.0055363765 0.028724324 0.0019386392 -0.025008123 0.070466936 -0.026533632 -0.05424937 -0.07836294 -0.047054004 0.038749564 -0.03653978 0.05467614 0.02014201 0.04969358 -0.053192884 0.007283457 -0.0031008057 0.035174742
roof -0.09100604 0.046185173 -0.03988773 0.012745425 0.026281152 -0.06927625 0.03612925 -0.009624122 0.032745127 -0.073978536 0.047382317 -0.047596615 -0.024631798 0.078352995 -0.042359997 -0.06552801 -0.048762716 0.0019663107 0.07201051 -0.002103712 0.017029744 0.06261803 0.07378454 0.0069223475 0.049066998 0.011595355 0.027764969 -0.0011477561 -0.011801204 0.016504526 -0.023836022 -0.057158295 -0.040038288 -0.0300701 0.042475216 0.07034286 -0.009754134 -0.058780923 -0.04874152 -0.04502565 0.030595247 0.030144114 -0.02355101 -0.05209813 0.0134107275 -0.009118839 0.03538112 -0.004832872 0.026258975 0.0016188482 0.02821691 0.0058006328 0.0041494975 -0.026141232 0.013296724 0.05446308 -0.06289589 -0.038478523 0.025981685 0.0521263 -0.038498644 0.037004404 -0.06600536 -0.06556517 0.066211306 0.033038627 0.01748948 0.05219159 -0.053360786 0.023009717 -0.05153924 0.047293156 0.04891771 0.0067843907 -0.059202377 -0.062491175 -0.053819947 0.032446917 0.005136448 0.07664125 -0.03904304 -0.019895235 -0.020589937 -0.038283005 -0.050879385 0.069398314 0.015091023 0.07216167 -0.068735026 -0.051992815 0.0068356637 0.022797203 -0.0033636703 0.0044329213 -0.032514352 -0.017242424 -0.016336028 0.023293795 -0.003324963 0.0050978744 -0.0023679326 -0.040440034 -0.010477772 -0.07327804 -0.04187929 -0.028550155 -0.050564896 0.020096952 -0.040441077 0.014579886 0.057396952 0.019488936 -0.017146435 0.029006114 -0.05725159 0.012221241 0.0025258448 -0.05388288 0.0005237389 -0.05440755 -0.02051962 -0.03797249 0.05387057 0.004111538 0.066527896 -0.060516644 -0.048968166 -0.061898664 -0.033902336 -0.037292466 -0.0073281694 0.07354499 -0.014082305 0.025443416 -0.061416104 0.04755058 0.027689975 0.022988148 0.051850032 0.022454957 0.028699733 0.02033678 0.027975302 0.00045743224 -0.07984077 0.0046370365 -0.05231305 -0.022081792 -0.061764304 0.00661604
cheerfully 0.049354885 -0.04823722 0.0040420536 -0.0074586323 0.05246689 0.027363434 0.054589633 0.009412391 0.029943114 0.028850054 0.038154118 0.06495696 -0.038311485 0.072678916 -0.0033127987 0.062491897 -0.05482136 -0.054645628 0.004703483 -0.044539098 -0.035376094 0.0008007636 0.032352626 -0.01501836 0.065299235 0.039634135 0.031157278 -0.031079145 -0.01861799 -0.046642113 -0.019087872 0.06718452 -0.010315162 -0.009720665 0.030439807 0.011878704 -0.061681997 -0.01775618 0.03687441 -0.027973011 -0.060832094 0.04385443 -0.02790261 0.025537314 -0.035842698 -0.010944171 -0.028102791 -0.05071202 0.031121433 -0.060272057 0.011589364 -0.037322074 -0.027368322 -0.035065223 0.05629626 -0.038355086 -0.024985857 -0.052737053 -0.024533719 -0.0271989 -0.03686992 0.057541758 0.025874011 -0.026295347 0.02081739 0.05210688 -0.07339926 0.029181927 0.031252567 0.014877348 0.00015404471 0.029818244 0.043307137 -0.07091475 -0.011732435 -0.012806454 0.07172001 -0.060196396 -0.03348212 -0.059450604 0.016305529 -0.03227656 0.047894638 -0.031968743 0.0056692665 0.041616004 0.039035335 0.0045481594 0.03340562 -0.020181518 0.0057575726 -0.04584605 -0.013746883 -0.050962716 -0.0011516706 0.07659153 -0.0034796696 0.063632846 0.060423955 0.048709296 0.02056768 -0.04627891 0.07812604 0.0037343218 0.016467528 -0.041366834 0.023613974 -0.04173406 0.058722522 0.01567871 0.015391141 0.041579653 0.036895715 -0.020899935 -0.010071799 0.0023121596 0.004270601 -0.022920482 -0.041572023 -0.0015741527 0.021688316 0.0752579 0.0594015 -0.05876904 -0.040111337 0.06233382 0.06759768 0.061898116 -0.03930015 -0.020564437 0.06230825 0.014920155 0.0633051 -0.007299968 0.019106714 0.055512823 0.053086307 -0.018168723 -0.03295634 0.034846626 -0.074127585 -0.08016017 0.013122773 0.031305604 -0.0013355138 -0.0076661604 0.010010799 0.027751574 0.0068091033 -0.04893321
own -0.012750552 0.031342372 0.03745684 0.005875014 -0.05264727 -0.014951672 0.058118146 0.052411407 0.023274628 0.0073688277 -0.0014222098 -0.04844359 0.022183275 -0.03545723 0.01557671 0.0364432 0.056290008 -0.028664429 0.00938689 -0.04047217 -0.06958479 -0.05198449 0.036895934 -0.031148434 0.051991485 0.029496053 0.080076985 -0.026150912 -0.027934272 0.039905302 -0.07580452 -0.08425907 0.05500101 0.016360583 0.0128426915 0.034814965 -0.005693949 0.08904795 -0.0035796235 -0.06052125 0.10020931 -0.08077716 -0.052408036 -0.021729989 0.06848831 0.037507877 0.010156034 0.07380782 -0.050358288 -0.016030308 -0.013187708 -0.017231196 -0.0153765585 0.008637288 -0.03310059 0.035900522 -0.0031380146 0.05839934 -0.021707067 0.020731576 -0.03477931 -0.0084817875 0.07403061 0.010661347 0.023639852 0.04254481 0.068823986 -0.008748357 0.039559416 0.028503912 -0.06912921 -0.03415979 0.0028190645 0.04534005 -0.017756954 0.01700855 0.024646977 0.04240311 0.046439644 -0.05313674 -0.003609371 -0.07729034 -0.064719066 0.005410544 0.004181075 -0.063498996 -0.0019415721 -0.05047191 -0.021606904 -0.045718722 -0.08214343 0.00461205 -0.0064724595 -0.014924553 -0.048004646 -0.063118316 -0.02979719 -0.02300623 -0.066877365 -0.042813078 0.0516994 0.013781191 -0.005944011 -0.030250028 0.029576182 0.023492295 0.038075335 0.04140683 0.0455006 0.038134377 -0.014323216 0.008877943 -0.038893115 0.011155207 0.054261506 -0.017341046 -0.027265895 -0.09048052 0.009789238 -0.042145595 -0.046013284 0.016205175 0.043207675 -0.04652423 0.039558776 0.012829655 0.029381005 -0.0036319364 -0.0004923409 -0.07566872 -0.010084303 0.028574063 0.016970852 0.03856186 0.013744023 -0.03816786 0.06818646 -0.057964325 0.05006655 0.02717451 -0.03947308 0.020940147 0.015554644 0.02930603 -0.04150623 0.04002118 0.023950327 0.013700756 0.03144703 0.024433808
piece -0.0707249 -0.030677196 0.012930773 0.05295057 -0.0013595007 -0.053954933 -0.04490658 -0.056462467 -0.022558328 0.01684099 -0.011508434 -0.039952707 -0.035493642 -0.037619784 -0.015514483 -0.0033352799 -0.023473248 0.0021703118 8.156663e-05 0.012756485 -0.032067083 -0.049194716 -0.023058226 -0.050762046 -0.012996925 -0.053175073 0.047282554 0.00936768 0.0312763 0.033791494 0.05986277 0.03692331 -0.0443097 -0.05821855 -0.055101223 0.06479638 0.022500742 0.046257533 0.049131934 0.040845364 -0.018063586 -0.034990847 -0.051393334 0.058881205 -0.052250575 0.04120283 -0.029656654 0.0555712 -0.013754059 -0.03268939 0.0099184895 -0.03258129 0.019003382 0.033666864 0.003311372 -0.018672358 0.04899386 0.018776879 0.061567135 0.05681876 0.010458955 -0.005565027 0.021332 0.0037606014 0.051118374 -0.019335983 0.02369022 0.042408545 0.029933607 0.032959554 -0.029006714 0.040943723 -0.03622794 -0.06682073 -0.01506737 0.020975575 -0.021986648 0.06627132 -0.022945967 -0.016946096 -0.03487331 0.044965632 -0.031394403 0.0054043294 0.04516252 0.038298164 -0.014785016 -0.04188751 -0.061947733 0.02642404 0.005042443 -0.06114987 -0.027860023 -0.050326906 0.062732846 0.021652138 -0.011041888 -0.053849816 0.025528416 0.06503832 0.0043210816 -0.0730723 -0.031523615 0.0009708691 -0.005520016 -0.07139676 -0.024032328 -0.04958896 0.06529595 0.05841965 0.0443776 0.048533354 -0.01208336 -0.019238196 0.03635037 0.03039997 0.04344994 0.03950163 0.007839084 0.05902325 -2.9049814e-05 0.03609387 -0.015019696 -0.035219476 0.0042164624 -0.013753326 0.030961754 -0.05331285 -0.051337026 -0.0110013485 -0.045939244 -0.04614524 0.037353564 0.05808008 -0.028584264 0.022496482 0.04367954 0.07594098 -0.05760684 0.012337292 3.3039367e-05 -0.0038824999 -0.029759515 -0.022004366 0.051035583 -0.055488013 0.035089206 0.011121801 -0.0414151 -0.024150617
possibly -0.055027656 0.04334098 -0.040655985 0.013112923 -0.01833536 0.037296783 0.027377116 0.0016171461 0.020333428 0.021193512 0.048677325 -0.051113434 0.05039135 -0.01241378 0.009046292 -0.02791745 0.0370004 -0.039936278 -0.04968893 0.050503697 -0.011584278 -0.06338089 0.0027467436 0.019345073 -0.054103833 -0.021978468 0.012081842 0.021076186 0.023213148 -0.005653238 -0.04050129 -0.045437068 0.0645522 0.02581312 -0.057366528 0.03976454 -0.07176409 -0.07610076 -0.024104062 -0.0554843 -0.05308015 0.012442211 0.07206403 0.015027902 -0.0771358 -0.0538031 -0.025272217 0.080908395 0.04031748 0.003530438 -0.054070547 0.074073754 -0.035792008 -0.045737945 0.016608942 -0.0424987 0.056597244 -0.032128766 -0.06256839 -0.039618015 0.023271589 -0.019192606 0.041863054 0.049525037 0.007874463 -0.06595657 -0.042608608 -0.04195842 -0.03253292 0.017617311 0.05441508 -0.017649788 -0.019301297 -0.077473156 -0.065149404 -0.02394481 -0.024716824 -0.042631373 0.0077901008 -0.028132468 0.026383819 -0.00299843 -0.0045727924 -0.06296963 0.045672964 -0.023595268 -0.05425619 -0.022634389 0.07182429 -0.0049493453 -0.06182585 -0.019018736 -0.041532066 0.054357007 0.013785357 0.066647045 0.041366015 -0.011874994 0.02885692 0.043881997 -0.03150154 0.025214097 -0.06195254 -0.03669039 -0.025559856 0.030759705 -0.019132398 -0.020152554 0.0028746938 0.019539887 -0.0071181366 -0.0737944 0.019138988 0.060451996 0.023326932 0.002421379 0.002382356 -0.050263114 0.057382748 0.05221231 0.0015249671 0.012107756 0.034922235 0.049520396 0.04574008 -0.057698622 0.029103218 -0.045911644 -0.0024834417 -0.051048703 -0.052233305 0.047716465 -0.044470187 0.0320027 -0.03349653 0.0802859 -0.06298849 -0.056463953 0.02027252 -0.042789288 0.015362421 0.01709616 0.012430163 0.027953923 0.05482277 -0.07335366 -0.066162094 0.060101435 -0.058573753 0.052503914
insult 0.0019930704 0.028944282 -0.022113407 0.004055217 0.05877071 -0.048955027 0.0023132646 -0.050550815 0.02930746 0.07609416 0.022264345 0.017976485 0.05727199 -0.026484877 -0.00040749507 0.03652223 0.045540147 0.011513203 0.001999708 -0.0018438826 -0.0031792927 -0.03399308 0.055410255 -0.064304635 0.017394327 0.008039693 -0.004638685 -0.009104645 -0.030931437 0.04774171 0.021078164 -0.0057966406 0.02279722 0.0066706543 -0.0029398755 -0.041554287 0.056577086 0.0437198 -0.028336994 0.046621505 -0.048046272 0.0377953 0.03453001 0.054118816 -0.04301495 0.069917135 0.0043762736 0.040099192 -0.051052954 0.04569806 -0.015749684 0.025775509 0.020446602 0.0048849625 0.01524087 0.05172369 -0.01643174 -0.037931062 -0.006007213 -0.053857397 -0.049241398 0.047918238 0.0031022392 0.056432083 0.027607981 0.034175683 0.0064183054 0.05408949 0.02224869 -0.015666269 0.0678507 -0.036124248 -0.066276595 0.008942136 0.07167436 -0.042394605 -0.015454993 -0.017705567 0.04609682 -0.062014833 0.0040656812 0.0014207724 0.017274162 -0.053627294 0.03827254 -0.026243286 -0.032576073 -0.06601358 -0.0030048396 0.042486284 0.012612732 -0.058209557 0.0040848926 0.055632804 -0.018006515 -0.07452197 -0.044888876 -0.0021462247 0.0054544657 0.038049754 0.027607577 -0.007152007 0.045350693 -0.048740596 -0.048735272 0.0442494 0.059896763 0.022234274 -0.033266526 -0.048718397 -0.045555238 -0.009046444 0.004013351 -0.0010761129 -0.021372993 0.024704332 -0.010915955 0.01452634 -0.07189163 -0.06593644 -0.045084257 0.0694438 0.04133322 0.0017970407 -0.06822955 -0.021472123 -0.0095851775 -0.022538029 -0.035461407 -0.054334547 0.05898407 -0.06966559 -0.023694955 -0.048238996 -0.06508824 -0.019338781 0.055057257 0.0514084 0.02825901 0.004032788 0.03002221 0.004966506 0.032427777 0.07551464 0.06796355 -0.06907321 0.07431544 -0.0026303113 -0.061053865 0.057693902
solemn 0.044893656 -0.033511616 -0.0028470946 0.06521708 0.015660651 -0.02790377 0.022647884 0.02014347 -0.009214856 0.027710937 -0.0063011334 -0.07795535 -0.00999593 -0.04407218 -0.031032009 0.069526345 0.028324367 -0.026900424 0.011305371 -0.08031041 -0.050192207 -0.005892181 0.028582416 0.034381393 0.049972016 -0.025438635 0.025810372 -0.0062229466 -0.02406196 -0.008222442 -0.004784067 -0.067741305 0.07715134 -0.017625097 0.036713764 -0.00085787114 0.032106444 0.025181241 0.03597896 0.001058201 0.00939235 0.01255831 0.016354231 0.04343979 0.042125553 0.054255586 0.035892494 0.03251227 -0.02868272 0.06499762 -0.04635127 0.004589977 0.014766596 -0.018045302 -0.038753435 -0.024772888 -0.03469847 0.056729246 0.052241836 0.047321483 -0.07344232 -0.037828162 -0.049825754 0.030121624 -0.034575857 -0.016564004 -6.868504e-07 -0.038125217 -0.022285506 0.03398052 -0.021665676 -0.029253108 0.068639025 0.04183875 0.04608382 -0.04842282 -0.023992991 0.028691828 0.011210422 0.0056855427 0.057192963 0.061461173 -0.058331005 0.022432039 -0.06741368 0.042769525 0.035840902 -0.017381601 -0.051441893 0.05285134 -0.021482961 0.026661914 -0.052297797 -0.036073957 0.050939787 0.016814087 0.07477722 0.03106084 0.035847187 0.020768099 0.0031648409 -0.041736703 -0.0018398705 0.039531097 -0.010069691 0.067349605 -0.010149983 -0.01830349 0.032212857 -0.07082076 -0.05080205 -0.014400849 0.013886729 -0.04911199 0.021981364 0.0744576 -0.031530816 -0.016106946 -0.070745654 -0.017748132 0.028357979 0.014071423 0.01591832 0.0055295117 0.022641664 0.009033002 -0.06693738 0.034582786 -0.032758065 0.05065277 -0.06037859 0.020765893 0.020037513 0.012669799 0.061582316 0.021659864 0.016277757 0.049125627 -0.020913873 0.01135557 -0.04891757 0.048153855 0.038496163 -0.071591586 0.015004396 -0.055031717 -0.041516222 0.06571922 0.05960672 0.059960395
ii -0.023699606 -0.044251915 0.055371903 0.026820166 0.038570546 -0.015403435 -0.045682058 -0.011150989 0.042720854 -0.009462508 0.04729229 -0.059810627 -0.034975648 -0.0019200819 -0.039133187 0.017790252 0.060075533 0.009826876 -0.03739177 0.022612395 -0.06408758 0.0007456705 -0.02923409 0.06471912 -0.0060601416 -0.05258721 -0.0159089 -0.076779075 0.05444028 0.035126783 0.06615105 -0.022723354 -0.0788602 -0.0070427447 0.0038363158 0.061143834 -0.06260174 -0.02917534 0.035798553 0.044629 -0.034528185 -0.06535062 -0.030115522 0.064337455 0.060348753 0.031796042 0.020060686 0.00974548 0.041197903 0.027975794 -0.06076334 -0.07578958 -0.022548031 0.0021884642 0.014574721 0.060646337 0.034504894 0.020225218 -0.04674837 0.02899352 -0.05074741 -0.036292937 0.037977483 0.02911141 0.0022973563 0.044425607 0.049446274 0.060939766 0.0028523034 -0.02636457 0.05423753 0.04847491 0.012813476 -0.02308187 -0.06629702 0.034692213 -0.06797019 0.070144 0.0520977 0.056312915 0.04077401 -0.021721382 0.0600033 -0.0017789719 -0.025332201 -0.042489607 -0.06429408 0.06937365 -0.003775341 -0.012850959 0.010239631 0.068785645 0.06557269 -0.055141747 0.047324926 0.017381394 0.016458124 -0.037657823 0.054633804 0.0054570367 0.0053030327 -0.0036741411 -0.005033992 0.0031066062 0.043810826 -0.077106014 0.037810557 -0.052107114 0.039802164 -0.07227061 0.012562919 0.044409696 0.047886368 -0.029133813 -0.028945595 0.016003827 0.033028077 0.013246851 0.023179509 -0.029128829 0.04733665 0.05108924 0.042368047 0.011414809 0.0043478766 0.012783567 0.021244185 0.03633556 0.0767433 0.042357206 -0.06380774 -0.028084904 -0.04160378 0.036068644 -0.0057405084 0.013212968 -0.02200975 0.03764033 -0.063907325 0.03174225 -0.024888989 0.035700064 0.03243044 0.029016912 0.00652071 -0.04344423 -0.00986391 -0.035229377 -0.05938345 -0.014391877
liked 0.050013654 -0.03842556 0.066714756 0.010423412 -0.071638554 0.060490377 -0.02926988 -0.044224687 0.05412797 -0.05514561 -0.020803543 0.030801862 0.056566022 0.06396968 0.027570143 -0.03546163 -0.054428577 -0.06856175 0.00033297949 -0.009278584 0.019676842 0.043822948 -0.037623294 -0.0046233237 0.060981937 0.024189398 -0.023943515 0.062689476 -0.017815167 0.00021573156 0.021532964 -0.0156732 -0.0021863522 -0.07764264 -0.06588538 0.027585989 0.037434462 0.062734134 0.021668633 0.036269326 0.05645021 -0.038927514 0.005506081 -0.010491246 -0.057880346 0.041888878 -0.06692949 0.032440715 -0.026294183 0.029185858 0.07138636 0.04744304 0.057387944 -0.029635293 -0.029324412 0.0065805456 0.061008953 0.068516664 -0.034147445 0.055158656 -0.042397328 0.047641855 0.053030297 0.05428572 -0.035449065 0.0028709723 0.015626911 -0.018750299 0.042025343 -0.06274863 -0.05031539 0.035145607 0.059518464 0.033120196 -0.0023735035 -0.04938006 0.027270155 -0.0723058 0.039908726 -0.04291585 0.02404342 0.024314439 -0.07054313 -0.038025193 -0.04869755 0.00894685 -0.01700511 -0.049721025 -0.031064568 0.0064512705 -0.031391528 -0.049439255 0.06756333 0.0125746075 -0.004908789 -0.04386959 0.012629952 -0.0062100603 -0.016401025 0.011084603 0.009034365 0.03145453 -0.0017453592 0.06724155 -0.05167257 0.053895462 0.0030711251 0.04042368 0.05370003 -0.02844857 -0.04935688 0.022170484 -0.04982281 0.0425981 -0.036545757 -0.052036773 -0.05749899 0.038046602 -0.023979386 -0.031274736 -0.0037771529 -0.041744657 -0.019336 0.015255879 -0.0077565117 -0.027785094 -0.044916477 -0.05563734 0.0074239136 0.049730904 -0.04942558 0.013926167 -0.04985589 -0.023161745 0.0068667135 -0.047418896 0.03622847 0.058128886 0.020449957 0.06061673 0.0599434 0.02051265 -0.06328025 0.048969083 -0.0042196093 -0.026649881 0.05945995 0.053653143 0.048737288 -0.010719814
occurred 0.019228904 0.02539724 -0.013427387 0.01163311 0.0022569702 -0.0063347886 0.015427725 0.06545282 0.025007762 -0.026430832 0.04070253 0.008416686 0.0766521 -0.024433922 0.041552268 -0.039971218 0.0107296575 -0.051755074 -0.036649555 -0.03676764 -0.003499745 -0.05719446 0.05101602 -0.028325893 0.028806482 0.020650119 -0.006920682 0.054158557 -0.026748339 -0.015491682 -0.025714522 0.040759344 0.053402837 -0.033106633 -0.04166515 0.045579992 0.049922224 -0.021435978 -0.03794187 0.06525452 0.06024664 0.03691635 0.039791826 0.027839527 0.033751268 0.026539216 0.01661136 -0.04180794 0.03852474 0.02251443 0.06591141 -0.042039197 -0.043231677 0.058919795 -0.04403748 0.005491346 -0.03458193 0.045091912 -0.011359462 -0.04575863 -8.270319e-05 0.046804067 0.0691984 -0.011758525 -0.036097888 0.035960305 -0.037715595 -0.02412157 -0.036043946 0.057048168 0.00015584088 -0.03592063 -0.02840929 0.0008721666 -0.045645263 -0.041121986 0.059593685 -0.042401608 -0.02078168 -0.04145074 0.052136485 0.043969393 -0.022042815 0.03688963 -0.019477958 -0.015018249 -0.0441477 -0.006158514 -0.012634834 0.013144504 -0.033730213 -0.004017069 0.013131283 0.06263976 0.05363775 -0.072875656 0.02622244 0.04618982 -0.06770018 0.043176524 -0.06397654 -0.05209454 -0.045258902 -0.04449735 0.022434805 0.053982466 -0.050184086 0.01603407 -0.021159995 0.029312532 -0.06887646 -0.05987118 0.024087807 0.033767965 -0.041126836 -0.038757168 -0.041917127 -0.029712757 0.024294969 0.05150564 0.031954832 -0.054083396 -0.025792977 0.0056213723 -0.04807771 -0.0048807687 -0.04927238 -0.023901721 -0.062539205 0.02524582 0.061232407 0.05341876 -0.064400144 -0.052666552 0.023725646 -0.03831476 -0.047391698 0.013140881 -0.046793293 0.05228368 0.05787626 0.029425139 0.06746976 0.06231005 0.045811206 -0.03525719 0.050761435 0.047326498 0.022676423 -0.03435866
trying -0.027213676 -0.021056313 0.0013397059 0.011185144 -0.06746236 -0.061569415 -0.0566195 -0.00018595136 -0.0253086 -0.037348785 -0.06971854 -0.024465613 0.046371143 -0.020022918 0.041876342 -0.04383081 0.058871437 -0.030823417 -0.07872504 0.02257937 -0.009267807 -0.056328773 -0.0070203505 0.05305124 0.080794126 0.030229807 0.0040590344 -0.0048998604 -0.040995862 -0.081981316 0.026842806 -0.08777185 0.01596435 -0.025131958 -0.01797396 0.050635345 0.048217103 0.015142371 -0.004950894 -0.03956849 -0.057039212 0.06520366 0.05927203 -0.019941099 0.017018106 -0.0330261 -0.017219312 -0.036124833 -0.019112907 -0.04892362 -0.049524363 -0.03184083 0.032254733 0.012635435 0.021444852 0.016997574 -0.051246036 -0.039541606 -0.04967401 -0.049075276 0.04905192 0.022334794 0.0045925803 -0.01641221 -0.067908995 0.024213113 -0.018892556 0.047430273 -0.030156277 0.024919748 -0.061354615 0.06780282 -0.017710231 0.048626795 0.04720868 -0.0014443046 0.011898451 0.04883694 0.07895473 0.068962164 -0.030478109 0.03655317 0.04696195 0.016170453 -0.0062520877 -0.024283426 0.048058808 -0.002194327 -0.0040646964 -0.061724033 0.015189065 -0.0026577702 0.06966452 -0.032337964 0.082505055 -0.048364103 0.0654561 0.03596953 0.05072961 -0.041061457 -0.060620412 0.059965722 -0.03338152 -0.040284336 -0.037804738 -0.006738106 -0.075459465 0.021642227 -0.037318833 0.02038374 -0.009561991 0.046004526 0.027940733 -0.025731983 0.008713015 0.07170165 0.042977687 0.016722983 -0.036924135 -0.049982 0.022254325 0.06706843 0.00942681 -0.008423762 -0.03202251 -0.057576865 -0.030345352 -0.040367763 0.04802276 0.039390586 -0.00635045 0.03865297 -0.013009976 -0.02320757 -0.014367491 0.06744736 0.023319945 -0.08870518 0.04451697 0.030483797 0.07580397 -0.052960362 0.036813635 0.0060880464 0.04886053 0.020730663 0.03566911 0.012682089 -0.07977218 -0.06065567
waters 0.05743464 0.0043802713 0.04120545 0.02014679 -0.007889517 0.025948571 -0.055701613 0.04206164 -0.055469997 -0.01980516 -0.0089615835 -0.03174673 -0.016155148 -0.049735732 -0.036187485 0.038201958 0.006630194 0.07345405 0.016333405 0.074056104 -0.034256116 -0.013838705 0.015512362 0.06483027 0.04603852 -0.047664553 0.026546834 -0.062001206 -0.033402313 0.015933279 0.022364184 -0.025007742 -0.035041306 -0.06568055 0.034192864 -0.0057336707 -0.018761583 -0.059311688 -0.065732606 0.01395708 0.0011771802 -0.059339598 -0.0017306673 -0.06466365 0.0149943195 0.027165314 -0.054367516 0.028816385 0.05739795 -0.035426576 -0.049809366 -0.04780294 -0.035645735 -0.04136861 0.015044364 -0.02901147 -0.012799347 0.055199705 0.040837154 -0.030750962 0.016960276 -0.016844075 0.044180013 0.021762667 0.052823655 -0.066392794 -0.05286618 0.017690163 0.02779545 0.015160336 0.022278346 0.028738512 0.05626149 -0.045180026 0.023439242 -0.06557026 -0.07056002 -0.050224237 0.04449602 -0.00030761026 -0.01307709 -0.016999807 0.015997458 -0.01100003 -0.05124899 -0.032845005 -0.06678578 -0.004300192 -0.0698143 -0.004572445 -0.0472378 0.02924798 -0.0042098644 -0.05145912 0.040928457 0.013805483 -0.014267297 0.0618628 0.03552139 -0.002840802 -0.07047971 0.043885615 -0.043395758 0.0016271295 -0.0097489655 -0.032425422 -0.0027034364 0.037111383 -0.0070374925 0.013070915 0.028852249 0.03490965 0.064062536 0.0054825554 0.05066572 0.010123914 0.011293267 -0.0048884414 0.07069568 0.004406771 0.043662444 -0.074915595 -0.011531955 -0.0034232908 0.042885527 0.016411154 -0.01900639 -0.057256423 0.065966204 0.044852123 0.0418165 -0.054901034 0.03541168 0.047892645 -0.024951749 -0.015193687 -0.055580765 -0.019760448 -0.014657063 -0.011032499 0.04846173 -0.0120985545 0.038535934 -0.036804218 -0.022114895 -0.04263577 -0.005976352 0.04125497 -0.065262936 -0.028854327
severely 0.054550182 0.0022013108 -0.056510456 -0.05318867 0.012054723 -0.05949605 -0.043091647 -0.046935026 -0.029731436 -0.03395605 0.06710751 -0.059829496 0.015229998 0.02251156 0.065069176 -0.00888436 -0.035102576 -0.017019365 0.0016120722 0.016486334 -0.005892204 -0.0425513 -0.058548383 0.046474416 0.05420055 -0.022555295 0.06442444 -0.0040426976 0.005319749 0.022767581 -0.0432206 0.048958573 0.04188939 -0.04402266 -0.05195277 -0.027999219 0.025679583 0.0505555 -0.06011994 -0.03960454 -0.027885824 -0.04262544 0.048973154 0.07177869 -0.052955907 -0.0011007887 -0.020346899 -0.059099276 -0.015605824 0.06356607 -0.026014652 -0.031061113 -0.0019858945 0.001656943 -0.06375493 -0.055481937 -0.043982904 -0.049456153 -0.042641018 -0.08100078 0.017939351 -0.014605956 -0.027142812 -0.03313834 0.060747813 -0.009658913 -0.04867711 0.024185032 -0.012786016 0.058502175 -0.03400712 -0.056947533 0.012637938 0.031114867 0.06545589 -0.03597191 0.039345693 0.024243146 0.04833255 -0.01784359 -0.018408103 -0.063100055 0.0781065 0.051631793 0.015201229 -0.03954208 0.012438638 0.03661303 0.012824947 0.0085809985 -0.008349277 -0.005340999 0.031099223 -0.04028505 -0.025270268 -0.07868761 -0.002791923 0.04715445 -0.0016435015 0.022286324 0.0056308876 -0.07560798 -0.0007142611 0.0012629548 -0.014842562 0.07153942 -0.03878043 0.033193655 -0.01686763 0.019825982 -0.019343207 -0.03682831 -0.039512575 0.02063173 0.018180782 0.055563446 0.05067791 -0.012759722 0.06287601 0.014087546 -0.023624854 0.012507179 -0.040664352 0.03322886 0.0581299 0.03170849 -0.021608273 0.044335008 0.008824489 -0.0015955862 -0.030424565 -0.004028678 -0.03409633 0.0661407 0.005497063 0.026440095 0.034380466 0.041308496 0.007431958 -0.053434595 0.017868755 -0.04971695 0.02364806 -0.031837355 0.047158685 -0.039662812 0.052690808 -0.015988361 -0.05145044 0.0061110747
doesn 0.029566305 -0.07028365 0.016187482 0.025655787 0.017163375 -0.04511528 0.03654416 -0.06076634 0.06340154 0.048918247 -0.03668746 0.025526125 0.09913202 0.0066500627 0.022781225 -0.055884227 0.0069249664 -0.05162333 -0.040819194 0.06558721 -0.019242972 0.090847164 -0.07714117 -0.08114718 -0.005288599 -0.095250316 0.0055462997 0.002465941 0.01607922 0.0535518 -0.03747297 -0.03339285 -0.0324464 -0.035159037 0.06479949 -0.048619617 0.013156735 -0.029892083 0.05426215 0.025195397 -0.027681759 0.006720841 -0.060694065 -0.04699465 -0.08426467 -0.115844175 -0.042491954 -0.012914989 0.06917724 -0.037975032 0.071494594 0.053616572 -0.01603463 0.015513725 -0.06531085 0.015456647 0.02536595 -0.039133523 0.024073865 -0.028650982 0.049143072 -0.042144567 -0.04432577 -0.04248285 -0.058837708 -0.08364948 -0.0067382418 0.045178212 0.03739934 0.062073093 0.02274587 0.02975475 -0.01722285 0.0012170603 0.020410672 0.058291 -0.05576587 0.00072978856 0.024010055 0.04311683 -0.022582235 -0.014404006 -0.08369744 -0.024417289 0.067331895 0.0393449 -0.024531133 -0.056169488 0.08922687 -0.10902729 -0.050621375 -0.0018204283 -0.08332154 0.03402551 -0.04020249 0.009441167 -0.08032706 -0.03384554 0.036525454 0.024589464 0.031208154 0.014391357 -0.030894294 0.014973357 -0.022569237 -0.101516925 0.032386564 -0.028137337 -0.028062839 -0.0616516 0.0035497916 -0.05792682 -0.019356467 -0.0026310345 0.053909376 -0.0029315013 -0.050816495 0.04449357 -0.03381572 -0.025703445 -0.043421574 0.01753933 -0.03851227 0.056567036 -0.018717328 0.017766634 0.022428207 0.06307346 -0.022909101 -0.016705714 -0.01695501 0.013775616 0.03268005 -0.07372571 -0.01535683 -0.042054612 -0.060099095 -0.0039968668 0.07365563 0.013552506 -0.082597606 -0.075343035 -0.037969287 0.07072415 -0.06188451 0.0133963805 0.016934924 0.05535675 0.018922709 0.048380323
wrapping -0.03687546 -0.041208774 -0.05370451 -0.015297202 -0.0031073294 0.058473244 0.06679926 0.01339838 0.05700064 0.0076451753 0.011474218 0.026203519 0.02944359 -0.035878185 0.027055716 0.015217191 -0.0020301628 -0.04549079 -0.030809766 0.051301047 0.02016805 0.006251701 0.014850019 -0.030062545 -0.02982598 -0.059006616 -0.02570514 0.043031134 -0.045426913 -0.027291274 0.0007167213 -0.0029521156 0.016186023 -0.007299361 0.042592164 0.008418871 -0.008975702 -0.058978733 0.058173664 0.06726026 0.07715455 0.057645082 -0.0009853994 0.023529792 0.052798793 0.0018643477 -0.03244951 0.04376397 -0.026410028 0.001302539 -0.0075300047 0.0057699583 0.047720205 0.059349544 -0.017887684 -0.041613426 -0.027236896 -0.04051466 -0.041152775 -0.050864875 -0.014679325 -0.059068054 0.021200927 0.06689849 -0.035413694 -0.03152996 0.049465362 0.037822716 -0.06883066 0.03601362 -0.01441287 0.041972205 -0.019392319 0.019062523 -0.06685659 -0.057465542 0.0037405447 0.012321699 0.031151392 0.054920122 -0.02359332 -0.02455604 -0.053707335 0.02939571 0.03376331 -0.0041794204 -0.04892094 0.053057235 0.009034349 -0.001318934 -0.040198717 0.0257941 0.0102274185 -0.042950995 -0.02955078 -0.04824154 0.043104693 0.06340774 0.028367711 -0.0005991183 -0.022754237 -0.03139305 0.011917379 0.013973455 -0.04545697 -0.015426633 0.030753048 0.008695202 0.045214772 -0.04740761 0.0029430948 -0.0028108573 -0.04196436 -0.04943149 0.056867786 -0.00361739 -0.0059432876 0.05095353 -0.046310764 0.0068545816 0.02754043 -0.028618231 0.057060454 -0.043526303 0.020910915 -0.04176863 0.04570062 0.039948344 -0.046696592 -0.025675261 0.034637544 0.024544451 -0.061400607 0.048570834 -0.0077145128 0.044277497 0.012909077 -0.053618755 0.018156113 -0.013234019 0.053988177 -0.037526205 -0.024840754 0.06306982 0.013348164 -0.035259772 0.005244297 -0.018976986 -0.00857525 -0.010801433
largest 0.00961273 0.054387692 0.049257066 0.024870804 -0.052285455 0.020939367 0.0027757632 0.03980024 0.027058825 -0.005180777 -0.021951636 -0.017597701 0.015271738 -0.0039561903 -0.05582616 -0.047812387 0.00954863 0.068432525 0.004211962 0.04475874 0.007806094 -0.012977442 -0.00870956 -0.046946395 0.05161183 -0.0017415124 -0.0417385 -0.06964954 -0.025018722 0.06183255 0.048641823 0.034124605 -0.060166135 -0.080209315 -0.028172534 0.011572968 0.013924245 -0.047898144 0.03293555 -0.053096898 -0.016007185 0.048217896 -0.06489664 0.010679943 0.06451744 0.078873344 -0.009717407 -0.03571055 0.0616018 0.060934722 0.042057548 -0.017729465 -0.015577382 -0.01539995 0.016703056 0.051576007 0.042356256 0.03188651 0.04876472 0.031067763 -0.034961533 0.035516664 -0.022123769 0.0032405518 0.038807493 0.033066865 -0.0017864588 -0.016897427 -0.030657511 -0.062948085 0.04272977 0.035339557 0.017007163 0.043961756 0.0029939618 -0.052711926 -0.017703505 -0.04111302 0.02654089 0.008625512 0.013803936 -0.059867427 -0.0037286307 0.047141664 -0.052909214 -0.0037308037 -0.014949392 -0.048782244 0.043212887 -0.004561186 -0.020048423 0.058181506 0.043967746 -0.0585225 0.014873705 -0.018828986 0.074463874 0.051209696 0.015449196 0.066024356 0.029191187 0.048814114 0.03611301 -0.017510116 0.03287318 -0.0076450715 -0.044908423 -0.043252833 -0.029851755 -0.062114652 -0.034249797 -0.008563012 -0.032357488 -0.034730986 0.037775442 -0.0015975356 -0.04645644 0.019562019 -0.021434994 0.021362267 0.021152228 -0.03762522 0.06601313 0.031752117 -0.029336441 0.06441907 0.04307788 0.010184046 -0.01551958 -0.061391413 0.064727396 -0.05586496 0.029183561 -0.07904818 0.018246451 0.027833985 0.02089198 0.038305037 -0.020658318 -0.02600541 -0.044919264 -0.035510924 0.027231896 -0.048234537 -0.06335504 0.029960463 0.04719283 -0.002046175 0.04837708 -0.056702714
started -0.016399084 -0.030599406 -0.035881203 0.06593573 0.02285692 0.058575492 -0.015237201 0.063923575 -0.032298546 0.028603043 0.025122246 -0.01435911 0.059965506 0.045455985 0.050997294 0.0026900312 0.024110483 -0.02171532 0.020467514 -0.0066121393 0.024011813 0.0056725037 -0.01783237 0.075419314 0.012610504 0.012751332 -0.048357163 0.04795559 0.009735759 0.012571068 -0.029872952 0.032514013 0.07128542 -0.06298416 0.012932966 -0.04030733 -0.057873093 -0.030777264 -0.021602545 -0.049251385 -0.051834445 0.0021204636 -0.026368737 0.006151152 -0.031535193 0.03839359 0.035078116 0.01574458 0.011434495 -0.03107287 -0.069137536 0.003380774 0.04439644 0.009189751 0.058114164 0.0146346865 -0.079447314 -0.009804499 -0.039508555 0.028785797 0.01154729 0.043324683 -0.009252745 -0.03314936 0.06310897 -0.03995579 0.0028077848 0.045272857 -0.05308877 0.007447524 -0.035892922 -0.053801168 0.03472871 0.027570698 -0.03333998 -0.03868543 0.024418106 -0.0072183725 -0.058690596 0.043692056 -0.008477712 -0.051111758 0.035883263 0.0063977814 -0.007410638 0.025930624 -0.02504079 -0.06329603 -0.025081253 -0.025208635 -0.064558096 -0.0075691836 -0.04474034 0.037069697 -0.037017 -0.01859201 0.025744298 -0.038877822 -0.062132213 -0.029688148 0.016219124 0.062409386 -0.030064737 -0.023982452 0.0010302844 1.1091703e-05 0.009890172 -0.07235255 -0.057750374 0.023641521 0.00210841 0.0074906917 -0.012474959 0.04765353 0.0057601137 0.021772148 0.049777344 -0.035848375 -0.052627098 -0.061573245 -0.02674916 -0.067846894 -0.04307064 0.023187479 0.07685906 0.04463684 -0.0075063175 0.059726052 -0.055673886 0.0027397568 0.028280996 -0.048938774 -0.03345895 -0.0027239104 -0.05961333 -0.04019653 -0.039939843 0.034390774 0.017499171 -0.044436127 -0.05006442 -0.018893275 -0.06754796 0.029059388 0.01908519 0.0051145554 -0.04192193 -0.046997968 0.010774661 0.04440081
roast 0.00023151771 -0.043178394 -0.0012793003 -0.072475635 0.010223538 0.03805355 0.044791993 0.030256214 0.071855545 -0.024878561 0.00052565767 -0.07493802 0.020457229 0.03446559 0.0015962083 -0.043016784 0.022907669 -0.057094485 0.035011966 0.05849258 -0.033656042 -0.06880044 0.067003556 0.056470215 -0.009529581 0.016521368 -0.008524736 0.052116815 -0.0155523615 -0.0023329984 0.010636976 0.07410495 0.0122717405 -0.052414622 0.08102864 -0.067914814 -0.009391149 -0.048401378 -0.050863527 -0.003454492 -0.03187625 0.008203765 0.006449225 -0.052989032 -0.004546973 0.030831734 0.034913342 -0.028333986 0.025537506 -0.077479705 0.026365727 -0.020993207 -0.02714117 0.02703033 0.06564979 0.01572575 0.061208356 -0.037428252 -0.004479532 0.062255364 -0.04244371 0.039464742 -0.06964818 -0.016966501 -0.049611438 -0.00956266 -0.07458992 -0.026364163 0.03200842 0.024353405 -0.03980137 -0.03429492 -0.015674273 0.038545154 -0.045943096 -0.03510524 0.022716403 -0.0016517224 -0.06156812 0.0028193388 0.02305348 0.052683573 0.044305887 0.057622194 -0.041503746 -0.050894782 0.024478279 0.010892332 -0.0022365607 -0.07780217 0.018771155 -0.041921094 -0.062017485 -0.035108577 -0.07125267 -0.003405775 -0.029646872 0.08017961 -0.039673224 -0.033026215 -0.026256949 -0.029657116 -0.018274173 0.05023817 -0.0435673 0.033630993 0.041738562 0.015334447 0.0019129309 -0.024449136 0.035864934 -0.020753678 -0.073390625 -0.049037583 0.078159764 0.0016642817 0.07553182 -0.063138686 -0.05960729 0.064378895 -0.07483951 0.07805904 0.008870253 -0.0436274 -0.042601056 -0.0617696 -0.0047811754 -0.018727003 0.023087513 -0.02788756 0.023651645 0.07741172 -0.0068929195 0.023876077 -0.07028803 0.023156075 0.06177364 -0.040096477 0.025499148 -0.014947752 -0.00024431234 0.008233019 0.00015703286 0.015199529 0.033104368 0.050653957 -0.0052383905 0.07550604 -0.021982977 -0.0033400487
despair 0.019003898 -0.05075276 0.046503473 0.0023456016 0.020252435 0.011705319 0.051436216 -0.027387066 0.052633416 -0.05889882 -0.06363488 0.03264981 -0.073756635 -0.030594341 -0.04236384 0.0041028736 -0.002709398 0.033057027 0.0016116891 -0.05967753 -0.00012553344 0.013622006 0.00023283262 -0.042211343 -0.038863964 0.07693763 0.061037052 0.049710575 0.02097863 0.010794698 0.012149413 0.060420662 0.0016338088 -0.022810543 0.029882094 -0.023238577 0.040662333 -0.036228184 -0.032541808 -0.018134948 0.055885207 0.026609523 0.04908022 0.044121493 -0.00030709547 -0.0009476807 0.060736958 -0.015163459 0.010682471 -0.05108538 -0.00435788 -0.008012137 -0.061941396 0.005466881 0.01273903 -0.060711883 -0.0009516977 -0.011251999 -0.053908847 0.007553553 -0.04666856 0.0086536575 -0.011768692 0.06281801 0.03515922 -0.0012786795 0.031620745 0.004193692 0.060167152 -0.025355179 0.022696882 -0.00934782 0.04219968 -0.037692994 -0.022594884 -0.03202009 0.025311358 -0.021092799 -0.05110986 -0.018560596 -0.046467297 0.022765249 -0.06742466 0.028547466 -0.022049485 -0.020510357 -0.018388404 -0.07983961 0.0321163 0.06458864 -0.06873773 0.053289823 -0.0064059882 -0.008078578 0.021675285 0.028679216 0.02839614 -0.04301831 -0.04774121 -0.030038804 0.017538656 0.048991274 -0.023108933 0.058582462 0.025122728 -0.047387548 0.032781903 0.0060856743 0.0023457767 -0.068514355 0.013830841 0.06362625 -0.055368893 -0.01696661 0.039481997 0.07033853 -0.0016175506 -0.06824871 0.029324083 0.056942422 -0.005757238 0.047253903 0.030471778 -0.00870232 0.055788696 -0.0010983376 -0.057278447 0.032552432 0.04631805 0.013121829 0.03573644 0.041111834 0.06294457 0.050279044 -0.013045924 0.029103775 -0.033487074 -0.056468464 0.035413098 -0.0130002 0.008807206 -0.04962666 0.029151198 0.034512248 -0.028520424 0.023721607 0.004474244 -0.004217165 -0.0010488979 -0.05332079
pardon 0.0795544 -0.044618823 -0.060111385 -0.048224904 -0.05232428 0.05406355 -0.011990299 -0.019856194 0.04395214 0.037296604 -0.02477778 -0.007323075 -0.023055974 -0.02404031 0.017300319 -0.014357581 0.014481267 -0.044275712 -0.039702855 0.015700297 0.036190674 -0.02604568 0.008989479 0.058073107 0.03363049 0.048753276 0.085877515 -0.018659722 -0.037306663 0.057335578 0.02625589 0.012043358 0.03236521 0.011158081 0.045260046 -0.067423694 -0.04654311 -0.035692893 -0.015647763 0.026448198 -0.025071666 -0.060571223 -0.009956374 0.036314372 0.022225093 -0.033192426 -0.0062753763 0.04622313 -0.016833823 0.049961284 0.037194 0.0067844554 -0.015265515 -0.031782094 0.017046217 -0.003100709 -0.07715411 0.045602262 0.051195644 -0.018108621 0.0075360383 -0.027129136 -0.019756105 0.043673623 -0.059641298 -0.06817648 0.008904553 0.02180186 -0.00574613 0.004928984 0.06030411 -0.080559745 -0.058766343 -0.008380469 -0.03915719 0.069863856 -0.07918732 0.01191732 0.00027636182 -0.003701032 0.071956486 -0.024786131 0.043468688 0.05260133 -0.07615988 -0.07690679 -0.006884974 0.025944296 0.036733728 -0.017943269 0.013475698 0.028153524 -0.04215307 -0.06572524 -0.00072375545 0.018474553 -0.01362191 0.005136138 -0.010293882 0.0011691526 0.050981253 -0.05503089 -0.07819066 0.051185858 0.014403352 -0.0022645793 0.07111977 -0.06928161 0.05505493 -0.012644426 -0.019598626 0.036594108 -0.04636871 0.045169827 0.052737247 0.075684175 0.016314466 -0.025706079 0.025766395 -0.08939122 -0.03391517 -0.06732717 -0.04220446 0.014352359 0.0066982023 0.057156324 0.001180003 -0.0017943737 -0.032766625 -0.09640817 -0.03243818 -0.042157114 -0.0047605466 0.080043316 0.04590136 0.051756416 0.0014951811 -0.03043892 0.063455135 -0.026742145 0.07662547 -0.054041605 -0.064630546 -0.013991634 -0.05627431 0.005740946 0.062929526 0.039048593 -0.038710058 -0.027737148
don -0.0014951378 0.013275385 -0.058063027 0.030478043 0.036046773 -0.008279013 0.10491879 -0.061034907 0.031835474 -0.0032817083 -0.12067579 -0.06192841 0.0654007 -0.060038432 -0.091939576 0.100894 0.03177754 0.042417496 -0.02325551 0.062915795 -0.013256162 -0.06095946 0.029722454 -0.12297673 0.04134597 -0.12752083 0.03632042 -0.016939549 -0.12738968 -0.014812453 0.041037235 0.075406894 0.017382223 0.011242257 -0.0153055815 0.0846529 0.008456456 -0.036422953 0.046893723 -0.009871256 0.018027714 -0.016013056 0.059308346 -0.10706119 -0.054938473 -0.053355545 0.014066854 0.13056052 0.020265989 -0.09262643 0.12151724 -0.023959465 -0.014073902 0.074515164 -0.022084408 -0.007357678 -0.013826755 0.08211915 0.03883956 -0.08997792 -0.027086124 0.0016936129 -0.07849312 -0.0030157752 0.0069883456 -0.037348665 0.009275609 0.00069622055 0.04911316 -0.028729485 0.09234485 0.04126586 -0.07120675 0.022997659 -0.0076940428 -0.036111064 -0.037070755 -0.08131607 0.040606104 0.0014349471 0.0042223837 -0.023129784 -0.07204869 -0.07296663 0.01369506 0.026038263 -0.04426399 -0.011385389 0.008785664 0.018110083 0.0058813277 0.032554816 -0.080005266 0.03366933 0.031627256 0.034330692 -0.081509575 -0.0003077332 0.02810897 -0.065806426 -0.07087504 -0.034758434 0.069052905 0.009288923 -0.034592126 -0.06261135 0.021585116 0.062112037 0.037501685 -0.053743705 0.02838245 0.07568867 0.03870384 0.044711363 0.090303466 0.025949597 -0.07160139 0.0019101503 0.051433407 -0.025236424 -0.05225852 0.04863573 0.02366223 0.015548254 -0.026321523 0.03783343 0.011851389 0.11938631 -0.054230914 0.015374153 0.053328957 -0.030857557 0.056190085 -0.0051430045 -0.007699519 0.00015890773 -0.0022012836 -0.035036065 0.054462306 0.005840197 -0.035726532 0.024949139 -0.0126175685 0.030795407 -0.031953704 0.040077534 0.027792374 -0.026564557 0.008995441 0.08312475
very -0.058338333 0.060570963 0.042312026 -0.06288565 0.02570262 0.02864996 0.065392755 -0.0589943 -0.074459516 0.03104033 -0.070305154 0.059613485 0.0037246821 -0.08700823 -0.042902946 -0.04452453 0.0605453 -0.043787904 -0.056192532 0.06457303 -0.062040456 -0.062588565 0.0015431957 -0.035072535 0.09254597 0.047840238 0.006777264 0.032432362 0.03030247 0.012570063 -0.08906127 0.10399864 0.018214978 -0.02275421 0.12507589 -0.06310844 0.06235794 0.039170835 0.0700173 -0.025094174 -0.0183592 0.03466909 0.04946459 0.040480096 0.038277026 -0.012754113 -0.06751581 -0.06227143 0.0015120808 -0.06460314 0.035466187 -0.035010524 -0.0680694 0.038044248 -0.06053625 0.024839172 -0.0051796725 0.0074608643 -0.116635256 0.024615858 -0.04618097 0.10431947 0.06497574 -0.062202964 0.032985765 0.05844548 -0.07484031 0.0034822572 -0.059429158 0.025138145 -0.0455604 -0.037168406 0.0023355824 -0.00090828165 0.008964036 0.014148219 0.0107238265 -0.07142977 0.06437311 -0.033824123 0.053467497 0.034512397 0.008524874 -0.015097102 0.015384113 0.043093234 -0.0072798124 0.08514014 -0.03401051 -0.03368587 -0.0046166796 -0.010898816 0.07991372 0.02982859 -0.050600998 -0.03629792 -0.006667491 -0.051791143 0.0224978 0.01815825 0.04359884 -0.09847842 0.012792215 0.04586849 -0.08282597 0.08706191 -0.024464577 -0.010575722 0.07774728 -0.07094797 -0.006250958 0.019582966 -0.08330158 -0.05339347 -0.0009411671 -0.040398434 0.04190552 -0.0193218 0.025812835 -0.020217923 -0.04188298 -0.0007312668 0.004762396 -0.09600074 -0.014928533 0.032757554 0.034348506 -0.028437966 0.03841483 -0.05629786 0.010043186 0.019501641 -0.04759631 -0.035014123 0.04222985 0.07829361 0.02090131 0.031424265 0.05480294 0.002487462 -0.015274104 -0.013458643 -0.03919329 -0.005228167 0.051103055 -0.027248751 0.016297428 -0.013180681 -0.011629603 0.060691696
have -0.06682772 -0.0021597524 0.036052693 -0.022645453 0.078533806 0.030809235 0.00077685376 -0.09536048 -0.012811733 0.0041309865 -0.08988158 -0.031867646 -0.0259869 0.03502841 -0.030762572 -0.050287597 0.10033561 -0.01759848 -0.069793075 0.03317917 0.024018195 -0.03043096 0.03409984 -0.03943994 -0.029979724 -0.0790659 0.015988136 0.068542056 0.02939605 -0.042201072 0.052368 -0.047834687 -0.036323693 0.049926132 0.023309154 -0.05686578 0.016822109 0.070365414 -0.008994358 0.0667519 0.0059855743 0.008169724 0.07642159 0.014517705 -0.006796264 0.01349155 -0.031589594 -0.0030011765 0.09220332 -0.048272174 0.10288175 -0.02032533 -0.026203796 -0.01051118 -0.053622562 -0.013015894 -0.045756776 0.033244323 -0.030816501 -0.0475446 -0.04061373 0.032143857 -0.039656598 -0.0010382698 -0.11561514 -0.047818445 -0.04661744 0.022459041 -0.055403262 0.027808283 -0.005283066 -0.02078586 -0.04348725 -0.102015994 0.019346088 -0.0003916946 0.053224403 -0.014129623 0.040688165 0.040892947 -0.021392165 0.021873703 -0.06773987 0.05661203 0.045161646 -0.028059227 -0.0399553 -0.035791438 -0.016955478 -0.03456308 -0.019194858 -0.027371371 -0.021140426 0.020828908 -0.027250754 -0.040180586 0.059551295 0.071449615 -0.005959964 -0.07961939 0.053831026 0.024118753 0.06063352 0.073911354 -0.0050796145 -0.045793448 -0.014029988 -0.07770839 0.054470357 -0.006292848 0.03775464 -0.0041562184 0.012144215 0.019357033 0.10365198 -0.03858192 -0.06359934 0.04572725 -0.006083436 0.07124731 -0.056038328 -0.0033525731 -0.049932156 -0.011921952 -0.11265521 -0.014753928 0.070050776 -0.00019368192 0.022028888 -0.047700156 0.050593574 0.048035655 0.016580878 0.0065990477 -0.059646815 -0.01485762 -0.08312044 -0.05776597 0.07998052 -0.06470209 -0.003008733 0.028247502 0.059147723 0.049689192 0.02084217 0.031848505 -0.0071238084 0.017246688 -0.07886697 -0.051845
ve 0.043974347 0.012272813 -0.022173654 0.002572781 0.0128650665 -0.00897473 0.024532324 -0.048341762 0.018096458 0.076703474 -0.008110609 -0.01617183 0.014579062 -0.058626924 0.050120894 0.057493676 0.0119445715 -0.050875086 -0.02057496 -0.06530056 0.04387645 0.026495231 -0.01809132 0.014354919 -0.0071020136 -0.008056052 0.026101058 0.039313085 0.057723925 -0.004094949 -0.010431859 0.036301415 0.032066543 -0.08673151 -0.05388732 0.0026867818 -0.04858306 -0.024820045 0.049979173 -0.006974944 -0.013169742 0.010787063 -0.035914406 -0.048226614 -0.029816229 0.024582064 0.0037465552 -0.08794966 -0.02056576 0.017762253 0.030527009 0.059566792 0.04978873 -0.028425291 -0.03200675 -0.02118437 0.05474769 -0.0185359 0.06329887 -0.0892435 0.0126469685 -0.06580137 -0.050180756 0.015632937 -0.06157936 -0.02906925 0.005359542 0.07409949 -0.0022413288 -0.0015321672 0.007825404 0.020807978 -0.066682726 0.0026958562 0.05599013 0.030298254 -0.012577975 0.051332213 -0.02788111 0.013713295 -0.038992647 0.04139331 0.016462188 0.03135199 -0.029000647 -0.030489044 0.08493972 -0.0902462 -0.0038367591 -0.03922656 0.015903847 -0.028769935 -0.09057451 0.02853959 0.06012917 0.009365845 -0.10013924 0.024145924 -0.048439156 0.03304232 -0.047260884 -0.016315283 0.057436418 -0.016247831 -0.0232931 0.058573745 0.014383102 -0.035805255 0.044753168 0.029712083 -0.066934615 0.011185627 -0.053207096 0.059489325 -0.015765743 0.0135732815 -0.03564925 -0.044503253 0.03411687 0.017066652 -0.06842408 -0.039137527 -0.03127881 0.0027512764 -0.08153398 -0.049260084 0.047173347 0.009842379 0.0014716818 0.01034609 -0.041753512 -0.08172519 0.041046847 0.061195567 0.0004030055 0.014244409 0.00061431655 -0.036889896 -0.024975652 0.015283305 -0.032111708 -0.061031774 -0.042107843 0.011961738 0.019013539 -0.002601277 -0.05034031 0.052559324 -0.03979603 -0.025705375
tumbling -0.073493324 0.051203363 -0.024610762 0.027028589 -0.0056639453 -0.07153014 0.043837756 0.057901703 0.046524506 0.0066226576 -0.062231254 0.071838126 -0.016119897 0.0641461 -0.06461804 0.064423054 0.0022140546 -0.024931887 0.0573552 0.037526365 0.057221502 0.018276831 0.012259618 0.04849539 0.060673386 -0.022958117 0.018236266 -0.028558824 -0.026670365 0.043585293 0.016112957 0.01806498 -0.031825915 0.022749724 0.02092782 -0.040922895 -0.030100806 0.010427608 0.042450562 -0.07678429 0.011207183 0.0050406978 0.019206917 0.06069835 -0.03953156 0.015848462 0.057930015 -0.006808227 0.057291377 0.042647798 -0.04045465 0.009611708 -0.010634025 0.0017860921 0.0393771 0.0483229 0.042336643 -0.00044126972 0.043965597 0.046038628 0.07458227 0.04637096 -0.054209836 -0.046240903 -0.029491952 -0.02233214 0.008166224 0.049914367 -0.008889312 -0.0052486905 0.03767565 0.06801632 0.062342815 0.064155884 -0.02144943 0.06143161 0.0006816016 0.041014727 0.0155276535 0.058506653 -0.0655512 -0.05241655 -0.0031223495 -0.048968833 -0.027363148 0.0024622623 0.015201043 -0.060102105 0.022432825 0.04643885 0.019520026 -0.0012220545 -0.014738466 -0.022310734 -0.011902899 0.07427812 -0.00628324 0.04959144 -0.011807643 -0.0032024523 0.02882969 -0.039111406 0.06402553 -0.011367156 0.0050813844 0.043688297 0.010802357 -0.043390602 0.021910729 0.074505605 0.012609892 0.052170612 -0.0069971806 -0.041454982 -0.046434954 -0.04897162 0.020388039 0.0066824066 0.019553958 0.06162861 0.039008934 0.032242846 -0.049543787 -0.047471754 -0.04538178 -0.06462266 0.055551317 -0.047156993 0.053809337 -0.057657257 0.03965171 -0.019748194 -0.0012529328 0.030636845 0.00979381 -0.051513206 -0.00976536 -0.06738119 -0.074849725 0.06086917 0.0020693825 0.074011795 0.0059883813 0.031655584 -0.050009355 -0.014044655 0.0038130337 0.005196348 0.015165553 -4.6295812e-05
moderate 0.006244575 0.045070235 -0.036973916 0.080286324 -0.0002668145 0.039722808 -0.023953037 0.024991473 -0.07246157 -0.00088429824 -0.02364023 -0.047508545 -0.04153596 0.07275748 0.017087363 0.040740855 -0.011885634 -0.045036275 0.061551224 -0.042245705 0.070849776 0.07622327 0.02307478 0.012867319 -0.0064292625 -0.0006660047 -0.014053506 0.039718494 0.051425282 0.023723492 -0.02434025 0.034498423 -0.04842389 -0.028420236 0.0047212467 0.017341513 -0.016149906 0.069079906 -0.052480232 -0.05011313 0.07403054 -0.070773 -0.026630288 -0.0029161964 0.02505332 -0.007424863 0.051137585 -0.0019592408 0.07106943 -0.039746687 0.017934917 -0.05137109 -0.030499818 0.04238707 6.706279e-05 -0.019017616 -0.0558058 0.06578426 0.0017247854 0.028692024 0.03700353 -0.04731374 -0.04372581 0.038354784 0.050250713 0.0321404 0.037906885 -0.02455247 0.016502716 0.0598807 0.0009305042 -0.036131047 0.06007785 -0.04038906 -0.043312892 0.038920905 -0.053214803 -0.037543874 -0.03569796 -0.03896695 -0.016834924 0.03337103 0.05518482 -0.030459253 -0.0005664802 -0.020427981 -0.026780635 -0.04033781 -0.06778361 -0.018375937 0.019243035 -0.02587158 -0.05057157 0.009245476 -0.07444212 -0.0008485968 -0.046692878 -0.07798218 -0.022320002 -0.030253546 -0.05122951 -0.014670381 0.06462917 -0.057990793 -0.03045372 0.042460963 0.058735006 0.015293592 -0.026083896 -0.0034769983 0.046033867 0.017211057 -0.029009992 -0.064247675 0.034905866 -0.03405511 0.051393107 0.04891089 0.017678572 -0.049907643 -0.0295689 -0.07063184 0.045826722 0.029151818 -0.038151566 -0.0607454 -0.06956308 -0.0523606 -0.042374395 -0.0302275 -0.053033024 0.004223771 0.0040540076 -0.019684171 0.013259984 -0.07141896 0.05404203 0.07061929 -0.016822277 0.014779268 -0.01474679 -0.0319989 -0.05269457 0.011264992 -0.023322836 0.037235945 -0.056047056 -0.008939928 -0.024083288 0.011445456
both 0.011868048 -0.05476549 0.01624006 0.013050346 0.0034584112 -0.030450312 -0.02628461 -0.0579785 -0.045409314 0.027645959 -0.04531525 -0.06487524 -0.03415625 -0.039667763 -0.04484354 0.05208781 0.014384269 -0.027604526 -0.062952794 -0.045932434 0.023666738 -0.05266103 -0.042182527 -0.06643891 0.044932596 0.047865406 0.00070338405 -0.022226239 0.034550037 -0.007874424 -0.029534034 0.037509985 -0.04722464 -0.011556109 -0.04917328 -0.043217402 0.03154233 -0.041408237 0.011574106 -0.053459674 0.022272725 0.042302605 -0.0029839785 -0.044884663 0.008397653 0.014942642 -0.04522939 -0.075865336 -0.009414081 -0.025691738 0.072177336 -0.050701007 -0.04003352 0.005535254 -0.036755167 -0.05848019 0.033944137 -0.031094426 -0.057500016 -0.004927945 0.03688188 -0.003105247 -0.015677957 0.010610539 0.0369723 -0.070367016 0.009461338 -0.050132554 -0.023261322 0.033247456 -0.05524822 0.02306663 0.017173026 -0.045983847 0.04273314 0.01703924 -0.0177135 -0.045662787 0.046098813 -0.029561179 -0.03831898 0.028780863 -0.051080078 0.04559985 -0.021260474 0.050099947 0.05037745 0.021210682 -0.042871658 0.0389878 -0.0050950116 0.06320827 -0.020731209 0.009562591 -0.035832815 0.050624724 0.02913438 0.0097850505 0.05206673 -0.05218855 -0.07084867 -0.021538764 -0.04277432 -0.02900356 0.052397527 -0.012795098 -0.026404506 -0.040627033 0.031226447 0.0608044 0.013798846 -0.014232851 -0.008209253 0.062458813 0.03529284 0.031589974 0.052677844 0.0032698053 0.05730021 0.029909655 0.012861376 0.06020447 -0.03868605 -0.01837345 -0.054209154 -0.024829054 -0.0053432565 -0.011803586 -0.0017463075 0.060396276 0.0018938562 -0.04525097 0.01975298 0.06975666 -0.022777831 0.008830326 0.031408146 0.003648405 -0.03337335 -0.01577156 0.037752856 0.01800294 -0.006976817 0.058609426 0.04995923 0.042893622 -0.01723672 -0.034013502 -0.018697081 0.022917207
luckily -0.011944377 0.06629383 0.05448492 -0.067664355 0.04931567 -0.08053698 -0.049234394 0.009167674 0.033337925 0.02853281 0.019280747 0.04940228 0.005573442 0.05681144 0.0050285114 0.047772933 0.0022041993 -0.027466537 0.011747313 -0.05100604 -0.039737023 -0.048299626 0.07088204 -0.03067769 -0.040840264 -0.007942195 0.041988283 -0.032618728 0.012527961 0.008350874 -0.035093285 -0.019058613 0.038365193 -0.050610144 0.07954018 0.036543034 0.034005176 0.03175989 -0.023883794 0.03676275 0.015336877 0.024781259 -0.013078041 0.03156774 0.07815056 -0.05722423 -0.030904511 0.0076562134 -0.05233752 -0.026397849 0.029489938 -0.015669584 -0.010928396 0.01221575 -0.023929315 -0.032742027 0.0473565 -0.0051843226 0.06161452 0.023357552 0.06193134 -0.019705648 0.0119812675 -0.025829284 0.032258455 -0.06167715 0.04922705 0.03819656 0.01935117 0.005012469 -0.010483489 0.0028541016 -0.056437396 -0.0037575942 0.009599244 -0.07876508 0.042950667 -0.049224515 -0.026762847 0.003343861 -0.061249185 0.019524332 0.024430405 0.057432603 0.011093777 0.07517502 0.031063247 0.03508714 -0.000109817134 -0.040509906 0.040793292 0.051601257 0.014863005 -0.050474428 -0.052376155 -0.006533685 0.048968058 -0.038772263 0.06854063 -0.03316337 0.006800295 0.063615784 -0.021057185 -0.0025415386 0.019506097 0.048195828 -0.009319467 -0.049048737 -0.030246891 0.043287493 -0.0083248345 -0.012951124 -0.02271081 0.038410157 0.04720967 0.045059856 0.039741963 0.011841808 -0.04259463 0.0064081433 -0.07088518 0.022115786 0.07122379 -0.04551205 0.058252715 -0.027175518 -0.038966075 -0.07254376 0.0044981665 -0.077733286 -0.013500659 0.058934096 -0.010489102 -0.004538304 -0.04531401 0.028876266 0.06669272 0.008971907 0.050455205 -0.056182347 0.035563484 0.036699995 -0.010696475 -0.009569999 0.016672261 -0.005780258 -0.047680326 0.02619501 0.05259578 0.0141308885
nile -0.06737323 -0.0043981867 -0.0565779 -0.02879879 -0.015162109 -0.055777133 -0.055966612 0.02498627 -0.0034237453 -0.057002913 0.056543134 -0.05770637 -0.012966596 0.045809444 0.065669045 -0.046739284 -0.024253933 0.023450771 0.00062738545 -0.006919996 0.013896349 0.039934643 0.022839237 0.024405202 -0.019654062 -0.0528335 -0.078129284 0.051470995 -0.0014458735 -0.0010806038 0.048765246 0.04553365 0.027815165 -0.037434906 0.016545665 0.004658442 0.005657508 -0.0571351 -0.013454173 0.03881493 0.038448937 0.008700252 0.049287647 0.019452361 0.009580106 -0.051574323 -0.038128026 0.030480308 0.053092074 0.054871798 0.022907628 0.047505945 -0.02157841 -0.0054126345 -0.02421196 -0.015617261 -0.07411515 -0.049064133 -0.05122401 0.044670034 -0.005657329 -0.041539326 -0.06897555 0.07995144 -0.04943066 -0.0018612886 0.021779932 0.04175514 0.022718064 -0.0003636279 0.044241846 0.07051586 0.04327668 0.025012238 -0.055855434 0.0039905403 0.015779309 -0.042404544 0.017964404 -0.008007538 -0.058497142 -0.03642001 0.025939338 0.03638921 -0.05299065 0.0060266564 0.032101326 0.059088573 -0.019954843 -0.012372935 0.016157553 0.058092423 0.058235828 -0.020626534 0.018079422 0.0563328 -0.03369149 0.07048103 -0.07712552 0.034276962 -0.007043408 0.027579721 -0.06995483 0.0139931 0.0043457802 0.032388058 -0.000112826005 0.04880443 0.04211596 -0.034170583 0.048880916 0.011860662 0.0737147 -0.014054304 -0.006685709 -0.02310202 -0.005030723 0.013853211 0.022441534 0.041155655 -0.045787126 0.04295169 -0.04372635 -0.036866564 0.067232184 0.0061685345 0.052860368 -0.012891258 0.044801068 0.020649867 -0.009608703 0.029269323 0.009499738 0.018593658 -0.029469214 -0.03593949 0.06017555 0.04486701 0.04815508 -0.025246102 -0.011746316 -0.043528188 0.061547466 -0.0247106 0.03469823 0.01082541 0.019546121 0.027955871 -0.047370914 -0.04921347
kid -0.034394547 0.07462351 0.03873378 -0.03451077 -0.015573584 0.03140326 -0.05261567 -0.028467994 0.049599286 -0.06140158 -0.05672251 -0.046048928 0.0017866043 -0.006672628 0.003411781 -0.031553123 -0.011341529 -0.024540357 -0.028619807 -0.027778648 -0.025786228 -0.058329742 0.013951123 -0.034790106 0.06026827 -0.017354053 -0.04539267 -0.07417105 -0.002220164 -0.011613994 -0.00011760811 -0.029352004 0.012670369 -0.02854942 0.09972587 0.0587236 0.079696506 0.039460253 -0.017634438 -0.045690596 0.05007434 0.05345811 0.006661058 0.064247414 -0.06656905 -0.061697535 -0.07196584 -0.017631473 -0.015416675 0.027324192 -0.006558813 -0.070259795 -0.018400362 0.029657193 0.045073036 0.04720019 -0.03927105 -0.010049044 0.025173917 0.014574572 -0.001205181 0.024842985 -0.05973161 -0.05100278 -0.017977582 0.003996956 -0.025513414 -0.037394874 -0.064311534 -0.07824389 -0.0047410266 -0.04706718 0.057177756 0.035359576 0.009672198 -0.0033691977 -0.0425796 0.06748921 0.016413314 0.0005134038 -0.0132405665 -0.044923518 0.07310226 -0.025961582 0.065612316 0.052608494 -0.04927239 -0.002848846 0.010199417 0.011825686 -0.046912238 -0.07748414 -0.0018448432 0.012075754 -0.030984769 -0.0159265 0.058217436 0.0764351 0.056928247 -0.048468076 0.05069939 -0.03612709 -0.033784594 -0.08212372 -0.027714774 -0.054126225 -0.03079466 -0.040849347 -0.04426398 0.025330245 0.050389264 0.005028148 -0.03713042 -0.013956891 0.019110251 0.005302272 0.04880408 -2.1354645e-05 -0.013580786 0.048611253 0.04361397 -0.056873605 0.071531855 -0.021513173 -0.055632934 0.06855512 0.010472147 -0.047327645 0.047383092 -0.016848763 0.016826803 0.0369201 0.018764984 -0.051146787 -0.032445546 -0.007968668 0.006525719 -0.03484292 -0.00015290454 0.0613268 0.038757734 -0.0032608083 0.061294835 -0.048557118 0.0023982017 -0.049639016 0.0011172016 0.0582565 -0.00877432 -0.023838012
spirited 0.03208919 -0.05678781 0.046791587 0.012465808 -0.065767564 -0.042494513 0.061108254 -0.0009689338 0.017501086 0.027244136 0.044519503 0.044506386 -0.055823043 0.05015513 -0.044557683 -0.052303802 0.0341308 -0.01571266 0.04522889 0.032563984 0.021320764 -0.012678323 0.0036757095 0.03492791 -0.07744771 -0.038425423 0.018045643 -0.0495436 0.05035407 -0.047688 0.047532648 -0.033512846 0.057754878 -0.03422155 -0.005370819 0.04102069 0.017977357 0.024888525 0.05367255 -0.039351914 0.00039027026 -0.027722545 0.019344034 0.059921235 0.05424487 0.016518822 0.04395687 0.04767011 0.023793846 0.029399453 -0.01310317 0.060485058 0.011646988 0.009349577 -0.06759694 -0.061782088 0.010392883 0.01900368 0.062940046 0.040201206 -0.007455034 0.030932073 0.020052006 -0.02378649 -0.04390712 0.007469373 0.0015603711 0.0013761846 0.027889365 0.056329336 0.045547623 0.024234843 0.040843934 -0.035055146 -0.016974345 -0.06324795 -0.02789728 0.034214817 -0.013157759 0.064983785 0.010172425 0.05779506 0.0075154225 -0.054122973 0.037431348 -0.07458719 0.029130619 0.036631268 0.009188554 0.05373598 -0.005231997 0.043573618 -0.05295277 0.021637741 -0.003706011 -0.051800378 0.04738519 0.050533757 0.014632048 0.038958117 -0.008497632 -0.06684655 0.048623852 -0.006043282 -0.055214472 0.017958567 -0.0144051 0.010378584 -0.022390924 -0.02439768 -0.019977447 0.04643484 0.057679206 0.023883862 0.023427866 0.005063315 -0.047782376 -0.03036016 -0.009032931 -0.0039617983 0.048445236 -0.07083505 0.05549863 0.06204753 -0.008180836 0.032260865 -0.060218476 -0.048474874 0.03609014 -0.051023062 -0.010443326 0.05078333 -0.04835816 0.0037814854 -0.05084422 0.014212955 -0.0372007 0.049480498 0.046582464 0.051176842 0.03415334 -0.03683506 0.03563959 -0.015381057 -0.03513475 -0.016845342 -0.025251234 0.049853303 -0.009981323 -0.053102423
meaning 0.050468598 0.0672722 -0.006709531 -0.028181545 -0.044003822 -0.04147766 0.013091031 -0.008158164 -0.038212895 -0.004249856 0.011218225 -0.051563665 0.026848514 0.04369968 0.040450316 0.021472463 0.026924029 0.056536824 0.05625694 0.03890962 -0.043210566 0.029679142 0.07707932 0.049237676 -0.029599024 -0.04512411 0.026497453 -0.04006461 0.029637644 -0.05312699 0.06768909 0.027730478 -0.040748086 -0.06255857 0.029554317 0.046012033 -0.06435769 -0.050688688 0.06896249 0.07189354 -0.045860585 -0.07110949 -0.0047037555 0.0163133 0.056023426 0.04133709 -0.029459866 -0.022985436 -0.043945767 0.0315254 -0.007968013 -0.033596084 0.048514593 0.055978257 0.023848487 -0.06527462 -0.069341205 -0.07271896 -0.044757746 -0.05021797 0.020378996 -0.04739033 -0.0425647 0.0025679092 -0.011250433 -0.055929776 -0.027457174 -0.013897717 -0.038476925 -0.07112615 -0.041567374 0.031201001 -0.012118311 -0.028258465 -0.017130818 0.023423107 -0.016715944 0.027363501 0.037148736 -0.034168914 -0.012126554 -0.05796641 0.055208847 -0.019570742 0.03129283 0.032024696 0.012794215 -0.04173045 -0.05864723 0.010328968 -0.061689988 -0.074571714 0.012159605 -0.010785215 0.04474527 0.027485335 -0.027633505 0.018714134 -0.02899587 -0.03731437 0.04970084 -0.019424321 -0.036531165 -0.028729374 -0.025512096 0.020725604 0.03589422 0.050118286 0.055367026 0.0075002587 0.059763692 0.066196896 0.0025161407 0.040908486 0.04251007 0.01811974 -0.03962074 0.00074559357 0.029677102 -0.03987385 -0.056560803 -0.019203104 0.021592226 0.046470612 0.0487544 -0.04809083 -0.053454828 0.03383907 0.02031232 -0.07671013 0.023258373 0.039910164 -0.06707304 -0.009773251 -0.055219196 0.024987092 -0.03175865 0.039368518 0.039855115 0.01784834 -0.01594105 0.025598504 -0.019785114 -0.04428004 -0.013662774 -0.037038792 0.04976582 0.060376648 -0.046992354 -0.056367885
eaglet -0.025752172 -0.01563589 0.02778962 -0.0073610093 -0.03930303 0.035743523 0.00389899 0.03327309 0.01818323 0.063917786 -0.051848102 -0.032198876 -0.03789185 0.056046788 -0.06147747 -0.05621919 -0.0073214974 0.01818032 0.032795995 0.030728618 -0.074451 -0.006405855 -0.0120671475 0.014930811 -0.056130107 -0.0481459 -0.06409372 -0.037514023 0.03412455 -0.031970114 0.020268722 -0.023235504 0.03107873 0.057415627 0.01681334 -0.023628656 0.042055592 -0.00029959076 -0.007273609 0.003104356 -0.023029825 -0.04462822 0.03854611 -0.028136393 -0.019119015 -0.029878518 0.009030636 -0.0022045493 0.0036281166 -0.018717933 0.061108172 0.021355849 0.013719548 0.0033316105 0.03206854 -0.008249756 -0.0027207455 0.008312079 -0.065837815 0.020264456 0.06406668 -0.021420568 -0.08027814 -0.00750285 0.029325202 0.047936402 0.037895385 0.037544426 0.0155161675 0.018435895 0.0759108 -0.05206577 -0.041040998 0.055506352 0.028379172 0.040251628 0.02325245 0.083986886 0.044836305 -0.0085818935 0.036652315 0.0078464635 0.01752272 0.02209084 0.013179208 0.0664833 0.031211272 0.018938186 -0.016262012 0.0027378956 -0.018873768 0.045014046 -0.048485726 0.0011285422 0.033401884 -0.047847 0.020688325 -0.021895247 -0.019003281 0.016491707 -0.044263363 0.023058433 0.020023422 -0.00029718794 0.06448545 -0.041437294 0.05569141 -0.04580666 0.020802576 -0.010193619 -0.0030567714 -0.023635725 0.03325456 0.058990613 0.024489067 -0.0017279093 0.025128545 -0.028528173 -0.015057334 0.0029847322 0.05236845 0.0163432 -0.036645524 -0.04293494 -0.014434508 -0.066201776 0.01543307 -0.060060665 -0.031489547 0.031902175 0.048391383 -0.027883114 -0.0015623675 0.05340321 -0.012080665 -0.019622685 0.058159795 0.031053577 -0.06826076 0.021648211 -5.2324845e-05 -0.039768398 0.044842236 0.011876825 0.011019725 0.08008034 0.061451674 0.05384336 0.006216368 -0.0659197
hair -0.035418518 0.001816202 -0.057659384 0.014436581 -0.010053445 -0.063094854 0.047241364 0.056751195 0.030776842 -0.028237388 -0.0527334 -0.021132022 -0.026703754 -0.013724909 0.07068146 -0.03989239 -0.07530435 -0.005571262 -0.013687896 -0.012575621 0.051947463 -0.036810815 0.037493914 -0.054981884 0.00037263078 0.0895692 0.009781151 -0.012238892 -0.004723249 -0.018392602 -0.06986105 0.023550922 -0.039310794 0.034620285 0.0258272 0.019608768 0.040503412 0.01995529 0.037367493 0.043016583 0.009459916 -0.029492289 0.0039104503 -0.0058635757 0.03667673 0.019098965 -0.06744113 -0.07004266 0.008999526 0.004964655 0.06280926 0.092219934 -0.04908227 0.01209366 0.047957208 0.04143545 0.013466926 -0.0079396535 -0.0023669428 -0.0027365335 -0.06116626 0.056882016 0.02055335 -0.052386668 -0.033060715 0.020335263 0.052955642 -0.03441331 -0.044648737 -0.019943357 -0.012073143 -0.02032737 0.031213459 0.06235206 -0.024619767 -0.00057750114 0.0061781956 0.03432763 -0.0132487 -0.051788174 -0.032740496 -0.03210211 -0.03817108 -0.0024210536 -0.03776314 0.024612634 0.009454444 -0.012769742 -0.044954903 -0.04554279 0.049391173 0.05230229 0.065738484 -0.040110774 0.0039492194 -0.008503189 0.031648703 0.0049415985 0.0004333238 0.018871311 0.078512155 0.016317835 0.030194676 0.028656458 -0.0025564367 -0.01366406 0.0046454617 -0.014526831 -0.007072733 -0.07131338 0.042484608 0.041880976 -0.050322596 0.04936396 0.045039233 -0.0306096 0.0049833385 -0.05774096 -0.012981776 0.013111089 -0.021860138 -0.014127775 -0.00962049 0.014698384 0.009093395 -0.019491201 -0.053132914 0.042129397 -0.075550355 0.053716168 0.010311737 0.006800847 0.045721494 0.023863193 0.07852175 0.0012299088 0.031078834 -0.01804051 -0.045306586 0.030595062 -0.051466428 -0.0035171402 -0.022494333 0.044854384 0.069609076 -0.0148207955 -0.017400805 0.00860169 0.059209283 -0.017694876
by -0.023509674 -0.005381151 -0.015045812 0.04594838 -0.061755672 -0.01925579 0.08348159 -0.0373917 -0.012934776 -0.045594115 0.028815523 0.0034789094 0.044582345 -0.0063124513 0.035285924 -0.06071944 0.048883505 0.04575577 0.04640709 -0.00814457 -0.016256593 0.026724389 0.049378216 0.006336292 -0.03902724 -0.010448941 0.09973733 0.031149156 0.031554252 -0.027157087 0.03394044 -0.049079753 -0.025321536 -0.059525616 -0.013229154 -0.033370923 -0.013334402 -0.025930168 0.05974994 -0.06384084 0.07340354 -0.043763116 0.06679663 0.013344676 0.026540248 0.0925492 0.056962322 0.05693407 0.04070486 -0.040165458 0.03275944 -0.031918664 -0.005379647 0.059490554 0.040087923 -0.0003791349 0.043630667 0.03525051 -0.06730652 0.020204138 0.02343902 0.041366205 -0.06225684 0.036702022 0.05653113 -0.004067221 -0.026587712 0.030049508 0.034880083 -0.018278815 0.046263568 0.04991159 -0.017922578 -0.023908775 -0.06638198 0.047327578 0.026719695 0.0010498655 0.028994162 -0.008176537 0.012549618 0.03634069 -0.048184227 0.10861431 0.046657294 0.010337829 -0.04191083 -0.027648434 0.04092181 0.020589024 -0.03636373 -0.042038407 0.06803336 -0.022734812 0.03891759 -0.044237655 0.071893774 -0.03791224 0.013011242 0.04751575 0.011214439 0.0044666696 0.061251853 -0.025250353 0.007616367 -0.019435046 -0.05118649 0.034323003 0.043389626 0.050414465 -0.0006886086 -0.061275482 0.0020833118 0.045571327 -0.017796775 0.010963107 0.005587142 0.06148503 0.019075561 0.044758953 0.006024933 -0.020662578 0.026945837 -0.06609008 0.05923188 -0.0010058236 -0.007736725 0.015199846 -0.033321753 -0.04143315 0.04131502 0.048393313 0.057162896 -0.027435571 0.025143025 -0.04742383 0.06716372 0.053919386 0.002487402 -0.019478096 -0.08232277 0.047209185 -0.008943975 0.03649263 0.051085554 -0.060495727 -0.083785966 -0.04809204 -0.049778886 -0.028434573
insolence -0.034953047 -0.007828809 0.042837635 -0.04001327 -0.05160276 -0.040713154 0.034574766 -0.033683106 -0.07119472 -0.019750794 0.011386826 -0.0073122047 -0.055275567 -0.007533776 0.00033272337 -0.025031198 -0.048993915 0.046478227 0.00019384408 -0.015401155 0.011736168 -0.074041836 -0.045277767 -0.014346283 -0.019587168 0.040369682 -0.033731516 -0.049482007 -0.0371406 0.016686535 0.014197551 -0.038147878 -0.052236404 -0.015502633 0.015456186 -0.058292214 -0.023583096 -0.053304706 -0.06778648 0.012113371 0.033535246 -0.05929225 -0.08054483 0.03815813 0.021207256 -0.030421369 0.042439237 0.016399024 -0.030612463 -0.047651615 0.06675495 0.012705299 0.020602712 0.06417404 0.06232415 0.033086624 -0.026312156 -0.021012044 -0.037964683 -0.04495012 0.055115677 0.036899183 -0.069383785 -0.009660949 0.013489144 -0.013207254 0.043300934 -0.010536934 -0.019842051 -0.048089534 -0.02208165 0.05653864 0.017739747 -0.044892594 -0.053603806 0.06234139 0.023420148 0.06286261 0.030032326 0.065656066 -0.058067665 -0.019546306 -0.028085208 0.06419686 0.03254432 0.038049664 -0.059543896 -0.035346545 -0.021226736 0.019008955 -0.011938795 0.05715263 -0.015479726 0.024743712 -0.015673282 0.02342827 0.018671485 -0.014219618 -0.043190792 0.063114814 0.020550855 0.012146857 -0.041768253 -0.0056803236 -0.0357316 -0.053011328 -0.05462999 0.03680332 0.03363076 0.025935883 0.022893574 0.058609713 0.06383816 0.046985596 -0.036661234 -0.068936415 -0.0048377994 0.012363295 -0.04375729 -0.0062109297 -0.0068371235 0.0656093 -0.033902958 0.0213202 -0.007279141 0.0059190285 -0.015613214 0.0147465365 0.067511044 -0.065284215 -0.033971693 -0.058107477 0.007040425 0.03122423 -0.044124052 -0.072436266 0.008644365 -0.03269449 0.063745365 0.064022616 0.03043811 0.062419534 0.055763617 -0.06555477 0.0307269 -0.03767459 -0.042714473 -0.04478311 -0.059707105 -0.041798387
over -0.033545647 -0.04982392 0.05309625 -0.04080093 0.021126937 0.08664258 0.040116124 -0.025782146 -0.038994413 -0.06451164 -0.053085953 -0.064091004 -0.030502016 -0.052398928 0.037123565 0.073239446 -0.02628179 0.06733427 0.029971417 0.031885996 0.064214565 0.06534618 0.004114367 0.020085922 -0.033267416 -0.10714783 0.024646258 0.024573786 -0.034789946 -0.005695305 -0.053573247 0.057884503 -0.0132634705 0.05277853 0.0061207507 0.0037482455 -0.01964189 0.021350054 0.006398997 -0.061257873 -0.014711373 -0.01604652 -0.06948942 0.011760276 -0.04201914 -0.023252385 -0.05075607 0.0026536128 0.07957843 -0.017885307 0.06342447 -0.02692482 0.06871781 0.060855456 -0.024703767 -0.006007334 -0.03789525 0.01988984 -0.01772598 -0.008508605 -0.032748718 -0.0055869534 -0.013019032 0.04758938 -9.95344e-05 -0.021429356 -0.039637215 0.031928364 0.026015611 -0.060925286 -0.019235166 0.031848896 -0.03393623 0.045405414 -0.042204976 0.03409524 -0.05497386 0.03206513 0.05154389 -0.04968521 0.047342047 0.03963633 -0.046119016 0.008223665 0.009302578 -0.027898422 -0.06464613 0.0035565593 -0.028960899 0.04813048 0.042102396 -0.09374883 0.001014492 -0.016283702 -0.01590526 0.023591135 0.0037878458 -0.051982623 -0.00494952 0.033289637 -0.024451174 0.06336757 -0.0067257583 0.03871951 -0.05705476 -0.005011188 -0.035562553 -0.036388207 0.03582752 -0.0688628 0.029016921 0.011722645 0.010319209 0.071764804 -0.04756237 0.042460058 -0.03215181 -0.031054433 -0.030633993 -0.0028516357 0.019659083 0.05684858 0.050087266 -0.0673493 0.04143207 0.001094471 0.038165085 -0.05629118 0.020316657 0.050417483 -0.027213661 0.029864019 0.02261905 0.06232213 -0.039459158 0.0002605985 0.023276282 -0.030773956 -0.074534155 0.042329036 -0.0072561014 0.070118636 -0.024273703 0.01686594 -0.025302893 -0.005974376 -0.02293704 -0.0045756614 0.05042588 0.05129401
seemed -0.046674915 -0.011478259 -0.05268495 -0.06184656 0.024314942 0.048602343 0.0926731 -0.019283783 -0.029058874 -0.0067988886 -0.082398266 0.030381126 0.027364412 -0.08640587 -0.023029791 0.021417104 0.016771348 -0.029616509 -0.049170833 -0.027552476 0.034713805 -0.0666158 -0.038249075 0.033274576 0.02153398 0.06696962 0.015751326 -0.013549559 -0.05024174 -0.0146975 -0.080028 -0.099112645 0.014045921 0.030014897 0.072500505 -0.061677597 0.016136767 0.046766877 -0.005936731 0.067039415 -0.057904243 -0.008598752 -0.029605515 -0.011726026 0.086239204 -0.07284824 0.022999784 0.0228172 0.013123901 -0.092532694 0.008024043 -0.008230807 0.04890588 0.0126735885 0.0167534 -0.051864073 0.0012106946 -0.022052692 0.038509246 0.0392483 -0.024647305 -0.014425664 -0.007830371 -0.009732726 0.010658197 -0.06386814 -0.061291568 0.01270764 0.02496002 -0.06217256 -0.06276663 0.054461993 -0.059831083 0.05450187 0.019932648 0.0480186 0.019358438 -0.020710519 -0.03151975 -0.056223236 -0.0051979967 0.027618002 -0.06525477 -0.003518213 -0.04788248 -0.015046492 -0.016208796 -0.074544184 -0.00036715006 0.0060926233 -0.007905356 0.054614697 -0.04211312 -0.014591995 0.08719234 0.014589774 0.01732795 0.022504656 0.003505976 0.0073916856 -0.055365596 -0.062109716 -0.022670893 0.025779838 0.014060527 0.02554766 -0.004894509 -0.009160046 0.018534688 0.026449252 -0.017189102 0.044559196 -0.019016324 0.040305454 0.0112353 0.038503274 -0.05179825 0.031970795 -0.046293102 0.007991019 -0.014484822 -0.002585621 0.039675068 0.06788077 0.01658241 -0.08387755 -0.062983066 0.008135332 0.014682511 0.023430476 0.09162241 -0.027263561 0.059490792 -0.05243307 -0.0254714 -0.043444853 0.02077884 -0.065711394 -0.014306125 0.053605195 -0.052867945 0.038397893 0.053019784 0.060211442 -0.07162815 0.004774778 -0.047976892 0.020220533 0.0120587135 0.021246776
important 0.015077541 0.035629928 0.018145194 0.046150915 -0.019874776 -0.010820566 0.018798362 -0.04233805 0.05502823 -0.0029601515 -0.0013146584 -0.033417825 0.03714723 -0.0052720997 0.010519194 -0.043607045 0.0011851871 0.03720119 0.020011827 0.06724712 0.037241235 0.04807599 0.074655145 -0.04180385 0.029934919 -0.0034072907 -0.012007672 0.011393858 -0.051696282 0.034779496 0.0045581684 -0.022684563 0.002922122 -0.006506843 0.024363685 0.04553225 0.009790651 -0.07549087 0.07798789 -0.02049189 -0.04478172 -0.045275554 0.03558469 0.008144487 -0.05139807 -0.02488331 0.040129554 -0.019519169 0.009971117 -0.034580708 0.05984256 0.015975635 -0.011357128 -0.07797883 -0.012436754 0.03709067 -0.00015106413 -0.051621865 -0.011027356 -0.035799026 -0.007908963 -0.006317421 0.015011669 -0.058157437 0.0066719446 -0.015856657 -0.07706675 0.00015872484 -0.02005288 -0.053454235 -0.038053416 0.07045272 0.016294427 -0.07369767 -0.07582769 0.072506614 -0.060588114 0.0511698 0.001363505 0.05354774 -0.03497392 0.040309023 0.024906553 -0.024991635 -0.00336332 0.008371521 0.075546056 -0.02200294 -0.05763296 0.057043415 -0.078833126 -0.050163407 -0.065642476 -0.025500473 0.029209958 -0.031199496 -0.065293394 -0.03489069 -0.01816613 -0.049030703 -0.0070410166 0.040410392 -0.014073457 -0.03685231 0.028299406 -0.06223662 0.017070388 -0.0534513 -0.021221891 -0.020315481 -0.05328228 -0.036655076 0.03441842 -0.012954534 -0.05924908 0.07115744 0.014342168 -0.052038513 0.022623148 0.013468126 0.049257085 0.004166103 0.01508268 0.012410347 -0.044601317 -0.032938827 0.044806752 0.07477106 0.04534919 -0.058611013 0.033837296 -0.032427873 -0.014340312 -0.06435006 -0.023175592 0.042003315 -0.020153245 -0.036601745 0.014131436 0.008751987 0.0013023008 -0.05872046 -0.02622593 -0.045909 -0.034528185 0.02206249 -0.02732752 0.0201581 -0.021865882 0.05435622
dark 0.047257695 -0.022308413 -0.030973436 -0.055847794 -0.0061487244 -0.011347644 -0.0601527 -0.069875956 0.023941819 0.015927475 0.002382577 -0.06293581 -0.024652425 0.012062035 -0.047850914 0.042299233 -0.021606773 -0.048176184 -0.0038318087 -0.033011284 0.021771275 0.04918924 -0.025542589 -0.020485817 -0.044006404 0.021139104 0.056794494 0.025776166 -0.0854613 0.027230028 -0.009021891 0.040179454 -0.022524517 0.046698604 0.04934164 -0.008158343 0.047148075 0.028131813 -0.01493779 -0.024769988 0.031396687 0.02040379 0.023246633 -0.035616264 0.057799965 0.020218741 -0.03438304 -0.01608547 -0.011073596 0.068459384 0.05345684 0.014563257 -0.012858933 -0.04160937 -0.055341057 -0.049428064 -0.012158809 -0.052015383 0.00889651 -0.030305356 -0.023751812 0.09862771 -0.0036232653 0.019814262 0.004698109 0.031035345 0.021639133 -0.058272403 0.045709956 -0.023693921 0.007503226 -0.0020190538 -0.025856068 0.005587111 0.027003627 -0.016269576 -0.032832623 -0.012997858 -0.017594885 0.028398145 -0.055980816 0.019739809 0.023089651 0.03365137 0.0011849249 0.03405364 0.02252153 0.047898527 0.017428376 0.0010309416 -0.009958201 -0.07253921 -0.0075686034 -0.04319948 -0.012548043 -0.039377823 0.010553015 -0.00983716 0.014262897 -0.0066933683 -0.07535918 -0.0021866555 0.013104083 -0.007573696 -0.02458401 0.0660505 0.04793208 0.0776089 -0.06790265 -0.015061385 0.034645934 0.081884034 0.04003239 -0.04421936 0.019249627 0.039200746 0.014262255 0.047439657 0.033557914 -0.041613735 -0.024315529 0.060945284 0.030048518 0.035540126 0.002695884 -0.07986381 -0.03911607 0.009359326 -0.05994298 0.08239722 0.05606398 -0.044606555 0.049210764 0.08256231 0.030153705 0.0016272591 -0.024575941 -0.04042696 0.023651738 -0.04236116 0.02003541 -0.057457384 0.054966286 -0.06958719 0.03463842 -0.05767098 0.025456319 0.035466935 0.032747228 -0.03574822
without -0.01475745 -0.07092969 -0.05839189 -0.05497134 0.04219519 -0.04422544 0.008062274 -0.015339259 -0.06537148 0.08874088 -0.013935722 0.03205317 0.018958347 0.03509882 0.050443657 0.048234705 0.05450873 -0.045028545 0.07768029 0.028401904 -0.011623671 -0.01922466 0.0354247 0.03449606 -0.021965764 0.025326574 -0.011314113 0.008408815 -0.052976158 -0.07121718 0.05829768 -0.023058942 0.032112796 0.05030626 0.00456532 0.030140113 -0.022069309 -0.0008978052 0.03539424 0.017331775 0.0421581 -0.016456231 -0.064010434 0.030324003 0.014743183 -0.04926723 0.05618006 0.047153134 0.0026332685 -0.00770542 0.029648475 0.061700437 -0.0044375677 0.053947777 0.07018263 0.058095198 0.051023968 0.009761389 0.034742232 0.029632023 0.06477658 0.052229382 0.034064703 0.06896871 0.033482727 0.037347905 -0.047453556 0.016809385 0.07569954 -0.061892334 -0.06471221 0.0700476 0.06464716 -0.04382059 0.08491666 -0.036726207 -0.072976336 -0.07660923 -0.017181538 -0.064438306 -0.07050855 0.020758225 -0.047836468 0.05533421 0.056320477 -0.04548186 0.048665892 -0.047175374 -0.015573807 -0.053758845 -0.014301465 -0.025810288 -0.0502089 -0.02701424 0.061744545 -0.016708922 -0.02598067 -0.061297692 -0.041855298 -0.008815483 0.043746896 -0.0062095746 0.04832461 -0.015137288 -0.056976672 -0.0009877578 0.050778486 -0.040392786 0.0036655385 -0.039627485 0.07552158 -0.021679413 0.05675762 0.018150294 -0.06389306 0.019459415 0.07777084 -0.069810085 -0.03664395 -0.053801205 0.024922544 -0.0013271886 -0.049955916 0.042109117 0.04956248 0.090438224 0.00046237267 -0.024954867 -0.04891852 0.020022376 0.07916286 0.0516006 0.051746875 0.024280274 -0.048160296 -0.06670608 -0.09945142 -0.070656255 0.0693203 0.013184577 -0.0030891108 -0.04978247 0.0323959 0.064628795 -0.0068515604 0.04392871 -0.00350618 -0.036920473 -0.05227158 0.013833163
meeting -0.059899453 -0.0031576096 -0.004338069 -0.032616757 0.063320264 0.027779406 -0.054451976 0.032836024 -0.0110572 0.0031713226 -0.061601672 0.039106037 -0.018408095 0.008163404 -0.0077536437 -0.01743222 -0.00019212964 -0.05818815 0.020848561 0.03200844 -0.016333122 -0.012033856 -0.022028489 0.032604143 -0.051410854 -6.467826e-05 0.049418375 -0.03948772 0.002560543 0.04389025 -0.021469045 0.03672275 0.045235258 0.04032282 -0.040174406 0.060802873 0.032314792 0.06641944 -0.011568285 -0.07846039 0.0496838 -0.064777225 0.019472934 -0.008770296 -0.036325313 0.0014334774 0.058041926 0.054479364 0.014565233 -0.0028851358 -0.030421061 -0.03314077 -0.057529822 0.05108405 0.02469065 -0.0028103588 -0.054632947 -0.0036910088 0.038902506 -0.009653667 -0.028532555 -0.006567342 0.031979773 -0.0013369808 0.03857015 -0.029700331 0.05731977 -0.020515256 -0.046653256 -0.019017259 -0.037694007 0.0688689 0.024513418 0.05123863 0.012960164 0.010408106 -0.047913592 -0.029899662 0.01458092 -0.030498488 -0.013461524 0.037297443 -0.058894746 -0.020272011 0.05117545 -0.048648298 0.021181135 -0.031153278 0.033447195 0.01589552 -0.03822139 0.057638627 0.06457836 -0.035807658 0.0041279737 -0.07225842 0.04980168 0.03123902 -0.046722665 0.061299514 -0.013422333 -0.03845398 -0.02161722 0.008539389 0.0354414 -0.06749147 -0.01832567 -0.008018875 0.050325748 -0.03372093 0.016036883 -0.044312865 0.024598235 -0.0431585 0.05779814 0.02990239 -0.019626923 -0.044758156 -0.057500616 -0.07251646 0.047529932 -0.025299745 -0.037429754 0.014692877 0.0608579 -0.042578798 0.057604767 -0.030345684 0.013786886 -0.02129911 -0.0059211035 0.010248481 0.043987785 -0.05573918 0.036163174 -0.039322436 0.050285734 0.0014650972 -0.037803374 0.052116994 0.06239429 0.019145211 0.041674554 -0.020594167 0.024622299 -0.009540203 -0.06584519 -0.020719975 -0.03281761 -0.017797582
catch -0.039471228 -6.877992e-05 -0.08336504 0.039423272 0.005345636 0.0290827 0.04160354 0.03578794 0.05120155 -0.054582365 0.05194763 0.0380208 -0.058841236 0.014023345 -0.05429 0.0012544183 -0.05898458 -0.01475977 0.07690663 -0.051369663 0.04103853 -0.035644304 -0.0076128864 0.007405645 0.009612132 -0.02077214 0.0614591 0.012104488 0.003966472 0.047273155 -0.039298724 -0.009260859 0.023598507 -0.03552687 -0.042876165 -0.0139022255 -0.06129592 0.04206015 0.063383035 -0.045621175 -0.003002721 0.05859801 -0.056176927 0.037627127 -0.037413042 -0.025627082 -0.02382109 0.012882888 -0.05707986 -0.012499794 -0.05554771 0.05910743 -0.062829696 0.024960004 0.049621794 0.011236788 0.06050438 0.0016210261 -0.053510457 0.051340662 0.064746745 -0.030577766 0.004515352 0.029288407 0.034821086 -0.02251752 0.009987674 -0.037526738 0.028679786 -0.01747178 -0.039032392 0.009474197 -0.029138435 -0.049873084 0.04759747 -0.04635239 -0.0524252 -0.041899245 0.010342753 -0.055177867 0.051721 -0.022845326 -0.0049255937 -0.022895766 -0.0020715077 0.019693036 -0.042965475 -0.047656693 0.04923717 0.005317582 -0.03380707 0.059361674 0.055436485 0.046563204 0.004954834 -0.028578222 -0.029802034 -0.0884668 0.06774376 -0.008811411 0.05395282 0.042926956 -0.056483936 -0.019970354 -0.023548445 -0.000270274 0.002834151 -0.010761601 0.01132759 0.01756228 0.0635273 0.030897489 -0.013263125 -0.06404337 0.07923902 -0.00580142 -0.0202866 0.026729226 0.034393124 -0.029240362 -0.0053821513 -0.026711082 -0.065978386 -0.02641093 -0.029455012 0.067152016 0.060343318 -0.054707855 -0.018792162 -0.045266096 0.013772074 0.039205965 0.07146666 -0.08192777 -0.0196162 0.044216774 -0.02227101 -0.03227425 0.016676161 -0.04967936 0.067120194 -0.025212757 0.026558653 -0.0012892336 -0.0212753 -0.05720703 0.009395831 -0.067528926 0.020905191 -0.022756169
farmer 0.039589006 0.00092074496 -0.0062492066 0.046223808 0.0046452913 0.0023005905 -0.012767912 -0.040701237 0.008037787 -0.013680456 -0.026106592 -0.052519865 -0.066952445 0.05054034 -0.030963942 -0.037299175 0.00998065 0.030284422 -0.0153188305 -0.036086485 -0.007183532 0.022223141 0.04073703 -0.033845145 0.041787583 -0.0066852453 -0.03994638 0.027274609 0.037152514 0.019432455 0.011829734 0.06008882 0.016624222 -0.01241077 0.030001156 0.04991768 0.02455176 0.016290812 0.01600138 -0.0037544016 0.051383477 -0.010359148 -0.039938778 0.032036673 0.051225286 0.03384652 0.028935298 -0.033233255 0.04863024 -0.020615293 0.015038182 0.03265835 0.06171238 -0.00853444 0.030246314 0.052743956 0.006972937 0.024771987 -0.04651133 -0.05203542 -0.04650114 0.04134355 -0.037831042 0.038323965 0.01600576 -0.024261085 0.005967665 -0.026569217 -0.03745949 0.04049767 0.015839206 0.014520718 0.0017603915 0.07044277 0.06249204 -0.0072812056 0.025172554 0.04006959 0.009593578 -0.023816671 0.03487552 0.056225903 0.032394305 0.016874831 -0.0076562157 0.04001016 0.04942502 -0.03437572 -0.010126264 0.0011395393 0.023304747 -0.040822957 -0.0047374666 0.015387281 0.04602831 -0.0407901 -0.0044006393 0.02241253 0.0128032565 -0.005403852 -0.01575478 0.00402888 -0.044521306 -0.011279168 -0.024088247 0.0018183254 0.005496475 0.068652935 0.05078475 0.054178663 0.018686326 -0.054028843 0.025205873 -0.02061271 0.0011106152 0.017781463 0.068727456 0.046617813 -0.02230824 0.010911968 0.03332106 -0.036035344 -0.04924332 0.040004972 -0.0025482527 -0.023499826 0.04211441 -0.06473236 -0.0396291 -0.02719841 -0.044742357 -0.0031134817 -0.0018435029 -0.030020332 -0.061974987 -0.018063221 -0.0020147471 0.013745546 -0.057804845 -0.032796018 0.055234246 -0.03421304 -0.018544963 -0.07661853 0.00017364905 -0.03712455 0.05009419 0.017519046 0.053480946 -0.049779426
shrinking 0.002020275 0.06456521 -0.03434463 0.03350412 0.07204566 0.055668578 -0.021858428 0.040394068 0.043899886 -0.03582543 -0.0104474 -0.06669065 0.0522655 -0.07415015 0.010152919 -0.05042687 0.041349474 -0.019943887 -0.076079376 -0.024111679 0.035627015 -0.057370655 0.04825904 0.010476946 -0.011668192 -0.024989543 0.035300538 -0.027624402 0.04565231 0.044835843 0.0034822808 -0.057714168 0.015879115 0.05878041 -0.05182457 0.06458314 -0.023529164 0.023561185 -0.0071826936 -0.050889682 0.025972731 0.031260166 -0.039659496 -0.031637006 -0.0071174726 -0.041899476 -0.06734666 -0.036635682 -0.013869222 0.041674487 0.03310093 0.0018048455 0.048625793 -0.046883114 -0.03652755 -0.07233315 -0.005258459 0.04269162 -0.050745074 0.032990303 -0.019973261 0.026860295 0.075196594 0.0011977497 -0.05350688 0.056789882 0.059031796 -0.05160177 -0.050963253 -0.008773837 0.053487174 0.051613126 0.046676002 -0.03864485 0.023854885 0.04132349 -0.011635101 0.032479793 0.057437982 0.060310658 0.034849454 0.0838128 -0.008137951 -0.054704335 -0.028689256 0.052877888 0.061934914 -0.014191438 -0.054702774 -0.0061651035 -0.028146846 -0.060093638 -0.038846027 0.07839772 -0.010437513 -0.06540885 -0.02924038 -0.02576627 0.08273785 0.011889378 0.0005615768 0.0067643938 0.046853803 0.039194487 0.028176727 -0.044766508 0.04101108 0.059106767 -0.047354575 -0.020184886 -0.06636762 0.02242191 0.06197404 0.009983229 0.026412113 -0.01974073 0.008851502 -0.014495123 -0.05254003 -0.04675144 -0.068957 0.035380214 0.022305021 -0.017098214 0.01215954 0.03330287 -0.0329827 -0.042349722 0.038958844 -0.06965786 -0.046840128 0.054116093 0.03036684 0.04956926 -0.020083891 0.054891627 0.057409197 0.022998983 -0.016609067 -0.06215693 0.0078129275 0.028266117 0.06353369 -0.046641987 0.029764492 -0.058070898 -0.053003 0.0048628226 -0.023326496 0.056531418
eat -0.017733835 -0.04957696 -0.081542805 -0.026627928 0.064385146 0.042234443 -0.03908275 0.017689047 -0.04899646 -0.07504794 -0.021789722 -0.062801056 -0.0052711074 -0.011292595 -0.0074354494 0.004278639 0.014650674 0.04121275 -0.035403237 -0.04339493 0.035905994 -0.008825093 0.031763382 -0.050372254 -0.047290046 0.020549111 -0.006666539 -0.020897811 -0.029714307 0.02459474 -0.015978482 0.0024738163 0.05583109 -0.036549505 -0.038383335 -0.0346159 0.030695781 0.05298046 0.011493706 0.027354341 -0.07348121 -0.008090539 -0.060693257 -0.045461215 -0.004826971 -0.037497997 -0.013389248 -0.024962299 0.0016585625 0.011004373 -0.025185876 -0.031755958 -0.009737375 0.0028543542 -0.07090106 0.028432263 -0.053040978 0.003864067 -0.039282605 -0.012184893 0.049629897 -0.055954598 0.022441495 -0.028840557 0.00038473296 0.04416128 -0.029462937 -0.040919695 0.019941727 0.023844002 0.03259724 0.06146636 -0.012064827 0.044941273 0.07407661 -0.017779814 0.030548256 0.06434599 0.026718661 -0.07294423 0.05837446 0.00025862735 0.03288073 -0.07280312 -0.0035653918 0.032194063 0.027883671 0.009327248 0.017256295 0.059233762 0.019005213 0.0034888005 -0.06706325 0.030281862 -0.06533126 0.03297486 -0.05721114 -0.026113316 0.029446788 -0.056523178 -0.035969887 -0.012664687 0.058683038 0.0013945377 -0.0683841 -0.01703666 0.058813203 -0.025765797 0.07228247 0.04030286 -0.03370258 -0.004058632 -0.036420956 0.014288927 -0.023458408 -0.059905328 -0.019578075 0.03015802 -0.019144982 -0.01122017 -0.019357631 0.036597256 -0.006622616 0.027380059 -0.07675843 0.082572855 0.053473834 -0.045728967 0.04004418 0.030057374 -0.00684272 -0.046569932 -0.013454601 -0.03607654 0.03213089 -0.05984072 -0.048276793 0.016938739 0.019989755 0.0029399684 -0.033645794 0.024200995 0.06144382 0.06027422 -0.045115344 -0.015998406 -0.031758837 0.06470767 0.012075717 0.008155636
prizes -0.0023960758 -0.05081391 0.03161921 0.027836474 -0.054902863 -0.025235904 0.0039391536 0.061128076 0.038426246 0.015571863 -0.0634027 -0.042349983 0.0537551 0.00033826672 -0.010116314 -0.05771055 0.037207294 0.065343216 -0.014688861 -0.052890703 -0.0037680562 -0.034285393 -0.0363559 -0.02379955 0.03822274 -0.06590489 0.02626999 0.06836626 -0.013451423 0.01562655 0.052085474 0.04717556 -0.009974266 -0.036482625 0.07827471 -0.015380533 0.004884917 0.0028529963 -0.034861177 -0.054401528 0.06514261 -0.0005820166 0.061083194 -0.014605253 0.051678933 -0.037733763 -0.064480625 -0.027653577 -0.006281604 -0.018319994 0.030712053 -0.04423291 0.06395136 -0.019829968 0.0069705546 0.017655656 -0.04189319 0.03507931 0.008240598 -0.0067157145 0.05404009 -0.0412316 -0.04199165 -0.026211977 0.0601026 -0.06614705 0.042937193 0.069828995 -0.062239844 -0.016118044 0.051748455 -0.033424962 0.012341681 -0.036269642 0.033414282 0.014651494 0.014202029 0.07027384 -0.016897371 0.040044528 -0.0020431154 -0.016323093 -0.012710826 -0.02909886 -0.056294896 0.011213486 0.0023789634 0.040111225 -0.06261484 0.04108867 -0.062324483 -0.05604496 0.041780945 -0.071741864 0.015439983 -0.008806927 0.04846427 0.09442555 0.06817214 0.031124618 -0.04107699 -0.060402207 0.074553 0.06442701 0.055343155 -0.004604952 0.0092032235 0.0027027254 0.025332723 0.01921573 0.056844383 0.051798213 -0.052784763 -0.02187296 0.016624676 -0.019263647 0.001665279 0.011451333 -0.0155929355 -0.010406006 -0.008514711 -0.020636816 0.07003818 -0.041193023 0.010516061 -0.046885274 -0.014819651 0.030476613 -0.065744825 -0.046598934 0.04024982 0.020932833 0.009593776 0.009591814 -0.008828352 -0.00062012224 -0.007078197 -0.043958627 0.014612597 -0.077365495 -0.027464049 -0.0076683657 0.02762672 0.06764327 0.0500465 0.042523485 -0.027877474 -0.011928131 0.028084384 0.046397652
