1182 50
goes 0.032564357 -0.018187752 -0.039047014 0.035431176 0.036992904 -0.059967812 0.0063538672 0.023940105 -0.012454326 0.06737777 -0.017661165 0.028465092 0.008370785 0.054192606 0.0087489635 -0.044704016 -0.06895779 -0.034996092 -0.027910613 0.028533949 -0.04869464 -0.052741654 -0.039201558 -0.01763717 0.017560871 -0.036682416 0.030382087 0.07110094 0.009183779 0.04360128 0.00054029387 -0.03393701 -0.02000953 -0.028146755 0.026106358 -0.03806434 -0.059866402 -0.037351746 0.038077284 0.025983531 -0.05363475 -0.04234107 -0.041172646 -0.059452172 -0.05718699 0.05861317 -0.009042106 0.03341876 -0.022006925 -0.035671167
now 0.0249908 0.061449893 -0.07604599 0.036677167 -0.067953125 -0.023124987 0.022260861 0.0015116805 -0.028145734 0.06947854 -0.016537646 0.06586727 0.02026521 0.035543706 0.025911883 -0.035240855 -0.043019585 0.044006087 0.08028503 -0.027913798 -0.06594491 0.06748655 -0.08497554 -0.03965997 -0.022248548 -0.004944532 0.07331458 0.009555452 -0.034231894 0.028740475 -0.029947193 0.009409469 -0.0003439719 0.05164548 0.0028944737 0.034078814 -0.033890583 -0.0265686 0.02528885 0.023625437 0.002437856 -0.016428232 0.07577156 -0.043816242 0.06295707 0.070048265 -0.051395252 0.008295219 -0.046901293 -0.040049016
pet 0.027499523 0.05288848 -0.0020049466 -0.030165298 -0.05464634 0.018297743 -0.022653265 0.04596795 0.042970147 -0.02305381 -0.01553401 0.052376594 -0.005320776 -0.008322122 -0.066671886 -0.059436753 -0.07421517 -0.048466187 -0.03846993 0.023635501 -0.037859384 -0.03277997 -0.030883333 -0.03201668 -0.015233002 -0.044753827 -0.034706846 0.047869712 0.030251533 0.043551788 -0.043167844 -0.011890232 -0.014485292 -0.047789086 0.060843397 0.029030683 0.042947326 -0.016032653 0.06147973 0.0056018475 -0.004125415 -0.032393686 -0.011484808 0.032008946 -0.028865369 0.025114033 0.012276314 -0.04066273 -0.01598715 0.0131869875
directly 0.048826415 -0.005271204 -0.03959846 0.0043898383 -0.0021671513 -0.036505736 -0.04567981 0.004712125 -0.030103642 0.036382597 -0.03766676 0.04936177 0.021879932 0.0303169 -0.027083619 0.03807146 0.017712688 -0.036187876 -0.051911153 -0.048882525 -0.010951146 -0.042648584 0.022249069 0.023849005 -0.04219444 0.03817864 -0.042278055 0.036114104 0.06787566 0.021714905 -0.061373487 -0.0022677584 -0.07542409 0.044828713 0.043881033 0.013606848 -0.072129115 -0.016900444 0.009949823 -0.05356641 0.059544243 -0.0179681 -0.036846507 -0.050182212 0.013843304 0.022483751 0.032652207 0.0003069745 0.03842111 -0.06822261
burst 0.015724352 0.023119275 -0.067191094 -0.05319053 -0.013626198 -0.0036511808 -0.055536315 -0.05613555 -0.052996892 0.0255903 0.018683523 0.04419033 -0.04204527 -0.02910211 -0.0004943005 -0.061884984 -0.062493008 0.020320266 0.05411003 0.0076863784 -0.07117847 -0.024183651 -0.04156908 0.057999726 -0.042775735 0.013493659 -0.0651336 -0.055032372 0.018434515 -0.044357494 0.008202963 -0.014146159 0.038385298 -0.062720954 -0.012487478 0.0065155644 0.018504566 -0.044376217 -0.045822076 0.028528953 -0.0030859676 -0.032402456 0.0021153446 -0.053294245 0.05853389 0.060394526 -0.051530756 0.06362367 -0.00820428 0.02471777
forehead 0.0670547 -0.03732096 0.050623707 0.00505618 -0.008933032 -0.01401747 0.016862204 -0.025126355 0.0030261544 -0.033461377 -0.06452786 0.061856207 -0.048060667 -0.057061482 -0.06338937 -0.049668696 0.029253528 0.06416426 -0.0439919 -0.06746018 -0.06497985 0.06344092 0.022318726 0.052517366 -0.0028245095 -0.040253278 -0.05419195 -0.07259945 -0.068269245 0.01609788 0.0066193365 -0.050426673 0.011847935 -0.06896442 0.021074083 0.059698276 -0.017426334 0.023791729 -0.058210537 0.0728847 0.06353383 -0.050330862 -0.004590965 -0.026111342 0.04858219 -0.063004605 -0.009090289 -0.051599395 -0.002790303 0.015615005
condemn 0.018394075 -0.022253554 0.03713444 -0.06716614 -0.06783962 -0.045205038 0.011004955 0.051138878 -0.046300646 -0.011335004 -0.044384934 0.052015565 -0.0050104037 -0.0031101927 0.055962265 0.019304834 -0.016177263 0.016708761 -0.054283667 -0.024278238 -0.028737288 -0.067158476 0.04553271 -0.020945646 -0.06828675 0.025445692 -0.050201423 -0.007178299 -0.053085126 -0.067807145 0.018310152 0.0001860708 -0.020036396 -0.031862732 -0.0018988103 -0.02702152 0.041350827 -0.039553538 0.056101292 0.027267702 -0.031069372 0.039048336 0.006047249 -0.006502822 0.05686143 -0.049648874 0.064262405 -0.02053719 -0.04181698 0.033953078
rules 0.04602534 0.008646808 0.030184997 0.010523572 -0.065029494 0.036755007 -0.04223791 -0.0024257195 0.053279344 -0.031193463 -0.01589358 0.05379521 -0.041228894 0.03499385 -0.023753066 0.050485883 0.033325627 -0.05924628 0.018561294 0.03283981 0.04145373 0.032940604 0.018356314 -0.012523624 -0.029999042 -0.05591675 0.024703143 -0.0047248816 -0.03552517 0.0049397144 -0.03194487 -0.010293536 0.0106743565 -0.049522772 0.003501839 0.019142408 0.0097496705 -0.022963054 0.0075579192 0.025606776 -0.05392691 -0.0060996828 -0.060839996 -0.02301183 -0.025008027 -0.030720752 0.060930483 0.05271964 0.014518417 -0.053078532
pocket 0.022041868 -0.037099812 0.001558649 0.028353006 0.02322115 0.060677342 0.05415249 0.031470098 -0.055535678 0.049576305 -0.017612468 0.075938635 0.062479064 -0.046584304 -0.042392824 -0.029343298 0.05684318 -0.01572416 -0.068950534 -0.071603596 -0.043501724 0.052871026 -0.0578629 0.082027584 -0.03496487 0.07875519 0.025846526 -0.009944304 0.07572745 -0.069396414 0.026651634 -0.06496398 -0.031538602 0.009496027 -0.025702287 -0.06896424 -0.059828877 0.0590539 -0.04845353 -0.0038096611 -0.062321786 0.0635653 0.0022058 -0.0031773834 -0.03527665 -0.07240655 -0.04880062 -0.009211389 -0.028611932 0.007224218
swim -0.03947932 -0.058959957 -0.04869449 0.052389394 0.039451063 -0.032338135 -0.010406629 0.010554187 -0.06780607 0.06239613 -0.07326732 -0.044556975 -0.026726177 -0.028528508 0.024518408 -0.021035302 0.02445384 0.011978733 0.042865418 -0.005007974 0.012907157 0.054238778 -0.0744003 0.05466496 -0.036813486 -0.044300485 0.06269143 0.012126727 0.0589734 0.046860646 0.027598286 -0.04591205 0.025538746 -0.05899961 -0.07528088 -0.0587602 0.008459571 -0.024738302 0.044685878 -0.036766145 0.052248396 0.04542457 0.028428176 0.004698322 0.010316304 0.061847664 -0.019616183 0.028739268 -0.021121662 0.012338121
salt -0.011454757 -0.03976414 0.039904945 -0.023699658 0.006648779 0.015716106 0.00954056 -0.019540228 -0.027370576 0.05293112 -0.008911022 0.06294838 0.060787927 0.03544904 0.01825779 -0.04343393 0.013765271 0.03220711 -0.06633277 0.012750086 -0.0020482219 0.00058306695 0.021789642 -0.005647981 -0.060826603 0.055560846 0.042009003 -0.011212815 -0.07963789 0.04637749 -0.05579662 0.06234689 -0.030380398 0.031201858 -0.03842787 0.007801235 -0.042845648 -0.041500255 0.075838 -0.027604263 0.028274093 -0.048412662 -0.016504716 -0.04366358 -0.007871365 0.04202937 -0.018044721 -0.054780103 -0.045374632 -0.0111021325
itself -0.036481645 0.032844797 -0.05808065 -0.043024432 -0.060912583 -0.06105705 0.07927003 -0.0696775 0.020369334 0.063583255 0.034589093 0.03914065 -0.04925708 0.05868485 -0.05034365 -0.04117328 0.068151936 0.038324423 0.049214102 0.082253225 -0.057965767 -0.0066070035 0.07442354 0.00079159054 -0.05721328 0.032865934 -0.07205176 -0.032510128 0.01360614 0.021440038 -0.038207877 -0.044632662 0.032125257 -0.0033205182 -0.061639216 0.010611279 0.06093106 -0.06026974 -0.013499711 0.0071429703 0.0070702834 0.050211295 0.050314665 -0.036804188 -0.02370141 -0.0015208703 0.023971355 -0.032828845 -0.050193403 0.034750413
machines -0.019186111 -0.041860245 0.06045389 0.05808765 -0.028091988 0.058156043 0.016633395 -0.010352137 -0.064494476 -0.051250976 -0.06727875 -0.017221402 0.013500366 -0.03655785 0.03014574 0.026427139 -0.02270964 -0.04534696 0.040818483 -0.031312115 -0.028489554 0.052662414 -0.034158543 -0.02991695 -0.043870565 -0.028021341 0.01863592 -0.038394645 -0.05091904 0.038101364 -0.00033671048 0.0492505 0.044519976 0.027171806 -0.03400508 0.0698587 -0.02749746 0.0073531466 -0.012494326 -0.066657975 0.036686312 0.012818271 -0.031614553 0.024749609 0.010696567 0.025618184 -0.049303737 -0.073654495 -0.034142647 -0.0050051524
antipathies -0.023554038 0.038611483 0.07105478 -0.07043586 0.019426625 -0.0133033 -0.025149096 0.04910996 -0.073391855 0.042730026 -0.058582805 -0.0033352268 -0.0141519485 -0.019502694 -0.01785351 -0.013470199 -0.059220076 0.0245188 -0.04752832 -0.051790476 0.045680985 -0.0051848246 0.015125645 -0.03670792 -0.060156 0.057984058 0.06721947 -0.062165212 0.018244833 0.028610844 0.043116216 -0.06787999 -0.0040844926 -0.010183523 0.0074296696 0.050266314 -0.04261291 0.04914447 0.0015778112 -0.06251572 -0.041743394 0.02480276 -0.044669207 0.027069239 0.008530437 -0.010001823 -0.05587126 0.013504282 -0.010161711 -0.02698519
door 0.09376562 -0.029090922 -0.03493383 0.03552093 -0.020174244 0.0444377 0.060156066 -0.00066088524 -0.052442342 -0.04003604 -0.006744179 0.06478301 -0.032525882 -0.037223376 -0.015907886 -0.07853815 0.085410304 -0.063005276 -0.04379674 -0.029614696 -0.060633756 0.031138614 0.019339966 -0.03762464 0.018262658 0.060448535 0.034821868 0.022473522 -0.028740067 -0.008303685 0.115393385 0.044993673 0.0043209437 -0.013315329 0.009537085 0.02095883 0.08877587 -0.0010142578 -0.077413864 0.0041317204 -0.025335295 0.04372759 0.08250388 0.03948764 0.052893303 -0.038996354 0.087159865 -0.024391172 0.046796106 0.05394628
punished -0.02105008 -0.036179367 -0.015201703 -0.0015080114 0.031499397 0.02498276 0.026124079 -0.046112563 -0.05069535 0.048666783 0.03385355 -0.03973989 0.06371399 -0.003976422 -0.019259086 0.015045731 0.045486014 0.030163638 7.246842e-05 -0.026232773 -0.04385285 -0.037425388 -0.02103778 -0.01841668 -0.008202444 -0.047202706 0.04287356 0.024457805 0.019651396 0.008076363 -0.021898516 0.05066524 -0.06083043 0.04447865 -0.062181354 0.06607813 -0.0041073686 0.0071729627 0.0052355356 0.014646476 0.0026633674 -0.022046775 -0.0072761583 -0.046914395 0.040567458 0.054395556 0.034355983 0.043872435 -0.016346416 0.02664642
feelings 0.058714975 -0.06661265 -0.016353855 0.070061795 -0.060505763 -0.07389254 -0.024704803 0.0686152 -0.030473107 -0.053334594 0.024849936 -0.046947274 0.022441167 0.028209675 -0.030042328 0.03793762 0.03308024 -0.015852321 0.070194215 0.03210832 -0.032130707 0.0022359076 -0.062124584 0.048296876 -0.054600153 -0.04919601 -0.060850013 0.05578034 0.026042564 0.04572503 0.019340184 0.034952767 -0.0016214424 0.009268935 0.0089711035 -0.0729274 -0.015288386 -0.013974889 0.03430928 0.039590184 -0.048529543 0.05878392 0.062004786 0.05289364 0.055549305 -0.0624215 -0.00955805 -0.012425629 -0.03960751 -0.0376032
eagerly 0.036678575 0.008402033 0.026594697 0.039590787 -0.07499187 0.05755344 0.01868943 -0.038631868 0.060675584 0.049471144 -0.049612362 -0.063837886 0.01565897 -0.035851784 0.043753244 0.064496815 -0.077331595 0.018919699 -0.058992833 0.024881912 -0.025611341 0.02385502 -0.062170025 -0.024717702 0.06384858 0.023489788 0.02769533 -0.032346796 -0.045685627 -0.014666329 0.042258702 0.024016956 -0.019817064 -0.052038383 0.04039324 -0.0457818 0.0654776 -0.043600786 0.015261987 -0.010657347 0.07240642 0.06090085 0.014370935 -0.0033422757 0.040748015 -0.05253123 0.025875056 0.038544457 -0.042869627 -0.008455682
plainly -0.048433274 0.03315583 0.07127381 0.038017616 -0.0025471472 0.025084212 0.0650819 0.032185886 0.023282163 -0.047949057 -0.03237952 0.0049171043 0.014167895 -0.010505586 0.064095885 0.019793764 0.040633067 -0.058605198 0.01836914 0.05149563 0.010413289 -0.02392867 -0.04661781 -0.020437468 -0.0024211374 0.04997578 0.02072493 0.06303921 0.023323612 0.049923077 -0.03709802 -0.024468059 0.065282054 -0.033824634 0.07366587 0.048575044 0.0028203463 -0.06388606 -0.055986524 -0.06305879 0.058871 0.07145147 -0.010281069 -0.027561873 -0.036496025 -0.062297016 0.036314037 -0.04570406 0.014058458 0.053985424
long 0.032910336 0.054294817 -0.034837898 0.034461934 -0.017193407 0.0001254605 -0.076280504 -0.014675151 0.054993276 0.06096292 -0.034044478 0.03275946 -0.006127634 -0.052649885 0.056642625 0.023403393 -0.016335737 0.036781527 -0.06390354 0.0069073234 0.065286286 0.03328323 0.028493317 -0.050913326 -0.03410416 0.06486079 -0.013319788 0.04049244 0.028290605 0.014746654 -0.02941496 -0.004281022 -0.008568955 -0.052928198 0.048187323 -0.010590629 -0.048341986 0.052193094 -0.018464161 0.044090148 0.06663708 -0.011796433 0.05590996 -0.022150217 -0.06647781 0.008186819 0.012116443 -0.0120404 -0.035825554 -0.028786872
nobody 0.011397147 0.04940415 -0.057116345 0.04882043 0.07381781 -0.047993373 -0.016724898 0.040280383 0.0627252 0.06234686 0.014274856 0.035348587 -0.0032916865 -0.044378724 0.05639784 0.013322468 -0.024495274 0.049799524 -0.021753507 -0.05813064 -0.0051261056 0.06905922 -0.019483512 0.083046146 -0.0023013242 -0.04458655 -0.03507229 0.024324544 -0.004579643 -0.027775133 0.06535918 -0.069731 0.04761789 -0.02076162 -0.054025434 0.012422305 -0.013633875 -0.05817473 -0.008283116 0.007907957 0.016612988 -0.05467114 0.060112406 0.044915095 -0.07717991 0.007301644 -0.03518489 -0.05498597 -0.047666058 -0.057346694
sends 0.0006790556 0.025799278 -0.04212287 -0.0013984381 0.00038196507 -0.029788915 0.006253337 -0.060178496 0.027034549 0.026309349 -0.068244554 0.027647236 0.048679687 0.0033740343 -0.022333225 -0.057070628 -0.020900585 0.016224973 -0.01841992 0.00082758116 -0.010628082 -0.060507674 0.0074962047 -0.00017702614 -0.027487297 -0.02679152 -0.010231638 0.03067722 -0.005127688 0.04835581 -0.04048255 -0.0137989465 -0.02647827 0.05279298 -0.014052907 -0.0449326 0.055558395 0.003987452 -0.0014485738 0.059408344 0.02609475 -0.00033718802 0.05840473 -0.011434847 0.020843793 -0.020859985 0.009433753 -0.0056229606 0.007457075 0.03439069
lesson 0.025619723 0.02024197 -0.018815028 -0.0014291266 0.041916672 -0.039098952 0.004195633 0.023203578 -0.069259785 -0.043920126 -0.04942123 0.051064134 -0.02819205 -0.06264334 0.01025963 0.06012747 0.050714396 0.05416381 -0.016541954 -0.029401483 -0.05338502 -0.016713737 -0.04899184 -0.058413394 -0.006418643 0.017440733 -0.028409412 -0.045646172 -0.045705274 -0.009389406 0.044673074 -0.023862183 -0.048782673 -0.029081281 0.04986378 -0.03648914 0.05456874 -0.056769527 0.034253698 -0.036549114 -0.0004702633 0.03475511 0.05520432 -0.047557488 -0.062056348 -0.049255658 -0.036558315 0.0032545528 -0.02103447 0.029588833
five -0.05984159 -0.007613375 -0.046289355 0.038336497 0.058136895 -0.00451932 0.010104985 0.055210233 0.018988794 0.055522 0.032379325 -0.04528363 0.038551934 -0.064429246 0.008832979 -0.07347141 0.06953012 -0.045219287 -0.034784473 -0.016759373 0.065047376 -0.00756484 0.05772495 0.028104734 -0.017590657 -0.030672763 0.04013788 -0.023101429 -0.025863236 0.05932761 -0.025362056 -0.05219417 0.008777358 -0.037376203 0.041436467 -0.067046426 0.028777417 0.030238338 0.00043507584 0.06901945 -0.0007821603 0.02382996 -0.03475607 -0.011597851 0.01684742 -0.010798375 -0.029393524 0.041460052 -0.06713803 -0.023592042
walk 0.0034291968 -0.019539839 0.003152738 0.039266653 -0.0010447415 -0.072010554 -0.028716298 -0.05384536 0.054448973 -0.030829873 -0.013393691 0.002438288 0.039557688 -0.027129956 0.018582318 0.07460437 0.041350447 -0.034557804 0.017249588 -0.02432137 -0.0059045223 -0.0009462045 0.057953533 0.007512327 0.027596332 0.053459104 0.050442666 0.06251842 -0.07620055 -0.017794454 0.051905666 0.027906856 -0.00015625719 -0.034298297 -0.009997212 -0.05479625 -0.05514888 0.035646394 -0.04145948 0.064468384 0.07205069 0.034976263 -0.05565711 -0.031294886 -0.03897216 -0.013144044 0.041533165 -0.011166691 -0.04565708 0.051192366
bats 0.04492939 0.046960108 0.06517446 0.017861724 -0.061141748 0.035031907 -0.045741625 -0.0045768684 -0.023849191 0.059241705 0.0065577254 0.06871832 0.05334266 0.0667188 -0.07102769 0.03179692 -0.027802596 0.054527137 -0.040076114 0.027429106 -0.026919955 0.06879706 -0.027921805 0.045503534 0.034405574 -0.013344562 -0.07666581 -0.01085202 0.0576299 0.055214215 -0.011474521 -0.078148976 0.034553256 -0.002683071 0.08101821 -0.061543565 -0.012637496 0.011170804 0.0806159 -0.05240047 -0.058809515 -0.001390649 0.05784659 0.0121660745 -0.04649428 0.035580438 -0.05349422 0.05132563 -0.040395975 0.029834678
know -0.03620932 -0.040258534 -0.033565957 0.010317009 -0.032508742 0.06507229 0.06341121 0.040159978 0.039722707 -0.021698162 0.021874987 -0.030647544 0.018167581 0.03248859 0.0046323193 0.010069161 -0.073846154 -0.014562305 0.056403626 0.024337174 0.03034831 -0.026951717 -0.024985377 0.043368448 -0.07485285 0.029927975 0.01329056 -0.055164255 0.014852554 0.03760618 -0.054450754 0.07208403 -0.025907619 0.038274556 0.069433145 -0.05775 -0.010766933 -0.02620139 0.04052442 -0.079724856 -0.008301563 -0.03674411 -0.06521642 0.033396266 -0.03365857 0.031262796 -0.071851954 0.0064073177 -0.032583103 0.077009805
knowledge 0.06697399 0.057076156 0.04229171 -0.03653948 0.006894605 0.03090152 0.01417098 -0.01522105 0.031235607 0.06421645 -0.026006766 -0.045090504 0.032278538 0.005617522 0.052256547 0.0006051111 0.02086219 0.030589486 0.0397423 0.06399332 0.0576293 -0.021476448 0.04839176 0.024055079 -0.0065657296 -0.054106064 0.036073964 -0.021855962 0.03563559 -0.018902687 -0.05156194 0.04660551 0.036652196 0.052618686 -0.025076652 -0.0510043 -0.028236667 -0.054288805 0.028140673 0.0124879 0.0021494604 -0.05064307 0.075565346 -0.001860734 -0.003736558 -0.017318606 -0.043939896 -0.027495062 -0.01805573 0.049849316
paper 0.0030831248 -0.01560071 0.037264854 -0.069650695 0.026567679 0.044538524 -0.0588708 0.013551315 0.05558827 0.02759162 -0.0060517536 -0.047834296 -0.062091444 -0.029510597 0.037367467 -0.063056156 -0.0024708703 0.040236834 -0.032748163 0.04018701 0.030112917 0.064964 -0.03561573 0.041908503 0.06992757 -0.02100253 -0.0044725435 -0.056128748 -0.019029362 -0.06042736 -0.0037757738 0.034091584 0.025145046 -0.00670322 0.061452378 -0.001481621 0.022134004 -0.053098045 -0.011783541 0.019319301 -0.060579956 0.038348865 -0.018260902 -0.020990858 -0.0353029 -0.02065764 -0.00934151 -0.045169994 0.00492162 -0.0152056785
reaching -0.043469865 -0.020587813 -0.005572221 0.0033385172 -0.05299168 -0.031762406 -0.057233926 -0.05842715 0.055949688 0.05381109 0.04048703 -0.042827822 -0.05286551 -0.04526927 -0.040859737 -0.008909868 0.017318524 0.030112173 -0.044457324 -0.07254192 0.022621337 0.015629832 0.031636365 0.06031753 -0.010533376 -0.01760148 0.05674754 0.019843671 -0.018223234 -0.036053993 -0.06594147 -0.018945372 0.06362112 0.0024360667 0.06668556 -0.027921794 0.05026496 0.046275023 -0.03894195 0.059225064 -0.035212073 -0.010697542 0.07546015 0.02101941 -0.043944973 0.03861405 0.05655877 -0.055268355 0.006980281 -0.06579284
spirited 0.014900631 0.002621315 0.04439532 -0.036396205 0.01326415 0.013205655 0.052030142 -0.0031604192 -0.057489414 -0.021152 0.058479387 -0.0028553843 -0.018649802 -0.03117958 -0.024353053 -0.04032104 0.042440865 0.065310486 -0.06802806 -0.056438852 -0.022743708 0.036391996 0.021367222 0.061179228 0.06164783 -0.011471502 0.04537998 0.017140513 0.017021976 -0.002781758 -0.047883797 0.0014513925 0.042218786 0.03365543 -0.016832273 -0.011241327 0.036954712 -0.012674458 -0.043848865 -0.0002159999 0.052838728 -0.04909919 0.030821629 -0.05971661 -0.032139312 -0.009016597 -0.02321166 -0.062540896 -0.0077555664 0.0575368
familiarly -0.04917247 0.06305077 0.04833425 -0.034367785 -0.065564916 -0.03827643 -0.044202182 0.0017804976 -0.03115642 0.06846043 -0.050110087 0.004351201 0.037754495 0.06003341 -0.010370617 0.06550222 0.057483725 -0.007859648 0.0032028086 -0.037851185 0.01282667 -0.056695554 0.028645355 0.027831666 -0.072442465 0.061686605 0.04709597 -0.037137415 -0.06913353 -0.036077958 -0.064995684 0.023273503 0.011646237 0.023937218 0.042383786 0.027494501 -0.0048177456 0.024377447 0.0029661527 0.046143737 -0.055185296 -0.0036492413 -0.053540595 0.037657704 -0.00041734253 0.06533543 0.073048845 0.029652268 -0.05752748 0.049983777
sat 0.013581622 -0.069148794 -0.05703946 0.042184453 0.0062273378 -0.06653061 0.03258891 0.059783213 0.0019551073 -0.037155297 0.030567408 -0.0020842727 0.02612964 0.07831826 -0.027355144 0.006124056 0.00069266604 -0.016129524 -0.06273479 -0.01385516 -0.026189296 0.040911376 -0.058020346 -0.026724147 -0.071281716 -0.036248207 0.020933809 -0.05386114 -0.030571843 0.0018761926 -0.043144386 0.057484277 0.005215279 -0.044246998 -0.07171246 -0.06942415 0.025109768 -0.06559672 0.033999622 0.0046541197 -0.046584412 -0.058680147 0.037121084 0.0070156236 -0.058925048 0.061792534 -0.010778942 0.054726478 -0.05702934 0.05692369
alone -0.07459642 0.06552908 -0.039846886 0.044020075 0.06589468 0.017570391 0.0703133 0.058746047 -0.0048307395 0.026469704 0.01957111 -0.006312126 0.069615774 0.029359598 -0.022243159 -0.07812315 0.054045547 0.0009922519 0.02626087 0.051740814 -0.040986676 -0.055782653 0.023897639 0.024684226 -0.03829552 -0.0007013271 -0.0382802 -0.03643093 -0.059255276 0.07574874 -0.06628999 0.005321567 -0.029316306 0.05878423 -0.07189427 0.04731389 -0.013954991 -0.06986381 -0.023492685 -0.015132781 -0.052984886 0.05751926 -0.034690786 0.046315912 0.00954275 -0.03878002 0.042452235 -0.024176018 -8.540042e-05 0.016548779
insult 0.024526572 0.011760221 0.06903205 -0.037869208 0.0034855767 -0.022389103 0.009134556 -0.006231681 0.07147019 0.033526205 0.06742331 -0.02422888 0.071747355 -0.007850431 0.039572205 0.026745522 -0.00018402317 0.043993287 0.05590098 -0.009171352 0.06531218 -0.061546862 -0.056264527 0.048623692 -0.06667178 -0.056945615 -0.031840567 0.05354325 -0.006867215 -0.070510544 -0.012700451 0.03438481 0.007382992 0.031464256 -0.022112546 -0.010107554 0.023665905 0.009644053 0.053454563 -0.04558121 -0.009558018 -0.012496712 0.034769826 -0.03140515 -0.07359717 0.0042234263 -0.03641632 0.0442622 -0.045208443 -0.03612426
pictures -0.068044044 -0.027001508 -0.06557863 -0.025236698 -0.063376136 0.05301916 -0.055954847 -0.06419414 -0.0004275064 -0.04215561 0.05185133 0.062436756 -0.04497184 -0.07210698 -0.031464648 -0.071944416 -0.023495825 -0.05000227 -0.044233818 -0.0036984398 -0.07074477 -0.04313979 -0.025351165 0.04172544 -0.061778326 -0.051840812 0.056940243 -0.01711296 0.038339783 -0.065574914 0.055475786 0.031290486 -0.061707273 0.053955887 -0.0460866 0.046750966 -0.048898153 -0.047205485 -0.05418164 -0.024051443 0.068235114 -0.009897806 -0.014550061 0.049701955 -0.038945593 0.06506969 0.033084337 0.02432313 0.042637732 0.024137206
frowning 0.0024149888 0.026904637 -0.058692105 -0.056583397 0.06739227 0.051134326 0.042290144 0.060582355 0.005613913 0.04952462 -0.013189798 -0.03126341 -0.041935675 -0.061685573 0.02994333 -0.013070149 0.02368856 -0.046938717 -0.05894415 0.029485287 0.04183277 0.015637048 -0.015675519 0.04736745 -0.027804984 -0.03083868 0.030893503 0.0598056 0.053883687 -0.014335218 0.06460174 0.04545075 0.020386672 -0.0658267 0.04520209 -0.025420679 -0.0066691265 -0.0055029285 0.059679553 -0.016253736 0.042998135 0.05895622 -0.059830025 0.042314004 0.03558593 0.023801977 0.06182296 -0.06754488 0.06957153 0.03477195
low -0.077156425 0.0602594 0.05086364 -0.002653033 0.027791457 -0.05341529 -0.08562038 -0.0064687873 -0.04642724 0.015421195 -0.0233529 -0.06956182 0.0052426057 0.031340647 -0.0059726546 0.06426232 -0.0046417387 0.07026378 0.0466379 -0.005347368 0.0025670321 0.025225282 0.029648045 -0.008714566 -0.05155637 -0.019042503 -0.061408248 -0.016618282 -0.03679019 -0.029439837 -0.02319225 0.05416286 -0.02426608 -0.0015286398 -0.017709715 0.061978716 -0.059702292 -0.03703612 -0.041535877 0.060484078 0.056799065 0.017209422 0.040803242 0.06597224 0.006025433 -0.042300437 -0.062130313 0.06606395 0.0070883012 -0.031070743
not -0.011323639 0.07408981 0.021458818 0.05426085 -0.097462475 -0.09631578 0.03899767 -0.02699366 0.026919998 0.06528775 0.026954088 0.06308354 -0.060115695 -0.052675143 -0.08751008 0.0019205238 0.0067820307 -0.030401751 0.00233459 0.03920405 -0.06357871 0.038733803 -0.06214887 -0.046938106 0.006765212 -0.015448567 0.062060513 -0.06191388 -0.068253614 -0.0036042347 -0.033852976 0.06529295 -0.018862972 -0.04286319 0.058584623 -0.084486626 0.05225291 0.07309534 0.05354879 -0.0513269 -0.015398115 -0.057210974 0.08882461 0.053448856 -0.059087403 0.009290615 -0.047465574 0.061510142 -0.0024362393 -0.056051627
understand -0.03050698 0.032629453 -0.033318717 -0.010022624 0.008314485 0.02958281 0.020822365 -0.0042534815 -0.01755384 0.0024523728 -0.026734361 -0.047679793 0.019430019 -0.012924176 -0.050129738 0.032806247 -0.037229624 -0.0013054548 0.053767882 0.007103131 -0.017828254 0.020945286 -0.0740102 0.00052383903 -0.0032479325 0.027868312 0.029026514 -0.06401487 -0.07886823 -0.024945267 0.01862954 0.046170577 0.04761589 0.028577246 0.0069388244 -0.059363913 -0.029253447 0.035716135 -0.011916819 0.023163205 -0.037539035 -0.035605125 -0.019041656 0.04138107 -0.008233195 0.043822125 0.06858834 0.059027843 0.029697195 0.060479477
wherever 0.006836653 -0.030590385 0.0032602479 0.0050174575 0.04569657 -0.03337171 0.011450707 0.043998133 0.021971975 0.0332774 0.06351109 0.073206276 -0.061379932 0.0028202634 -0.058185533 0.01900781 0.034092635 0.05792855 0.07170046 0.024209362 -0.051829223 0.021306053 0.012599316 -0.0067767114 0.042748895 -0.012331329 -0.051113166 0.034149274 -0.009994123 -0.040719263 -0.008771559 0.0109027345 0.020597829 0.06882983 0.063087694 -0.022142857 -0.03215882 -0.056555137 0.06685033 0.03346681 0.06902003 0.057709638 -0.042251494 0.02524731 -0.010988495 0.004284915 -0.0016269633 -0.0722483 0.011761825 0.039839312
face 0.03881162 -0.053400367 0.015529342 -0.072850294 -0.02304229 -0.01299605 0.02227386 -0.018178042 0.05640301 -0.0012878558 -0.027682584 0.008654669 0.078567475 -0.05531208 0.043137256 0.019074168 -0.054817025 0.042650107 0.06483256 0.0688405 -0.06989047 0.07261798 0.023720177 -0.007994587 0.048018057 -0.004565733 0.074476644 0.0403988 -0.022368878 0.002124066 0.013058992 0.06312645 -0.040982272 -0.06982077 -0.031001346 -0.0031158659 -0.002534438 0.02332435 0.040102627 0.033203386 0.052342385 -0.053740192 -0.007552283 -0.04890244 0.054629967 -0.018574022 0.008543789 0.053367246 0.07545646 0.006628331
birds 0.017876484 0.08326483 0.052490402 0.003507718 -0.013649918 -0.029696047 -0.010744583 -0.047605634 0.0023449622 -0.009247084 0.04036305 0.02977022 -0.037995618 0.048879683 -0.01693571 -0.08416863 0.028617159 0.035628255 0.025077961 0.057496585 0.038078632 -0.04830737 -0.022150405 -0.034775186 0.014896858 0.050618164 -0.05009074 0.07060643 -0.076845035 -0.00034597155 0.053206295 -0.05362476 -0.09128391 -0.008019837 -0.010263443 0.024265477 0.02381843 -0.0258545 0.0014485513 0.007945154 -0.06310896 0.02581053 0.049065135 0.04425765 0.007273524 0.060611807 -0.01731349 -0.026697768 0.030021021 -0.046761204
seaside -0.012113293 0.03161744 -0.037847135 -0.06287154 -0.012114075 0.02251665 0.038842626 0.020146552 0.016579315 0.02226178 -0.051687118 -0.02369384 0.006884499 -0.046759963 0.0025958908 0.05348966 0.04374072 0.021245008 0.0010291504 -0.016722588 -0.057916567 -0.043379378 -0.03157972 -0.04529236 -0.059181493 -0.03429093 -0.042151146 0.057342555 0.0015580878 0.0147591755 0.039617866 0.022984942 -0.013249082 0.033793937 0.022613805 -0.04031767 0.020633204 -0.06150801 0.001348396 -0.019425003 -0.018255623 0.051580045 -0.0603555 -0.0014329357 0.03255118 0.02459348 0.06731987 0.0399081 0.02765182 -0.0043010726
child 0.037709553 -0.03757787 0.05318911 -0.050474312 -0.027686996 -0.061357126 0.04152524 -0.020797385 -0.026263598 0.00044015946 -0.019733336 0.037545357 -0.017785667 0.04232938 0.012243687 0.006085532 -0.015446485 -0.077540815 -0.007364074 -0.00017382926 -0.05190631 0.05255931 0.010862664 -0.048845746 0.06476827 0.034951635 -0.029825306 0.050693333 -0.01327467 0.064211994 -0.051541094 0.0014635852 -0.054125633 0.032929663 0.06109862 0.023069885 -0.019666666 0.028307274 -0.00852552 0.026217312 0.047684297 -0.040971294 -0.034838874 -0.054305024 -0.06444289 0.005693885 -0.039994728 -0.03692211 -0.027468039 0.044336643
duchess 0.036429007 0.044588648 0.06420573 0.05571093 -0.07045446 0.08760967 0.055753645 0.05122693 0.00253706 -0.009867218 0.04239472 -0.07020852 -0.024900673 1.7650396e-05 0.08028289 0.033792064 -0.027013365 0.006453165 0.037313603 -0.02002081 0.058879856 -0.03963095 -0.0040986603 0.023894649 0.021638898 0.0036963406 0.059680678 -0.04575942 0.07488877 0.073772945 -0.00591781 0.05652224 -0.021942845 -0.070672244 0.083422534 -0.07096447 0.057737302 0.01811294 -0.09152012 0.04895763 0.025470918 -0.064685434 -0.014808892 0.052323464 -0.02121538 -0.0075277947 0.05527332 -0.019326093 0.01660882 0.015950363
putting -0.015665796 -0.0274039 -0.010251622 -0.059263624 0.040121812 0.03230942 -0.043046508 0.028098943 -0.033311326 0.03108503 -0.027419608 -0.038327474 0.05558886 0.047830332 0.0037349523 -0.024704263 -0.07003394 0.026201375 0.0106324265 0.039753594 0.043176487 0.026473133 -0.013354832 -0.061079387 0.0071244505 -0.03724178 0.0506883 -0.0045148595 0.023459928 -0.015285807 -0.042256966 -0.061247073 0.040078398 0.057326186 0.07302074 -0.05561886 -0.041807275 -0.006000319 -0.06417193 -0.056289796 0.069510974 -0.0165012 0.070304655 -0.054391608 -0.05081248 0.011134788 0.025146635 0.07117206 0.060856596 0.035910666
learnt 0.025340488 -0.047707364 0.009202252 -0.041940704 -0.020405706 -0.0640132 0.006571714 -0.026482703 -0.025518293 -0.014604121 0.020430187 -0.016709875 -0.013035556 -0.020642098 0.055866446 -0.032226536 0.02268659 -0.06816992 0.04202417 -0.009529163 -0.07149967 0.050193883 0.05392373 -0.02336934 0.051190093 0.010722037 0.005516499 0.021320703 -0.06707441 -0.03643063 -0.026932681 0.0098917475 0.023443522 -0.00061954476 -0.013018262 0.026159434 0.05809319 -0.0060457494 0.065207854 -0.075975016 0.041126233 -0.015977656 -0.024602054 0.025591576 -0.06547328 -0.039553035 0.032813836 0.050020922 -0.018801542 0.007860937
position 0.030135432 0.04888891 0.010503844 -0.06087378 -0.048612945 -0.061334647 0.05498587 0.005071795 -0.061702833 0.01215664 -0.043178305 -0.020272274 -0.03457118 -0.031193875 -0.04058957 0.010282141 0.019074854 -0.008101565 0.015635317 0.037617467 0.015193107 -0.06092529 0.055676177 0.036995724 0.0022763477 -0.06434864 -0.055785723 -0.04071968 0.01293661 0.042841468 0.05870758 0.0628551 -0.007283636 -0.012024495 -0.025800161 0.036461763 -0.04864174 -0.037971456 -0.016393619 -0.016822267 0.071601495 -0.0026620668 0.069075115 0.06143195 -0.034409706 0.050720297 -0.06758114 -0.048225217 0.0029686745 -0.00023463031
quicker -0.052081093 0.059251614 -0.034955755 -0.037810594 -0.029738294 0.027847407 -0.008565748 -0.05003714 0.0043206383 -0.062459532 -0.046474393 -0.046024732 0.06851147 0.03971427 -0.038367398 -0.02480825 0.032942407 0.04931409 0.006579157 -0.050450772 -0.02084683 0.012027057 0.020601543 0.052463967 0.004824307 0.004135043 -0.020663584 0.0037804982 0.053407267 0.040695503 0.016414361 -0.0116094565 0.0423933 0.055206474 0.048883058 0.062698476 0.06589087 0.058312245 -0.007927648 0.04903926 0.07539685 -0.05687545 0.040264968 0.042875778 0.051341515 -0.0006086709 0.061968602 -0.004565871 0.02916774 0.0639137
see -0.005912006 -0.052048247 -0.061807614 0.023250032 0.016588587 0.009850491 0.08921864 -0.0121047925 -0.035242688 0.03549104 -0.031894997 -0.00029284542 -0.06558904 -0.036746155 -0.0828533 -0.009223938 0.026405094 -0.008145526 0.04667831 0.07191719 0.04933611 0.07748632 -0.047731694 0.008833068 0.038725216 -0.009319673 -0.043509685 0.021052409 -0.007147574 0.011709171 0.02721336 -0.020910917 0.07397788 0.05584166 -0.051959913 -0.0067883916 -0.042207155 0.03286108 0.03283433 -0.040635627 0.03044828 0.045813274 -0.053454358 -0.001906784 5.840615e-05 -0.022945782 0.0010976411 -0.0057712425 0.0069461833 0.06825933
buttered -0.03392094 -0.028019682 -0.0133387195 -0.02426098 0.06177959 0.03570269 0.020546444 0.037801098 -0.023308646 -0.05457145 -0.019230252 -0.039826132 -0.026963487 -0.0015253731 -0.054047994 -0.038125727 0.05013663 -0.053970806 -0.0009117769 0.02936463 -0.019220699 0.022190869 0.017836956 0.058130197 -0.0052186796 0.03669263 -0.029231446 -0.07533638 -0.044731993 0.028270898 0.0025248895 0.06849512 -0.014469241 0.049591597 0.040947005 0.037824336 0.013455386 -0.032275647 0.026154388 -0.0029250553 0.04929533 0.06147184 0.013904719 -0.018788274 0.046083804 -0.013246871 0.0356194 0.0055314708 0.0014997025 -0.0073719323
christmas 0.04536758 -0.025071636 0.06742458 0.046649612 -0.04085586 -0.0030325116 0.052788433 -0.041458953 -0.037381113 0.01993012 0.0015694933 -0.00024740444 -0.0078478595 -0.024918498 0.07142671 0.050431408 -0.030789673 -0.03184692 0.0636023 -7.537275e-05 -0.05886604 -0.0691127 -0.012470654 -0.06340568 0.00047024642 0.025211517 0.016225843 -0.07429777 0.020309363 0.03781695 -0.045867834 0.005072489 -0.036134128 -0.03602997 -0.00996419 -0.014783024 -0.069427006 -0.048603866 0.07065906 0.052803174 0.046741787 -0.07552278 -0.048424643 0.034816183 -0.0062560407 -0.0009838294 -0.022002846 -0.067385234 -0.018858297 -0.01518767
wild -0.02733235 0.010586004 0.015549436 -0.03000048 -0.017951522 0.029922422 0.03125918 0.06322812 0.013491492 -0.035858966 -0.001220732 -0.04583701 -0.054462336 0.056633137 0.025169013 -0.057634365 0.06612048 -0.045798533 0.023266006 -0.041114733 0.06979655 0.04099453 0.012940331 0.0077395854 -0.07301235 -0.00022893923 -0.044028282 -0.054616913 0.03411611 0.008874698 -0.06627796 0.022465982 -0.05828276 0.023165317 -0.060981818 -0.021364933 0.03155434 0.0028139276 0.0005717804 -0.035306238 -0.034668803 0.04694015 0.011545099 -0.029005619 -0.01277806 -0.04619898 -0.052392915 0.0043183276 0.054022416 -0.014943695
no -0.026122177 -0.007577305 -0.019593824 0.07139435 0.085876904 -0.060057156 0.010543026 -0.026326913 0.06782382 0.0066491924 -0.0445949 0.028854502 -0.04008013 0.04335481 -0.07744817 -0.038312063 -0.04819928 0.029306272 -6.962789e-05 -0.011163175 0.035923954 0.03293921 -0.08343199 -0.0246435 -0.035403803 0.016380882 -0.026711788 -0.04793158 0.009009154 0.011023355 0.055549864 -0.034615874 -0.018672729 -0.035616986 -0.099690944 0.026506443 -0.03453948 -0.037129585 0.021799082 0.03348053 -0.023540283 0.032607924 -0.046178907 -0.063166894 -0.045489535 -0.07018465 -0.09023041 0.009606122 0.034671105 -0.024793234
wanted -0.01940944 0.016994188 -0.06150424 0.028365988 0.023232969 0.049128246 0.02827068 -0.017164377 -0.010476598 0.023309523 -0.043010283 0.027991382 -0.071740866 0.044202104 -0.025842002 0.051334243 -0.057426192 -0.038200032 0.045630436 0.07578887 -0.048215967 -0.044531215 -0.030651858 -0.051135607 0.045956735 -0.070798144 0.023328753 0.011859656 -0.04346285 -0.04211898 0.020347195 -0.06839667 -0.06097096 -0.020145705 0.03334949 0.01382607 -0.014951275 0.06298837 0.010777789 -0.04933349 -0.027688237 -0.007094875 -0.013141064 -0.003181897 -0.030913368 0.011305741 -0.02539789 -0.0180294 0.031417288 -0.015992966
leaves -0.03801685 0.0020033177 -0.05855311 0.022452192 0.06454442 0.021327259 -0.011956973 -0.0039371005 -0.016779969 -0.059603974 0.062709674 -0.01995215 -0.023312882 -0.009419256 0.01563509 0.05680445 0.0033144662 -0.009648709 -0.06758157 -0.06428343 0.05780105 0.027578985 0.041814115 -0.023890192 0.00058430084 0.02249656 -0.03409847 -0.0022161712 -0.04792912 -0.0114563005 -0.022569919 -0.027391426 0.03300989 0.007415545 0.019429162 0.047086835 0.03148809 -0.040643383 -0.06827921 -0.045104403 0.06367708 0.040766448 0.023344336 0.03401368 0.027791813 0.009801679 0.019219954 -0.038538422 0.057706106 -0.029748274
turned 0.025999615 -0.021496864 -0.03325194 0.040523533 -0.0070765973 -0.04087777 -0.058456115 0.01169127 -0.036802374 0.039854694 0.04577924 0.038177896 0.0604057 0.002977699 0.0066268393 0.036862906 -0.038246118 0.04361012 0.05029291 0.05196494 0.03642301 -0.060020186 -0.031867605 0.04078965 -0.0012060018 0.049373243 0.005347928 0.060093258 0.036863662 0.06817144 -0.011423643 0.0676984 -0.016459204 0.032058682 -0.050562818 -0.01540309 0.013508143 0.047542673 -0.06630548 -0.028488806 0.051071547 0.021331456 -0.048724636 0.045466833 -0.011284872 0.067896366 0.0056482027 -0.050555337 -0.033059534 0.07298754
returning -0.0575624 -0.057369124 -0.007568131 0.058422875 -0.045784146 0.017576622 0.009495165 0.029093912 0.023075435 0.0764459 0.052816782 -0.024688642 -0.044277042 0.04046427 -0.036317192 0.04849919 -0.0052236575 -0.054214183 -0.06647101 -0.04155275 0.0325393 0.009018008 0.06466278 -0.073746726 -0.04721561 1.371617e-05 -0.056414057 -0.0029195107 0.0063275695 0.043428052 0.010067044 -0.027863478 0.040512525 -0.05067285 0.040210888 0.054564327 -0.018761126 0.017501783 0.05967942 -0.029237496 -0.010634317 0.033958413 -0.019953704 -0.026396073 0.010315034 0.025107402 -0.061621252 0.05723812 0.04397097 0.0027591554
stigand -0.040136103 0.057091266 -0.041446857 -0.025092082 -0.055765226 0.038629286 -0.067555636 0.01338668 0.056733496 0.014764131 0.008433324 0.030492753 0.00220727 -0.040632725 0.056038957 -0.04788328 0.017590178 -0.06217269 -0.0014031942 0.017119432 0.03207291 0.007886403 -0.056166876 -0.062214397 0.03492835 0.010872057 -0.027730748 0.016051318 0.05331847 -0.01574562 -0.007557084 -0.045800935 0.03538731 -0.026027689 -0.025570001 0.04396735 -0.0023919512 0.007337385 0.019389536 -0.02273123 -0.061645783 0.039787043 0.060469106 0.03784252 -0.026704215 -0.056664515 -0.008963459 -0.034344494 0.063125595 0.02094292
being 0.02852763 -0.031785287 0.052593898 0.0059573976 0.020053599 -0.003990012 -0.05791657 -0.035749905 0.07195986 -0.04669753 -0.07834815 -0.025172925 0.031060183 -0.018404087 -0.041102722 -0.004413206 -0.0035039464 0.014308412 0.030082712 0.035721783 -0.024228608 0.0479672 -0.0055321585 -0.056847956 -0.010674654 -0.046932388 -0.026081733 0.041639566 0.018110875 -0.04164866 0.01540558 -0.0078396415 -0.056475576 0.01747179 -0.04865883 -0.03799506 0.0045564245 0.00512705 -0.06730287 0.048060395 0.042884454 0.020353511 -0.03349007 -0.043173537 -0.07122962 0.041179135 0.0022329183 -0.014481876 -0.018119104 0.04810761
gallons 0.0403883 -0.047134586 -0.060280878 -0.041107107 -0.019816287 0.041510843 -0.060465526 0.014036979 0.07612118 -0.028138751 0.00012288091 -0.023594553 -0.041467458 0.04651596 0.026105111 -0.042510036 -0.0679423 0.0380003 -0.049764242 0.049767464 0.04434698 0.060306676 0.030926798 0.0119003905 -0.049332753 -0.057797603 0.041662276 0.01132908 -0.034595348 -0.025631487 -0.07496781 0.024007447 -0.03142546 -0.06167729 0.023606371 -0.02328468 0.010913012 0.060562864 0.03359064 -0.03314779 0.069686554 -0.01806437 0.047684517 0.0019804193 0.02655596 -0.005827835 0.03867417 0.039966922 -0.03788066 -0.07407552
law -0.05472777 -0.05304683 -0.022925839 0.011505766 0.070928015 -0.05260382 0.0029013022 -0.040673368 -0.04524913 -0.021088721 -0.03515436 0.016941927 0.008737764 -0.031228675 0.019311057 -0.014212065 -0.031147843 -0.043333955 0.020012949 0.013664924 0.03518012 -0.005866594 0.012787255 0.05742786 -0.020176051 -0.047569428 -0.014987129 -0.06819452 0.03856659 -0.020496046 0.039793942 -0.013966175 -0.05422151 -0.0008099625 0.069844946 -0.046860058 -0.0111632105 0.032529112 0.054699373 0.027885072 -0.040001508 -0.04386249 -0.0034755643 0.069794215 0.003581529 -0.0708373 -0.041321885 0.0203025 0.022594146 0.010404178
sea 0.038524702 0.069374755 -0.009173391 -0.033917267 -0.04827973 0.051379565 0.019554598 -0.06350891 0.045722853 0.027173955 -0.050302256 -0.018908175 0.061896984 0.022072228 0.06332985 0.06664312 0.054598764 0.07232055 -0.023379732 0.06511015 -0.051710244 0.0049341545 -0.059568 0.06593176 0.025883501 -0.053165954 -0.045722432 0.05473273 -0.06502303 0.044627775 -0.04173267 -0.0012813817 -0.05452714 -0.0015712973 -0.05907123 -0.052720428 0.04024623 -0.05076903 -0.008022571 -0.035612717 -0.055849697 0.0071048825 0.047131907 0.035777293 0.035682168 -0.049206875 -0.008685742 -0.060481057 0.06536733 0.016622145
very -0.06190805 -0.0015257793 -0.031021284 0.056396842 0.03587148 -0.027877254 -0.0554851 -0.021023346 0.047676865 0.045944434 0.058622487 0.04277565 -0.010599432 0.014201161 -0.08631225 0.009362912 -0.042080842 -0.047822997 0.0424298 0.004177354 0.06046875 0.08034001 0.009743312 0.06951977 0.014235092 -0.0545224 -0.02341042 -0.030373316 -0.017140234 0.09486304 0.0639382 0.0035859062 0.096796855 -0.03207263 0.02964241 0.01684271 -0.06624788 -0.027849425 -0.07452761 -0.031687196 -0.043358516 0.06450179 0.044434115 0.02884924 -0.015175867 -0.027265804 -0.015975475 -0.018757507 0.063968755 -0.045575645
placed 0.050641395 0.0058781174 0.0050635403 -0.03817332 -0.04389468 -0.037282083 -0.057833906 0.032805026 -0.019960597 0.017033283 0.011085208 0.039415535 -0.07156132 0.008596958 0.05621936 0.007132758 -0.0027545413 0.016903056 -0.04693889 0.04910096 0.011994396 -0.01656766 0.011973526 0.035197575 0.065105245 -0.026302531 0.04039324 0.03827628 -0.07317235 0.06957757 -0.046298105 -0.032372862 -0.03660278 0.04229736 -0.040127043 0.05517964 -0.007997532 -0.033377998 -0.025627714 -0.023352448 0.037820555 0.0641529 0.07631171 0.023685206 -0.027350841 0.008092854 -0.0023764507 -0.04640731 0.019419376 -0.0026145815
again -0.025787972 -0.028950661 0.022179082 0.017680297 -0.05193416 0.040046494 -0.042877726 0.017487438 -0.022425976 -0.047119036 -0.0149842 -0.025776833 -0.07689629 0.023224678 -0.057070814 -0.0027091394 0.015140541 0.028770257 -0.011842474 0.05782625 0.07626861 0.04090427 -0.045199424 0.008218188 -0.011031625 -0.027284725 -0.08225849 -0.083536096 -0.011951318 0.049020283 0.04871727 -0.026180157 0.049254958 -0.055835173 -0.0109366225 -0.02824007 0.050993934 0.08110059 0.008280589 0.006570166 0.011138208 -0.040356502 -0.014137933 0.05147245 0.023449194 -0.08129361 0.017327292 0.008273024 -0.06280824 -0.06362765
lost -0.05097746 -0.05759407 -0.00037847122 -0.06632459 -0.058454413 -0.02193369 -0.05620466 0.015128356 0.0015795754 -0.002409024 0.037807725 -0.040522233 0.020679548 0.0706195 -0.05115477 -0.041068282 0.017711796 -0.044821247 -0.036567744 -0.008703578 0.008629436 -0.014141564 -0.024315603 0.055048484 0.06467849 -0.045324083 0.035016093 -0.07474628 -0.025981106 -0.0261668 0.011986989 0.054476243 -0.035363656 0.045514792 0.037492417 0.011986984 -0.018229453 -0.05242967 -0.03544396 0.041410282 0.05475818 0.054400027 0.061274234 -0.0033346873 -0.061815154 0.058260523 0.014837671 -0.060966562 -0.042167112 -0.004647956
wink 0.024813233 0.0379868 0.02079705 -0.019687263 0.010731032 0.04414633 0.007501671 0.04239486 0.027752653 -0.010169277 -0.006946734 0.05274309 -0.005818693 -0.0074818423 -0.0014643252 0.06126517 0.028298782 -0.016347924 -0.02793128 0.068571396 0.016302884 -0.05413999 -0.06759773 0.01427444 -0.02589975 0.047273107 0.0071576736 -0.019085743 0.031036114 -0.03171253 -0.0399248 -0.00013405608 0.07196072 0.052012198 -0.04333624 0.0418028 -0.043141916 -0.017294753 0.032792285 -0.012829114 -0.050459728 0.010027953 0.044027977 0.056476686 -0.0045656287 0.01648219 0.018526059 0.048104823 0.03537034 -0.06362866
went -0.018511545 0.052281667 -0.063653134 -0.063768856 0.054028317 -0.063801244 -0.06307392 -0.053548362 -0.026172739 0.036603175 -0.085646555 -0.01263249 0.010436706 -0.0597075 -0.037549276 0.048107207 -0.065266855 -0.08809771 0.07001971 -0.05797174 -0.07250437 0.08955653 -0.027768807 0.01740685 0.008733898 -0.030346015 -0.0395841 0.021632198 0.050973926 0.03492053 -0.0039376053 0.01926544 0.062072415 -0.05817993 0.0016973239 0.025559908 0.017978156 0.06604792 0.047527954 -0.08308719 0.05618412 0.0019805613 0.01213443 0.030824143 0.052385848 0.041715182 0.0198873 0.043453317 0.042909775 0.00886262
others 0.034981035 0.010751145 0.07058986 -0.032354634 -0.050741594 -0.04117451 0.06132601 -0.019216934 -0.0034377729 0.05076739 0.027324453 0.037343975 -0.035147995 -0.034226246 -0.033004273 -0.06969045 0.0023932643 -0.009970859 0.009747387 -0.021114048 0.055305548 -0.0004678294 0.014030346 -0.061940487 0.020317353 -0.03372361 0.033581927 0.0235618 0.057869535 0.007487546 -0.005454711 0.018387066 -0.01163095 0.01822339 0.017681886 -0.066851445 0.029014116 0.027411528 -0.033472177 -0.012757789 0.0073735737 0.007504517 0.011746433 0.007874606 0.07006049 0.037214678 -0.03773806 0.02134437 0.033147145 0.04303957
ada 0.02228745 0.046431657 -0.033651557 0.024517762 -0.01228486 -0.011426863 -0.06461147 0.061681 -0.011799485 0.053132962 0.062207572 -0.067442685 0.03617904 -0.037888292 0.038795736 -0.010161433 -0.030108424 0.038932666 0.07068489 0.032600835 -0.049678832 0.048134096 -0.0512377 -0.06507793 0.029145753 0.050214536 0.032107502 0.060654905 -0.07039156 -0.032162342 -0.02165102 -0.0008902112 0.04296754 -0.035691053 -0.042336248 0.044090487 0.047670174 0.002242848 0.05426601 0.011188413 -0.05498638 -0.008917972 0.015038066 0.060107205 0.018627288 -0.045314606 -0.04437486 -0.0020422782 0.017329028 0.052288976
creep 0.027082227 0.05200646 0.029866429 -0.010605124 0.020975374 0.07321329 0.00053687266 0.005006179 -0.00077356526 -0.07663399 0.068532474 -0.001245747 -0.043076172 -0.0010432232 0.03433152 -0.054958135 -0.045443725 0.035491515 0.017683918 -0.06968547 0.055238735 0.039855894 0.05897358 0.027480384 -0.009726567 0.04745439 0.06827478 -0.021506475 -0.05297582 -0.020861885 0.04296781 0.0451435 -0.021665335 -0.056201894 -0.0023302115 -0.072942406 -0.0010551818 -0.022578426 0.05213323 0.00507132 -0.050418973 0.034712035 -0.07509327 0.05399381 -0.040304236 0.03303103 0.043594208 -0.054422267 0.016139243 -0.038671464
rat 0.0049271574 0.01620608 -0.0082799895 0.018322615 -0.05611372 0.05828753 -0.05056107 0.066751085 0.055709627 0.06119469 -0.05731745 0.01469093 0.004929535 -0.0006006365 0.009563542 0.008486234 -0.029867016 -0.049211223 -0.027317557 0.041823108 -0.033547126 0.009774171 0.026870223 -0.035558026 -0.045804095 0.0059351935 -0.0130302245 -0.034188293 -0.057514444 -0.0045277043 -0.032182883 -0.01790468 -0.030540975 -0.031686988 -0.030844247 0.043847285 0.029012626 0.054194674 -0.023233047 -0.07445063 0.055990677 0.05236551 0.054783497 -0.009576722 0.04221339 -0.05818941 0.0459924 -0.029421493 0.04291945 -0.0019549662
nile 0.076241136 -0.032954857 -0.0073910104 -0.05175902 -0.03746781 0.005523712 -0.027634732 -0.040531732 0.004985813 0.013843307 -0.018702347 0.059251558 -0.01649063 0.0132902805 0.009997122 0.045657422 0.060198233 -0.047449984 -0.056094438 -0.008549867 -0.014346648 -0.056461588 0.020240903 0.0012820406 0.054233965 0.0007572734 -0.023697011 -0.044914972 -0.0390124 -0.0379043 -0.045371935 0.0658424 -0.034070447 -0.05548312 -0.03918569 -0.012253646 -0.015924681 0.023903133 -0.045446053 -0.0073172916 -0.044321787 0.056217737 -0.023051385 -0.011932695 -0.050404012 0.061588403 -0.030040909 -0.051843114 -0.008228157 -0.028183615
lying 0.056845743 -0.033716902 -0.025227562 -0.009457532 -0.050336834 0.021210317 -0.061341215 0.042857688 -0.027146675 -0.051354103 -0.01465825 -0.05637093 0.043664772 0.037945542 0.063177764 -0.022414373 0.030928997 -0.040195357 -0.06852652 0.03557736 -0.06903873 -0.0053599416 0.064243205 -0.0013711982 -0.03832189 0.0074926536 -0.01540846 -0.053146224 0.008898281 0.03386351 -0.0376601 -0.01965843 0.020094192 -0.030509973 -0.02908347 0.03741157 -0.009971441 0.002345423 0.06124344 0.045778897 0.054380227 0.034918785 -0.032857306 -0.045439936 0.06361738 -0.0029961597 0.011803458 -0.011860705 -0.020619782 0.040165257
finding -0.0078569455 -0.03737096 0.051290985 -0.061589643 -0.027374899 0.04327726 0.0748923 0.00080997404 0.054002516 0.005209699 0.00026887865 -0.045414314 -0.05578415 -0.032733157 -0.050819296 0.018007051 -0.05217826 0.05782583 -0.037684 0.0050967154 -0.048397094 -0.014813517 -0.016762424 0.029448833 -0.023110088 0.0031865253 0.060127243 0.055167623 0.06591108 -0.023725737 0.04611489 -0.033038795 0.02315226 -0.028577372 -0.05541215 -0.039400116 0.0342457 -0.05021519 0.028306603 -0.056551054 -0.0034863418 -0.01828062 0.061439484 -0.007898896 -0.038076963 0.02637718 0.049324688 0.040936355 -0.034242403 0.068425104
anxiously 0.0030651453 0.05044723 -0.028037708 0.05202566 -0.04284808 0.040109593 -0.06438251 0.025716864 -0.0063151773 0.0060404195 -0.062334698 0.07501002 -0.010755973 0.03706593 0.04677816 0.0044134296 -0.0850715 -0.07239034 0.0014549763 0.029000178 0.028685406 0.012755708 0.014912667 0.03613492 0.02944243 0.01455433 0.01470666 -0.017362094 -0.01215046 -0.0012458483 0.0548082 0.05079095 0.04851359 0.03529283 0.0032736838 -0.03764726 0.019702453 0.007787486 -0.012475301 0.047348127 -0.0038455846 -0.044883892 0.051370993 -0.018487226 -0.05539189 0.037261527 0.050812133 0.03685211 -0.06321754 0.03433745
yes -0.056963637 -0.009115592 -0.027312784 0.026325068 0.030278064 0.008164199 -0.0434016 0.056995552 0.07229592 -0.0074179973 -0.009294491 0.005852754 -0.05488868 0.058263525 0.04670584 0.06727242 -0.039259546 -0.01621465 -0.05340121 -0.03325702 -0.04555915 -0.026200263 -0.0572271 -0.040531546 0.061234962 -0.053929534 0.04881467 0.06721867 -0.026262743 0.011112983 0.07209287 0.051253695 -0.045951605 -0.003676764 0.013524208 -0.01649941 -0.0077863834 0.062424168 -0.016111972 0.04734717 0.017598862 0.05378093 0.018196581 -4.918524e-05 -0.02789662 -0.057577554 -0.07102988 -0.07250498 0.03496923 -0.013293621
cats -0.025544254 0.05509459 0.029836606 0.016684469 -0.03327023 0.007475405 -0.013051293 -0.0019782556 0.01097263 0.07700795 0.08062513 -0.034669366 -0.019276585 -0.039647255 0.027327858 0.044075068 -0.012835171 -0.07078242 -0.001857729 0.008687501 0.026629005 0.057777926 -0.05249922 0.08384665 -0.010801743 0.07903008 -0.047944248 -0.057680156 -0.03141041 -0.003708803 0.024984408 0.03479376 -0.06004899 0.065211974 0.046884768 0.044828456 0.012383996 0.06740821 -0.0339553 0.035467412 -0.031606786 -0.06442503 -0.0024606185 -0.03317357 0.05330746 -0.052750897 -0.018547969 0.010081361 -0.073226586 0.016217742
foot 0.0138453115 -0.03332639 -0.03519251 0.008037711 0.043992106 0.034612812 0.037354432 0.046212036 0.0010111488 -0.008536707 0.03535067 -0.048644144 0.00012499664 -0.029581247 -0.029433899 -0.00727921 0.037398666 0.050221525 0.018868443 0.047364634 -0.057266973 -0.052235458 -0.010151762 0.023144213 -0.011817941 0.01681235 0.0140150795 -0.03436242 -0.00926476 -0.05893523 0.022167515 0.047622114 -0.057536505 -0.06705322 -0.019174078 0.0077469684 -0.0077309944 0.048942424 0.062551714 0.035627432 -0.03608059 -0.0246344 -0.0024802596 0.046526216 -0.07110698 0.020679213 -0.013909087 -0.010943315 -0.051283985 -0.08264956
footsteps -0.023655033 0.04077475 -0.0616272 0.03107211 -0.04217641 -0.0059720925 0.011570711 -0.006598689 -0.06915199 0.029494476 -0.05363569 0.02328721 0.034053482 -0.02374345 0.06088671 -0.06229145 0.05436295 0.04829063 0.023267701 0.028556803 0.020685121 -0.033222813 0.058036186 -0.05925614 0.043079488 -0.019544898 -0.002006351 -0.056323588 -0.054345388 -0.047771215 0.013291656 0.03898495 -0.053218435 0.019719709 -0.037914786 0.058060795 0.028821163 0.054347996 0.019943789 -0.057921473 0.03849872 0.03411433 -0.038505834 -0.042150382 -0.05890986 -0.02440292 0.057571556 0.030362494 0.0560266 -0.0067446334
driest 0.01415507 0.049651694 -0.036669828 0.028256848 0.024259048 -0.0027455427 -0.028032355 -0.039840218 -0.06115633 0.0015068906 -0.029826734 -0.017427053 -0.057908848 -0.029741224 0.05255448 -0.042732794 0.04310191 -0.019568168 0.053391896 -0.0037905336 -0.043883882 -0.06020901 0.03389545 -0.025670288 0.0578948 0.018589418 -0.055370454 0.050846532 -0.014135859 0.047164842 0.054882664 -0.05046917 0.01962823 0.076517165 0.024456574 0.004164573 0.06428449 -0.04534837 -0.059620053 -0.0108813 0.064191416 -0.033273518 -0.040430237 0.0689887 0.016083542 -0.04803762 0.055544186 -0.04459246 0.028908549 0.0013794455
quiver -0.0040802103 0.0092312 0.065230936 -0.02619226 -0.06630283 0.0061217397 0.049259175 0.01577094 -0.0062539447 -0.04311716 -0.056008577 -0.009626202 0.013102055 -0.035677597 -0.04985661 0.027618071 0.051378064 -0.051895145 0.06363204 -0.037162032 0.03502184 0.020381555 0.044649795 -0.032771856 0.0075360998 -0.05861567 0.053736098 0.008625009 -0.0022690082 0.018205479 0.03470353 -0.07062205 -0.029558286 0.06379139 0.012026463 -0.06185497 -0.05402394 -0.021147482 -0.032854393 -0.054644328 -0.0053424435 -0.0013979148 0.0511353 -0.028102677 -0.050540905 -0.07130518 -0.036265496 0.04989213 -0.051247064 -0.0057169907
chatte 0.06393799 0.056737363 0.0033435016 0.011038726 -0.06477006 -0.052618597 0.015971797 -0.0037074017 0.004245536 -0.0068873484 0.025959974 0.020912932 0.024670627 -0.029578054 0.023167152 -0.06570418 0.033445485 0.037276816 0.05406702 -0.030817011 -0.038688924 0.04156363 -0.01445383 0.073148035 0.0667391 0.030995803 -0.025508307 0.044581447 -0.026524205 0.02709352 0.039492574 -0.048054237 0.07354366 0.04400217 -0.015364617 -0.004818019 0.045411196 0.044673868 -0.011051885 -0.016172342 0.06280464 0.027774956 0.07048661 -0.056088354 -0.05495428 -0.063786514 0.031145934 0.06478233 0.058648158 0.012897337
walrus -0.042480137 0.0118231885 0.007987851 0.008120934 -0.061661698 -0.02267257 -0.017948939 -0.046182506 -0.056566056 0.053050198 0.027880449 0.04184642 -0.03658161 0.03465014 0.0038151857 -0.0371287 -0.018895846 -0.0058185896 0.06126184 -0.0057882816 0.012956015 -0.026758384 0.035389796 -0.0340629 0.060314674 -0.012969845 -0.02331241 -0.01277076 0.045811173 -0.040702935 -0.03033577 -0.026650373 -0.025917409 0.019748515 0.008323554 0.03206451 -0.0376 -0.05123553 0.06128343 -0.06907652 0.038019866 -0.061187185 -0.0449205 0.047338746 0.04167454 -0.008564652 0.039077215 -0.008866427 -0.051271394 0.055170685
because -0.011804642 0.019845301 0.030622216 0.03781929 0.0029791845 0.017232591 -0.00908067 0.029114202 0.06883989 -0.04946535 -0.04663677 0.05121243 0.0006157417 -0.035235595 0.038298298 0.064725414 0.022015119 -0.028310139 0.07655322 0.0045943204 -0.024795834 0.013922336 0.052459713 0.020545164 -0.029413253 -0.054117095 0.046493653 0.00683002 -0.009838464 -0.011289923 -0.07433366 0.039865054 0.05660366 -0.05100541 -0.043811556 -0.074931055 0.025025336 0.014581412 -0.00876369 -0.024947233 0.06763429 -0.042218603 0.06547134 -0.037670217 0.03456741 0.03470407 -0.012304721 -0.0049537295 -0.057350483 -0.008295015
marked 0.03188259 -0.0068490133 -0.011846438 -0.052227322 -0.027872166 0.035467383 -0.036304384 0.019285638 -0.0038107662 0.004402771 0.002382522 -0.031424906 0.004920745 0.047748365 -0.0014964399 -0.051361747 -0.006226958 -0.01845819 0.058929455 0.057701726 -0.042399004 -0.031959116 -0.086997025 0.061634883 -0.018113736 0.0007693111 -0.048107855 0.022504568 0.040699597 -0.052030306 0.06533096 -0.0045801504 -0.0021417937 0.017674467 -0.006340266 0.0499422 -0.07739266 0.0028765285 0.00475505 -0.06811403 0.036238246 -0.033185888 0.06095432 0.016782882 -0.06950671 0.0044464953 0.03704068 -0.016923217 0.02814093 -0.057014808
off -0.025289122 -0.027783336 0.034025118 -0.0007935028 -0.05093152 0.042633228 0.05660309 -0.001181829 -0.05760224 0.05377268 0.06541675 -0.012048281 0.034718003 0.043018986 -0.07542443 -0.06631221 -0.03744914 0.016710293 0.04562305 0.031939317 -0.06518672 0.008104296 0.032527007 -0.04154256 0.029446447 0.0064719934 0.024905313 -0.08527049 -0.051036093 -0.03505311 -0.02950218 0.054556333 -0.007218431 -0.032879602 0.029256234 -0.06418881 -0.0255862 0.0750234 -0.02107088 0.04745164 -0.029318245 0.037340663 0.056092728 -0.013237373 0.009511935 0.07292869 0.061975513 -0.031467628 0.034892224 -0.05611075
friends 0.04067504 0.011618007 0.009911929 0.06968941 0.059596714 -0.035880093 0.004897751 0.034029692 0.072053224 -0.040787544 0.0266576 0.05508639 -0.06280106 0.046041142 0.061243616 0.04869063 -0.028193824 0.029458234 -0.06091529 -0.038878277 0.020959891 0.04758912 -0.04100758 -0.018097956 0.013093244 0.06093019 0.055937782 -0.005256394 0.07099594 0.054996464 0.040028185 -0.031109184 0.0068301093 -0.032219693 -0.056401886 0.018384837 0.056920104 0.013201634 -0.025196275 0.014545166 0.04946695 0.040193167 -0.025962073 -0.021897422 0.063967496 0.03845739 0.012512989 0.027857302 -0.021388343 -0.0058542294
peeped -0.054941483 -0.06438958 -0.043201126 -0.03702101 -0.01715072 -0.024187846 0.045703463 0.045124173 0.010569781 -0.075946674 0.05040401 0.039398555 -0.0405526 0.02770952 -0.051228758 0.0056698965 0.061841015 0.03522872 -0.05917701 0.021225523 -0.043961853 -0.058914155 -0.016132027 0.042439885 -0.06450909 -0.06165381 -0.045060515 -0.062224172 -0.02043752 -0.059635404 -0.016263431 0.019059159 0.04485932 0.012805007 -0.00929924 0.013705389 0.07668659 -0.015112417 -0.025741776 0.017323526 0.0675001 -0.024286449 -0.05953006 0.0005390177 0.04689006 0.044453327 -0.03005565 0.06474037 0.013774867 -0.014928809
all -0.055551752 0.01372826 -0.006959852 0.06166547 0.007916149 0.060074028 0.03819674 -0.07902857 0.008431591 -0.007174821 -0.009446432 0.00030715123 0.0962489 0.089923635 -0.08844318 0.02365146 -0.027801847 0.034817643 0.06916242 0.011436604 -0.017365726 -0.018723851 0.095730945 0.06966554 0.060022864 -0.037374675 0.041887686 0.011782711 -0.053558644 -0.007664009 -0.050290648 0.07208975 0.0058710156 -0.024097811 -0.06637444 -0.043216053 -0.047691897 -0.042502392 0.02737388 -0.03567975 0.00480231 0.036059234 -0.04823568 -0.038642094 -0.015729941 0.010921924 0.0911845 -0.05192681 0.030748323 0.023836115
fender -0.030161962 0.009370123 0.07205063 -0.023833508 -0.042691465 -0.03013627 -0.041753843 0.05027111 0.059000906 0.016537614 0.058847416 -0.059300743 -0.0431732 0.034750354 -0.00504936 0.016922515 0.02501064 -0.07252613 -0.04283492 0.05233623 0.007565827 0.008665529 0.04594942 0.026748206 -0.013393787 0.06284637 0.06025484 0.046171047 0.03294879 0.048382886 0.045611355 0.05660236 -0.024539521 0.04081735 -0.05366762 0.040226586 -0.018492589 -0.055433113 0.03972722 -0.028204277 0.05311107 -0.002804859 0.041143585 -0.052807976 0.014829798 0.017004395 -0.008139872 0.025486639 -0.0078714555 -0.044782422
jaws 0.03933017 0.023904111 -0.042843264 0.046095848 -0.022138102 0.0642361 -0.062875085 0.0117805945 0.014191387 -0.02624233 0.06608379 -0.07112084 -0.05590603 0.07649518 0.06549631 0.06036896 -0.029418875 -0.044017784 -0.05325968 -0.057862006 0.07033059 0.028959243 -0.05934669 0.040123876 -0.018897975 -0.013231901 -0.04092028 0.010690083 -0.024658829 0.05235953 -0.0741697 -0.044580385 -0.027923578 -0.05741359 -0.01876712 -0.062154625 -0.07120445 -0.023191364 0.03403375 0.03699059 0.009926677 -0.029631237 -0.009891376 0.031243606 -0.013354659 -0.045308255 0.009131188 -0.05082003 0.003652155 0.01748569
mabel -0.054859854 -0.070142195 -0.030073196 -0.027417894 -0.031969097 -0.056030676 -0.028694708 0.008195865 -0.012079556 0.065192886 0.0030750814 0.04428501 0.04007419 0.059618562 -0.020382829 -0.038644094 -0.037331488 0.018931648 -0.002420873 0.03539425 0.04515107 -0.035770044 -0.024390463 0.057743736 0.048935115 0.075404346 -0.025106765 -0.029937712 0.040198956 0.04825127 -0.048668638 -0.06472352 -0.036205795 0.060608767 0.06580901 -0.057038646 -0.060124375 -0.029257907 -0.019955644 -0.039008312 0.03218317 -0.070415296 0.02617393 -0.011965441 -0.027279606 0.056266665 0.019420123 0.0466769 -0.01670816 0.009177174
toffee 0.03136676 0.036671706 0.053418253 0.025899887 -0.041604884 -0.06365625 0.0607558 -0.012955728 0.055503268 -0.03621474 0.050068244 0.001350377 -0.02971179 0.075545006 0.049033947 -0.06331614 -0.0106368195 -0.0409348 -0.022851264 -0.038997665 -0.06683132 -0.06032383 0.023661336 0.05571985 -0.05221411 0.019606385 0.016365772 -0.01833306 0.05772003 -0.045364738 0.0151335215 0.06791012 0.022889152 0.0075607873 -0.055848703 0.012824894 0.040362604 0.038329586 0.052254893 0.043133818 0.01823983 -0.03146515 -0.040613398 -0.01089893 -0.07372811 0.01420421 0.021818968 -0.05872971 0.054611474 -0.07411906
afterwards 0.03788642 0.011833388 -0.0041254195 -0.03470689 -0.03077663 -0.057116088 -0.02854456 -0.062295914 0.0013877361 0.04964573 0.0051194257 -0.017085431 -0.03401118 0.006130696 -0.043420307 -0.016130136 -0.06590449 0.039565053 0.022434384 -0.0235673 0.0120090535 -0.045358565 0.013597513 -0.00081546395 0.030523796 0.02780118 -0.05605494 0.058842536 -0.05575999 0.040409785 -0.03292304 0.041835364 -0.03408284 -0.04585135 -0.028056951 0.022177158 0.021987759 0.02710953 0.02646465 -0.03454456 0.04631688 0.023649445 -0.067515284 0.041174173 0.060734153 -0.04030212 -0.0039125066 -0.039130844 0.0029587676 0.030952845
conversations 0.019069439 -0.058400262 0.009504456 -0.0009959405 0.05035913 0.022181548 -0.00501355 0.032325372 0.032080017 -0.0072684325 0.07098507 -0.027267877 -0.008580751 0.034506403 0.021736644 0.014578746 -0.0048376955 0.019134568 -0.06602783 0.013994415 -0.036841545 0.03639318 0.022961695 -0.037966184 -0.03443095 0.020843465 0.013232794 0.061519418 0.040672783 0.03323958 0.047771327 -0.07400096 -0.03866238 0.033707496 -0.02674117 0.05821953 0.049491167 0.05330288 0.053431902 -0.034351192 0.009706207 0.0683291 -0.049573194 -0.012538876 -0.04325646 0.04347709 0.014913498 -0.022899704 -0.004498103 -0.05228606
labelled 0.027217694 0.015050126 0.01783691 -0.01787496 0.006348563 -0.029264526 0.055058397 -0.010828261 -0.010700321 0.028822437 -0.055426363 -0.05417014 -0.027668346 0.06359344 -0.040682573 -0.02402332 -0.018399151 -0.051515654 0.049989115 0.0024954996 0.030761275 -0.048523728 -0.040497135 0.034508128 -0.03289961 0.0630487 -0.03176779 -0.01936633 -0.054857608 0.06345823 0.019300908 0.004579568 0.04586797 0.011393713 -0.033905156 -0.0008939925 -0.016105112 -0.05335496 0.06286349 -0.055780664 -0.0017123239 -0.061810996 0.06458602 -0.066908985 0.025390672 -0.024710631 0.022588724 -0.058014944 -0.028351055 -0.051624794
latitude 0.016670404 0.044584125 -0.053706057 -0.021710144 0.05528592 0.03222498 -0.020310244 -0.036173224 0.07406099 -0.01876969 -0.055938557 0.0032897794 0.06387818 -0.04187033 0.0014986938 0.060510416 -0.029157476 -0.049612265 -0.04476815 0.008489298 -0.034318686 -0.026725344 -0.0071689365 0.06867648 0.038647696 0.05635404 0.010409991 0.029919025 0.036448646 0.0012480632 -0.014428664 -0.034096725 -0.058800954 0.015415361 -0.07498026 -0.017317327 -0.058239173 -0.05613308 -0.03745466 0.00091795693 0.040386707 -0.0145052355 -0.0041097687 0.056135114 0.055893883 0.028487504 -0.08112021 -0.07138635 -0.041473072 -0.00025935695
looked -0.011423696 -0.0075006667 -0.060068604 -0.015328042 -0.0014319825 0.006532804 -0.08255931 0.06368884 -0.0039281473 0.016522206 -0.05656351 -0.020859178 0.054561667 0.010279564 -0.006043917 0.033885665 -0.033374712 -0.080538064 0.050106555 -0.018877717 0.023468131 0.04871243 0.02281959 -0.08358207 0.041614633 0.05947528 -0.0163234 -0.05313538 0.011579131 0.03222061 0.06924434 -0.04099191 -0.0056925034 0.016990894 -0.020235006 -0.027272677 0.055708535 0.008967703 -0.06535296 -0.012861691 -0.011686959 -0.011694313 0.04802746 -0.05254421 0.03412952 0.061763756 0.089581154 0.081770346 0.035890415 0.02445715
hurrying -0.027405258 -0.052262966 0.03219109 0.04974461 -0.015844002 -0.017545873 0.0361365 -0.000989461 0.0026149424 -0.02066187 -0.025469797 0.035759248 -0.007306719 0.021201603 0.01366049 0.0015464158 0.028731147 -0.039356325 0.0016955287 0.036714397 -0.06609885 -0.014499439 -0.03943221 -0.02910102 -0.05395361 0.0037667803 -0.02901365 0.0005398025 0.05315618 0.040797073 0.025095033 0.03358881 -0.06320488 0.06024755 -0.06252026 0.04448461 -0.022758007 0.04971517 0.009672357 0.0051711886 -0.049429838 -0.013016716 -0.03904959 -0.068299316 -0.043948043 -0.048630126 0.02089182 -0.0024200086 -0.055293493 -0.03949631
sticks 0.053606708 0.047380917 -0.07398988 0.028798211 0.021839822 -0.04704121 0.031747334 0.07429475 0.004466776 0.03643723 0.036011722 0.040433403 -0.018770872 -0.021889996 0.0114480555 0.018158162 0.022814307 -0.013266688 0.032725547 -0.0400845 -0.07170244 -0.020090714 0.03121582 0.047485355 -0.048999306 -0.007719476 -0.026155071 -0.04330928 0.05595947 -0.044277884 0.038871698 0.0032739018 -0.061459526 -0.06718 -0.07411361 0.061736573 0.014688851 -0.026597561 -0.056596015 0.041704267 0.055850215 0.036230408 -0.013546411 -0.040594373 0.04151068 -0.06239483 -0.033107776 -0.026351044 0.019272996 -0.043738227
ringlets -0.04703324 -0.01375182 0.046881795 -0.005951884 -0.03369935 0.025453454 -0.0062058475 -0.025815655 0.011385798 0.013248149 0.035843242 -0.04277847 0.042979576 -0.001741126 0.015166867 -0.018547805 -0.005137796 0.042319752 -0.0009446978 0.07212057 -0.019231826 -0.050334156 0.055557966 -0.040802773 -0.041586794 0.061983235 -0.02330323 -0.03506369 0.039804466 -0.051015962 -0.008251732 -0.04553462 -0.03630044 0.035032492 -0.07577676 -0.04269482 -0.031592514 -0.022382447 -0.023019431 -0.040238436 0.036859594 -0.024325667 0.023186997 0.06544249 0.032582436 0.035011426 -0.005905547 -0.011286713 -9.6235424e-05 -0.036561683
circle -0.015257581 0.021069892 0.0423671 -0.019141871 -0.021290667 0.0406893 -0.034122188 0.007459431 -0.038349267 0.00020501134 -0.05846016 0.016252866 -0.02136215 0.009532195 0.04425971 -0.07148916 0.04058063 0.06659933 -0.06506324 -0.051346738 -0.025414696 -0.026580157 -0.013291355 0.06211426 -0.046602104 -0.06371386 0.019731617 -0.040307637 0.04324801 -0.007145562 -0.032136552 0.046763055 0.002655865 -0.054987337 0.05500102 -0.0753021 -0.009813523 0.0027838177 0.0667803 -0.044335913 0.040010385 0.0032562907 -0.04115452 0.02999185 -0.001751695 -0.05632605 -0.038700026 0.025319844 -0.048394058 0.054023985
besides 0.03319886 -0.058970027 -0.05191904 0.050249223 0.001519275 0.008447696 0.04791347 0.030781185 0.0636033 0.058980152 -0.052511994 -0.05165637 0.02292406 -0.030403556 -0.046801943 0.039079178 -0.04202082 0.035027243 -0.058720976 0.015592697 0.048912786 -0.058947314 -0.060915034 0.0052688234 -0.049925935 -0.0678203 0.013604741 -0.0686022 0.034122605 0.013581502 -0.031719744 0.001503271 -0.013189793 -0.033014614 0.044968504 -0.02675136 0.017284932 0.04780318 -0.022501135 -0.058865663 0.028200172 -0.03333395 0.053674858 -0.049750492 0.060546283 0.004453334 -0.0040756264 -0.013765789 -0.03738732 0.002295654
shiver -0.002000254 -0.020151496 -0.065056734 0.026316034 -0.017306814 0.03987582 -0.04095682 0.05964494 -0.042798854 -0.046179645 0.047049724 -0.01078954 0.026189283 0.024835836 0.0063465815 0.041558277 0.06431785 0.023665061 0.020833377 0.027147477 -0.05500313 0.045151528 -0.0065140207 -0.013410733 -0.035405744 -0.0358424 -0.044827342 -0.020926656 -0.056419224 0.05900891 0.013504514 0.036524966 0.021788396 0.03382382 -0.005475307 0.070632204 0.059216518 0.021722123 -0.027429206 0.009387746 0.037839826 -0.031235812 -0.02681739 0.035969526 -0.024909869 -0.009754583 -0.008353929 -0.056468014 0.076072186 -0.016508147
engraved 0.0053436356 0.02020338 -0.005429093 0.01530568 -0.053619955 0.04144731 -0.030697092 0.021655072 0.05963397 -0.027876666 -0.065149985 -0.07335301 0.06588182 0.029149132 -0.0019587097 -0.012758596 0.05025858 0.022021415 -0.018640611 0.06419265 -0.056147847 0.035282943 0.0015575347 0.0011533415 0.036559105 -0.03982186 0.029793266 -0.0137187 -0.008444065 -0.034407698 0.02082542 0.046748575 0.015199084 0.050254487 0.03342059 -0.061914656 -0.021390567 -0.00041411817 0.014906078 0.064661756 -0.038397092 -0.05642945 0.026090844 0.029097814 -0.059375077 0.035676766 -0.0011614129 -0.010646135 0.012393367 0.052329008
bat 0.03982623 0.0347423 -0.040996496 0.06070869 0.069774345 0.05493589 -0.06441181 -0.00874547 0.007883523 -0.056896888 -0.02205863 -0.012343964 0.048461523 0.020710435 0.03813774 -0.04116315 -0.017825738 0.021425245 -0.013007128 0.036042113 0.04561574 -0.06259165 -0.049843807 0.052657295 0.020068925 -0.03109682 -0.018022629 0.039390046 -0.030213675 -0.060882635 -0.018094849 -0.06379562 -0.014926266 0.06715913 -0.019781124 0.03781711 0.066323094 -0.061656136 -0.014350077 0.018421328 0.031539153 0.014234933 -0.03816806 -0.059743706 -0.0008297328 -0.06767631 0.060000878 -0.06470871 0.07662736 0.05775076
ii 0.056202546 -0.057494733 -0.015972635 0.071027 -0.027945431 -0.0009937774 0.0064621437 0.054160103 0.03042433 -0.04830873 0.0056803008 -0.002115307 -0.058814608 0.004546248 -0.051962063 -0.05939555 -0.0012710994 0.042959277 0.0400327 -0.011965773 -0.0539809 0.017660337 -0.008410501 0.034022123 -0.008738557 0.054289673 0.05493869 0.06325498 0.07048853 0.032842 0.03137042 0.015666606 -0.06685579 -0.039654996 -0.025468502 -0.011535563 0.019068394 -0.0679164 0.031034473 -0.036267653 0.058712848 -0.049524892 0.012941077 -0.0669585 0.037551682 0.0006940558 -0.024651075 -0.00039951608 -0.03843475 -0.03064516
as -0.068607636 0.025348343 -0.06771835 -0.033090364 0.020044755 -0.024517283 -0.086146295 -0.005809685 -0.0010836748 0.06607174 -0.035394035 0.079762 -0.06335296 -0.047366727 -0.03755557 0.07596203 -0.06689173 -0.038819544 0.06759244 0.017399697 -0.03789427 0.04936334 -0.03704669 -0.09015207 -0.007838225 -0.111719795 -0.007946639 -0.09355091 -0.05354726 0.08677015 0.038194682 0.04507297 0.10959017 0.0023218514 0.02645161 0.03006112 -0.02117372 0.034938652 0.0131228315 -0.027334642 0.028931817 -0.050974417 0.035978436 -0.023899047 0.055157736 0.032522753 -0.018727515 -0.010002442 -0.0029715681 -0.0052015986
after 0.075769074 -0.03277139 0.012699505 -0.034679264 0.016569281 -0.052736953 -0.0047514993 0.0788195 0.06622251 0.04326799 0.06287671 0.019588098 0.05025279 -0.0031672607 0.06528161 0.061746784 0.031574253 0.056149255 0.011533093 -0.026110973 -0.046674933 0.04999219 -0.012525228 -0.046558227 -0.04442481 -0.035348542 0.05151608 -0.005634781 -0.06294188 -0.016074456 0.0669456 0.0780214 0.019321704 0.021651769 -0.0406483 -0.06429489 -0.034595706 -0.033760343 0.034753658 0.04763564 0.08507105 -0.013608137 -0.050668497 -0.05800265 -0.015363643 0.02777031 0.026946152 0.022263708 0.0900346 0.014776584
enough -0.013769959 0.05948521 -0.023474576 -0.013298472 0.0033198826 -0.0294212 0.047692694 -0.07188259 0.04957675 0.0013472815 0.012024582 0.010683547 -0.046790827 0.06881269 0.0045446847 0.008187268 0.043439887 0.01801701 0.03557671 -0.007618443 0.072969854 0.011085802 0.02634728 0.04723554 -0.009835003 -0.012521674 -0.00563251 -0.018000606 -0.015525231 -0.030102167 0.026016125 0.0032542995 0.03023945 0.01750613 -0.07057917 -0.053915493 0.059045054 -0.015295843 0.09213666 0.068066485 -0.035936125 0.015844189 0.015263385 -0.019235197 0.00025763572 0.039863802 0.03810363 0.051220372 0.009855683 0.015830776
yet -0.006933994 -0.019070199 0.01149281 -0.024915429 -0.05651658 -0.011153976 -0.0154930195 0.046134792 0.04659142 0.0065322826 0.053771682 0.041272905 -0.0032293475 -0.0589459 -0.005890005 0.013314076 0.045527212 0.040795118 0.059395287 -0.021134853 -0.034301624 -0.0078539755 -0.05586566 0.03117878 0.0047157397 0.022053419 0.030714633 -0.009769766 0.038422335 -0.026462024 -0.054232296 0.056014933 0.035274114 0.043734442 0.044981867 0.018033864 0.023497794 0.020536436 -0.022657473 0.03065472 -0.002435078 0.011451218 -0.017559582 -0.035245776 0.032088373 0.049622443 -0.0065311315 0.020319376 -0.04631977 0.0070071276
usually -0.023500977 -0.06356424 -0.031756185 -0.059592437 0.029276887 0.02158594 0.039192878 0.01857538 0.05781417 -0.0036817654 -0.010950875 0.011670298 -0.004587888 -0.036014687 -0.042731028 -0.030485976 -0.019487457 0.025666324 0.023938777 0.047616 -0.0071114628 -0.045287345 -0.061403695 0.019888725 -0.06021186 -0.050153468 -0.028319582 -0.04710512 0.06486085 -0.04375987 0.022091947 -0.05175166 -0.05331019 0.077618115 0.014072291 0.0053392174 -0.05494639 -0.021103613 -0.058065943 -0.035927054 -0.026053973 0.029256886 -0.074187115 0.017554175 0.037815068 0.01708601 0.025292944 -0.039520316 0.04071653 -0.034786317
story 0.057577282 0.016279766 -0.04359224 0.06205483 -0.026355237 0.053325232 -0.024535302 -0.055208504 0.08025353 0.035228107 0.05295103 -0.032143444 0.047316443 -0.004074273 -0.08339881 -0.045917623 -0.012551786 -0.039301537 -0.06298839 0.011136892 0.06886261 0.0003566821 -0.03586788 0.0019048987 0.041022297 -0.027243681 -0.03911008 0.05406394 -0.07712027 0.033460297 -0.07337828 -0.047516674 0.013193078 -0.06469876 -0.07911385 -0.018316839 -0.07988146 -0.06906875 0.04934525 -0.051616754 0.01738753 0.005189403 0.0224424 -0.010076256 0.05106784 0.01202483 0.003346228 0.04172872 -0.0053040357 0.012308218
bed -0.00015448115 -0.04647693 0.0037710774 -0.010469004 0.06364483 -0.0693267 0.059625845 -0.05310443 -0.072256975 -0.009616777 0.04283174 0.01757258 0.038189635 -0.04043003 0.06489133 0.022511942 0.055223726 -0.021205634 -0.010435508 0.035895094 0.060738742 -0.01656906 0.012550918 0.046132006 0.061202418 -0.048542175 0.03717917 -0.015263762 0.027532548 0.06197033 0.036645204 0.0050473567 -0.05371066 -0.01775913 -0.014685071 -0.01237135 0.021052722 -0.036409225 -0.0039429115 -0.058290552 -0.044824004 0.024402216 -0.04358068 -0.015112262 -0.004491481 0.07105112 0.012732043 -0.036289606 -0.0017012839 -0.036333017
poor -0.012284736 0.02950832 -0.036392346 -0.02785235 0.059825074 -0.051650845 -0.04008855 -0.0054240185 -0.060073484 0.052555382 -0.026144097 -0.05233915 -0.064983726 0.02968778 -0.040878184 -0.024841597 -0.010023414 0.00015256926 -0.039743546 0.02046302 -0.04143673 -0.01583446 -0.005383893 0.008986148 0.057219557 0.020609647 0.063859634 0.003888125 -0.053370114 0.0065456405 0.019474577 0.027432902 0.031309675 0.004784733 0.037051618 0.0053171474 -0.004617072 0.059382997 0.036682636 -0.08867345 -0.009201205 -0.07223081 0.065491065 -0.03591078 0.035539117 -0.018314779 -0.014969463 -0.059294358 0.06613754 -0.00031316362
insolence 0.04692064 -0.050400227 0.0121788215 -0.055003203 0.03654202 0.029767431 -0.064909846 0.0013729967 -0.07069568 -0.0026454744 -0.04635608 0.02683996 -0.06153284 -0.052483533 0.027346712 -0.023042858 -0.01847942 -0.010262867 0.0074850647 0.02590114 -0.032160934 0.036116414 0.060548443 0.041961767 0.03558939 -0.011239857 -0.041400563 -0.059017964 -0.01478922 0.0706 0.06499726 0.021833243 -0.033709608 -0.06492476 -0.04243624 0.07412888 0.0021685543 -0.053706046 0.017056204 0.011319552 -0.0019393909 -0.029302787 -0.010306148 0.0071767513 -0.0253836 -0.035511978 0.011359572 0.028624319 0.015117798 0.016552787
nasty 0.05115496 0.07051786 0.020040032 0.076031566 -0.015501732 -0.049095288 -0.040490024 -0.0007054744 0.057918157 0.05582143 0.02866175 0.0017202295 -0.015321388 0.050628796 0.017955549 0.039999984 0.055992264 0.022306364 0.050392114 -0.031743787 -0.004638751 0.03176244 -0.012665412 0.0056560645 -0.01134883 -0.04782477 -0.0495955 0.027714917 -0.020449353 -0.0031714076 -0.0020416935 -0.06277429 0.06298249 -0.012105543 0.07025196 0.04430615 -0.07142936 0.025206344 -0.063378796 0.015805844 -0.016517268 0.054212403 0.008693354 -0.002381937 -0.011873136 -0.0070621655 0.06279542 -0.038703218 -0.020106465 0.03414378
shakespeare 0.0058229463 -0.017933084 0.019608982 -0.054708906 0.031750403 0.0307579 0.027592089 -0.031198375 -0.07574405 -0.0632888 0.02639789 0.009765593 0.060866952 0.012703336 0.05627997 0.04806214 0.05270319 -0.054919783 0.033560872 0.005212189 -0.07346723 0.032263163 0.059445232 -0.017381502 0.019711636 0.0050712507 -0.044580344 -0.021086104 -0.049336806 -0.011496296 0.0029558933 -0.057540644 -0.028985098 0.055049323 -0.06541508 0.06895358 -0.025712177 0.03615456 -0.007639494 -0.0034860328 0.010865041 0.060781244 -0.020441595 0.05565059 -0.055864565 -0.0147925 -0.044373002 -0.0010336313 0.015719179 0.01888147
written -0.05762289 -0.058836818 -0.022618031 0.02743348 0.013091611 0.03827343 0.0014915512 0.07344337 -0.06416239 -0.029103259 0.035787106 0.016205585 -0.054157995 0.06968802 -0.0037621954 -0.028260274 -0.042479184 -0.001340428 -0.046650317 0.0028526434 0.033487763 0.018715994 0.05594248 -0.02482561 -0.05054995 -0.067324415 -0.030320434 -0.073142596 0.012428491 0.0093454085 -0.0018003361 0.07404495 0.029933138 0.028823605 0.05517255 -0.04040727 -0.033338916 -0.019139536 -0.057727672 0.041471295 0.02893477 0.007183216 -0.043649938 0.014727851 -0.042132284 -0.010784299 -0.025597444 -0.02193724 -0.067073524 -0.052692488
mentioned -0.044127204 -0.017757414 -0.053389378 -0.015866758 -0.0076829386 -0.002097347 -0.07205103 0.055370122 0.011120024 -0.01916653 -0.06243724 -0.0045522535 0.029647274 -0.049785517 0.009800074 -0.024246616 -0.014226515 0.02802555 0.0013970198 -0.05388389 -0.0677412 0.054430757 0.02662003 0.06493798 0.06983629 -0.0355112 -0.03628749 -0.020054424 0.01953538 0.002263974 0.028945493 0.052952148 0.04320728 -0.054884057 0.017859854 -0.03883328 0.06352743 0.010197368 -0.010802405 -0.06567526 0.01853607 -0.021799942 0.005909764 -0.006780491 -0.0090418765 -0.006739159 -0.045099255 -0.009679183 0.0650774 -0.02147209
crab -0.03655677 0.06616124 -0.006973325 -0.037499417 0.049549423 0.0007355667 0.014267776 -0.0101469895 0.0097110085 -0.024284018 0.033800166 -0.03505368 -0.058559723 -0.040969074 0.07341931 -0.03996215 -0.039419964 0.058264814 0.018537352 0.05220792 0.016778274 0.030312197 -0.02992928 0.024568835 -0.0064864377 -0.021389697 -0.003320882 0.027807042 -0.04029879 0.06928406 0.05202578 0.013576222 0.001116111 -0.051069163 -0.038041577 -0.04396488 0.071077146 -0.021513287 0.02563106 0.012658329 -0.05009716 0.062322836 -0.042966064 0.03219316 0.0074171033 0.039708592 0.06960425 -0.0126648955 0.07280114 -0.0548215
overhead -0.059463244 -0.025090517 -0.012314003 0.036239542 0.023865107 0.01659433 0.03491571 -0.008755832 -0.006830436 0.049309373 -0.04766872 -0.011775073 -0.021398926 -0.010504237 0.029006504 0.063292116 -0.06903595 -0.022211328 -0.06013366 0.027854873 -0.06396383 -0.05820972 -0.04045126 -0.03786794 0.04188741 -0.067759484 -0.03171043 -0.052061714 0.009434093 0.062959544 -0.07244352 -0.07314941 -0.012452828 0.033829197 -0.020166475 -0.05561728 -0.047664374 0.03270183 -0.047548592 0.07607637 0.021142388 -0.062390044 0.039323356 -0.041645788 -0.017514272 0.051834464 0.049932785 -0.0036533917 0.026398972 -0.05075021
kind 0.05035816 -0.012844109 -0.0050423387 0.008187476 -0.05317116 0.06744858 -0.056103267 -0.05204982 -0.064563826 0.07118707 0.027775016 -0.0077752983 -0.004323458 0.046755824 0.011774924 0.05843506 -0.054839075 -0.05027981 0.060448803 -0.05669104 -0.03724749 0.043053973 0.045371212 0.053712945 -0.031046055 0.027462833 0.02748364 0.060824417 0.0058078957 -0.006943874 0.05358312 0.04353465 -0.009453855 -0.007681735 0.023295406 -0.03115288 -0.018199068 -0.035205442 0.030030552 0.026402993 0.044859663 -0.023616603 0.028663073 -0.00058120035 0.030031756 0.030823184 -0.0089434 -0.017112274 -0.0528885 0.0105091855
morning -0.00719467 -0.043417163 0.054646127 0.029220924 -0.024409916 -0.04091372 -0.0517703 -0.011636056 0.026461152 -0.04309772 -0.052991133 0.075971715 -0.06817845 -0.02472488 0.041778278 -0.023124164 0.002061231 0.06267268 -0.012382791 0.027810866 0.023144452 -0.028749304 0.008716553 0.052961983 0.044822626 -0.07763311 -0.060838997 0.007674806 0.05536535 0.037836 0.048639774 0.03747916 0.033055108 -0.029092936 -0.069384195 -0.0071846913 0.035120253 0.044994306 0.021401698 -0.022176605 0.053628508 -0.006149144 -0.053015158 -0.001282271 -0.053263973 0.026495328 -0.0061603407 0.0045517115 0.052842636 0.053682987
shape 0.045814082 -0.01538 0.057809457 -0.05966682 0.0559416 -0.016832897 -0.019776806 -0.06382277 0.003184739 -0.061142318 0.07575849 0.0016246339 0.053294312 0.062446255 7.752224e-05 -0.043148227 0.06793259 -0.07257149 0.04413729 -0.004081938 -0.05694236 0.030205492 -0.011698864 -0.040841274 0.05071311 -0.027195208 0.012214603 0.060540516 -0.026223037 0.060568873 0.060628437 0.07338689 0.06688265 -0.047383696 -0.027298879 0.022010485 0.05209348 -0.013280276 0.044850707 0.0031264708 0.031387664 -0.00802456 -0.01694464 -0.046244502 0.026754092 -0.04138268 -0.060425997 0.015692603 -0.06283714 -0.05656264
just 0.058925923 -0.067618914 -0.045637295 0.035239708 0.08830682 -0.042154606 -0.06321846 0.04174805 -0.03216859 0.051470347 -0.004781027 -0.006320157 0.006349868 -0.054025557 -0.060662832 0.03244856 -0.03581871 -0.06647012 0.017045949 -0.014184873 0.02682054 0.04439816 0.0042543095 -0.03995689 0.030823918 -0.079152785 0.0024358558 -0.017227935 -0.06675164 0.0006211287 0.0631419 -0.012277794 0.044087864 -0.017437737 0.053800255 0.06528355 -0.049549505 -0.027628932 -0.035838623 0.0028187877 0.020120446 0.047253083 0.037267696 -0.0046981312 0.020816576 -0.03118563 -0.039935507 0.027719734 0.060342446 0.06865488
age -0.03667511 0.008364174 -0.077798545 0.03907548 -0.027618231 -0.038459793 -0.0681871 -0.04376472 -0.021041103 0.0265803 -0.07380427 -0.047140907 0.03613779 -0.010592554 -0.012758853 -0.038866237 0.055485856 -0.053155422 0.0397947 0.0673729 0.007473545 0.05447221 -0.008568911 0.05181936 -0.030426797 0.048271358 -0.03025093 -0.021061411 -0.039800342 0.060805507 0.03653738 0.017093208 0.049014572 -0.056436658 0.0016493205 0.042756222 0.04270165 -0.020454923 0.05425528 -0.029308353 0.038058873 -0.02206723 0.020049712 -0.072756164 0.0077990536 0.05848336 0.045593493 0.04352812 -0.038376816 0.07107501
many 0.009181232 0.005720491 0.05937476 -0.03955944 0.0690421 -0.0070957337 0.006628766 -0.022426035 0.04761763 -0.013809541 -0.0040205326 0.07458032 -0.05418986 -0.025100054 -0.04861374 -0.040339623 0.05670692 0.021185448 -0.056954205 0.01346824 0.0014900505 -0.02877478 0.02746282 0.062017012 0.01816659 -0.04094614 -0.026566189 0.031353068 0.035944387 0.06037594 -0.008970388 -0.045102246 -0.03288901 0.04910271 -0.035669677 -0.04571882 0.055563644 0.019208161 0.03471773 0.005823476 -0.026559906 -0.050446816 0.015495852 0.036348563 -0.04737411 -0.016927315 0.014247324 -0.023633998 -0.05694407 -0.049975064
leaders -0.043499514 0.022785973 -0.026858753 0.02433256 -0.039949287 -0.015026621 -0.042026944 0.06121589 0.010612203 0.05323073 0.037348382 0.00023334962 -0.042850986 -0.0014951025 -0.03844287 -0.015244454 -0.043658134 -0.0011663677 -0.0036022507 0.034245525 -0.05730487 0.018070107 -0.0498144 -0.05294201 0.06674005 -0.023097808 0.034401402 0.0304648 -0.0041641137 0.042671397 -0.05172086 0.00403165 0.01536492 -0.030558582 0.0624864 0.06319005 -0.062255755 0.0067530717 0.06336668 0.031831652 -0.059751783 -0.05911581 -0.043621328 0.04137497 0.019754225 0.021017293 0.007595683 -0.04707411 0.054450627 -0.022946598
promised 0.06334282 0.00025520544 0.07539216 0.030484729 0.007907543 -0.052718334 0.038498875 0.005799501 0.05665043 -0.044390216 -0.0016753825 0.011674015 0.042325962 0.0386676 -0.021616029 0.054283906 -0.05411194 0.017431915 -0.057852484 0.021477856 0.005741199 -0.044670157 -0.04211718 -0.059104856 0.03565121 -0.047036983 0.029487211 -0.0076620243 -0.06316084 0.026480317 -0.008940415 -0.052372638 -0.00018907641 0.045090064 0.06924642 -0.040414724 -0.04067865 -0.034484908 0.0445517 0.021299534 0.014355715 -0.006062067 0.05653708 -0.047201276 0.034447744 0.023485376 0.028089002 -0.027579822 0.023256429 0.062490366
same -0.015490647 0.06315429 0.0021572204 0.026205823 0.021604145 -0.0012759668 0.0138153285 0.055468448 0.026952768 0.059920814 0.011153581 0.055100862 -0.0031280639 -0.018689258 0.07236093 -0.023435384 -0.0031254957 0.01672252 -0.016763913 0.049082447 0.0072640106 -0.058415465 -0.01949391 0.008496972 -0.008525779 -0.0240716 0.046032786 0.04436813 0.0010482088 0.059586897 -0.00566478 -0.067467146 0.033613577 -0.007852792 0.048881993 0.04315998 0.06903025 0.03972095 -0.045672633 0.03225424 0.007293033 0.042199634 0.0067145005 0.054115962 0.046419267 0.006903789 0.049583618 0.06884749 -0.06558131 -0.008442336
can -0.003990112 -0.07857831 0.029610192 -0.06258775 -0.042274304 0.04443784 0.046242878 -0.02067756 0.05657367 -0.025730006 0.0064708274 0.08546019 0.0025033425 -0.012730489 -0.050634652 -0.049278863 0.010172161 0.041565765 0.08684158 -0.06253644 -0.020273378 -0.0067571104 0.0029774718 -0.00128525 -0.020710208 0.06354937 0.06711577 -0.041811805 -0.03660865 -0.062213935 -0.03764622 -0.0645127 -0.0558226 0.09507467 -0.022600748 -0.023728129 0.01186012 0.0073962463 0.010872758 0.043794885 -0.08310866 -0.002200306 -0.108468495 0.09510079 -0.036813118 -0.068274185 -0.060941044 -0.014980953 -0.016332343 -0.05266441
climb -0.032652494 0.0704135 0.05982305 -0.004840454 0.043971397 -0.008461402 0.06002483 -0.060164135 0.000736887 0.041981276 0.058332328 -0.047647905 -0.0076476308 -0.0325863 0.039859448 -0.04109895 -0.060620546 -0.0018141243 0.03834347 0.039590675 -0.016418438 -0.0012897976 0.0068412866 0.0314398 0.045684356 -0.009675815 0.04378514 -0.063376956 0.07091209 0.023717439 -0.032643434 -0.016572243 -0.024636464 0.047176495 0.005313836 0.06734931 -0.050862227 0.043001883 0.01718105 0.01980757 -0.006204986 -0.0260892 0.046300337 -0.05041294 0.010670904 0.010857398 0.038987204 0.0008011848 0.05791839 -0.028000962
care 0.0053860703 -0.03296149 -0.039816596 0.06339073 0.033992954 0.032841347 -0.00917253 -0.06410089 0.01807762 -0.038511705 -0.040418446 0.0538688 -0.073956646 0.009637763 0.0028525554 -0.05022157 0.027281495 0.042642627 0.03235724 -0.009459826 -0.028785413 0.057363555 -0.042644504 -0.050050516 -0.07402131 0.043579444 -0.03702511 0.030822493 0.058496524 -0.029388754 -0.06960995 0.039205924 -0.030352568 0.003487562 0.020364897 -0.049847215 0.025994265 -0.0493434 0.059722006 -0.04460023 0.024098992 -0.031455822 -0.025698159 -0.04867072 0.028279437 -0.056211095 0.007684199 -0.0073473793 -0.07381138 0.0037248265
if 0.026338473 -0.041075952 0.03571672 -0.069801114 0.021417074 -0.0019518083 0.027892634 -0.012263749 0.009473968 0.032287903 0.02663352 0.019802352 -0.0064044814 0.05818288 -0.09646656 0.02073871 -0.0019124254 0.007310018 0.065723754 -0.06619349 0.009433472 -0.028627798 -0.06734774 0.01786979 -0.06213508 0.050529942 0.030476708 -0.063148975 -0.013682938 -0.05719515 -0.027048685 -0.001138593 -0.012549642 0.04540858 -0.022076646 -0.03310332 -0.06427979 -0.044327423 0.017512832 -0.009736679 -0.0036558576 -0.003940974 -0.015368258 -0.04333789 -0.03061437 -0.0014953132 -0.012723527 0.05883693 -0.0405436 0.005866315
dinah -0.058616366 -0.06698784 0.027409928 0.030085985 0.041032333 0.039553296 -0.027587837 -0.023092944 0.053325642 0.07956917 -0.0068969587 0.0566483 0.022471827 -0.008607184 0.0067812577 0.0700156 -0.042348146 0.06728059 0.032768324 0.0344883 0.04892122 0.038799413 0.0386131 -0.02998611 -0.013054599 -0.05266136 -0.0038712802 -0.09325413 0.010833392 -0.05435444 0.046433147 -0.043526158 -0.06369311 0.022976507 -0.031009594 0.012874879 0.010577422 0.10349573 0.08119125 0.084563494 0.0014365704 0.053889878 -0.010663349 -0.009634375 -0.06686417 -0.06925633 -0.024200194 0.051570635 0.018232757 -0.0858726
back -0.028665781 0.07076351 -0.057248056 -0.09061505 -0.01724735 -0.038357195 0.084724486 0.06485266 -0.035219327 0.080894776 -0.058463614 0.061297536 -0.007826984 0.052428808 -0.019314036 -0.08688486 0.07522496 -0.0384826 0.039831493 0.05855473 0.045354377 -0.015991235 -0.02412283 0.00894969 -0.025174225 0.045925643 0.040950444 -0.031672128 -0.06396956 -0.018164428 0.020065676 0.055161078 0.023138545 0.020401182 -0.054640878 -0.027231973 0.012162888 -0.047113497 0.01459946 0.020733729 -0.038783316 0.05508558 0.024809908 -0.017736955 -0.0068885745 0.05734574 -0.0045519276 0.052443966 -0.00894315 -0.046324465
fell -0.014967138 -0.019830108 -0.040865112 -0.057153873 -0.06357929 0.0024605547 0.016210686 -0.05221153 -0.055424 0.06308007 -0.058351148 0.0012967646 0.037762385 -0.0066139097 0.069156215 -0.037121393 0.0446852 -0.02482335 0.038005292 -0.021057557 0.029888643 -0.017558167 -0.00687712 0.024210848 0.028677052 -0.0075029894 0.014757948 -0.019768065 -0.06078458 -0.04817571 -0.01372127 0.05067502 -0.025084319 -0.0023431014 -0.017783638 0.0069352337 -0.019317156 0.04711956 0.013197159 -0.0757761 0.068360835 -0.026101712 -0.008626032 0.011408867 -0.014576852 0.06277379 -0.0023476833 0.04114546 -0.035048883 0.023259789
moderate -0.020504992 0.033216123 -0.03008235 -0.034169484 0.037072476 0.050167125 -0.04489266 0.03911883 -0.041722372 0.015352862 -0.0041392334 0.01698514 -0.007697342 -0.04930331 0.0064010825 0.014930099 0.020085638 -0.040253557 0.009781264 -0.00076003175 0.05698739 -0.04232198 -0.04558511 -0.009883289 -0.040976062 -0.069413275 -0.017773118 -0.02064997 0.044440497 -0.0314782 0.056640252 0.030368714 -0.03969666 -0.021323068 0.018601878 0.0046243556 0.054710828 0.049332377 -0.018730897 -0.054877296 -0.06143675 -0.006900369 0.024919985 0.024094518 -0.011174493 -0.038285743 0.054209314 0.009973543 0.036226343 0.033654213
among -0.041386615 -0.022922479 0.06077459 -0.013535684 -0.06577252 -0.038361557 0.04442504 0.03597025 0.07070586 0.02318543 -0.0500955 0.039402194 0.08436886 0.04168956 0.06559768 -0.032946236 0.010043311 -0.05854124 0.06596795 0.040200945 -0.058610182 0.007966991 0.07198145 0.012790888 -0.06222283 -0.027841995 -0.012937911 -0.0551841 0.016570017 -0.0042151255 -0.069589734 -0.050663304 0.017797686 -0.027342997 -0.041179672 -0.011667879 0.08045951 0.010954189 0.039165746 -0.015387939 -0.07386864 0.06863058 -0.0014316974 -0.011429638 -0.04100195 0.028562289 0.00927673 -0.035916913 -0.052188553 -0.046115834
sleepy 0.0062730615 -0.062879294 0.0032848378 0.02670323 0.062309112 0.0069694403 0.054358244 0.025264625 0.04818699 0.02341326 -0.010247888 0.0013080263 0.01744072 -0.043467097 -0.018524641 0.061100446 0.034931727 -0.05337022 0.039167073 0.022575418 -0.050945356 -0.0458336 0.07464111 -0.02423262 -0.027261596 -0.05237695 -0.074293114 0.029837599 -0.00806737 -0.048439186 0.024539968 0.003793628 -0.02216714 0.05661638 -0.031207392 -0.04916291 0.04196014 -0.0057359487 0.05417826 -0.029841872 -0.056914818 -0.0132645145 -0.009565613 0.050281946 -0.0617973 -0.056610994 0.012877799 0.019596394 -0.07005124 0.0356315
asked 0.045178972 -0.013074269 -0.039903674 0.010579472 0.060132228 0.049246322 0.024827234 -0.031664826 -0.041905157 0.052724887 0.045822497 0.06608964 -0.014362864 0.04415847 -0.04910561 -0.02028785 0.0034401969 0.03036172 0.045726582 0.058404922 -0.03088892 0.030698333 0.06088337 -0.03285918 0.014823775 -0.05858248 0.04328768 -0.044038873 0.07425259 -0.032038406 0.02564805 -0.061756328 -0.024836026 -0.013832161 -0.03983571 0.06834666 0.06150677 0.03360726 0.06646523 -0.03958609 -0.023365704 -0.025428757 -0.024819557 0.04278908 0.04417659 -0.061445035 -0.008224108 -0.009997769 0.017633643 0.047280367
fallen 0.042917743 0.02963351 -0.034997292 -0.0036783214 -0.05945166 0.023769129 0.017744314 -0.025542494 -0.0414215 -0.010205733 0.03935018 -0.009231097 -0.03604809 -0.037912197 -0.045553505 -0.044732273 -0.055635568 -0.056284565 0.00079882634 0.07384573 0.044993617 0.023816863 0.03305064 -0.01950181 -0.0055649234 -0.01827364 -0.049793586 -0.012492859 0.016830027 0.061899472 -0.054149896 -0.0010965414 0.044018824 -0.034092285 -0.014346218 -0.034531463 0.04505643 -0.057179853 -0.022440368 0.021477338 0.022737376 0.05495762 0.060289465 0.0463606 0.057577312 -0.026482876 0.040546898 0.026414575 -0.06252682 -0.0023635232
printed 0.06113111 -0.040529184 0.0039509963 -0.025455602 0.020963427 0.018394202 -0.06128733 -0.059265632 0.044524334 0.04695892 0.024763048 0.009188149 -0.027700515 -0.0017954778 0.04283711 0.050097723 -0.021038314 -0.019651115 -0.025143608 0.00977805 0.013418709 0.05302873 -0.02351691 0.022862785 0.051667858 -0.06127952 -0.045059096 -0.027424373 0.009878276 -0.040438924 -0.029628616 0.025019607 -0.010039954 0.060771793 -0.06795075 0.0391383 0.034455452 -0.045552235 -0.011924887 -0.053404875 -0.019505182 0.0432883 0.060438875 0.0036863363 0.048764445 0.017076137 -0.010407434 -0.040467016 -0.046747282 -0.023853928
ferrets 0.009338679 0.0145733515 -0.026341975 -0.04588459 -0.048455905 0.016572662 0.078200385 0.06167848 0.05617819 -0.05462231 0.011658638 -0.06725398 -0.02801738 -0.055629224 -0.076801695 0.069146976 -0.08168934 0.018272668 -0.05882574 0.023335993 0.016402034 -0.00077705254 0.0050064414 0.06817218 0.00066976214 0.02684417 -0.054764718 -0.04123534 0.024995789 0.054261938 -0.021272132 0.04766909 -0.079579294 -0.066327326 0.06682928 0.051960614 -0.05892971 -0.011057805 0.06286217 -0.04024742 -0.08103184 0.007900043 0.009528685 0.020899622 0.0685037 0.02328784 0.03837419 0.03213481 0.01646818 0.023752512
rather 0.027478993 0.01902158 -0.008210219 0.014568633 -0.03726524 0.03790818 -0.0590176 0.016909888 -0.010186275 -0.0077563315 0.0050306446 0.022585547 0.057417393 0.016927602 0.033002682 -0.030526808 -0.010227042 0.068553634 0.01710264 -0.00946852 0.0018023364 -0.054888103 -0.036378887 0.05759455 -0.028180247 0.045644924 -0.022058148 -0.053357676 -0.03250162 0.034282953 0.0381892 -0.034277253 0.0021497682 0.067111224 -0.042413175 0.063873485 -0.048040215 -0.034588404 -0.032581624 0.035399362 0.020215295 -0.01785971 0.044722114 0.013092085 -0.073454484 0.0048698597 0.029621612 -0.022372058 0.035005514 -0.0031698388
get -0.064844325 0.018268164 0.051423933 0.016643675 -0.0039031706 -0.020033402 0.04478868 -0.086007155 0.020888414 -0.024104228 0.02007006 0.03516765 0.033188716 -0.019656386 -0.024978228 -0.045980982 0.045784753 0.042526368 0.075013906 0.086273745 0.06625503 0.08681025 -0.081530325 -0.04222117 -0.036042262 0.056266055 0.022476323 -0.036379524 -0.05342115 0.031023702 0.063911624 0.0033966347 0.046064217 -0.026644275 -0.08987644 0.04174769 -0.024244143 0.04616654 -0.0019524257 0.0136978235 0.04697224 0.046087015 0.01542708 0.052300297 0.009218484 -0.059100512 -0.077760644 0.0035588474 -0.075443774 -0.011201588
farmer -0.054685947 0.028043022 0.0076204306 0.01983131 -0.055338595 -0.029238958 0.063502796 -0.033519432 -0.030171175 0.0061273826 0.018758785 0.008893851 -0.06133608 -0.010474314 0.014736772 -0.019651601 -0.037999365 0.065177485 0.060803518 0.05267355 -0.053443156 0.02845991 0.027511094 0.027804848 0.0072259195 -0.004948525 0.021787208 0.060654867 0.053398333 -0.059576895 -0.03205262 -0.012472367 0.038713634 0.006854712 -0.061561834 -0.055425517 0.039520264 -0.060524475 0.0012013578 -0.037847232 -0.058367006 0.014728775 0.029211486 -0.029094627 0.054499395 0.016436893 0.023812873 0.03826541 0.042317472 0.041769814
gloves 0.08158246 -0.040935453 -0.009707721 0.016559513 -0.011622997 0.014660927 -0.007315268 0.07848778 0.05485099 0.059976567 0.06474165 0.052946404 0.033472586 0.03463912 0.06393129 0.014884765 0.042098407 -0.006616544 -0.011466514 -0.010509418 -0.07149505 -0.023539685 0.035041787 0.060470726 0.05482479 0.06419176 0.013123991 -0.048338007 -0.024300102 0.00033533073 0.05094144 0.044897065 -0.058495335 -0.05410763 -0.053767137 -0.06996812 -0.055907287 -0.06749889 -0.01608652 0.050639603 -0.024192354 -0.052366197 0.014151774 0.015074808 0.044562843 0.028710581 0.06354802 -0.053029295 0.028659876 0.045374535
pounds 0.02227161 -0.015481563 -0.04308552 -0.013619454 -0.054103922 0.04188935 -0.046943 0.003203604 0.040463276 0.021954361 0.036928333 -0.036259107 0.046625327 0.026385058 0.022865204 -0.048417464 0.052116092 0.06396352 0.016940627 -0.07295496 0.02159939 0.047281936 0.044923488 0.008512348 -0.015377708 0.015244395 0.037060756 0.057234067 -0.038114604 -0.03236046 0.052202787 -0.06584728 0.0541812 -0.0418863 -0.021574676 0.07377762 0.05928634 0.049448304 0.012803031 -0.01137138 0.03673334 0.038799323 -0.042777717 0.013155495 -0.0451761 -0.062399454 -0.058112174 0.045871478 -0.04346023 -0.06504908
taste 0.04480173 -0.07598419 0.03569678 0.034176853 -0.05167354 0.036791798 -0.0039033412 -0.061807606 -0.03011685 0.034471314 -0.05772654 0.019186798 0.052356135 0.051235504 0.022580037 -0.03429043 0.04280998 0.05076363 -0.06307449 0.054522663 0.013818541 -0.06580473 0.02607063 0.03492822 0.033507735 -0.019423809 0.012226823 0.007830856 -0.011140732 0.03619481 0.0055968235 0.027391568 -0.028559038 -0.007987295 0.045803163 -0.04264083 -0.066243336 -0.04390141 -0.039183013 0.056438338 0.04596543 -0.017145846 -0.013636096 -0.056924 0.048645474 0.0061229193 0.032591067 0.029291488 -0.074128084 0.003055192
table -0.014190123 0.015358837 0.05810762 -0.029704921 0.050985888 0.03265894 0.08254805 0.04232985 -0.02412076 -0.06825045 0.012454039 -0.014853805 -0.042387564 -0.058111444 0.023312509 0.027528044 -0.040036615 0.03298229 -0.011556772 0.0052173547 -0.05685668 -0.031181695 0.014396669 -0.04347963 0.0011332923 0.056834955 0.032201532 -0.023260403 -0.011274636 -0.007063645 -0.012886942 0.07811776 -0.04507975 0.03888475 0.061702844 0.011155926 -0.016869953 -0.061119206 -0.0019082415 0.015283331 -0.0437639 0.024223441 0.020564107 -0.02112893 0.013549064 0.020121075 0.059463687 -0.00058927643 0.05015505 0.09036971
schoolroom 0.007890161 -0.00060990115 0.027083661 0.049336504 0.021062788 0.0426011 0.050437875 0.042060856 0.06243359 0.016704932 -0.0069594737 0.02695476 0.0056854086 -0.06696671 -0.050120812 0.004325068 0.029733947 -0.009764325 -0.03889773 0.030991206 -0.030936532 0.03528206 -0.02635242 -0.022836272 0.047692653 0.045088705 -0.021565484 -0.047854666 0.06761768 -0.06291881 0.057690788 0.0066396524 0.0034133205 -0.016271522 0.03550132 -0.011547839 0.07119004 -0.018505938 0.041037977 -0.05731739 -0.06481436 0.025377903 -0.06010632 0.057163447 -0.044583388 0.059970655 -0.04494327 0.012015136 0.027026096 0.058845144
its -0.038620267 0.063079745 -0.03233884 -0.014658991 0.05995651 -0.04624074 -0.03305112 -0.08072853 0.078207135 -0.052653305 -0.019039063 0.047644574 0.055096976 0.042786483 0.024453806 0.0442614 0.06387651 -0.0007037531 -0.04694881 0.056324244 0.06769998 0.06551108 0.036711287 0.031023826 0.06623709 -0.035215247 -0.0067580524 0.061705895 0.070650086 0.03911345 -0.05152495 -0.05050854 -0.036143936 0.06199805 0.019458774 0.057144713 0.041131042 0.023244245 0.010515809 -0.015786937 -0.049603727 0.05239743 0.008689834 0.04633166 0.03895102 -0.0701393 -0.037630238 0.00878431 -0.053222217 -0.024117893
altogether 0.054220844 -0.040002905 0.070125766 0.074867405 0.019009912 0.069412224 0.0063597364 0.051465914 -0.043116152 0.029127296 0.016363358 0.014733128 0.027048657 -0.06887633 -0.056147348 -0.07424364 -0.028632369 0.05585586 0.057414763 -0.052991167 -0.06402794 -0.06931892 0.02594122 -0.052970055 -0.034330927 -0.07101726 -0.07065518 0.04482753 -0.0771996 -0.065820545 -0.0017053902 -0.048131533 0.038126715 0.054491304 0.020927913 0.007390852 0.066253774 0.06902511 0.00026743638 0.019735504 0.070172526 0.06016823 -0.0044566845 0.009711106 -0.05421864 -0.009633659 -0.0075690104 -0.023368623 -0.053323835 0.028775342
existence 0.016208818 -0.054512624 -0.025121981 -0.017489249 -0.0068109175 -0.06658706 0.025093907 0.014496392 0.05192435 0.048131935 0.03921748 0.03519634 -0.0035384754 -0.026978405 -0.03372677 0.044314787 -0.027425481 -0.008358605 -0.058759414 -0.043028787 -0.059196845 0.032081276 -0.05261935 -0.04731047 -0.002582442 -0.041037016 0.059205517 0.021797553 -0.022659505 -0.027145663 -0.008999599 0.05756896 -0.046660863 -0.048549592 -0.04113713 0.044925533 -0.04463484 0.0063006934 0.0015455901 -0.02959148 -0.05102359 0.0055989 0.037373245 0.023697171 0.020187916 -0.012089695 0.059855834 -0.06796315 0.05556615 -0.040551532
take 0.02907911 -0.010810912 -0.04556288 -0.028476737 0.0075601554 0.029252298 -0.005264623 -0.027238151 -0.025689913 0.04169041 -0.03553131 0.011428636 0.0089169135 0.014084657 0.060905486 0.042737458 0.07002838 0.0213024 0.041185368 -0.05678085 0.05036762 -0.05327542 -0.00465039 -0.04245195 -0.02435268 -0.025001995 0.047486752 0.0023348082 0.017109126 0.032530047 -0.057976533 0.0493362 -0.06055864 0.01487785 0.073133714 -0.044549603 -0.019024124 0.031701565 0.03341556 0.013295847 -0.02976274 0.033866797 0.014700518 -0.024668347 -0.023238488 0.067677565 0.0582665 -0.028931487 -0.014124195 -0.023170637
hearthrug 0.010810956 0.014439829 8.909404e-05 -0.043850325 0.04959801 -0.023912724 -0.048038483 -0.005076185 -0.035152014 -0.038004052 -0.038538974 -0.04581893 -0.041055985 0.03922712 -0.023720179 0.047736533 0.024366252 0.016316555 0.03319419 -0.041231297 0.0039422065 -0.01681688 0.036622733 -0.020921797 0.04366532 -0.06787375 -0.0028106049 -0.039960176 0.04992655 -0.05573496 0.06508586 -0.06650396 0.03463853 0.056573436 -0.0640077 -0.01128142 -0.014756907 0.009314202 -0.011981159 -0.069672845 0.06409918 -0.02901683 0.013907701 0.034120522 -0.058919214 0.024639823 -0.06409404 -0.0143366605 0.0021028146 -0.06302507
