1182 150
comfits 0.04653962 -0.013449535 -0.07066102 0.097582184 -0.014148479 -0.021642871 -0.015415571 -0.026169691 0.032566454 0.057055354 -0.024903923 0.0059270025 -0.0002909291 -0.043287095 0.077710636 -0.05757148 0.0002362656 -0.010398032 0.06395555 -0.03407543 0.0029058561 -0.009832399 0.028795388 -0.05010884 0.07544163 0.09805838 -0.0016382392 0.0037849436 0.0056312447 0.0043838075 0.018438756 -0.0318352 0.011182446 -0.047374435 0.029951936 -0.06218783 0.036181815 0.035861246 0.060970515 -0.09875675 -0.055493124 0.001654779 -0.009401044 0.06374798 -0.06477889 -0.053680584 0.0070988005 0.02157211 -0.0091646 0.021087889 -0.001998443 -0.059747316 0.04770031 -0.009844464 -0.029362049 -0.031275593 0.009833429 -0.023879752 -0.090195686 -0.004518984 -0.015178069 0.032814506 0.109248295 0.0034707817 -0.07629372 0.08601222 0.0905261 -0.008357698 0.023926184 -0.003925019 0.004948158 -0.019910276 0.035360456 -0.07832834 -0.027667474 0.021470582 -0.010656196 0.01163282 -0.006961792 0.03227136 -0.007317108 0.08897321 -0.052230973 0.08242027 0.014722709 -0.01977493 0.08079931 -0.10119262 0.023089783 -0.046920855 -0.049462616 0.02769138 -0.026859704 -0.01708245 0.05510555 -0.0340393 -0.0024513616 -0.015610292 -0.016841972 -0.057474837 -0.024487851 0.03784981 -0.02216977 -0.036616955 0.037676223 -0.051833447 0.08029974 -0.032808978 0.03219597 -0.035589576 -0.043035757 -0.023798203 0.020681538 -0.034083214 0.0686804 0.002673125 0.037133485 -0.017347815 -0.0048436765 0.012323801 0.041602366 0.032716975 0.057383418 -0.011207222 -0.008646266 -0.053670116 0.03315471 -0.007952946 0.05375515 0.033742316 -0.054362815 -0.10636245 -0.043481104 0.006356218 -0.069161385 -0.03532853 -0.01622665 0.047853477 -0.024425186 -0.03970256 0.056369558 -0.034149628 0.04181411 -0.00059482385 0.009407062 0.0078124036 0.095678315 0.020195525 -0.05219264 0.049848642
moment -0.02860626 0.041860305 0.052899837 -0.051288337 -0.066557884 0.011879506 -0.06887812 -0.013071285 -0.02581993 0.051314518 -0.046311434 0.09067967 -0.04563422 0.031827156 -0.015300374 0.046805512 -0.039458655 0.04173101 -0.03568986 0.025269656 0.032012675 -0.009251606 -0.02578238 0.048313025 0.040044967 -0.051312175 -0.03327269 -0.025795393 0.06356266 -0.06625358 0.025270144 0.001980689 -0.034820203 -0.0045866226 0.02633559 0.036475223 -0.0462197 -0.016204877 0.11691575 0.010870286 0.048117716 0.0037191599 0.00035449836 0.03021264 -0.0010269089 -0.08125726 -0.018144384 -0.019210828 0.0057680523 0.059308566 0.042919915 -0.00103614 -0.07785951 0.05225602 0.009385907 0.059886966 -0.021247026 0.103043534 -0.029551946 -0.037318047 0.037663896 0.015696973 0.0050518876 0.0022926934 -0.007907844 0.041994542 -0.012045593 0.017144963 -0.0072788107 -0.0016339883 -0.048553094 0.0071546948 -0.024008093 0.007950556 0.044192567 -0.023688689 -0.059082843 -0.012360962 -0.094887175 0.031277206 0.009155518 -0.0680084 0.027439876 0.08496311 0.0072412444 -0.055290047 -0.035961583 0.037857845 0.0126773855 0.017462565 -0.02700646 0.037635766 -0.034785595 0.081116974 -0.035808314 0.06593398 0.031822525 -0.040148035 0.039863896 -0.02484691 -0.002721958 0.021788532 0.010272348 -0.005368535 -0.031503793 -0.006372766 -0.029547377 -0.0023858824 -0.008904756 -0.046040487 0.060023665 -0.022823313 -0.02963165 -0.022407943 0.09353036 0.06185796 -0.0401696 0.07984136 -0.010477551 -0.036847297 -0.03106249 -0.07884291 -0.079338364 0.012090667 -0.045175917 0.08463468 -0.0031299412 -0.021859637 0.029504834 -0.069724426 0.07024079 -0.06067282 0.06406115 -0.008570867 0.0018463542 0.053690344 -0.010099667 -0.0016852083 -0.056129575 0.009007004 0.03284189 0.05294893 -0.025939146 -0.020927386 -0.0075000715 -0.02562258 -0.0033210274 -0.03308445 0.012137616 -0.01785846
pointing -0.0077567976 -0.03102979 0.012124116 0.007908299 0.04753965 0.019225836 0.0021702263 0.052329205 0.045440447 0.019887757 0.019151142 0.0076106805 0.05961212 -0.017878272 0.033256855 0.02160374 -0.012633881 -0.057095528 0.033014517 0.025500122 0.016561562 -0.004684888 -0.0031216978 0.0136017725 -0.054567754 0.010586673 -0.041799046 -0.0059400806 -0.008323956 0.020573227 -0.03411115 -0.017368346 0.015725933 0.04362565 -0.055036455 0.061216142 -0.01693453 -0.03962133 0.033391368 -0.019095792 0.0031534447 -0.018289275 0.03114007 0.02447121 -0.020315865 0.035698738 0.020620568 0.015143452 0.005632044 0.026764119 -0.0045224223 0.017841315 -0.044755805 -0.062734544 0.018557496 -0.021295512 0.032419194 -0.050341707 0.00044104294 -0.02685274 -0.015468817 -0.015026795 0.0067797787 -0.013789739 -0.048640992 0.0010457893 0.025849959 0.024606358 -0.050357416 -0.019677963 -0.016227653 -0.02933261 -0.0070136115 0.013517775 0.020855587 -0.0070865285 0.06520338 0.0060285404 -0.027943786 0.0043626176 -0.02633508 0.04469684 -0.04200822 0.0448192 0.016081007 -0.06864791 -0.041461095 0.015542835 0.041509975 -0.054148417 0.050641418 0.045055684 0.036548957 -0.005448829 -0.018015612 0.007358474 0.0526815 0.054622356 0.023336364 0.00620506 0.015716856 -0.045192603 -0.07009222 0.04208971 0.011171929 0.013182467 0.018997494 0.030162409 -0.028361073 0.01462209 0.06229172 -0.017006818 0.048269354 -0.080119856 0.056201782 -0.055617947 -0.019705884 -0.051142264 0.04431249 -0.03760105 0.026531879 -0.018671574 -0.07079207 0.027927142 -0.03205121 -0.02243407 0.0021502713 -0.046095993 0.011743247 0.029048378 -0.055917066 0.0015873393 0.015305977 -0.009225618 -0.039838277 0.038455345 -0.041305352 -0.025247646 -0.0018945653 0.0014181794 -0.046453904 0.0027441217 0.04817031 -0.03476421 0.03283816 0.025019575 0.010000985 0.017896188 -0.029291393 -0.061128836
seems -0.033528622 0.036757465 0.0063405177 0.046434086 0.024114925 -0.02143899 0.029230557 -0.055618823 0.014265924 0.020663654 0.005538899 -0.021827837 -0.029022843 -0.006537987 -0.050607935 0.037696168 0.022459041 0.05414273 0.05382248 0.046235655 -0.015017188 0.03459122 -0.060548984 0.02979007 -0.03250811 -0.041681107 0.012248217 -0.006968919 0.010458864 -0.035239283 0.047976743 0.04357031 -0.0035617822 0.009071216 0.034460865 0.02527234 -0.011027906 -0.0020421639 -0.022080867 -0.086879924 0.0021125865 0.021995937 -0.02356419 -0.025274456 0.0025570414 0.03459407 -0.02404351 -0.022635806 0.005699902 0.018210605 -0.020115742 0.032413416 0.015784493 0.037957557 -0.052345764 0.0607369 0.00043125713 0.05792299 0.058211423 0.0029482092 -0.052414108 0.0103412485 -0.014653587 0.05128765 0.028141303 -0.050134785 0.031955812 -0.043727342 -0.043927968 -0.0019307302 -0.058692247 -0.0066926163 0.0020899104 0.013350381 -0.041773207 -0.025362415 -0.05461548 -0.038682513 -0.027534468 -0.008351906 0.034242705 0.03854568 0.0062243487 -0.007664824 0.04343722 -0.00029676373 -0.006761631 -0.0023603113 -0.030459957 -0.035146903 -0.019419756 0.0072165877 -0.007823744 0.052820385 0.026944077 -0.0062174764 -0.009341535 -0.014534528 -0.019682862 -0.06664666 0.022701366 -0.007894537 0.056885347 -0.0038850096 -0.00039167787 -0.04212565 0.028448252 -0.07804634 -0.034099016 0.05530815 0.004483005 -0.03196954 -0.03859157 -0.040280383 -0.02634399 0.0030741126 0.018653734 0.07216531 -0.033532575 -0.02086655 0.0010378747 -0.017340424 0.0060933153 -0.018708384 -0.019434776 0.053428784 0.015146369 0.022768795 0.009643079 0.0074501564 0.0845153 0.03930644 -0.006027873 0.0172646 -0.050412245 0.027511584 0.026355708 0.0018569342 -0.027851306 -0.026894616 -0.025560223 -0.03099477 0.02777385 0.044268515 -0.06915429 -0.011100527 -0.05833912 -0.03773394 0.0458941 -0.059165876
and 0.18230747 0.17950338 -0.329349 -0.02592009 0.1395634 -0.032602 -0.08302962 -0.09494851 -0.20143737 0.24104679 0.29405767 0.13166858 -0.19305502 0.15085816 0.26823378 0.0729918 -0.0030567457 -0.3401905 0.30331907 -0.23510656 0.10986258 0.062862076 -0.2557637 -0.08676984 0.21639769 0.14353277 -0.040375695 -0.17478897 -0.008517873 -0.08689287 0.1177862 0.14405747 0.093682215 -0.20823331 0.059148237 -0.24900974 0.06059864 0.12421168 -0.002327754 -0.042467542 0.09246605 0.08144131 -0.08168009 0.13122424 0.060786065 -0.1674172 -0.11581332 -0.068577126 0.03957216 -0.16828793 -0.055183947 0.40538573 0.16689795 -0.0172921 0.058080196 0.4516499 -0.0022748702 0.1355186 -0.012277067 0.19326766 -0.07807189 0.10298675 0.008656135 0.16496241 0.035738595 0.101948425 0.13293956 -0.12760966 0.07658773 0.1094435 0.07263493 0.53634554 -0.20655599 -0.17119995 0.24084143 0.053261537 -0.0762583 -0.14701763 -0.101518355 -0.10887035 0.44891775 0.018991176 0.15607108 -0.07348253 0.11479539 -0.0024682053 0.24510589 0.033930637 0.04968315 -0.03919363 0.14073595 0.2358933 -0.16523172 -0.11556397 0.3143929 -0.23634286 -0.12671764 0.027837578 -0.11568978 -0.07571948 0.07755081 0.22623232 0.20481995 0.0015837105 -0.06955333 -0.16001041 0.022041071 -0.151935 0.104199916 0.2896811 -0.115766816 0.10957603 -0.20871276 0.0891854 0.018363684 0.17647937 -0.062226385 0.022267506 -0.27584893 0.20894007 -0.07930269 0.2471549 -0.025373055 -0.07774227 0.08888031 -0.17379938 0.26327118 0.055043247 0.11776742 0.04780485 0.0978927 0.10486591 -0.1135898 0.18460865 0.0029780786 -0.111260384 0.039521284 0.33570904 -0.06816774 0.05329991 0.12480752 -0.26788545 0.14858665 0.20886764 -0.014498574 -0.38140267 -0.086775504 -0.022213046 -0.25210997 -0.32616687
distance 0.01163818 0.018370988 0.048876565 -0.031874347 -0.031503923 0.043392044 0.05577769 0.047439925 -0.012731506 -0.07357865 -0.026998125 -0.033505213 0.006642152 -0.058066476 -0.031490445 -0.015301181 0.058750756 0.032197952 -0.046498563 0.039840225 0.021030167 -0.016658904 0.0026810546 0.05043647 0.0218667 0.0017119229 0.015108183 0.052196845 0.04414351 -0.013573991 -0.0035386994 -0.03329055 -0.053643227 0.023378577 -0.09934787 -0.019884273 -0.005514491 -0.008376252 -0.011530561 -0.011976658 -0.017205486 -0.087982535 0.022425465 -0.042361304 -0.008259907 0.003556121 -0.027702972 -0.054913353 -0.008041509 -0.08403487 0.039560407 -0.0029612696 -0.0060906424 -0.04478014 0.0113982 -0.05418678 -0.0069851847 -0.07429501 -0.016680984 -0.041227616 0.067576356 0.065189175 0.016965022 0.00356501 0.027454473 0.048380576 -0.02107981 0.0010803738 0.020972626 0.016452584 0.018022887 -0.0409916 -0.026865128 0.043047953 0.03506864 -0.024373071 0.022432825 0.040000193 0.06867651 0.084894486 -0.05363378 0.03385734 -0.06317977 0.028536838 0.0136616975 -0.053842396 0.0389707 -0.011964346 0.07935094 -0.01077451 -0.02048869 -0.03234231 0.013953654 0.015469812 0.040924758 0.06241073 0.025232337 -0.006104047 -0.05721844 0.00090680853 -0.07097107 0.022876553 -0.029381258 0.026604362 0.00995878 0.01197801 -0.04889899 0.023358595 -0.018806886 0.005311496 0.06723679 0.02748929 0.04128919 -0.07523221 0.02634544 0.008544157 -0.016085304 -0.034543466 0.06541664 -0.05476551 -0.10539458 -0.06726712 -0.031198515 -0.009870868 0.031387944 -0.026656242 -0.008415864 -0.07378693 -0.0016903279 0.025567075 -0.06831454 0.065972134 -0.04941609 0.021493986 -0.03056357 0.043236863 -0.07090794 0.025544582 -0.044041198 -0.023265302 0.043717977 -0.020663964 -0.016998831 -0.031197766 0.07025508 0.011228843 -0.04071555 0.07842281 0.070217155 0.029157722
day 0.1200061 0.052498974 -0.06783344 0.0034355137 0.004808674 -0.105504066 -0.018923916 0.0012286347 -0.06512256 0.094690226 0.037198484 0.033551995 -0.024659567 0.05942393 -0.0071547246 0.04893312 -0.04636443 0.07839283 0.079716764 -0.025111929 0.082997665 0.07701918 -0.00038831154 -0.0701135 0.09144355 -0.00024670287 0.058701634 -0.017384931 0.009587334 -0.021287723 0.04177121 0.04724908 -0.0018416737 -0.0066113602 0.044972036 -0.007697989 -0.032829575 0.0063513136 0.0037631253 -0.04155867 0.0800664 0.039005965 -0.03196035 0.005194052 -0.033327837 -0.05627156 0.0034365403 0.056366738 -0.02596417 0.11292521 -0.060286134 0.04825108 0.0239068 0.008645165 -0.07980857 0.010308088 -0.015318985 0.097823426 -0.06447824 0.036160275 -0.010658776 0.024635755 -0.0042628697 0.07820295 0.040408462 0.04290443 0.031087989 -0.016882962 0.006567362 -0.0044800704 -0.006550063 0.056021392 -0.009896917 -0.01655572 -0.062286727 0.084157616 -0.04783905 -0.013027716 -0.10538956 -0.07510879 0.008639233 0.021472018 0.05601645 0.019035093 -0.0017957459 -0.0001288394 0.022408433 -0.07159172 -0.07748373 0.0821039 -0.03586912 -0.09377801 0.06434848 0.015018408 -0.0132791 0.027963473 -0.08109005 -0.026608234 0.013975785 -0.09214722 0.077640906 0.058113173 -0.010629145 -0.04479114 -0.06159472 0.001415618 0.049733143 -0.076082386 0.022310358 -0.041041195 -0.0041299625 0.016707221 -0.10549613 0.091490984 0.021427454 0.012349932 0.036076535 0.06680399 -0.11861958 0.06074232 0.023730427 0.020434476 0.05213216 -0.014386178 0.117619075 -0.00067617354 0.09723762 0.0543803 0.015962247 0.0121638635 0.07607853 -0.047109954 -0.054445647 -0.04561643 -0.09518805 -0.023869308 0.109846964 0.027086493 0.025052452 0.052187786 0.040363606 0.028615722 -0.005793556 0.060289145 -0.060427655 0.037365872 -0.016043715 -0.05528018 0.024629854 0.022139745
after -0.023383785 0.026530446 -0.07590942 0.03418609 -0.024565991 -0.15820257 0.009080177 0.0066552437 -0.07914693 -0.08034002 -0.037407476 0.07276688 -0.02044292 0.06549673 -0.02006498 0.08870579 -0.00044604298 0.013022929 0.054402467 -0.021859786 0.016773691 0.036588687 -0.00562209 0.022816623 -0.021706097 -0.0049705007 0.06701151 -0.027605556 0.14125103 -0.03944968 0.010960678 -0.02345341 0.043397836 -0.0351344 0.008660765 -0.010739473 0.019315977 0.05050342 0.10250982 0.009507707 -0.0404667 -0.03441129 -0.08945213 0.022914734 -0.05401662 -0.04964725 -0.06713844 -0.01504139 -0.074197985 0.0308338 -0.01930089 -0.037786264 -0.040155254 0.062144883 -0.018714234 0.04677935 -0.03291323 0.026386198 -0.04970793 -0.017473863 -0.0062120324 -0.00071505504 0.01969646 0.03229165 0.12370786 0.026993977 0.063166454 -0.00830107 -0.054229047 0.016770732 -0.08035299 -0.0045755086 -0.008150392 -0.055451736 0.02237507 -0.010574173 -0.03597599 0.0014045368 0.036375858 -0.013973652 0.021787362 -0.016160171 0.0393686 0.011790689 -0.015725924 0.02383477 0.0928588 0.0023383265 -0.0028318663 0.0070104953 0.05992261 0.04313672 -0.03783548 0.10074397 -0.093270645 0.045085438 -0.044789314 -0.026960958 0.07396726 0.008132011 0.051171567 0.07332648 -0.008566936 -0.034207 0.015703104 -0.05333392 0.11064511 -0.07185324 0.07668572 -0.10366541 -0.025232777 0.0003841751 0.032830216 0.0039490145 0.023860732 -0.008430766 0.021231495 0.042463496 -0.034761894 -0.0018421452 0.039288502 0.048092052 0.08721654 0.064756766 -0.015856951 0.010258839 0.083587304 -0.0151700815 -0.030318353 -0.04786748 0.05559389 -0.014158612 -0.014294849 0.07142247 -0.018046873 -0.015621107 -0.076695375 0.08374594 -0.0088638365 0.00033879105 -0.006577625 -0.034891695 -0.10955362 -0.00012752612 -0.0728843 -0.00486371 0.02067033 -0.013736652 -0.060989734 0.00022345292
own 0.008305108 0.027976584 -0.070812024 0.0019223157 0.025077628 -0.07002846 -0.065834954 -0.044414368 -0.052649427 0.05631851 0.06438025 -0.019091101 0.013939344 0.015053433 0.02158902 0.026148677 -0.024963006 -0.0106568225 0.026641838 -0.044844348 0.10760715 0.13270935 -0.061395597 0.018557174 0.031046 -0.0035285386 0.02178711 -0.047611695 0.065799326 -0.037317377 -0.026036127 0.04711929 0.04138352 -0.04557304 0.11276221 0.0029805335 0.06796304 0.067325614 0.04315506 -0.0073825787 0.112917796 0.061707705 -0.0069213235 0.026914017 -0.051978726 -0.0006081904 0.028716084 -0.023077203 0.06940915 0.091959246 -0.024385925 0.018482305 0.105098814 0.050540213 -0.036748137 -0.008923412 -0.009150622 0.021591747 -0.04266571 -0.079154514 -0.045200806 0.011239937 -0.011175424 0.078327365 -0.04630976 -0.03572361 -0.0028050835 -0.10536493 0.003240238 0.10466895 -0.03219498 0.06747741 0.080069564 -0.06242351 -0.09501493 0.045317445 -0.021617442 -0.046539232 -0.020426016 -0.07899067 0.05405382 0.039472125 0.04550935 0.0060429564 0.008363318 0.042805985 0.035713855 -0.014326975 -0.10671281 0.021555202 -0.06761018 -0.05596593 0.0066124545 0.025328359 0.0711301 0.026306028 0.0016622359 -0.053315952 0.03988444 -0.06819284 -0.033787288 0.041369095 0.09363461 -0.09575588 -0.00090637733 0.010612644 2.4648616e-05 -0.04952309 0.03656471 0.02260142 -0.06658656 -0.050079733 -0.09196055 -0.023670137 -0.0007609733 0.027225016 0.10211783 0.022983465 -0.062932506 0.07123042 0.058242407 0.06686325 0.039447002 0.11437207 0.011425106 0.03577663 -0.02424851 0.052673228 0.0039134007 -0.052027695 0.04888329 -0.07104986 -0.00088355516 -0.08895924 -0.0719802 -0.026159663 0.040290568 0.07648749 0.13554847 0.035907026 0.100468375 -0.018397592 -0.04575662 0.001019339 -0.008936143 -0.05731008 0.029950118 -0.08622802 0.053812195 -0.006395177
life -0.021525575 -0.02455701 -0.012752439 -0.0036181947 0.034234114 0.055002894 -0.044306207 0.050099 0.04073467 0.036322962 -0.0060011996 -0.023368038 -8.542737e-05 0.0006847197 -0.042891525 -0.026979614 0.018369384 -0.021277605 0.042625323 0.067833304 -0.027186183 0.033558782 0.044839244 0.018148368 -0.0011738164 -0.06367257 0.015362006 -0.007324665 0.004875988 0.0023924029 -0.04131165 -0.020941868 -0.06045062 0.015185741 -0.046556883 0.017595928 -0.05874658 -0.06492925 -0.023062106 0.006965479 0.015621467 -0.045296904 0.064719826 0.027051136 0.020101493 0.048075523 0.014296178 0.020834245 -0.017959323 -0.006040315 0.03260703 0.05732317 -0.00809524 0.008691961 0.0017896154 0.0067273783 0.0040220274 0.03230854 0.003455589 -0.017070968 0.025075536 -0.021821005 -0.033838257 0.029030494 -0.014363762 0.00676571 -0.044345457 -0.010348018 -0.063484445 0.006784263 0.025441151 -0.013968968 -0.022367327 0.0111456625 -0.05333166 0.011710483 0.03933752 0.014820372 -0.056470986 0.017463239 -0.015616606 0.0046085636 -0.014044076 0.033238955 0.0035676348 -0.012145111 0.021581182 0.06155714 -0.0021859123 0.0031582622 -0.017501054 -0.0014606246 -0.012107749 -0.016287433 0.026602771 0.009745796 -0.0042937277 0.066696435 0.07013595 -0.03306555 -0.0033900226 -0.026026033 -0.01263229 -0.031736873 0.042859137 0.025980653 -0.08211785 -0.023472413 -0.03589032 -0.04766131 0.0049075396 0.0064133555 -0.02910757 -0.03253092 -0.00073128485 0.0018600016 0.030991742 -0.0014368449 -0.056442436 -0.020603819 0.03823578 -0.03047605 -0.012229491 0.0516339 0.012125441 -0.035212148 -0.063047536 -0.023913827 0.041287836 -0.025394613 0.0016241089 0.02143706 0.059953306 0.0088136755 0.002960857 -0.022848565 -0.012462096 -0.02405432 0.008957489 0.036775146 0.0012018222 0.028169006 0.051876817 0.026246876 -0.02105912 0.038193304 -0.009874997 -0.017631678 0.0017637125 -0.034576647
doth 0.043463692 -0.03266555 -0.033479013 0.023256892 -0.021425731 -0.045398973 -0.02167929 -0.007092067 0.03805183 0.007094686 0.009618569 0.070081495 0.044468127 -0.02009551 0.016782228 -0.013258611 -0.031704947 0.054521848 -0.037956774 -0.06453875 -0.023758074 0.033711683 -0.015909746 -0.060360555 0.051981486 0.026759766 -0.016679142 0.0142447315 0.05842034 0.031904746 0.051756553 0.008622753 0.015278132 -0.021228133 0.030401872 -0.034626223 -0.04967895 0.020683642 -0.011491917 -0.0023310033 0.027898084 -0.019694766 -0.019972438 -0.023176366 -0.088478185 -0.04964827 -0.08546387 -0.014874597 -0.028552432 -0.06327038 0.028666077 -0.02913776 0.0046766875 -0.02635753 -0.023130175 -0.02864019 -0.033922866 0.02040588 0.0044013173 -0.022817912 0.02970326 0.08566038 0.016216032 -0.03304287 -0.05615074 -0.0023901253 0.054738097 -0.0034113568 -0.04912262 -0.031461153 -0.0021342114 -0.049187083 0.037536543 -0.001750585 -9.648467e-05 -0.052067935 -0.055803515 0.0016997429 -0.022366187 -0.004095666 -0.027210891 0.0065243305 0.02279979 0.0675609 -0.021035634 0.0028075436 0.05808957 -0.07377617 0.030138317 0.0020225262 -0.02336978 -0.0153070735 0.0107467435 -0.043298792 -0.013203154 0.03354857 -0.02353198 0.0033535948 -0.021090489 0.04089226 -0.009013673 0.047785606 0.0076970854 -0.027267683 -0.048288405 -0.05334727 0.017913748 0.056931123 0.029234132 -0.028178465 -0.013953135 -0.012054088 0.04551337 -0.016290562 0.03221767 -0.006750197 -0.01039302 0.017428555 0.054041237 0.047726948 -0.0429918 -0.035821658 0.027940962 0.021106234 -0.031296775 -0.02707507 -0.008007133 -0.03173049 -0.043458257 -0.047593616 0.038567152 -0.04518929 0.0011246154 0.02780019 -0.01053796 0.04399803 -0.032819092 0.01478996 0.027947282 0.014589819 -0.03738714 0.025535481 -0.01926676 -0.026782775 -0.02969302 0.021626607 0.03685136 0.028387748 0.016739862 0.032501742
bright 0.03451875 -0.0043360707 -0.004440064 0.00053964724 -0.04961159 -0.021015722 -0.08079449 0.036233053 -0.08529224 0.021205043 0.040478945 0.038209688 -0.012832688 0.006223336 -0.021276115 0.08506401 0.0068714865 0.031873286 0.028684612 -0.041013926 0.049428955 0.032038204 -0.058487542 -0.008498972 0.022561865 -0.0013561847 0.04515808 -0.004266689 0.002885232 -0.01671565 -0.00076840154 -0.027564317 0.03162031 -0.0017242621 0.0691334 -0.0023383757 -0.045274 -0.019706905 0.045859776 -0.0013585626 -0.0017163793 0.054692514 -0.037155557 0.021088023 -0.07819582 -0.048909318 -0.040753797 0.064846754 -0.06027524 -0.0010512791 0.027672851 -0.02060565 -0.030991443 0.02566776 -0.05604702 0.026370998 -0.075964354 0.061047222 -0.03165397 0.0060156374 -0.016106213 -0.0055584116 0.022664359 0.011154869 0.009116423 0.003141215 0.02789028 -0.0041141845 -0.051367547 -0.038850155 -0.052426573 0.047519177 -0.03679919 0.031266615 -0.04936446 0.018140875 -0.016738882 -0.060885508 -0.040428873 -0.05169661 0.011530038 0.017213916 0.00842285 -0.01025442 -0.04638557 -0.0033185282 -0.03671558 -0.018431818 -0.02316671 -0.019905103 -0.07440539 0.010108656 0.044314552 0.010677752 -0.035158504 0.010612113 0.012346716 -0.020612847 0.04053492 0.040130153 -0.060954776 -0.00676645 0.0032996207 -0.085347176 0.046656966 -0.027719025 -0.03720762 0.03768582 0.048760995 -0.039301567 0.01756139 0.00084177323 -0.03144394 0.07294678 -0.010756143 0.012115913 0.043141887 -0.0033017262 0.0015146718 -0.024916478 0.021858081 -0.0034117778 0.029367633 -0.013283291 0.0631371 0.03401597 -0.0077207494 0.06723022 0.0073020454 -0.048347164 -0.038738344 -0.027647145 0.018795239 0.013840703 0.006825385 0.051404547 -0.018947521 0.035365187 -0.015937285 -0.008539028 0.010969834 -0.017713986 -0.09514953 0.031054901 -0.043051872 -0.0023035824 0.03915419 -0.03337009 0.04927225 0.07126888
disagree 0.0019152965 0.04340231 -0.03159341 -0.025979565 0.010331817 -0.036814466 0.02922558 -0.017768536 -0.04003657 -0.0038878869 -0.02437359 0.022496976 0.015588889 -0.010719737 -0.02781492 0.026109481 -0.014074286 -0.01694419 -0.02956998 0.04675828 -0.0039865957 0.022811685 -0.042698793 -0.04414127 0.049765214 -0.015323287 -0.041611515 -0.05030736 -0.058020927 -0.038234316 -0.029650707 0.029522143 -0.008957708 0.0077645085 0.048192635 -0.022095427 0.042842228 -0.0017390669 -0.031262025 -0.026261162 0.06491571 -0.008599863 0.04694237 -0.0013855158 -0.037500393 -0.04221249 0.055373706 -0.02984777 0.037219405 0.0015646692 -0.036267947 -0.051877618 0.02541401 -0.012739455 0.023742387 -0.0115574105 -0.055391528 0.04694307 0.023152182 -0.05341165 -0.011454417 0.026783042 0.05146231 -0.019874154 -0.0049977833 0.012182002 -0.028834652 -0.007268003 -0.047166597 0.058738668 -0.012105341 0.048502605 0.042099085 -0.035835356 -0.0279281 -0.00035028075 -0.051716957 0.023251288 -0.02833451 0.03722584 -0.026218189 0.045119185 -0.006081178 -0.055219196 0.016262379 0.033789854 0.01579303 0.039563727 -0.049275745 -0.04745503 0.014014873 -0.057715084 0.011021053 0.0153270345 -0.005510771 0.022994496 0.035141207 -0.021209514 0.027638415 -0.03790364 -0.010119497 -0.029387275 0.018139131 -0.04114173 0.012229587 0.013276678 -0.013302775 -0.0144867245 -0.02292581 0.05879987 0.03753634 0.05531863 0.025279345 -0.03118652 -0.025258504 -0.03499342 0.03959041 -0.011329887 -0.03904413 0.0026155564 0.005989961 0.02871687 0.019415382 -0.038941484 0.044563238 -0.02086908 0.01944465 -0.014469774 0.04196391 -0.05073172 0.0014906814 -0.043747257 -0.039856117 -0.056486435 -0.015430335 0.020418752 0.043374322 -0.003853219 0.04957142 -0.028883224 -0.021849329 -0.024276469 -0.028433273 -0.018486619 -0.061216388 -0.02232365 0.042688552 0.014557051 0.014348436 0.0028874073
measure 0.01562316 0.028849162 0.03939414 -0.01940492 -0.0371341 0.023869362 -0.032896522 0.07066065 -0.017728724 -0.021632966 0.025569113 -0.009377038 0.0147366235 0.040422127 -0.019635227 0.027510334 0.039804805 0.0026114257 0.0077522583 0.040587768 0.017874422 -0.0040418785 0.0086652655 0.048760734 -0.030760594 -0.025085306 -0.016813831 0.02347624 -0.056046575 -0.019959303 0.00011974969 0.0436107 -0.01504976 0.052737895 -0.011311629 0.051620588 -0.0777032 -0.0085686 0.002442304 0.029013744 0.028870206 -0.02470918 -0.016603785 -0.011179725 0.0077504013 0.0389034 0.016746515 -0.0045623817 -0.0027599488 0.016750291 0.047523778 -0.021100905 -0.054244228 0.00596652 0.03386337 -0.041017253 0.011088737 -0.026574574 0.056389388 -0.01191577 -0.022535196 -0.040804572 -0.033881236 -0.030893363 0.027064797 -0.017301206 -0.048704356 0.063289575 0.012838306 -0.033275653 -0.009809999 -0.036682565 0.020460863 0.017427476 0.027030345 -0.04918635 0.035453103 0.03728109 -0.027870413 -0.0039684386 0.014863889 -0.04875864 -0.039460845 0.022079285 0.025379905 -0.046541363 -0.04163098 0.0014581642 -0.03426271 -0.04464015 -0.023183495 0.021003483 0.006613986 -0.0010946951 0.047507048 0.026630312 -0.025516909 0.03376645 -0.05506753 0.017247766 -0.03445006 0.042532537 -0.029018074 0.01704686 0.008952724 -0.00506416 -0.046666164 -0.023776134 -0.069549456 0.016457887 0.00033019995 -0.04033202 0.027467102 0.021961292 -0.03283584 -0.060194444 0.0275228 0.053623613 0.016116304 0.026474029 0.033231214 -0.044260643 -0.072979234 0.049309067 0.056058533 -0.0009188093 0.030073103 -0.05019648 -0.02062946 -0.034301177 -0.048097245 -0.037639137 0.043348677 0.0005354802 0.009839052 -0.013958954 0.011508906 -0.06125669 -0.0016629614 -0.03550112 -0.064409204 -0.0010685076 0.0475684 0.023995148 0.041264568 -0.02816933 -0.016155768 -0.02256615 0.017837474 -0.0038851681
uncomfortable 0.053684082 -0.0047782003 -0.02449192 0.038677335 -0.032608446 -0.0077932854 -0.027791072 -0.025651146 -0.062059905 -0.02025782 0.037955586 -0.0011524875 0.009448004 0.013421741 0.02177773 -0.031228716 -0.00926794 0.01314278 0.050277095 0.016159337 0.053029764 -0.006419207 0.025960803 -0.028572284 -0.0055463305 0.0309973 0.06321519 0.012019976 0.054613873 0.035362456 -0.013815604 0.059405994 -0.014939881 0.040127847 -0.001455678 0.011467937 0.047645472 0.022613533 0.019437104 -0.030274633 0.040876728 -0.02799761 -0.04339302 0.054765217 -0.013584866 0.05081811 0.0015290608 0.054713007 0.006324494 0.001741379 -0.033826195 0.052170277 0.023944542 -0.01667714 -0.046394255 0.038546517 -0.048517905 0.018889505 0.0004472271 -0.01239329 -0.059904553 -0.034849215 0.04137114 0.013456306 -0.031250738 0.0354992 0.0034583423 -0.008497106 0.025427304 -0.023395678 -0.01426647 0.0016574312 0.021721892 -0.008317716 -0.0508767 0.061722066 0.023489866 -0.041303903 -0.05745318 -0.0029031911 0.012763879 0.045954835 -0.04034581 -0.056900904 -0.03237868 0.017053705 0.014401006 -0.03343303 0.026677486 0.04854051 -0.002831087 0.01394018 0.059967346 -0.030570786 -0.03956763 0.011781186 -0.041427035 -0.006433812 0.029010898 -0.021708086 0.009035789 0.03461561 -0.035563115 0.026943808 0.026829377 -0.042612325 0.0028466028 0.03328263 -0.0015435282 0.028642623 0.018133791 -0.044614714 -0.048674382 -0.013661254 -0.038921013 0.03746599 -0.017196562 0.047911014 0.023138644 -0.0041702893 0.023454312 0.038193718 0.06035418 0.04736107 0.03605753 0.039765883 0.030039122 0.019431395 0.0027008632 -0.05258405 -0.023869298 0.02627984 -0.06643251 0.038883273 0.02665575 0.008822457 -0.0410002 0.00083570107 -0.029359609 0.05162653 0.04050444 -0.050551586 -0.0368599 0.0019206535 0.00021037867 -0.011611092 0.023542723 0.020825963 0.0077499878 0.030884968
vanished 0.05202208 0.052738234 -0.07591412 0.04356903 0.054175194 -0.058229376 -0.016896503 -0.061336774 -0.00707558 -0.0067518465 0.0024668297 0.038553867 -0.03792256 0.054826595 0.019006656 0.057589166 -0.010326399 0.059855416 0.050711684 -0.06965381 0.0022463952 0.024642829 -0.044043932 -0.020902751 -0.019976262 0.021454016 0.007674395 -0.008934165 0.070282586 -0.056427896 0.05767152 0.018311258 0.041806646 -0.02327275 0.062370148 0.018843424 0.06781138 -0.011940968 0.045919176 -0.021913825 -0.0014393075 0.04482041 -0.052258223 -0.010737905 0.02411752 0.031557 -0.0552254 -0.012984997 0.017863447 0.066302665 -0.025045099 -0.014928307 0.057995632 0.025340639 -0.077928245 0.029849775 -0.0010591083 0.0018071537 -0.07064432 -0.03781217 -0.046583276 0.02205808 0.056597576 -0.0033703349 0.00810391 -0.024260087 -0.010251041 -0.057775613 -0.0656647 0.0057721287 0.018946081 0.05912662 0.05517136 -0.014749119 -0.047081556 0.040809426 0.0020576597 -0.04708613 -0.026191054 -0.04704859 -0.011392131 0.03055596 0.014849007 -0.052608922 0.009540546 0.03218228 0.07195856 -0.008506317 -0.05737574 0.06118266 -0.050661977 0.022592189 -0.015614534 -0.0055437027 -0.0397718 0.029229002 -0.039664213 0.0011015895 0.07310445 -0.019963276 -0.05520247 0.036071226 0.032026637 -0.028286941 0.015360622 -0.004789064 0.065581135 0.017509079 0.047306124 0.026479084 -0.07625675 -0.0062512606 -0.029180981 -0.028430413 -0.023318866 -0.00573258 0.07664176 0.019056972 -0.015114631 0.06511126 0.04392882 0.051766116 -0.0051777633 0.0390134 0.018640818 -0.0020926418 0.038365755 0.022763908 0.00047341792 -0.059893157 0.04415453 -0.009067858 0.015439405 -0.0047301226 -0.070029 -0.010807959 0.00757564 0.05211412 0.035712402 0.017810095 0.069902256 0.01107574 -0.056833133 0.03732503 -0.02757513 -0.021088852 0.053398162 -0.021433393 0.051825486 -0.07318791
her 0.2618327 0.07841461 0.007040722 -0.038093597 0.101005584 0.004065291 0.038814053 -0.1148129 -0.38680074 0.18745871 0.13287011 -0.11707415 0.010514118 0.02889681 0.0068539465 0.0143471975 0.021157723 -0.109064475 0.19581975 -0.010342229 0.38964173 0.29297328 -0.084496945 0.044242196 0.18650402 0.06572896 0.04264466 -0.1581496 0.048362505 -0.04893281 0.10406105 0.22610252 0.08351448 -0.10634261 0.39143232 0.095340826 0.029081162 -0.035277918 -0.016368577 0.058119178 0.22271612 0.104892276 -0.039128423 0.12586583 0.2461992 0.25197625 0.0055874423 0.01619325 0.20984003 0.26445624 -0.007310139 0.3329203 -0.06311816 0.023379767 -0.20869763 -0.013241308 -0.17479464 -0.0635024 0.13977262 -0.10363405 -0.19408548 -0.021113418 0.08954813 0.14878705 0.07651534 -0.110895894 -0.19859669 -0.24715178 -0.08418554 0.089223854 -0.17627616 0.30285206 0.09937639 -0.05188451 0.10424623 0.0763273 0.06547145 -0.1907334 0.03896391 -0.351942 0.25875804 0.12412002 -0.013079744 0.18687655 0.14898793 0.087084815 0.054728422 0.06979679 -0.19695401 0.20367457 0.052591488 -0.19422823 0.10746489 -0.13901305 0.24371679 0.09544833 -0.12730066 -0.15713869 0.12762071 -0.21777268 0.06287576 0.038953673 0.17500523 -0.1570431 -0.07861213 -0.13551168 -0.035423905 -0.05588059 -0.0030488635 0.07667315 -0.25001103 -0.00946085 -0.20533355 0.10614892 0.33951735 0.088192284 0.0654235 0.1559465 -0.06161021 0.09322296 -0.027544819 0.08066191 -0.03280422 0.13242234 0.15404099 0.263449 0.045178544 0.14984983 0.18059963 0.11680342 0.2416209 -0.14846958 0.16790287 0.06186879 -0.22594488 -0.023371575 0.14591591 -0.050334975 0.23971006 0.25786316 -0.044259004 0.07726187 0.029176928 0.1816673 -0.01749326 -0.04877942 0.17207088 -0.22686766 -0.14298964 0.042232648
normans 0.031071097 0.01328706 -0.0039504925 -0.0052373353 0.03490533 -0.04919456 0.029825069 0.01739333 -0.021643963 0.051285483 0.020796254 0.043692425 -0.0005504767 -0.02175656 0.041514702 0.047667444 0.025671894 -0.0069062347 -0.03465279 -0.002275511 0.05542558 0.0043795053 -0.027042182 -0.006769155 0.014866389 -0.0012254294 -0.02636794 -0.012053181 -0.01233002 0.050441653 -0.01735206 0.046910025 0.05009351 0.011462789 -0.00630805 -0.010596237 -0.044598036 0.061024867 -0.019127771 0.025345987 0.01443631 0.0038626867 -0.036553588 0.04998016 -0.048232883 0.008568463 -0.03810567 0.008160045 0.041143417 -0.037600115 -0.074784845 0.0169767 0.04283329 0.04944189 0.016234895 -0.03630774 -0.020720404 -0.041164484 0.038461227 0.013551514 -0.03922882 0.0022028098 -0.020603633 0.016978957 0.031775028 0.03280043 0.031551998 -0.010440292 0.015944855 0.06339954 0.0081308605 -0.003347237 0.04567543 -0.02233209 0.012104779 -0.03575951 -0.006400219 -0.036686458 1.6760314e-05 0.0035627158 0.024219705 0.060590602 -0.027518637 0.044518765 -0.061582614 0.04270942 0.051828455 0.017634464 -0.034661718 0.006654229 -0.035236463 0.017077556 0.059388246 0.049048904 -0.021783974 0.021484455 -0.010488155 -0.01588809 0.035971265 -0.053666543 0.0025834483 0.034479193 -0.0039671417 -0.014194732 0.008888898 -0.03421293 0.03704272 0.015804721 0.0023736502 -0.034756504 0.0084132515 -0.019728642 -0.046028715 -0.017786102 -0.023805572 0.022494046 0.050016828 0.0012516984 -0.002171386 0.038270872 0.03678227 -0.0087704975 0.010462145 0.0044945073 -0.023897963 -0.00056310906 0.019450039 0.033759043 0.0068792882 -0.059739705 -0.011166235 -0.018044423 0.03694809 0.012535993 -0.012351982 0.011473968 -0.03304429 -0.028120236 0.041022975 0.033271097 0.024911616 0.01855724 0.028457683 0.04381724 -0.056898117 -0.058175515 -0.008491069 -0.037265588 -0.019433932 -0.0742734
chain 0.026610976 0.057959888 -0.07054742 -0.022949038 0.00927564 -0.01902643 -0.028295957 -0.055802017 -0.026156818 0.015257228 0.035662375 0.049917948 0.005007757 -0.015087518 0.0011021447 -0.025775911 -0.06744978 0.058454156 0.014766917 -0.055795286 0.031460408 0.06085483 0.016499674 -0.0031537805 -0.0024138535 -0.030428564 0.052441746 -0.024741216 -0.012281922 -0.039724853 0.045439646 0.051989585 0.010374051 -0.012017011 -0.021327568 -0.038004506 -0.009422947 -0.009680812 -0.0007815748 0.0013549997 -0.004972002 -0.030778492 0.001726769 0.02185774 -0.008909764 0.0040403376 -0.026142716 0.038700815 0.019125376 0.023155136 -0.048244312 -0.010435133 0.025495196 0.03691242 0.015942113 0.047221214 -0.07219612 0.023169657 -0.058541663 -0.008114151 -0.023860997 -0.0022378005 0.01954694 -0.029253423 -0.030750014 0.041543655 0.0605961 0.013420811 -0.04655209 -0.028204724 0.02183719 0.023433166 0.02767353 -0.0229054 -0.026868843 0.027256176 -0.0153733585 -0.036150947 -0.06803768 -0.030709837 0.06151715 0.042281684 0.06082412 0.009045823 -0.036412995 0.06947173 0.051622078 0.003901107 -0.029124299 0.028892279 -0.05710389 -0.041810505 0.06116973 0.030176422 -0.04880663 0.051321086 0.023644056 0.02340283 0.059453245 0.01446526 -0.055622764 -0.008528677 0.07704315 -0.062340822 -0.026068637 0.018703429 0.007923689 -0.0046562394 0.028945759 0.0056590526 0.03365019 -0.0017655889 -0.070059866 0.0003684196 0.05025884 -0.011181494 0.04624161 -0.0030178512 -0.019845778 -0.0030407112 0.048500422 0.034871634 0.04216462 -0.012062433 0.04049789 0.0056191636 0.019123714 0.048041597 0.020208383 -0.057873774 0.013878046 -0.060971525 -0.002950254 0.026843432 -0.03754203 -0.056782234 -0.008130546 0.049409036 0.028642207 0.025569629 0.04470702 -1.3004901e-06 -0.04780869 0.059208218 0.006302036 0.012371467 -0.007984221 -0.050440025 0.048468325 -0.0105328215
funny 0.08898631 0.0072308555 -0.053353276 -0.036820807 -0.0102534285 -0.019833356 0.0049210466 -0.073308356 -0.06817856 -0.017688312 0.02865859 -0.025687998 -0.010834092 0.036542352 0.016473632 0.042054743 -0.013936178 0.06668644 0.039490346 0.0023539928 0.01610153 0.0014290131 -0.09597861 -0.012887535 0.05442279 -0.025114758 0.077811256 -0.040498514 0.073520154 -0.0074749263 0.024807125 -0.046472546 0.08463731 0.025836295 -0.0025970482 -0.0052297544 -0.039391253 0.10146757 -0.007930016 0.018273255 0.061330006 -0.0044306475 -0.041622303 -0.023350067 -0.049453042 -0.003555636 -0.025494557 -0.0010057547 -0.07589509 0.061849494 -0.060660962 -0.048085682 0.017839154 0.030157425 -0.0048644505 0.07885009 -0.030888727 -0.012203474 0.027849944 0.02078491 -0.07229706 0.06064392 0.002272953 0.019116146 0.037261944 0.00038970064 -0.007984654 -0.053460162 -0.058549415 0.016811902 -0.01739286 0.029568166 0.023032412 0.0072211158 -0.025445536 0.0037686406 -0.031695314 -0.07580461 -0.035333954 -0.034678064 0.04794149 0.052951135 0.07525966 -0.04136541 -0.046117406 -0.016468206 0.0571733 -0.037106145 0.01827799 -0.013468404 0.049188443 -0.00038028415 0.03529672 -0.014923939 0.022326251 0.09131481 -0.019719448 -0.044666745 -0.0013111784 -0.061812684 0.011331254 0.05089698 0.036571093 -0.022542147 -0.072447136 -0.05053312 0.058261156 0.008618744 0.005479022 -0.0035579659 -0.005276829 0.08787278 -0.057108346 0.05437979 -0.077276595 0.004350933 -0.0052289697 0.0058499444 -0.067099795 0.069659404 0.04982171 0.07322687 0.06056272 0.07444431 0.041003857 -0.03504101 0.023037553 0.08511535 -0.031798992 -0.06330697 0.042636704 0.0067300503 -0.013769238 -0.07880831 -0.024434935 -0.060024224 -0.009478253 -0.008226259 0.04225569 0.07641493 -0.011181311 -0.009386013 -0.0011222807 0.025698217 -0.014050154 -0.034333624 0.029931577 -0.0093513 -0.023564374 -0.033963848
fanning -0.050706755 -0.025628828 -0.05403047 0.024598213 -0.043823507 -0.05684954 0.0051747393 -0.022002267 0.016714776 -0.009747909 -0.0040793843 -0.015359086 -0.075195834 0.010872724 0.04584646 0.019156128 -0.038294163 -0.029717568 0.0301569 -0.06224834 0.04888913 -0.0084965555 -0.036180805 0.012062545 0.052098073 0.008229843 0.018657094 -0.055674564 0.014575901 -0.031962458 0.0063719284 0.03894903 -0.006629009 -0.05399879 0.034417734 0.010269871 0.020364108 0.01122882 0.06492455 0.020288914 -0.038280502 0.016929286 -0.034923818 -0.010660744 -0.014650744 0.025087174 -0.008007578 0.057181228 -0.04478582 0.04639196 -0.019980552 0.041792165 0.0014644008 0.003970819 -0.060672045 0.06128142 0.012353967 -0.03418819 -0.06830743 -0.031694643 -0.032325856 -0.023070736 0.008204779 0.027656017 0.049865816 -0.024035273 0.004243619 -0.036333863 -0.054647967 0.043829195 -0.027595751 0.035730775 0.03041518 -0.05455411 -0.051128183 -0.016124232 -0.025301034 -0.051978428 0.019163035 -0.04753816 -0.02814694 -0.019645382 -0.00047754124 -0.018507222 -0.05423102 -0.016966213 0.014889637 -0.063278325 -0.05370264 -0.032107886 -0.04633746 0.026990172 0.02636168 0.016474802 0.03425229 -0.009672113 0.030451093 0.008260358 0.056240674 -0.028790604 0.018499637 0.046458967 0.03988529 -0.055890914 0.0100363055 0.02498867 0.015935143 -0.01121928 0.058366284 -0.061119534 0.0038431534 0.01652507 0.0060544475 -0.02721367 -0.048335686 -0.038068715 0.058233596 0.051530372 0.031258978 0.068530574 0.031408194 -0.024777694 0.008302659 0.04589107 0.033921592 0.004173329 -0.014621766 0.026965065 0.033601735 -0.010789184 0.04382366 0.018792016 -0.042172287 0.037499826 0.02193713 0.007311522 -0.0418529 -0.0020132228 0.038502157 0.022562092 -0.018028665 0.017098576 -0.04096614 0.052719228 0.0013882907 -0.013280342 0.020194385 0.033532724 0.047447205 -0.01452197
noise 0.077545784 -0.015459454 -0.025276372 0.022918006 -0.048517678 0.020221302 0.002638977 -0.005465516 0.023555957 0.018120652 0.04230379 0.0013102338 0.01690525 0.02085843 0.018671384 -0.016983574 0.02203295 -0.017728556 0.019892257 0.018835701 0.037194166 -0.016033275 0.010668196 -0.027496114 0.0119272135 0.055973157 0.0112856915 0.03130582 0.0039125266 -0.043481592 0.035145797 0.056425743 -0.0024966665 0.014965755 0.039623972 -0.0071941027 -0.03684767 0.0373604 -0.008939273 -0.058159407 -0.023451746 -0.011213525 -0.051039446 0.02074254 -0.017246557 0.016094206 -0.0026045274 0.039945137 -0.015367973 0.04711606 0.01865187 -0.016469892 0.03984011 0.04864353 -0.024875328 -0.010868469 -0.0515731 0.03503365 0.023067694 -0.03963677 -0.041013576 0.037951533 -0.019433558 -0.022927888 0.03960005 0.04112167 0.041218977 -0.022070121 0.027764281 0.015733209 0.027967455 0.07521684 0.042152252 0.009970126 0.014464391 0.012908771 -0.01646424 -0.053523283 0.002106293 -0.022210017 0.05364037 0.03289004 0.04577795 -0.02635769 -0.030114207 0.003496089 -0.016767051 -0.04175491 -0.04194101 -0.008183959 -0.04516147 -0.07193751 0.0609848 -0.012675179 -0.048018325 0.012846076 -0.04779184 -0.005537208 -0.021179393 -0.04057468 0.019246284 0.00901083 0.0318513 0.007705282 -0.02571492 -0.026337018 0.0133496 -0.004852148 0.04355361 0.0017342869 -0.005948636 -0.00056648836 -0.031400733 0.06311161 0.036741912 0.06265762 -0.028569717 -0.026716385 -0.056833968 0.019495497 -0.02393991 0.01656897 -0.0068628225 0.033826564 0.03204196 -0.0358932 -0.025904326 0.0030335288 -0.0051360196 0.0004910248 -0.00014750639 -0.033508915 -0.058389947 -0.027365524 -0.05208383 -0.009575003 -0.008986313 0.048330724 0.06921776 0.057136714 -0.0070034955 -0.025733696 -0.0045884443 0.03414802 0.027380377 -0.029558046 -0.028987054 -0.049034227 0.042418078 -0.01439769
since 0.048173394 0.005628816 -0.0052415086 -0.023979349 -0.049349055 -0.01152218 0.04239164 0.02702598 0.0068957815 0.00062606425 -0.002091812 -0.014815475 0.022146892 -0.01867369 -0.008789553 -0.05676649 -0.0028535146 0.048335984 -0.0035142987 0.024441127 0.06665356 0.019259663 0.0033967725 0.011466289 -0.026693443 0.0003785419 -0.00905817 -0.013890986 0.039337233 -0.010287844 0.012556304 -0.0053149834 0.010896338 -0.04603981 0.06436906 0.021052957 0.054598626 0.014706545 -0.001229362 0.03100981 0.0067031137 0.05404628 -0.017792089 0.011579989 0.0077644764 -0.052009534 -0.058695942 -0.017128078 -0.044000883 0.050484024 -0.042159777 0.016920343 -0.0125057725 -0.030035753 -0.012650872 0.051609587 -0.022345124 0.028394785 -0.03405455 0.004790904 -0.00809513 -0.050239164 0.029868511 -0.0073370077 0.010499115 0.0142064355 0.012748129 0.008757298 -0.051091783 0.014621169 0.01783926 -0.016842304 0.0065375543 -0.03881458 -0.0005151072 0.06378857 -0.05132464 -0.061495967 -0.043438446 -0.022420693 -0.01113939 0.044445008 0.014534652 0.002397142 -0.005355066 0.053856533 0.006461532 0.012916714 0.013870382 -0.014149866 -0.016608387 -0.06421978 0.036061168 -0.01721517 -0.044421736 0.05129435 -0.048665766 -0.01833827 0.06632997 0.02061327 -0.038185272 0.046345323 0.062489122 -0.02051675 0.02207499 0.0018811845 0.015845202 -0.068048164 -0.026816184 0.013064879 -0.07136505 0.065664366 0.02506649 0.010264654 0.0462962 -0.013044683 -0.012031983 0.03226663 -0.023641406 -0.008932871 0.06502207 0.023110887 0.030432329 0.035214134 0.06534264 0.030334704 0.05602353 0.0060261013 -0.002042021 0.008347327 0.019538574 -0.041721758 0.02887383 -0.051986273 -0.016560555 -0.06526892 -0.026594386 0.06364794 -0.0050785625 0.01570431 0.0027600278 0.0147643145 -0.06281806 -0.009625789 -0.044939566 0.015292729 -0.03688409 -0.010704517 -0.03914782 -0.060892895
close -0.03606055 0.057589855 -0.04169548 0.030903876 -0.054840084 0.041589245 -0.0046601463 -0.07364038 0.013131527 0.0043892353 -0.032111444 -0.042254534 -0.0150027685 -0.013123974 0.051684145 0.04188085 -0.034859937 -0.0008273155 0.0117498115 -0.06506317 -0.013760742 -0.014585145 -0.02300834 0.032450855 0.041755784 0.028861575 -0.010230701 -0.012171842 0.0073286756 -0.068702474 0.057359345 0.048116457 0.09342478 0.036226023 0.026641725 -0.043158736 0.038780954 0.047186643 -0.029284438 -0.013966913 -0.004758396 0.06575026 -0.022988643 -0.021474348 -0.061490484 -0.016244248 -0.011671116 0.0035206028 -0.025971565 0.032185458 0.009009457 -0.02028452 0.045617204 0.015501129 -0.04748905 0.034444 0.03611186 -0.008740574 0.035660665 -0.05386054 -0.066227406 -0.009850639 0.040355176 0.04138361 -0.035882622 0.03346484 0.009388966 -0.04876344 0.014416095 0.07729624 0.0047920793 -0.04018247 0.057625014 0.039209507 -0.077212185 0.052158788 -0.036316942 -0.037580516 -0.0380315 0.036124784 0.06007545 -0.0022098417 0.07774256 0.03101507 -0.03249582 0.07749002 0.009623184 0.0027986204 -0.0054755183 0.06889958 -0.0068183686 0.006057535 -0.040473852 0.013597055 -0.0009777511 -0.063601546 -0.012683973 0.045539092 0.052861873 -0.010299061 0.015363281 0.046755064 -0.020854516 -0.051734265 -0.077077165 0.028632488 -0.0011305416 -0.08472513 -0.06067647 -0.05839779 -0.06871016 -0.0018311883 -0.025397565 0.07111077 -0.0036674263 0.001830705 0.05087935 -0.038851492 -0.093762934 0.03056677 -0.011522354 0.005963677 0.062084682 0.06981056 -0.0067608138 0.03888948 -0.010436153 0.008791858 0.052467503 -0.061370526 0.0149804875 -0.00737735 -0.011132189 -0.04906879 0.014379727 -0.1046196 -0.003116638 -0.015738236 0.016566806 0.032162663 0.054838855 -0.0013803405 0.03419933 -0.06479621 -0.0032243733 -0.011011478 0.026808169 -0.014787384 0.0551214 -0.040974855
toys -0.01725857 0.06336309 0.067817084 0.028133303 -0.042154517 0.019442353 -0.010349778 -0.025237951 0.045317255 0.050852187 0.0019302977 -0.0055796085 -0.048030436 -0.037900023 0.028536858 -0.012401681 0.04457465 0.043252226 0.030667681 -0.030790742 -0.03174309 -0.029519275 0.008762338 0.022707533 -0.03337372 -0.07262016 0.005944936 -0.04287309 0.029093256 0.03241662 0.037286174 0.054923575 0.017206904 -0.0034431294 -0.0029372666 -0.025302885 -0.024993224 0.02413184 -0.019595966 -0.004042348 -0.03344545 0.024875272 0.061716065 -0.019282093 0.063770644 -0.039699186 0.028170813 0.04224738 0.015789397 0.03719819 0.02271675 -0.0172937 0.0047104163 0.028276375 0.030904654 -0.03128188 -0.007259953 0.034286443 -0.021528957 0.021224229 0.01678853 0.043876443 -0.026504979 -0.021553129 0.032330066 -0.06664397 0.041170616 -0.02215482 -0.028406307 0.05417611 0.00071740703 0.0020713957 -0.053840604 -0.010189081 -0.01845037 0.017767906 -0.023714563 -0.038450934 -0.023482872 -0.06702215 0.033902746 -0.036420953 0.05269962 -0.0481469 0.019420102 -0.05088922 -0.06779397 -0.008278148 0.02436375 -0.021867556 -0.018003773 -0.013847313 -0.03086738 0.023295868 -0.008928496 0.015312849 0.012195677 0.04418224 -0.028654866 -0.016293041 -0.0047001773 0.0343107 0.017850794 0.016703226 -0.034695018 0.020709658 -0.070273876 -0.008794415 -0.0051203077 0.028342234 0.027181657 -0.044529192 -0.013661888 -0.0534632 -0.019854538 0.012227571 0.024002125 0.032439005 -0.03696919 -0.023309084 -0.0002818749 0.03361194 0.024143366 -0.054011773 0.0321557 -0.028810257 0.014901215 0.026044734 -0.035695296 0.05117468 -0.028866189 0.019506454 -0.03224705 -0.041197147 0.067817114 -0.020401325 0.0073504043 0.025999935 0.013231871 0.067467704 0.004706614 0.0057102498 0.00026852917 -0.031160165 -2.8623646e-05 -0.015479765 -0.045570172 0.022462156 -0.006651627 -0.048488192
moderate 0.0042151967 -0.0012265653 0.009711307 0.035209067 -0.011162488 -0.043277886 -0.036100153 -0.024041357 -0.0072984225 -0.03546042 0.014098817 -0.01829112 0.040440645 0.022427771 -0.0076870956 0.036925327 -0.010562774 0.03858431 -0.040706884 -0.012614806 -0.047755167 -0.006296573 0.0031319687 -0.02538178 -0.02705917 0.031760145 0.023662824 -0.008287005 -0.042565815 0.023077544 0.041944727 0.014738914 0.0014835163 -0.034093957 0.0020644092 0.04798012 0.00039399185 -0.0061971294 0.046473935 -0.021824267 -0.00012546865 -0.013619919 0.036814082 0.04222976 -0.044941217 -0.045662504 0.03534062 -0.037516885 -0.024703175 -0.019238774 -0.01878549 -0.0076720137 0.033998992 0.0076474417 -0.035829686 -0.0128072 -0.021004058 -0.05813383 -0.0042600054 0.015511322 0.033455152 -0.022239387 0.002504969 0.027319152 -0.011831034 0.0023552289 0.049295478 0.0239796 0.040155534 0.05257269 0.01443186 -0.03511347 0.0057718786 0.03533967 0.04864384 -0.007915301 0.0028850315 0.047997426 0.022242554 -0.03143098 -0.024510013 -0.0444632 0.0041437433 -0.010777706 0.012568219 0.020265615 -0.0003335724 0.026108347 -0.037366387 0.024130002 0.020679792 -0.0075443187 -0.036905076 -0.0029091192 -0.0016102352 -0.0063846773 0.0039896765 0.0145611605 0.043427974 -0.019960595 0.005850962 -0.03469763 0.044611726 0.004858653 0.033467654 -0.029185686 -0.016749877 0.03359736 -0.0313269 0.024204252 -0.020164253 -0.012049276 -0.023813033 -0.048514698 0.0014190963 0.03722693 -0.03777116 0.02793705 0.025130015 0.011450781 0.025270045 -0.022323992 0.01889163 -0.042901322 -0.038095593 -0.010475735 -0.043086555 -0.023107229 -0.021325422 -0.055794187 -0.0037827608 -0.028939202 -0.016065907 0.007295409 -0.009450035 -0.026247587 0.010579472 0.003539589 0.053586636 -0.016240478 0.04002087 -0.007647839 -0.053025756 -0.04915526 -0.021560533 0.033526108 0.048032057 -0.026347764 0.009559018 0.0025931962
welcome -0.0024403867 -0.043419052 -0.012454198 -0.02869428 -0.021291463 0.0065470813 0.059754096 0.008485875 -0.049346536 -0.03119302 0.03660911 -0.02020987 0.014066476 0.0026713698 -0.008859863 0.012675935 -0.049468946 0.044277664 -0.028802244 0.041808523 -0.007619518 -0.0061688316 -0.038930506 -0.043468185 -0.00512959 0.04263641 0.05727873 -0.03635017 -0.030277375 0.039025515 0.0027373163 -0.018030014 -0.004931475 -0.04064986 -0.010714764 -0.053415116 -0.009543994 -0.019344347 0.008732843 0.004158839 0.027858488 0.042161684 -0.014323534 -0.031977672 -0.048425153 -0.00282196 -0.0039310823 -0.007480079 -0.04632324 0.0017414028 0.008697273 -0.030269397 0.012819517 -0.03160598 0.0032902425 0.06055678 0.019399367 0.047421064 0.022432731 0.017044673 0.015519499 -0.018260729 -0.015934292 0.042457074 -0.04154174 -0.036309533 -0.04342454 -0.029755173 -0.008269388 -0.02770501 0.015001215 0.0070166443 -0.014185464 -0.01410224 -0.054288503 0.022166597 -0.009881087 -0.0480874 0.0067880237 0.009758898 0.024398912 0.014942677 -0.03818218 0.029483112 0.029554782 0.021996522 0.05002307 -0.03909372 -0.027844599 -0.009469062 -0.03588084 -0.04048219 0.009762862 -0.039286077 -0.036352422 -0.022183796 0.016856296 -0.02152099 0.057649933 -0.045843516 -0.04684045 0.015564153 -0.03652228 -0.044437665 -0.04803002 -0.013305912 0.011512292 0.0056860102 0.0015818932 -0.052438546 -0.023452295 -0.03509477 0.022189682 -0.0037329197 0.0405942 0.009753296 -0.00475565 0.01306169 0.005826113 0.05085325 -0.0313692 0.032516032 0.044785984 0.021189444 0.05255102 0.063337564 0.03155229 0.063616715 -0.0015194729 -0.025552621 0.05800962 0.031230394 -0.0150472475 0.018940609 -0.018833302 0.0019360982 0.06081724 -0.016752524 -0.0034397999 0.047505308 -0.02178009 -0.013960123 -0.029896487 0.02063634 -0.05272142 -0.022342738 0.03579584 0.022166187 0.052452788 0.0022927923
pulled 0.0077309264 -0.035888724 0.031029526 0.0033087821 -0.013963077 -0.02831432 -0.00019898731 -0.003436179 -0.038674563 0.018926501 0.047836807 -0.009936639 -0.034013633 0.026707733 -0.00093514094 0.04383727 -0.032363325 -0.029675396 0.03855266 0.033963826 -0.030717926 -0.009589085 0.050227456 -0.03728797 -0.037371743 -0.009992116 0.040685635 -0.031107474 -0.0035108638 -0.015768958 0.030094849 -0.04814758 -0.04083226 -0.029672887 -0.018758535 0.010935387 0.009880475 0.016331106 0.043990936 -0.003915205 0.0016256114 -0.0394665 -0.010605858 0.004600885 -0.0014973861 -0.006554119 -0.039996166 -0.019699033 -0.06595851 -0.017911129 -0.03018765 -0.029319035 -0.044050556 -0.005591051 0.0077703185 -0.034121826 0.017887622 0.039647367 0.0013112549 -0.059314355 -0.066289015 -0.028099626 -0.044982616 0.009238721 0.047102157 0.016064115 0.024442956 0.035924014 -0.045809582 -0.0451722 -0.026751712 -0.041417133 -0.04714734 -0.027371764 -0.07759661 0.03409021 0.007936243 0.036799416 -0.063490085 -0.020384353 -0.05460818 0.025279256 0.0047704806 -0.061382126 -0.02399014 0.026236964 -0.032041863 0.03939829 -0.031417854 0.024930999 -0.015975134 0.022924745 -0.015238291 0.03488029 0.031623658 0.02715829 0.021152679 0.040491387 0.0448083 0.04546235 -0.042242747 0.028260032 -0.027040103 0.010933462 0.045848 0.016749403 0.011576916 -0.018504143 -0.012264984 -0.0007820637 -0.04694925 -0.021469321 -0.050783727 0.021757618 0.024447141 -0.011180761 0.030381499 0.0021880302 0.046207763 -0.015157891 -0.03864952 0.012904541 0.03241902 0.01992425 -0.011551207 0.058177166 0.050025016 -0.00025376584 0.025382569 -0.040317927 0.0525443 0.021017816 0.023303445 -0.00417297 0.019233342 0.030928465 -0.04356594 0.05378821 -0.004986692 -0.018273119 -0.021995852 0.039078593 0.01411484 -0.0017206816 -0.055701673 -0.02489178 0.015750015 -0.04918916 0.03184168 0.018971572
high 0.078111894 0.039882056 -0.053916093 0.029989159 -0.06688328 -0.05625186 0.061030444 -0.07691573 -0.04050098 -0.012220429 0.059099153 -0.04915144 -0.032371387 -0.013961961 0.04527612 -0.020893043 -0.0012019747 0.06847358 0.012636158 0.010925891 0.02133295 0.051737893 -0.06685498 -0.0015206884 0.059867833 0.008637574 0.0633219 -0.029939132 -0.007328073 -0.04338133 0.06967217 0.069503054 0.036794756 0.029937848 0.090152204 -0.051310856 -0.01348193 -0.005067946 -0.01621495 -0.032309175 0.082369775 0.02431247 0.004949922 0.078427985 0.06805828 -0.028383847 0.072727665 0.05745657 -0.018575875 0.038080946 -0.09937886 0.020340394 0.0064354674 -0.009778284 -0.08948121 0.08047607 -0.032958165 -0.016229557 0.06535123 -0.07440848 -0.08209729 -0.0045952513 -0.007360413 0.01679149 -0.014017574 0.02623922 0.04628786 -0.07808454 -0.05761738 0.034665186 -0.03427407 0.055831928 0.0013746133 -0.034974165 -0.00588183 0.06360381 -0.05339291 -0.11900351 -0.06436471 0.021898547 0.024082823 0.040832866 0.023940578 -0.024010241 -0.084988594 0.05135359 0.057844307 -0.013780504 -0.028915254 0.045266297 -0.05602994 -0.006450865 0.101506814 0.032013662 -0.034415677 0.024211792 -0.026754402 -0.0029299716 0.09063069 0.010574986 0.083458364 -0.011277001 0.0014283549 -0.11851209 -0.0811089 0.023145253 0.037039917 -0.019595655 0.021371333 -0.032643303 -0.0774472 -0.012368085 -0.05909254 0.07004014 -0.020737475 0.04434532 0.07994891 0.022577588 -0.0651622 0.017554687 0.02766647 0.017171044 0.023613123 0.11515031 0.10926398 0.0014234565 0.014046992 0.06985069 -0.02777209 -0.030984078 0.046881948 -0.027242372 -0.035751294 -0.009207529 -0.035230894 -0.018210854 -0.030391682 -0.01544165 0.090343975 0.035396293 0.031801376 0.04801545 -0.036235854 0.020299 -0.019031173 -0.06106377 0.02675795 -0.056339808 0.08433884 0.04231992
presents 0.025907708 -0.007825126 -0.023275094 0.03931389 0.013298156 0.009990526 -0.014046808 0.044676706 -0.009675811 0.046594564 0.024572942 0.02886016 -0.029193616 -0.011917526 -0.006213256 -0.013730538 -0.033681765 0.0111620445 6.088789e-05 0.04330236 0.047286186 -0.016256422 0.00040663953 -0.015002078 -0.016362716 0.0016673723 0.032132227 -0.0042995415 0.002564203 -0.04457182 0.015726166 0.009096209 -0.012766011 -0.03244195 0.041673675 0.028080193 -0.05119402 -0.0022792052 -0.05110309 -0.047951497 -0.013476035 -0.023921479 -0.04418971 0.012663899 0.017887177 0.028940875 0.015220759 -0.01202883 0.010054118 0.0006252908 0.04942091 0.015700746 -0.03763127 0.014417421 -0.0066243107 -0.03445138 0.00445569 -0.03768751 -0.038196966 -0.02069926 -0.047825895 8.7280874e-05 0.0345176 -0.027343394 -0.04868776 -0.028362345 0.017980702 -0.042138986 -0.035608176 0.038439028 -0.039673507 -0.014606186 0.02197857 -0.016891655 0.0023487583 -0.04793376 -0.03323992 0.010381475 -0.07506115 0.012276465 -0.01213393 0.025186786 -0.03263013 0.029174905 0.023880512 -0.00944385 0.043540698 -0.0073723425 -0.037980374 -0.039090723 0.011623867 0.00560408 0.044429354 0.027746703 0.046315532 0.0538171 -0.011260594 0.036927335 -0.04839902 -0.065280475 0.037924014 0.036573615 -0.03070183 -0.030713238 0.032310612 -0.038478088 0.0037175703 0.0006831966 -0.039414745 0.019080877 0.042254828 0.00365763 0.008614994 -0.044217043 0.056039233 0.04336613 0.011151947 -0.014393696 0.029988848 0.009104423 -0.022240994 0.0049089394 -0.015071071 0.0069354754 0.017311998 0.05851787 0.04066735 0.023505768 -0.01882015 -0.015336157 0.008432091 0.016056899 0.039448623 0.0071153776 -0.013848543 0.03735507 0.03750099 0.028895365 0.018115263 -0.014280722 -0.049652554 -0.039145038 -0.049539287 -0.03738852 0.043614466 -0.05945203 -0.036429908 0.02666535 0.033081163 -0.00057181984
dare 0.05956662 0.055344377 -0.0336056 0.0282648 0.03203245 -0.0050489935 -0.017274415 -0.050580733 0.025854476 0.061115332 0.031241314 0.059646126 -0.0368759 0.061481338 0.053511363 -0.025326228 -0.06191621 -0.014301294 0.02730739 0.023469876 0.025098247 0.030754823 -0.0136323925 -0.045560803 -0.011134201 -0.012514206 0.000670922 -0.024224589 -0.019004205 -0.024736652 -0.026637675 0.021019235 -0.017009411 0.025555428 -0.013988396 -0.054626234 0.03822606 0.053961515 0.036351334 -0.07899539 0.057619546 0.04172635 0.021048777 -0.016679807 -0.040854447 -0.03893691 0.022618681 -0.02595773 -0.013696284 -0.0029140401 0.020575058 0.029130291 0.0070180814 0.034923363 0.031314995 0.0062407656 -0.036733057 0.0009299364 0.012102449 -0.012756918 0.008844812 0.015723899 0.026972806 0.04541214 -0.023112694 0.051944945 0.006412113 0.013431063 -0.014270943 -0.010406315 0.024956897 -0.036423 0.0097394455 -0.028809398 -0.048253663 0.017595995 -0.009681086 -0.025121426 -0.04108643 0.018254008 0.06788862 -0.024110852 0.024834778 0.026092108 -0.04835484 -0.033040453 -0.033654433 0.0023522377 -0.07965473 0.007361414 -0.038289342 -0.017008841 0.043274004 0.0142096495 -0.0041105202 0.007207378 0.00895698 -0.025612693 -0.014099688 -0.03663117 -0.03910815 0.030724349 -0.014507764 -0.024898205 0.0018434955 -0.04817405 0.020411735 -0.009133742 0.052223317 -0.03640322 -0.020373939 0.028439028 0.009950809 -0.032370046 0.0017221348 -0.0265434 -0.01211966 0.068240345 -0.041797083 0.04525601 0.0005579168 0.025347449 0.04854262 -0.03388569 -0.04794963 0.06444463 -0.00072316336 0.033450328 0.0064080684 -0.04032226 0.014336282 -0.031210605 0.041085094 -0.052898046 0.012508679 0.034279563 0.08672808 0.011855541 -0.0050923103 0.06177109 -0.016995557 -0.020389425 0.024106413 0.05847068 0.020661367 0.030312218 -0.03694069 -0.0058529438 0.02554591 -0.0049004676
eaglet 0.031890154 0.0010524245 -0.032872193 0.035905853 0.01309928 -0.09392699 0.016624205 -0.053814348 -0.01882593 0.041108087 0.04256472 -0.018050207 0.014826927 -0.022317043 0.029988205 -0.09773618 0.057175625 0.017645469 -0.036297828 -0.08238613 0.022170579 0.028587742 0.038368832 -0.0111313835 0.0021867815 0.045766365 0.033274725 0.05686743 0.09616764 -0.06560103 -0.029432748 -0.03055685 0.027037032 -0.07710923 0.03620083 -0.04584826 0.006529076 0.013178466 0.052260987 -0.060363125 -0.038987592 0.044037905 -0.07208793 -0.032625783 -0.008551976 -0.00019927183 -0.072519004 0.029555196 0.019904135 0.04909738 -0.027429223 -0.010887657 -0.020341197 -0.020239294 -0.05882467 0.050648287 0.00033137528 1.3566925e-05 0.00090875675 -0.05425037 -0.072551556 0.02111001 0.039117284 -0.011893221 -0.026347805 0.03489078 0.012430055 -0.015352259 -0.016339626 -0.005969246 -0.052959375 0.036646012 0.072870284 -0.032556314 0.021522567 -0.004754971 -0.0063904803 -0.077729374 0.045511857 0.04892183 0.008713102 0.05425763 0.006605407 0.02363154 0.014364101 -0.012238835 -0.015001843 -0.08547525 -0.02441809 0.0700248 0.008842108 -0.006454102 0.039655622 0.04792503 0.007418349 0.06553824 -0.017774837 -0.06533478 -0.012032554 -0.03668078 0.01092924 0.07705384 0.036081042 -0.010078112 -0.007789523 -0.031455375 0.02259421 0.021596383 -0.03314807 -0.07623757 -0.03402004 0.060738053 0.048298262 0.05853156 -0.07549394 0.0064299996 0.029121578 0.014985743 0.009767982 0.05473688 0.009879105 -0.027680494 -0.0065198974 0.0011890108 0.012985907 0.01550725 -0.00063828053 0.008201967 0.026066693 0.014025024 -0.041073415 0.024069244 -0.070557535 -0.011769463 -0.044391572 0.0158632 -0.021624016 0.07406806 0.081083454 0.0048455023 0.06018815 0.010338224 -0.048702467 0.024321532 -0.046264946 -0.03836907 -0.020947827 0.02913216 0.08383718 0.037970334
go 0.12068258 0.11301438 -0.022187011 0.01866654 0.046253633 -0.031640474 0.075429164 -0.11243319 -0.05974324 0.1026608 0.053550508 0.06527195 0.0020588492 0.08717807 -0.051996287 -0.058635656 0.08603527 -0.0063811177 0.049561426 0.021764725 0.090305716 0.103269555 -0.06218234 -0.12720187 0.09010636 0.0032036838 -0.034209263 -0.049173962 0.050337978 -0.012783733 -0.06074589 0.09438421 0.057360925 -0.0358636 0.12009245 0.03747735 -0.06654578 0.07355487 0.008449066 -0.03520153 0.09804702 0.050296456 -0.06880284 0.055805515 -0.08159178 0.037908882 0.0011236834 0.027370531 -0.01004163 0.08475995 -0.09658146 -0.030823957 0.015505346 -0.017178351 -0.087120995 -0.0038259246 -0.089645565 0.05338066 0.0462806 -0.034107856 -0.116683416 -0.0012458733 0.110222936 0.06522164 -0.106812045 0.02598827 -0.0028743974 -0.0765191 0.012066683 0.10604343 -0.036911488 0.0071528773 0.08204139 -0.04975623 -0.03336732 0.066502154 -0.060135424 -0.031186482 -0.14612587 -0.04990724 0.11523935 -0.015154183 -0.033875287 0.07145425 0.03197901 -0.0747111 -0.0034283279 -0.14353165 -0.13721706 0.013179902 0.023530014 -0.08310622 0.078470916 -0.09934822 -0.0056150793 -0.06183105 -0.09326013 -0.05749857 0.016771697 -0.08499903 0.034768168 0.033331156 0.036967546 -0.031394888 0.021362836 -0.1094272 -0.03217634 0.022629496 -0.0040166597 -0.008251185 -0.037264053 0.026807122 -0.08512299 0.018388126 -0.002907948 0.12958016 0.024996787 0.099115044 -0.011421789 -0.019041877 0.11405846 0.016390674 0.078491546 -0.051675405 0.10386207 0.05703734 -0.013353819 0.008713774 0.09070998 0.04821456 0.08974957 -0.060048435 -0.028943755 -0.04030942 -0.11706713 0.054735202 0.053453367 0.084832124 0.042821325 0.030641915 0.06840059 -0.02720099 -0.017862095 0.060624626 -0.06964426 0.10039575 0.047478978 -0.05773079 0.02968323 0.067717925
bird 0.012516097 -0.021368995 -0.056255743 0.053734973 -0.023816105 -0.047808927 0.023350624 -0.027270067 -0.04070788 0.046277482 0.028445536 0.032317404 0.02617786 0.06634433 0.052481584 0.032348614 0.023050766 0.02293434 -0.01182768 -0.0022876707 0.031818368 -0.008193595 -0.020149987 -0.023545902 0.052636042 0.06810683 0.07625848 -0.05587068 0.018727854 -0.060169317 0.031039296 0.046942443 -0.013443805 -0.048503198 -0.007945461 -0.04199149 0.04511349 0.07026114 0.031866927 -0.01107289 -0.013612108 0.047238413 -0.006747509 0.039275136 -0.08726653 -0.061296176 -0.023452394 -0.014407814 0.0012716139 0.057200555 -0.064679146 -0.02934038 -0.0051918756 0.035044964 -0.024764556 0.067653574 -0.10768038 0.023995692 0.021014957 0.009698594 0.015243441 0.019145714 0.047833312 0.046534766 -0.05414101 -0.0068835495 0.05422428 -0.0084615555 0.031148303 0.060193796 0.01347384 0.0420522 -0.017038377 0.00030958722 -0.029883314 0.07559715 -0.006842207 0.0052457657 0.017228294 -0.020813448 -0.010032724 0.041132886 0.025533691 -0.0011194369 -0.028439568 0.058998078 0.01929275 0.026318582 -0.05990194 0.03936503 -0.036852483 -0.029633021 0.006342156 0.08070003 0.02187347 -0.02722869 -0.0004862314 0.015865155 0.014078058 -0.003673517 -0.06686365 0.004183231 0.09361338 -0.06918986 -0.047302548 -0.0234706 -0.04678594 0.006083114 0.004557865 -0.025827624 0.024356116 0.0641623 -0.002273758 0.0094997715 0.04344938 0.0051403465 0.024391819 -0.02581729 -0.048995778 -0.029621318 0.0644328 0.038581412 0.01231015 -0.0107339155 -0.040814515 0.054571766 0.047362756 0.01010081 -0.002680304 -0.020874886 0.061832942 -0.024541711 0.03602793 0.008123377 -0.03852631 -0.07906714 0.0743144 0.022773476 0.0538395 0.020993747 -0.0030561183 -0.05033928 -0.04737039 0.0129036615 -0.07426588 -0.047151335 -0.026548952 -0.01008736 -0.0063312566 -0.0006508117
general 0.04344474 0.039926887 -0.0326511 0.048812848 -0.034907088 -0.019121572 -0.03738889 0.039585657 0.04461086 -0.06666343 0.01547278 0.052719958 -0.0384174 -0.051155366 0.03538083 -0.014607901 -0.010414786 -0.026812907 -0.013883855 -0.007054131 0.031236626 -0.0031190102 0.009679574 0.042538077 -0.0052637807 0.036907267 0.028866556 0.022854881 0.0337689 -0.0103187505 0.04415893 0.043569207 -0.011364422 -0.011816795 0.022286573 -0.011785462 0.010119763 -0.020375602 0.039905835 -0.061186567 -0.05663663 0.034463868 0.012070548 -0.020920724 0.012102622 -0.0475749 0.04162981 -0.059983958 0.0640764 -0.044181693 -0.015039523 -0.03439065 0.0496677 -0.0076657413 0.030987281 0.05677333 0.04579764 0.029468413 0.01968102 -0.0058263685 -0.006271769 0.0016495325 0.05955867 0.024709513 -0.008524719 0.04036261 -0.019142967 0.033585697 0.050118152 -0.016291412 -0.022242121 -0.0036765782 0.024571992 -0.04624498 0.056543723 0.03136251 0.014170813 -0.030258978 0.038999874 0.031923328 -0.008689896 -0.048503526 -0.013383449 0.0071069114 0.01154977 0.025992857 0.052158896 0.027109634 -0.039566405 -0.055698015 0.003566966 -0.014317183 -0.027329512 0.013095028 0.011914634 -0.045471713 0.027733821 -0.024000661 0.008628921 0.011542422 -0.022901326 0.053660903 0.004503995 -0.040784284 0.029370803 -0.062882334 0.028521808 -0.004408909 0.01286843 -0.033038836 0.04484197 -0.032973163 0.033865407 -0.031719346 -0.0037456346 -0.027824111 0.009501495 0.028195385 0.060299512 0.01822917 0.0015666308 -0.015418806 -0.053146068 -0.050259173 -0.036102206 0.046383355 0.033651277 0.03738657 0.0055649304 0.0258268 0.025994677 0.0064820917 0.036797263 -0.006729783 -0.007713127 -0.04123509 0.021763874 -0.004575985 -0.014878286 -0.025445646 0.037006512 0.034205522 -0.013071172 0.014656856 -0.03693452 -0.016514543 -0.025862288 -0.02297976 -0.0028804636 -0.043688923
our 0.10672096 0.112774424 -0.096021235 0.07384806 0.018642493 -0.124932915 -0.016701495 -0.07973551 -0.038548317 0.040074352 0.04255381 0.071730636 -0.053927265 0.045670822 0.112937495 -0.0367204 -0.018090703 0.0697973 0.0632667 -0.082317725 0.043912273 0.06724332 -0.110723585 -0.09505693 0.09762405 0.033522807 0.005787902 -0.056698095 0.11470015 -0.0847867 0.014538575 0.06574256 0.05737844 -0.045908954 0.11889421 -0.0971811 0.019694572 0.057732698 0.021016162 -0.0901865 0.052958664 0.10493834 -0.14165652 0.073786825 -0.019425768 -0.09842061 -0.0852735 0.04745304 -0.06245349 0.079855435 -0.07398397 0.069268204 0.038423747 0.06315932 -0.093313396 0.08556375 -0.09535208 0.18735446 -0.039350506 -0.0030156542 -0.031666905 -0.00964446 0.05266191 0.029754354 0.002704251 0.07039623 0.0757536 -0.090639286 -0.041886836 0.08796859 -0.059234474 0.041437846 0.09832224 -0.058563545 -0.12090246 0.02611405 -0.036011014 -0.096433744 -0.009287985 -0.09981649 0.11365099 0.09130639 0.11344867 -0.034397382 -0.079406 -0.012897004 0.096395686 -0.10419758 -0.042662874 0.05509955 -0.1115838 -0.10174225 0.03531963 0.088715665 0.028752416 0.027189156 -0.10041988 -0.056860056 0.06809187 -0.07979195 -0.035047825 0.06477387 0.07348567 -0.021978471 -0.080262825 -0.07319155 0.053124797 -0.051994015 0.072809674 0.04984287 -0.050045017 0.060078047 -0.06300813 0.11105982 -0.03215111 0.09892458 -0.008774206 0.038838483 -0.07925919 0.08243252 0.08048439 0.028296456 0.052809365 0.007020989 -0.057822015 -0.0074117547 0.029450227 0.1326543 0.09989564 -0.10282351 0.060604192 -0.06836386 -0.07007263 -0.08528236 -0.0862598 -0.06685311 0.008447274 0.09390949 0.065405935 0.11293901 0.080453746 -0.04891537 -0.06500782 0.058386493 -0.10653902 -0.03374181 0.07443324 -0.071630634 0.040339984 0.08142083
mistake 0.008898514 -0.058120675 -0.014571467 -0.004700821 -0.04798645 -0.03440435 0.0470163 0.056641027 -0.03562615 0.016853435 -0.056188807 0.010464884 -0.009719672 0.0068370746 0.0035189933 -0.01321084 0.05320677 0.012905822 -0.04313202 -0.02557152 0.010018511 -0.032697547 0.012635026 0.011370656 0.018207049 0.009200112 -0.038192727 0.027556317 -0.018930612 0.005419901 0.020122068 -0.014079608 -0.029631943 -0.04636584 -0.03994727 -0.03341526 -0.05403314 0.044453036 -0.032981094 0.01570353 -0.0469627 -0.047353566 0.0062545235 -0.061214592 0.018723363 0.0033556516 -0.013366374 -0.06171286 0.050497226 -0.032265935 -0.032644212 -0.074473865 0.022025796 -0.047647957 -0.0032292064 -0.012433923 0.026519347 -0.028730135 -0.047706127 -0.0042400616 0.03250819 0.04687234 0.041319165 -0.03490468 0.021284115 -0.042492174 -0.014454919 0.026307955 0.031883195 -0.050254155 -0.023454197 0.019289156 -0.0068999026 0.025295544 0.037387498 0.008786537 0.01671889 -0.013142745 -0.02976493 0.045238636 -0.028737575 -0.022697857 0.02872548 -0.019458024 0.05559776 -0.04250555 0.011329458 0.020519292 -0.013016983 -0.016948037 0.035202984 -0.008074954 -0.005534523 -0.00046114303 -0.009945215 -0.008151987 -0.041547097 -0.022210574 -0.039302588 0.04615348 0.036068115 0.050981063 0.03013803 -0.025583923 0.023948453 0.026599208 0.042605214 -0.052268438 0.00044720108 -0.021709692 -0.0022718322 -0.0013014013 0.033247713 -0.00013301015 0.019345157 0.005645821 -0.04406155 0.030034583 0.05875914 -0.0038463515 -0.00823884 0.019943899 0.015258904 0.0057399767 0.012536614 0.01418525 0.03994313 0.01096039 -0.017945418 0.05670584 -0.02719713 -0.028136667 0.0053049307 0.020964587 0.0097886855 0.038175732 -0.021838326 0.044842105 -0.03161343 0.011462336 0.05063027 -0.031123413 0.019670691 0.032782603 0.05274469 0.027555423 0.034248445 0.014408781 0.0275492 -0.020643096
pointed -0.04652787 0.05600375 0.05387287 -0.01730217 0.04306504 0.043707144 0.042744134 -0.061271884 0.004832292 0.028636977 0.05105328 0.03626728 -0.05013756 0.064450145 0.0022886882 0.037617333 -0.0013451709 0.02034902 0.0789486 -0.036781896 0.031000623 0.06756558 -0.048667535 -0.039388943 0.041281365 -0.046935122 -0.02490072 -0.0423728 -0.02489237 -0.045255236 0.0076456433 0.017038655 0.05101466 -0.048146676 -0.014545522 -0.0026176383 0.031600114 0.005756644 -0.011449155 -0.03708476 0.05798096 -0.031384155 0.02481218 -0.0382709 0.028349815 -0.011182082 -0.046878844 -0.02754295 -0.048721958 0.017721009 0.0264952 0.0042725746 -0.022558378 -0.00089527573 -0.039235298 0.0034151224 -0.049002796 -0.030461734 0.021281496 -0.01806281 0.0072041573 0.049803592 -0.010086986 0.045088287 -0.0037025246 -0.03934886 0.020323578 -0.05516483 -0.06417805 -0.004457769 -0.00015461375 -0.061484843 -0.0040777316 -0.06626989 -0.042537455 -0.001647793 -0.022329563 0.029796712 -0.012387148 0.025493756 0.042766515 0.01556232 -0.020129979 0.0075379517 0.036197457 0.014660718 -0.020259263 0.030961562 0.019437546 -0.01879495 0.02612277 -0.007086477 0.023383463 0.028385995 0.00843673 0.026227567 0.022231614 -0.03274165 -0.018159458 0.009406403 0.034760695 0.06828183 0.019465268 0.04600801 0.0055608405 -0.010134097 0.04492676 0.027768394 -0.0401269 0.047553223 -0.04614501 0.058687214 -0.036807247 0.02390498 0.0011523865 0.054469276 -0.017927112 0.015623302 0.0037750658 -0.03438857 0.002448831 -0.0136462245 -0.00079044886 0.048097618 -0.039103433 0.007950703 -0.032904115 0.02233288 -0.013111859 -0.038505353 0.042873584 -0.029070096 -0.046388514 -0.0012066972 0.039920013 -0.046048857 -0.01620726 -0.045425747 0.016373893 -0.0077709053 -0.012997004 -0.056359556 0.033847123 0.03551975 -0.016161507 0.034364644 -0.013449922 -0.030186882 -0.028771281 -0.06417953
fishes 0.00023460889 -0.003958451 -0.0064373896 -0.004760977 0.04233812 0.023438426 0.02272942 0.02443879 0.0050825384 -0.016071975 -0.019433068 -8.396874e-05 0.027407028 -0.02815651 0.009952137 -0.008582987 -0.0176287 0.051161524 -0.022515958 -0.035627145 -0.0323752 0.0013889652 -0.012800831 -0.03191674 -0.028328778 0.012502802 0.0030904454 -0.052269865 0.039798066 0.015609884 0.04970193 0.012413458 0.020229097 0.0033748713 -0.015521855 -0.05678917 0.016620522 0.030773738 -0.020780386 -0.02749405 0.06824646 -0.020489376 0.03124079 0.05120561 -0.02241983 -0.023061637 -0.031387225 -0.021485452 0.008489402 0.030116746 -0.023530181 0.0059003695 0.05648208 0.005621112 0.0124845505 -0.012045563 -0.030906515 0.042819712 -0.015014416 0.03978489 4.168495e-05 0.021585228 -0.03156907 0.0006828696 -0.06563664 -0.006917613 -0.039337017 -0.017958945 -0.06371926 -0.019554058 -0.01487771 0.010837894 0.015866099 -0.010329313 0.011436643 -0.012055232 0.0014617217 0.028245905 -0.04316659 0.0016195446 0.021253599 0.018507501 -0.033083934 0.015426804 -0.0030924426 -0.009987991 0.043513536 -0.014515254 0.015970808 -0.04270822 0.01864217 -0.041984096 -0.008504287 -0.01471669 0.045766708 0.08006729 -0.039174423 -0.023067776 0.050462637 -0.0077101993 -0.054058984 -0.02235414 -0.006260345 -0.028417036 -0.026943268 -0.050905045 -0.004192888 0.0077793533 0.06771899 -0.04524506 0.0020612038 0.012397021 -0.013997114 -0.0067377193 -0.0014545543 -0.012499402 0.04225494 0.04184629 0.0029547638 0.016716233 0.026647259 0.011857817 0.005448576 0.06559815 -0.0016753174 -0.0044207256 -0.01971623 0.061377767 0.023561303 0.027625699 -0.017540231 -0.039295036 -0.01818696 -0.045900423 -0.034088917 -0.056160208 -0.011248571 0.05532776 0.045568697 0.03714227 -0.026920592 0.022550883 -0.024377229 0.028673515 -0.0010067658 -0.035646524 0.008633293 -0.021594783 -0.0029816297 0.019586835
head 0.048401646 0.13574213 -0.056343824 0.121675566 -0.07916927 -0.10868212 -0.029387059 -0.059670027 -0.068817675 0.038265 0.002916307 0.10707003 -0.008782902 0.010425575 0.102773 -0.010429318 -0.05632201 0.07406805 0.02277134 -0.03941224 0.10773084 0.0884563 -0.08573789 -0.019193469 0.015619166 0.043174163 0.017175635 -0.12105875 0.010355883 -0.069128335 0.04018244 0.1032437 0.04279237 -0.07961677 0.04855965 0.005042756 -0.0007631 0.0066216066 -0.030074516 0.002888953 0.035595056 0.12829405 -0.08335672 0.0778744 -0.046828914 0.052632377 -0.085611925 0.003735316 -0.019543286 0.014970596 -0.07900342 0.13264832 0.10132431 -0.016642638 -0.087475024 0.039890368 -0.04225272 0.07062703 -0.06991234 0.0027336138 -0.13648957 0.022032382 0.08178513 0.02178213 -0.067377515 -0.010162818 0.060999073 -0.032759894 -0.051881693 0.039814837 -0.056859177 0.055430256 0.08956769 -0.09720225 -0.09336566 0.0059494427 -0.018934865 -0.07312789 -0.06914248 -0.1200572 0.037248947 0.03796861 0.10747201 -0.0077347 -0.0356628 0.01164141 0.1463343 -0.11199661 -0.023452839 0.002528159 -0.004242765 -0.13795356 0.13088945 0.04129914 0.01933988 -0.05265323 -0.073321216 -0.01567798 0.10559889 -0.098085135 0.03752337 0.05136636 0.06954081 0.002092824 -0.029127806 -0.096996985 0.025946988 -0.034404755 0.025900329 -0.03816774 -0.064595975 0.017705334 -0.050397698 0.026662339 -0.0029164525 0.017081719 -0.056048468 0.012659764 -0.029446347 0.021510387 0.0654829 0.01721359 0.029797576 0.041654192 0.03687577 0.038800016 0.096438184 -0.011691967 0.0015636522 -0.07446628 0.09763676 -0.0011641083 -0.036101382 -0.0473801 -0.111412846 -0.05572389 0.07392455 0.064371586 0.07683003 0.048600946 0.067906566 -0.010025194 -0.081492506 0.040194344 0.005892102 -0.05878455 -0.036599588 -0.09817828 0.05252006 -0.041974917
let 0.04998324 0.1669018 -0.096010655 0.11513697 0.09598865 -0.10865011 -0.0002922918 -0.06842726 0.023175463 0.070241064 0.07232853 0.065948464 -0.044548724 0.12757802 0.10924359 -0.14973436 0.012652861 0.17127359 0.092349164 -0.10551855 0.0021487924 0.030872524 -0.07600302 -0.1224024 0.08111001 -0.012321622 0.024727136 -0.13637802 0.036581773 -0.13323063 0.12858433 0.08216868 0.031813927 -0.06975891 0.058839146 -0.06163734 0.05275407 0.033565857 0.025424046 -0.13645223 0.06596461 0.098895214 -0.061863627 -0.028086085 -0.073266745 0.038650386 -0.11813261 0.012874273 0.03742302 0.035901092 0.024398502 0.057893187 0.038305193 0.050328817 -0.06201521 -0.087245025 -0.07304612 0.15590866 -0.119467 0.036491323 -0.12762105 0.062160008 0.16649306 0.053455085 -0.07864429 0.12000428 0.16937985 -0.006617633 -0.012029672 -0.034404133 -0.14119674 0.119455904 0.039373234 -0.17011726 -0.084394805 0.122563474 -0.1294409 -0.042082705 0.040945027 0.011355329 0.08059513 0.08341444 0.06538538 -0.091271974 -0.06222635 -0.07106449 0.07310308 -0.14160831 -0.16622011 0.029176945 0.17168912 -0.021064872 0.042386174 -0.07797793 0.012228149 -0.04076521 -0.15263386 -0.14851505 0.015438799 -0.12272789 0.028756564 0.08482532 -0.0045157224 -0.09085228 -0.10602947 -0.12055765 0.1377543 -0.06670485 0.08058094 0.057938516 -0.122300796 0.15173034 -0.14407209 0.0052798535 -0.18572223 0.06530353 0.024451803 0.07953462 -0.0597548 0.11923336 0.07507954 -0.0011387243 0.03037956 -0.120893374 -0.06502079 -0.14804177 0.059890196 0.051819913 -0.04561759 0.03822281 0.09357448 -0.025879644 -0.07695253 -0.02220988 -0.112262994 -0.053647667 -0.06800218 0.097681716 0.04779618 0.10746747 0.15054746 -0.038719486 -0.05905662 0.15880103 -0.08364275 -0.0017292523 0.104071416 -0.016021488 -0.017798144 0.0788581
wonder -0.08583603 0.17344233 -0.11935061 -0.08777749 0.050038494 -0.10523848 -0.08366541 0.014360218 0.053647462 0.071539775 -0.053189173 -0.06769999 -0.10525949 0.10385615 -0.04926173 -0.073985614 0.06198689 0.11966031 -0.049595974 0.12074973 -0.021687726 -0.089884676 -0.040146682 -0.13355371 -0.0027037323 -0.10628991 -0.010085578 -0.118467525 -0.15817928 0.1546666 -0.074313655 -0.048593003 0.110371664 0.071715735 0.044078436 -0.035236124 -0.056576204 0.20741713 -0.061604038 0.090050995 0.089886144 0.10406015 0.16168492 -0.11291512 -0.15461822 -0.1327801 -0.12908827 -0.13510509 -0.09034589 -0.009467677 -0.08167611 -0.0332046 0.11235396 -0.03615081 -0.17369404 -0.14679082 0.09455001 0.21456885 -0.026630018 0.063791595 0.07307794 -0.06894701 0.06750123 0.031511664 0.0178208 0.07396271 -0.08883357 0.087476306 0.023551255 0.19821 0.033685137 -0.04342221 0.13238013 0.1062529 -0.18526404 -0.015718881 -0.011519937 0.07369131 -0.08075605 0.008866169 -0.06767992 -0.008910963 -0.039884664 0.06938787 -0.09194905 -0.13364263 -0.06782446 -0.08379171 -0.0007679912 -0.092075504 -0.13178189 0.0053974334 0.033382356 -0.02172835 0.14328833 0.06719468 0.025044218 -0.12650095 0.09076087 0.06634179 -0.110356756 0.1318007 0.013975265 0.17770143 -0.08094795 0.116567224 -0.15555078 0.043548085 -0.04238479 -0.16612317 0.03908474 0.21675183 -0.052882425 0.03659771 0.00045106545 0.12155215 -0.04701334 0.09522749 -0.1804228 0.06504444 0.15552472 0.17298624 0.02124404 0.1145527 -0.12238112 -0.0051768064 -0.10524002 0.13889575 0.08523428 -0.00034311143 -0.101137176 0.1517679 -0.0576471 -0.1468671 0.04713625 0.0897508 0.0347123 -0.06317445 0.12562065 0.08620669 0.17474058 -0.10529019 0.010670507 -0.05865968 -0.116345055 0.060244653 -0.03380002 -0.1052565 0.060634807 0.049248643
bye -0.0047948845 0.0345093 -0.010251725 0.049300883 -0.027642129 0.0257638 -0.016479978 -0.010230863 -0.05745463 0.058794606 -0.0065504014 -0.02226147 -0.009753319 0.036253102 0.025074398 -0.022932071 0.017025756 -0.03614546 0.044541813 0.028178168 0.006041333 -0.015006356 0.02579685 0.018969193 0.011396458 -0.013734678 0.057211388 -0.032514304 0.039461214 -0.027235819 0.031810764 0.028210811 0.03981809 0.009270015 0.059687052 0.034871392 0.0697197 0.015173356 -0.032930817 -0.008369905 0.0025313164 -0.009905541 -0.009021165 0.0035050553 -0.018671393 -0.036555428 -0.0037214211 0.015199228 -0.011348929 0.055773735 -0.05813815 -0.007912788 0.030540055 0.004667682 -0.02737471 0.00731958 -0.05689681 -0.021141056 0.02310603 -0.012165984 -0.009212499 -0.01698132 -0.03481964 0.022649378 -0.061333925 0.009721536 0.04832492 -0.06274356 -0.0052552214 0.04148793 -0.03376912 0.06451028 -0.02948246 0.032136712 -0.011119063 0.004292731 0.0016253004 -0.02514291 -0.020617647 0.030646864 0.024537563 0.0521537 -0.013923514 -0.030030927 -0.024669392 0.044921946 0.042698696 -0.036585987 0.03141064 0.013791442 0.02501039 -0.033303667 -0.00058641075 -0.016202156 0.004104761 -0.013913267 -0.038647246 0.0014125248 -0.01178762 0.018610457 0.01860968 0.003986364 -0.01675404 -0.029409671 -0.00581235 -0.060420003 0.03070029 -0.04352681 0.020810677 0.007307814 0.01774891 0.015709769 -0.051034443 0.052837312 0.0071737715 -0.017027162 0.022621658 0.0020217998 -0.0016244417 0.0039461683 -0.015853716 0.06349979 0.046352953 0.0554037 0.06357318 0.018909035 -0.032675847 0.07297561 0.010473888 0.00991699 -0.010302993 -0.017117219 0.027564896 0.031770855 0.016194193 -0.0071662674 0.009455938 0.030174987 -0.009680199 0.068126015 0.040689547 -0.05096384 -0.04312928 -0.04111165 0.0014032722 -0.06134139 0.02564021 -0.07045208 0.042682018 0.021326488
ran 0.042821262 0.018500574 -0.06404985 0.018272525 -0.09620895 -0.017682835 0.022913765 -0.098406434 -0.10601536 -0.037753638 -0.036854 0.056338277 -0.07171519 0.04509045 -0.008161845 -0.01987823 -0.060728382 0.044972625 0.050655942 0.010752374 0.051539455 -0.009844795 -0.078452125 0.036273576 -0.00029859273 0.008975067 0.05217233 -0.060682673 0.0009851413 -0.07120651 0.10939815 0.037350208 0.10251106 -0.02925017 0.04758059 -0.060906693 0.05346452 0.051714823 0.03389576 -0.09840046 -0.05016651 -0.03634641 0.02066653 0.084050916 0.035637017 0.028685467 -0.0705264 0.044905685 0.008660768 0.012472053 -0.112205885 0.055201504 0.0059766322 -0.021322945 0.036162928 0.023674915 -0.005982023 0.0011771101 -0.028494695 0.03830336 -0.01443607 0.0022462716 -0.011197229 0.10012517 0.037092395 0.010915527 -0.05372991 -0.07357866 -0.06950288 -0.018620554 -0.06713196 -0.0014368533 0.04640712 -0.003393407 -0.02900475 -0.050181113 -0.04046844 -0.10355476 0.05468573 -0.00069991214 0.12077271 -0.009335617 0.01642307 0.014353047 -0.08419349 0.091908716 -0.0036769975 0.059905715 0.05585339 0.10872149 -0.03919669 -0.017755061 0.030910691 0.05518036 -0.052265696 -0.019359004 0.038234297 0.013149511 -0.022293279 0.0341387 0.07996144 0.006003877 0.02816825 -0.031370915 -0.019827822 0.022838106 0.050778348 -0.13677919 -0.027446471 -0.049059227 -0.035065364 0.08560387 -0.020811599 0.09695426 0.010123652 0.04374663 0.0223681 -0.053762082 -0.044000786 0.15967423 -0.0021894241 -0.05041064 -0.06552129 0.040431093 0.014631246 -0.0022326019 -0.02903792 -0.041817196 0.046140008 -0.047446664 -0.028914189 0.029690718 0.040641148 0.038406268 0.0466994 -0.08118113 -0.072553255 -0.0004670589 -0.018698428 0.05611827 0.062217478 -0.08191741 -0.06596261 0.04560297 -0.043186843 -0.04385823 -0.038974766 -0.033970043 -0.05482582 -0.11596775
hate 0.04348321 -0.0023156416 -0.025625367 -0.021993175 -0.0066113137 -0.070462026 -0.02638603 -0.06496986 0.009013619 -0.03390558 -0.012903066 -0.04943205 0.0077057923 -0.032688897 -0.044423617 -0.032957017 -0.016668752 0.062171582 -0.05072043 -0.006753871 0.04184297 0.041619405 0.017061964 -0.09491807 0.01317107 0.018581647 0.0059131365 -0.018400084 0.041975852 -0.0057056583 -0.03441425 -0.04725914 0.07727186 0.021578822 0.011276361 -0.0020547924 0.012265726 0.035740774 0.059396315 0.056287684 0.06576585 0.018616384 -0.012464918 -0.022250947 -0.08227534 -0.039590016 -0.019984242 0.011220727 -0.07438776 0.012743517 -0.07441483 -0.030737393 -0.042460423 0.0015679422 -0.018409746 0.037481997 -0.009211259 0.056150053 -0.0040413896 -0.06670864 -0.057134617 -0.008078904 0.023232589 0.045000296 -0.02788524 0.017996872 -0.01825233 -0.038004883 -0.017319916 0.06283709 -0.03499453 0.07734568 0.010041247 0.018200282 -0.124298505 0.01001475 0.026407102 -0.073949955 0.0036665986 0.011852863 -0.051885128 0.013680597 0.016526924 0.009061349 -0.026871387 -0.04320044 0.011305235 -0.048252642 0.04815407 0.053857446 -0.108241975 -0.074723005 0.06604626 -0.0051517845 -0.010476519 0.1179346 -0.016182378 -0.07036392 0.042767033 0.009371188 -0.026393797 0.048053645 -0.012887326 -0.040770233 0.006327796 -0.04034747 0.029305238 0.026406687 0.048010007 -0.0032429234 -0.040924523 0.064013265 0.005348638 0.05116251 -0.045680743 0.0317303 -0.014541174 0.058177784 -0.0029396676 -0.010742189 0.07392978 -0.06957135 0.036262043 0.0056670452 -0.070483595 -0.0049847546 -0.037504874 0.05084937 -0.017170781 -0.05555442 0.02738152 0.032054495 -0.0011791941 -0.0023262931 -0.090265036 -0.046745475 -0.024872608 0.04148837 0.09414244 -0.0013435917 -0.02647307 0.018407995 0.017136171 0.06189297 0.013572147 0.009492054 0.060937352 -0.06688962 0.038347516 0.0365749
venture -0.051075183 0.06424773 -0.010323258 -0.011516567 0.041894946 -0.049217947 0.031980135 -0.043449394 0.054314423 0.014564715 0.021241084 0.038435977 -0.00041964173 -0.008583103 -0.028540472 0.04524968 -0.032890763 0.022497706 0.0012332705 0.020984972 0.027174694 0.03367247 0.014248804 0.03485103 -0.011297262 -0.040890828 0.02507264 -0.07828074 -0.012986676 0.025505649 0.0111424215 -0.0010873516 0.05938881 0.005214601 0.0067154914 -0.034810066 0.01942882 -0.028395606 0.02958201 0.016873403 0.069555484 0.013665639 -0.047636095 -0.056864243 -0.05528226 -0.0536975 -0.052480083 -0.025354814 -0.020387925 0.02727862 -0.017184032 0.015909314 0.049817238 -0.021696368 -0.05387983 0.03007357 0.00022496632 0.030914703 0.01373495 0.023623973 -0.033485364 -0.040901456 -0.018766837 0.036724072 -0.0018535249 0.039170936 -0.035185684 0.047906052 -0.019682195 0.03839945 0.026799386 -0.049558666 0.050016984 -0.055596862 -0.016892724 -0.017767241 -0.017507695 -0.040156346 -0.03853848 -0.056596443 0.04278915 -0.048161726 -0.001839797 0.05593921 -0.0027013512 -0.000751141 -0.0008248063 -0.028589796 -0.038564134 -0.0057070274 -0.049336325 0.02201359 0.005117833 -0.044367485 0.07079094 -0.041962598 -0.083321534 0.024627114 0.0123059135 -0.009970891 -0.023736283 -0.005363598 -0.011238755 0.0068017915 -0.03132067 -0.006817968 -0.0016230252 0.047069464 -0.0491144 0.024205815 -0.017445572 0.055036996 -0.017301207 0.016200092 0.054371603 0.0070237573 0.00617449 0.067742705 0.00023243949 0.020699196 0.07824617 0.019156545 0.048820082 -0.00531967 -0.014027763 0.031819507 -0.025929369 0.032616477 0.035053357 0.016857954 -0.029115422 -0.008359102 0.031130563 -0.022967499 -0.005307913 0.033984262 0.019116959 0.01016015 -0.018711548 0.007749154 0.03711957 -0.06257328 0.008726293 0.028124902 -0.051961355 -0.029803932 -0.06624907 0.019560372 0.046793316 -0.039383177
matter -0.005258407 0.055865016 -0.03738734 0.08547861 -0.030136406 -0.052792344 0.01178097 0.012951562 -0.012135813 0.09012227 0.037989814 0.053012237 0.013674511 0.01800169 0.050040297 0.0074473266 -0.03332302 0.03539284 -0.009000765 -0.023315182 0.095306404 0.004085656 -0.017916834 -0.05164694 0.0010655615 0.08109423 -0.011333156 -0.024957743 0.022447083 -0.02364937 0.016770627 0.048161574 0.06817093 -0.08657359 -0.022887431 -0.024117975 0.08080846 0.07148728 0.0042521087 -0.025553556 0.016037902 0.057182167 -0.06464939 0.059454266 -0.001792806 0.007668998 -0.013890953 0.06192941 -0.014359717 0.026004642 -0.07032012 -0.026802383 -0.014899047 0.05110514 -0.05772597 0.07702937 -0.04367914 0.06230956 -0.02099367 -0.041789714 -0.005944507 0.07121832 0.050865687 0.008293408 -0.039230336 0.04095795 0.0354357 -0.080373935 -0.07028126 0.04019719 -0.012727583 -0.019383049 0.049355168 -0.092740886 0.0018135968 0.024993148 -0.08084492 -0.0693978 0.02870672 -0.05355691 -0.000838552 0.048448335 -0.017334659 -0.044240993 -0.006727551 -0.009346035 0.013165927 -0.052295502 -0.056061894 0.09333089 0.024961838 -0.02402348 0.044530243 0.010038677 -0.04524986 0.028864572 -0.07119276 -0.03634399 0.040396538 -0.075113185 0.009491435 -0.007398495 0.069895834 -0.03357335 0.010719641 -0.058442995 0.093875326 -0.05132545 -0.005133256 -0.024675872 3.8060884e-05 0.041262712 -0.05865415 0.07078785 -0.07638834 0.0075838533 0.027414225 0.08586957 -0.08994796 0.026343402 0.07962581 0.04933371 0.008611238 0.01721372 0.090374894 -0.026213985 0.071911074 0.018604876 0.016862337 -0.0040881475 0.053196453 -0.012689902 -0.075282544 -0.024597451 -0.078585185 -0.07018097 0.06616428 0.052165695 0.06928755 0.04788634 0.0051035313 -0.050167978 -0.04612209 0.03273284 -0.076085754 -0.0041248924 -0.009748778 -0.014860149 -0.029399963 -0.050949417
hippopotamus -0.035828087 0.016320331 -0.05900983 0.031769633 -0.04118894 -0.038663507 -0.023998227 -0.06122686 0.0054329745 0.050619517 0.030780444 0.00010720547 -0.06990158 0.040810943 -0.021920625 0.024374632 -0.014829628 0.08646387 0.074140035 0.008833934 -0.007810666 0.0020276182 -0.062453356 -0.0075506996 0.034618616 0.045257844 -0.0006744161 -0.055178944 0.07839143 -0.054617997 0.012797989 0.0100201955 -0.008033717 -0.067236476 0.03183473 0.0075315023 -0.012148988 -0.0072723944 0.04823616 0.0143676475 0.031831145 0.021522144 -0.008140477 0.010297359 -0.07169612 -0.05694801 -0.037470493 0.013307208 -0.046659775 0.02226535 0.0039815158 -0.029362129 -0.018838376 0.0019793084 0.0044707637 0.072385654 0.013017647 0.06927879 -0.056180395 -0.022259882 -0.04268798 -0.008659861 0.051892854 0.069148615 -0.029407568 0.080132924 0.024944713 -0.060837403 0.022054844 0.012525155 -0.020362439 0.04252213 -0.00572328 -0.04234329 -0.0621019 0.06716031 0.0032241112 0.0024137585 -0.008150226 -0.048166607 -0.008012423 0.02796839 -0.015231052 -0.013309854 0.010617049 0.03770552 -0.019739933 -0.06326555 0.0035446992 0.010879323 0.01265018 -0.015994946 -0.040129624 0.010932258 -0.04201203 0.01885901 -0.054870125 -0.029590541 -0.028259259 -0.05221228 0.02018777 -0.009966012 0.008296365 -0.038818885 -0.0049079247 -0.041554496 -0.025292862 -0.0053602667 0.044021912 0.010151452 -0.074018314 0.050767623 -0.039557807 0.07020746 0.038099647 0.05423134 -0.0005715885 0.06513364 -0.019947737 0.069070324 0.056752324 0.05269558 0.03148799 0.032863483 0.07040413 0.052666835 0.056524314 0.060082987 -0.024519902 0.008496184 -0.0022238635 -0.0037736376 -0.023509834 -0.007528659 -0.07893401 -0.029856568 0.037384816 0.00095193135 0.032788783 0.065570526 0.0544839 -0.02754829 -0.017911848 0.06767445 -0.004401706 -0.016909499 0.046447486 0.022686198 0.062515855 0.020294338
yesterday 0.0012280717 0.029488694 0.021070365 -0.016582284 0.008932979 -0.04339542 -0.019436197 0.00060039456 0.006467321 0.05196554 0.041279435 -0.015950726 0.020647401 0.0749317 0.0028291238 -0.024180133 -0.041430946 0.054405518 0.053757478 -0.0070884833 -0.006316823 0.0672841 0.01503508 -0.038292054 0.016188933 0.023478497 0.066170916 -0.013401428 0.08141603 0.022373406 0.05585048 0.019999152 0.005523449 -0.050595444 0.011046223 -0.03258441 0.051092304 0.03228165 0.073437564 -0.030867767 -0.007991936 0.046500836 0.013016462 0.07806917 -0.036842845 0.021988798 0.020134723 0.042733096 -0.05007123 0.020685712 -0.02076354 0.020649282 -0.025739618 0.008187235 -0.07229956 0.025739122 0.0065159616 -0.0026595786 -0.0070356736 -0.01973265 -0.017086003 0.0038423648 0.014801682 0.002347933 0.031481072 -0.003086151 0.054494284 -0.06795598 0.028989185 0.011751975 -0.016742684 0.019823221 0.077221565 0.017505065 0.02554671 -0.012806862 0.008890169 -0.040122926 -0.0013305815 -0.074409574 0.021625262 0.031473525 -0.001811751 -0.030068355 -0.048442934 0.03214084 -0.006226932 0.008337669 -0.0346238 0.006235079 0.0016113468 -0.018961268 -0.00038573076 0.06185937 -0.009770991 -0.021951307 -0.058769856 -0.05116859 0.011262493 -0.0016304749 -0.012644456 0.0153222745 0.056938995 -0.05797134 0.021349479 0.01663674 -0.017207019 -0.090128005 0.023403984 -0.051037546 -0.07143566 0.0063657714 0.028872905 0.023649262 -0.0037767463 -0.0067950087 0.041614797 0.06349942 0.0035085054 -0.008597911 0.011881843 0.07659552 0.008692798 -0.006407153 0.02344587 -0.04478577 0.060353775 0.013999745 -0.009649862 -0.06815502 -0.0022922656 -0.046049234 -0.033935346 0.015740244 -0.024254397 -0.041161228 0.041611318 0.0055568134 0.059309926 0.06259188 0.008150277 -0.07151823 -0.049319725 -0.01880879 -0.011349257 -0.020067705 0.06265281 -0.05148115 0.006430079 0.0047903336
get 0.11647788 0.09096065 0.038001265 0.08421762 0.1349869 -0.087888725 0.066166595 -0.0011695962 0.08841063 0.11772286 0.1366886 -0.042011388 -0.07615353 0.08316441 0.071227044 0.1072422 0.046613306 -0.02505266 0.18959905 -0.051775765 0.03763115 0.11976554 0.0116759 0.02340143 0.045271993 0.00494704 0.05824633 -0.103149466 -0.004587848 -0.055769917 0.02881017 0.12100301 0.07349143 -0.05608206 0.15751594 0.05921973 0.033436485 -0.0026228179 -0.0021715304 -0.05589846 0.17213589 0.15055962 0.0064390935 0.10901472 0.08429802 0.16622438 0.05724145 0.053418513 0.038934894 0.17660582 -0.032221124 0.035910588 0.10190436 0.0337799 -0.083187304 0.044240166 -0.07842478 -0.05198102 0.043685596 0.060705695 -0.1844251 -0.07643082 0.05514501 0.11875841 -0.014860793 0.021439252 0.051043738 -0.097411655 -0.023610936 0.02679778 0.014973883 -0.08435624 -0.025784273 -0.19156457 -0.060065743 0.08175261 -0.011596566 0.019582987 -0.12841767 -0.07084734 0.17186217 0.044433694 0.050802715 0.069927186 -0.023371695 0.013406488 -0.011806525 -0.11447219 -0.19601966 0.085792415 -0.055267718 -0.16907331 0.1710407 -0.012032902 0.09053644 -0.15388286 -0.13212655 -0.04732052 0.049255032 -0.106978334 0.054617837 -0.0107736215 -0.033229496 0.0077226516 -0.02939741 -0.13322656 0.038671017 0.106481545 -0.10129255 0.114279285 -0.10390599 -0.080856405 -0.14081067 0.117435336 0.05238653 0.11447127 -0.080809414 0.122045055 -0.09377643 0.07620203 0.13525887 0.1059126 0.05962676 -0.21185853 -0.12898362 -0.106253974 0.033377405 0.072624624 0.029058378 -0.023380745 0.11662983 -0.03794269 0.049534444 0.08744172 -0.16319488 0.0009547549 0.006712205 0.11715122 0.05359552 0.19872491 0.010724491 -0.053208243 -0.06517682 0.17604916 -0.04366554 -0.06418611 -0.04841633 -0.05987282 0.02862393 -0.055261206
bats 0.07101339 0.09457222 -0.10515578 0.10758344 0.024424948 -0.069758244 0.04400886 -0.06444988 -0.07417753 0.11093944 0.07922144 0.019474944 -0.08480357 0.104837954 0.101866305 -0.016281169 -0.023782771 0.10665976 0.017616468 -0.1036785 0.005549849 0.08437682 -0.024976809 -0.109638445 0.050685417 0.065358825 0.052368958 -0.1134309 0.04807679 -0.061209615 0.028643481 0.065385334 0.03119118 -0.039487597 0.10557346 -0.08034086 0.036320567 0.014081583 0.023863418 -0.047553543 0.017791938 0.08764778 -0.017237097 0.03154401 -0.026981002 0.009071734 -0.08117966 -0.00366189 -0.026647033 0.081474274 -0.08202524 0.0644253 0.007609822 0.050807465 -0.06137337 0.027442144 -0.10121746 0.082157455 -0.0264493 0.05938879 -0.088895574 -0.041403774 0.031233946 0.11113207 -0.04651301 0.097130634 0.05770988 -0.05373595 0.034805037 0.022392841 -0.08219664 0.104884006 0.11353659 -0.06406955 -0.060652807 0.07763066 0.008745991 -0.09332946 -0.07270073 -0.11163423 0.008870387 0.10719867 0.03841966 -0.06938644 -0.048037045 -0.0068869637 0.010732359 -0.09741729 -0.066529155 0.018586451 -0.06350888 -0.07525587 0.10786353 0.036373276 -0.025032679 0.05562961 -0.045855626 -0.10553995 -0.0060522025 -0.07398365 -6.632367e-05 0.1367389 0.04486914 -0.064921156 -0.084335186 -0.097688496 0.022997303 -0.05115093 0.056358643 -0.024970684 -0.11087133 0.09155665 -0.018202111 0.03935892 -0.0064291363 0.08544258 0.092551105 0.04034863 -0.06328639 0.03800223 0.05365283 0.026153792 0.10374191 -0.03429672 0.058597237 -0.0777881 0.011189534 0.07723216 0.06566139 -0.013584999 0.037124105 -0.010725675 -0.08817243 -0.036543168 -0.06928118 -0.0024879477 0.057661645 0.12248013 0.007611796 0.048741385 0.053482614 -0.00077084854 -0.025205716 0.045344234 -0.06216859 0.045093283 0.08601506 -0.08949895 0.0052232514 0.052354503
tale 0.003989942 -0.01135911 -0.08677341 0.0003512464 -0.0016337619 -0.0100252 -0.010436738 0.009059575 -0.033283483 -0.054779094 0.030235268 0.043741867 0.06870555 -0.020864215 0.047063034 0.048563987 0.02554224 -0.00015880534 -0.049927417 -0.057968456 -0.03735441 -0.08536004 0.08087864 0.052371398 -0.00063292054 0.01639981 -0.017195337 0.014189526 0.025699759 -0.034643136 0.013057224 -0.0030957684 -0.077834696 -0.009849712 -0.04353303 0.013514491 -0.030848818 -0.05148391 0.031369887 -0.04644789 -0.053052627 -0.06902733 -0.088812806 -0.0022098068 -0.036674894 -0.055840313 -0.044717826 0.020499012 0.0258928 -0.042890176 0.042271372 0.014041665 -0.040005244 -0.007275571 0.045298386 0.026540134 -0.032377183 0.025032466 -0.042955443 -0.010645914 0.03580962 -0.0068734745 -0.0451647 -0.030332582 -0.0703977 0.041644443 0.038892794 0.015340212 0.033622485 -0.08131608 0.01957387 -0.022282742 0.008579513 0.021157058 0.057433844 -0.046189424 0.008424431 -0.0076627154 -0.023923881 -0.03627106 -0.008800101 -0.031218512 0.01992525 -0.03257567 -0.0061599636 0.008832268 0.032204535 5.2019837e-05 0.07660076 -0.015769914 -0.0383723 0.06098671 0.020079859 -0.011614181 0.027380466 -0.014594869 0.057316203 0.05760663 -0.04712851 0.07075766 0.04788377 0.042597324 0.06185159 -0.06557872 0.01661563 0.034406073 -0.05736069 -0.01962197 -0.053295944 -0.033410057 -0.006325801 -0.015687438 -0.036579352 -0.04878031 0.012090125 0.010797355 -0.008823036 -0.005545509 0.022104977 0.011598955 -0.05792442 -0.021424789 -0.021789914 0.017531654 -0.00349485 -0.018375786 0.0867552 0.049743906 -0.061325967 -0.04125752 -0.025123022 -0.032265987 -0.0060902666 -0.04376918 0.024198994 -0.029255468 -0.030513952 0.023503428 -0.052589178 -0.017822785 0.017363645 -0.0008943095 -0.07153232 0.01856035 -0.031917684 -0.046621144 0.005053035 0.04240803 -0.02138445 0.03592686
hedge -0.014314647 0.0350835 -0.044111397 0.0072333473 -0.04459266 -0.06416682 0.0014855571 -0.058662053 -0.033848632 -0.007754283 0.012196829 0.016741179 0.034196846 0.043485124 0.03612651 0.0049228864 -0.0126444725 0.035487626 0.024785686 -0.0398852 -0.028950661 -0.050940067 -0.009115034 -0.020530462 -0.022144066 0.039096344 -0.0042255213 -0.045316596 0.05236454 -0.02142914 -0.030195614 -0.010312156 0.020396363 -0.03432704 -0.052854136 -0.037273098 0.026436364 0.046474095 0.0026563955 0.020928029 -0.011618953 -0.004640588 -0.050857566 -0.013910895 -0.03681896 0.0059581483 -0.047931254 -0.03964629 -0.053606223 -0.04308576 0.029908258 -0.033597536 0.017011764 -0.0062151235 -0.028801868 0.058717124 -0.0519213 -0.013961989 -0.0083215255 -0.020739883 -0.0054376307 0.0581245 0.038104843 -0.026186798 -0.0013740053 0.022147158 0.07328932 -0.03611452 -0.013361536 0.018566515 -0.007836003 -0.0206524 0.05816826 -0.021550076 -0.047563985 -0.0032387252 -0.04078945 -0.029962678 -0.042142425 0.0095175095 0.0100042205 0.027364101 -0.00091860327 0.04142118 0.012139829 -0.035943776 -0.023442885 -0.002859795 -0.03358722 -0.04182657 -0.00027112992 -0.05580496 0.035463147 0.015923839 0.03148971 0.0068985233 0.029757883 -0.009406766 0.00211087 0.026271917 -0.049790416 0.065297 0.0050367047 0.008233093 -0.0062618153 0.012881845 0.045157544 -0.028785689 0.029357646 0.008845356 -0.00042968962 -0.024095295 0.035792153 -0.006553849 -0.03635262 0.035426207 0.0109219635 -0.017267684 0.0152827045 -0.0006420474 -0.043262005 -0.014106551 -0.028269036 -0.014823239 -0.027948324 -0.038075488 -0.006851561 0.012953285 0.023692125 0.04171922 -0.04960687 0.028926803 -0.010387515 0.046454642 -0.035923164 0.031256244 -0.001553864 0.016875172 0.04915631 -0.024855308 0.0569947 0.03411233 0.026186408 0.0044599357 -0.032317907 0.01799057 0.030104646 -0.02520576 0.049568087 0.0009218656
nicely 0.0071464786 0.011216043 -0.08521227 0.00082995114 -0.049454767 -0.022449996 0.033144712 0.007929728 -0.03630229 0.06941065 0.039274808 0.055529226 -0.045728162 0.011475697 0.063494936 -0.056748584 -0.06937176 0.07540809 -0.025565159 -0.053785823 0.07476714 -0.023903457 -0.017931199 -0.026952455 0.084511586 0.015895462 0.0035559162 -0.016634922 0.018632041 -0.016529258 0.06819031 0.053453263 -0.0121310055 -0.00045562894 0.011258936 -0.07502566 0.031095887 -0.00023149335 -0.004900548 -0.08711251 0.020161616 0.0074893716 -0.04613557 -0.018115614 -0.077866815 0.027658718 -0.06874448 0.012821099 0.032450814 0.011218897 -0.011836893 -0.02543649 0.032378633 0.041545723 -0.048566636 0.0689999 -0.08561152 0.053142738 -0.052691706 -0.0575965 -0.055600822 0.066979356 0.035067193 0.02272828 -0.06672112 0.03750617 0.03007691 0.017613694 -0.03010248 -0.02125552 -0.012566511 0.0035713464 0.021972774 -0.05864254 -0.008220471 0.06649624 0.023076462 -0.006095419 -0.052351568 -0.069088295 -0.0116348285 -0.0016860509 -0.022829453 0.059150293 -0.07885491 -0.00917297 0.030698558 -0.03677697 0.011907416 -0.019945825 0.009319164 -0.031539127 0.05890714 0.009974188 -0.00080347696 0.03729933 0.008453733 -0.06912431 -0.015697982 -0.0060039484 0.04741929 0.07731898 0.040775605 -0.033828583 -0.06838568 -0.010400658 0.021643689 -0.021098562 0.01354342 -0.029345047 0.012452603 0.0037644631 -0.07085729 -0.019348495 -0.049295668 0.018898882 0.034697693 -0.019176511 -0.0063577085 0.031112585 0.00659412 0.011061516 -0.013111372 0.011708631 0.044860415 0.003144889 0.054363113 0.04806275 -0.00047705148 -0.07168307 -0.02404792 -0.07978554 -0.07426909 0.013985887 -0.08139035 -0.024846314 0.027755417 0.002623091 0.072829485 0.050574616 0.07103815 -0.028323289 0.003911608 0.04305584 -0.053795945 -0.0531554 0.028395021 0.0013691719 0.01743888 0.008303277
