1182 50
key 0.042329285 -0.0654734 -0.07796511 -0.0339045 0.035134792 0.030689085 -0.050033696 0.06938161 -0.06755883 0.03672483 0.051072065 -0.023655651 0.056503832 -0.026144413 0.026245574 -0.050991572 -0.017442204 -0.009388594 0.03500352 0.0231352 -0.040068895 -0.040513486 0.0076868855 0.013967418 -0.052507848 0.028677568 0.056149364 0.03496457 0.049571604 0.034159686 0.053679492 -0.028000807 -0.04864498 -0.007874986 0.013504967 -0.04916256 0.007940157 0.053369086 0.07240161 -0.0090187015 0.06959911 0.037317682 0.054409146 -0.00760084 -0.011679886 0.013988809 -0.013466246 -0.06779703 0.054272074 0.034507427
rapidly -0.052309066 0.06517538 -0.063212335 0.07474712 -0.036414035 -0.08161791 -0.00801851 0.03368197 -0.07966861 -0.019247731 0.014199919 -0.04351387 -0.012688706 0.037068095 -0.021987937 0.055762168 -0.06702675 -0.029823478 -0.022343185 0.017166652 0.071298294 0.013218989 0.048336845 -0.0795583 -0.031974882 -0.050491236 0.014393277 -0.048338756 -0.010311029 -0.02851115 0.078738794 -0.032698903 0.06887333 -0.041677363 0.032978173 -0.01260504 0.030038128 0.0417132 -0.080252014 0.02575396 0.0062304996 -0.07797901 -0.03734255 -0.057587977 -0.027411519 -0.05690843 -0.004681577 0.017586987 -0.04706841 -0.023188623
finish -0.040055454 -0.0001960512 -0.010702859 0.008648392 0.012893374 0.016860785 0.06895727 0.024412189 0.08821043 0.060006835 0.043504465 0.06043556 -0.050998002 -0.06642173 0.035300914 -0.07160115 -0.06611914 0.07691404 -0.027179325 -0.058067832 0.022960853 0.05494763 0.07292709 0.006308749 0.006061411 -0.03665027 -0.070402615 -0.009271105 -0.07540411 0.017038401 -0.071754046 0.038323127 0.056458075 0.061561834 0.017490003 -0.008371997 -0.034737416 -0.04849365 -0.052516274 -0.013586332 -0.045910764 0.055227853 -0.049408384 0.029081421 -0.009901591 -0.0108541185 0.046249222 -0.0136617515 -0.01582901 0.035458226
curious 0.051605783 -0.07099997 0.03450669 0.010013853 -0.006396143 0.05595473 -0.036495123 0.051271744 0.013222551 0.034839414 -0.067719646 -0.019355014 -0.003623031 0.08206296 0.01684649 -0.024090368 -0.048160885 0.042696733 0.0028040125 0.02481984 0.0569626 -0.017512903 0.010655768 0.042333804 -0.04648848 0.07512771 -0.0479269 -0.026956296 -0.037791703 -0.054662485 0.023346825 -0.0374953 0.09588474 -0.07344819 -0.0384483 -0.043976057 0.046899207 0.011577286 -0.043796275 -0.056547232 0.016587503 -0.0116643505 0.0131765865 0.021188013 -0.018729903 -0.036575083 0.006271237 0.048314467 -0.018880395 -0.060106877
rest -0.058549963 0.07297693 -0.0071083317 0.005118356 -0.0649302 0.03731007 0.036447313 0.01195764 -0.01626229 0.039978854 0.027453654 0.070483774 0.04557774 -0.041842993 0.022354258 -0.07210978 -0.042274144 0.044613034 0.044628583 -0.050846215 -0.06105685 -0.025295477 0.009613173 -0.05723248 0.005422489 0.013056983 0.023980401 -0.027462153 0.07227207 -0.009538762 -0.025470512 0.04734967 -0.019779276 -0.050534345 -0.07981944 -0.0026681707 -0.006127363 -0.02917638 0.054104976 -0.047667522 0.002650002 0.050464712 -0.022647 -0.033398777 -0.003117666 -0.028344084 0.037070204 -0.048801877 -0.03597051 0.07971866
made -0.013754005 -0.01978396 -0.09475848 -0.036635853 -0.06684705 -0.06953627 0.01458728 0.040903598 0.07480178 -0.05875979 -0.021899844 0.07464199 -0.058410496 -0.06995352 -0.062998705 -0.028101727 0.03902768 -0.06832151 -0.023327881 -0.0611207 0.039288417 0.045313746 -0.04773431 0.04433499 0.06236821 0.0076351753 0.0051549594 0.06579807 -0.01878185 -0.005383076 0.0801552 0.019230714 -0.01099619 0.02530237 -0.032308947 -0.021626834 -0.013257191 0.017434338 0.02053473 -0.0511001 0.028191224 0.042676173 0.034142073 -0.06983493 0.025094457 0.0057783104 -0.016904706 -0.042536166 0.011895479 -0.047673013
drop 0.021562055 0.050676655 0.016800193 0.018948447 0.0021380642 0.013602048 -0.022116033 -0.008711111 0.04183769 0.047856398 -0.016190773 -0.04000983 -0.06321655 0.037739683 0.025007136 0.04328152 0.018687956 -0.07066213 0.0048640934 -0.05490649 0.0186435 -0.044174965 0.04262349 -0.07052791 -0.010298193 0.05847771 0.007054288 -0.029915975 0.021436714 0.008107166 0.021067474 -0.027364258 -0.057896405 -0.006963487 -0.017711064 -0.059363186 -0.04275451 0.025737487 -0.021010645 0.06723721 0.05885162 0.060489465 0.044908576 0.058765423 -0.008275805 -0.031320922 -0.020002862 -0.041464742 -0.008664507 0.06456822
roof 0.08218669 -0.031625487 0.040018175 -0.062821686 0.020018496 -0.03910421 0.0062430287 -0.01849195 0.01724305 0.016619787 0.012367892 -0.067186326 -0.059955366 -0.03407791 0.08856147 0.048036948 0.06712035 -0.050647262 -0.024607204 0.0054443018 0.04700909 -0.05021135 -0.0451527 -0.03588951 -0.0274478 -0.0321299 0.00419079 0.02595135 -0.02215781 0.009766711 -0.060472224 -0.0074479273 0.031116407 -0.0015322842 0.018347465 -0.040111236 0.045585424 -0.095108695 -0.057632785 0.015885461 0.034440126 0.06917818 -0.014635561 0.03786866 0.0394985 0.021791501 0.05489892 -0.022809573 -0.0070045693 0.06885484
cheerfully 0.05559193 -0.005345938 0.032492366 0.06345231 0.01997566 -0.028202437 0.0007377978 -0.0013154282 -0.0349488 -0.073493 0.020698521 -0.05226683 -0.08021114 0.047225416 0.06414428 0.014362226 -0.06709381 0.037397992 -0.0718989 0.008137792 0.018833708 -0.03484821 0.0095184725 0.04000557 0.058857765 -0.056622665 -0.056244202 0.073112816 -0.042081922 0.051119816 0.028100869 -0.05011137 0.0750197 0.032933004 -0.036399513 -0.025331032 0.049868744 0.01564076 0.019208508 0.077573106 -0.069215484 -0.015433488 0.042978153 0.026507933 -4.5208028e-05 0.004076437 0.0037409812 -0.014561134 -0.02668669 0.039387334
own -0.02993929 0.013011675 -0.0845352 0.03425906 0.040238548 -0.0501832 0.03472038 0.003300916 -0.06817778 -0.021348588 -0.06780298 0.053808697 0.07691409 -0.009555968 0.00011070061 0.07210769 -0.05319408 -0.0036188355 -0.037126407 -0.033474404 0.05462001 -0.0027274261 -0.009615659 -0.044589818 0.0058334186 -0.074163914 -0.05315886 0.07249567 -0.037139203 -0.025747392 0.0013503553 -0.01552499 0.038647357 0.031846322 -0.04867398 0.038414944 -0.053369004 0.031098265 0.022377037 -0.032151386 0.003821352 -0.020935295 0.039741684 0.032902166 0.004695297 0.030877484 -0.0216045 -0.0077803787 0.00022393605 -0.023514546
piece 0.032015596 -0.046566192 -0.037215803 0.0015103096 -0.027238125 -0.010263808 -0.04347344 0.0036980277 0.012134302 0.07327467 0.0010540024 -0.06871769 0.020765979 -0.012416522 0.0222227 -0.06066797 -0.03532755 -0.05451889 0.036857054 -0.020134166 0.0071465923 -0.0721997 0.046681516 0.034953736 -0.07185626 -0.043057896 -0.055582095 0.05728654 0.04266337 -0.0206193 0.03497889 0.024294686 -0.01399777 -0.048636988 0.029421061 0.061404835 0.03757499 0.0071567018 -0.062192168 -0.016976874 0.028692972 0.053276006 -0.00493838 -0.043413643 0.03827748 0.059783265 0.05683876 0.035281952 -0.055071168 -0.06324996
possibly 0.047674883 0.08260605 0.032629717 0.051215433 -0.06072727 0.0144578805 -0.04016793 0.01860007 0.03683915 0.03919521 0.055883814 -0.04117442 -0.0104723815 0.036802355 0.0013697402 0.041466504 -0.03635994 0.04789802 0.050825574 0.028847406 -0.0034181029 -0.065750815 -0.003812419 0.046947252 0.0443022 -0.06392437 -0.02092087 -0.0709182 -0.0034273863 0.03716861 -0.03480822 -0.063924044 0.02125334 -0.06760221 -0.01921344 -0.0072842566 0.03758156 0.049300257 -0.0047105937 0.06370512 0.044184778 -0.063130304 0.018624598 -0.03108578 0.018819407 -0.083700724 0.023576144 0.01029331 -0.0404298 0.05865096
insult 0.017455775 0.010345103 0.07044702 -0.039281838 0.004898785 -0.015318839 0.019030161 -0.016105585 0.07005629 0.040597256 0.066013664 -0.019991495 0.06735254 -0.0064427215 0.029671114 0.019674772 -0.0019702406 0.051087223 0.05731555 -0.016242292 0.0723832 -0.05986055 -0.060507312 0.047209464 -0.07091376 -0.05270195 -0.03891149 0.04647282 -0.005437685 -0.06626885 -0.011285681 0.041455522 0.00031211204 0.038535282 -0.012192254 -0.017178675 0.016591059 0.005460974 0.049225006 -0.04416742 -0.016628947 -0.009571046 0.027702361 -0.038462948 -0.07218504 0.0028070353 -0.030801795 0.0513698 -0.043796465 -0.031883072
solemn -0.01915455 -0.03160774 -0.023792533 0.02149155 0.053516023 0.0032634283 -0.0136031 0.025599185 -0.0378927 0.049276814 -0.014016782 0.012754449 -0.009593961 -0.009511997 0.015687218 -0.0020537288 -0.016737834 0.010149917 0.04268941 -0.0030041528 0.013235293 0.024433257 -0.041445598 -0.03221071 0.058947075 0.008550926 -0.038302466 0.04628504 -0.015068546 0.061765652 -0.047103457 -0.018083265 -0.036322773 -0.0102572795 0.023444775 -0.014866915 -0.04427169 0.009582302 -0.028236056 -0.04638539 -0.03907721 0.045962684 0.063799515 -0.012412377 0.035850305 -0.049667425 0.05492018 0.021120006 -0.007326949 0.0118726315
ii 0.06329159 -0.05047862 -0.008896785 0.066762485 -0.029354079 0.0006561392 0.005103646 0.04998897 0.023350181 -0.05537982 0.0075138425 -0.010580318 -0.06588565 -0.002524983 -0.044890963 -0.06646528 0.0057999464 0.034692585 0.047104754 -0.004892398 -0.06670323 0.010589147 -0.0013394823 0.035434537 -0.01297739 0.061358716 0.050696712 0.06388935 0.06907357 0.03991107 0.035560697 0.025556058 -0.07392691 -0.046584245 -0.018400809 -0.018612614 0.026139209 -0.07495284 0.029622173 -0.04046468 0.06295616 -0.05657787 0.008661886 -0.071110204 0.04462198 -0.003520736 -0.017578527 0.011924243 -0.031363785 -0.037716214
liked 0.017667096 -0.055575997 0.016017277 0.004907443 -0.057959564 -0.04245863 0.034046162 0.0050574187 0.02869971 0.034833383 -0.024158362 -0.05775007 0.021021573 0.043462012 -0.065413155 0.00060394336 -0.019017039 0.0009609031 -0.06024544 -0.020283103 -0.066321075 0.06711406 -0.04305528 -0.0068512997 0.059977602 -0.05539256 0.004242112 0.01687549 0.03605136 -0.052833706 -0.016642263 -0.026556829 -0.01690013 -0.035123155 -0.0667814 0.040584963 -0.06352663 0.033268526 -0.054431118 -0.031063048 0.014931361 0.058650065 -0.033437487 -0.037553646 -0.041690614 -0.027535347 -0.0023662653 -0.055035535 -0.023984028 0.052624144
occurred 0.01859409 0.06397129 -0.02035916 0.005300609 0.01713981 -0.011238602 0.029327955 -0.035060704 0.051673286 -0.0024594353 -0.010204979 -0.009702106 -0.056787193 0.027552843 -0.04547978 0.051228955 -0.014967536 0.027922826 0.06421836 0.053949643 -0.06455373 0.047871158 -0.06784874 -0.061595958 0.055987556 -0.011563328 0.059666403 0.04589435 -0.05281756 -0.010305114 -0.04801071 0.059497103 0.010862994 -0.032514937 -0.043039262 -0.02900187 -0.053335726 -0.0005712196 -0.027590893 0.00859728 -0.051131427 -0.051735204 -0.025778597 -0.06590316 -0.040009152 0.012693076 0.0024157586 0.0074107717 0.022081116 -0.014825664
trying -0.06784364 -0.016205797 0.054521702 0.05488469 0.008493278 -0.038688313 -0.051439285 -0.05725678 -0.030718517 -0.02890542 0.03485002 -0.01773992 -0.047770254 -0.021465056 0.02861159 -0.055195786 -0.0087246755 -0.047953892 0.07242815 -0.038421508 0.057143565 0.049170736 -0.029477293 0.042128507 -0.030104047 -0.07695797 -0.03139108 0.012012477 -0.054466452 0.0657608 0.0020148628 0.022796884 0.058747083 0.0041108066 -0.051984705 -0.07450944 -0.00872403 0.04192274 -0.047123633 -0.018999798 0.026447164 -0.0517802 -0.03460027 -0.003444755 -0.0016720664 0.019576082 0.023080267 -0.047117427 -0.05267791 0.018843552
waters 0.06060284 -0.05344679 0.010330839 0.010035352 0.031992517 -0.052826777 0.019420207 -0.06101141 -0.042975217 0.047053114 0.034336783 0.047252305 0.012560042 -0.068599835 0.07841644 0.011824593 0.037169572 0.053026903 -0.0134063335 0.0022379397 0.0023343489 0.037732787 -0.03703709 -0.013945397 -0.019926175 0.052179713 0.0047239363 -0.0049363035 -0.02969633 0.0235972 0.020400068 0.06456864 -0.0014757395 0.010755881 0.062676094 -0.051124137 0.0049661123 -0.01697886 -0.062365644 0.016344476 -0.019756451 -0.0509377 -0.07205553 0.06364463 0.0068013063 0.048895765 0.032376003 0.02053769 0.0013700284 0.016507223
severely -0.0013046021 -0.075223826 -0.058229517 0.008288473 0.07119257 -0.053389564 0.049368538 0.024850953 -0.036300834 0.021296475 0.014724575 -0.041316867 0.04063205 0.05726525 -0.04802987 -0.02544573 0.053159915 -0.010709722 -0.04317698 0.024057508 0.05704752 -0.005695461 0.0030355675 0.0081354985 0.019967763 0.03738412 0.033607587 0.065127395 -0.020504856 0.024254872 0.057513416 0.07511976 -0.0036751642 0.035685048 -0.009265037 0.008760001 -0.07779028 0.03596724 0.068472646 0.022455242 -0.016345099 0.0050337 -0.013338275 -0.04107656 0.01414905 0.04093487 -0.026534189 -0.017065967 -0.0076279016 0.03453703
doesn 0.033311427 -0.06543201 -0.054187115 0.036972575 -0.00739017 -0.0021809265 0.07044251 -0.030098036 0.008954451 -0.07120261 0.092722006 -0.07225598 -0.044429857 -0.017524585 -0.06863751 -0.07544684 -0.087626554 -0.012621405 0.05109391 -0.08313748 -0.010476861 0.041151002 0.06203917 -0.026313685 -0.06943789 0.08294336 -0.07838525 -0.047709446 0.015357285 0.0109783225 0.021790715 0.052444827 -0.028473856 0.07831828 -0.021831209 0.020264182 -0.006096984 0.060191993 -0.025865287 0.088331215 -0.022349583 0.05688441 0.006540706 0.041477654 -0.062078573 -0.07125219 0.048350945 -0.035570092 0.0032909936 -0.077773005
wrapping -0.033584073 -0.011114868 -0.050306007 0.05925037 -0.039049793 0.058117203 0.063264206 0.036122173 0.044452216 -0.05858367 -0.026665935 0.07136103 -0.030248359 0.022460993 -0.029395957 -0.074126735 -0.04020741 -0.05453365 0.06222763 0.057860956 0.014754223 0.013362599 -0.058876302 -0.0046881367 0.06922105 -0.0009164121 0.05203995 0.034303583 -0.032215446 0.02095426 -0.008267901 -0.019908238 -0.05831734 -0.06830961 0.035052367 0.047002546 0.051150788 -0.030505698 0.06724946 0.043319516 0.030360002 0.0800007 0.073753394 -0.02973816 0.07621345 -0.0037819268 0.029664973 -0.078511745 0.045332205 0.0036127355
largest 0.007417132 -0.004936548 -0.05950341 0.054288395 0.05415688 -0.05188815 0.027434217 -0.041082986 -0.011965928 0.0023987887 0.0035634576 0.01768635 0.0007521912 -0.042112403 0.06716096 0.054647833 -0.0048016156 -0.042362068 0.033115275 0.017672647 -0.020134762 0.013141051 -0.06060803 0.02975924 0.052537702 -0.055768017 -0.06734557 0.013421705 0.048600767 -0.007893979 -0.024047852 0.01908827 0.048283864 -0.0041058376 0.019211024 0.022554604 0.044470146 -0.026915248 0.0069368705 -0.043496665 -0.020102322 -0.053197686 -0.06585064 0.013275734 0.014788599 -0.063509025 -0.02474025 0.041733105 0.0015636402 0.012019169
started 0.024287486 0.012951735 0.029293355 0.0358483 -0.016334383 -0.016671494 0.016828338 -0.06261818 0.0601585 0.006193337 0.01870802 0.080351666 0.0015947574 0.052740604 0.060148373 -0.020732887 -0.029131308 0.015154765 0.035070587 -0.045531772 0.054996226 0.007737372 0.0074232193 -0.02483969 0.06942345 0.054020707 -0.022161735 0.049252685 0.03543124 0.055605233 -0.03474101 0.0076209772 0.057107154 -0.025734207 0.055637095 -0.0006945239 0.05058272 0.024429 0.06397314 -0.0061956868 0.0012241458 -0.020167166 -0.059894096 0.041659407 0.015823055 0.018882763 0.010964176 -0.0330521 0.05733462 0.02744116
roast -0.075226516 0.003471203 0.07500007 -0.002427496 -0.05138539 -0.07084912 -0.032008067 -0.036856018 0.05928814 0.0510991 -0.058933016 0.04591582 0.061891142 -0.07807884 0.04956042 -0.06357655 -0.08133946 0.0139795365 -0.07080398 -0.050807733 -0.03508826 -0.028299728 0.06380952 0.017264731 -0.03703094 -0.041949507 0.054668088 -0.07412805 0.039755456 -0.060192052 -0.03839487 -0.015915224 -0.06697969 -0.00046932674 -0.053420875 -0.022168858 0.06116947 -0.0080894735 0.06414012 -0.04145751 -0.009605051 0.012411925 -0.00064855255 -0.010978499 0.0040408326 0.0277705 -0.007110938 -0.010842976 -0.0007525418 -0.06959299
despair 0.053424772 0.046726353 -0.038775783 -0.047441266 -0.056983337 0.02787025 0.010518421 0.010766775 -0.055271078 0.004537235 -0.057548862 -0.02282139 0.056745883 -0.040207725 -0.016201872 -0.0012434317 -0.00637056 -0.007787855 0.023143407 -0.0017656997 -0.031344473 -0.05392127 -0.05664762 0.016754407 -0.043659985 -0.021732861 0.020359421 0.037964243 0.05446206 0.016030228 0.03302056 -0.055767722 0.067643225 0.029628698 0.022672532 -0.031670325 0.029354092 0.07896614 -0.05237902 0.046421707 -0.04519652 -0.0015035555 -0.028663326 0.004479532 -0.057162113 -0.052615035 0.028525202 -0.06787719 0.01690994 -0.011658675
pardon -0.056845043 0.003517143 0.008667396 0.04551168 -0.027055291 0.023865052 -0.01928683 0.031279255 0.04320348 -0.056977134 0.009192953 -0.058676414 -0.06895174 0.012924985 -0.058401175 -0.06959123 -0.026448904 -0.0873837 -0.045702793 0.06768953 0.001686133 0.069014415 -0.017676711 -0.070137784 0.05471977 0.063116655 0.047340572 0.026925089 -0.07339599 0.073490106 0.034218617 -0.00087604113 -0.010671005 -0.060026165 -0.05205253 -0.047692727 0.03633713 0.0055836835 -0.038364265 -0.039125912 0.02248993 -0.0033953083 -0.081516035 -0.004684394 -0.037744813 -0.059851997 -0.054855824 -0.068480104 0.021158962 0.00629068
don 0.02970982 -0.057701096 0.009997261 -0.03192798 -0.017217228 -0.053836852 0.12628125 -0.04720693 -0.00896613 0.047659945 0.078836255 0.047534604 -0.040500045 -0.03164675 -0.012643168 -0.016929286 -0.102886476 0.04802328 -0.01786063 -0.009637537 0.059976898 0.08130031 -0.00013849023 0.054151125 -0.11493463 0.025370939 -0.052830443 0.02384538 -0.029800583 -0.027403329 -0.04950816 0.016365565 0.016239973 0.10013502 -0.023588594 -0.04561392 -0.045970146 0.019113733 0.082128756 0.077914804 0.00816758 -0.027768515 -0.086476445 -0.0085991 -0.1137089 -0.004917307 0.07014467 0.022305489 -0.03447642 -0.07447165
very -0.043840356 0.018441774 -0.04139038 0.04160232 0.025051385 -0.03840011 -0.045509536 -0.02519688 0.07611841 -0.021894239 0.022810446 -0.013983958 0.011878692 -0.02755272 -0.08176466 0.01894771 -0.020128043 -0.051888093 0.031176457 -0.035166502 0.009584372 0.07743447 0.044106226 0.09808245 0.02519945 -0.07073421 -0.01663554 -0.0014535169 -0.0085734315 0.11917183 0.11348661 -0.015527069 0.1320837 -0.02367976 0.038084902 0.06504209 -0.01874861 -0.054604404 -0.0794692 0.00702841 -0.01765176 0.072357684 0.075324446 0.02539368 -0.032492757 -0.023249445 -0.0043078475 -0.017601326 0.06981139 -0.031805154
have -0.045115225 0.035739105 -2.6099558e-05 -0.042968187 0.051209264 0.0694391 0.016173143 -0.000923404 0.06817085 0.05495317 -0.010754112 0.009775573 -0.046066597 -0.045503367 -0.014927736 -0.013043444 -0.036961444 0.05497307 -0.0061563053 0.034253232 0.05480375 0.0070277927 -0.05350648 -0.028570093 0.004729324 0.054270945 -0.005843259 -0.0135754915 -0.060610857 0.003487712 0.055621065 -0.0663464 0.02575315 -0.03121272 -0.021552946 -0.0032490063 -0.07628178 0.076005295 -0.01185764 0.10442954 -0.0681466 0.012945443 -0.10610006 0.00055607915 -0.058545616 -0.08694214 -0.031910375 -0.018985946 -0.015862443 -0.007207163
ve -0.0127025405 0.008573372 0.05021014 -0.03805445 -0.029868877 0.05119348 -0.017318696 0.011169724 0.016936958 0.06366551 0.05992699 0.022478506 -0.012687681 0.024647534 -0.033365086 -0.028334286 0.018794596 0.06334607 0.07191893 -0.0024285032 -0.020332593 0.0019715242 0.053545624 -0.025088795 0.03464745 0.025199873 -0.03467981 -0.040875506 0.0053119967 -0.030583715 0.013724021 -0.012577425 0.020954248 0.049136214 0.050684758 0.01850995 -0.06872758 0.081150234 0.041984953 0.024872208 -0.010677993 0.024614962 -0.09531589 0.087038964 -0.08948808 -0.0016403014 -0.04334534 0.081299774 -0.014976695 0.015351491
tumbling -0.018949417 -0.022974778 -0.07059003 0.070468955 -0.053816848 0.04407062 -0.028560381 0.05458028 0.02737316 -0.010996625 0.018437196 0.005597971 0.036724832 -0.05170863 -0.00878437 0.03386615 0.056351095 0.016685583 -0.04639347 -0.018477175 0.052180614 -0.074724935 -0.04011104 -0.013094857 -0.034356557 -0.041127834 0.05502358 0.056399338 0.07394049 -0.045359794 -0.027441088 -0.025563274 0.026101533 0.023392403 -0.05533455 -0.038018104 0.07081408 -0.062857896 0.05658449 -0.0052302843 0.06352119 -0.0181512 0.06345835 0.04836319 0.021995857 -0.04762149 -0.013066078 -0.07105413 -0.021956764 0.018606346
moderate -0.013435703 0.028944138 -0.025839372 -0.029926151 0.044149682 0.037464716 -0.051963802 0.032047816 -0.031824604 0.01959412 -0.008353819 0.00991466 -0.0006263127 -0.053544007 0.010643631 0.010690838 0.01869883 -0.044496093 0.014028255 0.006310865 0.04991639 -0.049393512 -0.044623088 -0.0028165597 -0.033905264 -0.065178245 -0.022015573 -0.013578993 0.051512264 -0.03289048 0.06370627 0.031800427 -0.043946624 -0.025585398 0.011530305 0.011695283 0.058953423 0.039435245 -0.014297742 -0.05061704 -0.057196844 0.00017544127 0.031991307 0.014195678 -0.0041034864 -0.051016472 0.047139183 0.0029096464 0.046122 0.037896518
both -0.025679376 0.042604987 -0.06326959 0.05096485 -0.056383885 -0.075054914 0.0018860112 -0.06714581 0.0030858198 0.014912996 -0.007238708 -9.3732146e-05 0.044088546 0.067488514 -0.043207936 0.04685017 -0.008786032 -0.037878957 -0.0323721 0.060322367 -0.033460543 0.041274816 -0.07888906 -0.015831225 0.0322147 -0.07713475 -0.06426912 0.04049596 -0.010009477 0.011974134 0.047734123 0.032082062 -0.053692583 -0.030735703 -0.013591476 -0.006441309 -0.017619414 -0.024218483 -0.0620263 0.03635639 -0.0488661 -0.044604328 0.016427595 -0.04092335 0.04097405 0.023302775 -0.028826535 -0.0212247 -0.008257202 -0.022700936
luckily 0.034082137 0.06289033 0.02554135 0.011360713 -0.011131352 0.009093299 -0.0051164026 0.03423238 -0.039492156 -0.02201724 -0.019472463 0.078579694 0.07793815 -0.03545362 -0.03111276 0.049770623 0.055628195 -0.012474796 -0.062643796 0.014707102 0.055849325 -0.010974318 0.019104905 0.05353742 -0.050264638 -0.03911797 -0.0781558 0.07325297 -0.06768086 -0.0666832 0.012344185 -0.07706723 -0.039244886 -0.051113658 -0.009190205 0.05510229 -0.043825474 0.040481254 0.027658815 0.020397887 0.04816724 -0.025578426 0.042916965 -0.028300654 0.057666227 -0.0038867583 -0.0075075314 -0.04074093 -0.04144194 0.056783415
nile 0.083312176 -0.02305551 -0.0003208099 -0.058829956 -0.030396786 0.012593206 -0.017734723 -0.050361175 -0.0020852427 0.0067722425 -0.02577336 0.052180514 -0.009419568 0.0033910926 0.017068166 0.05272778 0.0672673 -0.040378872 -0.051851194 -0.0014788229 -0.021417124 -0.06353266 0.027311586 -0.00012520142 0.05281817 0.007828313 -0.030633347 -0.037844755 -0.04325472 -0.03083361 -0.049615096 0.058753543 -0.04114159 -0.06255417 -0.037751712 -0.019324813 -0.008853614 0.016832067 -0.05251712 0.0025819796 -0.037249725 0.06580083 -0.030108118 -0.019003851 -0.048989486 0.063002594 -0.022969842 -0.04760057 -0.0011570919 -0.0352546
kid -0.03530838 0.06135663 0.034582954 -0.03654427 -0.0034042061 -0.07828826 -0.0516244 -0.06991402 -0.00761588 -0.005967471 -0.016027896 0.058557242 -0.050302092 0.059488934 0.057615396 0.061898444 -0.026721932 0.06194793 0.026600543 0.031082967 0.012804077 0.0115558775 -0.029586898 0.06277402 0.019556878 -0.041959155 0.016554687 -0.015184111 -0.011702971 0.054346316 -0.044299204 -0.042259026 -0.014673319 0.013644488 -0.044098713 0.00010994915 -0.026858011 -0.060272895 0.02966657 0.07124787 0.075678304 0.024860572 -0.03654659 0.05095862 -0.04553929 0.041447658 0.052056827 -0.03897734 0.0624346 -0.024103286
spirited 0.0134839155 -0.0016895662 0.03732953 -0.029315492 0.020317903 0.01811091 0.04495912 0.0039106603 -0.053237636 -0.025394462 0.051408567 -0.0048220754 -0.011580002 -0.029763585 -0.017282281 -0.03889344 0.035370544 0.072363734 -0.07509912 -0.05515421 -0.029814703 0.043462668 0.014297877 0.056936488 0.057401158 -0.018546328 0.05245097 0.024211578 0.02409306 -0.009853071 -0.05214428 -0.0056249024 0.04633852 0.029412616 -0.026711216 -0.0041703237 0.029920826 -0.021133736 -0.0356595 -0.00728702 0.05990963 -0.05058655 0.037895102 -0.061137926 -0.036594555 -0.0019455885 -0.0302827 -0.069609284 -0.00068534724 0.050465826
meaning -0.011374549 -0.012084613 0.04781173 -0.030205457 0.008207062 0.0553818 -0.07910178 -0.029874038 0.049577177 -0.02931786 0.017854078 0.012595787 -0.038074505 -0.028234452 -0.053944286 -0.054136775 0.047642726 0.019055301 0.012793254 0.08329975 0.04303141 -0.065862656 -0.0086918175 -0.034299873 -0.01367204 -0.00092762173 -0.013757971 0.0059574423 0.03924521 0.027407901 0.02709464 0.045411214 0.025752902 -0.05097568 -0.05442564 0.018709894 0.06918415 -0.031050865 0.027841875 -0.05010688 0.0365225 0.029229183 -0.03402044 -0.023789544 -0.019373348 0.07690854 0.054800138 -0.016304819 0.018469075 0.01372903
eaglet 0.016087342 -0.036445033 0.06082768 0.017116217 0.03895701 0.038652655 -0.048819095 0.0046217702 -0.041676052 0.024060875 -0.01804242 0.038576007 -0.067635715 0.019531498 0.076643996 0.045936003 0.03259016 0.06552089 -0.059831582 -0.03618358 -0.053330768 0.01690174 0.011549124 0.0464352 0.06805756 0.048050527 0.06523653 -0.036538355 -0.05068051 0.022798045 -0.0071075186 -0.0031129923 -0.050552122 0.011955243 0.08623129 0.0039829714 0.004146589 0.040517334 0.0030200747 0.05356291 0.03858434 0.027311806 -0.027367294 0.06593991 0.04418474 0.010272835 0.06617181 -0.013057108 0.07542881 -0.005887234
hair -0.04852427 -0.014415836 -0.08009161 -0.052965872 -0.024376586 -0.05250972 0.0070395293 0.021026924 0.019989531 -0.04943254 -0.028682755 0.02113461 0.06913154 0.022742823 0.033141084 -0.0014585165 -0.0292206 0.05886447 -0.022715656 -0.009421056 0.027965518 0.013362118 0.01084844 0.039841678 0.02045287 0.023854773 0.034569286 0.04888722 -0.056084484 0.06872086 -0.0008850164 0.00074936054 -0.041283496 -0.058217432 0.05060786 0.047478415 -0.05589087 0.056339797 -0.034406308 0.035579983 -0.037909098 -0.032022387 -0.05038432 0.016317204 -0.035278637 -0.012283385 -0.019147754 0.04512772 0.04203916 -0.0085468525
by -0.0494938 0.08399947 0.017889362 -0.0020394367 -4.4917804e-05 0.04687485 0.04664795 -0.038700514 0.04166115 -0.05131712 -0.018742414 0.030922603 0.04777056 0.011943099 -0.012953218 -0.037723944 0.016160628 -0.057113595 -0.037713684 -0.04716369 0.01825569 -0.04118098 0.025985397 0.014473222 0.0468207 -0.08019468 -0.009503953 0.039389685 0.0065666772 0.06296815 0.044645835 -0.0032624283 -0.061437827 -0.026214877 -0.0007438377 0.03186896 -0.050576657 0.030419476 0.0057220096 0.08455651 -0.041804552 -0.015332205 0.021300353 -0.040596828 0.066884376 -0.036596827 0.029881004 0.006744742 0.03528885 -0.003907413
insolence 0.05401485 -0.043332364 0.013581322 -0.062073655 0.033345282 0.02550459 -0.07197802 -0.005697819 -0.074936 -0.009716521 -0.036463432 0.033910546 -0.054461822 -0.048190154 0.034417763 -0.015971996 -0.01140939 -0.009658825 0.008908133 0.03285784 -0.03921837 0.029045416 0.067743 0.049032025 0.039837364 -0.009841638 -0.042815536 -0.05194696 -0.013400814 0.06635761 0.05792523 0.017590921 -0.040780175 -0.062782444 -0.046677575 0.06142524 0.009239605 -0.060758993 0.018468548 0.018306974 0.0023094863 -0.02422076 -0.0088879615 0.0059430744 -0.01831317 -0.028441243 0.010647037 0.027209336 0.010920041 0.015139926
over 0.061816547 -0.04809542 0.04177821 0.077721864 -0.00015607156 -0.053813167 0.03078714 -0.025325751 0.008658114 0.08722465 -0.00033415735 -0.06470187 0.052619655 -0.023943229 -0.08977075 0.022074046 -0.050862 0.03996714 -0.025537854 0.0058411127 0.036794074 0.05391835 -0.033937305 -0.0061972155 -0.006686766 -0.025360962 0.0101145385 -0.017570343 -0.025055757 0.024979517 0.03151648 0.037485085 -0.04404644 -0.07506491 -0.038330544 -0.06406555 -0.075443245 0.006753666 -0.049144007 0.03525482 0.012376826 0.04553903 0.03596725 0.014369962 -0.019346844 -0.025293574 0.018263882 0.010566228 0.0025898507 0.0110707795
seemed 0.069938384 -0.037793662 -0.013950149 0.0048791855 0.12585376 -0.04514706 0.07149357 -0.005664983 0.012156455 0.050488733 0.057764146 -0.021235483 -0.05731612 0.08664879 -0.03914508 -0.051535908 0.028614048 0.025795463 0.06760626 0.050032876 0.0043673725 0.07373658 0.051638298 -0.06937607 0.07449988 0.044386487 -0.05931022 -0.058482215 -0.030684529 0.014660384 0.06391347 -0.028471356 0.07914145 0.058096666 -0.04567413 -0.023157883 -0.012993695 0.051274367 -0.011608959 -0.042044833 -0.07888311 -0.043255713 -0.011405147 -0.042089634 0.036161397 -0.015279429 -0.05389212 0.029898195 0.01757038 -0.056107044
important 0.004193964 0.069574825 -0.021783749 -0.028453518 -0.035031866 -0.029761406 0.013763889 -0.03255847 0.0651149 0.07036502 -0.027401907 -0.014793114 -0.08339776 -0.051600702 -0.05110546 0.029794313 -0.0008943187 -0.059515353 0.0027705415 0.07006135 0.035979077 0.024205387 -0.029943492 -0.012477007 0.012690624 -0.012512396 -0.047862597 -0.028164733 0.034194224 0.014588391 -0.032066464 -0.056316555 -0.07489857 -0.06308648 0.058738798 0.027049989 -0.026325108 0.023170676 -0.019822706 0.03427875 -0.08356245 0.05713267 -0.051631067 0.0033336687 -0.019570367 -0.04417807 -0.0076584625 -0.036367066 0.008464431 -0.04753071
dark -0.061152946 0.018015005 -0.0038201492 -0.038833536 -0.03923305 0.034727603 0.0254137 0.06603041 0.0698319 0.08697624 0.04835515 -0.008099217 0.045784537 -0.010402082 -0.041619297 -0.046888612 -0.023750696 -0.01285507 -0.05569513 0.021882406 0.020120433 0.0008972093 -0.067327015 0.025548534 0.06466762 0.04402557 0.0036396775 -0.06188218 0.037471566 -0.02886493 -0.022020979 -0.045090664 0.018502738 -0.016091296 -0.02577545 -0.014412727 0.019513143 -0.052015793 0.0010281579 0.05701146 0.06305623 0.07183118 0.04221824 0.025724102 0.036219493 -0.021606289 0.0034810554 -0.062469114 0.041308507 0.029990429
without -0.03406708 0.08079124 0.06748805 -0.02467622 0.012256091 -0.09676656 -0.08450122 -0.04704228 0.07703219 -0.0058038714 0.07363981 0.101435535 -0.036678825 0.05078254 -0.020517653 -0.03825652 0.0076402714 -0.019954992 -0.024592228 -0.059712667 -0.0534142 0.009487354 0.008570518 -0.033054754 0.045899894 -0.026974896 0.02143998 -0.007224945 0.041569382 -0.031021956 -0.014419695 -0.0349109 0.044942636 0.046142913 0.05262494 0.052974537 0.018012099 -0.022041189 0.044189494 -0.012012625 0.063039914 -0.07809818 0.038752567 0.018610269 0.033366222 0.047177605 -0.016417352 -0.034023315 0.025735533 0.0029526239
meeting -0.04262636 0.053994607 0.01883223 -0.007182122 -0.040542837 0.009476967 -0.045810983 -0.014500377 -0.057758804 0.038600862 0.040442184 0.01639149 0.06607715 -0.069634244 0.03571152 0.06704274 -0.019552032 -0.045297794 0.029282516 0.04906267 0.010070238 -0.05757932 -0.04535963 -0.054002587 0.04061631 0.049685836 0.032941196 -0.011054396 -0.054378435 0.05480661 0.039089423 0.06839611 -0.045490347 0.020876981 -0.020812312 0.0020748544 0.022966398 -0.0072672847 -0.0013570673 -0.045613788 -0.03716883 0.045092292 -0.024179997 0.024042688 0.004707078 0.028254079 -0.045291707 -0.031174654 -0.05983108 0.018346634
catch 0.016334834 -0.019098982 -0.06153319 0.034229282 -0.051513504 0.025337722 0.05957992 0.072466485 0.005553613 -0.03423857 -0.08208471 -0.090873435 0.010383962 -0.028741311 0.014251329 0.050294016 -0.05868593 -0.050941225 -0.026394421 -0.025143526 -0.05675273 -0.06052132 -0.01665207 0.06071372 -0.074545324 -0.010613466 0.055064987 -0.06892867 -0.021141823 0.041761618 -0.0027623624 0.019404514 0.030001156 -0.008394423 -0.024788294 -0.03934814 0.06913964 0.012904042 -0.059687287 0.021186074 0.008758106 0.017152103 -0.012124585 0.024478754 -0.0056211194 0.046602488 0.004264311 -0.037707787 -0.0348985 0.08263172
farmer -0.056100175 0.020972094 0.0060481983 0.012760242 -0.04826753 -0.020090688 0.070608534 -0.026448395 -0.017451294 0.01319839 0.023003932 0.0018227842 -0.059921995 -0.014716964 0.0076657087 -0.015409154 -0.03658803 0.06093343 0.048461117 0.0427741 -0.046101358 0.035530854 0.020440048 0.020733781 -0.00267314 0.002111469 0.011888641 0.06688519 0.051983878 -0.052505486 -0.02498969 -0.005401319 0.045776904 0.013890626 -0.05449113 -0.048354436 0.032449238 -0.067594826 -0.00021265319 -0.044918276 -0.059776746 0.007657435 0.022140788 -0.03897034 0.0474283 0.009360401 0.016744876 0.03120056 0.049388506 0.040355336
shrinking -0.00050799677 0.084373705 0.028348934 0.011455942 0.0076050344 -0.08138521 -0.05199811 -0.07062615 0.037318848 0.028192319 0.051896002 0.04237152 -0.01601344 -0.03042566 0.031042395 -0.033481985 0.050816827 0.06304485 0.036978316 0.0014672194 0.041466784 0.08047435 -0.05908766 -0.03366562 0.008812478 0.019567827 -0.044945586 0.054507922 0.0026350003 0.05425897 -0.06575455 0.012789724 -0.043178204 -0.028234335 -0.043763768 0.07992452 -0.065995984 0.059870876 -0.030269146 -0.0692051 -0.023234135 0.008620129 0.046380326 0.019611374 0.04630134 -0.019569729 -0.063493215 -0.021162268 -0.069374144 0.050320562
eat -0.01689474 -0.06776527 -0.04935543 -0.0381426 -0.011613203 0.01324809 -0.055614267 -0.00054369227 0.060498502 0.0802238 0.03798646 0.035667237 -0.02100598 0.064934626 0.06371085 0.008977352 -0.044166755 -0.04536642 0.030199882 -0.021475768 0.043391835 0.055749673 -0.026001306 -0.042732302 -0.018372348 -0.047774635 -0.046772573 0.032846287 -0.05966599 -0.0337987 -0.062334504 -0.01004012 0.012659869 0.031207599 0.065869 0.047382265 0.022205539 0.037946887 0.06442354 -0.03368233 -0.0017230515 0.0032964055 -0.07915426 -0.004055483 -0.055923805 -0.043324366 0.024536258 -0.020134557 -0.054272927 0.03596094
prizes -0.056670643 0.036875285 -0.059054285 0.051710498 0.05306544 -0.02345461 0.06838557 0.047876775 0.05021412 0.025288556 -0.001068467 0.027440941 -0.030000016 0.0019567641 -0.08168065 0.0026811804 0.04611348 -0.047798343 0.035523117 -0.054439723 0.07417426 0.00017342088 0.033567473 0.0038788524 0.015897257 -0.04333309 -0.031771634 0.02342065 -0.016328588 0.081840605 0.0070107705 -0.04761643 -0.03683993 0.0006493814 0.010892255 -0.04190805 0.065156326 -0.06824651 -0.00013877766 0.060198765 -0.028136922 0.019910578 0.014126097 0.018686494 -0.00066185556 0.0020408984 0.04575442 -0.06598413 0.065398104 0.027619468
timid -0.077177145 0.013382385 0.011730453 0.024220278 0.04179727 -0.017277323 -0.04294788 0.0104628205 -0.07139858 -0.029152466 0.07056378 0.013809086 -0.012149844 -0.03125124 -0.040683392 0.04816877 -0.0031371936 -0.02056352 0.028720874 0.033767376 0.049389914 0.05446552 -0.021678358 0.043151926 0.03925669 0.0590456 0.016987275 0.044274736 -0.07537381 -0.011026375 -0.01865343 -0.06040213 -0.040388174 0.0802812 0.008396193 0.047714334 0.0006976775 -0.029235786 -0.016586162 0.043252304 0.021761987 0.008596244 0.044261128 0.018290699 -0.08052465 0.003917759 -0.08187976 0.025278365 -0.045205444 0.013721148
too 0.08686893 0.012230248 -0.0041463217 0.044775706 0.0130544435 0.040905785 0.035593845 0.005156615 0.00018101279 0.08972025 -0.023764847 0.037452005 0.04323576 -0.027933612 -0.02645804 0.033417497 -0.06600666 0.047336087 0.007146915 -0.052650418 -0.040440816 0.0645314 -0.047996484 0.038799565 0.02568966 -0.047428895 -0.022142105 -0.05799086 0.056995194 0.0565595 -0.004991006 0.03594865 0.11247838 -0.07476254 -0.0723706 -0.031361148 -0.060614936 0.015348905 0.009384104 0.0023299241 -0.04932455 0.10922296 -0.0036020852 0.026447896 0.016295042 -0.054987248 -0.067193866 -0.056934513 -0.015975405 0.06194905
passion 0.031059572 0.0017965896 0.05598541 -0.042117756 -0.001017933 0.042678505 0.010904722 0.030534817 -0.037136666 0.037332427 -0.05876976 0.06392211 -0.056273226 -0.026067661 0.010005592 0.031484585 0.00029281736 -0.0003210539 0.017245617 0.04231768 0.06191732 -0.032144055 0.025883947 0.015682979 -0.0056470195 0.0296687 0.061457396 -0.018536976 -0.046555273 -0.053214505 -0.02747098 -0.053751476 0.046302736 -0.051052395 -0.0473225 -0.055154353 -0.0440934 0.054782145 0.053969875 -0.031931706 -0.0068482 0.027043883 -0.007880785 0.009929361 0.028211964 -0.012568441 0.02386251 0.03536669 -0.055052333 0.034795195
middle 0.067895986 0.036948428 0.027583767 -0.044329118 -0.037845194 0.0441832 0.06166196 -0.030777687 -0.086512305 0.012995234 -0.016584964 0.010049599 0.043350205 0.005577448 -0.001878559 0.011871275 0.021232383 -0.06279923 -0.032765012 -0.018069303 0.06811271 -0.019699223 -0.031330947 -0.054648604 -0.049042277 0.045336608 0.009581395 -0.02928968 -0.040754825 0.09191523 -0.012512125 0.0033772727 -0.046434607 -0.023006264 0.04155465 0.027681075 0.026433898 -0.057816718 -0.018919623 -0.055283856 0.013953356 0.054792974 0.069795504 0.051804487 0.05496012 -0.05185102 0.025287045 0.0010834871 -0.0059918957 0.03834966
move 0.009655766 -0.06259855 0.045528237 0.047948055 0.01057823 -0.049830902 -0.013812136 0.06080542 -0.01981412 0.07912119 0.061662335 -0.009236823 -0.068578884 0.052463513 -0.043602772 -0.010996162 -0.06881499 -0.051354982 0.009032551 -0.040592544 0.06965586 0.07576904 0.06279772 0.006715335 -0.021286165 0.04708099 -0.0055632666 0.0425049 0.0072815036 -0.06744218 -0.016919106 0.015591546 -0.051809814 0.028835963 -0.0013558455 -0.014903223 0.016896985 -0.03472422 -0.009455308 -0.00684405 0.05018075 0.0047103446 0.034191143 -0.03700099 0.020380523 -0.037302993 0.04481015 -0.030705174 -0.0017911459 -0.033913538
written -0.0647783 -0.06593378 -0.014396364 0.03450464 0.0060282713 0.04561773 0.008581538 0.07481871 -0.068533525 -0.022031803 0.041672904 0.009261555 -0.058773406 0.0654649 -0.010838587 -0.020989753 -0.05200585 0.005731067 -0.05372475 0.010125503 0.040569738 0.025786437 0.06492234 -0.029090652 -0.045135476 -0.06023556 -0.03458918 -0.08021321 0.01954961 0.016417947 0.0052744327 0.08005126 0.03702187 0.035133548 0.06223028 -0.047485843 -0.04318615 -0.03192781 -0.06483424 0.056934383 0.02187292 0.014256691 -0.052349545 0.010483597 -0.035615265 -0.01788317 -0.0300498 -0.014866574 -0.06561753 -0.04305741
london 0.0075672427 0.011273721 0.050864734 0.012078753 -0.06233808 -0.019051362 -0.0051531764 0.04916688 0.017930534 -0.025104959 0.003945157 -0.046994075 0.03465105 -0.0028911969 0.010704092 0.040517226 0.05545653 -0.0097834 -0.060384594 0.047694825 0.02670417 -0.06325682 0.00013553922 -0.053106997 0.056583162 -0.051912524 -0.049138624 -0.04796356 -0.04423038 -0.0025140878 0.062861815 0.03548567 0.039205234 -0.010629375 0.026827564 0.00887049 0.0128218215 -0.03551248 0.021252919 0.044887904 -0.02351338 -0.038489953 -0.0032284884 -0.038764443 -0.0144724315 0.037844837 -0.043822944 -0.0077158376 0.028215881 0.046541348
led -0.051603276 0.06008468 0.025796073 -0.051584978 0.00751067 0.03164731 -0.04415292 0.04024839 0.009172637 0.05512183 0.013001414 0.03880202 -0.033530284 -0.009266626 0.014015746 -0.062260505 0.043618627 -0.057423346 0.034368463 -0.014132032 0.0031875751 -0.057066675 0.011647072 0.028203445 0.0035646134 -0.0052224197 0.0033480534 0.08816752 -0.05723983 0.0026577387 0.09399113 0.056716602 0.06603318 -0.030681692 0.030434225 -0.022741893 -0.059963554 -0.04322847 -0.07152282 -0.033921756 -0.048929896 -0.0315295 0.06413341 -0.00044668862 0.009819323 0.05661274 0.06436732 0.05746546 0.047057386 -0.03148205
hoped 0.0141607 -0.007005576 -0.040574543 -0.023371037 0.04360608 -0.052560035 0.04462093 0.06918333 0.030187188 0.04049719 -0.06944591 0.035637964 0.04555388 -0.021807324 0.07051157 -0.060093753 -0.034573603 0.0050044665 -0.015128844 0.038995314 -0.0093316045 -0.0074536116 -0.0406954 -0.05052205 -0.0003497498 -0.06370015 0.013821947 0.029843567 -0.042313755 -0.032446284 0.05669571 0.036427774 -0.0040645944 -0.03980949 0.04814271 0.066961035 0.07491924 -0.0036744638 0.06809785 0.0263503 -0.041380998 0.010293333 0.004338603 0.058359623 0.048237916 -0.020458575 0.008009568 0.0024115355 0.041047096 0.026794355
another 0.05627439 0.04695003 -0.05452768 0.061706237 -0.0030055668 -0.012628857 -0.08762553 0.046550002 0.03137321 -0.03537716 0.050329823 0.035587117 0.070825055 0.06932154 -0.011863018 -0.0032734768 -0.01374983 0.015526712 0.022905111 -0.028533706 0.009623021 -0.019091511 -0.03301032 0.01616813 0.008873692 0.04206719 0.03021118 -0.007561027 0.0045233713 -0.0013437017 0.036514133 -0.02636765 -0.0037021553 -0.069223404 0.0313168 -0.0059222425 -0.0023793967 0.026702894 -0.03562189 -0.016239688 -0.012702952 0.039863758 0.037918832 -0.047615994 -0.058938198 -0.02967321 -0.05394322 -0.031931553 -0.012306556 -0.07190461
caucus -0.008556053 -0.052357044 -0.053808503 0.059808847 -0.014119541 0.028558513 -0.0748656 0.032817233 -0.027472997 0.05466002 -0.018329365 -0.06526697 0.052236646 0.058199946 0.05383486 -0.053078722 0.03471094 -0.014090263 0.0028320467 -0.044788726 0.046297215 0.007526325 0.02180839 -0.032712027 -0.050224792 -0.0012256334 0.0016031251 -0.006000849 0.048345372 0.036241375 -0.030420609 0.062471952 0.06149684 0.0045222724 0.027794978 -0.039834652 0.049530815 -0.00070392876 -0.0026201957 0.01803719 0.036502056 -0.023045113 0.04591428 -0.012465006 0.030582791 0.026826015 0.012268646 0.042846147 0.03343168 -0.049589593
away -0.01270473 -0.028890008 0.051319838 -0.031201031 -0.028015716 -0.07445066 0.060393333 -0.058562014 0.01069976 0.007829821 0.038950257 0.07208914 -0.03208928 0.048767023 0.03386816 0.007138543 0.037066106 -0.04922134 0.03131081 -0.096216425 0.011776086 0.002643466 -0.020454532 0.015037338 0.009520745 -0.0781974 -0.039373677 0.046136312 -0.06958817 -0.034030963 0.020161478 0.079839095 -0.021076167 -0.018796708 -0.03633253 -0.0095669925 0.03359501 0.034922123 0.052908175 0.012535626 0.059328377 -0.07026526 -0.060280565 -0.00100213 0.010420026 -0.04224823 -0.016871205 -0.033509552 -0.038551893 0.015722752
bright 0.007874914 -0.031457335 -0.0036889627 0.041062232 0.0397627 0.029500777 -0.06312839 -0.02408772 -0.0050522066 -0.019880826 0.0125757465 -0.05891086 0.06528413 0.013461403 0.025567047 0.044499427 0.029138854 -0.049878336 0.028167294 0.021190975 -0.07030897 -0.031936884 -0.036325425 0.0056835813 -0.03672483 0.05151194 0.075859055 -0.013744399 0.05509861 0.03738936 -0.06499969 -0.009441221 -0.060735743 -0.015647884 0.04474984 -0.034570888 -0.03401785 0.011385214 0.024542762 0.0031464268 0.059708174 0.075289644 0.057159018 -0.007070277 -0.035319928 0.01960221 -0.05291794 -0.045888096 0.0227944 -0.0051557766
however 0.030548897 0.04248929 -0.006292255 0.07899332 -0.030822681 -0.10336888 0.011569897 0.044249505 -0.04196238 0.009348519 -0.006051193 -0.008580841 -0.05997056 -0.027572032 0.020247998 0.059115693 0.062892936 0.010167034 0.011920661 -0.028844299 0.017317269 0.04150223 0.026881682 -0.022978283 0.03676918 -0.112514995 -0.03133234 -0.062236123 0.012611218 0.008679315 0.04528838 -0.033060905 0.06522444 0.045922756 0.008579953 -0.069420815 0.10034404 0.002817014 -0.072846666 -0.007518907 0.017995736 -0.030692216 0.044823635 -0.022465037 -0.045610555 0.012299431 -0.070818685 0.018482238 -0.029901173 -0.035151858
him -0.05354803 0.055872004 -0.048226256 -0.043287624 -0.06963736 0.01978692 -0.027204411 0.018306313 -0.014870374 -0.0013408265 0.057327196 -0.034003135 0.06462791 -0.06216418 0.07423839 -0.0045765666 0.036567133 0.041866846 0.029920861 0.0262487 -0.059930865 0.05147843 0.027057517 0.050403632 -0.04717961 -0.06615439 -0.035993144 -0.04397809 0.02185042 0.054111514 -0.07748314 0.018527493 -0.07165078 0.0007309343 -0.07883428 -0.014778778 -0.00784178 0.036443688 0.059764154 -0.011775291 -0.0044024894 0.027460936 0.017146919 0.055743482 -0.010457358 -0.022490747 -0.059653167 -0.0073426003 0.015426298 0.039869223
pope -0.04706967 -0.0007443781 0.04423756 0.03614988 -0.05913394 0.028991621 -0.057659462 -0.03458175 0.0076266215 -0.057468444 -0.031222308 0.041284766 -0.050010167 -0.012046056 -0.030950684 0.035239574 -0.054502465 -0.019388676 -0.024293743 -0.049583815 0.036564153 0.021828942 0.021799173 -0.07458866 0.056003414 -0.046390545 0.027951926 -0.0021759244 -0.06497018 -0.041517418 -0.030546168 -0.045485646 -0.0048267273 0.0044025485 0.056310922 0.011358349 -0.0013543625 0.033983335 0.044573788 0.022318866 -0.0449713 0.044885073 0.05873433 -0.020076716 -0.008981957 -0.042327236 0.018605899 -0.01235264 0.03265189 -0.015072173
wooden -0.012001279 -0.058298882 -0.026952736 -0.063707404 -0.017452393 -0.02085819 0.031326916 0.010265133 0.056188013 0.02185881 -0.060409572 0.051772267 -0.059623607 0.073832534 0.047334414 -0.002451809 0.04955159 -0.0640158 0.04730245 -0.022189677 -0.028997926 -0.06426167 0.002757979 -0.005342793 0.03535482 0.027055457 -0.015281408 -0.0042753406 0.029424258 0.040906858 -0.044739146 0.0714055 0.038788546 0.06633209 0.045815405 -0.010243559 0.029520513 0.045778718 0.026423082 0.016337214 -0.011521953 0.0026345686 -0.06747433 -0.034782007 0.06771575 0.036781706 -0.041963123 0.0014743659 -0.05343023 0.01113649
later 0.05235238 0.08030747 -0.062261146 0.06087835 -0.049372658 -0.019528769 0.014635386 0.06311623 -0.012381954 -0.0061766063 -0.06705474 0.03818182 0.006172071 0.021983095 -0.018704377 0.02869797 0.021762384 0.070323996 0.028252311 0.0058334093 -0.009303944 -0.0624249 -0.054349072 0.056943536 -0.057411175 0.027423486 0.03632347 0.030719819 -0.060291167 -0.042340297 0.030757982 -0.063047655 -0.058237232 0.0025491654 0.028373586 -0.0068884343 0.061286878 -0.06592245 -0.055042207 -0.034253452 0.025966708 0.04592527 -0.0285554 0.008000108 -0.056032035 0.03274171 -0.07532142 0.025760282 -0.030739728 -0.011590043
vulgar 0.04017379 -0.048971523 0.0067320517 -0.01247181 -0.027118485 0.05958164 -0.08072607 0.07125761 -0.058142025 -0.018474689 0.0024441308 0.027929293 -0.053941917 0.022225147 0.019808918 0.0110362815 -0.08333422 0.031814694 -0.039964877 0.063896865 0.07166327 -0.025191596 0.08162499 0.020390062 0.07248937 0.034397922 -0.07561049 0.07364054 -0.07144877 -0.07531849 -0.035063226 0.01181983 -0.0043395315 0.05627089 -0.021102091 -0.07848136 -0.017855361 -0.049032126 0.007206089 0.011709864 0.008913911 0.07562291 0.05401922 0.021346483 -0.027221665 -0.0685826 -0.03968339 -0.007776978 -0.019367285 0.02548783
than -0.095501445 0.09260308 0.017286863 0.019988403 -0.070313305 -0.049911384 -0.039271146 -0.033805437 -0.012133404 0.029375995 0.036910005 -0.07273045 0.00048513652 0.009502495 0.03685596 0.024871415 -0.045514636 0.01676086 0.05264251 -0.06037114 0.027800916 -0.044338875 0.005958778 0.060601495 0.066709146 0.06371989 -0.018105088 -0.015309932 0.0037842623 0.0237966 -0.06170243 -0.08764471 -0.054986637 -0.06380659 -0.0060599507 -0.08911967 -0.023260048 -0.044323705 0.06831572 0.003445941 -0.08218249 0.028664336 -0.060305037 0.0519021 -0.00076460245 -0.011732588 0.02002642 0.017813276 -0.067702815 -0.041575097
coming -0.022892246 -0.053036362 0.034843475 -0.027479434 0.043082707 -0.036321204 -0.043397456 -0.03765888 0.0050633037 0.052634303 -0.015743949 0.01910228 0.07461027 -0.026975367 -0.010502588 -0.038587928 -0.02675555 0.0068445895 -0.06487579 -0.017269172 -0.05052925 0.053913303 -0.01117008 -0.042849444 0.054394558 -0.0050124996 0.022586714 0.042336646 0.013695792 0.038360883 0.00051913795 0.024901627 0.07048491 -0.04605112 -0.05390246 -0.0342945 -0.040916674 -0.05972075 0.018939417 -0.021326782 -0.034366496 -0.01867072 -0.017285101 0.03898439 -0.025755977 0.044399135 0.027523916 0.024378173 0.018090842 0.0786598
her 0.0150705725 0.080478035 -0.016213832 0.0740149 0.047470246 -0.04955886 0.069420345 -0.02276075 -0.024118371 -0.001993476 -0.0026092879 0.07129622 -0.054837022 0.113460355 -0.055804115 0.021736229 -0.052955363 0.017656252 -0.03356962 -0.04252434 0.000791145 0.15339144 -0.0061016157 -0.0574995 -0.024302704 -0.024551217 -0.062194318 0.010695064 -0.02542473 0.16981862 0.07758169 -0.121187426 -0.06898846 -0.033439342 -0.053963788 0.07897658 -0.030912334 -0.01121875 0.115710385 0.0091571715 0.06828635 -0.0012181314 0.10821147 -0.013240577 -0.058849912 -0.04142626 -0.046506267 -0.13714838 -0.003226412 -0.043177977
flashed 0.05889781 2.8481823e-05 -0.015914444 0.02018507 -0.0377174 0.014115585 -0.0009961575 0.01071404 -0.04812804 0.022453103 0.057755504 0.03660364 0.036719006 0.06413915 -0.07776066 0.062233564 0.045332108 0.004066732 -0.053623814 -0.066150226 -0.057415962 -0.05338599 0.04084471 -0.0026125363 -0.008015725 0.028048113 -0.021058695 0.035953876 -0.031614468 0.03472413 -0.028007237 -0.026232114 0.00575774 -0.04032909 -0.038640086 0.015705962 0.030786382 0.07330569 -0.038526524 0.036980726 -0.047744963 -0.027884012 0.066212796 0.05638596 -0.041675396 0.055337872 0.052850194 0.037947003 -0.06840561 0.033835392
words 0.027892396 -0.021329662 0.0116996905 0.03444145 0.03840066 0.044711065 0.0007650992 0.009911118 -0.016693413 -0.056668863 0.041983806 -0.05609652 0.011778728 0.020043358 0.007726606 0.03557346 -0.027344795 -0.033679534 0.025845526 0.10257805 -0.005720471 0.017308742 0.057257447 0.010931399 -0.025619464 0.06146596 0.024344841 -0.0529561 0.04509639 -0.023511324 -0.0037116413 -0.0026298217 0.008215505 0.013299244 -0.06350054 -0.02109873 0.07327151 0.04215596 -0.003588337 0.053304806 0.006201465 0.025335794 -0.015318392 0.005963398 -0.026066497 -0.050660927 -0.0019942978 0.036699567 0.02181175 -0.061717574
lonely 0.005955926 -0.04908816 0.025915999 0.06416345 0.058246177 -0.050992798 -0.018564878 0.079456344 0.04120998 -0.0028590185 0.009406912 -0.053032506 0.027671462 0.039269537 0.028763995 0.01164774 -0.0046150615 0.076352015 0.017635487 0.004517945 -0.047667585 0.02353442 0.03230454 -0.038209148 0.04804018 -0.018670565 -0.02751685 0.041066203 0.043569576 -0.082741946 0.008810165 0.057565626 -0.08112007 0.022585243 -0.023010187 0.055679902 0.021137863 0.05924226 -0.0341132 0.023173053 -0.07704056 -0.02605819 -0.05394142 0.06879256 -0.0019452135 0.020337747 -0.041055743 -0.0035598634 -0.07184986 0.02263118
corner -0.045693513 -0.03845537 0.035407282 -0.024721643 -0.0238822 0.014044367 -0.033868372 0.043091778 0.03625494 -0.08611594 0.0040832823 -0.018810606 -0.042090923 -0.022687629 0.03577865 -0.0069130072 -0.03652113 0.012685504 0.049028844 0.049126092 -0.0017643581 -0.033722337 0.06265329 -0.044621125 -0.051263884 -0.0002862144 0.019366939 0.025293745 0.073317796 -0.054942127 -0.00089017197 0.055637714 -0.060416564 -0.019714482 -0.061264962 -0.017321499 0.033601854 -0.048364162 -0.027584296 -0.043756347 0.038419884 0.02142414 0.059515648 -0.07809417 -0.03980413 0.02176611 -0.009698405 0.038594235 0.010295103 0.056400612
darkness 0.013840261 -0.035530206 0.049254786 -0.013669204 -0.00603767 0.0016488977 0.011305084 0.019627199 0.029902138 -0.030154344 0.048280306 -0.014427251 0.050082877 -0.01232154 0.008329598 -0.04594515 0.014278185 0.03981901 -0.006052997 0.0059759733 -0.037975874 0.041879956 -0.030712085 0.0003077339 -0.07249161 0.016416416 -0.036118057 0.056590296 -0.056280393 0.028200524 -0.06570784 0.04026276 0.050554212 0.024095586 0.067997456 -0.043113533 -0.024729062 0.0809906 0.07973819 -0.022783684 0.016214881 -0.046348233 -0.0040146573 0.050894544 0.082265556 -0.011796983 0.07060346 0.020310992 -0.02306475 -0.006900107
know -0.034063328 -0.025840024 -0.013875181 0.03349337 -0.03513258 0.07703931 0.07062984 0.0040337155 0.0448538 -0.005786755 0.018925896 -0.016770035 0.015230837 0.029153455 -0.009476745 -0.010215032 -0.047815498 -0.0064807646 0.05415019 0.04006569 0.043906268 -0.031950038 -0.043549486 0.036557745 -0.07991953 0.036778584 0.014624944 -0.050664786 -0.021437466 0.054353207 -0.064700514 0.07352764 -0.05610849 0.0409062 0.051338688 -0.05129074 -0.027046537 -0.03550456 0.043939054 -0.075177945 -0.014702033 -0.038700387 -0.053946532 0.032282658 -0.044232357 0.016707579 -0.059143264 0.005639935 -0.03548636 0.08989455
matter 0.048869766 0.06554676 -0.042773828 0.054500844 0.020611435 -0.0062091206 -0.044148136 -0.04950939 0.012730949 -0.05460081 0.07741561 -0.07198331 0.046446655 0.003776872 -0.049066164 -0.026277747 -0.040287368 0.038786512 0.0659096 -0.054073405 0.069679655 0.026076397 0.032093845 0.050717197 -0.043281276 -0.0370056 0.019142104 0.030303923 -0.053854056 0.008798051 -0.05696153 -0.033794016 0.059982058 -0.01682231 0.07677962 0.007534121 0.06488878 0.072284594 0.026406674 0.035187066 -0.08471605 0.059520554 0.056309864 -0.043638833 0.051350273 -0.04521985 0.025698036 0.06768806 -0.04340135 0.033013426
considering -0.0046578394 -0.062284615 0.06252076 -0.041034054 -0.038538992 0.024091061 0.022154883 0.017797455 -0.0550881 -0.049180046 0.0062988717 0.011884659 -0.058838964 -0.020892324 -0.061302323 0.06472668 0.057066835 -0.050618976 0.06298164 -0.0119201485 0.010226762 -0.033043306 -0.0015013289 0.040958274 0.041377112 -0.033155385 0.028909951 0.05120243 0.011716187 -0.027696319 -0.06310364 -0.048133146 0.037737414 -0.06268779 0.056415427 -0.016537335 0.058070205 0.012410108 0.054258805 0.031529926 0.037782505 0.024237782 0.008303423 0.008724112 0.014997723 0.0036340104 -0.03839834 0.05417934 0.01074903 0.075782046
softly 0.023657482 -0.05184278 0.042414226 -0.0037877662 -0.05359386 -0.05184815 0.06941949 0.07047371 0.048539054 -0.024729839 -0.012756709 -0.03407101 -0.07467323 -0.06349995 0.007277386 0.037437018 -0.034286514 0.048624977 -0.07128274 0.040809043 -0.03669644 0.0096024955 -0.041618455 -0.018958773 0.079433315 -0.043783545 -0.0630896 -0.062638536 -0.03264552 0.029376363 0.010307414 -0.05727222 -0.05434767 0.057645142 0.035151135 0.011737876 -0.042322908 -0.010081534 -0.01632798 -0.07698846 -0.04329716 0.049677756 0.0065685534 -0.017216804 0.0016701681 -0.034787335 0.040632643 0.066162914 0.024066342 0.028147822
lit -0.019141426 -0.06128379 0.012198938 0.07510335 -0.051140778 0.032096803 0.005442174 -0.06694845 -0.03601067 -0.03732544 0.0076286234 -0.065955155 -0.022920758 0.024151074 -0.049670335 0.06044985 -0.059764262 -0.024620311 -0.029020596 -0.06252072 0.071877986 0.07704587 -0.01366663 0.005786302 0.0657376 -0.00051147956 0.005308278 0.06690951 0.01559189 -0.05468427 0.03010273 -0.0064432574 0.030739885 -0.0610642 -0.0024663885 0.04936373 -0.080051914 -0.0026996783 -0.02207253 -0.041967522 0.03518549 0.028025458 -0.02780999 0.010706254 0.04369442 0.01457056 -0.018447319 -0.048548546 -0.01373267 0.0576636
eye -0.05258741 -0.05541996 0.021296889 0.036691148 -0.05015487 -0.062224846 0.053060953 -0.046737235 0.064677306 0.00378549 0.027010351 -0.020071475 0.07730673 0.012427317 -0.058453564 0.0026723864 -0.014380309 -0.018349249 0.042345583 -0.04247712 -0.02500798 -0.0018571508 -0.07246193 0.016122816 0.029961346 -0.0044487384 -0.03577422 0.022281125 -0.065059386 -0.065680884 -0.0048136115 0.059778973 -0.003224879 0.048315488 -0.050496906 -0.040807057 -0.03718412 0.04892027 0.040071286 -0.06266802 0.059532445 -0.044778 0.025902364 0.003312567 0.014043043 0.058666132 0.06183072 -0.031690516 0.021468934 -0.040558208
edwin -0.06651832 0.02377725 -0.059533887 -0.07876777 0.059135497 -0.053314667 -0.01832236 0.094222374 -0.015838262 -0.041833133 0.030141981 0.0460463 0.0009258217 0.04012563 0.033039626 0.02412763 -0.058124572 0.073430374 -0.03766133 -0.063547365 0.05286242 -0.043999683 0.053268176 -0.029761743 -0.022971613 -0.03878875 0.0382522 0.048435207 -0.016729202 -0.05266229 0.035238657 0.023151753 -0.08335831 -0.030257275 -0.041428167 0.0040584244 -0.057743136 0.06931504 0.0027597167 0.0054817367 -0.054538343 0.005317178 0.043752097 0.018884068 -0.055764314 -0.033702873 0.031796727 -0.014424865 -0.018716624 -0.05334752
capital -0.06368028 0.038732123 -0.07044634 -0.042721163 -0.02054822 0.05259435 0.008929232 -0.05943264 -0.013820155 -0.018614015 -0.049021687 -0.038402975 0.041952994 -0.053564385 -0.04012572 0.054840732 -0.029445603 0.0057910085 -0.03670872 0.024388108 -0.052042443 -0.041810792 -0.01402278 0.010720108 -0.062060263 0.01403547 -0.016951598 0.08321624 -0.021891497 -0.040072277 -0.005780049 -0.068372935 -0.013653556 -0.08155084 0.06948538 0.010798561 0.076253906 -0.053430304 0.0064911945 -0.016870527 0.06619028 -0.030654017 -0.030758673 0.016059045 0.025201168 0.022170573 0.0005759391 0.010451687 0.0002598142 0.019994443
quiver -0.0026498735 0.01359021 0.07230389 -0.034220815 -0.062021226 0.0077020433 0.056330238 0.00870259 0.0008170756 -0.050329026 -0.06590458 -0.002561496 0.006025094 -0.028608939 -0.05692692 0.026382571 0.057811033 -0.044796765 0.07080011 -0.029815007 0.042092334 0.01329219 0.05172122 -0.025714178 0.014608274 -0.066354565 0.044013266 0.0128673855 -0.009339775 0.011673234 0.041665256 -0.07311034 -0.019661801 0.07086817 0.009847038 -0.060446467 -0.061094023 -0.019731823 -0.039972063 -0.056014773 -0.0068089655 -0.0012312701 0.05537841 -0.02103102 -0.04350071 -0.07837923 -0.04333783 0.05119122 -0.058317117 -0.009950751
hall 0.056547888 0.060939476 0.03968482 -0.046361066 -0.053566802 -0.0021512676 0.008198745 -0.010057634 0.02759837 -0.065385535 -0.004919928 0.018534146 0.05008603 0.02834725 -0.022712331 0.037585884 -0.02486578 -0.0071192915 -0.028034067 0.00044156052 -0.034284662 -0.07487338 0.058524713 -0.057673305 -0.022521691 -0.012868411 -0.01662574 -0.055568323 -0.02173347 0.00015341304 0.032635503 0.02041755 -0.101804264 -0.07355309 -0.06338612 0.017791832 -0.0120313335 -0.043485627 -0.017848631 -0.049974177 0.017814087 -0.017330933 -0.026551628 -0.027235003 0.039745804 0.05456272 0.07596539 -0.049145356 0.09036085 0.054386295
pointed -0.04837657 0.005959664 0.05223471 -0.0645898 0.018801015 0.017016321 0.002803354 0.052342564 0.027420433 0.019736601 0.004627774 0.010504375 -0.060665976 0.081132 0.02278655 0.003843885 0.0025772993 0.017790785 -0.047543634 0.015109642 0.06376833 -0.01860868 0.0031820587 0.04867749 0.021183653 -0.0012339777 -0.03221452 0.03047347 0.054097243 -0.0098807085 0.02511459 0.036111303 0.051114406 0.07964965 0.05253397 0.0422388 -0.038680438 -0.03198198 -0.050056048 -0.044868596 -0.06463166 0.057736956 0.04898737 -0.036897667 -0.011995726 0.05271194 0.012371264 0.05830346 0.03296088 -0.04731018
death 0.016677544 -0.052779738 0.043064453 0.04752949 0.058136 0.032170966 -0.020940375 -0.025664713 0.042625308 -0.016524531 0.038657144 -0.0033762008 -0.001076363 0.030789278 -6.917119e-05 -0.013888806 0.036154203 0.057725728 -0.003562741 -0.043345474 0.02856864 0.049815953 0.06118928 -0.03464776 0.010987967 0.041309267 0.062159017 -0.06780199 0.034910537 -0.0023840591 -0.06580057 0.018597297 0.018952563 -0.03966001 0.029049627 0.037281677 0.055096105 -0.015963066 -0.013025377 -0.03844637 0.013028204 -0.021667074 0.024289414 -0.046246745 0.035991743 0.06450151 -0.044823892 -0.0114720315 0.05344048 -0.010247447
thump -0.0631369 0.003598731 0.022252414 -0.011243494 -0.036498625 0.053921632 0.022928627 0.055630848 0.057328627 -0.03275467 0.042370357 -0.03808768 0.06429481 -0.010945273 0.023874018 0.061452407 0.0139522245 -0.074243605 0.00023833069 -0.08461043 -0.027434573 0.012324999 0.059159555 -0.060664177 0.0014411216 0.031009825 0.023977451 -0.026436057 -0.0076210257 -0.025003564 0.03373692 0.019761765 -0.0620185 -0.0077915573 -0.018172814 0.0030286121 0.012223937 -0.03351601 -0.021106 -0.06949644 0.0023880445 0.05097242 0.06509868 0.068086945 0.016389737 -0.018133653 -0.015915282 0.04856499 0.021188578 0.013475999
english -0.07516416 0.03225201 0.028858338 0.00519978 -0.03357503 0.030640388 -0.03746576 -0.04208732 0.047852438 -0.006579376 -0.023494987 0.05688053 0.023065312 0.030959873 0.05463802 -0.075471416 0.022661004 -0.11182182 -0.03418805 0.01104222 0.0005356375 -0.03554434 -0.012264509 -0.078713275 -0.04805609 -0.04169898 -0.026822677 0.06683693 -0.0454012 0.030058606 0.02324662 -0.05238455 0.032418236 -0.046429202 -0.0073797125 -0.0034999307 0.017584585 0.05243792 -0.01926005 0.0020196605 -0.021127826 0.036250275 -0.02167787 0.014855945 0.07438736 0.012629833 -0.07117134 0.082906544 -0.070278205 -0.023555208
until 0.02529224 -0.06387277 -0.04434974 -0.02667187 -0.0034069135 -0.073945254 0.05541417 0.036889385 -0.034537908 0.0035543246 -0.022274159 -0.0339096 0.04657074 -0.009670254 -0.060868617 0.0067356713 0.051378954 -0.007092187 -0.06785971 -0.021142496 -0.07694423 0.060962785 -0.024032466 0.05207437 0.012816183 0.051390138 -0.05130249 -0.051239815 0.05666488 0.0013272242 0.05638346 0.05822998 -0.020514889 0.042922966 0.051317696 0.05515463 -0.027975824 -0.032151055 0.07551648 -0.034797557 0.065369904 0.037801832 -0.016814906 0.035438746 -0.029301662 -0.073854215 -0.023234736 -0.014813239 -0.024615116 -0.0023910417
ones -0.04501406 -0.03771589 0.044012453 0.045051288 0.035076544 0.049328614 0.027622156 -0.039278354 -0.062693946 0.00011639786 -0.06059078 -0.009161735 -0.038010128 -0.026947374 0.006518036 0.026661962 0.066938505 0.07226219 -0.038600314 0.009071176 -0.012256634 -0.053529594 0.03015266 0.058898035 0.004691598 0.03275737 -0.02280232 -0.05222898 -0.0047256392 -0.016046602 -0.016389228 0.020209672 -0.032899696 -0.0429393 0.043884754 -0.039551996 -0.010958883 -0.03530024 0.013719516 -0.041996524 -0.035507858 0.05581675 0.007207522 0.057801995 0.038761336 -0.02651668 -0.008666101 -0.0034322152 0.078049585 -0.061005525
there -0.0009111528 0.049940895 -0.0011271259 0.019954048 -0.061090693 -0.03530085 -0.06540451 0.07019003 0.0047722086 0.10565897 -0.023695678 -0.07726263 -0.013789666 0.079266705 -0.059813086 0.038241852 0.02390796 -0.03507956 -0.06051786 -0.0031740842 0.00231278 0.041118674 -0.049837682 -0.02553176 0.028550109 -0.041042384 0.12979008 0.0016524295 -0.004105571 -0.09358756 -0.021493537 0.043311268 0.04466421 -0.112991884 -0.015635157 0.10102614 -0.06445031 0.083601706 0.017238023 -0.0017589576 0.109270774 0.07670083 0.050533876 -0.06099081 -0.02612393 -0.047128752 -0.038227685 -0.063568644 0.035398368 0.04317015
jumped -0.045283467 0.007305841 -0.05307342 0.04594643 0.06345984 -0.0019530886 -0.0243345 -0.03500132 -0.06296266 0.007748902 -0.014447577 -0.06099982 -0.015305179 0.057064954 -0.06964099 0.048845634 -0.012804856 -0.041742276 -0.04810581 -0.07594399 0.0072316024 -0.054287396 -0.063089386 0.031136462 0.025420008 -0.0766451 -0.0510824 0.021803914 -0.041987326 0.024741344 -0.036297176 -0.027693534 0.06468454 0.039846208 0.004595004 -0.036748633 0.06518116 -0.021705467 0.01972694 -0.04080085 -0.015639195 0.018631164 -0.04143879 0.031423274 -0.011580454 0.04619253 0.004851832 -0.03596414 0.045246553 -0.03098643
toast 0.062304936 0.06047184 0.0023523013 -0.05012695 0.018455727 -0.036198027 -0.05225805 0.0019558463 -0.014775649 -0.007697737 0.045254324 0.00230943 -0.015808338 -0.075064264 0.045523643 -0.028751029 -0.00925087 -0.0032279028 -0.052585304 -0.04817278 0.033567093 -0.01983127 0.014641275 -0.054864246 -0.036349583 0.0284906 -0.01121295 0.008518668 0.027560188 -0.016365634 -0.018590827 0.06445339 0.03445355 -0.06080701 -0.0035647266 0.055396497 -0.02508001 0.03974099 -0.06935581 0.027729364 0.01934212 -0.07290533 0.0265589 0.061113007 -0.037260626 -0.05826586 0.032376047 -0.0251334 -0.06644032 0.034704663
nurse 0.024783025 -0.025450418 0.004326518 -0.031533174 0.07007759 0.041219804 0.04393765 -0.0262903 -0.026029227 -0.057762414 -0.05649995 -0.052622773 0.020819208 0.009423464 -0.054117788 -0.017360969 0.020312715 0.022680199 0.04037532 -0.039727505 -0.016550468 0.041193534 0.022050522 0.036171168 -0.017760888 -0.018892204 -0.026108319 -0.020169878 -0.045877706 -0.066161044 -0.03350795 -0.020200888 0.043587856 0.056299064 -0.0008497301 -0.00010232639 0.009376863 0.0688922 -0.05768758 0.053841107 0.017374659 0.0435217 0.031066861 0.01672728 0.0073962207 0.054087512 -0.04795813 0.05379273 0.04826736 0.056620147
other -0.044142403 -0.020041205 -0.050027728 0.022495095 -0.030706849 0.00081411086 1.6339589e-05 0.035298236 -0.03788523 -0.026770419 -0.00061447837 0.043402597 -0.0028339946 -0.04583399 0.034680862 0.0297502 0.01601075 -0.022982568 -0.020936789 0.042013194 -0.052016314 0.0061540054 0.07756055 0.03108163 -0.037363254 -0.010140346 -0.04894226 -0.038435087 0.04914433 0.012899203 0.0058622733 -0.06018233 -0.05506904 9.954453e-05 -0.0401115 0.0048617558 0.044470586 -0.0331914 -0.017940378 -0.002390217 0.04692792 -0.028609015 0.054075688 0.01602316 0.037360076 -0.056748 0.015359837 0.02184283 -0.011230827 -0.05121864
hunting -0.06554329 0.061499838 0.031626906 0.0058330894 -0.050561167 -0.0017862804 -0.040485002 0.00053055916 0.05457417 -0.06542467 -0.03679275 -0.050626315 -0.0393797 0.02999102 -0.042464264 0.04265253 0.021695968 0.053742725 -0.062493734 -0.024282577 0.024604736 0.055111296 -0.048420887 -0.050309666 -0.013775594 -0.0015657368 0.010423512 0.04613216 0.024359198 -0.0038391089 -0.06504899 -0.05663563 0.024244808 -0.014245795 0.043745536 -0.04286928 -0.033383165 0.07191411 -0.056723766 -0.042708162 -0.06095434 -0.020350533 0.063023 0.0013554966 -0.07194834 0.04929271 -0.03949652 -0.036117494 -0.014575401 0.050726283
washing -0.040620428 -0.023778135 -0.045657977 -0.048351865 0.05409995 0.013900477 -0.004701057 -0.06334636 0.06993439 0.053534698 0.010318116 0.04145684 -0.065257795 -0.011703691 0.00845952 -0.008292395 -0.039084412 -0.007800446 0.02593641 -0.008558466 -0.020024683 0.0138050895 -0.06260581 -0.064981736 0.045479294 -0.06797568 -0.01942167 -0.043644186 0.0012952102 -0.016827675 -0.055929225 -0.0297026 -0.002609028 0.010233562 0.0032372205 0.036327384 -0.023565965 0.0017370015 -0.010464784 0.037636947 0.055567384 0.021051446 0.055966105 0.059694663 0.06438907 -0.05002004 0.023674255 -0.058247667 -0.0470857 -0.04203166
quicker -0.05065187 0.055203624 -0.04202684 -0.027949408 -0.04246304 0.03491479 -0.012778547 -0.042966627 0.0071079447 -0.07235869 -0.053534586 -0.053095803 0.067096375 0.026986793 -0.03129633 -0.029052787 0.028714662 0.042241238 -0.00049193786 -0.046210725 -0.027919618 0.010611341 0.022015024 0.04822105 0.0005858486 0.01120249 -0.013592703 0.01085153 0.057319596 0.039322365 0.020656656 -0.012360545 0.049464986 0.04813354 0.04747131 0.07124644 0.07578791 0.051240943 -0.014990896 0.041968204 0.07964917 -0.06112002 0.047336422 0.032976463 0.04709902 0.006462618 0.054897655 0.002505923 0.03906677 0.05959321
ma 0.018918188 0.042366847 -0.030558 -0.01857669 -0.027467761 -0.07576051 -0.015416001 0.06571856 0.020130815 0.050088704 -0.04990196 0.034313943 0.0336423 0.0014159904 0.037532777 0.024896812 -0.050095133 0.07474537 -0.01915748 0.037548378 -0.021723948 -0.0021516844 0.035134833 0.034927513 -0.08160537 0.041046765 0.026129737 -0.030718517 0.025692457 -0.07136627 -0.09201455 0.041207835 -0.042288147 -0.016282348 0.050238 -0.09806008 -0.05159202 0.05878507 -0.05014371 0.08102447 -0.05492258 -0.0441527 0.063288726 0.03574604 -0.020770935 -0.005864666 0.0390775 -0.08790708 0.06748531 0.030712157
completely -0.066421434 0.039904907 -0.054043304 0.027285261 -0.049871042 0.023293586 -0.034925856 0.0027603041 -0.012135811 -0.051975697 -0.044818427 -0.037551854 -0.072507344 0.0450727 -0.0411408 -0.038723987 0.0050450456 0.025031853 -0.0713114 0.010013545 0.057226066 -0.019055571 0.0013201548 -0.035956625 0.04255002 -0.059694238 0.026057446 -0.04825546 0.028151335 0.060158916 -0.050157525 -0.0334086 -0.009890155 0.014189111 -0.009614142 0.010822532 -0.052024215 -0.07492273 -0.045208044 -0.016635247 0.015480685 0.018015279 0.0023602392 -0.07514494 0.032307852 0.041193478 -0.052156802 -0.038747277 -0.05270423 0.04557334
yesterday 0.013815226 -0.06468551 0.044095874 0.011055489 -0.0326056 -0.0056716655 -0.057155233 0.005463797 -0.051517714 -0.037758425 0.0016721861 0.0106927175 -0.004259667 -0.015539393 0.06609996 0.009916714 0.0062510576 -0.053361684 -0.0016999798 0.04496596 -0.007837386 0.02641623 -0.047611073 -0.045702755 0.057958115 -0.06814978 -0.035530254 -0.05331377 -0.035193432 -0.018816711 -0.077367015 0.01434324 0.05824296 0.07584725 -0.035590235 0.061386332 0.017279193 -0.044576026 0.035099458 0.035646636 0.049499147 -0.073655546 0.055595987 -0.022223594 -0.007966053 -0.057403807 -0.021360464 -0.07974011 0.016390054 -0.055007793
shelves -0.012533066 0.021353744 -0.030660164 -0.005663762 0.045609087 -0.06313683 -0.010426623 -0.028484846 -0.05310961 0.0059890277 -0.010300745 -0.014681958 0.004638701 0.06039054 0.09117957 -0.04043601 -0.054437134 0.06844526 -0.05703861 0.016571198 -0.019959362 -0.071552806 -0.046210803 0.012029342 0.05995752 0.059800472 -0.03465675 -0.0013277328 0.037779998 -0.020110523 -0.022810224 -0.019410403 0.027124437 0.001166187 -0.042144332 0.00891011 -0.062257186 0.0441174 -0.010655828 0.019431217 0.026989337 0.02598874 0.0703019 -0.055425182 -0.039310306 0.020585112 0.041684203 0.03570752 0.06887741 -0.028432077
beg 0.005321754 -0.0071813334 -0.0011522894 0.014175257 -0.047415476 0.067471564 0.098029494 0.001543308 0.05521395 0.064029895 0.021424562 0.0072318944 -0.0255389 -0.008585952 -0.07678511 -0.060081765 -0.041201238 0.051409274 0.088752896 -0.051556814 -0.043683033 0.03318387 0.08201784 -0.009058845 0.049408186 0.0045014573 -0.06374186 -0.09406694 0.04470657 -0.033620052 -0.04908787 -0.110213414 0.032051533 0.06947313 -0.021913415 0.009906461 -0.08432477 -0.0025895392 -0.040119115 0.08615807 -0.019818982 0.011095303 -0.08952764 0.10132173 -0.032328553 0.018970704 0.06585012 0.067052096 -0.076145455 0.036501683
nearer -0.054857887 0.029898923 -0.065058 0.046195704 -0.022302518 -0.041828234 -0.034443155 -0.017270299 -0.049892288 -0.037792828 0.043497987 0.038329534 -0.03092089 0.05427135 -0.06959204 0.04364244 0.014867732 -0.016708078 -0.040748727 -0.047984246 -0.037132293 -0.019371942 -0.055852637 -0.043689776 0.05525664 -0.010558927 -0.018371828 0.036382463 -0.028771842 0.055391863 0.036037862 -0.059296444 0.047135007 0.06462319 0.07014279 -0.051057816 0.031230778 -0.014217058 -0.0060306285 -0.004260037 -0.017865956 0.027037866 -0.009088399 0.0018074334 0.07987125 -0.030288778 -0.020824492 0.029649697 -0.04833633 -0.031669226
left 0.016491564 -0.013209397 0.007226519 0.067921154 0.062871456 -0.03629676 -0.054760285 -0.033993464 -0.020390311 0.07809915 0.016173763 0.024286078 -0.03783947 0.023467416 -0.030164843 0.005343047 -0.034499276 -0.030276347 0.03409557 0.036062356 0.019966785 0.026016641 -0.025941245 -0.01229447 0.03709334 -0.04579554 -0.018613933 -0.059223726 0.048834603 -0.003238802 -0.017976327 -0.050970837 -0.049206484 -0.048583962 -0.008885652 0.04048423 -0.033459187 -0.045805484 -0.012829123 0.035013117 -0.06005097 0.04976577 -0.019403897 -0.036194913 0.02301916 0.04202799 -0.06909769 -0.07481676 0.05968019 0.005389024
guessed -0.0020845793 -0.034972783 0.017711168 0.038728468 -0.032940727 -0.028491464 0.01044492 -0.0049492954 0.033852562 -0.042247813 0.010526201 -0.033860106 -0.042635433 -0.001189846 -0.037627175 -0.040017158 0.04664553 -0.037481643 -0.025655422 -0.023432473 -0.0056009376 -0.015072277 -0.06112336 0.038785063 -0.034695804 0.043495014 0.043225482 0.05568082 -0.030998314 -0.049140118 -0.024181105 -0.0174296 0.049348824 -0.022890443 -0.031912245 -0.008126203 -0.036227614 -0.061207943 -0.014770219 -0.04396512 0.011067297 0.054859705 -0.011496998 -0.02091104 0.026888503 0.021165418 -0.05121739 0.013057616 0.05930909 -0.038033593
lazily -0.03599612 -0.05435119 -0.0012643007 -0.0048858225 0.053531505 -0.0273351 0.042456426 0.043055188 0.0072215144 -0.014652456 0.0342889 -0.01866933 -0.016152674 0.011500223 -0.0141096255 -0.005382549 -0.013143951 0.052157767 -0.071595386 0.0087308725 -0.06365712 0.024660002 -0.06302871 -0.0007588259 -0.039608326 -0.04210633 -0.026686208 -0.02435368 0.068629175 -0.027440261 0.040434428 -0.023507074 0.057794616 -0.044378962 -0.026591681 -0.042033765 0.023706708 0.05792479 -0.010464439 -0.036849458 -0.04621897 0.045842696 0.020256529 -0.046138257 -0.05009299 0.07227141 -0.044446994 -0.008387709 0.04111592 0.04537791
new -0.06624591 -0.051780682 0.06060237 -0.05857564 0.015926817 0.051619716 0.021487396 0.040064268 -0.027331665 -0.024251634 -0.025418246 0.009695825 0.029296612 -0.008058796 0.033039305 0.073382676 -0.0062072566 0.012174907 -0.0028352663 -0.05043487 0.041918598 0.038653743 0.007412383 -0.015020525 0.03939329 -0.05458356 -0.023586398 0.0059489924 0.053079154 -0.036050633 0.002747063 0.07028554 0.051950693 -0.032711845 -0.040742725 0.07033224 0.08350684 0.04564075 -0.06186936 -0.06052867 0.035546705 0.044231176 0.060618386 0.05156915 -0.025619172 -0.032766838 -0.017514331 0.06135112 0.06792707 -0.0044782865
across 0.023513066 0.012465024 0.0014590248 -0.04814888 0.047799177 0.051553912 0.02184063 -0.031839766 0.038612388 -0.03306755 -0.0084077995 -0.04937613 -0.07401545 -0.027048 -0.014553371 0.030899342 0.043215565 -0.06571604 0.0020851917 0.015595176 0.047033697 -0.007987348 -0.038144544 -0.06180271 -0.02962069 0.07098997 -0.022706037 -0.023972686 -0.0070512258 0.031084111 0.022175355 0.034797706 -0.053024 -0.064131364 0.05265298 -0.03063867 0.05409993 -0.038120173 -0.011981334 0.05858335 -0.06650564 -0.015837513 0.0058074403 0.048268333 -0.06548337 -0.072145574 -0.0047956174 -0.05068487 -0.052298434 0.003620099
low -0.09101303 0.07666756 0.058598895 0.01435848 -0.00047834695 -0.04477343 -0.108243614 0.019653112 -0.052104384 0.010066728 -0.028885024 -0.051969387 0.017965905 0.020044714 -0.0058803014 0.05740708 0.00908762 0.08155371 0.0068651442 0.008909615 -0.016770698 0.011053365 0.015531558 0.00544841 -0.06366841 -0.038437847 -0.081176944 0.011701332 -0.054807436 -0.032158796 -0.04013744 0.05206623 -0.037209436 0.00422047 -0.028984332 0.09128331 -0.05134165 -0.048419144 -0.066610396 0.052004945 0.06581035 0.008705767 0.05880532 0.06950631 0.0059924116 -0.025179323 -0.07777213 0.07076559 0.02124005 -0.04325901
struck 0.03393982 0.054815188 0.07336645 -0.0419514 -0.022885542 0.0685557 0.05904555 -0.025653288 -0.054847717 -0.00010693807 -0.022050736 -0.06409516 -0.04654233 -0.08208346 -0.037037026 -0.027954403 -0.00414117 0.01016753 -0.063683905 -0.035930127 0.04146043 0.05312769 -0.05558769 0.049021825 0.021716572 -0.009968084 0.014780559 0.07547353 0.02416009 -0.020225227 -0.05460745 0.057805885 0.024633633 -0.061870363 0.07376509 -0.050553817 0.027766276 0.041936964 -0.051318243 0.06946516 0.025666747 -0.0618462 0.056915876 0.014944484 -0.022150712 -0.010610552 0.048284378 -0.04980842 -0.007862221 0.047368586
opened 0.078521356 -0.030820275 -0.02030601 0.035464115 0.034813657 -0.027602244 -0.012787237 0.05069774 -0.06982743 -0.052208144 0.0083476985 0.054851945 -0.01192506 -0.05752101 -0.009347967 0.03231366 -0.05219681 -0.0022447258 -0.013828944 0.056219187 -0.038913023 -0.04413118 -0.010004012 0.011645414 -0.042851213 -0.03150353 0.041529804 -0.029338969 -0.0033396003 -0.034261744 0.06925775 0.045655847 -0.038180865 -0.0010012549 0.024803912 0.045023397 0.004556878 0.015407912 0.007107399 0.032473553 -0.05190495 -0.04807702 -0.05517266 0.037617404 0.010526977 -0.03336277 0.01171204 0.080171965 -0.015270571 -0.039213747
filled 0.04428641 0.046611663 0.018885225 0.06515562 -0.062961124 -0.076308504 -0.0010155427 0.023508804 0.034219973 0.02252128 -0.027124705 -0.021894298 -0.050774503 -0.07235287 0.028737746 0.010635496 0.016134946 -0.074648164 0.005619197 -0.061448995 0.018932035 0.07011937 0.06630113 -0.0032947462 -0.02906375 0.035790272 0.077520214 -0.048795518 0.010513564 -0.00056206365 -0.040344525 -0.027325502 0.014194039 0.0019492245 -0.04426094 0.023018537 0.030979088 -0.0037761834 -0.047544986 -0.016850654 -0.004995496 -0.047055848 -0.025457408 0.072491735 0.027259078 -0.0001768053 0.04093314 0.04708008 -0.0024595498 -0.0583248
half -0.0018805953 0.085610956 0.0027007898 -0.017962417 -0.04957993 0.019784302 -0.016618436 -0.060431264 0.09203076 0.012017726 0.055439424 -0.024823943 -0.045058116 0.075790055 -0.0033316775 0.03089112 -0.026317786 -0.08036481 0.040028557 -0.03498534 -0.06756348 0.050766766 0.00018745835 0.06644861 -0.03352718 0.035926 0.018326655 0.05504425 0.07382442 0.019863151 -0.045126617 -0.031485513 -0.053367354 -0.1117175 5.0600385e-05 0.07949833 0.036618236 -0.0055041392 -0.019742344 -0.0014328102 0.022028573 0.0010312585 -0.0048756897 -0.045277398 0.024550369 0.006154061 -0.015429695 0.024762157 -0.0023827823 -0.0037756735
look 0.06555435 -0.053697642 -0.027689273 0.05100761 -0.041385468 -0.054520525 -0.04821863 -0.0026047924 0.07194504 0.062907465 0.004702545 0.07508702 -0.0526236 0.031454913 -0.041204423 -0.007112155 0.001192347 0.00272028 -0.04706057 0.0052009523 -0.0011925444 0.064645454 0.057743367 -0.063621245 -0.012344057 -0.0698542 -0.021994792 -0.048454616 0.013217337 0.00723662 -0.012287659 0.04838879 -0.043323368 -0.016943326 0.0533372 0.03658701 -0.019290973 0.039289895 0.018672504 -0.026169265 0.045911975 -0.07834859 0.013568498 0.060134374 -0.03424558 -0.035345245 -0.07944081 0.039494343 -0.043947425 0.025229005
i 0.017544786 -0.05097966 -0.029643498 0.06124661 -0.15662278 0.18028243 -0.0016031631 -0.17223234 0.127503 0.07497895 0.0034264796 -0.091547996 0.12304043 -0.07238058 -0.11682185 0.0870839 -0.19918895 -0.017216396 0.11039265 -0.0026215548 -0.027666861 -0.13186981 0.042131335 0.0098093 -0.123743504 -0.05477505 -0.20468393 -0.080604404 -0.22742088 -0.1167368 -0.13171446 -0.04795151 0.2711637 0.14080863 -0.107911795 0.07254477 -0.13634464 0.21749406 0.10544541 0.1807384 -0.13727875 -0.12038125 -0.11045088 -0.03966413 -0.032194994 -0.12401029 0.011513557 -0.113341056 -0.10738462 0.0024741322
sorrowful -0.042446606 -0.06724501 -0.057354193 -0.038870446 -0.03624017 -0.03753378 -0.032882813 -0.012683267 0.027907776 0.0007572622 0.029530318 -0.04543826 0.0034044217 -0.01445007 0.05643298 0.0061930027 0.03270223 0.047374174 0.0051086987 -0.03252986 -0.04364444 -0.011268589 -0.045161054 -0.0053108837 0.014658552 -0.049379013 0.01460808 0.053419344 -0.016803373 0.059036084 -0.022060223 -0.04831025 -0.032146055 0.015831603 -0.021797208 -0.015627565 0.04030344 -0.033312727 -0.050477907 -0.057800423 -0.042663082 -0.04828681 0.04938005 -0.0211498 -0.013389472 0.024943084 0.02646095 0.0031993906 -0.027938038 -0.05015805
again -0.03180558 -0.038700152 0.022618279 0.03227567 -0.05789776 0.024024688 -0.040334404 0.0438271 -0.015829653 -0.039693996 0.036222048 -0.052046828 -0.08065187 0.007436538 -0.07920155 0.011411116 -0.021851502 0.037801374 -0.038817115 0.053916965 0.08476977 0.04522137 -0.05790556 -0.009075917 -0.027678415 0.0124737425 -0.10986255 -0.07910763 -0.031923924 0.03903271 0.04138323 -0.036102183 0.03437731 -0.0753648 -0.007599329 -0.029911218 0.059568733 0.068661876 -0.0076735676 -0.0012329987 0.026622187 -0.04250931 -0.024609277 0.078031585 0.00017916795 -0.082467936 0.054574136 -0.0024431641 -0.067916065 -0.10251945
creatures -0.0012663531 0.061153762 -0.052762706 -0.008861998 -0.05697515 0.009253268 -0.05437215 -0.057750795 -0.024311975 0.00975996 0.067954645 0.014572042 -0.01630216 -0.04216307 -0.02858964 -0.0053382823 -0.0062780627 -0.03821666 -0.07051601 0.02193558 -0.018211737 0.032149304 -0.012357195 0.051173028 0.048499078 0.041724686 -0.0021003936 -0.07096608 0.05469623 -0.06543014 -0.05383532 -0.058563028 -0.05178259 -0.016914422 0.017108874 -0.04409243 -0.075906426 -0.042896114 0.07719109 0.017951163 0.07520302 -0.028343827 0.016165815 0.047346875 0.0717993 -0.0800016 0.050602783 0.061085068 -0.01022725 0.0492141
strange 0.020191576 -0.013669771 -0.016020363 -0.067813754 0.0703898 0.020334994 0.02400878 0.03236344 -0.005062753 -0.05950324 -0.024655238 -0.014752763 0.07397151 -0.033871543 0.03816457 -0.021112973 0.05802999 -0.018665034 0.03392225 0.047129173 -0.052997995 0.048701648 0.06746569 -0.027045522 0.054094076 -0.035072412 -0.0082187615 -0.052483745 0.057829253 0.022305988 -0.02060504 -0.028730297 -0.0189549 0.0069266926 -0.034274083 0.007035653 0.00049265916 -0.030263303 0.006135487 0.032515857 0.05616772 -0.0003378375 0.019728301 -0.051100742 -0.064138435 0.01809048 -0.028138459 -0.062102508 0.06581184 -0.026184311
temper -0.0073916474 0.047084823 -0.04418826 0.042359486 -0.0043439874 -0.054687157 -0.0068865353 0.07589956 0.062033717 -0.053158823 0.072959885 -0.071867794 0.06454486 -0.07420911 -0.074438125 0.042443447 -0.062372055 0.048273694 -0.031178795 -0.069640234 0.05547775 -0.0785591 -0.054975517 -0.033421796 -0.050653286 0.0043471674 0.0116012925 0.07352481 0.012774202 0.059303135 -0.05760079 0.06216356 -0.031031579 -0.056565903 0.07980093 -0.011913111 -0.060957987 -0.07237881 0.04274296 0.058846336 -0.025463674 -0.008040592 -0.03771872 -0.059993688 0.074706614 -0.034274906 -0.048821308 -0.040033646 -0.04076107 -0.015644517
hurt 0.05669019 -0.03773716 -0.08261776 0.042190045 -0.009466713 0.023105226 0.04099367 -0.0044634705 -0.051581364 0.004571799 -0.020329276 -0.029005881 -0.054557964 0.007197555 0.029775208 0.049321055 0.027509606 0.017380133 -0.06391508 0.012618652 -0.019442318 0.058539554 -0.009975973 -0.05374258 0.047486246 -0.048646256 -0.048326474 -0.012967778 0.025074504 0.003194802 0.009474859 -0.011207301 0.057068665 -0.010148073 -0.0032767858 0.019364357 -0.015014151 0.001465898 -0.0038443306 -0.058314826 0.043089945 -0.003982186 0.019433966 0.024065316 -0.04567183 0.015074634 -0.031256966 0.077933185 -0.041646242 0.04303746
sound 0.01161442 -0.025554242 0.04900788 0.0319706 0.046574272 -0.07204155 -0.0148175 -0.0063956394 -0.04183896 0.016461946 -0.04383104 0.06781012 -0.03724827 0.011002339 0.012389711 0.0436548 -0.016809257 0.03776553 -0.0061694477 0.048466645 -0.019670261 0.025182728 0.062248167 -0.04200109 0.06644669 0.008842767 0.016882848 -0.006938157 -0.06592277 0.03317929 0.06337598 -0.07615566 -0.04980171 -0.054895684 -0.038641304 0.041091118 0.04779371 0.07046104 0.015812365 0.02920492 -0.07586566 0.0702952 -0.033009138 0.009677619 0.014747116 -0.065007135 0.04628988 -0.01950835 -0.07170235 0.0021329224
sulky 0.06800586 -0.02219781 0.05966206 -0.03709049 0.077219084 -0.05636394 -0.03253245 -0.057113383 0.017163549 0.052847162 0.030980222 -0.016668363 0.006512321 -0.028144363 0.018971559 0.020866197 -0.01901364 0.031345684 -0.020414645 -0.07269342 -0.017096948 0.0508522 0.06580303 0.033047583 0.010044991 0.06293401 -0.004353484 -0.067351244 -0.04884268 -0.01573591 -0.03688592 0.07529294 -0.080880076 0.030968029 -0.014957561 0.048847076 -0.052661918 0.0036839885 -0.05091476 0.01900234 -0.029473132 -0.05217881 -0.036407657 -0.057177845 -0.06652798 -0.0085828155 -0.040678684 -0.029308889 0.026019055 -0.0029522795
explain 0.03485253 -0.01797739 0.012799071 0.048420276 0.057922676 0.027844207 0.0442631 -0.018962119 0.023564156 0.036872093 0.064280845 -0.06235597 0.01959091 0.00035560143 0.0448524 -0.0121662 -0.0549935 0.07357864 0.003625103 -0.025655389 0.042881362 -0.05206942 0.018271044 -0.010566609 -0.0410941 -0.043380916 0.004128063 0.033938836 0.024531413 0.022377184 0.06371537 0.045276448 -0.012090674 -0.06473977 0.007519693 -0.050518274 0.014693789 -0.020657834 -0.053043503 0.033910926 0.019642025 -0.014802667 -0.037988238 0.009651186 0.046132147 -0.0063505685 -0.0563235 -0.034173544 -0.06341661 0.094493434
knew -0.012563642 -0.06424602 -0.07258797 -0.036832526 0.04617303 -0.071083084 0.04136026 -0.03764867 0.043139294 -0.028500779 -0.068209924 0.07584974 -0.02784158 -0.03915911 -0.0018860582 -0.035898913 0.043327644 0.028043164 -0.008148801 -0.01069812 0.055571843 0.032468263 -0.023597991 -0.046618264 -0.04405996 -0.047020264 0.037575208 -0.0006061136 0.0518209 0.036085322 -0.027212417 -0.039651413 -0.017216612 0.0024167562 -0.021456411 0.047995847 -0.051994395 0.028694099 -0.06744597 -0.018301025 0.05881218 -0.031729605 -0.0053272513 0.06352205 0.060281806 -0.052232143 -0.0020360458 -0.05202031 -0.022953626 -0.020940483
hopeless -0.07456854 -0.027607828 0.06923459 -0.050441965 -0.046698187 -0.0068827034 -0.07888022 -0.049701974 0.05775282 0.07536138 0.03223116 -0.044887923 0.042094335 -0.03813715 -0.048464388 -0.065018535 0.019827629 0.07102226 0.08098527 0.05331173 -0.03157698 -0.027419817 0.011618303 0.081541784 -0.06957754 -0.052461028 0.009233883 0.05495294 -0.05318151 -0.06250295 -0.007558603 0.011893329 -0.016540568 -0.024655908 -0.04116614 -0.033081662 -0.06650234 -0.039701 -0.027020244 0.07363759 0.026621468 -0.043575466 -0.03320492 -0.0152810905 0.020748444 0.019786458 -0.033101816 -0.043400872 -0.050157852 0.054828927
question -0.07363397 0.05049083 0.06613574 0.03540601 -0.053486258 -0.023982072 -0.07141221 0.029966205 0.023826929 -0.0953476 -0.06765585 -0.06519751 0.049663648 0.053328477 -0.0040057814 -0.055673223 -0.0023237804 -0.0455752 0.022581365 0.05402872 -0.025633464 -0.09622147 0.04404833 -0.026373401 -0.0029909606 0.038464207 -0.027629929 0.077614225 -0.012544375 -0.0020116665 -0.010757895 0.011734667 -0.068810605 0.0020634122 0.04153088 -0.014091556 0.059222005 0.022012116 -0.012419525 -0.012280032 -0.05333862 0.056656886 -0.049255177 0.019628128 0.03876926 0.027478911 -0.012202437 0.0093729915 0.062393855 -0.0020643244
nervous -0.06084079 -0.02422057 -0.014062972 -0.060598295 0.058188993 0.0720494 -0.039431833 0.0020023906 0.023992829 0.019114895 0.049196817 -0.049388528 -0.038046673 0.002032072 0.04879436 -0.052318104 -0.05967098 -0.005930614 0.007988636 0.043856017 0.05384798 -0.013886717 -0.0071899085 0.023592455 0.029130854 -0.051560335 0.022691958 0.055238884 -0.020139012 0.009757753 -0.06481078 0.011388379 0.042045936 -0.0103477435 -0.03188281 -0.028582761 0.048183385 0.026928643 0.034402013 0.04690012 0.0411778 -0.03790292 -0.035640284 -0.057931453 0.06035402 0.013950133 -0.04721551 0.019577704 -0.039033256 0.017536715
bye 0.04702298 -0.011295835 0.011970002 0.038528655 0.029437564 -0.007449109 0.01934253 0.05742461 0.032661363 -0.012169036 0.055079013 -0.026130704 -0.019359108 0.072876304 -0.007614058 -0.0057254173 -0.0046371263 -0.024089348 0.05506112 -0.08047567 -0.0012119751 -0.02878176 0.019303448 -0.005088039 -0.03708059 0.03138965 -0.022122055 0.03340283 -0.045423087 -0.07949008 0.04874798 0.052239615 -0.047933742 0.010877453 -0.08363811 0.05453489 -0.014535522 -0.07188561 0.07575149 0.049508 0.045382496 0.07098631 0.078246124 0.014711712 0.05395371 -0.014051452 0.052590385 -0.0026019637 -0.0526966 0.0072224163
trembling 0.022564795 -0.035303246 0.019183155 0.0076149255 0.02499111 -0.042469267 -0.027131533 0.048776034 -0.0049639987 0.027633008 0.0057478156 0.0422228 0.014011888 -0.05193627 -0.04657754 -0.020475667 -0.043670908 0.033414673 0.034146152 -0.05251688 0.0033769878 0.07345804 -0.07521261 0.040665235 0.012823639 -0.018147195 -0.03155555 -0.026346603 -0.059041444 -0.020874145 0.0004016821 -0.035938483 -0.008238713 -0.02647616 -0.07400067 0.06851927 0.031242978 -0.07578703 0.008438447 0.018280046 -0.030501697 -0.0353003 0.0013227699 -0.07874366 0.057320137 -0.028629795 0.043980878 0.020759791 0.06922728 0.043909255
fanning 0.05083624 0.0036562965 -0.06565988 0.061486572 -0.04671746 -0.03848993 -0.012621041 0.045386463 0.04991775 -0.024324324 -0.005727333 -0.047432978 0.059715398 0.053583924 -0.0395219 0.052899837 0.01717753 0.041670673 -0.02117109 0.0029708787 0.053375497 -0.06654247 -0.04680453 0.065933116 0.0034455657 0.04406507 -0.034379076 0.025702331 0.03694068 -0.037516598 -0.006793906 -0.066436104 0.023759061 0.028807057 0.0011940964 -0.050570328 0.054845445 0.05629709 0.009595609 0.00050309126 0.027202835 -0.022159383 -0.045905855 0.026344998 -0.04912744 0.020315338 0.05329074 0.026542606 -0.032871332 -0.069276035
uncomfortable 0.045284417 -0.036204576 0.045953136 -0.0017580879 0.016399661 0.059411768 -0.006193547 0.07567076 -0.022630611 0.045714695 0.015574932 -0.047752395 0.07482314 0.06718322 -0.016372189 -0.012560593 0.021290565 -0.037386313 0.010385536 -0.030043231 0.049083278 -0.002666991 -0.00088637474 -0.04405772 0.008385211 -0.044921618 0.01624495 0.02962676 0.03979195 -0.039183214 -0.038678903 0.05867378 -0.0106859375 0.008303744 0.016162047 0.05546708 -0.03438192 0.03760077 0.03396425 0.019481929 -0.07109855 0.06593312 0.040673047 -0.039786857 0.05320717 0.04272291 0.06925967 -0.04891806 -0.0024167083 -0.01648136
lose -0.060368337 -0.03111353 0.02878073 0.017708585 0.042427078 -0.014539685 -0.035503678 -0.033751827 -0.016929314 0.044011503 0.021697827 0.017959082 -0.0076348903 0.011506649 -0.05543655 -0.01087621 0.014327826 0.06917966 0.037871614 0.061505675 -0.011635284 0.0076160002 0.018395808 -0.0714928 0.06756542 -0.026991215 0.020250775 -0.008000516 0.059658255 -0.06316836 -0.05041478 -0.011245029 -0.03627786 0.037034076 -0.001651068 -0.009418335 0.031934254 0.016257498 -0.047296137 0.03865666 -0.019665623 -0.05652858 -0.011145664 -0.01524044 0.0020738319 -0.04859514 -0.06401318 0.05253014 -0.07791986 0.010181547
simply -0.013685421 -0.00080701907 -0.067659155 -0.039384283 0.013464945 0.020395035 -0.06179519 -0.05091761 -0.05295331 0.06101611 0.0100482 0.04385311 -0.02454514 -0.016003361 -0.04480526 0.054778207 0.032218218 -0.017132329 0.05520432 -0.022336943 -0.0042294697 -0.06336129 0.056224905 -0.069826886 -0.0042299572 0.019860992 -0.0022020014 -0.009135727 0.025599428 0.049028486 0.008345296 -0.067724414 0.044513166 -0.0077649937 0.06842296 0.013762698 -0.02903269 0.058672097 -0.05032784 -0.044914037 0.04248263 0.056789026 -0.043170296 -0.04139879 -0.012704164 -0.048867412 -0.030880112 0.014859722 0.05437416 0.061355043
s -0.010322009 0.04446588 0.0020545507 0.029795697 -0.045123097 -0.03067305 0.063338295 -0.03922009 0.048867095 -0.01080619 0.055022657 0.025142929 -0.08780759 0.044888478 -0.024596093 -0.004804639 -0.05714549 0.01948397 -0.024203334 -0.098628305 0.08624857 -0.034929425 0.050625406 0.009139929 -0.002769943 -0.022665627 0.07052185 0.010401557 -0.0019058503 0.045178827 0.09090628 0.07536114 0.054289285 -0.012615564 0.068183504 -0.07782296 -0.00012893893 0.025687065 -0.015916506 -0.009469485 -0.06565602 0.035870068 0.10009389 -0.022496367 0.0358047 0.018090004 -0.0100709135 0.017540606 0.079511195 -0.020441372
friends 0.044912584 0.007389432 -0.002520536 0.07393278 0.061048243 -0.04294504 0.006312172 0.043926682 0.073491395 -0.03371695 0.030885464 0.05648116 -0.06138688 0.044410363 0.06266961 0.044448387 -0.03526149 0.02238732 -0.06516037 -0.045949057 0.01675199 0.054658387 -0.04525173 -0.023068924 0.020159239 0.06799441 0.06018038 -0.009488208 0.06958149 0.059235908 0.047087822 -0.02403868 0.008283093 -0.042050947 -0.06629831 0.015016293 0.055507563 0.011806766 -0.018125642 0.01595877 0.036749817 0.04440108 -0.02173898 -0.023419205 0.06257082 0.039870758 0.013921423 0.0179518 -0.017145563 0.0012145531
direction -0.027030202 -0.0039803265 0.016644591 -0.045395557 0.02342524 -0.039053716 -0.03850293 -0.02763162 -0.07815928 -0.02013858 -0.03153054 -0.056989726 -0.033700567 0.029814683 0.075843446 0.05773976 -0.029597938 0.04570701 -0.002118033 0.035704464 0.03896073 0.043236956 0.042414002 -0.06956362 -0.011566921 -0.052500617 0.009590279 0.0433655 -0.008107919 -0.041662946 0.0068171183 0.06950442 0.0404061 -0.007399986 0.031086704 -0.011495716 -0.00079732516 0.05147272 0.049230587 0.023152545 -0.02464157 0.047189638 -0.055145726 -0.0112321 -0.009657049 -0.04757834 0.04546084 0.041495085 -0.042640526 -0.0044446434
smaller -0.06649779 0.01962308 0.07952598 -0.023125215 0.00066292204 0.0094455015 0.028020622 -0.0051288335 0.008174927 0.06788561 0.021217944 0.017156038 -0.028216368 0.07434623 0.02653803 -0.06403744 -0.00795175 0.05959526 0.04010091 -0.07468436 0.031136932 -0.036362793 0.07481189 -0.016656917 -0.049086906 0.0034053568 0.01359659 -0.07377629 -0.052308023 -0.011616908 -0.035985462 0.017851872 0.009959807 0.045002934 0.06887056 -0.013192229 -0.062173627 0.046859734 -0.04247607 0.016789136 0.014604957 -0.06019278 -0.053615518 0.07460308 0.00020255218 0.01119232 -0.029703625 0.054150365 -0.03487943 -0.02832463
nice 0.027458461 0.06367792 0.019468028 0.08287789 -0.09366442 0.03794051 -0.06575281 0.065792605 0.0190236 -0.042285785 0.048973907 -0.06763375 0.0028362917 0.051529787 0.00088300474 -0.01794538 -0.008390103 0.0051624 0.029113207 -0.037988637 0.0349716 -0.01163817 0.05894725 0.07246797 -0.014712653 0.043480575 -0.025463134 0.043190815 -0.043478176 0.0536198 0.052315813 0.06082726 0.08457391 -0.007401857 -0.037727322 0.07849247 0.010445546 -0.05637271 0.038211673 -0.093919456 -0.0016959826 -0.040493928 0.034744777 0.051709514 0.06408583 -0.039846677 0.0036590402 0.02713247 -0.062458776 -0.0011834839
even 0.002293461 -0.053927433 -0.01421801 -0.010525313 0.03768063 0.008458412 0.038705345 0.068091854 0.022954648 0.01666709 0.02454357 -0.054206774 0.035693623 -0.032385994 -0.01945407 0.024157003 -0.10424571 0.026539236 0.022386115 -0.00255922 0.04454151 -0.018365933 0.088109046 -0.0038859993 -0.07539993 -0.020755712 -0.048453726 -0.0113212 -0.080236726 0.009576583 -0.08889114 0.04941312 -0.068329245 -0.016631821 0.029618751 0.032989737 -0.093650974 0.03737873 0.041344065 -0.02449917 -0.023360869 0.038710408 0.06370169 0.027665874 -0.011498464 0.03398401 -0.009391731 -0.055392075 0.025140576 -0.012181171
maps -0.013330021 0.05160035 -0.010466081 -0.051365457 -0.034226097 0.016418817 -0.014405605 -0.005611123 -0.07336566 0.07044505 0.0069661355 0.009895812 0.05121211 -0.033759493 0.04329528 -0.051823795 0.02617391 0.012264593 -0.047958497 0.040557973 -0.02160657 -0.037987757 0.035032146 0.033228114 -0.006052701 -0.064590134 0.051227756 -0.0098231565 -0.041233763 -0.013301518 -0.03005697 -0.0073632174 0.07608531 0.031512965 0.06539598 -0.010025853 -0.043987717 -0.02174132 -0.0034394881 -0.020096255 0.066375256 0.019170742 0.06971058 0.039644152 -0.0766298 0.04041527 -0.056536462 -0.00033304538 -0.0077039516 -0.04233381
inches -0.03623471 0.059495714 0.009710746 0.0540788 -0.080516726 -0.03650302 0.012430653 -0.0036191079 -0.047315687 0.055742722 -0.009244864 0.0083396435 0.032234706 -0.0057753813 -0.058722835 0.003160291 0.0703261 0.047043987 -0.067828916 0.01003676 -0.028395602 0.07018842 0.05337659 0.042143542 -0.02672558 0.0017508004 0.014442398 -0.05763986 0.069877505 -0.020035733 -0.014299992 -0.0011650447 0.04549111 0.054866605 0.012290327 -0.088520944 -0.016203694 0.08893391 0.070495814 -0.069169275 0.024812292 0.055222943 0.07270907 -0.009535367 -0.08360819 -0.041864645 0.007877678 -0.014433574 0.04880385 -0.06391877
old -0.07612212 0.08508912 -0.01172007 -0.0143277235 0.03407873 -0.0504432 0.052370667 -0.02588921 0.06517579 0.009854576 0.06525442 0.08408879 0.0969533 0.01880909 -0.040934373 0.085755214 -0.07008699 -0.012511236 0.047929127 -0.080764465 0.00573885 0.020711906 0.037432805 0.0854364 0.05557793 -0.022232782 0.05154798 0.04027959 0.07761216 0.08157068 -0.025907386 -0.067620136 -0.027028745 -0.035418738 0.05635931 0.017966866 -0.06282743 -0.027537342 0.07014361 0.0469863 0.045005493 -0.03242288 0.0077344896 -0.045373075 0.08021113 -0.07039414 -0.029711839 -0.02421137 0.042063612 -0.02185947
showing -0.0076390356 0.073790245 -0.005704429 -0.03724427 0.026739724 -0.0678396 0.035553347 -0.06486608 0.017284958 0.03604057 -0.057059355 -0.009251656 -0.029967418 -0.010631059 -0.05928222 -0.026869042 -0.050674338 -0.0302608 0.0714569 -0.012775053 -0.0475132 0.038822707 0.01112894 0.029678665 -0.0622887 0.0201377 -0.05940332 0.017242588 0.009111397 -0.06208599 0.0060759685 0.010598005 -0.006211183 0.020532815 -0.019795613 0.06268701 -0.0684081 -0.06964008 0.010459538 0.032852083 -0.040412147 -0.059186276 0.0043318123 0.009790783 0.06249682 -0.04274554 0.017929828 0.05694802 0.020236176 0.04480958
six -0.074452065 0.050795633 -0.07745543 0.078928225 0.01953708 -0.038206644 -0.02894461 -0.01760415 -0.059825096 -0.021276709 0.03151424 0.07676937 0.03752846 -0.048406098 -0.017362507 0.04825175 -0.061057687 0.057122655 0.05734119 0.034860317 0.020067012 -0.009156108 0.07022912 0.02404556 -0.022757743 0.06359978 -0.07467468 -0.0050886534 -0.035776228 0.025680475 0.014625341 -0.047352295 0.029830836 -0.0050924933 -0.070351474 -0.024864517 0.025733389 -0.04964107 0.06773782 -0.07481342 0.026209733 0.034884367 0.017050128 0.07689685 -0.06717898 -0.010590368 0.024693456 -0.044445854 0.012018028 -0.025576862
small -0.035953727 -0.058078762 0.010378199 0.04096921 -0.03871985 -0.051377475 -0.026331559 0.02070488 0.037811406 -0.014913609 -0.017873352 0.01160637 0.043824553 -0.05254053 0.02682475 -0.02485682 0.043279104 0.022240825 0.03753062 -0.055105712 0.050328366 0.017048005 0.034184918 -0.062741786 0.02451034 -0.06516859 0.046323616 0.07100358 -0.04533781 0.010403403 0.0676801 0.06255711 0.054032225 -0.08819594 0.028972112 0.067180865 0.0059892866 -0.0068115313 0.0105025545 0.0122999055 -0.017547445 -0.07054318 0.037487812 -0.042128608 0.000911669 -0.03115002 0.02708024 0.029935839 0.058449637 -0.01196459
five -0.06691265 -0.0005424577 -0.039218046 0.045407563 0.059526626 -0.0031060586 0.017240644 0.06496188 0.026059745 0.05977586 0.03945045 -0.05235653 0.031691253 -0.06870069 0.015903179 -0.080542445 0.07942331 -0.040976662 -0.03899995 -0.021002078 0.07211694 -0.011832002 0.06479601 0.03234649 -0.013350068 -0.03774358 0.0330673 -0.030172493 -0.018791648 0.06639859 -0.032433126 -0.05926524 0.0073632896 -0.03030513 0.04850758 -0.07411754 0.021706324 0.037309386 0.0075061284 0.0760905 -0.010687465 0.036556944 -0.041827206 -0.0017009162 0.021094076 -0.017869435 -0.03646458 0.051374365 -0.07420903 -0.030663043
useful -0.062774874 -0.047010325 0.019352114 -0.030058445 -0.021263268 -0.062241938 0.0073759467 0.009264945 0.06385933 0.038150094 -0.040101234 -0.024590805 0.023485485 -0.028422426 0.002158727 -0.0595953 -0.06067515 -0.052287064 -0.04269787 0.015615074 0.04983792 0.01311395 0.04606253 -0.012229941 0.04729161 0.015976124 -0.037720684 0.03957133 0.025894172 0.016882654 0.0040190015 -0.007810025 -0.06313556 -0.021282038 -0.064853504 0.030793313 -0.060811244 0.0003054624 0.0005132458 0.04794227 -0.020385873 0.015218225 0.041410327 -0.009029953 0.03637708 -0.026638974 0.055982746 -0.050174806 -0.008835588 -0.01994813
sighed 0.005526698 0.06924516 0.073140346 0.02392305 -0.009446199 -0.0344259 -0.0055060526 -0.04995526 0.05215368 0.019264087 -0.019959867 -0.04864432 -0.045621563 -0.0036880584 0.054686304 0.01193328 -0.03482528 -0.012957796 -0.018362857 0.033081107 -0.0741381 0.0370182 0.032622118 -0.0028084563 0.0013576471 0.0114773745 0.021775672 -0.0019605008 0.07346891 -0.03974941 -0.076997526 0.002905087 -0.0384209 0.03375873 -0.012560884 0.012485921 -0.03217013 0.056374677 0.0272588 -0.043070752 -0.029098947 0.047738735 0.0070658727 -0.010077205 -0.022485388 -0.0076407706 0.0651285 0.04696398 -0.08302915 -0.06843966
multiplication 0.013507078 0.046726327 -0.049579736 -0.033328656 0.032448977 0.023811681 0.04661715 -0.044697437 0.02471102 0.007678279 0.064520486 -0.08144635 -0.0027824647 -0.04093943 -0.043096963 -0.009954809 -0.02751483 0.059647992 -0.043095734 0.04496272 -0.06276727 0.01670048 0.027147273 -0.081825756 -0.082851656 -0.019735087 0.034063935 0.0057518007 -0.0027564066 0.016894354 0.024395877 -0.033079457 -0.061238896 0.05276197 0.025603706 0.0075374935 -0.022563586 0.011691617 0.0722956 -0.021017302 -0.051416647 -0.048347324 0.07243722 -0.035623353 -0.07471195 -0.0024951189 -0.05395397 0.018226223 -0.056279346 -0.04573457
open 0.045772962 -0.04917153 0.03318458 0.04321475 -0.047420748 0.022871537 -0.0002568137 -0.033832807 0.01616339 -0.044363923 -0.059968352 0.047148835 -0.0156123955 -0.02256893 0.05484179 0.052812822 -0.059473682 -0.037570696 0.011193799 -0.009825213 0.021246118 0.05727821 0.004807104 0.08104092 0.03793023 -0.0097034555 0.052354675 0.043353416 0.017448265 0.014648131 0.01720822 0.029213784 0.039325684 -0.025058057 0.027926164 -0.03164506 -0.01706746 0.04088046 -0.023407739 -0.025636103 0.074226014 -0.039750986 -0.032128334 -0.02730699 -0.035349414 0.044175114 0.042032074 0.013377045 -0.05842152 -0.004216284
if 0.06612821 -0.02867572 0.035531826 -0.03481476 0.005342583 0.017353129 -0.019214688 -0.008649106 -0.0009708217 0.03588084 0.03928186 -0.016793387 -0.01287623 0.0430559 -0.088171974 0.008347589 -0.011158634 0.03844335 0.096170925 -0.071867704 0.02609728 0.0021786653 -0.10894659 0.02723618 -0.06325975 0.028193284 0.0051413104 -0.08294517 0.005212433 -0.04209789 -0.0094645275 0.032207362 -0.04633793 0.05777055 0.0034296084 -0.04522341 -0.066538535 -0.042381816 0.023690086 -0.03118249 -0.011442307 -0.037432488 -0.014302927 -0.08386701 -0.023576876 0.0038410616 -0.015631478 0.06295428 -0.04470688 0.028512355
heads -0.055639215 -0.03528062 -0.043913215 0.03645167 -0.041516073 0.045585543 -0.0453499 0.05290531 0.0007205331 0.008251302 0.020339642 -0.011782482 -0.0067487955 -0.056899246 0.0040060994 0.019667376 -0.010294208 0.06530959 -0.02128603 0.040366456 -0.033262257 0.0007355043 0.017862331 -0.030367073 0.03609892 -0.026011975 -0.043828517 -0.007995135 -0.02955013 0.05412428 -0.0653341 -0.06491127 -0.056791097 0.05579133 -0.029173788 -0.0073283566 -0.00456913 -0.048860036 -0.061394062 0.09437327 -0.03352744 -0.03569245 0.034591116 -0.01312801 -0.055806626 -0.03717582 0.06417847 -0.05049424 -0.042717468 -0.06977681
