1182 150
goes -0.030056342 -0.023060432 -0.039434057 -0.0010768926 -0.04845507 -0.025879607 -0.04414691 0.030988581 -0.012559323 -0.025162386 0.0022325027 0.04606107 0.041885495 0.004914939 -0.057261046 0.0069724577 0.035124753 0.038154457 0.0056164116 -0.03604462 0.014534649 0.006012531 0.021082984 0.03686639 0.011424992 0.060602784 0.004815693 -0.051139724 0.0233291 0.03139542 -0.037693754 0.05542908 0.015748713 -0.038692534 0.0067690914 0.040103007 -0.055554416 0.01821252 0.00013068446 -0.041759524 0.0012232418 0.06579831 -0.053157534 -0.045412924 0.050001286 0.0015412252 -0.0057782736 -0.058789603 0.05340037 -0.062429674 0.03957251 0.050397083 0.006827752 -0.01335639 -0.0019553737 0.020432418 0.05185968 -0.016051857 -0.04683273 -0.02911336 -0.018658595 -0.04089687 -0.06473299 0.004386995 0.057281207 -0.020057047 -0.002676081 -0.032211773 -0.023840796 -0.01306201 -0.036011472 0.017525382 -0.016405195 0.0380529 0.02988088 0.068348266 0.054201547 0.07077798 -0.019035598 0.011422802 0.056884773 0.05401019 0.036669254 0.06157813 0.022989314 -0.038388357 -0.01665702 0.011883729 -0.015329717 -0.008212165 -0.0041448353 -0.043295156 0.0037683453 0.041368887 0.011414296 -0.07099042 0.063527346 -0.021451684 -0.06156389 0.006521916 0.0195705 -0.0016159599 -0.02114299 -0.015814304 -0.058227707 0.049211174 -0.015937172 -0.022130204 -0.036160782 0.053417314 -0.042285252 -0.013000972 -0.0041325074 -0.055787966 -0.04284709 -0.028591875 -0.0067461687 -0.027024886 -0.00023199408 -0.04671522 0.054444864 -0.03771875 -0.05366858 0.041714758 0.05198489 -0.054503474 -0.02452819 -0.041668955 0.0536133 0.050946135 -0.0527342 0.036348667 -0.002259042 0.06073114 0.023836453 -0.06861149 0.055309497 -0.06357837 0.03707703 0.056248233 -0.010839977 0.03910235 0.05505747 -0.0520529 -0.060171623 -0.016578166 0.0030225504 -0.034149315 0.01759848 -0.041122783
now 0.039457247 -0.060128473 -0.042750016 0.023824135 0.013367509 -6.868818e-05 -0.020728117 0.029329171 0.029676989 0.0029450746 -0.04633381 -0.10908803 -0.028100101 0.053657804 0.009526204 0.00046782114 -0.06569956 0.0469061 -0.018036304 -0.02909667 0.026615987 -0.039317656 -0.011772254 0.049708664 -0.008973057 0.055538185 -0.04116618 -0.020757066 -0.07748676 -0.0017150413 0.024695978 -0.04590291 0.0035974598 -0.026352108 -0.010275954 -0.020816412 0.031325977 -0.084163055 -0.03612413 -0.0780248 0.032414533 -0.043702267 -0.0034734448 0.058289453 -0.0063930377 0.04618762 0.030899694 0.042088646 -0.03353933 0.011053478 0.04357067 -0.026148112 0.08719522 -0.014266764 -0.07568303 -0.055707876 -0.048283562 -0.026073435 -0.018800993 -0.014617948 -0.04713859 -0.06143875 0.073620506 0.0283917 -0.061456207 -0.012272324 0.029340826 -0.09076946 0.049948793 0.0816043 -0.03963916 0.012151154 0.03547145 -0.039816763 -0.04334538 0.02434801 -0.10758066 -0.023381954 -0.039090864 -0.05564622 -0.03425839 0.015150155 0.004987997 -0.042026166 0.04814272 -0.027049145 0.07656791 0.056410674 0.014602258 -0.01644409 0.050112914 0.05374647 0.051326703 0.008739198 0.052854136 -0.045364805 0.005968623 0.0012352824 -0.027530784 -0.069855936 0.03449416 0.009057039 -0.039492495 -0.020357901 -0.07290873 0.037255175 0.06354819 -0.03489136 0.07510909 -0.051086113 -0.08387027 0.04342542 -0.04722291 -0.0090899505 -0.027006865 0.040770285 -0.0046927077 -0.025385851 0.03211538 0.031992897 -0.018144552 -0.07819944 -0.04159304 0.042270422 0.06615224 -0.061133604 -0.04345865 0.0984834 -0.04369631 -0.059661698 -0.08774834 0.09992305 -0.03308141 -0.046019945 -0.025719175 0.0071316147 -0.067110084 -0.012612022 -0.10048767 -0.0010618411 0.08111637 0.0066459733 0.029977843 0.07885367 -0.0966676 0.009908822 -0.05010614 -0.054907072 -0.051867157 -0.050806414
pet -0.014745732 -0.04283846 0.011240824 -0.060028765 0.02055325 -0.05441324 -0.0004588908 -0.07152129 -0.019107599 -0.029170867 0.053637464 0.059225332 0.03321946 -0.051124964 0.040024716 0.017851833 0.05582689 0.009766677 -0.005528099 -0.04164315 0.0569867 0.0065593747 0.028301261 -0.056790397 0.06429472 0.041914456 -0.030620899 0.06350951 0.034299217 0.050860368 0.008724313 0.026975645 0.04158258 0.02899499 0.011168812 -0.00951061 0.06888422 0.011752945 0.015961852 0.017343488 0.036848456 -0.04665896 0.05909251 -0.02141593 -0.024223043 0.070734024 -0.014168474 -0.0004343231 -0.005589435 -0.043049473 0.05496057 -0.051586784 0.03841768 -0.019662647 0.0037173196 0.040316913 0.019072149 -0.053412877 -0.050899167 -0.03800059 0.02249183 -0.0073863612 0.0047755167 0.0440832 -0.0066882423 0.009299957 -0.031156613 -0.020962743 -0.021062832 0.029313255 0.024374971 0.022793418 -0.028367152 0.01352184 0.03198032 0.0070526497 -0.065651625 0.010334618 0.039901827 0.02792913 -0.004354357 0.0018031012 0.023531359 0.0030770604 0.023750711 0.055453073 -0.04554555 0.030886332 -0.058743916 0.033862073 -0.005904179 0.044069067 -0.016244564 -0.068191946 -0.008995058 0.050359976 0.021582983 -0.015570683 -0.020355009 -0.021626322 -0.02901957 0.0014483511 -0.065166324 0.06435921 0.05030742 0.04076974 -0.044217616 0.05315603 -0.021709045 0.034357693 -0.03843855 0.05592537 0.056092363 -0.0039918367 -0.015554784 0.032417815 0.0027904555 0.04597445 -0.054319598 0.03682475 0.01842294 0.06336794 -0.037182752 0.032122828 -0.003997163 0.06161909 0.045642983 -0.030294409 -0.009603072 -0.02928655 -0.022866432 0.043861043 0.06855209 -0.056245998 0.006322558 0.012731965 0.04011123 0.03748386 0.024601698 -0.04022878 -0.024797605 -0.0124939475 -0.036261894 -0.051065415 -0.06838781 0.07107146 0.020645592 0.04242568 -0.029751837 0.0018182199
directly -0.050696645 0.04406088 0.04079786 -0.05835665 0.055568375 0.05644234 0.03160059 0.052692536 0.023535835 -0.04163944 0.052509647 -0.00656257 0.05417264 0.014878233 -0.017097456 0.043018147 -0.035597373 0.01136808 -0.022121297 0.037599385 0.036839027 0.012878397 -0.06161279 0.043639872 0.020038208 -0.0063212016 0.050367903 0.013957014 -0.06038229 0.010560279 -0.059186578 0.011491423 0.010336155 -0.019090967 -0.028156087 0.055391837 0.03424001 0.014624509 -0.0027529588 -0.054650664 0.033036195 0.031761933 0.036810413 0.05739143 -0.03447545 -0.055114217 0.001692315 7.9378835e-05 -0.022869954 0.07126098 0.044893224 -0.028834864 -0.0054056756 -0.023732184 -0.0049013863 -0.043998804 -0.06435498 -0.03672507 0.058895305 -0.015770894 0.02143734 0.05946373 0.059401043 -5.783781e-05 0.057001315 0.06311101 0.028560659 0.020396544 0.062328335 0.02434928 -0.010244975 0.026889548 -0.047136404 0.04665009 -0.03252825 0.038108267 -0.028445126 0.06503601 -0.02203355 0.047935974 -0.035972677 0.005940673 0.0693161 -0.056320522 -0.03306777 0.047991358 0.049773883 0.0318408 0.027542097 -0.0434427 -0.057448853 -0.008658668 -0.0005186532 -0.016126666 -0.050242327 -0.051075317 0.027743831 0.029512215 0.003706086 -0.014709229 0.0011835269 0.05662473 0.040025596 -0.05896523 -0.022512207 0.04871678 -0.04024793 -0.06234963 -0.044607926 0.03994545 0.030837335 0.021063631 -0.014398573 0.06316914 -0.021854512 -0.05100083 -0.061474815 0.006682112 -0.011016522 0.017007038 0.043216653 -0.065943256 0.01626778 0.008059353 -0.042288963 -0.068764135 0.032135982 0.023231136 0.037333664 0.053708795 -0.06669879 -0.020683134 -0.04658343 0.013732078 -0.02286884 0.053648006 0.04745898 0.06886674 -0.028196974 -0.0209898 -0.049344275 0.062585324 -0.026453514 0.06460688 0.028372353 0.041957192 -0.03406253 0.051872723 -0.03810926 0.01293771
burst -0.055655744 -0.033593226 -0.04572735 -0.019324651 0.015158302 -0.04839608 -0.04627168 0.06388103 0.016073251 -0.06309791 0.03815089 -0.047063235 -0.0005543758 -0.03397306 -0.0040496197 0.067442015 0.02711857 0.049894124 0.06100187 -0.014015782 -0.053334493 -0.059416022 0.05548941 -0.048824105 -0.03872404 -0.019668294 -0.0034995815 0.00043777912 0.021420503 0.0042524077 -0.03503169 -0.005487041 -0.057864774 0.047379076 0.030094448 0.03293358 -0.009232903 0.050817627 0.050660625 -0.004680344 0.034648217 -0.022618892 -0.057788644 0.02193873 -0.018761866 0.046438906 -0.0583341 0.05257628 -0.032370668 -0.051470384 -0.022292398 -0.039029893 -0.040214892 -0.06500213 -0.049208492 0.027226496 -0.02217187 0.067177854 0.013686112 -0.05760859 0.014116584 -0.058783576 -0.043422896 0.03172258 0.061847836 -0.044213716 -0.0007301816 -0.008355045 0.05590956 -0.026008694 -0.006587183 -0.065234646 -0.03079418 -0.0019165323 0.014413597 0.045376856 -0.013617393 0.018572552 -0.05529131 -0.05643639 -0.036621902 -0.04697226 0.047562983 0.0185206 -0.0019519214 -0.0033438709 0.011038842 0.046448596 -0.0044712173 0.004652556 -0.031841688 0.05449738 0.026228957 -0.066085994 -0.004668835 -0.059270773 0.0103665665 -0.051047493 -0.029704679 -0.0229991 0.02155448 0.0023226 0.049469218 0.050590195 0.011445285 0.059295278 0.04823184 -0.03076353 -0.022365263 -0.05301311 0.009804968 0.020024823 -0.02867325 0.024003293 -0.06434205 0.057114944 0.041526638 -0.050537568 -0.067487895 -0.047867313 -0.011939476 -0.0065002628 0.04557265 -0.0069455476 -0.05785132 0.020374311 0.023053437 -0.02587299 0.04634105 -0.053123716 -2.6850146e-05 -0.001925025 -0.013352722 -0.006523949 -0.036679074 0.033770192 -0.024880579 -0.046275914 -0.040846072 0.036085416 0.030569527 -0.01929045 -0.06179207 -0.036626894 0.0066138795 -0.015410562 0.021599254 -0.06846909 0.004723868 0.0024449197
forehead -0.012061786 0.065677375 0.039437797 -0.046073243 -0.014271465 -0.0632562 -0.06458841 -0.04419954 -0.0062630503 0.061402217 -0.051334716 -0.008597522 -0.051604047 -0.034070637 -0.008204561 -0.05484821 -0.011733774 0.03867769 0.008335467 -0.06514408 0.018256173 0.06447069 -0.043444958 0.04317331 0.060341828 -0.0016788195 0.0043144003 -0.01798125 -0.055714328 0.045690812 0.06838458 -0.0030685992 -0.04767922 -0.0050949864 0.05598001 -0.039456327 0.0478221 0.05922137 -0.019850837 -0.03003285 0.036112744 -0.029918913 0.019522842 0.028761169 -0.0026190234 -0.028681522 -0.028583964 0.02770709 -0.0030361544 0.0073484965 -0.05524853 0.05022905 -0.036535397 0.058787987 0.03133538 0.017028065 -0.067075126 0.06730588 0.0030110637 0.06744556 0.048594758 -0.0576041 0.056671456 0.024460427 -0.06016591 0.033568792 0.01431316 0.016320474 0.009751745 0.008657343 -0.022602718 -0.044284206 -0.05611846 -0.038680367 0.042409632 0.059648074 0.03186914 -0.05931182 -0.056540392 -0.0022489508 -0.032632537 -0.006700689 -0.058485072 0.007718657 0.011869421 -0.027110977 0.020764437 0.0009652249 0.060327668 0.045211464 -0.007931083 -0.012364237 -0.0358159 -0.002763462 -0.04644677 -0.060839802 0.05429847 0.037727028 -0.066950224 -0.040010385 -0.016483229 0.025190325 0.027545981 -0.019090977 0.054168522 -0.05989292 -0.011475539 -0.031647235 0.0009705663 0.044810973 -0.04060062 0.017730292 0.033442814 -0.053835914 0.06277074 -0.059185542 0.059941802 -0.009944133 0.062249284 -0.02523131 -0.04252271 0.027180582 -0.05785462 0.039013006 0.015282316 -0.05664855 -0.043005854 -0.04224769 -0.06770883 -0.056779567 -0.03294828 -0.018502234 0.029986225 -0.04193517 -0.0019844766 0.051240828 -0.0455326 -0.027465483 -0.044159543 0.009742234 -0.026136337 -0.03552828 -0.018349415 0.06704353 0.047316164 0.06906594 -0.01676312 0.042502083 0.031364314 0.02007299
condemn -0.036100417 -0.018117983 -0.033359792 0.031190403 -0.044660702 0.02417478 0.05776234 -0.05409693 -0.050614506 0.0010742471 0.030347675 0.016141161 -0.048310038 0.038150318 -0.06554097 -0.032255024 -0.041200504 0.030919872 -0.026464377 -0.052198265 -0.0372608 0.010629915 -0.06575024 -0.027758215 -0.042006984 0.016367905 -0.04300092 0.04626903 -0.0016482845 0.010940708 -0.001195319 0.008255027 0.047942556 0.024711438 0.0085203275 0.033298083 0.011981249 0.055266976 0.03758745 0.01906225 -0.039110005 -0.050694644 -0.022768304 -0.015124388 -0.031013813 0.0132788345 -0.056338854 -0.050730653 -0.049202606 0.047247946 0.026120469 -0.032284472 -0.005396437 0.0033486634 0.042262822 0.029091254 -0.04871612 -0.051401526 0.006069243 0.037003733 -0.06618735 0.0029643849 -0.052459203 -0.025130872 -0.037143346 -0.04180354 -0.038042396 -0.046868898 -0.014819898 -0.0033278689 0.028152406 -0.032519273 0.004232615 0.007801309 0.01828608 0.06422519 -0.05281787 -0.012504403 0.05270358 0.045400567 0.048113592 0.043440163 0.021364689 -0.033653937 0.010605134 0.04668045 -0.010058261 0.034072272 -0.02298503 -0.022777356 0.06118437 0.044275068 -0.05028815 0.028550714 0.039131373 -0.0037182271 0.055945076 0.041199192 -0.059077863 -0.045362 -0.029012557 0.01850047 -0.0013891384 -0.008520044 0.037645467 0.026785329 -0.05850949 -0.03520396 0.023429655 -0.03512646 0.022579126 0.04380521 -0.04027556 -0.04454955 -0.01782779 -0.012853123 -0.02078477 -0.060611427 -0.06184192 0.06091442 -0.0028544813 -0.016766753 -0.0433355 0.030887462 0.007025972 0.040091366 0.008862011 -0.058671687 0.05578512 -0.020562269 -0.00411354 0.03962332 0.046896778 -0.05814223 0.04962101 0.0057506934 -0.054460414 0.008538917 -0.012277603 0.008660227 0.043749787 0.05942615 0.016193166 -0.036218353 -0.04651268 0.04081787 0.06464996 -0.028254043 0.03375306 0.012611255
rules 0.049189687 0.023588544 -0.004220368 0.018112335 0.03168294 0.035660163 -0.01076116 -0.017778333 0.00419277 0.066099234 -0.03643588 0.046471868 0.0033513387 -0.037824806 -0.0054669115 0.02435733 -0.015536682 -0.0062123295 -0.007609031 -0.028208751 0.027217252 -0.05055218 -0.060877766 0.024568308 0.007358033 -0.0053145415 -0.02242698 -0.020260263 -0.057106514 0.0011750112 0.02116239 0.04166694 -0.035130374 -0.029525848 -0.05482829 -0.06206086 -0.0045096963 0.051809542 0.02126384 -0.0064639417 0.041973524 -0.005354209 0.0019150774 0.042112626 -0.048998434 0.015644008 -0.039803244 -0.056593567 -0.0292586 0.015976287 -0.018337592 -0.004040174 0.03644709 -0.06719228 -0.052762475 -0.027663764 -0.07459931 0.07118103 0.06432874 0.057870887 0.05210266 -0.07105383 0.035014287 0.051874876 -0.06289806 0.045161135 0.005413465 0.052663837 0.0041317074 -0.05971049 -0.04849931 -0.0607881 0.03534646 0.052554138 -0.053033862 -0.056950495 -0.021619022 0.053687956 0.043094367 -0.030702423 -0.0058887885 -0.00820576 -0.00625806 -0.059597183 0.03285307 -0.07242466 0.0048741917 0.03277962 0.022609606 -0.010874408 -0.00048533268 0.00089058734 -0.042171504 0.024267154 -0.055680387 0.05354714 -0.05501701 -0.039933763 0.05394592 0.02171171 0.041925866 0.037991967 0.035445545 0.017120816 0.040844936 0.056427155 0.014973531 -0.061523523 -0.057394713 0.047595553 0.030304594 -0.029112069 -0.033079047 0.03112956 -0.07169501 -0.0587376 0.03172044 -0.038109943 0.01029588 -0.002570198 -0.03106872 0.05860202 0.054186843 -0.05903339 -0.046296034 -0.05512139 0.02431266 -0.050639555 -0.063711934 -0.056511257 -0.049509797 0.01996551 -0.008205581 0.06080093 -0.024247078 -0.019239495 -0.048899096 -0.0055059325 -0.020518497 0.024857366 -0.0158484 -0.04157688 0.03724799 0.036148436 0.041396394 0.07620562 0.040629085 0.052423734 -0.028170343 0.052350037
pocket -0.06395093 0.067722924 -0.05112163 -0.032808226 -0.03345221 0.004042862 -0.017116044 0.048716296 -0.08112675 -0.047239695 0.061180215 -0.030038733 0.009439036 -0.043392275 -0.042239167 -0.008541256 0.07709738 -0.0055107484 0.009167984 0.016696088 -0.055946693 0.0385481 0.006724336 0.006088294 0.021646699 0.05469815 0.012402611 0.0041897604 -0.03567836 0.044291463 0.011919232 0.07054485 -0.040367734 -0.0670862 0.07222178 0.048607264 -0.009851135 0.020350149 0.012046772 0.026537407 -0.013013755 -0.016760658 -0.066578075 0.07171434 0.013599214 -0.033490922 0.03706295 0.08007449 -0.007971098 0.018175995 0.06441496 0.022284344 0.03758313 0.038706396 0.049552504 0.066079944 -0.04266293 0.045937885 0.0003919237 0.06075252 -0.08176837 0.04678096 -0.017444212 -0.03807385 0.021722922 0.054725587 -0.029869508 0.043436162 0.017886396 -0.029108953 0.021779902 -0.0014360321 -0.036084007 0.050650183 0.011844889 0.08371786 -0.020271074 -0.04002704 0.01475615 -0.064120255 -0.026162725 -0.008015348 -0.0038366253 -0.054312635 -0.005646281 0.052590292 0.057492323 0.011682214 -0.01977943 0.049385384 0.090544306 0.028643182 -0.018749436 -0.052107956 -0.055196546 -0.06630418 -0.056521006 -0.06252665 0.026977811 -0.0148666715 -0.04079847 0.015453174 -0.04022208 0.016904658 0.004450145 0.05081266 -0.040326793 -0.033979416 -0.032146163 0.018651085 -0.0839691 0.019822137 -0.07608468 0.008092411 0.027749266 -0.04992339 0.065842256 0.012816222 -0.014279848 -0.0284366 -0.014990968 -0.03791032 -0.045196313 0.047714643 0.049235154 -0.01148329 0.033127394 -0.005636706 -0.006346295 -0.02537855 -0.015825707 0.043195765 0.045049883 -0.0036248406 0.03635375 0.0065187723 -0.05334136 0.08689138 -0.032249775 0.059521012 -0.045970663 -0.04496726 -0.05092245 0.019379186 0.013512778 -0.026609268 0.014384362 0.043333456 -0.06443022 0.046740092
swim -0.031059364 -0.026153537 0.041536674 0.059997957 0.027394751 -0.06397966 0.033399094 -0.057126157 0.014764154 0.011718019 0.04707017 -0.028127057 -0.044963155 -0.06322654 0.061197497 0.056906268 0.045120474 0.0547052 -0.073439345 -0.0268027 -0.023136107 -0.057155713 -0.058570024 0.03170896 0.030477304 0.016601542 0.0012681902 0.0073625883 0.0678087 -0.045104254 0.016393567 -0.058960266 -0.04631678 0.040365648 0.01413938 -0.049812518 -0.026112774 0.00047754124 0.007752954 0.008639912 0.0014372204 -0.0014013647 0.041899573 0.038432356 -0.020191373 -0.032958616 0.04528341 -0.047184322 -0.065555334 -0.05428816 0.0008367881 0.06161012 0.007414783 0.0008371149 0.016450379 -0.03823285 0.059119683 0.009749981 0.020552315 -0.06336988 -0.051615056 -0.035041917 -0.06846746 -0.031321384 -0.054516383 0.053447027 0.0535651 0.016387131 -0.013574978 -0.033036657 0.010282119 -0.057444785 -0.010926503 -0.021723066 0.039437585 -0.047739007 -0.03753587 0.027262963 0.042564366 0.015740618 0.0063593476 -0.010949725 -0.04873655 -0.05899337 -0.05884571 -0.058589656 0.05590768 -0.034622252 6.318395e-05 -0.009419226 -0.05990558 0.060331203 -0.037152816 0.023849301 0.055407867 -0.04773399 0.02623652 -0.027419252 -0.049900334 0.04754024 -0.02484933 0.014279143 -0.0039984407 0.012510431 -0.062225208 0.045975495 0.062090155 -0.04226192 0.028418088 -0.00037231506 -0.035373308 0.02710124 0.026658503 -0.007699287 -0.02756838 -0.048388258 0.009440625 0.06295356 -0.009627045 -0.008875579 0.065789275 0.030277155 -0.009947437 -0.034040112 -0.0558062 0.035391197 -0.012432349 -0.054472186 0.0059333057 -0.06126401 0.057285834 0.025348574 -0.014945079 -0.019933261 0.034341004 -0.006206005 -0.0063093025 0.025124328 -0.06772177 0.017332405 0.042630576 -0.005771066 -0.020355977 0.0054956004 0.045099888 0.009860565 0.033359464 -0.022577468 0.0047823996 0.019465163
salt -0.028072458 -0.024276637 0.047678214 -0.021871038 0.072035104 -0.076390795 0.032286894 -0.018052278 0.01593785 -0.042226553 -0.023715887 -0.021692796 0.0012691922 -0.010332908 0.034932088 -0.012466672 -0.023256935 -0.020898629 -0.0009071692 -0.01122113 -0.046142783 -0.03534086 -0.006458038 -0.031272307 0.03958167 0.036744613 0.0449127 0.05882457 0.043768674 0.01221812 -0.0238567 -0.02942366 -0.045823306 0.027127827 -0.04388702 -0.011364706 -0.05823927 -0.055327673 -0.013357027 -0.01887065 -0.0427506 0.05482084 -0.0086645745 -0.011998725 -0.010233314 0.06968041 0.05346168 0.0036653895 0.044733476 0.013557233 0.0033753142 0.00054281065 0.05497352 0.019097732 0.01960459 -0.0002851925 -0.061771248 0.012117785 0.06338825 0.011295218 0.039548572 -0.0460413 0.011165732 0.034096267 -0.0031786615 -0.003540992 0.032602664 -0.07030723 0.0635288 0.055447657 -0.020675503 0.06745892 0.03187045 -0.009149551 -0.05442226 -0.022295514 -0.023988629 0.06532014 -0.042119186 -0.053084914 0.035651613 -0.0024954074 0.0020397985 0.033214148 -0.037493467 -0.0379559 0.0027126651 0.008286077 -0.052056205 -0.008695613 0.06100995 0.06849086 0.05416397 0.02996761 -0.0101112 0.047696963 0.05160186 -0.029384758 0.0277239 -0.0003141018 0.068452395 -0.008627915 -0.03563547 -0.004576136 0.027710594 -0.025461286 0.051472005 -0.05383346 -0.040561307 0.043954495 0.048484102 -0.025442267 0.0527228 -0.008909608 0.04056776 0.036577825 0.071511954 -0.004268251 -0.03280613 -0.042323936 0.037294444 -0.009067985 -0.04424676 0.024254257 -0.049128227 -0.040144566 -0.03399184 -0.040897023 0.006441412 0.025943719 0.033043925 -0.043233853 0.029452763 0.03256062 0.033545353 -0.057653837 0.0044462495 0.06954431 -0.04050729 -0.053458415 0.07743451 0.023066746 0.0099002365 0.015384002 0.0025817775 -0.013511748 -0.0018494485 -0.052713145 -0.07314719 0.047421623
itself -0.020039925 0.06468508 -0.050160136 0.0002610354 0.030252744 -0.0037595667 -0.047143523 -0.014100992 -0.06994715 0.04490485 0.065342814 0.0020511448 0.013057321 -0.0070926254 0.027103107 -0.07262918 0.07136766 0.037538197 0.03078472 0.06321942 -0.040037654 0.06699143 -0.06910031 0.011675123 0.03876701 -0.037993923 -0.036972035 -0.0022656415 -0.048099205 -0.037538454 0.064267606 -0.018362453 -0.016572956 -0.07521697 0.035737872 0.012708851 -0.064559974 -0.030546138 0.022122404 0.015750514 0.057118077 0.008367503 -0.0667324 -0.026317474 0.04798781 -0.016129771 0.019763967 -0.046851747 -0.018159239 -0.047322955 -0.053485204 0.031974126 -0.04925464 -0.07901012 0.054689847 0.057710737 -0.06832831 -0.040351767 0.016233271 -0.00842902 -0.030757882 -0.021682441 0.007058504 -0.012904148 -0.032069817 0.025306502 -0.0150059005 0.0588699 -0.070060626 0.06604542 0.004666915 -0.02948628 0.011846879 -0.08027374 0.054750632 0.027309388 -0.06468687 0.02399963 -0.0066342466 -0.049074195 0.069203585 0.024377808 0.00768387 -0.024648841 -0.04848992 -0.036555298 0.07185112 0.029217452 -0.061958052 0.03969188 0.050130777 0.056321286 -0.0007320297 -0.011703169 0.0057224827 -0.06609003 -0.03273508 0.0032368642 -0.016511817 -0.005814498 0.05987514 -0.033166274 0.008224177 -0.020675162 0.011731036 -0.061158136 0.014486135 -0.0048397384 0.037926514 0.02645368 -0.059713516 -0.049859818 0.012477403 0.0010571668 -0.06716759 0.014047243 -0.0060161958 0.055498786 0.024564842 -0.010015646 -0.04310597 -0.0067422064 -0.020396682 -0.08572179 0.0076581948 0.041838955 -0.0448384 0.06181706 0.006597455 -0.062492635 -0.051457282 -0.023199003 -0.022708522 0.06067189 0.029562825 -0.024670966 -0.03490028 -0.028679775 0.068745255 0.07265811 -0.01581544 0.07130866 0.043550465 -0.004806706 -0.06413752 0.06921117 0.052232318 -0.060350273 -0.053690914 0.016851868
machines 0.025908489 0.047797907 -0.050309755 -0.0019707757 0.041983653 -0.010801238 -0.050629128 -0.05341944 0.045643114 -0.0013477963 -0.04402203 -0.04803106 -0.043481372 -0.008624824 -0.06017488 -0.012259515 0.057511184 0.043409 0.0415209 0.0055065374 -0.048641276 -0.03506353 0.043507446 -0.025586471 0.02843184 0.0061569028 0.06055029 0.018533602 0.057802442 -0.02154761 0.016795656 0.04911488 -0.0049336646 -0.041554015 -0.065355726 -0.014620771 -0.0043153553 0.007108735 0.048782162 -0.0625725 -0.03007444 0.041994914 0.03161356 -0.024152517 -0.012254223 -0.052757807 0.034535117 0.027311103 -0.026231475 -0.018775012 -0.010132367 -0.02421438 0.024603028 -0.06634142 0.050746962 -0.04717236 0.03930581 -0.058144327 0.016784834 -0.0010641604 0.020731756 -0.03676469 0.006130843 -0.046361215 -0.009791603 0.010716304 0.05178496 0.03473768 -0.007366448 -0.03712007 0.032595873 0.045447525 -0.057491407 -0.019568296 -0.015516271 -0.0068870704 -0.013643795 0.059932 -0.044755522 0.007007521 -0.05896957 -0.06027314 -0.0229593 0.016622705 0.031563234 0.00048353267 -0.042071737 -0.03159568 -0.0056767534 0.04871279 0.027624793 -0.04688632 0.05938613 0.037775226 0.0071179853 -0.019938871 0.052985422 0.016502269 -0.06645155 0.019643102 -0.065868 0.056582786 0.028891787 -0.03386796 -0.014110742 0.036374535 0.006543143 0.025877386 -0.015100544 -0.009648635 -0.05172909 0.0377018 0.03556201 0.042391926 0.03133366 0.013357183 -0.00036134722 0.0049198517 -0.040108792 0.0015841061 0.010037764 -0.037867643 0.06584473 -0.0693371 0.048789237 0.04388033 0.040543046 -0.026439328 -0.03433291 0.03421247 -0.029136615 -0.017316537 -0.035237916 0.046362694 -0.053299014 -0.06184815 -0.03822875 0.024432244 -0.023085743 -0.012553037 -0.03214799 -0.0052250875 0.015776077 0.035318073 0.058986984 -0.03735973 0.0296219 0.03487004 0.0150422845 0.07031816
antipathies 0.049935374 -0.056973208 -0.07229669 0.05864075 -0.061480086 -0.0031673121 -0.058067802 -0.034645937 -0.0679021 0.043533225 0.05739303 0.032862823 0.013534607 -0.013213075 0.023065574 -0.007950003 0.058957644 0.061139952 0.03946843 0.022343695 0.018416032 -0.03234186 -0.04013419 -0.031868145 0.0020682872 -0.037834432 -0.03038201 0.06559436 0.026894804 0.033984385 0.05818683 0.01832671 0.03260478 -0.00031773874 0.034114465 -0.037811983 -0.003580667 0.019783279 0.030550003 0.05269737 -0.05390462 0.032941554 0.016116925 0.047375817 0.031473774 0.023260552 -0.027824394 -0.062224012 -0.054788668 -0.056298673 -0.034066837 -0.054643225 0.017655183 -0.05912566 0.025382752 0.03251483 0.030902449 -0.00530214 -0.017358009 0.057955157 0.0023557714 0.056810386 -0.05711393 0.06407684 -0.014688463 -0.034440234 0.024500085 -0.008001787 0.047890533 0.046175074 0.05336406 0.038733054 -0.022565572 0.01688524 -0.047315195 0.0068383943 -0.01603407 0.051547844 -0.064059906 -0.038072832 0.06626063 0.03457524 0.074120104 -0.0033761952 0.011704776 0.053035475 -0.047338285 -0.015491621 -0.038408104 0.009450372 -0.059104398 0.015234262 -0.021015408 0.00858861 -0.054925334 -0.043708432 0.012037726 0.03846704 -0.022077033 0.012484348 0.061097004 0.010749707 -0.04200106 0.063006625 -0.03537208 0.01983449 0.062663764 -0.068402424 0.0075489264 -0.04761405 0.055400703 -0.047864866 -0.057689708 -0.017228171 0.05649695 -0.013575658 -0.03414083 0.012638817 -0.002118203 -1.0225922e-05 0.06714362 -0.05802127 -0.036969204 0.05113173 -0.047282666 0.043904655 0.024832744 0.024467286 0.012090597 -8.888275e-05 0.055029593 -0.0148017295 0.032553535 0.06339961 -0.05158581 -0.0032900437 -0.064227775 -0.056600757 0.02089017 -0.018887077 0.017081873 0.041654784 -0.032931764 0.0014181853 0.04058074 -0.00030822598 0.038359962 0.0015905417 -0.05682812 0.04992975
door 0.005178264 -0.010290413 -0.08815026 -0.028844701 -0.006748275 -0.008457081 -0.05925566 -0.05255094 -0.0071315984 -0.06779038 0.04745319 0.003938343 0.0476253 0.041963387 0.12104027 -0.098047085 0.086415194 0.014952239 -0.06829011 -0.11409404 0.013889423 -0.020701215 0.04988089 -0.074223466 0.07077321 0.016045872 -0.076025255 0.036358878 0.0586696 -0.07441254 0.09769625 0.051803388 -0.019994397 -0.017261585 -0.03763812 -0.085063286 -0.029650975 0.03222799 -0.023964634 0.016625332 -0.049379878 -0.09438278 -0.059366584 0.04465932 -0.03552979 0.04678387 0.08136645 0.054530043 -0.010323224 -0.088236816 -0.042500928 -0.040462498 0.023779342 -0.066792004 0.035614293 0.09453272 -0.07315848 0.042481765 -0.009705951 0.02745919 -0.03934932 0.0548276 0.019706912 -0.0626261 -0.045851253 0.0639902 0.10396147 0.081103586 -0.017258326 -0.025681911 -0.015042834 0.07170173 -0.09898682 -0.09285718 0.061754763 -0.03658448 0.08511501 -0.051143263 0.09691882 0.11673796 0.015452003 0.021246132 -0.01864243 -0.023483431 0.08205324 -0.0016043292 0.018925076 -0.047613334 -0.005498646 -0.018394744 0.0053343084 0.081012055 -0.00018453086 -0.046260737 -0.024387836 -0.07097357 0.07190106 0.015632115 -0.09398288 -0.030126696 -0.039073616 -0.0018895238 0.08325966 -0.035508476 0.07107583 -0.039191026 -0.049818866 0.014684824 -0.029619917 0.08816311 -0.017991163 -0.019295676 -0.016755452 -0.058267936 -0.039360788 -0.08884272 -0.029471334 0.024480218 -0.0008681392 -0.08600797 -0.06620451 -0.035725266 0.018101877 -0.022723174 0.118106805 -0.025911473 0.014833889 -0.043171436 -0.07591221 0.03897431 -0.06893652 -0.012920891 -0.12221328 0.0037625264 -0.08159752 -0.08115556 -0.049593415 0.078430235 -0.06704625 0.04730047 0.047639992 0.04862323 -0.021095295 0.042226184 0.08386666 -0.061275307 0.0058188476 0.05399912 -0.08165729 -0.04671262
punished -0.07070682 0.023373066 -0.02464058 0.05636178 -0.054881155 0.05406643 -0.035428677 0.048532847 -0.044793874 0.048358187 0.03536133 -0.06952488 0.042608436 -0.02998923 -0.038370404 -0.035490043 0.015308794 0.061228614 -0.0649566 0.022897862 -0.030899215 -0.003082645 0.059172194 0.0321904 -0.01857489 0.04209999 -0.0019379876 0.04637275 -0.039665986 0.046125576 -0.022368314 0.044860665 0.019152755 0.05775206 -0.025518386 0.0060249036 -0.022414673 -0.06578384 0.047274563 0.015761295 0.05727741 -0.046880506 -0.019834613 0.012170105 -0.020455945 0.009735593 0.0030506365 0.03814834 0.038047154 -0.026151633 0.014130767 0.0077990787 0.034807853 -0.020516071 -0.026171934 0.004294831 -0.050494187 0.026720783 0.013104309 -0.031199884 0.00579718 0.048876867 0.0048715607 -0.046454612 0.01913582 -0.03431024 -0.0258102 -0.063431434 -0.04592091 0.017593369 0.06097819 0.05396805 -0.051709764 0.022895174 0.0677464 -0.042872004 -0.025311282 0.062446184 -0.05423913 0.029557088 -0.04358108 0.038481083 0.057821255 0.055893593 0.0068023372 0.026346989 0.030333517 0.019848894 0.05791182 0.03135579 -0.047617927 -0.050242376 -0.050490834 0.0054429118 0.026684713 0.058538266 -0.03445295 -0.046248067 -0.017032227 0.03104585 -0.018882336 0.022924334 0.021867065 -0.0534766 -0.03291951 0.05809324 0.034546815 0.024606612 0.022646138 0.051507264 -0.052245203 -0.06356326 -0.013068379 -0.008101748 0.03950024 0.026006747 0.062822126 0.05241234 -0.008126359 -0.034151774 0.024765275 0.045444388 0.038797896 0.03431866 -0.004903586 -0.033853285 0.04244671 0.021311112 -0.057402235 -0.0026835406 -0.022260213 0.03717628 -0.056485076 0.016358746 0.04614821 0.037659306 0.03868865 0.02409821 0.014165288 -0.0207066 0.05797745 0.046777595 0.03951203 0.023673557 -0.011419823 0.05086263 -0.020074002 0.0431563 0.0032555964 -0.04459205
feelings -0.03194879 0.053884894 -0.0008853469 0.0068336143 0.03190941 0.020809151 0.019178608 0.0060693105 -0.0071882256 0.06819259 -0.016034516 0.0542391 0.035754945 0.032733485 -0.0382223 0.029825184 0.01294038 0.06428627 -0.021381296 0.04089874 0.018135238 0.014901587 0.013056856 -0.006564622 -0.012813973 0.046895735 -0.00028216315 0.027784336 0.035612598 0.064579315 0.02416256 -0.03498525 0.07029079 -0.07402569 -0.048429146 -0.06371319 0.01313588 0.05724614 0.00481504 -0.04258881 -0.00463144 0.032673027 -0.0009466788 0.03132649 0.028082332 0.0646958 0.01854034 0.058353245 0.044140503 -0.024784235 -0.0548455 0.016058179 0.045487046 -0.017577158 0.04578142 -0.012929387 -0.06811075 0.006905929 0.029242983 0.0030827662 0.04690708 0.04028262 0.06565681 -0.016447954 0.00013238809 0.05768337 -0.032075275 -0.012857145 0.051583342 -0.025839731 -0.064663604 -0.014315797 0.05341879 -0.027090516 -0.067558125 0.027845722 -0.05823814 -0.04638896 0.0064368453 0.059853356 0.06665449 0.07208263 0.029224228 -0.050312754 -0.019729948 0.029735953 0.051692944 -0.0607148 0.03766465 0.0013530374 -0.029920489 0.059711345 -0.038656335 0.03426341 -0.011651406 0.041252937 0.050782032 0.012476463 -0.031636473 0.03544147 0.054117337 0.03964994 0.02048825 -0.009237782 0.04445119 -0.06384642 0.01666145 -0.0028827474 -0.016100168 0.044507552 -0.045209646 0.015895281 0.053401977 0.05192479 -0.035055283 0.0331455 -0.015629707 0.04092663 0.020531131 -0.04563396 -0.0373441 -0.041727252 0.036785576 -0.03306184 -0.011433552 -0.025669478 -0.05240581 -0.026747 0.0074227885 -0.027113058 0.053108588 0.038806155 0.0045383167 0.03519923 0.036862977 -0.056976415 0.04215432 -0.03543632 0.025193593 -0.021124935 0.061873835 -0.0047095995 -0.03426484 0.014458128 0.053786717 -0.03627921 0.04753494 -0.020595618 0.01606729 -0.03369217
eagerly -0.06327514 0.05282867 -0.012971289 -0.07913398 -0.029812705 0.017474713 -0.009246226 -0.028655307 -0.054352812 0.04577469 -0.017874576 0.03629794 0.057548683 0.03489473 -0.017091895 0.010928215 -0.05302419 -0.038851302 0.046586093 -0.081554994 0.046763573 -0.03079282 0.009500084 0.062476184 0.0067921397 0.025603306 -0.06803582 0.065791436 -0.006950191 0.012947311 -0.020050634 -0.007330569 0.032797422 0.019428223 0.038364287 -0.025243126 0.04109536 -0.021212723 -0.014023432 -0.033540104 0.007771946 0.04711799 -0.06980535 0.011028171 -0.04372061 -0.0013769607 0.0413818 0.03972514 -0.052152667 0.024244512 -0.007772583 0.039538823 0.034849834 0.028341673 -0.037749153 0.014604872 0.038512666 0.04730679 0.06764536 -0.012296616 0.04426708 0.019581271 0.002930439 0.023125581 0.028387098 -0.0033154925 -0.046034172 -0.017988473 0.047169242 0.03492719 -0.07351405 -0.007677202 0.033081405 -0.003912278 -0.008283911 -0.05059938 -0.044288445 -0.014360005 0.04560916 -0.05989661 -0.017118221 0.06750533 -0.029425178 -0.02281374 -0.022216443 -0.055666797 -0.007124195 -0.027378561 -0.06422113 -0.02441207 -0.025171077 0.033936333 0.051876318 -0.06415491 -0.062821075 -0.052974597 0.010645246 -0.07932488 -0.0026655584 0.030866666 -0.009349131 0.024313502 0.019714491 0.083055176 0.0077359676 0.0120207565 0.01603315 -0.03733321 0.04461401 0.061406158 0.01638354 -0.0041812276 0.0023649496 0.08099711 0.032098535 0.045546826 0.0042366083 0.02961095 -0.040756594 0.02951272 -0.0443687 -0.06781562 -0.027316263 -0.051615793 -0.059130758 -0.02581781 0.023641815 -0.033915687 0.06510602 -0.061210483 0.0072704125 -0.03986082 -0.053764742 0.05229819 0.014921701 -0.077329315 -0.00728085 -0.031529322 0.0058312276 -0.04868686 0.06981401 -0.0619131 0.055978134 -0.034870606 -0.067331694 -0.041547686 0.011609545 0.030371048 0.022633586 0.04787216
plainly 0.00221476 -0.0036704247 -0.06149527 0.063213505 0.02598245 -0.03955999 -0.058999322 0.045119256 0.05421945 -0.017847473 -0.056033902 -0.039833054 0.04039002 0.0034835606 0.060976718 -0.0142049035 -0.05057309 0.029230872 0.02421953 -0.054206435 0.008735875 0.002331696 -0.069195084 -0.034391414 0.06764751 0.059744842 0.0077213673 0.0055767577 -0.022498677 0.03890748 -0.0017964045 0.0023857777 0.0065919487 -0.033620957 0.0508096 -0.047535397 0.003661099 -0.04131107 -0.0018583862 -0.068462916 -0.05308794 -0.035995953 -0.02403405 -0.035588425 0.044685956 -0.013720077 -0.05506685 -0.04625829 0.026294813 -0.016942687 -0.063061945 -0.025659857 0.05645137 -0.04110773 0.0013657976 -0.01613961 0.059536804 0.037444465 0.042746115 0.06850124 -0.0136120375 -0.047570847 0.0005146739 0.017390015 -0.008941625 -0.02407016 0.006168528 0.024397772 -0.031223694 -0.064436994 0.051703513 0.06961178 -0.01127866 -0.06589356 0.013173472 -0.055449143 -0.03632044 0.016507357 -0.02480951 0.055579603 -0.04617578 0.047427237 -0.027979737 0.012624251 -0.032537285 0.052063856 0.021761121 -0.058830112 0.0002431384 0.053158376 0.020074386 0.039926555 0.056982737 -0.05930882 -0.0267986 -0.004285592 -0.04288802 -0.052448377 -0.025289368 -0.011515821 -0.0043324935 0.038397975 0.03387469 0.02095495 -0.0349625 0.05902475 0.0009824703 -0.0036559198 -0.003497161 0.03403944 -0.017107822 -0.056435104 -0.021784024 -0.010772848 -0.03348085 -0.06853615 -0.010164666 -0.03842858 -0.003981244 0.023546804 -0.061914776 0.057740804 0.06429055 -0.06325614 0.003523587 0.03571616 -0.066558726 0.049834073 -0.012242182 -0.0101158 -0.04255935 0.03951334 0.011671677 0.034308698 -0.042708386 -0.01624442 0.046425737 -0.01286771 -0.0694414 -0.022891335 0.07352467 0.009759496 0.045911018 0.015368966 0.04581688 0.008966657 -0.011095028 -0.050447617 -0.069258034 0.053250883
long -0.02540137 -0.014114622 -0.007082197 -0.04059134 0.056864154 -0.117698565 0.019665508 -0.037313383 -0.01702186 -0.009499781 -0.040475734 0.020824907 0.059957296 -0.064808875 -0.028516298 0.008366229 -0.028375318 -0.015313748 -0.118061066 0.029487474 0.049464736 0.100171305 0.024095496 -0.030952973 0.009262344 0.079290524 -0.058461893 -0.0381786 -0.039215483 -0.04662297 0.033007048 -0.0793351 0.0050434056 -0.008283587 0.04166095 -0.005169307 -0.00042507343 -0.065034896 -0.004618815 0.040753838 -0.03203121 0.04933991 -0.08993113 -0.017218042 -0.037104346 -0.010763093 0.027217723 0.05294639 -0.084223606 0.0062689492 0.0641139 0.043772034 -0.08312932 0.012015107 0.053260323 0.09385732 -0.012582182 0.05919185 -0.0083186515 -0.066013746 -0.057286326 -0.01975649 0.020322261 -0.09043664 -0.013220778 0.010839108 0.030565448 -0.0061488124 -0.025196463 0.019075572 -0.044847026 0.08374418 -0.08077365 -0.008957511 0.03720897 0.05484598 -0.01716522 -0.01093524 0.08706405 -0.08418829 0.031521264 0.041129608 -0.011866556 -0.03390782 0.10924872 -0.049742024 0.017773652 -0.007065133 -0.08701433 0.07473428 0.07814474 -0.044761434 -0.033936393 0.059027057 -0.055054583 0.026592957 -0.024724083 -0.040640768 -0.020901328 -0.054144308 0.0014819951 0.02017562 0.109259345 -0.034284122 -0.047059845 0.006720392 0.08876952 -0.03808594 0.052280024 -0.034252595 0.065056056 -0.012085254 0.0019990676 0.042234633 -0.009574156 -0.1121959 0.0119941095 0.056567147 0.06903454 -0.040810134 0.04725064 -0.07296286 0.0015043159 0.026565408 0.06662439 -0.041371215 -0.07801969 0.044075914 0.028924922 -0.101565875 -0.018677615 0.08531994 -0.030736974 0.049515348 -0.0061467635 0.010030858 0.012440127 0.058697272 -0.03786605 0.01350906 -0.08466924 0.10637449 -0.046461012 -0.07186218 -0.062999316 0.04700927 0.035638787 -0.045428038 -0.083198555 -0.037755728
nobody -0.018925283 0.06825259 -0.055796526 0.016360667 0.03404084 -0.008003477 -0.016978852 -0.062043037 -0.033387747 0.06864533 -0.031407688 0.0045286547 -0.02980834 0.021181779 0.047038887 -0.044352565 -0.010424127 0.049365718 -0.055624865 0.021493755 -0.023871683 0.01524105 0.04520893 0.022615336 0.053157944 0.060302217 -0.006651628 -0.011922339 -0.035427112 0.01468762 0.06379459 0.064545505 0.078030065 0.03593269 -0.0457065 -0.04954537 0.008109035 0.057737175 -0.008370722 -0.022597501 0.07320126 0.0036839247 -0.040879156 -0.053339377 0.041778464 -0.039640374 0.0046905032 0.029863961 -0.063298404 -0.01402075 -0.02917913 -0.038259923 -0.049847808 -0.06857422 0.029394725 -0.056430113 0.02451611 -0.010703212 -0.02262416 -0.036402076 -0.011621775 0.0141522195 -0.057504263 0.019116616 -0.07560675 0.039210077 0.04497814 0.048631165 0.046732686 -0.02921796 0.036477283 0.036141444 -0.041073147 -0.07484045 -0.054155525 0.0176753 -0.041944664 -0.04675071 -0.018068623 -0.0538257 0.060995083 -0.013464186 -0.0075758426 0.037167147 0.059317153 -0.021703966 0.07306382 0.021475317 0.011362283 -0.031037414 -0.04895662 -0.05256889 0.051261663 -0.037669793 0.03239923 0.024763178 -0.021136275 -0.07678254 2.859591e-05 0.0061214697 0.051407907 0.053252548 0.0416358 0.03776123 0.032963686 0.018359346 -0.0046204766 0.015362709 0.017921397 -0.028540684 -0.056846924 -0.005770893 -0.063756175 -0.061936405 0.040436737 -0.0032677301 -0.038630456 0.045799192 0.015834518 -0.06460249 -0.025973434 0.028749317 0.028890485 0.05189782 -0.022083854 -0.0064764353 -0.046573076 -0.031321943 0.04700445 0.025184473 -0.014049478 -0.05542412 0.016370688 -0.004825458 -0.029321712 -0.06264806 0.059232555 -0.036624387 0.008549805 0.07263164 -0.011532658 0.07719616 0.03240343 0.056202017 -0.008045812 0.06419551 -0.03714538 -0.03352485 0.030702684 0.04092094
sends 0.050252076 -0.050410833 0.02585756 -0.016568929 0.06777906 0.05605927 0.016881429 -0.022430798 -0.058330424 -0.015181741 -0.0605874 0.002233673 0.049366042 -0.009759854 0.0415993 0.046624556 0.0353853 -0.06463136 -0.043585613 0.033353858 0.032192506 -0.06414982 0.0057069035 -0.050235737 -0.0052166684 -0.058372155 -0.030247608 0.011087687 0.0019315378 -0.04166999 -0.031539533 0.031858705 0.044580493 -0.033702854 0.030106978 -0.009202831 -0.020932116 -0.024269257 0.022230618 -0.020244224 -0.05115494 -0.020819692 -0.005573371 0.04338961 -0.021986311 -0.045818932 0.0037090154 -0.030320011 -0.056892794 -0.061226737 -0.03783886 0.0067681 0.010581571 0.008664639 0.06380914 0.008645072 -0.004597633 0.05172496 0.057530347 -0.010289954 0.06683543 -0.03438408 0.058438774 -0.036101803 0.037006907 -0.008007033 -0.047405526 0.0007572911 0.038071677 0.037498012 0.062257715 -0.02759224 0.012538396 0.016716896 0.011413822 0.0034011363 0.016674364 -0.032050814 -0.047992237 0.03010434 0.034370504 0.042045157 -0.01179771 0.020783061 -0.035535485 -0.017265836 -0.047976814 0.04723342 -0.04410085 -0.018359354 0.005738415 -0.0032409397 0.048464697 -0.010158571 -0.039830163 0.036562227 -0.009559199 -0.041724145 0.0547418 -0.04437316 -0.029837834 0.059214897 0.019020637 0.041045822 -0.06457157 -0.0064898985 -0.04509144 -0.002976228 0.034280706 -0.0033036424 -0.042766962 -0.053035278 0.036712434 -0.038924888 0.04532106 -0.073035985 -0.023236694 0.043641806 0.04615066 0.030399725 -0.030534416 -0.036540575 -0.05688202 0.057501663 0.023906773 -0.068666264 0.031792175 0.011575993 0.011200725 -0.06145686 -0.0581303 -0.019213077 0.061908644 -0.05055885 0.0023901444 -0.025730925 -0.033116214 0.05746763 0.009066853 0.047289204 0.05633554 -0.017199913 0.02826929 0.030373521 0.063945435 -0.028054696 -0.032978296 0.0035040523 -0.05811877 0.07346044
lesson -0.07541704 -0.04566149 -0.04305219 0.03049799 -0.009188359 -0.035660926 -0.05315977 -0.035765097 0.050221078 -0.037260212 -0.0059479647 -0.02159583 -0.051949624 0.022234824 -0.033549767 0.030215431 -0.018366098 -0.0009079224 -0.051786084 -0.017932512 0.053898852 -0.049589008 -0.06730783 -0.028916517 -0.012676763 -0.056203097 0.015639853 0.0581314 -0.018732212 -0.056201447 -0.045362607 0.053184394 0.015636083 0.04428886 -0.057621304 0.006825914 -0.05175948 0.012183641 0.056710877 -0.060123812 -0.026317751 -0.0070797736 -0.015451506 -0.057132695 0.004976709 -0.0005081183 0.06584129 -0.048524663 0.042459927 -0.013272689 0.006410918 -0.06627002 0.05394867 -0.010222887 0.02486713 0.037176095 -0.052570347 -0.007274137 -0.037952945 0.011028359 0.00978413 -0.065566085 -0.020816283 0.015095521 0.011087515 -0.04655231 0.0615263 -0.040040348 -0.055587832 -0.014657154 -0.044580534 0.025264947 0.0006497017 -0.04782499 0.04591226 0.049644995 0.017990183 -0.045791224 -0.008507861 0.0129287625 -0.016814712 0.012966545 -0.02445478 -0.020739794 -0.051930696 0.042019553 0.01433836 -0.05663238 0.044727124 0.052792683 0.030753518 0.025724996 -0.035256665 -0.061986692 -0.08077559 -0.030595832 0.03932823 0.03424006 -0.010712713 0.06509689 0.010568606 -0.03254628 0.0014466743 0.048160445 -0.014284522 0.040412817 0.009124268 -0.022610182 -0.05554006 0.06513869 0.061298437 -0.0599045 -0.06404926 -0.062106024 0.022729672 -0.030339634 -0.020521002 -0.010966706 -0.006061555 0.003972184 -0.056487627 0.036871266 -0.04074052 -0.05407243 0.041876618 0.018566545 -0.033550248 -0.0028797416 -0.037739594 -0.03005886 0.03162583 0.05701886 0.06927381 0.056830443 -0.02426467 0.05221235 0.012460729 0.017929412 0.040116962 -0.005361919 -0.0572283 -0.047012642 -0.02802291 -0.058993068 0.047770955 0.041739505 -0.02180222 0.042317178 0.021298971 0.009362675
five 0.04093888 -0.027547192 0.05749777 -0.029910445 0.0067968313 0.04588094 0.005921476 -0.03229958 -0.03440442 -0.0038340872 0.06691271 -0.0118091935 -0.036613956 -0.017487234 0.05077183 -0.046893906 0.04130967 -0.04889 0.005101531 -0.0066578165 -0.025034495 -0.03202712 0.017515555 0.016555652 0.012357263 0.017680442 0.024910517 0.05744947 0.031694137 -0.027028952 0.008824214 -0.06371805 -0.01329525 0.057451617 0.07144212 -0.038770515 -0.04997295 0.010128566 -0.06315647 -0.008702608 0.031864114 -0.022855623 -0.016713979 0.01770899 0.012928513 -0.014186136 -0.032866344 0.06347672 0.052111953 -0.033406094 -0.05518488 -0.012788037 0.06861375 -0.006333674 -0.024383519 -0.04047573 -0.051055394 0.02354759 0.07093776 -0.03659165 -0.009379557 0.039313745 -0.061469525 0.038842723 0.04190705 0.048857562 0.033265926 -0.04470003 -0.013027439 0.0123494975 0.012714153 0.012379574 0.0327762 -0.045428693 -0.028921507 -0.00061812473 -0.028597876 0.011549194 0.015848305 -0.043454375 -0.0610197 0.059674527 -0.033479385 0.029484317 0.020393804 -0.014586389 0.063755356 0.0350395 -0.04559849 0.021357408 0.027886303 0.02964745 -0.0064640017 -0.002372746 -0.0013005774 0.029032812 -0.03882753 0.035937596 0.003511272 -0.019970352 0.04865036 0.039146878 -0.040768057 0.035263907 0.04270906 0.0070305923 0.045977887 0.019975819 0.04898458 -0.0042780736 -0.048734475 0.013346472 -0.018442357 0.040461518 -0.024926046 0.0025974263 0.013979861 0.0019122893 -0.019157311 0.055545446 -0.04311512 0.043382447 0.012861714 0.012843986 -0.029663704 0.05189399 -0.07052247 -0.030479763 -0.041346353 0.007182557 0.037191056 0.030165765 -0.04853217 -0.03184359 0.049766507 -0.010034843 0.021327054 0.03959026 0.03982704 0.030012522 0.016194709 -0.007959753 -0.028032867 0.033769164 0.03828161 -0.04668434 0.059141126 -0.023898395 -0.052689545 -0.038023215
walk -0.03184815 -0.016828516 -0.08100373 0.0077998647 0.031967167 -0.013325103 0.016505532 0.02460948 -0.007920617 -0.024302067 0.0063811173 0.035076275 -0.045690477 0.07513608 -0.042258684 -0.029100992 -0.027667971 -0.02286977 0.03937418 -0.0012450775 0.021849116 -0.04040461 -0.0059293397 0.007337253 0.03395555 0.067229636 -0.054357164 0.070054986 0.001732805 0.0029853862 0.058506776 -0.054528326 0.029129125 0.02292414 0.008120266 -0.04318408 0.06713315 -0.015820157 -0.03885788 0.04042504 0.06665995 -0.019229075 -0.07454092 0.041098095 0.05764721 0.039631657 0.06044705 -0.049740467 0.045686875 0.0075574433 -0.008627368 -0.009412762 0.08786305 -0.0078105535 0.002821099 -1.8518302e-05 -0.051247563 -0.050955765 0.05951326 0.046534523 -0.0620225 0.014435599 0.03477161 0.055494815 0.002812035 0.07309524 0.076460265 0.01440546 0.0122191375 0.022592708 0.024286982 0.06775599 0.023767725 0.0086230645 -0.007563835 0.006527883 -0.06259977 0.07359811 0.04707314 -0.03988207 0.034615636 0.04664552 -0.028949901 0.024639959 -0.050558995 0.020908853 0.013857272 0.034001634 0.0047985883 0.044541176 -0.040976584 0.05413673 0.062770344 -0.059783563 -0.024837311 0.02235243 -0.04618265 -0.0619773 0.03255132 -0.0137483645 0.030922003 0.028427033 -0.012601089 -0.02571297 0.04821026 -0.03943156 -0.028418383 0.0020830983 -0.01888004 0.073396504 0.012610956 -0.079810776 0.015107058 0.01927426 -0.047114562 -0.012421059 -0.011087646 -0.050634407 0.013779722 -0.033533275 0.02898171 -0.042761147 -0.048926607 -0.0546077 0.06951466 0.021174336 -0.0076330155 -0.038800135 0.055731233 0.012056196 -0.06540218 -0.020460492 -0.023539618 0.022932604 -0.044092588 -0.035157673 -0.035539303 0.074613295 -0.06976999 0.040551025 0.07511707 -0.01325926 -0.0066456627 0.048857015 -0.053548757 0.0642862 -0.04258482 0.027841331 0.016289547 -0.0062112967
bats -0.0027630306 0.047322955 -0.07097395 0.05270311 0.064077266 0.0076418566 -0.014986065 -0.011905879 -0.016156873 0.080593206 0.029496761 -0.01725868 2.3203786e-05 0.046325374 0.064680666 0.03577965 0.0676556 0.02937304 -0.075071335 -0.072540365 -0.07264772 0.05065271 0.024505321 -0.04277724 -0.011087804 0.03711824 -0.031516694 -0.042287078 -0.041447442 -0.025212772 0.00060608657 0.030452535 -0.040221058 0.0059088776 0.07619493 -0.069141604 -0.025063824 -0.07394386 -0.02279194 -0.028866187 -0.033893958 0.034676574 0.04401702 -0.011922239 0.03255398 0.04007054 -0.014143939 -0.0536168 0.04226997 0.03408465 -0.020062761 0.05961576 -0.054287978 -0.03250779 0.007049245 -0.029578783 -0.06334475 -0.005355101 0.07762368 0.046563618 -0.03336767 -0.07382489 -0.029613193 0.054012828 -0.061395194 0.03926784 -0.0061622546 -0.0049657742 0.09236828 -0.03122408 -0.053564373 0.036752254 0.037678365 -0.043170664 0.045510363 0.021111336 0.04421854 -0.0242694 -0.02131754 -0.07493488 -0.01049521 0.07984849 -0.034747586 -0.053694107 -0.01460144 -0.060027603 -0.024254529 -0.030542988 -0.01333251 -0.037710972 -0.01714963 -0.010271105 0.06664895 -0.022197088 -0.06160613 0.005178394 0.011117775 -0.031047324 -0.08323814 -0.05275238 0.028134173 0.05573293 0.009238646 -0.010405464 -0.07633453 -0.07425326 -0.041861963 -0.023130892 0.001972542 0.034566995 -0.090437874 0.026559604 0.00935123 -0.032327805 0.015362393 -0.027702987 0.04624258 -0.018131949 0.01018251 -0.040086444 -0.00026663893 -0.046993792 0.045279305 -0.074850164 0.008986631 -0.074851885 -0.078755535 0.007875823 0.009062507 0.0029091588 -0.026956735 0.06865922 0.0089950105 0.032859057 0.031017793 0.04761408 0.038454358 0.08365804 -0.06785343 -0.0084477365 -0.01798622 0.08804957 0.05387912 -0.037984986 -0.04344095 0.080232754 0.0727155 -0.014417985 -0.030466748 0.044914767
know -0.0027080437 0.030949289 -0.015475024 0.017431628 0.038734976 0.00062925334 0.07021826 0.0028770557 -0.030096803 0.012384191 0.10735405 -0.002798944 0.028530637 0.01980203 0.10404893 -0.08419118 -0.013185019 0.07789377 -0.049036637 -0.028664796 -0.006325773 -0.08929867 -0.0781837 -0.109123535 -0.028210638 0.06299114 -0.04206321 0.027428597 -0.11887313 -0.065066755 -0.04318088 0.051305883 -0.0346266 -0.056444272 0.055068884 -0.033907138 -0.025727337 0.012152326 -0.037463214 -0.029581653 0.050682765 0.026719468 -0.07719381 0.021518685 0.06441054 -0.0009703174 0.063939594 -0.03817995 -0.01579543 -0.055584867 -0.024978353 -0.08053772 0.016517527 0.032789342 -0.021301148 0.049821652 -0.09836359 0.04151668 0.05481463 0.101238325 -0.032793928 0.06554215 0.08381357 0.11725723 -0.03275506 0.062299814 0.08481188 0.04257153 -0.09426961 0.08161099 -0.03650934 0.03658313 0.10979617 -0.0652459 0.019102437 -0.0022750937 -0.03488463 0.09967915 -0.012910193 -0.016867511 0.02939893 -0.023225565 0.006419612 -0.12397503 0.09022047 -0.12960932 -0.040084396 -0.062420953 -0.07794023 -0.03792714 -0.022290971 -0.07044155 0.03461575 -0.07442619 -0.006083993 0.07325668 -0.02255804 -0.050514434 0.045904193 0.009917904 0.058800712 -0.02422817 0.044233292 -0.008857127 0.055395924 0.003367533 0.08433383 -0.07726539 0.027163308 0.014099077 -0.041354235 0.071686365 -0.011364703 0.04909104 -0.11743963 -0.038993116 0.03771374 0.09671728 -0.08665049 -0.07030576 0.027834099 -0.08589862 -0.001231001 -0.034179572 -0.06324532 -0.055611786 0.0390785 0.018327659 0.08569626 0.06577367 0.05407657 -0.025278995 0.05042584 0.004686169 -0.034897614 0.059202712 0.04971192 0.014675642 0.06884927 -0.005116648 0.08413523 0.00061687035 0.11440137 0.017737621 -0.06587371 0.0061265454 -0.022046704 -0.044720396 0.009073236 0.06276378
knowledge -0.03243947 -0.030129256 0.04676151 -0.069649905 0.05612805 0.031067073 0.006663485 0.026825806 0.019599695 -0.027933547 0.032986294 0.017723253 0.07015259 0.054070063 -0.03288637 -0.04881243 0.039938565 -0.024943504 -0.019577904 -0.05589441 0.07444976 0.0767971 0.052022085 -0.013907945 0.00013501849 0.03636384 0.0050716978 -0.005833984 0.05590138 -0.022135384 -0.063135356 -0.014582771 -0.025935551 -0.03558233 -0.010008911 0.01449719 -0.0037798197 -0.020254208 -0.06918112 -0.06667439 0.06563202 0.05163735 -0.067281656 0.056562163 0.06882598 0.03548915 0.046276342 0.06501673 0.011838271 0.03769525 0.039508425 0.023948984 0.05957651 0.01556072 -0.07152114 0.04051644 0.01497691 -0.007085598 -0.014219791 -0.02822769 0.040965866 -0.03554007 0.045571662 -0.027286738 -0.012249207 -0.025539352 -0.005756203 -0.05459675 0.03529862 -0.03420572 0.013962128 -0.048087753 0.012056535 0.016739672 0.0052707684 0.050293453 -0.044939905 0.004597471 0.031856194 -0.03230031 0.03864264 0.046724807 -0.029406115 -0.03321215 0.046295 -0.0016665242 -0.0021058614 -0.07690316 -0.031414367 -0.034102112 -0.009888442 -0.01030709 0.0029486215 -0.001770728 -0.016727192 0.0014336712 -0.024549097 0.05500866 0.041474674 -0.040739164 0.020132206 0.030514145 -0.045578163 0.028944248 0.0537808 0.022465065 0.0009860254 -0.01836956 -0.010214437 0.049496327 -0.03528627 0.03897079 -0.016218483 -0.026606007 0.0037121065 0.014778706 0.03926404 -0.00756543 0.008896856 0.00439175 0.06950766 -0.03552717 0.0390451 -0.033009257 -0.036323883 0.033649962 -0.053546205 0.038616255 -0.04642248 -0.077372715 -0.032694805 -0.012190398 0.018526036 -0.054372627 0.067259885 0.042630225 -0.067988575 -0.043617718 0.054706566 0.006088717 -0.05576632 0.03900541 0.04879727 -0.008940387 0.011628317 0.029842459 -0.067235455 0.010750266 -5.2400166e-05 -0.06392297
paper 0.032432567 -0.05333089 -0.0010125197 -0.055753544 -0.05936139 0.009612576 -0.06646104 0.04073043 -0.040721893 -0.067515664 -0.04735834 0.045851152 0.016749837 -0.041683227 0.0058262916 -0.02178088 -0.028111577 0.0017386565 -0.008859503 -0.03067099 -0.05152963 -0.03300887 -0.0033974457 0.06384638 -0.06320079 0.039332967 0.0013745525 0.039938413 0.054579448 -0.044133317 -0.035560325 -0.010316264 0.065940194 0.0630858 -0.0033916105 -0.024234228 0.063740864 -0.06226977 -0.0526484 0.053168263 0.03213465 0.042869166 -0.049488034 -0.011783993 0.051505297 -0.009522121 -0.053788 -0.021012563 -0.05051157 0.071203135 -0.06719129 -0.011152027 -0.0046030423 0.06475397 -0.018580277 0.018822987 0.031047717 -0.0530525 0.011372687 -0.024964241 -0.029701874 -0.0026385107 0.003039129 0.02763052 0.015093437 0.0072705625 0.01833643 0.035444256 0.028704962 0.034389902 -0.056355156 0.014533672 -0.009412244 0.018550025 0.06204858 0.014430566 -0.051393233 0.054099716 -0.068696946 0.05291095 -0.032167453 -0.04829675 -0.007634999 0.060574513 -0.043067604 0.066891894 -0.009886279 -0.0577743 -0.03004571 0.05535186 -0.06237408 -0.0014837891 0.028025232 -0.055652093 0.0036694324 -0.06842672 0.032605313 -0.039128676 0.022263318 0.04626737 0.007814214 -0.04007856 -0.060753137 -0.00036480615 0.06728117 0.05372724 0.0038143815 -0.02289043 0.030107494 -0.062205937 -0.042329874 -0.036660165 0.03286754 0.03515533 -0.04552352 0.05277648 0.05430082 -0.06722566 -0.01937693 -0.051672004 -0.04340107 0.055865012 -0.0005693644 0.009936578 -0.004878617 0.069845416 0.0068475762 0.008615099 0.04918895 -0.026689747 0.06447207 0.028548457 0.015744392 -0.02215875 0.056822788 0.040072285 0.018098213 -0.050362296 0.009575635 -0.015334255 -0.048832934 0.009780065 0.019675475 0.03760621 -0.053632036 0.01495022 0.017829064 0.015024048 0.016288048 -0.038502138
reaching 0.057684995 -0.047634 -0.040204186 0.0007896961 -0.0223937 -0.034980457 0.02981552 -0.06060892 0.011963335 0.0509846 0.017954247 -0.06631929 -0.034053165 0.005292629 -0.0516963 -0.023483066 0.03058252 -0.051568665 0.0131099485 0.052454785 0.00465521 -0.031862684 0.020372098 0.039941587 0.022577325 -0.055875223 0.06246226 0.010409743 -0.00060695957 0.022084996 0.060898375 -0.037947603 -0.028697861 0.012172523 -0.056694385 -0.0267638 0.018518085 0.008750704 0.04300383 0.004931884 -0.012320683 0.032906093 -0.0221599 -0.04433735 -0.053549714 0.051878158 0.03969663 0.04845221 0.049431894 0.050930776 -0.04160098 0.02475885 -0.060361747 -0.04419071 -0.011078225 -0.059083194 0.026540985 -0.017712172 -0.015779797 0.023887508 -0.022043979 0.017167404 -0.02343231 0.011903889 -0.040264346 0.06998249 0.0041981074 -0.03387188 -0.036497243 -0.024090542 0.0052195783 0.055386376 -0.032108366 0.002495857 0.019369788 -0.048876103 0.011233759 -0.06050255 -0.033206567 0.009650554 -0.046318453 0.0144318035 -0.03486657 0.027642477 0.072964825 -0.012300044 0.036435552 0.015952699 -0.046440136 0.04439559 0.032830995 0.020665867 0.061393578 -0.028575363 -0.071440525 -0.051148254 0.005229355 -0.0053501343 0.045527786 -0.01697557 0.06867171 -0.059508346 -0.05658858 -0.05080579 -0.006522578 0.0020983317 0.070241004 -0.059247263 -0.010586543 -0.051088493 -0.048290245 -0.037279133 0.045112398 -0.015388673 0.003281754 -0.0081075635 0.034928408 0.061239004 0.058651883 -0.027337844 -0.039292302 -0.034955703 -0.047330264 -0.0740499 -0.023974314 0.01997532 0.051208332 0.044973128 -0.037394896 0.03797164 -0.03253168 0.051388882 -0.0046328646 -0.008166896 -0.0065934965 -0.06428392 -0.019055974 0.073010795 -0.030837357 0.06851318 0.049289215 -0.02671561 0.04862589 -0.030966446 -0.0031131275 -0.030387051 0.056873966 0.0030755103 0.020353852 0.0029504732
spirited -0.015946522 -0.04834358 -0.053164806 -0.009520131 0.06322323 -0.059643194 -0.007836827 0.045629993 -0.006183045 0.04163117 0.053023998 -0.020053484 0.047726426 -0.06651791 -0.042632878 -0.020774275 -0.045569587 0.0031451317 -0.0055666696 -0.04188454 0.01869917 0.058310635 -0.021253295 -0.0657651 0.04222756 -0.048722744 -0.018309886 0.012611369 -0.0012013597 -0.0039545456 -0.01705117 0.038807865 -0.06063368 -0.039789263 0.0027412525 0.028178213 -0.031567883 -0.030605113 -0.056410845 -0.0441599 0.020277929 -0.01095257 -0.04306747 0.030504517 -0.032692835 0.047184 -0.053081725 0.05581346 0.04577534 0.06757566 -0.030018497 -0.03420692 -0.036711447 -0.0025867121 -0.035059683 -0.052430473 0.049756918 -0.010300918 0.019801393 0.017905168 0.004902264 -0.052297536 0.027558293 0.0069421194 0.032870173 0.024095172 0.06357513 -0.06304224 0.044170182 0.026336946 0.03011753 -0.04764161 -0.064506836 0.03040131 0.03344406 0.04981076 0.045958005 -0.05221196 -0.0414622 -0.0032800897 -0.03974335 -0.017092142 0.048647318 0.019343397 -0.032769237 -0.04017608 0.010021665 0.03491153 0.031928897 -0.050616123 0.024066541 -0.019305155 0.0021277298 -0.0035855668 0.009251373 0.03885465 -0.043912496 0.029730747 0.02203296 0.0591733 -0.02071267 -0.02112466 0.053739093 -0.03583535 -0.0035797884 0.01765865 0.059982464 0.054110505 -0.052643366 -0.026716342 0.044163365 0.04877505 -0.0105460575 -0.045648005 0.019412361 -0.043968648 -0.021384155 0.06376966 0.009662641 0.034164827 -0.033387553 -0.04584371 -0.045177866 -0.04424117 0.042120114 -0.03488975 0.008275894 -0.011816007 -0.06524444 -0.0062699188 0.016262809 -0.00030530908 -0.019308886 0.00908852 0.0708814 0.04864808 0.004912323 0.022392806 0.00095782336 0.0512565 0.022424562 0.06145914 -0.037598364 -0.060958687 -0.021038169 0.05123713 0.0042155283 -0.0416103 -0.04031856 -0.034523904
familiarly -0.030665366 0.039617162 -0.021259233 0.0028552124 0.016706755 -0.0320765 0.00080607634 0.01705609 0.010566963 0.04797723 0.046187337 -0.025957076 -0.035831507 0.02094255 0.04476439 0.06144911 0.066035785 -0.018781519 0.02645544 -0.06589878 -0.0038931868 0.06633895 -0.035425894 -0.0520173 0.052771572 -0.031397313 -0.040290896 0.05551327 0.06432419 0.0616224 0.025960848 0.019197727 0.049934007 -0.071931 0.063410476 0.0021553535 -0.04887191 -0.010443502 -0.013901154 0.057611816 -0.00941619 0.045419756 0.026625816 0.054365877 -0.053755235 0.022384206 0.027782058 -0.042595137 -0.020337949 0.051605485 -0.05171113 0.014724341 -0.013568475 0.038315218 0.057700086 -0.018458439 -0.00403492 -0.0055294456 -0.00792431 0.022493552 -0.037660345 -0.01329312 0.062191315 0.057704568 0.01198641 0.026057666 -0.03265286 -0.007957069 -0.05714575 -0.06408941 -0.008869709 0.001068613 0.03210606 0.04845434 -0.03222056 -0.035686675 -0.04712365 -0.027026169 -0.029664392 -0.012280713 0.025744587 0.07057513 -0.03899544 0.054745667 0.06671118 0.034550887 0.024814544 -0.055928033 0.05661727 -0.050704103 -0.052591052 0.045598082 0.020811692 -0.031222004 0.007603274 0.023486355 0.052285835 -0.034649286 0.0061238213 0.038441714 0.00315246 0.036847502 -0.05009228 -0.05849708 -0.054072384 0.04116256 0.012518546 0.052057732 0.021425787 -0.051511656 0.043595985 -0.014515061 0.029957904 0.034782622 -0.061468177 -0.045370474 0.03281834 -0.024051612 -0.046997815 0.006378624 0.04482533 -0.0038734556 0.03412053 -0.029533554 -0.0353564 0.010029277 -0.061615597 0.050351847 -0.023260573 -0.065846324 0.056944374 0.027693415 0.013955402 0.056270592 -0.054475963 -0.019799937 -0.0668382 0.07203595 -0.055382103 -0.035155207 0.056367908 0.03794294 0.05669699 0.03264 0.009693621 -0.020724285 -0.02115863 0.037374906 -0.06650254 -0.008136335
sat 0.0010225386 -0.0030282983 0.030113803 0.0057449825 0.04722449 0.020859625 -0.047886807 -0.06711238 -0.078724064 -0.031892985 0.043227326 0.012642702 0.06696668 -0.0357297 0.028266072 0.04470948 -0.052169286 -0.074139595 -0.06575375 -0.0318418 -0.024467915 -0.014035793 -0.011482237 0.03685623 0.056074157 0.014034452 0.054709863 0.06699325 -0.08265639 -0.041681565 0.0039026306 -0.0079946425 0.08518563 -0.024208866 -0.034292564 0.00018711691 -0.08333023 -0.019408047 0.016269658 0.06590689 0.028139163 -0.024205863 0.059092678 -0.019217748 0.056397658 -0.016532758 0.027651519 0.044468362 -0.066711284 -0.033703625 0.06273323 0.031817455 0.029994026 0.035583086 0.042253323 -0.054303832 -0.066725336 0.006330128 0.009189169 -0.042482376 -0.05186828 0.0075136414 -0.004789156 0.021283321 0.015769873 -0.013769559 -0.012845863 -0.05569109 -0.045554716 0.0064475816 -0.079397805 -0.048092987 0.010650737 0.06643428 0.05804386 0.021573942 0.025560899 0.042747773 0.014993073 -0.042219058 0.032605927 0.053296577 0.061593644 -0.03072564 0.04925057 0.018497938 -0.0071121305 0.028182678 -0.0048928047 0.056282192 -0.057019487 -0.019657712 0.022668425 0.0450833 0.06517117 -0.013691816 -0.036913674 -0.073434114 0.043425035 0.035455737 0.045599006 -0.06667729 0.079323314 0.030105991 0.002875867 0.011860138 0.039052952 0.026365763 0.053260714 -0.051774748 -0.014828343 -0.029678516 0.034267716 -0.0141652925 -0.0028554809 0.045552045 0.0066126124 0.053376444 -0.019341035 -0.06711693 0.008622512 -0.07112356 -0.04252943 -0.026700579 0.050872944 0.015976232 -0.002008736 -0.043915547 0.012931793 -0.02349281 -0.06816867 0.061990798 0.05443343 -0.053254634 0.024069792 0.029158168 -0.014943166 0.025814557 -0.04163124 0.052669764 -0.00079777336 0.047682676 -0.03997765 0.042552706 -0.0645852 -0.050790105 0.024488535 -0.051494986 -0.065403335 -0.016109154
alone 0.05857123 -0.027042743 -0.046921555 -0.04312562 -0.03642639 -0.019895151 -0.042806316 -0.060327467 -0.0487692 0.005241005 -0.00834258 0.040488936 -0.050734088 0.07688855 0.033914097 0.042084582 0.033458658 0.020044917 -0.02065028 -0.074831486 -0.059920825 0.07360528 -0.04753513 -0.07307824 0.006825621 -0.04825504 0.009245224 0.043757852 0.04713589 0.035152808 -0.015614678 0.023272475 -0.010680191 -0.048828058 -0.026515875 0.0323429 -0.017908989 0.045065742 -0.06567331 0.05411109 0.0067458153 0.016666599 0.016225869 -0.036356833 0.05469586 0.027223477 -0.027496915 0.015157569 -0.045542385 -0.052680686 0.051406775 -0.00055507093 0.026820457 -0.031080771 -0.020892859 0.08120627 -0.019075494 0.07318201 -0.02398369 0.025178289 -0.03135333 -0.057662923 0.047500134 -0.012018815 -0.032838877 0.01150405 0.038634114 -0.0718265 0.03484015 -0.03544038 -0.055906516 0.054935906 0.04198859 -0.07481362 0.052235667 0.059906974 -0.0007539906 0.011798964 -0.05233395 -0.047058553 0.07524048 0.05105018 0.06333316 -0.062005714 -0.048748888 -0.011547137 0.016185116 0.032334894 -0.019206831 0.024883283 0.029749565 -0.017905895 -0.0031998747 0.03302507 -0.015423363 -0.07433621 -0.05069431 -0.04715867 -0.01370514 0.011277255 0.0035156568 0.021064956 -0.0037681246 0.024581471 -0.05224429 0.019526925 0.033047352 -0.021032277 -0.018441692 -0.04319722 0.050776087 0.04053195 0.009756222 0.045793086 -0.03904137 -0.019325567 0.054797363 0.060020536 -0.068767935 0.056535363 0.023931725 -0.022947716 -0.009522552 0.055052567 0.04124079 -0.049578633 -0.02072183 0.039695933 0.015324067 -0.05736003 -0.033823043 -0.025397277 -0.03404162 0.04767942 -0.052771587 -0.03731488 -0.05090309 0.08116721 -0.07902556 0.029302377 0.02075428 0.063070744 -0.016533779 -0.035739843 -0.06095557 -0.04607625 0.078331046 0.018710831 -0.038676806 0.052787174
insult -0.05441687 -0.036985345 0.056450628 0.031139586 0.06708788 -0.024158113 -0.0114214625 -0.014254516 0.015360868 -0.01906311 0.014968754 0.000814514 -0.009974126 -0.0043906006 -0.018219555 -0.013186726 0.03921675 0.05586728 0.05564225 0.04688808 -0.0031801178 -0.052858718 0.011299539 0.036537014 0.0225146 -0.059405982 0.041408572 0.020455746 -0.047642868 0.05888796 0.01878903 0.04724599 0.0006221826 0.056680955 -0.034861963 -0.058551066 -0.042374693 -0.005827561 0.024519274 -0.037797444 -0.047114063 0.06916547 0.0625479 0.011704098 0.028250713 0.043116927 0.035627224 0.05664129 0.06249917 -0.06397068 0.05568479 0.06103777 0.005012093 0.030589951 -0.05385785 -0.0071702087 -0.023969416 0.001248547 -0.0035024476 0.012157497 -0.056990527 -0.0032866066 -0.047287833 -0.055037647 0.0039747595 0.016810765 -0.03887134 -0.0679835 0.06930264 0.0154193165 -0.035403114 0.026837762 0.02607473 0.0058479356 -0.009997404 0.06010852 0.033490106 -0.015746344 0.06790771 0.028443197 0.059604585 -0.054340135 0.05889987 0.04984725 -0.029159939 -0.02465868 0.053163283 0.029145386 -0.061094053 -0.062318724 -0.045763213 0.005850009 0.013472065 -0.055286467 -0.06445148 -0.014300395 -0.023626067 0.012464557 0.05091275 -0.022440163 -0.025259132 0.03901174 -0.032942835 -0.028470859 0.035711 0.0507166 -0.054606576 -0.0182159 -0.006126712 0.066020146 -0.056287564 0.042903878 -0.018974751 0.02867607 -0.02801385 -0.029342484 0.0034900333 0.0039588446 -0.063916 -0.06226983 -0.043161403 0.02722008 0.052214824 0.011932354 -0.004165011 -0.063280076 -0.043303076 0.03110786 -0.0044328906 -0.07355503 0.04256162 -0.03518345 0.0074230754 -0.04658849 -0.0070598028 0.03734018 0.00030139484 0.009715928 0.07128626 0.043127693 0.017190015 0.024021674 -0.05273463 0.0062655983 -0.042834263 0.035608534 -0.042781964 0.038194392 -0.03991608 -0.043447364
pictures -0.057907287 -0.027519787 0.021167174 -0.07044811 -0.032877695 0.05075513 -0.07122199 0.03711804 -0.021682225 -0.023444552 0.045270827 -0.058903042 -0.019353887 -0.010922675 -0.033601567 -0.06847668 -0.052075386 -0.047785692 0.0055765915 0.015707914 -0.049517542 -0.021499459 -0.0747653 -0.06239673 0.039794423 0.04844169 -0.05403586 0.0461503 -0.008385481 -0.027516944 -0.023749936 -0.024876863 0.04121166 0.017464038 -0.015404257 0.05736083 0.032465804 0.029486403 -0.014262852 0.005727445 0.04409722 -0.035853647 -0.0004408477 -0.0028047808 0.046155043 0.0654449 -0.04961402 0.030584678 0.0337907 0.044618115 -0.029277569 0.027282853 -0.056559797 -0.068913735 0.03621002 -0.048201174 -0.021229425 0.0048481254 -0.010850026 0.027000524 0.05100869 -0.06539861 -0.045485128 -0.023986291 -0.06358049 0.061310273 -0.046047933 0.034156665 0.007861299 0.074702576 -0.021467516 0.05341467 0.057611473 0.059816923 0.019449085 -0.054386854 -0.017141242 -0.044269215 0.019193199 0.030685985 -0.06164546 -0.035517696 -0.026644489 -0.033044495 -0.03264226 -0.0034643777 0.00856002 -0.055380747 -0.06836725 -0.033770904 -0.00053985824 0.007099901 0.045609657 -0.040905934 -0.027690707 -0.007322533 -0.022514058 -0.058207322 0.039021548 0.023253195 -0.0078170765 0.0017660809 0.061284054 -0.016817493 0.050719023 0.04086684 -0.0032408577 0.005474954 0.040257078 -0.006385712 -0.07523766 0.011932965 -0.031617872 0.03329108 0.011339127 -0.06711189 0.06363558 0.016602129 0.005385131 -0.060793858 -0.02960736 -0.02380403 0.04965394 -0.0627918 0.028419688 0.017760519 0.033985075 0.036737517 -0.067503035 -0.019972332 0.04426248 -0.033533417 0.075358145 0.047865663 -0.032506187 0.0132109355 0.047854304 0.023285797 -0.037003767 0.073367834 0.016953107 -0.0030530991 0.026764747 0.059664488 -0.0710388 -0.00040381553 0.012544354 -0.019416736 -0.015321443 -0.022619057
frowning -0.04386611 -0.067854494 -0.044086687 0.05000863 -0.04921256 0.018374989 0.0006258066 -0.04157205 -0.050652612 0.022931855 0.03585299 0.04602686 0.05935529 -0.044429164 -0.05718728 0.045932066 0.010560262 -0.0072519467 -0.04507953 -0.040341754 -0.066700175 -0.008021351 0.061607003 0.005522641 -0.05027134 0.02309355 -0.04770323 0.01709279 0.002747194 0.040376563 -0.005782806 0.062470537 0.049460556 0.03370086 0.061657242 0.049362168 -0.025957158 -0.031915825 0.04158472 -0.062341597 -0.04777606 0.0052681738 -0.0554047 -0.031881735 -0.030796403 -0.019390834 0.06292266 -0.061357908 -0.004120345 0.04979333 -0.04916297 0.0562462 0.014374683 0.019526828 0.021141041 -0.04164917 -0.05307916 -0.04108168 -0.03452417 -0.009104384 0.063869014 0.031500876 -0.05323536 0.012738464 -0.024237048 -0.007987643 0.04621127 0.009638537 0.027578237 -0.0049822326 -0.011464054 -0.06035454 0.024788847 0.049056668 -0.025596369 0.029617902 -0.04331228 -0.025569294 0.04046754 0.0009124179 -0.048461396 -0.005469723 0.054887198 0.029564831 -0.044712283 -0.06480677 -0.015132245 0.044610035 -0.04381928 -0.04803355 0.059191227 -0.005634158 0.047856275 0.048682738 -0.0071151406 0.06518057 0.041854765 -0.007158485 0.054342344 -0.02468959 0.05583594 -0.04253623 -0.014921982 -0.007048079 0.0077704852 -0.06122356 -0.013673117 -0.0720312 0.0009893063 -0.024251057 0.05437354 0.0012172054 0.02637848 -0.044364862 -0.014069455 0.060554504 0.00012508011 0.030376524 0.024310969 -0.04923088 -0.044549827 -0.0060260124 0.03207491 -0.010619894 -0.04453684 -0.053302024 0.061885312 0.059527732 0.0024245747 0.0037467983 0.053308565 -0.029575778 0.044249356 0.028428994 -0.03650083 0.009560367 0.023485739 -0.03692618 0.021390252 0.042777356 -0.00998624 -0.017846515 -0.021645421 -0.03320609 0.019336795 -0.061609816 -0.036308095 0.011849709 -0.051413 0.039009765
low 0.04972025 0.06635267 -0.049016584 -0.028793806 -0.027871756 -0.021863084 0.0079002455 -0.051928863 -0.08729982 -0.043994717 0.06465714 0.022158638 -0.012165456 -0.00754572 0.06806477 0.0072550466 0.013972961 -0.058266338 0.018030955 -0.07182267 -0.05427244 -0.010732116 -0.01834665 -0.0028869938 -0.018187515 -0.039885946 0.00018586742 0.05066498 -0.0077264286 -0.03498633 -0.041500647 0.026622182 0.001204703 0.017174263 0.044518996 0.00037809706 0.076817304 -0.015000838 -0.0010737263 -0.035224676 0.024379348 -0.015828641 -0.044466916 0.008277548 0.008429429 -0.016636437 -0.022844462 0.018875819 0.006324133 -0.025718082 0.030907117 0.018545825 0.061742894 -0.074788734 -0.014361533 0.076244056 -0.03815729 0.081999175 0.07646589 -0.013574213 0.009786752 -0.067021206 0.0072952313 -0.07808959 0.010982737 -0.042004444 -0.014012833 -0.06872352 -0.023174591 0.016812949 0.040383406 0.037014086 -0.025388822 -0.0062099136 0.07015841 -0.057779506 0.04176377 0.00030507543 -0.030594015 0.010597576 0.045822717 0.08210187 0.02139815 0.040214915 0.07652113 0.05024144 0.0497884 0.006406308 -0.019634137 0.002826272 0.09271177 0.08482012 0.039759837 -0.021096768 -0.020628631 -0.03599344 -0.025654126 0.018440748 0.020810418 -0.013798943 0.04924099 0.0063717877 0.026728457 -0.015348411 -0.058787365 0.025430305 -0.002894227 -0.03221736 -0.033008818 0.020020863 0.022246376 -0.02910013 -0.0045898687 -0.05115155 -0.06255301 -0.007655013 -0.038374335 0.016732248 0.022346565 0.014559447 0.022199292 0.031679165 0.046236515 -0.007695837 0.04131542 0.027447892 0.051265474 0.03605271 -0.06421524 0.004886889 0.03768789 0.015881201 0.029609773 0.070941225 0.025714962 -0.05662651 -0.037979685 0.017972564 0.019099701 0.06350218 -0.04368281 0.05905552 -0.006974145 0.03393927 -0.06590083 0.028543217 0.063570835 0.04786939 -0.078485616 0.042585865
not 0.04793517 -0.0530634 -0.072761156 -0.094958186 0.022089021 -0.026880046 0.11768756 -0.13196927 -0.038220074 0.14802752 0.06284131 -0.058394574 0.014363333 0.0466032 0.07706447 -0.035316404 0.004803219 0.023850486 0.023858657 0.012770624 0.0085515315 -0.102073684 -0.008485681 0.007217903 -0.0054418184 -0.06930662 -0.10756368 0.026421497 -0.037803505 -0.123611495 0.034011144 0.11577198 0.09188089 0.00356333 0.03617141 -0.055602502 0.12103848 -0.13488187 -0.072173394 -0.1202454 -0.029937018 -0.07827653 0.047008414 0.093577415 0.013534497 -0.12193195 0.03381238 0.01756961 -0.09015139 -0.007507883 -0.09778509 0.016740166 0.05698227 -0.08895036 -0.08899622 -0.054075796 0.06527156 -0.009712006 -0.013729442 -0.014395472 -0.13363452 -0.026087005 -0.06276602 -0.0022718087 -0.09429004 -0.02431431 -0.06331305 -0.027714789 -0.016179381 0.016754903 0.08145428 0.014987068 -0.023230912 -0.017766407 0.0023859497 0.111099824 0.059152372 0.03421966 0.07062408 -0.04983653 0.12965 0.12321885 0.07782019 -0.10739253 -0.0045198193 -0.03190873 0.058833532 0.04332678 0.0072732633 0.13916898 -0.03423687 0.059858676 -0.008911503 -0.021918647 -0.010248542 -0.06493337 -0.07656502 0.061041035 0.008240967 0.07267382 0.013089479 0.053726017 0.003734707 0.1072306 -0.0778522 -0.024388691 0.07123322 -0.04146786 0.06642603 -0.01105477 -0.005307979 0.034159835 -0.11654102 0.05134263 -4.27349e-05 0.009586749 0.06403415 -0.023766572 -0.15526652 0.045810897 -0.021059606 -0.06316092 0.048314333 0.011930864 0.016917609 0.023243623 -0.008314815 0.098388515 0.061559696 0.07547164 -0.11921633 0.121443264 -0.044202197 0.071280286 -0.06299843 -0.0864254 0.090721205 0.01774783 -0.07049471 0.051734075 0.035775393 -0.011508168 0.1252839 0.06744095 -0.107911944 -0.027334116 -0.0045161694 -0.012147788 -0.08467615 -0.050095018
understand 0.008621883 0.07754623 -0.07161331 -0.004224557 0.023427453 -0.014742669 0.050816726 -0.06964879 -0.0224446 0.07644056 0.0593546 -0.07148854 0.03767178 -0.023731597 0.019615663 0.05285756 0.066197075 -0.01178378 -0.0065951054 0.02012633 -0.02979888 0.018207712 0.055399217 -0.044666816 0.07633597 -0.009967633 -0.06269896 0.016589843 0.012492151 -0.04920596 -0.03606373 0.023042008 0.06324958 -0.03766724 0.06491239 -0.0782708 0.043143556 0.018901976 -0.0015884363 -0.020515382 0.037830766 -0.022035731 -0.07641704 0.0127716195 0.060948372 0.021751985 -0.0019900287 0.042938724 0.016805733 0.07520438 0.04092916 0.051060952 0.04996456 0.038437296 -0.018003643 0.041133985 0.00534423 -0.034892973 0.055585377 -0.051031634 -0.059186343 -0.03946399 0.029357746 -0.053690095 -0.006715511 0.004973875 0.015412017 -0.06017496 0.022086084 0.020795595 -0.03408691 -0.027168285 0.014087429 0.02618986 -0.017329818 -0.005701267 -0.048256774 0.064638436 -0.025998957 0.026734343 0.029497204 -0.025193693 -0.05863927 -0.027890466 -0.020733872 0.020816589 0.031604238 -0.049155723 0.045264155 0.022712497 0.06895231 0.04785969 -0.03338925 0.020507213 0.00071604154 -0.014702292 0.019118594 0.027005222 -0.06355494 0.0027555902 0.07032512 0.060164277 0.010741207 -0.016505532 0.04440129 0.03307973 -0.042903922 -0.032170583 0.0088298675 0.041429933 -0.066002764 0.027356759 0.053982764 0.033137407 -0.07976555 -0.05295105 0.04906816 -0.014312732 0.015460141 0.04424084 0.035090987 -0.0136698205 0.042421695 -0.016764134 0.025018891 -0.03177134 -0.00966703 -0.051197078 -0.028224142 -0.042538766 -0.060700454 0.006556729 -0.06309424 -0.048115432 -0.018171433 -0.027042428 0.033839684 0.0020337696 0.04343888 -0.012763353 0.04959108 -0.029054258 -0.04780898 0.07370538 -0.054794338 -0.003202541 0.048536904 -0.049578447 0.008831974 0.011768058
wherever -0.06746814 -0.035810366 -0.058529276 -0.042226635 0.060552455 0.024628015 -0.024069468 -0.037363745 -0.0013366288 0.045386445 -0.05779821 0.031131413 -0.0263835 -0.029070634 0.02794233 -0.049349688 0.049416125 0.038272347 -0.0021945452 -0.019098803 -0.026714576 -0.049749743 0.05968418 -0.06656038 0.02756168 0.023596227 -0.03434961 0.04731345 -0.008637333 0.016954537 -0.025681728 0.014567007 0.021787312 0.0477499 -0.0038769613 -0.02809421 0.024367083 -0.07370069 -0.0012917871 0.019710813 0.061023075 0.005977179 0.014523377 -0.018007757 0.011417494 0.058522053 -0.009024192 -0.043059792 -0.04089381 -0.012856681 0.061062656 -0.05339976 0.048786607 0.06445201 -0.0029565198 0.00492555 -0.013514065 -0.03729633 0.061294552 -0.0066013345 0.047548026 0.014165978 0.007814784 -0.016744249 -0.01462709 0.057755798 -0.013212397 0.05334777 0.03696032 -0.032425955 -0.063941576 0.044546787 -0.0704965 0.013532199 0.056516062 0.055228926 -0.060464323 0.03501988 0.012951045 -0.024910191 0.042270962 0.07065207 -0.0139891 -0.036668144 0.062439274 0.0449141 0.04585594 0.013772791 0.052314367 -0.0560906 -0.054776542 -0.0064713126 -0.03988387 0.011978017 -0.06938432 0.042902265 0.015053018 -0.03846726 -0.036484096 0.0257004 0.059866987 -0.022111367 0.07395139 -0.037801422 -0.043361556 -0.02122786 -0.059848495 -0.0035144663 0.055769376 0.008847911 0.058284327 -0.0523843 -0.036829878 -0.022296574 0.02392923 -0.05366299 0.065630406 -0.015351891 0.0610091 -0.051562637 0.03170203 -0.00059500895 -0.031697962 0.010157309 0.059927434 -0.0105025945 -0.029434161 0.062466346 0.03864172 -0.01741392 0.05684112 -0.057820898 0.034397084 -0.03834912 0.057148598 -0.016970402 -0.01720174 0.047106452 -0.0057505313 -0.022308107 0.030464731 0.053871214 0.053599086 0.01942382 -0.027438259 -0.012083717 0.00772768 0.024849871 -0.047248486 0.05926841
face -0.06582402 -0.03111043 -0.053304154 0.033060998 0.016865542 -0.0055493154 -0.014488529 -0.07775719 0.021645634 0.051571902 0.0121086165 0.031039735 0.05463665 0.050163984 0.02115927 -0.051597536 0.0019994068 -0.008356364 -0.022538122 -0.0009689769 -0.025493447 0.06468603 -0.0011140541 0.029135726 0.050811388 -0.050169915 0.03519601 0.03413087 -0.056809317 -0.045917153 -0.038552076 0.0497496 -0.020545598 0.05212319 0.06352254 -0.0479892 -0.060626984 -0.0051920116 -0.029595714 -0.016101105 -0.05411769 -0.045598324 0.024004065 0.021447878 -0.052843116 0.03770816 0.009876833 0.040247284 0.061134618 0.075178236 0.03211979 0.06928825 0.02224289 -0.06553316 0.03452556 0.062040526 0.030307537 -0.0070481673 -0.056966726 -0.06098586 -0.075002655 0.018670455 0.055165432 0.054998424 0.016767075 -0.03345492 0.037274532 0.00469428 -0.042168655 0.0043767844 -0.011636401 0.01455774 0.031166848 0.008865169 0.039499816 -0.00059933297 -0.058115087 -0.0006056543 -0.016405758 0.07128689 -0.012983622 -0.02616938 -0.020837903 -0.00994232 -0.06728421 -0.04830181 0.034979388 0.054338846 0.024182256 -0.012835903 0.025446111 0.00937603 -0.05981247 -0.0352741 -0.06611132 -0.009800086 0.048966676 0.02106233 0.049717292 -0.0079974085 -0.03732844 0.03944785 0.039949276 0.031275757 0.040388644 -0.041830614 0.059808567 0.0041891965 -0.07548697 -0.05630808 -0.02397342 0.0007372316 0.048363402 0.015988857 -0.016263105 -0.06038246 -0.059890594 -0.012559855 -0.04830465 -0.04184536 -0.030336984 0.017181193 -0.04874309 -0.030452453 0.072952785 0.0373914 0.047247205 -0.022795899 0.02997653 -0.009413408 -0.0485961 0.03209298 0.0055003073 -0.01769477 -0.019317048 -0.021462107 -0.041515645 0.01662731 -0.034328453 0.0012367149 -0.025913691 -0.013110064 -0.069748096 0.010089107 -0.010789945 0.014919359 -0.030831987 -0.032656834 -0.025641795 0.03033026
birds -0.002077743 0.021134095 0.029922053 0.010554122 -0.006487135 -0.022542981 -0.07355638 -0.035813425 -0.05899971 -0.033023495 0.015107089 0.0036433297 -0.0063967714 -0.020548314 0.040860806 0.003068308 0.0611283 -0.09892755 0.015458483 -0.07853969 0.03844836 -0.049153294 -0.05778951 -0.08541741 0.088904336 0.0013085186 0.015283173 0.04464011 0.019634109 -0.07164989 0.071952924 0.05293318 0.0113034975 -0.031357806 -0.013564155 0.021668993 0.040109314 0.06412742 -0.004600261 -0.060387485 0.05898785 0.046367064 -0.06852116 0.037052553 0.0700978 -0.009091413 -0.016803088 0.03080997 0.032506984 0.07461752 0.06513348 0.09162587 0.0006791316 -0.068523705 0.028072778 0.022986919 -0.026657224 -0.026429098 0.014210286 0.08027162 0.047638267 0.028244786 0.07796133 -0.03668564 -0.08685823 0.10385431 0.048916165 -0.0004448021 -0.07956739 -0.027110795 -0.07094198 0.045045644 -0.07709124 -0.033217274 0.040256303 0.037265144 -0.0321116 -0.035460424 0.025587592 -0.01525756 0.007694574 0.00041893288 -0.065923154 -0.07862425 -0.024730312 -0.027525697 0.02608145 -0.0032756836 -0.05313728 0.03742109 0.047199972 -0.0058251116 0.051118586 0.014157628 -0.082621686 -0.019560805 0.0031649275 0.0058683767 -0.0065579116 -0.063229196 0.055357847 0.05024551 0.053709194 -0.059156902 -0.07407151 -0.056516796 0.074028455 0.022771118 -0.04562415 0.043303847 -0.06611144 -0.05014566 -0.05656489 0.0118112955 -0.010862439 0.020960275 -0.037682727 0.06319165 -0.061391126 -0.08455027 0.07340741 -0.081742965 -0.019033602 -0.024404055 -0.020372998 -0.0009342057 -0.03838195 0.036654368 0.040022098 0.027064461 0.010383876 0.061762657 0.03220538 0.034617554 -0.0042191963 0.030887803 -0.046176825 0.03647582 0.026736684 0.036788415 0.09215837 -0.028727723 0.08806966 0.03553677 -0.048304223 0.036228735 0.07238486 -0.08108729 -0.0025319352 0.025412101
seaside -0.006277772 0.056607462 -0.03779638 0.040655654 -0.054413877 0.017925374 -0.055908 0.021500658 0.055284716 -0.0034748376 0.059569646 0.01970771 0.0039386265 0.0515005 -0.06638439 -0.057493314 -0.02027164 -0.054609366 -0.0076887235 0.017703416 0.0147781 0.0442108 0.060797058 -0.055110376 -0.008632099 -0.008516747 -0.01287858 0.06452052 -0.039536785 -0.032774948 0.039902315 0.06494535 0.05927187 -0.034198843 0.016135136 0.043548387 -0.04774841 -0.0056747524 -0.0013883277 -0.06259244 0.008751499 -0.026949279 -0.024021674 0.0016083864 0.061072364 -0.031145284 -0.033037335 0.026321547 0.06541687 0.016372595 0.017524634 0.051704425 0.026995376 -0.026199242 -0.055283457 0.02486055 0.058717493 0.06644319 0.02584755 0.022610739 -0.040192947 -0.04036501 -0.062118705 -0.020889342 -0.044106275 0.034691 0.021115545 0.039800193 -0.06235122 0.03463211 0.0074974364 0.051949356 0.036809996 0.03483628 0.059640884 0.0625434 0.055639748 -0.011707077 -0.031287864 -0.025144765 -0.04197351 0.027286649 -0.024535948 0.047357738 0.018780433 -0.056419533 -0.063665606 -0.019830132 0.041742355 -0.016209844 0.017723706 0.015662417 0.003887647 -0.048238326 0.06354298 -0.05935271 0.06017941 -0.0021349052 0.058323804 0.056644235 0.04181159 -0.0075996686 0.06553289 0.041024536 0.022614988 -0.03347675 -0.06422119 0.059837423 -0.0329328 -0.003657678 0.049506243 -0.05952962 -0.04991521 -0.025726017 -0.05347638 0.01782312 0.057863142 -0.056702677 0.039327383 0.032678958 0.046521135 0.014070103 -0.029950758 -0.055807948 -0.009836242 0.061922092 -0.029323542 0.048002716 -0.048216403 -0.06431708 0.05768085 -0.05497886 0.059688848 0.05756041 0.0362178 -0.04274533 -0.009918521 -0.0072710044 -0.060624182 -0.017359937 -0.0015572387 -0.025413102 0.006324698 0.06635801 -0.052623123 0.018686889 0.049496748 -0.03478475 0.014381691 0.06816377
child -0.07757072 0.07052209 0.036415543 0.06640652 -0.0120020835 -0.051953837 -0.06323787 -7.153046e-05 -0.011115523 -0.0038308324 0.019999746 0.03493549 0.065208174 0.024352722 -0.040083528 -0.060974594 0.06355872 -0.020732785 -0.01850194 -0.038324002 -0.06559771 0.060118593 0.04431079 -0.020832997 0.025099387 0.02473581 0.015817925 0.05750777 -0.020087885 0.03393691 0.06461279 0.011047369 -0.022121545 -0.037234776 -0.00044179498 0.046779014 -0.04298112 -0.052513223 0.034766898 0.020671422 0.018878467 0.024195787 0.02594541 -0.00200274 0.013803812 -0.03761541 -0.0008267787 -0.056363944 -0.029502796 -0.061647017 -0.045736305 -0.04296374 0.057777934 0.021350602 -0.007757908 0.008305682 0.008034728 0.0014941487 0.0036084002 0.013876227 -0.06930535 0.061145104 0.07552673 -0.030522685 -0.05692932 0.071935624 -0.01071872 0.02005745 0.054219127 0.04328992 0.0033534956 0.014534737 0.058739904 -0.030342838 -0.045714553 -0.004022192 -0.060857747 -0.05319012 -0.023737084 0.006080937 0.02708089 -0.044663414 0.04366027 -0.04008665 0.047572277 0.0118781505 0.022163592 0.018424816 -0.025570285 0.034749757 -0.056461867 -0.06209518 -0.02067941 0.052670702 0.018631821 -0.06655845 0.049585503 0.0014774231 0.03532085 -0.0006921792 0.065899335 0.021950727 -0.018900312 0.028906278 0.04238027 -0.06362485 0.062651485 0.0103198085 -0.025178818 0.042090453 0.023625283 0.050697885 0.027311005 0.008922581 0.029613402 -0.057953574 0.019417314 0.058190044 -0.015596593 0.007917426 0.047393594 -0.04664177 0.012548476 -0.07384865 0.05687856 -0.055739447 -0.016534995 0.02728988 0.022416918 -0.028186096 -0.049012225 0.044869635 -0.033571053 -0.05504704 -0.005235279 0.022876827 -0.021060672 -0.04755158 -0.056217734 0.00472504 -0.04342189 -0.012113867 -0.024722742 -0.011487625 -0.076120794 0.036006287 -0.0073849 0.05064649 0.009360385 -0.00066140015
duchess -0.074648835 0.0036779027 -0.04719301 0.030511426 -0.043367866 -0.0005252649 -0.014807787 0.077877305 -0.052367013 0.0063833483 0.06393563 -0.026116475 0.054184183 0.06416875 0.02699909 0.03767839 -0.027771823 -0.025891352 0.045662235 0.01675149 -0.027719676 -0.043510996 -0.043937247 -0.039504565 0.047211476 -0.03843576 -0.067779206 0.06901806 0.044401865 -0.07313489 0.0010358864 -0.021760628 -0.043483283 0.0062832218 -0.04056396 -0.05651649 -0.037197802 0.06290592 -0.005677818 -0.017502803 0.01216923 -0.022484392 0.036791585 0.06739431 0.07194929 -0.036663655 0.08139184 0.010147063 0.0089973565 -0.014589351 -0.073082685 0.062153887 0.042143468 0.010050606 -0.026622118 0.06346624 0.04933398 -0.010071488 0.038955558 0.02383163 0.018994559 -0.06631277 -0.032304864 0.0030817343 -0.040384296 -0.019801604 0.038853228 0.018109562 0.016139839 0.04714725 0.022375677 0.060799446 -0.08107948 -0.057764556 0.09203094 0.07544222 -0.00010074454 0.0046862606 0.0914303 -0.0051015336 -0.047568507 0.07711338 0.0026671158 -0.01968757 0.01858673 -0.051435195 0.030374918 0.02850341 -0.012197285 -0.018999688 0.07738189 -0.013223063 0.026840528 -0.0052336683 0.0033629073 -0.0043514376 -0.07441676 -0.03764948 -0.05262285 0.04431042 -0.029705843 -0.06462814 0.011863753 -0.058384575 0.05691196 -0.010727965 -0.024176452 -0.046476983 -0.025139043 0.018840726 -0.040007535 0.003981364 0.028623957 0.045171328 -0.0121413 -0.020212363 0.04929813 0.038922664 -0.066979736 -0.0067996723 -0.035780065 -0.03687168 0.08666689 -0.09300359 0.043767758 -0.04520079 -0.0695629 0.0483846 -0.012007614 -0.010129089 -0.0067088013 0.04493067 -0.026787227 -0.027315002 -0.08285098 -0.0067155734 -0.0864315 -0.006596397 0.04812371 0.06461693 0.078373246 0.06948107 -0.029654087 -0.016305551 0.052912287 0.013613271 -0.0026965393 0.051523104 -0.07254014 -0.0006252929
putting 0.023942813 -0.007856332 0.057802074 -0.05387076 0.051925957 0.042869467 0.044835158 0.048314128 0.03584945 -0.04214587 0.0077267843 0.043545652 0.015059531 -0.0603557 -0.049915683 0.023733184 -0.036535334 -0.008334265 0.03443664 -0.031901248 6.317161e-05 0.032001745 5.124253e-06 -0.017559038 0.01903345 0.048197545 -0.035761476 -0.007369978 0.047011375 -0.009798262 0.03999472 0.0005222055 0.03797778 -0.055304628 -0.039240416 0.050636765 -0.030322606 0.018874846 0.062767856 0.0042817653 0.072276935 -0.025551433 -0.06789854 0.014740128 0.06330105 0.0035873912 0.03153653 -0.024604741 -0.058890924 -0.03373938 0.033043943 0.0006427453 0.054432355 -0.006857377 -0.062271863 0.053277824 0.049653728 0.020358205 0.008908861 -0.05100309 -0.0068939966 -0.038949292 0.022933617 -0.008044483 0.028004631 -0.0071714334 0.024015393 -0.043392915 -0.06278063 -0.059900302 0.05810471 0.03777488 0.057089735 0.009520099 0.017809827 0.04716149 0.020143874 -0.019971998 -0.02371073 -0.06853192 -0.005773744 0.004322161 -0.022935335 0.021047235 0.059539117 -0.0016264409 0.008031747 -0.06288191 0.021794079 0.010629921 -0.050141413 0.01755402 -0.039687064 0.054161426 0.010511192 0.056443177 -0.020814933 0.015080875 -0.003380984 0.027352994 0.062406395 -0.0518154 0.011119995 0.012260035 -0.013523164 -0.049729817 -0.05305368 0.023896659 0.040276844 0.045285217 -0.07343334 0.045116004 0.054606352 0.022167481 0.011023667 0.0535607 0.06065239 0.04095586 -0.042879228 -0.044418156 -0.05904596 0.053125888 0.009984135 0.051800556 0.040362902 0.048454795 0.03645578 0.044622764 0.023120439 -0.052528277 -0.026815444 0.071286894 0.01098666 0.012476673 -0.037579678 -0.005226641 -0.018388804 -0.010076973 -0.026085813 0.013845503 0.07303726 -0.0047113625 0.0011611987 0.022748733 -0.039966956 -0.0049302448 0.016948555 0.007490419 -0.012466845 0.0021779009
learnt 0.02279646 0.02995164 0.037392046 -0.0172221 0.055517733 -0.0023179082 0.0017578104 -0.01692764 -0.057779223 0.044423062 0.025436588 0.052633833 0.01998799 0.05048341 -0.046279427 0.027699394 0.037350774 0.0060768314 -0.06315544 0.054435063 -0.0622277 -0.005816693 -0.043626346 -0.0411653 0.04157731 0.011404812 -0.062266227 0.06290405 -0.001929046 0.023751173 0.06156672 0.057006247 -0.026462348 -0.011707928 0.029518528 0.011626964 -0.013151274 -0.01741727 0.05292868 -0.027927589 -0.047091823 0.041910984 -0.008082386 0.044132955 -0.03103289 0.028047832 -0.007864794 0.00013967464 -0.028231625 -0.06203927 0.009411521 -0.021854775 0.059429564 0.042827953 -0.06730554 -0.022175593 0.014598531 -0.061329976 -0.013128187 -0.02627424 -0.02162811 -0.0057973247 -0.013586393 0.043343857 0.047807235 -0.029853003 0.034246176 -0.029169217 0.061407536 0.019996703 -0.034508456 0.07191078 -0.016143076 -0.04367417 -0.034953907 0.034443527 0.035315827 -0.0541513 0.03992845 0.0174493 -0.0071899034 -0.060194615 -0.048197843 -0.052790314 -0.018584246 0.020189032 -0.01518425 0.015789459 0.04479483 -0.04669141 -0.038029928 0.023775985 -0.01829707 0.035940222 0.020160854 0.019562505 0.04254378 -0.00035721215 0.008929621 0.027432166 0.008477706 0.042238694 0.058797188 -0.02221137 -0.06991811 0.005068726 -0.045896016 -0.047761586 0.057637915 -0.011706287 0.058865994 -8.242193e-05 0.046001934 0.049156994 0.04466472 0.053596072 -0.022166338 0.0099174185 -0.044039305 -0.0056660604 -0.0034366697 0.049807996 0.012571607 -0.02092603 -0.02848275 0.0061695115 -0.021953292 -0.022127742 0.052271973 -0.048147246 -0.008065275 0.06957946 0.015449107 -0.05807158 -0.037743513 -0.059167404 0.012974111 0.05517684 0.052515358 -0.02592218 -0.03873298 -0.047900308 0.01084344 -0.04736536 -0.04553916 0.0012723355 0.057060648 0.013722904 -0.0057476074 0.011152609
position 0.0574109 -0.046877027 0.049635362 -0.05596228 -0.013471841 0.054651886 -0.038548134 -0.061050322 -0.0497787 -0.0017755914 -0.019902986 0.041395076 0.073612906 0.07330515 0.025441356 -0.0014485983 0.059109624 -0.045362316 -0.06616011 -0.01961346 0.0008246206 -0.04992802 0.0363653 -0.035119656 0.07085911 0.060045656 0.003989126 0.03468796 -0.021821873 -0.012532705 -0.056188293 0.0551183 0.048333693 0.03709411 0.002461237 0.0063518444 -0.060844913 0.01374701 0.032910142 -0.06239382 -0.035064463 -0.0438427 -0.038553197 0.0068371706 -0.00841831 -0.0031161453 0.06637157 0.040331334 0.03958316 0.03583765 0.0072552827 0.04015259 0.04535769 0.040134817 -0.046857826 -0.06073883 -0.013044994 0.020158865 -0.04172889 -0.043052375 -0.01154428 0.016639551 0.0075878864 0.0055090515 0.045991465 0.01347948 0.0097379945 -0.04068404 -0.054306637 -0.04412397 -0.040812135 -0.04447415 -0.012373448 -0.0038086916 -0.025579406 0.0057476596 -0.014554577 -0.059529934 -0.04307112 -0.036957286 0.056479104 -0.053096384 -0.003688021 0.0017028287 0.022952534 -0.045709353 0.053536218 -0.0044116317 0.054847576 0.05513015 0.05121561 -0.010112407 -0.006445621 -0.009773078 0.012488975 -0.01747785 0.02363299 0.053210676 -0.05271045 0.052159738 -0.0404028 0.02991005 0.011503564 -0.06075158 -0.06521642 0.036848042 -0.018278718 0.009449919 -0.004871895 0.058883086 -0.046091303 0.04241325 0.014494584 -0.040616833 0.032629173 0.05192897 -0.06289777 -0.054284427 -0.03301016 -0.01385708 -0.0611533 -0.016248794 0.061111297 -0.009160255 0.028824918 -0.0068459283 -0.008927111 -0.052135803 -0.0007580009 -0.035086993 -0.06489561 -0.04901186 0.046276 0.06632685 -0.008144126 0.009672416 -0.0011432017 0.04607178 0.014362217 -0.03758159 -0.035179935 -0.03181098 0.06123395 -0.057463206 0.024948882 -0.022544228 -0.01230531 0.008424279 -0.03215331 0.05104569
quicker -0.027831698 -0.048725124 0.0631918 0.030703548 -0.033780962 -0.01586986 -0.014889109 -0.016387824 -0.016540607 0.012398403 0.053640813 0.032547038 0.046880785 -0.02724406 -0.020053266 0.043955024 0.068250716 0.040332876 -0.045728743 -0.017683746 0.037661437 0.015416124 0.049246952 -0.036633722 0.0011603789 0.021436848 0.0137417335 0.055934347 -0.051779848 0.044330966 0.043618925 -0.021456681 -0.043530762 -0.033491623 -0.020799715 -0.0050787446 0.021913875 -0.04851012 -0.043185197 0.0139242625 -0.013026807 0.056671415 -0.023619644 -0.0492262 0.03952302 0.04045655 0.040589362 -0.045204747 0.030755423 -0.051271908 -0.030437332 -0.05808906 -0.030991636 -0.06273308 -0.05903447 -0.01707945 -0.032779653 0.04663257 0.04850221 0.05367185 0.018522043 0.04015444 0.06301678 -0.05366128 -0.021081189 0.01316759 0.054465503 -0.0018718578 -0.02908172 -0.029171653 0.0054507283 0.015084189 0.034399904 0.05704049 -0.0035107657 -0.032479595 -0.007175251 -0.038585607 0.009773046 0.011797934 -0.053916976 0.024631552 0.030450607 -0.009429382 -0.026959378 -0.054967836 -0.03321429 -0.0072445767 -0.05427014 -0.0697251 0.0016164704 -0.031205716 0.058886226 -0.030965239 -0.023396451 0.018189006 -0.029898189 -0.06215257 0.042194813 0.0633668 0.016261498 -0.058751516 -0.0023591619 -0.046151645 -0.030334726 -0.0028185926 0.03248808 -0.05502007 0.022329459 -0.028475786 -0.047329996 -0.021751508 0.06268967 -0.03246767 -0.014860596 0.045315932 -0.0071058297 -0.010692655 0.020633973 0.024384627 0.031007 -0.054186884 -0.044367835 -0.023611657 0.04540815 -0.063607916 -0.053786788 0.042417306 0.021667125 -0.037933663 -0.05898984 0.045575496 -0.0054769963 -0.034735706 0.023841241 -0.06204145 -0.008168913 0.032570127 0.008538558 -0.061132256 -0.033790637 -0.001656989 -0.049447693 0.03633521 0.00734926 0.034328237 0.069434375 -0.00088094163 -0.046583664 -0.06347367
see 0.036545135 0.05205168 -0.029008294 -0.0107424185 0.012386772 -0.028668214 0.0662534 -0.10013768 0.04697557 0.019453146 0.069687895 -0.07857253 0.1003913 0.10497365 -0.023482557 -0.069085464 -0.019238412 0.0075203218 0.0811672 -0.07454196 0.023861438 -0.059754904 -0.021814536 0.073634416 -0.0058769486 0.011723402 0.03411905 -0.08540452 -0.055334166 -0.040600788 0.040612213 -0.007517227 0.018520465 0.015359685 0.078907125 0.013849241 0.04761986 -0.06361241 -0.026513001 -0.12537828 -0.0075220373 -0.013983741 0.03491795 0.08639617 0.05942625 0.01507965 0.118786804 0.039410148 0.05357292 0.04147397 0.061297797 0.08769635 0.122184694 -0.07624826 -0.0439751 0.030325027 -0.08648004 -0.04312561 0.12633401 -0.009658261 -0.042719014 -0.008101774 -0.046201363 0.01072112 0.018267276 -0.0046903463 0.07485646 -0.057426047 0.0431299 0.04652669 0.05374048 0.01710106 0.006121338 -0.049907517 0.068155825 0.007730558 -0.03327524 -0.021806452 -0.04851846 0.016558804 0.117082834 0.081609204 0.06029728 -0.10522829 0.009337894 0.017883794 0.094734006 0.058279257 0.0017783258 -0.08167472 0.035578735 -0.0724108 -0.012392491 -0.09418618 0.03804032 0.009048851 -0.10396132 -0.07553159 -0.017362423 -0.011678459 -0.016198587 -0.08608412 -0.09205053 0.09522688 -0.059340857 0.014593245 0.10366046 -0.06797312 0.030522611 -0.022388982 0.029531348 -0.005964745 -0.07236029 -0.0018540751 0.058493525 0.028002782 0.010600314 0.0021387166 -0.026390444 -0.02813632 0.07890489 -0.038412012 0.021139551 0.029336078 -0.08550906 0.019095333 -0.1109427 0.07554292 0.09013816 0.04318182 -0.06918318 0.05198153 0.007827172 0.082405984 0.07984135 0.013751172 -0.015914647 -0.002505513 0.009142993 0.10642242 0.022865538 -0.077864 0.09204979 0.12273483 -0.058134515 0.0071674422 -0.034270998 0.015829721 0.036685016 -0.10206409
buttered -0.020839397 -0.008957993 -0.0135257505 0.04121405 -0.043759335 -0.06285229 -0.03253469 -0.061819475 -0.041014962 -0.050602186 -0.04474376 -0.03833686 0.06591617 0.041796494 -0.05099093 -0.06989441 0.028636843 -0.0016582962 0.012384255 -0.059564415 -0.050865166 -0.04449096 -0.057411555 -0.051931933 0.019743389 -0.019446103 -0.07060854 0.009572154 -0.028759148 -0.014720289 -0.004842911 -0.059959725 0.015007115 0.05953644 -0.02550224 -0.026823208 0.03484603 -0.03622525 -0.0052054664 -0.02799104 0.06550893 0.009154805 0.061918277 -0.042089857 0.05239976 -0.031806592 -0.014065773 0.0550879 -0.009327123 0.029892005 0.0046679396 0.024609482 -0.013756109 0.010880881 -0.034755476 0.050957736 0.015734583 -0.067122325 0.025340674 -0.04215621 -0.06776428 2.255186e-05 0.022809299 0.0733531 0.027562307 0.039166365 0.04772114 0.032268677 -0.020590043 -0.009563396 -0.044015773 0.063517496 0.0049695377 0.039079543 0.007050099 -0.0063557043 0.038830258 -0.015539277 0.058414906 0.0234547 -0.01737193 -0.042720404 0.07387145 0.052610103 0.04277472 0.06407656 -0.029299937 -0.025069272 0.023416908 0.03259615 0.043815218 -0.03136038 -0.008003574 0.05590488 0.029363543 -0.06693745 0.04743981 -0.03813036 -0.065496005 -0.0040932884 0.01625036 -0.04860669 0.008545268 0.022366602 -0.00789927 -0.05578297 -0.044037778 -0.036399733 -0.03779782 -0.05900878 -0.015686845 0.05727383 0.039247215 0.06490239 0.038437564 0.018081449 -0.057144165 0.05183369 -0.033782512 0.020044722 -0.043054767 -0.049610995 -0.050167274 0.044143476 0.022599436 0.0025933664 0.059392568 0.022548953 0.046367735 0.01476717 -0.029259266 -0.05074485 -0.06189941 -0.05055022 -0.052275028 0.020647693 0.0048902836 0.0474321 0.0041111307 0.010639252 0.03523782 -0.018821161 0.027969295 0.012406385 0.061173968 -0.012321469 -0.046129037 -0.07025145 -0.04519766 -0.024273608
christmas 0.04310252 -0.023172444 0.012891255 -0.0026343716 0.03397402 0.057235446 0.035760354 0.019322723 -0.027636116 -0.008028023 0.012575636 -0.0235953 0.025841204 -0.025194958 0.07414019 -0.06294355 0.009987743 0.059754666 -0.041320834 -0.02293116 -0.026448537 -0.055017658 0.011917313 0.004823601 -0.051385384 -0.061565563 0.04716825 -0.0059047574 -0.06836938 -0.009661536 -0.05195348 0.0454564 0.06505619 0.009398031 -0.014127871 0.03847041 0.027965462 0.012656515 -0.02406378 0.018047722 -0.043109406 0.06343886 -0.06966876 -0.04208335 -0.029631436 -0.021025594 0.008814334 0.031036051 0.020042637 -0.027949853 0.05632399 -0.015885595 0.04172415 0.057358008 -0.042951114 0.020403909 -0.040452883 0.02904223 -0.052177813 0.06597623 -0.062007494 0.043005615 0.032723416 -0.010605615 -0.019826384 0.0036901492 3.5772915e-05 -0.015780205 0.012838893 -0.043235425 -0.0046854587 0.02200371 -0.002459732 -0.021211306 -0.009495596 -0.020616584 0.040259458 -0.034762874 0.02938168 -0.014091175 0.058446605 -0.045963988 0.027785882 -0.02350202 0.06927175 0.012570444 -0.04740842 0.040494855 0.03475678 0.019398805 0.029921822 -0.042855017 0.01261602 0.042448763 0.037115324 -0.008164406 0.014284612 -0.016557243 -0.05626839 0.032969724 0.06136525 -0.052702114 0.07090772 -0.009445353 0.021248624 -0.015694777 0.044152558 0.038404237 -0.027375573 -0.016390065 -0.06733554 -0.021229424 -0.040479325 0.06904384 0.037943814 0.000864957 -0.04606797 0.001702437 -0.008530312 0.05606866 0.04439287 -0.03786207 0.04843891 -0.01937057 0.0496004 -0.05038625 0.009033508 0.04476823 0.014541333 -0.054802474 0.024173077 0.013830531 -0.020976739 -0.02921878 0.041490093 0.02289863 -0.021990795 0.06925191 0.043713417 -0.02645587 0.06294699 0.04660743 0.0077346587 0.05962119 -0.025019128 0.040212575 -0.04370095 -0.019648565 -0.03240966 0.04447864
wild 0.04930074 -0.044275735 -0.0058156736 -0.010077377 0.020401757 -0.064506225 -0.059354838 -0.03941156 -0.049010873 -0.053531203 0.06988841 -0.0030693952 0.06977449 0.017603233 -0.011292787 -0.022383133 -0.025288573 0.020836852 -0.029616816 -0.032829687 -0.06396419 0.03189166 0.037504617 -0.063139096 -0.012913471 0.0668758 -0.031775877 0.056780938 0.04505262 0.049361117 0.022425737 0.006822183 0.027422165 0.02810862 0.047816362 0.034339547 0.036655176 -0.04301995 -0.060506724 0.0320952 0.045973796 -0.048479885 -0.019805456 -0.020952702 0.0088019585 -0.026627216 -0.000116708805 -0.009231581 0.035719275 -0.0058500143 0.057341352 -0.026543563 0.04271316 0.02972017 -0.015108693 0.06029258 0.035042565 -0.032361735 -0.0047364226 0.05267069 0.010415985 -0.07271757 -0.027883137 -0.05519127 0.010535391 0.024381395 -0.013812341 -0.05646307 0.06833295 0.068446584 -0.016068285 -0.028741889 -0.041983195 0.026962463 0.044911396 -0.02379323 -0.02413727 -0.038369752 0.060418773 0.056266114 0.0112630185 0.055211984 0.028457826 0.03255058 -0.016619101 0.0603639 0.0012617115 -0.06960602 -0.034266975 -0.018703632 -0.0069955355 -0.010869089 0.03761516 -0.031069072 0.054373797 -0.04244088 -0.006306084 0.009515457 0.024957359 -0.036445517 0.06712159 -0.04715528 -0.0010838144 -0.05674874 0.0542535 0.02194727 -0.019732764 0.04981202 -0.006205424 0.0065690544 0.017048081 -0.03510776 -0.0069121197 0.0068392204 -0.054270584 -0.0047912006 -0.059312798 0.002455195 -0.020484826 -0.035099834 -0.009981447 0.014348383 0.057362128 -0.068192326 -0.039458055 -0.04757482 -0.021253113 -0.00077110075 -0.019219132 -0.021207826 -0.055288866 -0.049581707 0.020710375 0.010399846 0.016819606 -0.013980931 0.047171522 0.06547481 -0.024284653 -0.020718776 0.045866095 0.028853714 0.0148018785 -0.043075323 0.055857122 0.029674428 -0.0042291414 -0.05567499 0.0020616106 0.022414334
