1182 150
comfits 0.027541209 0.0499291 -0.02773913 0.019111775 0.056429315 -0.048181444 -0.0011977502 0.04384154 0.049711347 -0.02047826 0.032950785 -0.044187203 0.03166848 0.01875011 -0.008898839 0.03907128 -0.0033904773 -0.043865178 -0.015854448 0.007269658 0.06561218 0.049380966 0.013164779 0.054236088 0.018666465 0.04843841 -0.030176269 0.027151618 0.057594366 -0.026743647 -0.058220632 0.007388382 0.0877757 0.03296314 -0.024678277 -0.0049534435 0.048041355 0.030832905 0.035074253 0.044063814 0.040887937 -0.000702476 -0.04948586 0.066915825 -0.050663013 0.0055569173 0.04886196 0.046783715 0.05270892 -0.06402389 0.021624988 0.05961085 -0.0151170185 -0.04044248 -0.06928603 -0.013336534 -0.06453942 0.0067877416 0.049258273 -0.06297403 0.007490823 0.046059944 -0.0068595884 -0.06256881 -0.019051995 0.056317355 0.04636811 0.010600196 0.020605331 -0.038704704 0.024492348 -0.05685379 0.023456264 -0.052344263 -0.06699846 0.018427057 -0.030387612 0.007951126 0.011661055 0.022368466 0.015821276 0.015867567 0.012162682 0.037067063 -0.04252253 -0.023761967 0.042296857 0.078152895 -0.05181647 -0.06944326 0.0018252007 0.036868904 0.042499 0.048682064 0.041132487 -0.051701292 0.04716969 -0.052948195 0.028449547 -0.02741145 0.0009977493 -0.030604409 -0.06963506 0.0849648 -0.004065429 0.001981669 -0.05581791 0.018461112 0.01099077 0.06700105 -0.010740673 0.028495377 -0.008603884 -0.06747421 -0.03064967 -0.074516945 0.06071709 -0.039439276 -0.02973301 0.0005230454 -0.023183592 -0.06458042 -0.032688513 -0.014534611 -0.075785905 -0.042930897 0.013889227 0.009806894 -0.03411489 0.066803426 -0.013102686 0.015112429 -0.042740595 0.024846885 0.015173417 -0.06147835 0.010772241 0.08474926 0.03235946 -0.03529416 0.05148746 -0.047825016 -0.03690884 -0.024253646 0.066743314 -0.06334554 0.046359777 -0.048364185 -0.012175899 0.0762827
moment -0.026810035 -0.049915608 0.0010283899 0.05044877 0.014572307 -0.01652235 0.02055119 -0.02104272 0.003819724 0.026832206 -0.0359798 0.047086906 0.070496514 -0.0060431305 -0.0563532 -0.0072776517 0.01521004 0.030271262 0.0720208 0.019934187 -0.058905687 0.040138707 -0.016303591 0.050485924 0.066438906 -0.02299696 0.06810558 0.030698327 0.042029247 0.029172458 0.033284284 -0.04365907 -0.0500815 -0.033132914 0.07467498 -0.060107417 0.015072077 -0.067275405 -0.051184334 0.04055966 4.8628077e-05 0.057566833 0.03274397 0.046756163 -0.09381149 0.05202809 0.026455957 0.037912644 -0.027409377 0.023772374 0.021343531 0.003724419 -1.9938569e-05 0.0029415614 0.021751095 -0.0040180595 0.034293696 -0.039135702 0.0010970655 0.05437028 -0.045637853 0.06551318 0.043124642 0.025140248 -0.060865063 0.02197696 -0.0311688 -0.031354435 0.03348734 -0.041000202 0.0041094758 -0.05459431 0.06468461 0.06498525 0.07654453 -0.035262346 0.00766575 0.03624927 0.059349414 0.008736127 0.025054678 0.02014464 -0.032553915 0.032741487 -0.04858984 -0.06527922 0.04341637 -0.0721788 0.052047458 -0.0054820534 -0.045824736 0.053379476 -0.037533734 -0.030847657 0.0024017347 -0.022396242 0.026767248 0.013489394 0.032516696 0.054023948 -0.063027196 -0.059790064 0.032510336 -0.009537165 -0.031054057 0.022391826 0.046599198 0.011860096 -0.035900485 0.03144622 0.06305029 0.029380042 -0.024406059 -0.017014729 0.057711866 0.047442216 0.046607383 -0.01999981 -0.050751764 -0.031554792 -0.023284798 -0.040372733 0.07423223 0.0035250136 -0.028564256 0.0052882233 -0.076314926 0.044948548 0.047989953 -0.030790485 -0.023433473 0.027417788 0.07479806 0.0013073005 0.052811593 -0.050736867 -0.0029797526 0.06111779 0.023657115 0.052946825 0.048460018 0.024857683 -0.057610564 -0.01405904 -0.016707994 -0.02612356 -0.007952827 -0.0059171002 0.07495608 0.040078677
pointing -0.06809213 -0.025286604 -0.04726179 -0.03386731 0.023361417 -0.018962432 0.017504577 0.038796462 -0.0013969876 0.021107998 -0.008900983 0.024793327 -0.033510514 -0.008184955 0.039836418 -0.01896244 0.045952026 -0.06046676 -0.022527326 -0.03992988 -0.03511694 -0.03225253 -0.03033627 -0.016599217 0.06766687 -0.05041159 0.0027777562 -0.03356043 0.027593037 0.025798615 -0.047237173 0.053033415 -0.055552356 0.03707731 0.023153933 -0.054416835 0.031630006 0.031619076 -0.021623433 -0.01928252 -0.04710025 0.012491205 0.03724139 0.024588387 0.023547707 0.014842309 -0.039976384 -0.019905616 0.010364252 -0.026250292 0.057215855 0.010995562 -0.010799056 0.0016320198 0.030874193 0.016371693 -0.046564896 0.010757873 0.07719567 0.05105905 -0.010241725 0.010371701 -0.036606435 0.0034023318 0.012046607 0.0074953274 0.0332488 -0.045118365 -0.016819254 0.03626343 0.06616624 -0.06051301 -0.06974852 0.0028942393 -0.016447779 -0.061920524 0.030360809 -0.038652893 -0.024395725 0.05724032 -0.029671898 -0.016823348 0.0064153485 0.048050195 -0.027079351 -0.041268244 0.002885377 -0.072329335 0.023670847 0.027855162 -0.07536974 0.06447519 0.045831647 -0.07192691 -0.007279513 -0.045802966 -0.07836084 -0.031011242 -0.019104881 -0.03352935 -0.02115009 0.04438187 -0.036824495 0.03573015 0.051268287 -0.039186094 0.039349616 -0.033896416 -0.047851764 0.014667742 0.04038872 -0.0005249961 -0.06401001 0.00079320767 0.036134254 0.050941847 -0.00595707 -0.036967568 -0.03415038 0.004453099 0.06359186 -0.02303916 -0.011268541 0.04629437 0.009914717 0.05938438 -0.07482561 0.049189553 -0.03720845 0.057859007 0.01977628 -0.0365571 -0.018423636 0.07992242 -0.046030484 0.024915824 0.005129798 0.010352427 -0.057928097 -0.047439065 0.05878172 0.06990428 0.036861908 0.061370675 -0.010919502 -0.0025412221 0.027761104 0.008008725 -0.019108588 -0.012096606
seems -0.0020967454 0.04154992 0.062012926 -0.019412233 0.06956061 -0.019936118 -0.003242099 -0.049351238 -0.027231706 -0.04342295 0.03435665 0.018732212 -0.015018505 0.02675644 -0.006857003 0.050062843 0.039036084 0.017153919 -0.020826187 -0.06499263 -0.009791318 0.04940654 -0.045978528 0.048474226 -0.008123622 -0.042761393 -0.021873545 -0.024387637 0.0064124228 -0.033418413 0.07731848 -0.03166339 0.030766683 0.04916932 -0.050186027 -0.0006152537 -0.096436836 -0.008070405 -0.011956787 -0.014875263 -0.0711898 -0.028266111 -0.0186376 0.02281595 0.024278536 0.037832413 -0.02601234 -0.053115923 -0.0042402134 0.04981965 0.017288676 0.021054324 0.043126296 0.08172767 0.06016755 -0.036273837 0.035871867 -0.0732634 -0.056940813 -0.038726237 0.063091435 -0.05506842 0.05412531 0.06157726 0.037445568 0.042232636 -0.020673117 0.07032607 -0.04235836 0.023172876 0.0482052 -0.04771648 0.058885533 -0.008082455 0.0036957483 -0.046357017 -0.055375718 -0.02636705 -0.05729748 -0.019266864 -0.04509511 -0.05437849 -0.044130225 0.015699746 0.049472976 -0.01827674 0.037280455 0.004423878 -0.06891609 0.0028229812 -0.011160592 0.040626727 0.0048827697 -0.033492826 -0.03835156 0.015121685 0.020584803 0.0022840258 -0.05325647 0.012554885 -0.04423975 0.011964919 -0.010852741 0.058712214 0.036599375 0.017429832 0.012870118 0.07241577 -0.017757202 -0.09728947 0.04850583 0.0008898019 -0.045572583 0.0046248604 -0.06370972 -0.034588154 -0.034158207 0.040285103 0.037706017 0.018059324 0.039144766 -0.0040287934 -0.048977394 -0.013751966 -0.032822583 0.02211981 0.05910127 0.016506907 -0.0004748035 -0.02021197 -0.05879475 0.0016557709 0.028935168 0.007912717 0.050935056 0.058670744 -0.015239345 0.01661767 0.08383201 0.0053573507 -0.024727177 0.051778723 -0.0056468467 -0.075005844 -0.050418742 0.022686854 -0.043448426 -0.0068377024 0.026590083 -0.039934345
and -0.0590314 0.04616064 -0.0023002613 -0.014069184 -0.0156125175 0.0049065934 -0.05353394 -0.021751432 0.005092857 -0.0050468678 -0.0072231037 -0.019213727 -0.027800404 -0.026016865 0.0013698443 0.015859975 -0.0073513067 0.037291877 0.028878136 0.012309457 -0.12548898 -0.054642197 0.030861478 -0.029648954 -0.04048681 0.0080583785 -0.0040469556 -0.01445339 0.042109948 -0.029023573 -0.048582803 -0.08824908 -0.036917448 -0.037382558 -0.0028508487 -0.008517471 -0.010127529 0.023788655 -0.04102659 0.010835173 0.011822205 0.011653131 -0.068680115 0.04181432 -0.003604904 -0.0072567435 -0.0016199679 0.025724165 -0.06663158 0.011850631 -0.05851769 0.024149926 0.038572397 0.017045453 0.057206508 0.035889722 0.032654215 -0.07063017 -0.012126501 -0.025383493 -5.7950958e-05 0.051014338 0.016557397 -0.04283711 -0.047965687 0.056493476 -0.022690488 0.004663836 0.015429118 0.004380146 -0.022853706 -0.018149046 0.019860715 0.023606542 -0.074114524 0.03624755 0.0039825947 -0.015164953 -0.0071284915 -0.01803482 -0.07384964 0.056693383 0.0012663989 0.044174105 0.009967271 -0.020113435 -0.034550365 0.020697724 -0.010824741 -0.051576108 -0.02010073 0.031511556 -0.06598955 0.009241937 0.00556022 0.019773725 -0.10962234 0.020533111 0.025229132 0.009815485 0.012137421 -0.004337376 0.02158347 0.072029814 0.002337608 0.043439053 -0.050054584 -0.06386118 0.0057249744 -0.04284568 0.05824506 0.017622566 -0.02448367 -0.010892536 0.070495464 -0.02628958 0.030366732 0.02288645 0.034774054 -0.038140323 -0.030075662 -0.013544134 -0.016725233 0.044175234 0.02910452 -0.043330442 -0.08006101 -0.022525648 0.08693402 0.03636694 -0.034517247 0.011969014 0.03458708 0.03130713 0.0037115016 -0.008167299 -0.041017737 -0.046707433 0.020638155 -0.032204755 -0.05774248 -0.009798462 -0.07023901 -0.011702443 0.053490646 -0.025322413 -0.022936538 -0.043219026 -0.015463098 0.08375583
distance 0.018552693 -0.018722693 0.049347658 -0.022519827 0.025364958 -0.056598842 -0.030759048 0.012076492 0.017451972 0.05342428 0.016325435 0.08293329 0.07119369 0.029658478 0.039478835 0.058328792 0.00040573778 0.015958456 -0.046411626 0.04502472 0.029786179 0.07255913 -0.06710014 -0.028394675 -0.0115609495 -0.058138367 -0.016861578 0.059430197 -0.01490969 -0.043034483 -7.5408025e-06 -0.02304554 -0.041593194 0.02873383 0.032342747 0.01670785 -0.032972734 0.050980095 -0.036042698 -0.02463496 0.004983697 0.05370513 0.025430419 0.013287706 -0.020836521 0.049428184 -0.028715914 0.030788386 -0.058409452 0.020884406 0.039812606 0.036922913 0.03995686 -0.02754756 -0.019867392 0.017123101 0.030656569 0.03227174 0.019954572 -0.053003993 0.061168045 -0.06590367 -0.024477076 -0.040279757 0.032312185 -0.00918242 0.005000665 -0.038262486 0.005125855 0.04389274 0.007887622 -0.008231297 -0.05274003 0.05444223 -0.013446108 -0.0075843306 -0.040774148 0.0035939915 -0.012240108 0.089780495 -0.06848232 -0.008492531 -0.030540174 0.012918748 0.031129327 -0.019993851 0.037343048 -0.045259174 0.049377687 -0.03556621 -0.08486861 -0.048176613 -0.0028219204 -0.00012875022 0.0355327 0.011024772 -0.012679123 -0.036250662 -0.034874108 -0.045132075 -0.034563452 -0.0031075734 0.06336485 0.061344985 -0.03490847 -0.03073759 0.0005259061 -0.032761883 -0.05019415 0.020611025 -0.02816781 -0.010918733 0.015320419 -0.048892483 0.05561161 -0.02592896 -0.0145442 -0.020145752 0.015919697 -0.012204573 -0.012930307 0.04434323 -0.05865867 0.025101691 0.039085694 0.0026367307 0.04748432 0.046192516 -0.055018127 -0.0147409905 -0.003917819 -0.019480033 -0.0712684 -0.03152716 0.049903575 0.05343818 0.06805677 0.049519535 -0.013564135 0.03163171 -0.03480762 -0.074553505 0.026076224 -0.0059075737 -0.056365725 0.01892273 0.06791232 -0.054998334 -0.0019043175 -0.039512604
day 0.030241732 -0.044441894 -0.032957774 -0.032362845 -0.0010225432 -0.0602836 0.0387771 -0.04872435 -0.05353519 -0.004273435 0.023246765 0.02988621 0.038001306 -0.03446771 0.03138471 -0.016455138 -0.08706527 -0.03308142 0.04885758 -0.03525398 -0.022840811 0.06307513 -0.07352268 0.02257235 0.007857595 -0.0677209 -0.043864593 0.020726545 -0.02297827 0.0073689176 0.054109175 -0.011547405 0.029830357 -0.05491638 -0.0870185 0.0076900264 0.038578928 0.0059869257 0.013176509 0.026787486 -0.0066183526 -0.04848884 -0.062548794 0.03516552 -0.0045981775 -0.08978751 0.04752569 0.045097906 0.05491077 -0.045457616 -0.04076869 0.018849447 0.030101465 0.05581324 0.04922656 -0.021236796 0.07012814 0.03214422 -0.03890003 -0.043003775 0.012553588 -0.064757094 0.0013459242 0.007547651 -0.04176773 0.059175536 -0.003873644 0.035314832 -0.0068029063 0.06503903 0.0014618955 0.023929765 -0.06562044 0.033161763 0.061534297 -0.009873792 0.0036590418 -0.036757663 0.036972962 -0.05558748 -0.012641332 0.063328356 0.081683956 -0.0022226116 0.029941287 0.00642873 0.031818897 0.040434383 -0.0418152 0.032839842 0.05104683 0.022362823 -0.027272293 0.0485039 0.028184362 -0.016112775 -0.034363557 -0.054027215 0.09914973 -0.03349482 0.03183955 -0.017915148 -0.008444012 -0.07002272 -0.011393092 0.024432566 0.07812088 -0.0022569194 0.07945302 0.046934865 0.009836844 -0.029616624 -0.013924575 -0.011720509 -0.05817599 0.0012374043 -0.04117818 -0.017421162 -0.030533247 0.069538034 0.046476696 -0.06122174 -0.052736998 0.044102486 -7.8525394e-05 -0.013481388 0.078674726 -0.036305144 -0.051569268 0.06671848 -0.0010361675 0.034676485 0.05476947 0.021788051 0.026838996 -0.021893011 0.0039949114 -0.03537029 -0.0131336 0.025329908 -0.017674206 0.07340878 -0.034155995 -0.034303147 -0.08575593 0.019099701 -0.07616352 -0.068568125 0.0027707254 0.043917224
after 0.04061937 -0.032099392 -0.10484213 -0.06701757 -0.017982386 0.01329213 -0.031074043 0.05310275 -0.074194744 -0.03827825 -0.04180123 0.038262073 -0.017793365 -0.045120407 -0.017280651 -0.014658945 0.018651193 -0.041397557 0.09341957 0.03501645 0.007225426 -0.066305295 0.051069543 -0.040571 0.009121932 -0.07187987 -0.056599095 -0.05288996 -0.04756539 0.02897122 -0.04070405 -0.011604774 -0.03957249 0.01883997 -0.08285937 0.046345305 0.05322921 0.054886315 -0.016634598 0.023282612 -0.020763531 0.03753558 -0.06584578 0.047279563 0.03512851 -0.0470746 0.019830726 -0.067738704 0.018073361 -0.008356614 -0.03554397 0.08225519 -0.019459564 -0.036154818 0.009924634 0.01871562 -0.0011713378 -0.05819513 0.021976564 0.013979672 -0.087532386 0.027165636 0.026614226 0.049676538 0.017681675 -0.068768404 0.04491215 -0.012653283 0.05275253 0.0185646 0.04995194 0.011251044 -0.038352817 -0.049108766 0.015254291 -0.016694011 0.07096595 -0.034925874 0.01409787 0.033837527 -0.03622844 0.023847857 -0.02773078 0.017304797 -0.043961722 -0.044547383 0.0019420162 -0.05494901 -0.06272323 -0.048955094 -0.10229291 -0.02261422 0.044073492 -0.01147409 -0.0130666 0.0615376 -0.013662869 -0.033215825 0.02835603 -0.03973673 -0.047003984 -0.07551521 0.0036366812 0.02977481 -0.008257092 -0.034102477 -0.0090875765 0.011085865 -0.0035972963 -0.081878945 -0.028329803 -0.02629745 -0.05076827 -0.030794984 0.040370252 -0.044358514 0.0054363203 -0.0630288 0.056435555 -0.033093907 -0.0019570433 -0.024731765 0.017988807 0.07759684 -0.049468305 0.035122603 -0.035237744 -0.00511186 0.0053295223 -0.02050946 -0.04973321 0.064445995 0.012896508 -0.03405031 -0.06641576 -0.042344995 0.0048404913 -0.010820301 0.049245838 0.046573684 -0.060564112 -0.013312803 0.022921965 0.04459648 -0.00080966623 0.03706112 -0.051250167 -0.028511072 -0.012513915 0.0012799954
own 0.022935439 -0.05297106 0.067550234 0.020826263 0.039791062 -0.010983092 -0.04374841 -0.0486382 -0.00505712 -0.057804275 -0.036415253 0.06595656 -0.0025530101 0.01628492 0.012351124 0.033446353 -0.005345451 -0.051622234 -0.007105477 0.016030587 -0.057511166 -0.012856035 0.07021742 -0.01667923 -0.07786348 -0.052317686 0.0512656 0.037899103 0.07153888 -0.08206178 0.021327768 0.027911702 -0.028074676 -0.010555221 0.0014545721 0.003493724 0.06007472 -0.009162592 0.044959106 -0.00032149185 0.03938433 0.04880132 -0.056758467 -0.021628598 -0.009284401 -0.01692828 0.06703791 0.03564599 0.024296619 0.022756945 0.059510943 0.016775394 -0.036148902 -0.0073931618 0.044180848 0.014679897 -0.014488318 -0.036790073 0.010742672 0.01614192 -0.018743183 -0.033565447 -0.009229553 -0.016717998 -0.046841502 0.052010268 0.02924231 0.022532703 0.038539268 0.06876239 -0.052117594 -0.005951714 -0.064619005 0.026127717 0.05786484 -0.03145297 0.014147345 0.06887522 0.044287004 0.0043730307 0.05405488 0.038324203 0.056146696 0.061040685 0.017860483 0.0050581577 -0.0009281904 0.057865508 -0.054953434 -0.027040325 -0.010527994 0.03596378 -0.043526404 0.051095366 -0.052835714 -0.00667194 0.006663215 0.008593468 -0.014446915 0.070262864 0.050946813 0.06452279 0.05658451 0.03323318 0.017008515 -0.043725308 -0.035189647 -0.04125402 0.047902066 -0.061397217 -0.021156263 0.027475115 0.031656634 -0.0039114244 0.010678218 0.03438142 -0.07015532 -0.05139485 0.042990003 0.05171609 -0.04640034 0.066039324 0.055868845 -0.045278028 -0.005382621 -0.035605133 0.029424844 -0.010707879 0.002409846 0.017133137 0.015861291 0.07406 -0.029420959 0.003121809 -0.02448049 -0.046440896 0.018221129 -0.030498255 0.007984874 -0.053737618 -0.013162271 -0.045801435 5.965284e-05 -0.04132221 0.0018394402 0.0002757454 -0.04810269 -0.030540483 0.015016639 -0.018870918
life -0.02173482 0.027757872 0.023930004 -0.043123275 -0.053390652 -0.004994965 0.058927275 0.0013243576 -0.024337577 -0.022482412 -0.060842942 0.019090164 -0.020661207 0.035188783 0.021029668 -0.01892362 0.04035968 0.051052228 -0.04016508 0.01548158 -0.0037732027 -0.027942816 0.014883399 0.016889105 -0.02463884 -0.058949478 -0.04376957 0.010748217 0.041617475 -0.026602827 -0.04181094 -0.02922585 -0.061309848 0.060245365 0.015306308 -0.03503033 0.020628434 0.06304513 -0.00041085493 0.058246583 -0.029306034 -0.052607886 0.022525454 -0.04740912 -0.012660745 -0.036985423 -0.041040093 0.026596908 -0.041543458 0.029837962 0.070619166 -0.0037434495 -0.06323116 -0.050419077 -0.024338568 0.012853346 -0.025926465 -0.010790078 -0.0018216369 -0.000932144 0.032732584 -0.06415849 -0.05435288 0.06408682 0.0372655 0.0072082737 0.07095458 0.009616812 0.058298927 0.015307649 0.025212392 0.06054757 -0.056182887 0.035607677 -0.014823268 -0.022974737 0.027904114 -0.042217765 -0.006139773 0.022780642 0.025742253 -0.06624019 0.039553802 -0.02196387 -0.029736932 0.03651796 0.047450874 0.0104677705 0.04390985 -0.01773807 -0.049673796 -0.037907477 0.06354818 -0.04516608 0.0060629793 0.028647868 -0.02638353 -0.0132626975 -0.042307913 -0.04323073 0.032813996 -0.036527652 -0.0790758 -0.04823955 -0.06356147 0.021552678 -0.01760823 0.06574926 0.05365112 -0.0253193 -0.04060228 0.027435154 -0.041600924 -0.002876306 -0.003662381 -0.001672785 0.02598552 0.053532314 0.0516454 0.00038179662 -0.003188042 -0.0036327043 0.044853367 -0.051407263 0.030889397 0.031076288 0.0005917513 0.003257044 -0.0035216636 -0.068306394 0.04428979 -0.015899261 -0.060292553 0.048947077 -0.0001028931 -0.013758141 0.021898031 -0.03912506 0.03131768 -0.03866748 -0.035264052 -0.026433589 -0.04599477 0.011376171 -0.059808433 0.073966555 -0.046187755 0.002629703 -0.067347355 -0.034979295
doth 0.05619128 -0.007071903 -0.044501558 0.035107724 -0.04939611 0.022164468 -0.061165713 0.006537013 0.02155111 -0.046844408 -0.021286061 0.022207323 0.014458258 0.06349276 -0.010822197 -0.07331468 -0.01958294 -0.033427846 0.036367036 -0.061365657 -0.026205994 -0.05666449 -0.024140803 -0.029481927 -0.049079273 0.021267582 -0.056510784 0.013061235 0.03591304 0.024554716 0.03388378 0.061764706 -0.01548987 0.0016627669 -0.04323438 0.00026309723 -0.04122621 -0.059703622 -0.037858568 -0.066871524 -0.048818134 -0.01111175 -0.043894596 -0.016406156 0.01629149 -0.022498824 -0.014488632 -0.06316903 -0.04379779 0.016595922 0.0425193 0.06899414 0.02922837 -0.030034281 0.04946396 0.015561877 -0.07007321 -0.049572926 0.06819067 0.012123218 0.037787877 0.009903436 0.038968332 -0.056986246 -0.03635787 0.0065524178 0.0017136332 0.035253257 0.03669966 0.0227989 -0.023251617 0.053274233 -0.01340334 -0.051765952 -0.023164328 0.01341204 0.057106823 -0.052772462 0.06646386 -0.0667333 0.06569892 -0.0034210552 0.019123463 -0.03318967 0.014649387 -0.021568771 -0.00047259196 0.04793165 -0.054665312 -0.06248112 -0.027028542 -0.011422871 0.038872354 -0.012149782 0.030516233 0.038070954 -0.047565375 0.078975424 0.042903345 -0.042111818 0.051352356 0.004326341 0.046528544 0.036691073 -0.01360511 0.065192364 -0.053041738 0.032786157 -0.050919577 -0.014498085 -0.06983668 0.06700245 -0.050705787 0.034132637 0.027591782 -0.07394987 -0.011934184 -0.012945317 0.039591864 0.012564816 0.045408566 -0.04898871 -0.06863339 0.04705474 -0.015478022 0.037681714 0.013964293 0.020690667 0.06364376 -0.023572264 0.007639708 0.06710882 -0.017352685 0.05428428 0.0066500227 -0.035792656 -0.027608193 0.0041106725 0.010243176 0.022731094 0.0040696245 -0.030534899 0.054023106 -0.051266406 0.007832879 -0.03134916 -0.012139421 -0.022081925 0.02570676 -0.012596897
bright -0.059355352 -0.018845968 0.069511145 -0.0036433134 0.04375643 -0.037081286 -0.006061066 -0.024996728 0.012462578 0.013168987 0.043065213 -0.07085283 0.04071899 0.025337841 0.0403971 0.026681544 0.05653688 -0.039627615 -0.037316684 0.0014679302 -0.04644684 -0.031595007 0.04362499 0.05035644 0.0021684822 0.046727736 -0.050538756 0.07100983 -0.023769239 -0.07827429 0.050282694 0.030647188 -0.040676452 0.021324182 -0.045401916 0.05014006 -0.016371949 -0.046961095 0.036297858 -0.009840131 0.016818477 0.03287068 0.024612112 0.0031367503 0.01863327 -0.020255134 0.061536606 -0.06692278 0.047615554 0.063317806 -0.031850617 0.017777067 -0.049798135 -0.027011205 -0.023148028 0.022597013 0.045904383 -0.023122516 0.010324836 -0.07459977 -0.004701028 -0.045752414 0.077237666 0.029418431 0.052636966 -0.05620877 -0.005956832 -0.067407176 0.02153545 -0.055514026 0.00053097797 -0.0045898533 0.07663696 0.035981707 -0.041716393 0.00076038286 0.029985942 0.014028126 -0.06683096 -0.065608345 0.012471308 -0.031865582 0.030598573 -0.023807772 -0.07893979 0.0966041 0.03454302 0.016329153 0.0115148155 0.031555712 -0.04436613 0.0651842 -0.025055965 0.0035532964 -0.054411948 -0.011055033 0.058002442 0.008091416 0.0033343816 -0.04113365 -0.03559164 -0.023683652 -0.0435542 0.06031113 0.066920415 -0.021548588 -0.00094784144 0.034240108 -0.02698013 0.014084104 -0.049653925 0.019958163 -0.06595589 -0.07775534 0.0008267333 0.0076889573 -0.05084656 -0.04675361 0.014359139 -0.037419934 0.053276833 0.030659497 0.031375196 0.031770077 0.030608203 0.033844415 0.014255843 -0.028294407 -0.0007571926 -0.052758984 0.03619686 0.06614145 -0.024089998 -0.04619688 0.025857514 -0.017595172 0.021637164 0.01302305 0.0572625 -0.045466166 -0.022699306 -0.049300678 0.01421723 0.031649847 -0.009686494 -0.024632817 0.047238406 0.016399885 -0.0013615338 -0.052967593
disagree 0.03278284 -0.058237802 0.041558478 -0.067728065 0.062211607 0.033930216 0.07194904 -0.039059855 -0.03620308 0.03575083 0.0025437768 -0.06149628 0.0278493 -0.017497987 -0.069094606 -0.026785726 0.06472439 -0.021352991 -0.06362041 -0.004557049 -0.037108637 0.029280735 0.04146065 -0.031736102 -0.021045089 -0.03638652 0.00017118722 0.01961259 -0.010846476 0.032402605 -0.043709137 0.027689144 0.021052724 -0.02205539 -0.020426854 0.071507685 0.023210682 0.04873898 -0.049225174 -0.020499306 -0.06526468 -0.06936918 -0.008466763 -0.04345691 -0.00794752 -0.078349955 0.050243534 0.04979792 -0.015872715 -0.014934708 0.042424846 0.01571774 -0.026461195 -0.025965024 0.06514759 -0.009119008 -0.050892845 -0.022930574 -0.059648655 0.024158502 -0.002815165 -0.057606433 -0.0055735786 0.033953816 -0.03213614 -0.036055937 0.018106189 0.008974269 0.030930193 -0.0035139117 0.004510536 -0.06104901 -0.050347943 0.041252367 -0.016289566 0.054274507 -0.031224472 0.06652795 -0.0062365443 0.032544736 -0.0148484595 -0.059212588 0.016754529 0.03655775 -0.025759008 0.004475095 0.07527302 0.010209203 0.063703604 0.0024219924 -0.0029976678 0.046321068 -0.066723436 -0.043317083 -0.0031827588 -0.016203705 -0.041226 -0.050516292 0.0051379073 -0.062052846 -0.051611736 0.025462301 -0.028164485 -0.0012466855 -0.03086045 0.007164653 0.048123363 0.073627256 -0.017844195 0.051212225 -0.016673274 -0.05650396 -0.0025334286 0.05863832 -0.047461376 0.002393614 -0.0077322116 -0.039013505 0.05225957 -0.0061023864 0.048135575 0.01468613 0.016749863 0.0016525255 -0.010163065 0.046370283 -0.04053958 -0.047439843 -0.038669966 -0.052919894 0.06623416 0.012580814 -0.04693369 0.016465152 -0.017719356 -0.008068059 -0.026744338 0.049542174 0.043814685 -0.0146801565 0.052357353 -0.048537478 -0.059888553 -0.06936195 -0.06776017 0.06239766 -0.050404824 -0.030519508 -0.06618657 0.0010631665
measure 0.020452777 -0.0011699923 0.051989008 0.025357837 0.06376738 0.0045609204 0.011011371 -0.07115025 0.04755389 -0.053971983 0.016970351 -0.07035691 0.04309597 -0.03314448 -0.0056860847 0.014816038 -0.050946314 -0.03715092 -0.048957672 -0.010705181 0.025521476 0.06214562 0.013875263 0.049347058 -0.020044431 -0.02116181 0.0016312076 0.050480787 -0.027701236 -0.05993667 -0.0077237515 0.018029029 0.03532577 0.023352785 -0.042849965 -0.047134213 0.032276075 0.028486311 -0.004381961 -0.051184613 0.014546541 0.030512314 -0.009801646 0.047465775 -0.0007830154 0.012050785 0.00019203336 0.0042476067 0.03264655 -0.020105278 0.07180215 0.033397544 0.053258814 0.04174824 -0.0078219585 -0.021294577 0.005280422 -0.026418658 -0.074880645 -0.03717468 -0.050773196 0.06853684 -0.035705823 -0.041317303 0.033222895 -0.023239575 0.0050760843 -0.008919551 0.011610726 -0.032488633 0.07416099 -0.030225802 -0.056954417 -0.036926392 0.04829731 -0.002608816 0.02006796 0.005255797 -0.01184614 -0.023577964 0.061808683 -0.035652578 0.07750321 -0.006214909 0.038755387 0.0464012 -0.035480924 0.017874155 -0.056562018 0.045234907 -0.032414474 0.010780951 -0.028805332 -0.060472693 0.052670185 0.029225998 0.026300663 0.022679837 -0.05129959 0.005981745 0.032640774 -0.0583315 0.034869313 -0.007870139 -0.006163131 -0.014509586 0.047062065 0.06200004 0.054222718 -0.029042989 -0.042760167 0.0049217325 0.05219594 0.073373735 0.0243358 0.045284815 0.039355207 0.048094414 0.024398094 -0.00012593262 0.046851 -0.04968318 0.06423996 -0.00024259405 0.06615125 -0.03143136 -0.034444224 0.048231356 -0.030646563 -0.03702262 0.009104799 -0.013355034 -0.039998725 -0.046105742 -0.07367196 -0.0072976947 -0.04252193 -0.015337361 -0.0053780545 0.0254319 0.044836313 -0.02908079 0.013685072 0.04345883 -0.02192794 -0.023293987 -0.0048324396 -0.020659043 -0.06974111 -0.04228599
uncomfortable 0.0011037997 -0.025820887 -0.036973726 0.011874508 -0.043843955 0.017294297 0.05120214 -0.044184387 0.007688297 0.015201586 -0.039601624 -0.033467192 -0.0054520443 0.052799787 0.011565729 0.0561267 0.03935761 -0.003817237 0.03858034 -0.031266823 -0.025262393 -0.027472716 0.044911575 0.010391637 0.049809687 -0.066566944 -0.047172602 0.042713474 0.03745478 0.05315056 0.044643357 -0.011999249 0.011664144 -0.010071935 0.031375073 0.006855205 -0.013862539 0.026382081 0.015264791 -0.02418929 0.0145377265 0.036932975 0.046328206 -0.0324991 0.07135267 0.024588276 -0.029223833 0.05083616 0.0052831927 -0.026313582 0.017758008 0.027314462 -0.037359636 -0.03520628 0.03248546 0.041321594 0.016998636 -0.020954976 0.037080295 -0.048466153 -0.034438208 -0.039443973 -0.05226642 -0.043810524 0.043957014 -0.039874338 0.010461158 -0.022013862 0.05865565 0.0712053 -0.004716427 -0.008842232 0.049197804 -0.043915495 0.04859809 -0.016836813 0.023594638 0.013568761 -0.002237691 -0.03878091 -0.02301582 0.020648148 -0.041378263 0.007857626 -0.007769439 0.0025536637 -0.045440257 -0.070032924 0.041479766 0.05520039 0.02996872 0.0069407937 0.049395077 0.042974927 -0.05931521 0.021939754 -0.037725084 -0.023471266 -0.037163004 0.061166078 -0.020289158 0.034797143 0.022374144 0.01804882 0.024978379 0.008139646 -0.014701186 -0.056195498 -0.013177648 -0.040468354 0.04340333 0.015064138 -0.020800635 0.00937201 -0.06931523 -0.006432573 -0.029480075 -0.024927072 -0.013286965 -0.024281614 0.02977549 -0.049624763 0.026232878 -0.02241751 -0.04610063 0.029667351 0.07140068 0.031100728 -0.054673374 0.043935493 0.07448409 0.03797677 0.031770103 0.06098266 0.006510034 0.025171611 -0.040911958 0.02915704 -0.03873968 -0.0027787979 0.035230614 -0.030859038 -0.015508143 -0.06271892 -0.0050632134 -0.014985983 0.03914749 0.0449257 -0.060975492 -0.025086371
vanished 0.011669312 -0.020622734 -0.008982064 -0.02707718 -0.017291522 0.0028797272 0.07232318 0.027056351 -0.05770552 -0.018119097 -0.02858324 0.0054047126 -0.020178817 0.010012514 -0.035331517 0.0043814993 0.01630077 -0.025242789 0.06440921 -0.050679553 -0.025673488 0.048801277 -0.061978728 0.033192173 0.029669791 -0.024429332 0.06507305 0.016223641 0.050737962 -0.050880097 -0.050385796 -0.030244358 0.058448426 -0.0006058812 -0.020980649 0.03527322 0.04067502 0.055508684 -0.039611325 0.01592246 0.009778952 -0.010724259 -0.0013752352 -0.042620957 0.04522531 -0.020583604 -0.031254534 -0.04318461 0.01943326 -0.040379506 -0.005890943 -0.053190235 -0.06934385 0.01414779 0.047844425 -0.049958736 0.000106846215 -0.002706007 -0.013592265 0.050363015 -0.040770117 0.056532063 0.006747577 -0.0071075824 -0.04812289 0.06200346 -0.021337252 0.011246679 0.017016504 0.029151047 -0.032971416 0.06611592 0.049912084 -0.07054442 0.06470932 -0.045443017 -0.03877275 -0.04499071 0.071007244 -0.035178106 -0.032353595 -0.04412783 -0.016810415 -0.05774799 0.017931776 -0.044762645 -0.05580562 0.027727662 -0.03258263 -0.039240878 0.04067383 0.010050932 0.017909238 -0.07518326 0.033703584 -0.018717192 0.06136379 0.04395221 -0.011171996 -0.04644969 -0.031239595 -0.036325503 0.0010743666 0.04525216 -0.06984096 -0.020464413 0.03324177 0.047172602 -0.051950455 0.011037617 0.03802357 0.046443306 -0.026886933 0.035641585 0.05701437 -0.035189573 -0.06610604 -0.023230968 0.012310228 -0.029828865 0.004291974 -0.05071587 0.07829425 -0.020451855 -0.019686935 -0.028509215 0.051068295 0.038875476 0.049764138 -0.061465017 -0.025805427 0.07295025 -0.03881604 -0.031490106 0.015217138 0.061365392 0.042928666 0.023713643 0.046937153 0.014194348 -0.058384307 0.04595469 -0.03183896 0.014875893 -0.060995877 -0.048377335 0.036340833 0.032131813 0.031726178 0.016322158
her -0.038745165 -0.04692267 -0.026042458 0.040672783 0.017021146 0.05695256 -0.034652542 -0.0012641024 -0.08611362 -0.034820337 0.0068315864 0.031147981 -0.03605296 0.0402561 0.018422807 0.03337623 -0.05959473 -0.02902616 0.047882948 0.06755543 -0.038790602 -0.03157172 0.06791163 -0.04500579 0.055125643 -0.043875042 0.014433887 0.015347158 0.07351736 -0.013824606 -0.01690939 0.0047883005 -0.009014142 -0.06837505 -0.045869894 0.032723285 -0.01989952 0.01433167 -0.014470098 -0.011752084 0.029024944 0.05318122 -0.008790333 -0.04488623 -0.03628437 0.009871455 0.006818071 0.060044233 -0.078393936 0.016756967 0.049116492 -0.04096013 -0.03585773 0.07631767 -0.017490223 0.03926453 0.061969765 -0.0312381 -0.051951922 -0.036030754 0.020057442 0.017300379 0.01635231 -0.092386864 -0.10202071 0.054562617 0.039328106 0.04101983 0.010405084 0.054895777 -0.009158035 0.048518177 0.008279418 0.059200168 0.015405675 -0.006978389 0.06253868 -0.042538095 0.08050753 -0.010924921 -0.017844308 0.033073444 0.003898249 -0.015233001 0.056085795 0.028439093 -0.005808981 -0.03359385 0.09868363 0.02184706 0.029123757 -0.0017855215 -0.013226311 0.014172791 -0.01472765 0.015498072 -0.0375193 -0.056739982 0.036231197 -0.09204408 0.010736577 0.062119108 0.019556277 0.0020130745 0.024221787 -0.035992045 -0.13549417 -0.05540552 -0.102607474 0.027173657 -0.015124379 0.024674997 0.023893042 0.03683899 0.05321063 0.030133553 0.06898208 -0.009778111 0.032782596 -0.060693886 0.012650054 0.016753519 0.0034448858 0.03435268 -0.009968437 -0.038208473 -0.06782563 -0.0640177 0.06394249 0.07455399 -0.010346138 -0.025059374 0.085378155 -0.03050164 0.016757539 0.011139748 0.01875234 -0.033710245 0.031193333 -0.06827304 -0.1197073 0.015820803 -0.040193066 -0.028378287 -0.08057437 0.036369435 0.037256345 0.007940706 0.05439042 0.012306921
normans 0.057254888 0.012564368 0.06421267 -0.015127249 -0.037998434 -0.028456066 -0.058670808 0.039383918 -0.010526599 0.040896166 -0.045932274 0.023625473 0.034938674 0.0076922905 0.030586781 -0.011497635 -0.014155945 -0.048467617 0.016655872 -0.026761767 -0.030043188 -0.054006036 0.050111637 0.06894374 0.009091587 0.066194125 0.022582524 -0.040573165 -0.047578063 0.056757618 -0.031282008 -0.020937629 0.022840017 0.041848324 -0.06430896 -0.035830706 0.0015160925 0.031007243 0.037755832 0.040540464 -0.031742774 0.03193479 -0.054979507 -0.0617509 -0.0009386074 0.002006282 -0.025523724 -0.070148386 0.039123107 -0.025526894 -0.013048077 0.01060882 0.07114687 0.019048039 -0.0007541819 0.049351666 -0.033988267 0.009716876 0.019491479 -0.02778888 0.06699389 -0.0074392203 0.03146916 0.0667961 0.046554986 -0.030051615 0.03642562 -0.041106418 0.022971138 0.0756493 -0.015651016 0.04701373 -0.019626383 0.0518403 0.020404525 0.020134993 -0.0007086764 -0.028415916 -0.026034568 -0.016805544 -0.016495015 0.053881943 0.068604566 -0.043591116 -0.0076646768 -0.008335137 0.0075634005 0.037450686 0.013832588 0.044824857 0.07207048 -0.048893508 -0.014105718 0.031605355 0.042591862 0.016275961 0.0631315 0.061096936 0.032496683 -0.0053011356 0.045256257 0.051240858 0.06649407 0.054043777 -0.028645411 -0.041638747 -0.032768723 -0.021218063 0.0029598614 -0.07715818 -0.016156353 -0.02635653 0.031762976 0.029176852 0.012447501 0.008044923 0.05060883 -0.011594607 0.029106487 0.009528368 -0.062160738 -0.053188883 -0.06063671 -0.013022149 -0.05838068 -0.020284055 0.0148717435 0.05540921 0.013796705 -0.03627258 -0.043198932 -0.068832174 -0.006151866 0.05247199 0.055013705 -0.02251535 -0.0073553096 0.05153138 -0.04728011 0.04698925 0.046904143 0.04916033 -0.0656756 -0.032680836 0.030284008 -0.039991427 0.03406304 0.045374062 -0.007053418 0.012176043
chain -0.008159004 -0.03676534 -0.055730466 0.06459053 0.021568226 0.0053541083 0.037815142 -0.059704706 -0.024423411 0.051946968 0.06729743 0.009584551 0.002051257 -0.015010388 -0.03661362 -0.025513614 0.07522345 0.016010819 0.06473952 -0.05158328 0.03260643 0.001258978 -0.031543404 0.033012293 -0.016492113 0.041672707 0.0030193464 0.066772215 -0.022798466 0.00324162 0.005866515 0.03248706 -0.06436477 0.04154231 -0.028459977 0.03195133 -0.015809238 -0.020097697 0.043591447 0.052100763 -0.04191501 0.039234534 0.05202012 0.021164613 -0.05396291 0.050358705 0.06493727 0.021360788 -0.039964713 0.034378566 0.015205124 0.01986613 0.031253915 -0.019187054 -0.06762174 0.004799434 0.044656835 0.0462945 0.06281285 0.056455173 0.03393485 0.046518188 -0.053607233 0.03800911 -0.053245395 0.04973635 -0.030876918 0.030262377 -0.016575927 -0.009999685 0.0462108 0.044596832 0.0030315956 0.037423346 -0.056738522 -0.018563362 0.06400158 0.0034373153 0.013520755 0.05566555 0.04866474 0.03933465 0.027143063 0.05642929 -0.03655506 0.030432815 -0.018099079 0.01399655 -0.025360253 -0.04863116 0.0017554351 -0.012363726 0.008070796 -0.05840143 -0.035201788 0.03509901 0.054465152 -0.0013603267 0.058922563 0.015478689 0.018650338 0.03744535 -0.07522716 -0.055322777 0.043405876 0.062338006 0.018352529 0.033707533 -0.032588396 -0.0122252405 0.055391643 0.029731505 -0.05968441 0.016194623 0.030973446 -0.015316404 -0.06968576 0.012206818 0.021862548 -0.025289517 -0.02027112 0.015564543 -0.034968413 -0.038652327 0.030239262 -0.019480782 -0.011534508 0.03958321 -0.061863575 0.0014232172 0.0666139 -0.0021932167 -0.07197787 0.04492994 -0.03403445 -0.06400887 -0.021174543 0.06359073 0.056042083 -0.00711025 0.0146830175 0.01003835 -0.05452287 0.034481257 0.032843165 -0.029904919 -0.054580342 0.0039307605 0.032532144 -0.024893036
funny -0.055138584 -0.03225781 0.0243506 -0.038365442 0.031011807 0.025955949 -0.059588287 0.031546574 0.038524512 -0.00197759 -0.05278228 0.004185954 -0.029011555 0.015833806 -0.06020212 -0.04973227 -0.080351405 -0.021823306 0.064787515 0.04633092 -0.027413454 -0.06318066 0.027028114 0.039897785 0.054875705 -0.036104467 -0.027222607 -0.05033697 -0.044592492 0.040706143 -0.023980634 0.017775027 -0.022685777 0.068419136 -0.07755903 -0.019011192 0.064694546 0.041754507 0.032153834 -0.037921585 -0.042162225 -0.014075175 0.03824561 -0.050224613 0.0005388188 -0.03642193 -0.023317203 0.032562856 0.05332356 0.05628652 -0.037221327 0.03823763 -0.025111804 0.016187478 0.07505984 0.0915229 -0.008172304 -0.011424997 -0.078109294 0.024703275 -0.018541243 -0.03353626 0.016452651 0.021774039 0.002557306 0.046051435 0.0072950576 0.03803023 0.010325525 -0.015592517 0.039949838 -0.035559867 -0.018155782 -0.02518902 -0.04814356 -0.017264754 0.012540048 0.01291403 -0.04938704 0.021464352 -0.004054093 0.051878005 0.0015770169 0.0319804 -0.0028671445 0.054719273 -0.0066484236 0.050374296 0.04192119 -0.08170482 0.023333581 -0.06880574 -0.000292257 -0.008384099 -0.04410874 -0.004491977 -0.002038564 0.019983009 0.030468917 -0.015789468 0.071600296 0.021741651 0.050832763 -0.0093521755 -0.023933256 0.041822005 0.009491445 0.00078834465 -0.0012032175 0.022258533 -0.012041168 0.025379887 0.045771837 -0.003070424 -0.03387534 0.03749233 0.02752979 0.05306673 -0.057399966 0.033457495 0.00040092296 -0.026088055 -0.014391853 -0.033603616 0.08688408 0.005311301 0.019560836 -0.060848225 0.0015728 -0.040543765 0.0067202114 0.030661894 -0.057045233 0.04824288 0.018161861 -0.014901312 0.04131391 -0.045884717 -0.02054745 0.035947464 0.040568523 0.023244899 0.023642082 -0.046212375 0.060948875 -0.047759343 0.015073217 0.018532364 0.005346487 -0.05937526
fanning -0.0069653485 0.0046622753 0.03966122 0.050200235 -0.017893512 -0.008203451 0.026501454 0.05654726 0.0006724291 -0.0697594 -0.052718993 0.053588968 0.013270183 -0.041626427 0.01965702 -0.04601879 0.015860857 0.031367797 0.024958227 0.053099286 0.01112168 -0.0064472426 0.059395626 -0.07040593 0.01822926 -0.020078663 0.04579221 0.06216697 -0.03824988 0.018113809 -0.037911993 -0.006532951 -0.025722302 0.041574832 -0.006934126 0.045961116 0.044732142 0.061081387 0.050769348 0.034370176 -0.024451353 0.051265292 0.048127994 -0.022689896 -0.019235168 -0.0131430095 -0.009227206 0.028538743 0.008909934 -0.047108695 0.03196734 -0.039966296 -0.044205964 -0.008077452 -0.005609192 -0.027832868 0.011230042 -0.031140327 -0.012821945 -0.05185706 0.009080968 0.04847352 0.064773925 0.037366126 -0.048098426 0.00856632 0.049728043 0.018374993 0.0014498078 -0.02488405 0.042373523 -0.023729492 -0.020244671 0.0407662 0.009090593 -0.030064218 0.037680395 -0.0017610444 -0.039523393 -0.051198058 -0.060474787 -0.0019940785 -0.041559007 0.039882228 -0.0028858967 -0.019937834 0.061016995 0.058543976 -0.0067695873 -0.066196084 0.020288697 -0.063043065 -0.057922263 -0.018906357 0.038769376 0.059318304 0.052197143 0.026975283 0.05562498 -0.014788639 0.029750822 -0.057585847 0.038071144 0.04700776 -0.0336349 -0.04187365 -0.027874673 -0.059299517 0.038988184 0.006507752 0.027032359 -0.036809124 0.011420244 -0.064087756 -0.04325044 -0.044846043 0.01826139 -0.06979024 0.026092153 -0.076381996 0.05550109 0.06544403 0.03290795 -0.028134134 0.03611465 -0.0077345213 0.027114974 -0.041233614 -0.03430466 -0.057060104 -0.06636286 0.044083215 -0.054429263 -0.003998691 0.02610511 -0.058387212 0.018126434 -0.03588631 -0.052690733 0.036226135 -0.048095442 0.02294004 -0.05789142 -0.05511395 -0.052373096 0.054533534 -0.046215158 -0.0062748343 0.061386425 0.0028482038
noise -0.062383655 0.04139641 -0.008335075 0.015389762 1.5253434e-05 -0.056068607 0.01336027 -0.0018081161 0.008492597 -0.07736134 0.053900376 -0.04462737 0.042688157 -0.072203316 -0.04182512 0.06078524 0.012175447 0.0067284117 -0.042221624 0.03554972 0.0146091515 -0.050498992 0.0543808 -0.039937496 0.033836853 0.047295403 -0.07258253 -0.025501713 -0.03797614 -0.008177029 0.039809093 0.042074397 0.071993075 0.007067335 0.0031448768 -0.054097325 0.014523014 -0.041153636 -0.0005451704 0.025876537 -0.04922717 -0.034019276 0.018724851 0.014342337 -0.044012073 0.049507283 -0.011098571 -0.04592156 -0.008857624 -0.017381936 -0.016245184 0.052176304 -0.061217897 -0.035816297 -0.015376433 0.045404807 -0.04021397 0.056282565 -0.042420555 -0.025735917 0.009727479 -0.03977584 0.014918037 -0.061238103 -0.0030390476 -0.039984148 -0.057337627 0.06389827 0.025581146 0.03601198 -0.07861157 -0.02712876 0.00801859 0.0064910147 -0.022555484 0.051255733 0.023464758 -0.06613496 -0.059349257 0.06441696 0.045982655 0.009525718 -0.04683334 0.033637933 0.058841377 -0.034800056 -0.04843608 -0.019198228 -0.031059656 -0.0026071267 -0.020245919 0.023278726 -0.047695708 0.050335743 0.021082629 0.006979127 0.0648393 0.011924678 -0.014062007 0.05898889 -0.059910428 -0.026974766 0.040711835 0.045562487 -0.0032057192 -0.034879018 0.0072033852 0.06818605 -0.0580004 -0.022828432 -0.060964268 -0.0010817465 -0.015905753 -0.03728571 -0.025822338 -0.0031428812 0.022054402 0.026801337 -0.022783492 0.044845283 0.017398067 -0.03783783 0.013464151 0.07232652 0.022482967 0.021257157 -0.04042771 0.021860542 -0.030418027 0.01613749 -0.00092270167 0.059707113 0.02325687 -0.01014483 0.012774693 0.046486698 -0.012164776 -0.05148243 -0.02451599 0.019828735 0.010504145 0.048651915 0.025073348 0.0627967 -0.0074861003 0.066234656 -0.015492118 -0.04749228 0.04968628 -0.01177746
since -0.044330005 -0.046490375 -0.031992417 -0.044831865 0.0034872587 0.016481472 -0.04471053 0.02912747 0.04649087 -0.036076393 -0.06545542 -0.053501107 -0.0074778087 0.043026485 -0.06961368 0.025769891 0.04062166 0.043652765 0.032188088 -0.0024541377 -0.0382728 0.045146838 0.039238323 -0.001644355 -0.007150869 -0.03517688 -0.02176755 0.06667369 0.03629454 0.039799217 -0.056882884 -0.009689215 0.03407197 -0.053073045 -0.05210723 -0.018110314 0.058666784 0.0092804395 0.03438103 0.02242086 -0.032767735 0.012280552 0.045872252 0.016331995 -0.03216178 0.038231216 -0.0105632255 0.036514863 0.0543358 -0.02249155 -0.006929872 -0.041123606 -0.014473124 0.038146228 -0.016003499 0.038141046 -0.07284132 -0.06527481 -0.02292181 0.012671144 -0.058638137 0.017022075 0.020976622 -0.051724505 0.022681966 -0.018715043 0.005278531 -0.03171233 0.016677499 0.05490393 0.0077122794 0.019905567 -0.0019219333 0.054915793 0.0044704927 -0.026892273 0.051047537 0.023891805 -0.056859564 -0.03793476 -0.033644635 -0.02163246 0.06748719 -0.025962422 -0.05589389 -0.029790614 0.008810711 -0.018847287 -0.032001313 0.026947454 0.05257859 0.06846273 0.04376982 0.017281644 0.046486065 0.04486619 0.012740823 0.0025866753 0.05370965 -0.0048577674 0.03301519 -0.054576755 -0.01866582 -0.05355777 0.054450665 0.051686138 -0.062236164 -0.022813383 -0.039403334 0.018036216 -0.043095436 0.05600084 0.052685395 -0.022652896 0.068611525 0.027487814 -0.020830473 0.013036111 -0.037701897 0.016558832 0.04086255 -0.034313943 -0.04912889 -0.033758443 0.0037203114 -0.042609755 -0.007611816 0.020992486 -0.030607121 0.0044875266 0.02429133 0.0166829 -0.019035384 0.033166815 0.04413356 0.016843403 -0.027467426 -0.057659082 -0.035783995 -0.052775376 -0.039556507 -0.016560895 0.019188523 0.048796922 -0.055228908 0.034712255 -0.0263593 -0.02907175 -0.026673155 -0.042473197
close -0.0008692652 -0.03296975 -0.04808717 -0.034649648 0.059676312 -0.02816944 -0.020607768 0.016283382 0.0014528515 0.066831514 0.025479194 0.042123694 0.056584243 -0.044009376 -0.019434787 -0.05814963 -0.0054850024 -0.020372886 -0.021336986 0.054677747 -0.06773189 0.0038013896 0.06565589 -0.080337115 0.037600774 0.005115288 -0.08723579 0.07704569 0.005347604 0.065802544 0.02186333 0.05095249 0.042391203 -0.06372827 -0.014413009 -0.0013738486 0.0120858755 0.054222636 0.054678176 0.0654389 0.050630365 0.07569153 -0.019113518 0.010569948 -0.033577394 0.024793584 -0.0038792796 0.03811862 -0.011062096 -0.070309915 0.009428903 -0.024474459 -0.022914536 -0.061342005 -0.0023875916 -0.012456485 -0.0008309757 0.047694035 -0.0038605137 -0.07801858 0.035749044 -0.015841926 -0.008374336 0.03948727 0.029562686 -0.015443044 -0.027969357 -0.06695868 0.06770216 -0.034059253 0.048195396 0.044749092 0.08098753 -0.0026152702 -0.029809417 0.01600554 0.027960323 0.044013627 0.076672204 -0.034058332 -0.00030603632 -0.039650418 -0.07493906 0.044340797 0.06534944 0.040406942 0.02446856 -0.014103258 -0.0071210023 0.02648815 0.064079165 0.036198363 -0.036551423 0.03704788 0.06789778 -0.030888489 0.032550875 -0.008788076 0.056892462 -0.023065157 0.022373883 -0.02363102 -0.026589025 -0.0641394 0.012237881 -0.0020998279 0.0006789785 -0.023223316 0.009513564 0.044992086 -0.023602648 -0.0074808123 -0.05457763 -0.07506492 0.037054967 -0.09292154 -0.057372123 -0.018613577 -0.023918524 -0.045302667 -0.05074307 0.032149203 -0.040193085 0.037889246 0.022229135 -0.030820128 -0.0035868466 0.020454593 -0.022525381 -0.07093039 -0.020285558 -0.030664688 0.005086837 -0.044036914 0.07130761 0.06662433 -0.053018007 0.027782822 0.0070652897 -0.053235702 0.056987688 0.005051744 -0.051347226 0.023457788 0.02094611 -0.021655641 0.009956155 -0.015281674 0.034919746 -0.07118693
toys 0.006718175 0.0395473 0.055074338 0.073236816 -0.0059605595 0.015397829 -0.03056029 -0.052856557 0.031665422 -0.041204635 -0.01659472 -0.035175536 -0.008480188 0.0137278475 -0.00174358 0.04272581 0.058999557 0.06479122 0.026112143 0.017665226 0.048891556 0.053621158 0.00033493782 -0.04674857 0.0277087 -0.0016340577 0.012142155 0.008204363 0.011594142 -0.05142367 0.026167875 0.070981555 -0.023324238 0.02491543 -0.035434656 -0.020455685 -0.0046019154 0.019277543 0.020501342 0.07027012 -0.05312336 0.035743672 -0.0314455 -0.0023099275 0.060895924 0.03133736 0.0043390696 -0.036462724 0.07390528 -0.06311675 -0.034685083 -0.046174254 -0.038826317 0.024379944 -0.059460174 0.052260958 0.05116548 -0.05153203 0.0068526617 -0.027504873 -0.011762094 -0.058558654 -0.03992533 0.025684161 -0.016549917 0.016555639 -0.013090653 0.048367757 -0.03036235 0.07242307 0.07025763 0.040052004 -0.08085963 0.0594664 0.041750602 0.0137221515 0.027164124 0.057905678 -0.029883675 0.05184605 -0.075197145 0.036046516 0.07535982 0.024782121 0.0067561883 0.054620262 -0.031117434 -0.046212737 -0.0069915615 -0.062177964 0.03406241 0.035429504 0.0058446946 0.0029681965 0.04665836 -0.04582618 -0.024772203 -0.033401717 -0.031663816 -0.056663994 -0.068624526 -0.06844455 -0.042644903 -0.06294151 -0.075785555 -0.049933843 0.06058872 0.032574788 0.021928292 -0.022097573 -0.00062337774 -0.076668225 -0.059478126 0.059834324 0.053683553 -0.05118718 0.009214942 0.037595734 0.017693851 -0.052640915 -0.04076313 -0.008886134 0.014773853 -0.0044426383 0.0037944578 -0.058094643 -0.0380931 0.057863887 0.0039511407 0.06693959 0.01620208 -0.05317586 0.04923793 -0.037954573 0.045200657 0.026743378 -0.0067011258 -0.025941825 0.0136456285 -0.037845533 -0.05818639 -0.04786082 -0.042451378 -0.0013588485 -0.034124117 -0.0067697614 -0.075499505 0.06967891 -0.04498092 -0.0017443157
moderate -0.035428125 -0.012045317 -0.0036870162 0.06684986 -0.05483184 -0.072332434 -0.026209211 -0.029196776 0.030605529 0.03602086 -0.013859382 0.020560483 0.04728185 -0.01487414 0.07243303 0.05038367 0.036152236 -0.019259423 -0.016984548 0.027338471 0.052562647 -0.032826256 0.051894445 -0.04190964 -0.067230836 -0.01173627 -0.04103185 0.049947947 -0.028829666 0.0451151 -0.004999975 0.036264576 0.030661158 0.053255036 0.0671201 -0.06582128 -0.039336726 0.051462524 -0.039247904 -0.010433866 0.06332696 0.02529059 0.021944258 0.032967925 0.0317647 -0.03563764 0.008409914 0.045470998 -0.0024061706 0.054682676 -0.031779464 -0.0709827 -0.07525505 -0.045385092 0.012427231 -0.033716563 -0.04736529 -0.040890478 -0.05620479 -0.036829192 -0.07029633 0.04613707 0.042670026 -0.014771242 -0.028643077 0.061695658 0.011406437 -0.036821365 0.07592602 0.057736278 0.049164403 0.063452445 -0.020679764 -0.0016303632 -0.05623789 0.014281203 -0.016594663 -0.00028205838 -0.040839028 -0.048466258 0.06944758 0.021201964 -0.013868735 -0.04073655 0.04116735 0.0135523 -0.04747769 0.019257212 -0.011599342 -0.048743904 -0.02512852 0.019396383 -0.032297313 0.03373613 0.017736431 -0.051873017 0.050997335 0.015942832 0.044733576 -0.009730296 0.014841048 0.02097646 0.024428543 -0.057756122 -0.03116588 -0.018314226 0.0571439 0.016021606 -0.04556737 0.027618188 0.057780877 -0.060830623 -0.008386762 -0.011288611 -0.023066979 0.006661344 -0.047066145 0.041197155 0.037509695 -0.0034912303 0.05316832 -0.04237073 -0.028980138 0.023927242 -0.017044922 -0.008861858 -0.064501934 -0.019170811 0.021233294 0.013282547 0.040444203 0.000977678 0.036630534 0.06926213 0.045136794 -0.002220743 -0.030849412 0.05077483 0.061777115 -0.04966943 -0.03417724 -0.006771455 -0.0077380408 -0.018146217 -0.014173235 -0.04817449 -0.05466047 -0.029251946 -0.065684386 0.024166843
welcome -0.028164666 -0.011457363 -0.063000835 0.035681162 -0.01698163 -0.0743108 0.032731164 -0.009367526 -0.016934333 0.048826285 0.05164184 0.055831015 0.05118551 0.050149646 0.038784258 0.062467564 -0.064631164 0.062697046 -0.01555081 0.023936784 0.011808363 -0.0023118183 -0.022600515 0.061445646 -0.04998484 0.014047542 -0.0035955007 -0.024587937 0.017778648 -0.04595442 -0.013935368 0.041245647 0.006294191 0.009379452 0.056407437 0.033041656 0.06207787 0.044968482 -0.038692653 -0.02645113 -0.063397184 0.050008144 0.047849167 0.045206755 -0.039306536 0.01669472 0.011063793 -0.03216055 0.02223156 0.05728813 -0.0073606973 0.0490137 0.037142478 -0.016967911 0.06928468 -0.014027346 -0.0469498 -0.01344947 0.055139545 -0.00017272832 -0.02917484 0.014069006 -0.011490619 -0.01788733 0.047915414 -0.011123197 0.02846653 0.046993762 -0.006626403 0.04283077 -0.04021655 0.03355234 0.005257886 0.012545908 0.04556379 0.024970232 -0.0008660116 -0.04635334 -0.06900953 0.017582392 0.0026925914 0.074847065 0.010610582 0.011077691 0.06658618 -0.0017014205 -0.027652433 -0.021488344 -0.047473174 0.030894352 -0.02249261 0.033150353 -0.03148254 0.05158761 -0.0555616 -0.031511568 0.053234268 -0.0001490349 0.08028361 -0.021436652 0.024976939 -0.039066922 0.059125677 0.0079575945 -0.021764094 0.03226961 0.00976702 0.0057969894 0.04370594 0.0035088696 0.060606305 -0.013993889 -0.046744246 0.030254854 0.073247276 -0.005638384 0.04205646 0.027300594 -0.053300034 -0.01253645 -0.06813939 -0.010362172 -0.056417894 0.05540561 -0.052853193 0.007002678 -0.0061826506 -0.05261564 -0.06957104 -0.05746538 0.06354771 0.014680473 -0.008319935 0.0040238155 0.034887064 0.038789395 -0.0011816644 0.05246464 0.00027266762 -0.016338803 -0.058266763 -0.012893521 -0.009697148 -0.02405487 0.029399864 0.0031173448 -0.005085795 -0.045723952 0.029090572 0.062438913
pulled -0.0515547 -0.041637808 -0.0038417906 -0.045753315 0.027848588 0.013674539 0.026253745 0.02984323 -0.005614748 0.045968134 -0.04697875 0.02047715 -0.035166882 -0.0077736555 0.04019711 -0.040212113 -0.020541873 -0.007599005 0.03191744 0.0028872134 -0.036485147 -0.00048342394 0.030555781 -0.03349373 -0.051585488 0.04795837 0.039144218 -0.06274606 -0.034082927 0.0097165145 -0.071227156 -0.013902403 -0.043681223 0.015463644 -0.045566622 -0.022373745 -0.05971928 0.024286604 0.053968355 0.06191143 0.03426953 0.00033988117 -0.056390733 -0.011846906 0.048216693 -0.05113768 -0.05507811 -0.029838767 -0.04208489 0.017246053 -0.0725684 -0.042180676 0.020624354 0.05103354 -0.016944336 0.022435077 0.046114475 -0.07278865 0.011228555 0.064195015 -0.054617126 -0.03438753 -0.012938336 0.025659526 0.035831418 -0.05531545 -0.038067974 -0.04765853 0.0016208831 0.06496898 0.065961115 0.041952115 0.0036977595 -0.057386454 0.0009324347 0.044146646 -0.05026041 -0.043691173 0.017310994 0.05499023 0.024206532 0.04998483 -0.017849214 -0.015963119 0.0003795427 0.027214635 -0.035575427 0.026400045 0.044023044 0.035990976 -0.043062326 -0.046095923 -0.055209547 -0.0019323219 0.017152032 0.037223447 0.028963001 -0.02560179 0.051929526 0.039049137 0.04740982 -0.017413683 -0.00023043016 -0.0096303355 0.030637167 0.058693726 0.07207308 -0.06793215 -0.017972823 0.017109888 -0.007231474 -0.00720543 -0.040654838 0.03913975 0.058662433 0.058218766 0.014377294 -0.056029085 0.005742811 -0.060905527 0.046664305 0.032546964 -0.033913013 -0.019610453 -0.031045409 -0.031026892 0.004555883 0.06049502 -0.062184326 -0.011335351 0.0025830918 0.04658623 0.02837956 -0.0036567864 -0.03393818 0.027739953 0.055313356 -0.04932484 0.0005202044 0.022848558 0.049665708 -0.07001775 0.0030511115 -0.047711935 -0.017651448 0.038175672 0.04048454 -0.07262653 -0.017076522 -0.06245333
high 0.06893758 -0.037274066 0.024293736 0.054568667 -0.020909889 -0.009969481 -0.034131307 -0.052700263 -0.060162038 0.006190768 0.077586114 0.031718805 0.04118258 -0.023850929 0.057355028 0.06034484 -0.013243084 0.021673985 0.02423668 0.028496716 -0.041361567 -0.055338457 0.06784319 0.077836305 -0.06304975 -0.042221215 0.026045559 0.07534831 0.0019442044 0.01128076 -0.008737784 0.04836114 0.06933794 -0.0611074 -0.019204874 -0.011790272 0.05048274 -0.027507475 -0.019838002 0.022359183 0.0621581 0.055288896 -0.013027328 -0.030891737 -0.052544422 0.015371654 0.012456437 -0.02915314 0.06970083 -0.008093891 0.028450755 -0.054255076 -0.028200189 0.020613937 0.014881201 0.093588136 -0.038025666 0.036694717 0.009298013 -0.037651278 0.01808018 -0.020859009 -0.029851552 -0.039725706 -0.0022262137 0.012751766 0.05873459 0.019789735 0.077060156 0.046787225 0.025958044 -0.005885342 -0.0018213998 -0.08085229 -0.08220968 0.012684955 -0.06479702 -0.0075824857 -0.07811262 0.023243284 -0.024725297 -0.04948833 -0.0050650816 -0.060357556 0.050986346 0.012774654 0.019977229 -0.0007192249 0.047111373 0.023837592 -0.060279705 0.047149222 -0.030275023 0.051748384 0.011602712 -0.036421925 -0.026209105 -0.030505603 0.043838505 0.021511476 0.0067349123 -0.010630382 0.06818956 -0.052674577 0.015920192 -0.011956124 -0.068754524 -0.09106965 0.020501474 -0.011338737 -0.025530832 -0.07745984 0.038980875 0.06545181 -0.025044989 0.057887085 0.048500825 -0.07027421 0.010833808 0.048499074 0.030885492 -0.016434656 0.052189548 0.02233724 0.06837212 -0.086019166 -0.052728098 -0.0070331064 -0.050349277 -0.0076419045 -0.0353059 -0.03316908 -0.0257185 -0.051976427 -0.10275406 0.047170285 0.0297737 -0.0474174 -0.012301019 0.046666864 0.009364423 0.020598305 -0.06399738 0.042591475 0.0039147055 -0.02137187 0.06849829 0.050732568 -0.04228917 0.047595236
presents 0.01583404 -0.02647832 0.008119872 6.196508e-05 0.066413894 0.046514213 0.05120254 -0.020944955 -0.06301305 0.0033065793 0.054126404 -0.01581902 0.0016431513 0.03265146 0.026322983 -0.009168116 -0.077984996 0.0053090705 0.05733153 0.063310504 -0.07098981 -0.056594722 -0.0366402 0.034392696 0.054049525 0.031400274 0.06821245 0.02973607 0.03442633 -0.05939322 0.058458317 0.01833823 0.015249462 -0.05662216 0.0018390807 -0.06012801 -0.07506991 0.06519861 -0.059056506 -0.047245763 0.012950599 -0.0008434674 -0.06469688 -0.036637735 -0.0069978833 -0.017271033 -6.831344e-05 -0.022623558 -0.03283031 -0.06120184 -0.03632032 0.013529901 0.036872797 0.03985791 0.01438912 -0.0074357227 -0.055714734 0.046840955 0.041580502 0.019512659 -0.03638532 -0.031216057 -0.016278695 -0.018705528 -0.0043195332 0.029493004 0.020532023 0.06806134 0.030440558 0.010597914 0.07066702 0.046166215 0.029762484 0.012511835 0.056928225 -0.04963193 0.022173515 0.035029076 -0.010983361 0.056687254 -0.04192621 -0.013059198 -0.023721226 -0.055883083 -0.03248769 -0.02341756 -0.05254 0.00019418588 -0.051977154 -0.034724027 -0.035793204 0.051723238 -0.056454085 -0.06270196 0.014356077 -0.0038188582 0.013756622 0.06814744 0.061368875 -0.0053421343 0.060917713 -0.0458384 -0.06572909 0.04983564 0.022663519 -0.033015855 -0.011863719 0.0058994354 0.06336765 0.0014643525 -0.030782497 -0.03934987 -0.001156425 0.0077859233 0.02826373 0.060758114 -0.002878672 -0.036196798 0.0132559 0.023268862 -0.017728332 -0.016358472 0.028001161 -0.011333203 -0.009554196 -0.05180376 0.007597645 0.03935046 -0.033464674 0.0024439166 -0.035496872 0.040365953 0.037910525 -0.03396935 -0.025730427 0.009671494 0.0007641184 0.05462493 -0.021092018 0.024961047 0.045164127 0.0039560385 0.033255946 -0.04758592 0.046412908 0.054985043 0.025788711 0.032267872 -0.027006691 0.035494488
dare -0.012472256 0.036094587 -0.035592396 -0.059201423 -0.031518545 0.015919328 0.057297476 0.032935325 -0.005725017 0.04708104 -0.04773714 -0.047969323 0.047082916 -0.06022037 -0.039191913 0.04742089 -0.055517342 -0.049184147 -0.00263575 0.04141611 0.00984272 -0.03037651 -0.033185154 -0.024327751 0.05529791 0.01991372 0.06573151 -0.051492643 0.02347499 -0.02225431 0.047038086 -0.06534437 0.033112515 0.0036657637 -0.05785745 0.03934256 -0.04110169 -0.009650576 -0.018352434 -0.024886517 0.034663413 -0.037620142 -0.02952443 -0.028099313 0.056450307 0.01842188 -0.057334762 -0.032604735 -0.030283047 0.04046834 -0.019562261 -0.034888003 0.07048299 0.023419611 0.037674606 -0.01727966 -0.03237066 -0.07291075 -0.061775927 0.0042757066 -0.02890318 0.0039252066 0.06380482 0.07990355 -0.07072315 0.004439486 -0.04242035 -0.034200527 -0.042130154 0.05854136 -0.032626867 0.008774982 0.045391873 -0.036997534 -0.027065177 -0.059747607 0.04993272 -0.001965789 -0.020378038 -0.016983714 -0.055760007 -0.026772149 -0.027293049 -0.05314435 -0.0027111797 -0.012161804 0.031876855 0.017308425 0.035118826 0.014745591 0.024692781 0.044004187 0.048335724 -0.04585253 0.03472003 -0.051924817 -0.049078133 -0.05386555 0.00079982844 0.043411445 -0.04560383 -0.032807145 0.035652157 0.060512938 -0.035112545 0.014239788 0.047819894 0.048314784 -0.03851965 -0.06550357 0.022347376 -0.03541542 -0.030637378 -0.011030095 -0.015597546 -0.06866616 -0.036567684 -0.06392366 -0.013312566 0.06480744 0.024286827 0.015066208 -0.037783373 -0.049228698 0.05676504 0.036122013 -0.026643556 -0.048563402 0.03789165 0.010102087 0.027865559 -0.037798274 0.042616226 0.02253566 -0.012940529 0.063127555 0.06818378 -0.053271618 0.016538993 -0.061013196 0.022240335 0.053022522 0.048716754 -0.037414644 -0.009759994 -0.05232016 0.013636085 0.06694045 -0.041701484 0.03983866
eaglet -0.034067415 -0.03149836 -0.030916918 0.048403937 -0.028503714 -0.034083456 -0.0085059535 -0.029545156 -0.033387464 0.03290959 0.022926694 0.072611555 -0.068923555 0.0008222456 -0.040763687 0.039503288 0.052102204 0.0042145913 -0.041342314 0.050494697 0.0012381529 -0.05226554 0.047557034 0.040732056 -0.036820397 -0.033522908 0.038603894 -0.0053188596 -0.060122505 -0.024520496 0.049985778 0.025378076 0.056898233 0.037552584 0.05310657 -0.007706075 -0.0053944876 -0.03333031 -0.05032738 0.009716131 -0.04406625 0.015633555 0.05207131 0.04204723 -0.054874778 -0.008830246 0.06400253 -0.031170247 -0.018911526 0.03693194 0.004505731 -0.014372235 -0.031769026 0.05317055 -0.05276737 -0.051704247 0.055812307 0.08025599 -0.06984571 -0.02299702 -0.053484686 0.026987208 -0.040193386 -0.04853788 -0.030485097 0.04215025 0.024650361 -0.025411446 0.040683795 0.054623988 0.030027952 -0.014868243 -0.022763552 0.027149279 0.022462206 -0.031653386 -0.042485274 0.02029707 -0.0071818745 0.032959513 0.023926781 -0.06453242 -0.058899075 0.050596815 0.028050467 0.041822866 -0.05042169 -0.052647874 -0.032076254 0.031400163 -0.02459612 0.011839371 0.07760087 0.017186701 0.006530834 -0.027685668 0.06154839 -0.02952938 -0.01573981 0.014909877 0.06647749 0.025899578 -0.02412661 -0.036954544 0.005305378 -0.05698219 -0.0018348823 0.021933269 -0.011711047 0.06409915 -0.025716603 -0.039785642 -0.0013796015 0.05999775 -0.012520652 -0.04558231 0.072800666 -0.020484809 0.05481089 -0.054016583 -0.0010246082 -0.0106133865 0.002948606 -0.04140619 -0.0015898098 0.022254964 -0.021573417 -0.015067273 -0.01787413 0.04302012 0.01621411 -0.05243827 0.0017826705 -0.046085138 -0.020015618 0.048486814 -0.023353841 0.030633556 -0.034516364 -0.053343028 -0.03890752 0.035698283 0.00030442877 -0.06888122 -0.018901587 -0.022646528 0.027852282 0.024909642 -0.042035263 -0.05141711
go 0.02076851 0.019079613 0.07910625 -0.033752847 -0.05193572 0.032681216 0.01845669 -0.051649258 -0.06381248 0.014283158 -0.0130470125 0.043514177 0.06686536 0.044545397 0.052120276 0.040335637 -0.02003527 -0.02372309 0.014058099 0.015577016 -0.101185255 -0.0055220686 0.004643915 -0.010573467 -0.026011935 0.013593066 0.021686645 -0.052888505 0.017457014 0.00045669614 -0.065014996 -0.03605402 -0.020844584 0.03659806 0.009403221 0.029613532 0.010178792 0.00725302 0.0011950185 0.02415884 0.03627093 0.073344834 -0.06809222 -0.019317355 0.05655381 -0.023891238 -0.0049698465 -0.012008428 -0.011085578 0.0519572 -0.021358052 0.054552328 -0.05884806 0.0057131024 0.026490076 -0.04000328 -0.03628351 -0.044398487 -0.07916043 0.015922336 0.05794885 -0.014352175 -0.055724114 0.016599525 0.016352983 0.060236424 0.017759586 0.005112909 0.0007819148 0.007229532 -0.024721136 0.06000169 0.054408368 0.03705353 0.068219475 -0.06946927 -0.030248813 0.0054729944 0.042985592 0.030691167 -0.077444516 0.053970236 0.06983251 -0.0030575746 0.035395972 -0.022734407 0.044391893 0.066197135 0.032378018 0.042533923 -0.00033843704 0.04003993 -0.0041039772 -0.038422912 0.063208304 -0.031239636 0.023340184 0.047419813 -0.0068914336 -0.09329448 0.0844581 -0.09700325 -0.040275212 0.013552908 -0.05827254 0.0013989023 0.021239353 -0.027244404 -0.037594717 -0.06502832 0.06888074 0.0004789771 0.053856723 -0.026153574 0.0026221238 0.04946919 0.06845918 -0.03920553 -0.06164769 0.022321768 0.012917705 -0.08922375 0.041178446 0.00996855 0.002186097 -0.03408008 -0.014479739 -0.062374797 0.08735578 -0.00085154746 0.1223753 0.043823127 0.05203405 -0.010668982 0.055337276 0.09425754 -0.08115551 0.041476764 0.028986527 0.0015915948 -0.010750148 -0.047216713 -0.037844505 -0.09393148 -0.10407666 0.007151219 -0.04561494 -0.026508406 0.033309013 -0.011620241
bird 0.036212616 -0.06411527 0.029553534 0.006602535 0.00077294663 -0.03320511 -0.009955119 0.011421196 -0.055685893 0.07648537 0.017249292 0.0062120785 0.006631969 0.028910385 -0.012307953 0.062565155 -0.014688056 0.033194188 -0.01322461 0.05083261 0.031538878 0.05736725 -0.045907725 -0.042996768 -0.030706951 0.06066573 0.0036321655 0.017205346 0.055301107 0.043580733 0.06711812 -0.017181864 -0.04246014 -0.03425062 0.017055325 0.057468034 0.054482482 0.03194903 -0.04155585 -0.06758257 -0.020806408 0.062001053 0.00356393 -0.048382718 0.020707231 -0.075555205 -0.029557677 -0.02725036 0.07804246 0.054992948 -0.042094953 -0.020758482 -0.045834687 -0.03549986 0.055704895 0.0026157175 0.04079183 0.01807962 0.015204335 -0.018324038 0.016389662 -0.0047236504 0.049773954 -0.0678114 0.07050277 -0.051472057 -0.03908295 -0.012668164 -0.01617464 0.05757356 -0.019285826 0.012830273 0.02382596 0.004729402 -0.025843471 0.011761503 0.0688556 0.07158326 -0.036271293 -0.06363311 0.053949468 -0.024591789 0.031482797 -0.03579079 0.00039364933 -0.033613186 0.06106372 -0.007026616 0.03925001 -0.069712736 -0.028461238 -0.050781313 0.019440085 -0.0024954532 0.035989653 -0.056507383 -0.0024982188 0.031398486 -0.053951316 -0.0112774 -0.046625633 0.051715426 -0.04913771 0.034794126 -0.03877963 -0.04414657 -0.019001126 -0.05424363 -0.017838545 -0.03146418 0.0055222074 0.0023883767 -0.048773892 -0.010269445 -0.038766872 -0.0071844487 -0.003780171 -0.039172884 0.039589226 0.07370119 -0.06451843 -0.042615708 -0.039860334 0.06205178 0.039194267 0.00079644995 0.048502583 0.040926624 -0.075324036 0.06747483 0.016132321 0.00010135316 -0.052537195 -0.017825482 -0.058573056 0.03283006 -0.03645187 -0.020425173 -0.020836363 -0.044455826 0.050791122 0.03830871 0.06946932 -0.0069959187 -0.030215757 0.00035224634 0.010402285 0.018948521 0.0017606735 0.009472975
general 0.0476201 0.0124758445 0.05173553 0.006598851 -0.02654508 0.0045416933 0.07126317 0.0038231208 -0.0071050837 -0.04208309 -0.032131303 0.030195521 -0.0092237815 -0.0035966337 -0.0057607275 -0.029556124 0.058057394 0.053422473 -0.028597608 -0.0069388137 0.05248435 -0.033736516 -0.05757013 0.056637064 -0.061043967 -0.01630669 -0.03767546 -0.06540512 -0.012877794 0.04098303 0.0033013439 -0.019700058 -0.017008651 -0.04438485 0.059161693 0.0086112125 -0.005949871 0.053282186 -0.043600805 0.012388581 -0.017802548 0.07016117 -0.007521582 -0.01497633 0.07492975 0.035120968 -0.049483564 0.003058216 -0.05197916 0.030676499 -0.053532645 -0.054442085 0.07713371 0.029563516 -0.07347183 0.005991907 0.006272852 0.033100605 -0.029845785 -0.020076552 0.016762784 0.04628248 0.073585406 -0.00037764315 -0.063383244 0.055915773 -0.019445907 0.023637617 0.067817375 -0.015865294 -0.045191947 -0.036573485 0.032977853 -0.039206542 0.029518414 -0.010086007 -0.037751105 -0.025473721 -0.037584327 -0.043635003 0.03006863 0.01757001 -0.03103391 -0.010071008 0.0034718686 -0.043044556 -0.047727935 -0.06232412 -0.04202424 0.057995584 -0.045706406 -0.041312307 0.045977056 0.051556464 -0.03765295 -0.045886967 0.022860177 0.057868976 0.040442087 -0.019039197 -0.012310977 -0.02956685 0.022323102 0.038254954 -0.06093095 0.009035523 -0.016518805 0.054096393 0.02331938 -0.0044104797 -0.03924236 -0.049972303 -0.05010194 0.05317522 0.033621766 -0.04451485 -0.011682711 -0.059947867 0.036452014 0.019494098 -0.008984701 0.049458597 -0.027897349 0.04492821 0.050710898 0.015708983 0.0430893 0.01123701 -0.065188624 -0.045901395 -0.007701668 0.06412464 0.012726404 -0.049178015 0.03580491 -0.047213852 0.017100746 -0.038795564 -0.0016985463 0.0348266 0.0044158148 0.020155733 -0.0488999 0.028364237 -0.009982675 0.023808913 -0.018745389 -0.057368923 0.016973754 -0.031159583
our 0.030436317 0.052377813 -0.06624743 0.053996507 -0.040301427 -0.007458545 -0.06317719 0.035955794 -0.056458566 -0.049171317 -0.023709109 -0.059430137 0.0098942015 -0.026917346 -0.050734114 -0.029491838 -0.041423116 0.073491186 0.047671564 -0.03478257 -0.07917129 -0.026012203 -0.0033814763 0.013425899 -0.0659492 -0.029762756 0.011702692 -0.067772366 0.044912573 -0.012473424 -0.024459656 0.046121053 -0.04554583 0.07128595 -0.018668406 -0.062276892 0.039569117 0.06715101 0.05564385 0.047927193 0.033357397 0.0036851445 0.00711709 0.038884412 0.027328733 -0.011838852 0.0355215 0.05407835 0.012704392 -0.039380223 -0.009221667 0.05819941 0.05200052 0.056933146 0.063644245 0.00075799186 0.036361758 0.0075803595 0.01369061 0.0039360896 -0.07900462 0.011230567 0.013825135 0.009502877 -0.06042855 -0.03437202 0.002642842 0.009826094 0.02493434 0.018447274 -0.007639345 -0.03789108 -0.0010840358 0.0027162805 -0.036951784 -0.0048116557 -0.036065508 0.05496962 0.039042894 0.03535139 0.033785034 0.011944199 -0.02889712 -0.054669317 0.014711711 0.032146845 -0.009106308 0.013882042 0.022792578 0.051800366 0.039385926 0.0024194391 -0.027532032 -0.0066137356 0.026408475 -0.024363603 -0.046424508 0.035855945 0.036310177 0.04754939 -0.07358767 -0.0037974769 -0.009558838 -0.003928188 0.012606167 -0.019111618 0.0690699 0.011767263 -0.07032888 -0.057239853 0.040223032 0.008630576 0.05391042 0.01384772 -0.031877454 -0.011685607 -0.06015832 -0.042434197 -0.06032494 0.058039732 -0.008780075 -0.08282435 0.022163995 -0.05575405 0.0023774197 -0.020992657 -0.037815593 -0.031018887 -0.028110962 0.078332245 -0.02902643 -0.013218442 -0.038119733 0.013579339 0.032779336 -0.0077957213 -0.031576533 0.027820226 -0.0374988 -0.036893155 0.0016707788 -0.0024502492 -0.035819646 -0.04235768 0.002812983 0.03543633 -0.045054864 0.045696095 -0.0008957647 -0.0032826946
mistake -0.034889452 -0.010651479 -0.009531855 -0.019941635 -0.06163931 0.03193807 -0.050027687 -0.051017564 -0.045773122 0.059184898 -0.03171922 -0.057313617 -0.04474596 0.07055491 -0.05325104 0.05645629 -0.02878805 -0.057520844 -0.016241103 -0.028003419 -0.0465227 0.046068706 0.024092643 -0.03897662 -0.022430902 0.055770073 0.025778422 0.058391105 0.025639119 -0.020098805 0.024483431 0.021166045 0.010718752 0.025304781 -0.041585326 -0.024942234 -0.04892671 -0.010430792 0.06041398 -0.07480102 0.070967495 -0.04763234 -0.025556233 0.018841995 0.06771045 0.061098106 0.07928866 0.021032793 0.01667934 0.018537646 0.031321276 -0.032774758 0.035821676 0.047208525 -0.047074895 -0.030187424 0.046502195 0.011099707 0.032228146 -0.061683312 -0.052966326 -0.014315973 0.011755522 0.07129145 0.010005854 0.041641407 -0.02483798 0.033222973 -0.059902098 -0.005235437 0.02414558 0.0421599 -0.054551255 -0.03785539 -0.052159425 -0.007212036 0.049378324 -0.038968425 -0.018002814 -0.023203563 0.04726819 0.060125582 -0.0040960293 -0.012433672 0.0053786184 0.013054158 0.058331653 -0.058893178 -0.02282663 0.0404648 -0.064778715 0.06478268 0.02205164 0.02123582 0.052501068 -0.007956555 -0.011132257 -0.05759462 0.023711333 -0.020882474 0.0072768517 -0.018968347 0.06650398 -0.0017520856 -0.013446402 0.048481036 0.015238427 -0.0031392616 0.05604956 -0.029834129 0.04958718 -0.038081296 0.021124111 0.021756351 -0.04438446 0.00431649 0.041737195 -0.06615271 0.02768448 0.00026742008 0.035934225 -0.03754692 -0.075726785 0.026430288 0.037685595 -0.0028537337 -0.068172865 0.019272743 0.039864063 0.018324586 -0.071812175 0.008758055 -0.010911383 -0.026052114 0.004414591 -0.05233473 0.0050991746 0.017762255 -0.036771152 -0.05069541 -0.01369331 -0.028523883 -0.0154776145 0.026525449 -0.009022785 0.012255695 0.065317124 0.028867688 -0.06634235 -0.033584803
pointed -0.059719052 0.054668687 -0.022785777 0.013424559 0.05924566 0.008646226 -0.03594522 -0.015630547 -0.009741147 -0.030533431 0.0334976 -0.033575267 -0.06977649 -0.016716886 0.005321336 0.07728452 0.041187026 0.027164826 0.033198554 0.0099760825 0.039289005 0.0075149215 0.02484279 0.074519694 -0.02479416 -0.03295222 -0.003709422 -0.07322815 -0.0067969123 -0.0600615 0.035722706 0.07902564 0.061943114 0.04076132 -0.07366597 -0.0405374 0.0226177 0.07378434 0.045269914 0.04142215 -0.03731996 -0.005360351 0.026552157 -0.004688684 -0.0007980594 0.05136234 -0.0021295394 0.033926025 0.010328677 -0.022792673 0.042825315 0.03669555 0.061248038 -0.045988362 -0.029817797 -0.027135061 0.02895172 0.015115864 -0.0108795725 -0.067315 -0.032549966 0.041406006 -0.0503495 -0.022159636 0.004717957 -0.0059426865 0.011547033 -0.054654438 -0.043090086 0.060008366 -0.074185066 -0.006817971 -0.057406135 -0.05255919 -0.06790993 -0.022917023 -0.025119752 0.010067986 0.049497034 -0.034054447 -0.020311939 0.03795076 0.03202056 -0.015437486 -0.035976134 -3.1205942e-05 0.017838206 0.06207314 -0.029641058 0.033159632 0.011567429 0.053546857 -0.080480576 0.044063188 -0.019393533 0.03675852 -0.07799333 0.050542712 0.01991916 -0.055286136 -0.062425774 -0.02110184 0.026136894 -0.009787926 0.023144528 -0.024036359 0.020183451 -0.039034452 -0.030279662 -0.041819762 0.023421207 0.05065796 -0.003833556 0.026053736 0.026646556 -0.034856163 0.054724466 0.034133427 0.019771522 0.0019021096 -0.051755197 0.01197905 -0.038195122 0.0051283645 0.064791486 0.04143438 -0.006480167 0.027835295 0.011428592 0.0071441643 -0.025719233 -0.016801463 -0.018126627 -0.012151333 -0.004284109 -0.02689377 -0.060379103 0.04682458 0.0048730047 0.05419778 -0.04565446 -0.066019654 -0.07915339 -0.0364924 0.040790405 -0.019875253 -0.055044405 0.0005572601 -0.018429464 -0.045880202
fishes -0.014157473 -0.04065704 -0.050592635 -0.038296342 0.035871495 0.02212333 -0.021362592 -0.045017347 0.0117745735 0.060881745 0.059594713 0.053269587 -0.0029689423 0.057113364 -0.03744546 -0.052232396 0.0015455589 0.031233476 0.0052182446 -0.07353135 -0.05172403 -0.006194748 -0.04479136 -0.03552492 0.027203145 -0.06809414 -0.013839138 -0.046718374 -0.041081637 -0.0045349444 -0.032750636 -0.034498494 0.057993546 -0.06169757 -0.022696815 0.009017479 -0.031004105 -0.02648876 0.054844912 -0.021696031 0.010221919 0.049444668 -0.0669083 0.035040583 0.0010159282 0.06708991 0.05779706 -0.03487572 -0.08108817 0.054483354 -0.042995587 -0.009968496 -0.012376357 -0.05747609 -0.046670686 -0.035149902 0.022813633 -0.0017845553 0.06238109 -0.02036102 0.059539545 0.0014054078 -0.029341377 -0.0034400178 -0.011080115 0.011386705 0.06524708 0.030970247 -0.05294288 -0.060228147 -0.05511358 0.037721384 -0.049320344 0.0034692888 -0.044844724 0.062410913 0.028607883 0.057833485 0.025267707 0.036691375 0.07689687 0.0016097971 -0.041680865 0.04978483 -0.017715817 0.044430565 -0.013314878 0.038592555 -0.026250698 0.056865644 0.013897145 0.054408513 -0.03012914 0.052282505 -0.07129814 0.032095704 0.043633007 -0.052330583 0.049768556 -0.064426616 -0.033551894 0.027331168 0.069365546 0.017585173 0.010023536 -0.054484434 0.04963718 0.050649676 0.049254656 -0.00039073045 -0.019772056 0.029392308 -0.023018397 -0.051818535 -0.023420315 0.016268918 -0.052625645 0.0036109202 0.043799978 0.001120534 -0.043393333 -0.020875337 0.02118886 0.04986541 0.026730161 0.046513405 0.017441472 -0.068813816 0.05980061 -0.032602385 0.041060288 0.063844085 0.07038906 0.03514292 0.03617212 0.024048472 0.05125462 -0.031820502 -0.049950495 0.06608227 0.027165052 0.029643336 0.041935742 0.010224055 -0.018596254 0.036032952 -0.021816662 -0.017713025 0.019211523 0.058279026
head 0.032546725 -0.03348099 0.003334953 0.016111303 0.058639556 -0.0106544625 -0.0023867106 0.0440189 -0.045689374 -0.056066334 -0.0017287141 -0.06040781 0.03236574 -0.05709109 0.018128242 0.098445304 -0.05676609 0.049114104 0.029586658 -0.048477788 0.04611113 0.017774768 -0.013812977 -0.052925974 0.0425344 -0.052186817 -0.05211114 0.014063372 0.061089285 0.06319149 0.019792996 0.027289387 0.0055644885 0.05318843 0.060060885 -0.07159275 -0.002821174 -0.0041045537 0.051199302 0.07579991 -0.04755515 0.05595108 0.021958463 -0.037413757 0.019707406 -0.0033137668 -0.055197 -0.039715372 -0.08976352 -0.02063305 -0.019123718 -0.06926196 -0.014526058 -0.022320645 -0.026055 0.10330884 -0.025158154 0.004763081 0.016018987 0.04283393 0.037328925 0.025564415 0.033714596 -0.06052024 0.0692273 -0.04868331 0.06892627 0.03079367 -0.04218499 0.05378941 0.018182298 0.063059315 -0.041562617 0.020398727 -0.044527944 0.024553541 0.065120876 -0.04397403 -0.026115743 -0.01637888 -0.05679244 -0.08967006 0.024890203 0.016270839 0.06547615 -0.04117876 0.018215947 0.036934014 -0.07911741 0.038513746 -0.0056896247 0.01156936 0.03814158 0.010326813 -0.027095638 -0.009675383 -0.019584743 0.03364929 -0.0028208613 -0.06525721 0.0050828196 -0.034036465 0.005928229 -0.052646425 0.023398979 -0.022463605 -0.054935627 -0.036497407 0.04740415 0.02094025 -0.019930724 0.04964952 -0.050863087 0.010323331 -0.06719489 -0.035252254 -0.085882336 -0.050722696 0.0021586441 -0.023467438 0.009810557 0.0610459 -0.02164169 0.09560787 -0.0027327952 -0.012005599 0.04771331 0.029067058 -0.021290047 0.0047534797 0.05058102 0.004684794 -0.002152753 0.019338958 -0.013041431 0.014120847 0.031109178 -0.08239256 0.0068369163 -0.062322114 0.031438656 -0.011927555 0.014213437 0.060511712 0.012864656 -0.040281016 0.031839516 0.003903861 0.03912893 0.0038225816
let -0.045074508 0.027754433 0.041061696 -0.0039263787 0.06455535 0.0771556 0.027944515 -0.017390769 -0.012283376 -0.025610264 -0.112925865 0.0024553386 0.027589152 0.01509631 -0.03365328 -0.07153585 0.070460826 0.042214498 -0.092584886 0.059115093 0.02757182 -0.008527961 -0.0791119 0.010397596 0.0050557004 0.015960496 0.043192282 0.03186867 0.106160164 0.059912063 -0.041488353 -0.057938732 0.00035386847 -0.05584099 -0.032194637 0.03782562 -0.09971269 -0.041796062 0.011756476 -0.06604258 -0.037485838 0.01808307 -0.078730226 0.019864023 -0.043439105 -0.045078937 0.016029809 -0.08040583 -0.07490947 0.025807062 -0.056327578 0.058964513 -0.033377487 0.029086905 0.014507025 -0.044645585 -0.0044342964 0.016902888 -0.055364307 0.052415058 -0.00019248156 -0.0060000583 -0.04605254 0.022746656 -0.09872775 0.0136693865 0.011218868 0.0609003 0.019711759 -0.0054121534 0.02436071 0.07760384 -0.0062554674 0.021247398 0.037415225 -0.051404916 0.07786506 0.04698203 0.01586341 -0.036721632 -0.09492749 0.0447139 0.050431956 -0.016524918 -0.025715517 0.007366755 -0.04398733 0.043846484 -0.045134034 -0.06718962 0.00858819 0.006482592 0.023914836 0.06743773 0.033988107 0.06427677 -0.05567688 -0.016573561 0.08624703 0.03380934 0.037380688 -0.0706283 0.07598512 -0.037024114 -0.034340277 0.053384166 0.025035923 -0.07038056 0.011929865 -0.07741092 0.031019263 -0.0045903767 0.011798995 -0.015652005 0.017915037 -0.051910184 -0.04452822 -0.00886748 -0.03968903 0.006559953 -0.07697076 -0.02986452 -0.021902438 0.0322204 -0.04814633 0.049706392 -0.05697276 -0.001560632 0.0946827 0.054763157 0.031652156 -0.049330514 -0.0300453 0.025944158 -0.0010286723 -0.016959803 0.044601094 0.029614305 -0.034352604 -0.02375195 0.03875005 0.0016632916 -0.03757571 0.01354535 0.0007626384 -0.043949056 -0.012639006 -0.03124789 -0.030805258 0.052568913
wonder -0.026162444 -0.01154184 -0.0058929594 -0.01625584 0.034441046 -0.011183102 -0.07012208 -0.009857813 -0.03778459 0.0022091088 0.011845754 0.012894113 -0.07538465 -0.0555436 -0.0418853 -0.035959125 -0.056857016 -0.0051649255 -0.0756749 0.027820583 -0.08423816 -0.019909576 0.017595539 -0.0064293025 0.055029772 0.057670444 0.0033073756 -0.07256861 -0.0034190845 -0.0554411 -0.062421024 -0.0054237014 -0.07307089 -0.010872619 -0.04876026 -0.024494477 0.09547661 0.067043714 0.055400826 -0.013802017 -0.07038889 -0.01766812 -0.064756624 0.009549852 -0.0121922325 -0.05095669 -0.029879188 -0.055715207 -0.03278476 0.0499473 0.029924145 -0.033312414 -0.06181964 -0.014177222 0.019558417 -0.009905431 0.012759709 0.07536417 -0.024993816 -0.0052706706 0.0078125745 0.05334513 0.05503702 -0.015253393 -0.07218117 0.03770181 -0.026453301 0.01669289 -0.013991349 -0.056225207 0.030215753 0.05499063 -0.022083545 -0.05438245 0.010359323 -0.06286696 0.030579554 -0.038842343 -0.03200993 0.0923476 -0.0022581182 -0.011566111 0.084491365 -0.0029109302 -0.004774277 -0.05223237 0.022684714 -0.029898642 0.0040813745 0.038134083 0.059295945 0.0601719 0.05873791 -0.044733185 -0.034883708 0.05954363 -0.0123805385 0.040656656 0.015046255 -0.0164401 -0.041134577 -0.026440155 -0.017770221 -0.0057154023 0.007579146 0.034279827 0.0026294312 0.008933799 -0.00047937024 -0.028537534 -0.053562026 0.0027257686 0.0610997 0.016871054 -0.059564963 0.012126134 0.046452917 0.06348622 -0.02323701 0.05152419 -0.029679263 -0.028381351 -0.016501363 -0.06474848 -0.025413597 -0.06559692 0.054301403 -0.024215259 0.050466612 0.013175656 0.028997745 -0.016407084 -0.027366094 0.014663229 0.00437594 -0.05264525 0.097804144 0.010835496 0.0849056 -0.026224451 -0.06322343 -0.013336294 -0.0116530005 -0.012635414 -0.07851467 -0.040812414 -0.0064151194 -0.091976106 -0.037453588 0.12059519
bye 0.054568794 0.031942666 0.020502968 0.044285398 0.050411645 -0.050244812 -0.00658207 0.05341844 -0.067084454 0.066914886 0.028772328 0.0176228 -0.07262281 0.056572206 0.014281622 0.021283856 -0.0055013853 0.02035891 -0.0067555434 0.0656393 0.052080844 -0.032746404 -0.00834241 0.0046772347 0.047886424 0.04936822 0.01791165 -0.018264197 0.04259754 -0.00073165086 -0.013376905 -0.007455216 0.008845539 -0.055012565 0.01804496 0.0392327 -0.04250526 -0.049104955 -0.014368453 0.0062112897 0.058804877 -0.027410297 0.010862942 0.005590128 -0.04111654 0.052912083 0.04972439 0.0021465323 0.0038169432 0.038585402 -0.05872324 -0.053831384 -0.06549774 -0.028615272 0.008453763 -0.027428726 -0.008701994 0.016873091 0.034747273 -0.026841812 0.055081747 -0.01368817 -0.026047928 0.028250284 0.029588146 0.027636854 -0.059951458 0.037731364 -0.026168697 -0.027207188 -0.046431664 0.036232855 0.044121128 0.03688484 -0.06004247 0.002811322 0.040944982 0.047791366 -0.030065535 -0.04239686 -0.02997099 -0.018325612 0.03847822 -0.011440646 -0.012899205 0.020036517 -0.014521857 -0.03546877 -0.004585744 -0.007397412 -0.053470746 0.03750842 -0.0068678125 0.0012535951 -0.031833082 -0.016077006 0.05983934 0.010852076 0.0067376415 0.062837884 0.04889552 0.024637038 -0.047040515 0.01044037 -0.06325042 0.001948763 -0.046564817 -0.06460046 -0.038754612 0.051355228 0.020157864 -0.021823658 0.04511238 -0.014330424 0.025089644 -0.05071097 -0.074349865 -0.011475697 -0.040043253 -0.019921148 -0.021331007 -0.0143645 0.06332842 0.014850962 0.027616873 0.039882325 -0.02292825 -0.068313986 0.058595967 0.04453798 0.039385367 0.06753663 0.040189777 0.029267775 0.059694704 -0.03983098 0.011986536 -0.05131685 -0.037996463 -0.031778555 0.04939564 -0.0042852466 -0.04625773 0.04332277 -0.018352672 0.035150956 0.0136850225 -0.021111198 -0.028583312 -0.024398081
ran 0.039030585 0.053060073 0.008614781 0.0028434067 0.016249347 0.024871353 -0.009097274 0.056942023 -0.07117738 0.04662746 0.033447195 0.046736892 0.0026388143 0.014512725 0.04211689 0.020606797 -0.06331189 -0.056543823 0.03883475 -0.019558081 -0.022827258 -0.022155851 0.0083082225 -0.048210878 0.041047815 0.031949945 0.06664602 0.011592488 0.001223782 -0.051217046 -0.023672642 0.06286193 -0.0013366163 0.017356751 -0.004343114 0.045578558 0.067737415 -0.037510093 0.023029013 -0.030943755 0.08276099 0.060691968 0.012067445 0.04330681 -0.046636708 0.009850032 0.03290209 -0.0066528483 -0.016643522 -0.009292059 -0.045941543 -0.031964954 0.027124332 0.0024100333 -0.060249094 0.020143926 -0.01634317 -0.019411633 0.04507897 0.045901384 -0.04495304 0.064361684 0.042786177 -0.022094427 -0.046306808 0.04161841 0.014711819 -0.0057527134 -0.0527084 -0.015685355 0.015662463 -0.043445453 -0.010216993 -0.05893553 -0.052720673 0.00012517307 0.05484589 -0.0067506963 -0.007840121 0.021795439 0.048740778 0.09062979 -0.0097667165 0.0052352394 -0.025938788 0.06896489 -0.011589014 -0.032066748 -0.029266872 0.054344345 0.012092867 -0.00024479814 -0.022398515 -0.03862775 -0.02384081 -0.034207173 0.039328914 0.045550134 0.009914507 0.046106365 0.018269794 0.028990705 -0.023799695 -0.002834061 -0.025020927 -0.0041087386 -0.04182557 0.022477508 -0.024902357 0.011285476 0.008609093 -0.050287813 -0.058417708 -0.05470549 0.004772819 -0.016068194 -0.029152514 0.014057929 -0.025848787 0.049548432 -0.021208063 0.048612032 0.06269466 -0.009700878 -0.0542224 -0.0385248 -0.048056673 0.005324833 0.05641252 0.031558502 0.06098967 0.012019754 -0.042444102 -0.039175343 -0.020239316 0.020767342 -0.06449563 0.0033737756 -0.044087864 0.07398913 -0.019425113 0.0475723 0.043048076 0.0014831058 0.033298876 -0.022840992 0.05079523 0.061148707 0.018958773 -0.05448066
hate 0.005807905 0.025137533 -0.002641519 0.0054358607 0.057845134 0.022744963 0.022823123 0.02423836 -0.055882752 -0.044109076 -0.04021877 0.034173965 -0.034305975 0.0013326491 -0.026893012 -0.06925832 -0.0048801983 -0.059144944 -0.05900689 -0.006984709 0.031743478 -0.011660985 0.029270703 0.01186878 -0.014999301 -0.034354612 -0.037003852 -0.047406264 -0.005910223 -0.013931125 -0.086823806 0.026679026 -0.067998394 -0.035182003 -0.025815872 0.04386428 0.024607727 -0.032238074 0.06119771 0.006631228 0.06494381 -0.05863327 0.051993575 -0.057645526 -0.01695166 0.012451131 0.055016313 -0.051999167 -0.027224412 0.039759427 0.033926774 0.004180188 -0.0018440936 -0.03990917 0.06256806 -0.03552561 0.018355038 0.071138516 -0.074028455 0.04943009 -0.05058644 -0.03300503 0.01719419 0.02021612 -0.06173678 0.016476544 -0.010926888 -0.0039727883 -0.04240343 -0.03240269 0.041231696 -0.0015645906 0.038720857 0.029493885 -0.03828801 0.03642769 0.074953906 0.051085696 -0.020141536 0.077807024 -0.03655241 0.036281098 0.026559675 0.025680793 -0.051653694 -0.030961959 0.034839865 0.061049405 0.057356972 0.041405518 0.066340104 0.018875232 -0.0042094532 0.054809406 -0.03605608 0.0067054206 -0.039532818 -0.035272706 -0.0008419121 -0.023843888 0.058357183 -0.004407484 0.017023347 0.016097263 -0.016886773 0.07182854 -0.017674074 0.02021894 0.025458872 -0.038437463 -0.044938616 0.06139699 -0.04965793 -0.06542966 -0.0332208 -0.015782772 0.031940725 0.0026186742 0.027303861 -0.00256141 0.0067820833 0.013954702 0.007273454 0.004199089 0.064713135 0.0470158 0.061580017 0.061931808 -0.06490014 0.005929856 0.03376069 0.023534058 0.05729758 0.026737418 0.02460523 0.01799049 0.02600413 -0.005571006 -0.01893574 0.037949618 0.07463276 -0.05821151 0.019664707 0.02311993 -0.06932557 -0.00599679 0.0046677026 0.006805053 -0.02954336 0.07760271
venture -0.06391626 0.048078336 0.025026282 0.043019976 -0.009127144 -0.056203347 -0.0033047008 0.02765762 -0.049614925 -0.0615344 0.046175685 -0.04966725 -0.06011815 -0.0110429935 0.013227113 -0.049790505 0.037983887 0.03241311 -0.04304645 -0.0131689375 -0.043761283 -0.03722642 0.063836426 -0.011284026 -0.030882094 -0.008977034 -0.013451797 -0.05828207 -0.009137653 0.0547781 0.07132307 -0.06558045 0.031491425 -0.0152294515 -0.00035270385 -0.014661044 0.00039291254 -0.05562391 0.022921903 -0.046416007 -0.06983048 -0.04200167 0.025544345 -0.03313946 -0.03514032 -1.8558232e-05 -0.06675717 -0.069659285 -0.012424842 -0.0018178369 0.0040863417 0.048477598 0.009123022 -0.017455434 0.015051174 0.051610157 -0.048660953 -0.06188466 0.035300724 -0.018618159 0.027929597 0.0001634832 -0.020791791 -0.029995864 0.04456528 -0.0076547093 0.04851222 -0.030484647 0.0006890687 0.0530416 0.06142005 0.0101512205 0.010579253 0.033662573 0.039617278 0.0030109484 -0.056922194 -0.059828736 0.049761225 -0.008070224 0.022056984 -0.07004415 -0.05284709 0.064036824 0.05326314 0.015749171 0.018858222 -0.05727159 -0.03401594 0.01757461 0.047343824 -0.056094345 -0.046967983 0.032985937 -0.022234695 0.029396549 -0.0183185 -0.05041696 -0.014894033 0.034610428 0.0056401435 -0.06270975 -0.024730166 0.045623027 0.008463186 -0.0034292038 -0.038703617 -0.009149794 -0.04476991 0.0068366495 0.06743402 -0.03158103 0.03566788 0.020691652 0.023246309 -0.010888592 -0.02510029 0.059325915 -0.034940552 -0.0026570545 0.014487078 0.024994595 -0.062298343 -0.0123769585 -0.051866166 0.0021108545 -0.062055696 0.06356591 0.03626888 0.040056914 -0.04837008 -0.07714976 0.014519151 -0.0048290947 0.0404235 -0.021704067 -0.030467084 0.050842293 0.029592138 0.010272809 0.04790926 -0.0504824 0.032794885 0.028947031 -0.054309636 -0.007916604 -0.033692405 0.05221061 -0.051008638 -0.060701024
matter -0.0120114265 -0.018885244 -0.041140947 0.080044664 0.021599386 0.083864905 -0.06791667 0.0041101715 -0.0419997 0.03341581 -0.04201241 -0.029125227 -0.017070903 0.017407158 -0.05533879 -0.0406361 -0.0043528685 -0.05592338 -0.036521856 -0.039345544 -0.022375613 -0.05170237 -0.01592368 -0.0044215554 0.06258206 0.0510454 0.056124646 -0.022161901 0.0077725397 0.018213714 -0.018124245 0.020450983 -0.01118754 -0.019696867 0.02419458 0.023380464 -0.05991089 0.051637568 -0.005594601 -0.07283753 -0.010708172 -0.0074973437 0.014113232 0.051850673 0.04653431 -0.0040644933 0.07392217 -0.0145704895 -0.02697476 -0.048936166 0.03929969 0.01642246 -0.0018528237 -0.0028655236 0.008235021 -0.017578682 -0.066787116 0.05629613 0.0153122125 -0.035273265 -0.04679829 0.041629743 -0.012813749 0.0070140916 -0.0039946036 0.080563515 0.040638953 -0.047203004 0.010892251 0.01289758 0.017471524 -0.0059766113 0.043446325 0.054973062 -0.008043879 0.016152961 -0.05095882 0.01284458 0.0059189918 0.023271928 -0.039519627 0.0072051804 0.043923113 -0.07922665 -0.0045975987 -0.039970033 -0.06131338 -0.009976376 0.014338672 0.03912119 0.010401538 0.05722075 -0.03211481 0.042824104 0.007410818 0.005291155 0.013117997 0.037237387 -0.013733907 0.043573607 0.056349564 0.032226793 0.033186093 0.046601027 -0.07245626 -0.040422227 0.02924488 -0.02265001 -0.063792475 -0.047696423 -0.013223594 -0.00976076 -0.06574062 -0.030373959 0.026331002 -0.06061062 0.013346017 -0.019978598 -0.0028470128 0.04568109 -0.058188513 -0.004108721 -0.047221504 -0.017597979 0.06421312 -0.08661516 -0.05281663 -0.019153876 0.06741355 -0.009270318 0.023987968 0.056883898 0.034597334 -0.0029145647 0.020488631 0.011552656 0.06963478 0.06423241 0.07245861 0.070416376 0.04307452 0.0573939 0.07011118 -0.030938188 0.056316018 -0.04095421 0.037093405 0.051418025 0.065019995 -0.028401526
hippopotamus -0.06845354 0.060647003 -0.0010399146 0.06724675 -0.0089028375 -0.049087968 -0.05491644 -0.055194646 0.060517 0.0318093 -0.017473457 0.0318692 0.06406781 0.0021252732 -0.016006965 0.048138574 -0.026095744 -0.046872117 -0.03896232 0.0052515445 -0.028600885 0.054076985 -0.033485718 0.062237155 -0.07116365 -0.036483176 0.06932283 0.054821115 0.07505436 0.022065282 0.004251403 0.029226728 -0.05054592 0.026718179 -0.009811596 0.0029957932 0.022100208 0.0057815323 0.058768254 -0.036763795 0.0124568315 0.0415309 -0.014863779 -0.03015844 0.036759734 0.023056721 -0.024753343 -0.013246983 0.0034290645 0.04969865 0.039643258 0.04747479 -0.042327568 0.017989688 -0.027823666 0.026911678 -0.008548135 0.04709336 -0.04780593 0.043292705 0.03706037 0.029170414 0.044512015 0.032807942 -0.0079488065 -0.0064291228 0.02723645 0.024377739 -0.05676388 -0.02799267 -0.0022514826 0.058967613 0.049287345 -0.02100737 0.06619311 -0.052276675 0.04760494 -0.07501663 0.054281935 -0.050512124 0.04742144 0.051361915 -0.056507662 0.034688406 -0.01985255 0.015003255 -0.010627243 -0.06065224 -0.060428623 0.0076443283 0.051960405 -0.047963027 -0.014790818 0.029815722 0.06933787 -0.0070080743 -0.06767921 -0.052784033 0.01100808 -0.009017462 0.028265078 0.0353354 -0.012844761 0.012147597 -0.0065183775 0.021026716 -0.023329662 0.042944185 -0.02743606 -0.06521999 -0.05738793 -0.03545514 0.04029616 -0.049318004 -0.014617786 0.035217304 -0.0014068009 0.03636795 -0.045788027 -0.023134595 -0.050524577 0.05110648 -0.018714515 0.037588023 0.04595241 -0.0026929001 0.009213007 0.037552603 0.03464523 -0.07156734 0.0672636 -0.040346313 -0.034292918 0.04128683 0.064941324 0.048199642 -0.02141497 -0.0013917306 -0.05942134 -0.039851636 0.010954654 0.06629584 0.056734096 -0.051247567 -0.047406845 -0.07528204 -0.0064348634 -0.012503527 0.07191745 0.038415365
yesterday -0.01758541 -0.0062114904 -0.033328492 0.07822247 0.04492767 -0.011179653 -0.017717963 -0.049274802 0.043849498 0.016850732 0.034468118 0.036111407 -0.009405753 0.013983067 0.03993061 -0.01977296 -0.02707763 -0.013590801 -0.0011311397 0.00905756 0.06621376 0.019948421 0.019923711 -0.043848597 0.018771918 -0.0804401 0.04418703 0.014857583 0.009038147 -0.05061435 -0.07130446 -0.07077989 0.009181257 0.02293848 -0.035631556 0.043697406 0.061550125 0.005760991 -0.03592773 -0.03540103 0.033682983 -0.02207176 -0.00061127497 0.042239513 -0.031197881 -0.007644047 0.00048249017 -0.019558266 0.0467617 -0.06049721 0.012084145 -0.06073737 -0.00085844856 0.022572784 -0.0084767975 -0.048388034 -0.00041307893 0.076550074 -0.03242065 -0.045477003 -0.05856251 0.020723702 0.026143372 0.019390708 -0.0740655 -0.0074381474 0.04811308 0.08079599 -0.050732806 -0.0036835326 -0.049056463 0.009220758 -0.05100458 -0.06553247 0.050153505 0.018847847 0.03221857 -0.01608722 -0.04010107 0.0516549 -0.00755059 0.04591403 -0.03501273 -0.00902215 -0.034035683 -0.047308974 -0.0051286463 -0.016565438 0.05697871 0.05097234 0.07035561 0.050305337 0.066756636 -0.037362177 -0.037896313 0.014640846 -0.010180267 0.060292505 -0.015707636 0.023085602 0.07442364 0.027780805 -0.039214715 0.0017911078 0.04490456 0.03512624 -0.026171934 0.018109648 0.025256772 -0.053448185 0.0030091705 0.054825433 -0.03393393 0.0076672924 -0.038947586 0.005193062 0.014399767 0.06562269 -0.0015172499 -0.06735109 0.02586946 0.023380248 0.018152162 0.04958758 -0.016105559 -0.06424485 0.048660003 -0.06624214 -0.032927644 0.038709577 0.005222449 -0.03280604 -0.054681484 -0.021999225 0.020641131 -0.059759486 -0.012219798 -0.006158827 0.025770342 -0.07050958 0.06844901 -0.027812244 0.0015617538 -0.011815773 -0.031762403 0.06468028 0.047447763 0.004873617 0.010177996 0.023537261
get 0.018405227 0.026622746 0.024748811 -0.0420576 -0.038917013 0.05128343 -0.080069676 0.026998516 -0.05694884 -0.05628002 0.041508187 0.034863017 0.0009143752 -0.063538745 -0.039805386 0.0996113 -0.0038504591 0.033211876 -0.051062535 -0.022111963 -0.039201982 0.0036591925 -0.0041344427 0.068107136 -0.009869529 -0.011421755 0.019893212 -0.030541165 0.08817211 0.061956458 0.04800327 -0.064951815 -0.009784143 -0.04556229 0.0020489248 0.026048472 -0.026064517 -0.024535429 -0.00861267 0.03745603 -0.05863034 -0.0493047 0.013753234 0.05848255 -0.06077932 0.052161463 0.031480566 0.020070143 -0.0057012667 -0.0565433 0.08096543 0.058431894 0.0048461924 0.08965493 -0.042919803 0.035365537 -0.010808775 -0.107200116 -0.08113941 -0.012846779 -0.06841466 -0.042033978 0.011031843 0.030443495 -0.120161235 0.064200416 -0.03926023 -0.010387169 0.014292381 0.03744483 0.0028877277 0.05672654 -0.050450735 -0.024714326 0.039976057 0.06301746 -0.0015061882 -0.024890425 0.025831375 0.02772106 -0.039572183 0.029891163 -0.0034732425 0.03930635 0.030450381 -0.0023303255 -0.008838578 -0.0075493874 -0.09332123 -0.048087373 -0.006714789 0.07764071 -0.024235936 -0.059912715 0.038734272 0.026158283 0.004897473 -0.014856065 0.06540786 -0.020944534 0.047591582 0.024913512 0.032404125 -0.07304511 0.054318406 -0.03173371 -0.013893717 -0.079528086 -0.034452736 -0.012541043 0.0041656415 0.044947322 -0.005023788 0.05913849 0.05047361 -0.025257144 -0.013097167 -0.023942795 -0.007848473 -0.010422186 -0.011061951 -0.047914527 -0.009084008 0.0852066 -0.026198145 0.04162785 0.011792494 0.055614855 0.034232244 0.06303508 0.02321548 0.01858945 -0.023012094 -0.01723807 -0.062689215 -0.031940013 -0.063970335 -0.01749891 0.009636217 -0.026809404 -0.0101376325 0.06084573 -0.04184929 0.019168738 -0.02289962 0.015870707 -0.05938251 -0.05397273 -0.02049679 -0.040433127
bats 0.0457735 0.022677008 0.01999303 0.024086224 -0.024875095 -0.019794734 0.025699181 -0.03292054 -0.062155105 0.0011250842 -0.06267329 -0.037553325 0.02052629 -0.012656506 -0.0295105 -0.05749273 0.004818919 0.00474574 -0.025908548 -0.014450978 -0.009324604 -0.028448088 0.031910338 0.051666744 -0.013635468 0.05057659 -0.034461647 -0.055892758 -0.061305013 0.04475333 0.04684984 -0.018979039 -0.045998227 0.03359849 -0.054318737 0.05074459 0.057912454 0.0052859522 0.08582312 0.063606024 0.07073512 -0.05590097 -0.011977099 0.020751743 0.016733564 -0.075609185 0.06263856 -0.050248947 0.015795838 -0.06183794 -0.05127471 0.0025593922 0.011032404 0.0329054 -0.0388324 0.043519907 -0.035924036 -0.0338789 -0.08694374 -0.0624402 -0.010302246 -0.03379408 -0.038321186 0.025549257 -0.04610003 0.041097753 0.069113836 -0.052033324 -0.05509108 0.06234284 -0.049081977 -0.0027626872 -0.048746165 -0.0015626661 -0.01427533 -0.037299853 -0.066218406 -0.059906993 0.0123095 0.03219629 0.030932829 0.024082156 0.015858633 0.019183462 -0.034825116 -0.059731297 -0.008086239 0.0064697196 0.0339908 0.009649108 0.052684166 0.016930409 -0.019145228 -0.05646589 0.07814727 -0.0498652 0.008556769 0.018828839 -0.025896069 0.05177389 0.028423173 0.012623059 0.016412975 0.070180915 -0.028234074 -0.02666979 -0.031828858 0.053093955 -0.03455127 -0.07179885 -0.059910074 -0.06918444 -0.063868426 0.049029488 0.0005786142 -0.015684921 0.04554778 -0.013531037 0.055701192 -0.040055387 0.018231217 -0.06423242 -0.033128187 0.03543761 0.074864976 -0.0004813479 0.019707566 -0.023246184 -0.024694936 0.058289092 0.057323728 -0.07363303 -0.059141308 -0.0067129508 -0.03124901 -0.050710466 -0.021771697 -0.01625857 -0.008968767 0.019463954 0.005315749 0.019274237 0.01770727 0.0659492 -0.019322876 -0.039466992 0.055131726 -0.008384363 0.071333855 0.05278668
tale 0.03855218 0.068207026 0.057939265 0.04160082 -0.012700169 0.056539975 0.038025785 0.005570024 -0.012535534 -0.01743957 -0.02661891 0.013922473 -0.034669947 0.010333701 0.001419333 -0.0431247 -0.011083977 -0.00264147 0.026610706 -0.055587497 0.013894836 -0.087370165 -0.064205155 0.03852169 0.030463414 -0.026725557 0.026664205 0.070975706 0.011857901 0.02467472 0.05607518 0.04873403 0.022538984 0.016568072 0.03214462 -0.024157912 0.0070843054 -0.06240485 0.05882664 -0.005934349 -0.015106235 -0.03630543 0.0043978975 -0.044833377 0.036972653 -0.045458194 -0.022607751 -0.012297503 0.044733327 0.029849177 -0.042825956 -0.036754258 -0.09215357 -0.018963264 -0.05892199 -0.06996618 -0.037835974 0.014244329 0.0498157 -0.01941015 0.03563593 -0.031919766 -0.01164636 0.045021795 -0.047642853 -0.016115537 -0.074277475 -0.029058902 -0.0037832516 0.043006152 -0.062921144 0.038869992 -0.03982814 0.019810284 0.0063578994 -0.005466357 -0.07001257 0.028954966 0.04697201 -0.07679167 -0.030922966 0.059949774 -0.043330044 -0.05461675 0.008532682 0.011508985 0.026926806 0.02841353 0.047706887 0.030713651 -0.01051172 0.040949896 0.040400725 0.011678685 0.03667629 -0.030268244 0.056705847 -0.054109503 0.054007534 0.053013977 -0.07037735 0.037847772 -0.032165565 0.05580685 0.03741637 0.0048657414 -0.050519243 -0.059940167 -0.0037509934 0.008078216 0.017073471 -0.0050864844 -0.04639711 0.058125615 -0.016181009 0.039531913 -0.023873115 -0.016979374 -0.04186463 -0.07852787 0.02364838 0.018291539 0.03718126 -0.00286886 -0.077718444 0.056959495 -0.048271928 -0.030883636 0.008266525 0.026511302 -0.03641944 -0.04504006 0.0282468 0.043074504 -0.019414991 -0.049871717 -0.0023222452 0.0378981 -0.060476627 0.0049887174 -0.09278077 -0.057629585 0.052294627 -0.047775067 0.06730249 0.014939483 -0.042518772 -0.053042527 0.009439928 -0.0350754
hedge -0.022046752 -0.040349565 -0.029967703 0.010655817 -0.004859753 0.03614372 0.010453507 -0.06863971 0.024150686 0.025954532 -0.07761409 -0.03555756 -0.015729846 -0.025082838 -0.050636932 0.055990335 0.05093828 -0.046519227 0.01780309 0.037222654 -0.033928435 0.056226566 -0.0532199 0.046762243 -0.013798607 0.046910707 -0.06243486 -0.034262743 0.03962061 -0.07369419 0.0033618293 0.036994826 -0.046692915 0.065661184 -0.010726613 -0.042006154 0.05531902 -0.008661359 0.03338093 0.0004989753 -0.02527614 -0.007825646 -0.025436208 0.0058824564 0.050521724 0.035346836 0.007427035 0.00916227 0.056048326 0.04832045 -0.029252078 -0.011669555 -0.041448984 -0.004069967 -0.05651 -0.01770295 -0.01605491 -0.022115495 0.038012166 -0.04282463 0.0034233762 -0.04989645 0.06967826 0.026330441 0.015680749 -0.045604203 0.044187568 -0.005633887 0.011788503 0.0015176507 0.058259748 -0.010288155 -0.031052107 0.023746682 0.034876447 0.02969211 0.05946199 0.010050107 0.02556846 0.05409876 0.04455956 -0.012123273 -0.058179457 0.03005799 -0.006886997 0.0322199 -0.006591856 -0.057970118 -0.057326775 -0.035943635 0.052681737 0.011461875 0.018999133 -0.04460587 0.024200428 -0.04745819 -0.017520968 -0.0125228 0.0010942117 0.036103077 0.026346587 0.01033317 -0.07033519 0.005118643 0.048376765 0.06728573 0.020263352 -0.064200096 0.06717783 0.0123910885 -0.016286362 -0.052784815 -0.017844023 0.029504519 0.01023533 -0.06273041 0.07280665 -0.06919722 -0.069883615 0.009698397 0.053490832 -0.05250666 -0.025885751 0.012417701 -0.06419747 0.07561251 -0.019018035 -0.021739567 -0.009792481 0.042151645 0.052650634 0.058670405 -0.049802706 -0.01860149 -0.037807636 0.06923396 -0.025112635 0.004803515 -0.0145478435 -0.028901706 0.008713087 -0.021491462 0.06279352 -0.043182224 0.030395955 -0.011186931 -0.013336741 -0.063940205 -0.02078539 -0.023300862
nicely 0.05620723 0.06362873 0.058042414 0.037562143 -0.05170207 -0.035624046 -0.07931908 0.024286015 -0.060322057 -0.025205467 -0.055130236 -0.013714248 0.07426131 0.020778926 0.03981217 0.07120569 -0.054886967 -0.017414305 0.00561519 0.05527803 -0.032028887 -0.06518992 -0.0067115035 0.03802458 -0.05744424 -0.052688807 0.042181738 0.034776215 0.026376935 -0.00094422384 0.017913686 -0.05003892 0.02636706 0.041944817 -0.00023383368 0.018525556 -0.007423767 0.04731887 0.031022979 -0.009314124 0.056402165 0.04551893 -0.063569605 0.010820842 -0.040707607 0.031223405 0.037364174 -0.053441558 0.05411229 0.053091045 0.042928837 -0.029525414 0.060889143 0.01735515 0.02349134 0.059584785 -0.03345298 0.010532055 -0.053193726 -0.03704739 0.044471934 0.01235554 0.041483764 0.024088157 -0.05729766 0.043391794 -0.067953564 -0.0004818146 -0.007097989 0.009049902 0.028483491 -0.06711689 -0.016267365 0.054241717 0.0007108097 0.042126074 0.0638126 0.018230895 0.040607598 -0.0061419597 0.035252884 0.053790696 0.028623063 0.032001995 -0.02356049 -0.020239849 -0.035476733 -0.03704177 0.06522536 -0.046030983 -0.012535554 0.05545649 0.0039616404 0.020526694 0.044660494 0.024452947 0.018471329 -0.053819206 0.036229495 -0.007529309 0.032816775 -0.045713574 0.022885444 0.035948887 0.010743273 -0.024562003 0.008603538 0.05135052 -0.07220225 -0.008819045 -0.040715747 0.014399547 0.028613457 0.018935712 0.01964368 0.044803366 -0.0067827366 -0.024421126 0.017745659 -0.005149701 0.07145273 -0.049920425 0.043380987 -0.0010157888 -0.05270752 -0.05248393 0.012744465 0.049486674 -0.0040494725 -0.056204606 0.0022240556 0.031163992 -0.04510088 -0.066550195 -0.007788547 0.023158528 -0.0036219514 0.056251775 -0.024494817 -0.0061721094 0.049995873 0.034319725 0.04703823 0.043882944 -0.025536444 -0.022302352 -0.06892563 -0.028543057 0.05429007 0.044023227
