1182 50
comfits 0.0037046142 -0.022916619 -0.047227874 0.02544631 0.046697155 0.0058110612 0.03190354 -0.008050371 -0.011516718 0.009544201 0.035549685 -0.11619198 -0.026268525 -0.022044249 0.05356143 -0.058819547 0.008112973 0.09392308 -0.022993503 0.009956869 0.0023191175 -0.027966505 -0.09143895 0.009696293 0.07581197 0.08942557 0.111657284 0.049089946 -0.027862322 0.015557239 0.047967065 -0.057126738 -4.477834e-05 -0.00864236 -0.048787776 -0.06320702 0.021450443 -0.10889765 -0.019761242 0.0875126 0.035219625 0.08837132 -0.052979983 0.036692206 0.0037372166 0.102655314 -0.04669113 -0.08709725 -0.0008084363 -0.033449236
moment 0.021755517 -0.016282374 0.016759384 0.013851296 0.017418513 0.06323515 0.026193876 -0.018381154 -0.01189344 -0.07143647 -0.0140795745 0.021209069 0.030666571 -0.026964543 -0.031135062 -0.054234896 0.00851989 0.03753662 -0.03852593 0.003875728 0.036005188 0.018240994 -0.0058465987 -0.002108653 0.0012945705 -0.014267807 -0.001978776 0.0025804746 0.065387666 -0.07118684 0.035008892 0.03824913 -0.010045639 -0.06559643 -0.018104225 -0.06246427 -0.055879213 0.0020726828 0.0030833941 -0.080800876 -0.01176688 -0.053761154 -0.012752005 0.03156365 -0.016005121 -0.0030726234 -0.036371905 0.037749324 0.049462352 0.038295582
pointing -0.03880088 0.01773037 0.026785977 0.0065406915 -0.022391716 -0.027733563 -0.030229243 0.0761929 -0.029775647 0.04663127 -0.0268381 0.051113788 0.040385082 0.016233116 -0.034650255 0.050219193 -0.029970076 -0.027375145 0.033201844 0.04268406 0.038997307 0.034603972 0.020221433 -0.013256348 -0.010483992 -0.027533993 0.008394613 0.005198233 0.035980362 0.024739658 -0.021580722 0.07322993 0.05774926 -0.020326234 0.030676939 -0.029402018 0.0042407867 -0.030772047 0.033517938 -0.047482036 -0.03420507 -0.013646153 0.0067405812 -0.040239606 0.025322432 0.032018248 0.06732103 -0.007557812 -0.044313338 -0.030317537
seems 0.014116022 -0.010210867 0.016809916 0.0024324064 -0.024732571 0.055571828 0.049791656 -0.038341217 -0.034534544 -0.0021059448 -0.037315138 -0.029126242 -0.03729575 0.006214039 0.015650088 -0.048523236 0.08175804 0.009351657 0.047605675 0.010441946 0.033725653 -0.06865966 -0.0040764613 0.00039094925 0.015260603 -0.013835865 0.016891643 0.0090122195 -0.009233008 0.0045093456 0.0065618195 0.018252527 0.00833619 -0.014492101 0.020224728 0.058231447 0.0047598085 -0.056872156 -0.07353986 0.014630004 -0.00403757 -0.032663394 0.002604281 0.044981707 -0.05583881 0.04152676 -0.06709289 0.03561154 -0.06325407 0.05205068
and 0.24405026 0.061263975 -0.24905723 0.30857208 -0.2258564 0.15969644 0.113563485 0.03318137 -0.30013856 -0.27973807 0.064406596 -0.17630126 -0.32071722 -0.3364792 0.16703658 -0.31861138 -0.05426104 -0.0072050444 0.27265713 -0.22896214 -0.100195386 -0.25094607 -0.41872713 0.16909131 0.18942083 0.09954688 0.12534302 -0.05089959 -0.011567223 0.18335626 -0.108325295 -0.2669436 -0.21940033 -0.29152632 -0.123234816 0.103890345 0.05918855 0.007814988 -0.22539215 0.18976371 0.17739633 0.29874262 -0.34636718 0.073667765 -0.13789175 0.4499328 -0.06606288 -0.17986776 -0.23193032 0.04924823
distance 0.025237566 0.057163436 0.04007481 0.019291786 -0.04269088 -0.075634785 0.02246581 0.079078175 0.014856993 0.10060034 -0.007330813 0.01282588 0.010715954 0.014398119 -0.057903312 0.013435865 -0.10098677 0.026454698 -0.016895778 0.072908126 0.08239233 0.016318986 0.0018204222 -0.06338933 -0.062129572 -0.060302068 0.051235896 -0.031202184 0.09114411 -0.05104027 0.07816018 -0.024054565 0.073200144 -0.003594427 -0.015281323 -0.037152007 0.038075406 -0.0356489 0.004477166 0.031057939 -0.09391063 0.035681583 0.03950341 0.027009793 0.10146201 0.022426952 0.09176412 -0.03275768 0.013611458 -0.04667457
day 0.06103559 -0.014137462 -0.055288613 0.034141164 0.052448064 0.10177467 0.03501864 -0.06772863 -0.07467494 -0.02020948 0.047568906 -0.024021618 -0.017525725 -0.052118655 0.057719342 -0.069168776 0.13715476 0.097520754 0.13375755 -0.06747079 -0.06984747 -0.052486155 -0.06814748 0.08613695 0.06685572 0.043010768 0.037669197 0.045672398 -0.041421894 0.039227396 -0.030158414 -0.097794555 0.00037621206 -0.039846577 -0.052448478 0.08921054 -0.007075159 -0.01806126 -0.06506049 0.06957031 0.11092037 0.061533134 -0.047453653 0.026328985 -0.035303805 0.04189389 -0.043203726 -0.070287384 -0.067949 0.03453941
after 0.11087854 -0.07871201 -0.09060169 -0.06119227 0.04443524 0.08076516 0.14837965 -0.039929852 -0.0036478085 0.08681946 0.12145774 -0.042867195 0.023615524 -0.016866438 0.1422342 0.0030058748 0.038619876 0.051454812 0.0031536028 -0.015039526 0.023322329 0.01831963 -0.12231602 -0.0074422737 0.086417444 -0.07007058 0.05718709 0.031260207 -0.0030068657 0.056705024 -0.0638093 -0.03744689 -0.04215403 -0.022510977 -0.05225669 0.0035438791 0.07227539 0.013474451 0.0016289996 0.0035970416 -0.0047702463 0.14418387 -0.1203137 0.074525945 -0.0755911 0.05618016 0.015698496 -0.044183195 0.08466386 0.085491516
own 0.06749749 -0.06766182 -0.07029945 -0.006679131 0.12180899 0.03586494 -0.011188969 -0.1450247 -0.091583475 -0.11229783 0.01046483 -0.06332381 -0.036516502 -0.036832795 0.10638493 0.009496626 0.09067691 -0.01070132 0.14495678 -0.0011868253 -0.15660043 -0.007936888 -0.037689127 0.094392836 0.11104802 0.08639816 0.0109134 0.040601145 -0.16333504 0.07297437 -0.09470579 -0.11992667 -0.09869104 -0.11329653 -0.09865476 0.103343196 -0.12136006 0.0069434033 -0.0806373 0.019873908 0.06545084 0.093784854 -0.042768914 0.048484854 -0.12547013 0.05793351 -0.12355551 -0.073705934 -0.059699845 0.10374607
life 0.0016561669 -0.01411684 0.044762194 0.023732964 0.021432938 0.0009862746 0.001421449 0.035004143 0.0021161488 -0.039570566 -0.06362487 0.004546269 0.016603338 0.039747287 -0.005977873 -0.027958715 0.004599068 -0.015373082 0.006208974 0.036469482 0.039435606 -0.018076085 0.06812315 -0.00062271045 -0.024524322 -0.0065407446 -0.04360429 -0.006025451 0.004918764 0.009518025 0.04507434 0.008684456 0.02846219 0.0010963427 0.008618545 -0.016678553 -0.030047536 -0.019179197 0.064593285 0.0052150115 -0.041580115 0.025895514 0.015065807 0.0034226654 0.01604261 -0.03177993 0.0015312576 0.052240025 0.03601983 -0.05330036
doth -0.018867023 0.0013840608 -0.060862727 0.004935298 -0.04727406 -0.03535789 0.0716148 0.03326255 -0.05422634 0.008095154 -0.0060539306 0.012703259 0.032631777 0.047517706 0.0023715107 0.039049808 -0.057028037 0.044209078 0.018033614 0.022003787 0.005678746 0.04960608 -0.0625888 -0.040034935 0.009874754 -0.03160269 0.0681016 0.043607425 0.011918565 -0.01964841 -0.017058095 -0.015217627 -0.058308605 0.03885888 -0.059934895 -0.007276358 -0.0134001905 0.018747674 -0.03768989 0.02158094 -0.002207144 0.013267434 -0.06783073 0.05862234 0.03859509 -0.010617273 -0.03106935 -0.014533746 0.023431363 -0.044765636
bright 0.029590229 -0.10663162 0.008209407 -0.055247866 0.047954995 -0.009549637 0.020326229 0.027940944 -0.07464918 -0.01803227 0.0630067 -0.021875989 0.0154295005 -0.01442138 0.0014770721 0.007935603 0.033051193 0.037107997 -0.0270082 -0.062128864 -0.026106546 0.04555366 -0.025965247 0.0609674 0.03401462 0.054184232 -0.028915463 0.05656489 0.017977638 -0.032720767 -0.055892445 0.025123555 0.029150866 -0.10387418 0.020131096 -0.014041167 -0.04733405 -0.052002408 0.025771251 0.0367198 -0.018779162 -8.962088e-06 -0.036229793 0.0015848565 -0.029195115 0.010086712 0.0012679328 -0.021047596 -0.018761642 0.06494074
disagree 0.052369427 -0.03813954 0.024729297 -0.010869513 0.01493349 0.008897754 0.021078615 0.002288366 -0.0072110393 0.023906326 -0.043141764 -0.027184583 0.041043933 -0.013795717 0.003651401 0.043132056 -0.0054598353 -0.032117486 0.009330584 0.0030469773 -0.04818643 0.009111436 -0.033500724 0.003527623 -0.03671037 0.044855133 0.032704152 -0.036493357 -0.0056790076 -0.008705926 -0.016550682 0.039340816 -0.0039608763 -0.00106781 0.019222666 0.003927511 0.01321531 -0.0021805405 -0.026541121 0.018490475 -0.0026462208 -0.034794338 -0.022674661 -0.052449234 0.009716456 0.019853132 -0.021722846 -0.010398511 -0.02263854 -0.015608487
measure 0.026506215 -0.0037956908 0.06585079 0.0451204 -0.029527724 0.0016103677 0.023930157 0.011231883 0.05413744 0.06516295 0.001973804 -0.04129906 0.014769547 -0.017201789 0.014198388 -0.022958566 0.004101938 -0.05903634 0.03513543 0.005967737 -0.024062246 0.04602448 0.0719874 -0.044237137 0.0026981933 0.017676989 -0.0749013 0.019248659 -0.001812007 -0.052029964 -0.012385384 -0.0026992967 0.05234879 -0.043489285 0.0768057 -0.009221151 0.05380334 0.008110014 -0.011373967 -0.049189247 -0.0039415904 -0.036201127 0.017787235 -0.013827521 -0.013576661 -0.010362555 -0.0017580949 -0.017394852 -0.05328703 -0.017871547
uncomfortable -0.01830822 0.00042331693 -0.02522746 -0.025351554 0.031214382 -0.025235342 0.026617408 0.024722226 -0.04534585 0.015837807 0.048408493 -0.02884471 0.013619166 -0.004628069 0.0003739813 0.025693493 0.06106573 -0.01632225 0.03949035 -0.0125932265 0.0035367531 -0.031789456 0.011784487 0.04328344 -0.020939544 -0.013103199 0.020730048 0.0016588928 0.008476835 -0.024554184 -0.05646422 -0.054400485 0.033170473 0.038112752 0.005663368 0.029681377 0.009653779 0.009833026 -0.031064646 0.047244776 0.05141026 0.018080486 -0.006396339 0.039623313 0.03268642 -0.034370497 -0.02015858 -0.058203965 -0.026011996 -0.012136557
vanished 0.0074813403 -0.07018621 -0.06705567 -0.06054815 0.017326098 0.06666574 0.015200514 -0.046922226 -0.009493398 -0.056850825 0.06661168 -0.03683903 -0.028575948 -0.04336514 0.06618336 0.012545249 0.015306387 -0.008498209 0.004037856 0.01148165 -0.060379628 -0.042907003 -0.015707182 0.056145612 0.06986811 0.04215818 -0.016252674 0.036637437 -0.046361215 0.057484668 -0.017841764 -0.061169997 -0.015185798 -0.033668566 -0.040745277 0.0307488 -0.031061146 0.013263131 -0.051059444 0.028540745 0.013939831 0.009512258 -0.06972742 0.059971195 -0.041307308 -0.023201698 -0.043807603 0.015309444 0.007517229 0.013336529
her 0.22795384 -0.15642795 -0.18480107 0.1588033 0.14740105 0.39106554 -0.005519036 -0.19905578 -0.09750752 0.1494145 0.050216008 -0.06814994 -0.21587743 -0.15257658 0.053251017 -0.15686856 0.2974365 -0.13583423 0.44148082 -0.16628614 -0.24268113 0.11243393 0.013250185 0.39502916 0.3142156 0.27887997 0.044930402 0.084539995 -0.23470591 0.10169083 -0.3278248 -0.22661488 0.082693726 -0.29849297 -0.10227754 0.3361258 0.16265336 -0.19769877 -0.26492396 0.13085943 0.3512125 0.1097991 -0.2087598 0.20485832 -0.35648948 -0.004754169 -0.38164234 -0.048306864 -0.27618966 0.18904273
normans 0.00067222014 -0.048141003 -0.04634477 0.04331074 -0.03738151 0.037699707 0.048583165 -0.032568693 -0.012150923 0.03913562 -0.009929433 0.03398369 -0.055078488 0.0016101152 -0.029144824 -0.001257666 -0.018214704 0.003732187 -0.02309612 -0.005920845 0.04188748 0.00045613432 -0.020689357 0.028719667 0.04300771 0.0077712466 0.0067920275 0.0060520777 -0.041978624 -0.030779425 -0.036021918 0.0008581064 0.020029392 -0.042777654 7.986184e-05 0.005839168 -0.030736923 0.023240019 0.03046423 -0.02774279 -0.037436474 0.053251155 -0.008994322 0.019135294 -0.005076507 0.046626113 -0.04610628 -0.035857044 -0.041272223 0.035924982
chain 0.019595297 -0.033120897 -0.05124427 -0.051110268 0.046748 0.02710943 0.03701467 -0.021403395 -0.008368641 -0.05464221 -0.011296843 -0.061422497 -0.021209804 -0.049185716 0.034394134 0.012533787 0.02887288 0.058529574 0.025647713 -0.061836462 0.030979924 0.0072522806 -0.006293388 0.013690701 0.010124938 0.017297283 0.0052919257 0.038850326 -0.031582486 -0.009747411 0.0056745154 -0.025288938 -0.016394274 -0.03481353 0.026571892 0.05713278 -0.05190174 -0.047147058 -0.038738925 0.057213496 -0.032197524 0.0040328684 0.001852691 -0.0037170632 0.008312173 0.036385383 -0.055569533 0.009696814 0.040141642 0.041414805
funny 0.036529496 -0.07333296 -0.08783684 0.05393696 -0.0061870636 -0.014248796 0.05741453 -0.038108382 -0.0050705015 -0.011249799 -0.014557732 -0.006009688 0.005093915 -0.030145196 0.07624946 -0.023345128 0.096341185 0.06900877 0.033224776 -0.07193296 -0.024614094 -0.07124922 -0.022721676 -0.034277815 -0.020140959 0.006308599 0.022894919 0.009897564 -0.05625521 0.06841754 -0.057803098 0.006287412 -0.0776181 -0.007199609 -0.06143585 0.007793164 -0.002982136 -0.015415678 -0.013726443 0.059703346 0.03470136 0.078046955 -0.062409643 -0.021256546 -0.07569941 0.03255299 -0.0108194975 -0.023485165 0.061079755 0.0074458523
fanning 0.04634262 0.0038887104 -0.017046435 0.0070374985 0.03976062 0.05058069 0.033294052 -0.062633105 -0.06334004 -0.012936763 -0.016383661 -0.0441232 0.022512564 0.008346611 0.002154515 -0.06524252 0.06809837 0.0008592855 0.022541203 -0.025347203 -0.021433888 -0.041400515 0.011170942 -0.007341309 -0.0036482573 -0.00753231 0.043955505 0.05709876 -0.023542013 0.02654606 -0.045500617 0.013306943 0.0006275057 0.012755673 -0.014490964 0.023137871 -0.02615753 0.019693445 0.005586279 -0.029389994 -0.017038722 -0.013405628 -0.0014623487 0.039353006 -0.010623981 0.023577813 -0.03578522 -0.004579625 0.008669265 0.0022573527
noise 0.045148645 -0.021008072 -0.063707896 -0.004035558 0.051046293 -0.012657886 -0.0071924548 0.016241753 -0.04375144 0.03216263 0.013474823 -0.02550932 -0.035088696 0.015406006 -0.005440988 -0.04702912 -0.02489465 0.048693318 -0.025973326 0.035843663 0.0152784055 -0.031494558 -0.019337859 -0.011707298 0.026075827 -0.015505603 0.047222257 -0.019500196 -0.0022645802 0.030627036 -0.05619164 -0.052506473 -0.028636316 -0.047961365 -0.05240704 -0.0143853435 -0.04987298 -0.06868347 -0.010916108 -0.00466777 0.066743866 0.04886486 -0.03951598 0.027851272 0.029882487 -0.02887049 -0.029891564 -0.0066338554 0.013389196 0.038591627
since -0.031381287 -0.04442953 -0.01577996 -0.027424898 0.017176053 0.011849732 0.05162411 -0.058418218 -0.014676825 0.015307482 -0.006472953 0.011897932 -0.0213859 0.022105385 0.04410403 -0.047510624 0.03135877 0.05524175 0.061240327 -0.036714647 -0.032870572 -0.035507713 -0.027654393 0.03580685 0.054764878 0.058210302 -0.0027845986 0.036144327 -0.03548733 0.059052255 -0.05814871 -0.042498115 -0.028454952 -0.00038560719 0.021661082 0.063259125 0.018152246 -0.04213241 -0.04888465 0.0003311882 0.059554387 0.04773546 -0.031695686 0.05970048 0.027778288 0.00800385 -0.03923357 -0.026185073 0.013465748 -0.013248689
close 0.04146633 0.012564923 0.0014934246 0.013538564 0.030157257 0.10012085 -0.02055734 -0.07765613 -0.051950544 0.01056686 -0.016404912 0.049954988 0.027801089 -0.0584933 0.0041952794 -0.054894745 0.0038882648 0.020531664 0.006743145 -0.03462759 0.01726643 -0.06569131 -0.033000205 0.008742194 0.0504215 -0.007601248 0.022742793 0.011250761 -0.057344247 0.044593237 -0.033763938 -0.035845954 -0.030900922 -0.02968764 -0.0638723 0.023615576 -0.016437441 0.012493681 0.01186223 0.0741243 -0.0045564445 0.015457989 -0.04983161 0.0023931393 -0.034639023 0.04310281 -0.07531269 0.028877748 0.02817954 0.03005457
toys 0.053900074 0.065284654 0.048343644 -0.017664596 -0.00844931 0.01670191 -0.012302236 -0.040003434 0.04148339 -0.004365379 -0.021968864 -0.025629753 0.01462224 0.003960537 0.02571239 -0.0061140675 0.016055873 0.014965239 -0.01806685 -0.0075511495 0.031615037 0.041488487 0.011606255 0.02367822 0.059729237 -0.0025326367 -0.025352277 -0.05467432 0.06621091 0.04086167 -0.0135678165 -0.047596026 0.050331723 -0.014852755 -0.0015525018 0.020890448 0.04970753 -0.017817717 0.028094446 -0.058902234 0.02365355 0.01438979 -0.037651688 0.031555172 -0.020400243 -0.07469856 0.017814362 0.060446266 -0.00039495892 -0.074552275
moderate 0.036253225 0.0027762286 0.021010976 -0.062321667 0.0077723134 0.0022392098 0.03216853 0.04352588 -0.024182068 -0.039521802 0.018644532 -0.01739164 -0.0059209247 0.014164682 0.036584053 -0.037658256 0.018959498 0.0054502697 -0.008904189 -0.049497943 -0.019373512 -0.039517846 -0.031229407 0.040861264 0.034180455 -0.04295833 -0.0077642496 -0.018102178 -0.026994245 -0.055675913 -0.04735567 -0.036954273 0.054403223 0.006111244 -0.004212577 -0.0202926 -0.0082170535 0.03180671 -0.007018074 -0.0424255 -0.008396376 0.0069312984 0.03876528 -0.040690098 0.03381094 0.04293427 0.023123257 0.033067692 0.006939989 0.049554855
welcome -0.02493273 -0.02074423 -0.056376204 0.045195155 0.028146163 0.008721612 -0.012338717 -0.063586764 0.040127344 0.022219941 0.028413534 0.037735716 0.009028986 0.015921067 0.0038899775 -0.023889791 -0.023553004 -0.0064198365 -0.006317623 -0.0385404 -0.02269668 0.0038435543 -0.009752589 -0.01592286 -0.005157489 0.011884766 -0.03560105 0.033999957 -0.042948723 -0.025962153 -0.077326894 -0.01792398 -0.02320257 0.0007318428 -0.03367397 0.042205103 0.024356117 -0.019437011 -0.027337419 0.0057175113 -0.009604633 -0.016372295 0.04021817 -0.037675597 -0.04630431 0.012409693 -0.031771727 0.0275133 0.037090436 0.03856833
pulled 0.01737052 -0.022715677 -0.002252876 -0.046866883 -0.004051191 0.023971047 -0.02882048 0.02910258 3.2205106e-05 0.025046904 -0.015187547 -0.016206974 0.044547528 -0.02147848 0.025901554 0.05349272 0.040429108 -0.008038367 0.03954241 0.046203606 -0.03260398 0.048324414 0.01847699 -0.043281622 0.007558142 0.04449485 -0.010881977 -0.004365313 -0.0064448724 0.0118150385 -0.031996857 0.037409324 0.03269239 -0.054194413 -0.004483609 0.0049714088 -0.043918893 0.025190143 0.046727303 0.028510062 -0.033063233 0.04530084 0.044586133 -0.021836154 0.0143841375 0.020688396 -0.04662044 0.0046174843 0.004851863 -0.00083724153
high 0.021710323 -0.086594604 -0.020140551 0.0036190369 0.09455919 0.078542314 0.0737469 -0.123621985 -0.016566072 0.0027855486 0.026828473 -0.08725405 -0.035253372 -0.13201866 0.03945027 -0.06429233 0.048095703 0.04772243 0.08052817 0.010548257 -0.022594525 -0.011228107 -0.00064028206 0.06970364 0.0014432222 0.013410223 0.043566935 0.044012 -0.049896806 0.09342747 -0.05872713 -0.036318008 -0.042839 -0.027687784 -0.0919128 0.16557571 -0.099369004 -0.10097448 0.0031322252 0.045707915 0.060098242 0.016733466 -0.06370598 -0.011910738 -0.077810064 0.0828373 -0.072657116 -0.05573933 -8.836738e-05 0.09016747
presents -0.0076893633 0.048996784 -0.0029275478 -0.00022830896 -0.039971363 0.03162209 0.04289071 -0.010341355 0.01107612 -0.035418544 -0.019631766 -0.050398927 0.01827634 -0.04113348 0.013216501 -0.016837839 0.030677037 -0.008725135 0.0017992501 0.043729708 0.033314135 -0.044224184 -0.013372435 0.049674947 -0.016820583 0.019235948 0.038955588 -0.0057312995 -0.015105817 0.048999194 0.034716874 0.0065448675 0.045649916 0.052988462 0.0064321365 -0.03918513 0.048597064 -0.011502892 0.01095272 -0.015439883 0.0058553605 -0.0020861367 -0.023805797 -0.0272627 -0.037962176 0.006864436 -0.014408908 0.043147802 -0.051157434 -0.019430649
dare -0.023928516 0.027062017 -0.039357323 0.024149513 0.040554672 0.0055084904 0.009916715 -0.017033575 0.005967841 0.017677028 0.036556922 0.026174244 -0.067996725 -0.032847308 -0.016835961 -0.052107785 -0.019295365 -0.03660162 0.052968964 -0.05508459 0.012727353 0.035913445 -0.002384473 0.0011996652 0.040566765 -0.0115032615 -0.017610079 -0.034765396 0.011166781 0.03143101 -0.026743798 -0.01077867 0.0043668444 -0.054830153 0.013257549 0.020981355 -0.0017559312 -0.023094054 -0.023506187 -0.0340943 0.012230737 0.0061714314 -0.0334804 0.033955943 -0.029678034 0.022185773 -0.05703888 -0.040319234 -0.040097386 0.027259313
eaglet 0.0673771 -0.034348484 -0.08189268 -0.029985586 0.07839976 0.020305974 0.050253674 0.0011653684 0.001963406 0.016610429 0.09232745 -0.05412811 -0.009575952 -0.06036494 0.09399395 -0.02374112 0.06760969 0.11279749 -0.024282413 -0.021454616 -0.013068375 0.0076783393 -0.071211316 0.041195296 0.025717597 0.07459706 0.031173082 0.057515744 -0.032782122 -0.0051696906 -0.05662404 -0.029504469 0.017246876 -0.0047221035 -0.084392205 0.081659034 -0.004238875 -0.030916827 -0.0767471 0.07407633 -0.034874283 0.08625767 -0.033318467 0.024721727 0.015712183 -0.00762932 0.021845836 -0.056935873 0.004457389 0.028324932
go 0.13685988 -0.02507297 -0.039471123 -0.06819839 0.11059227 0.072485834 0.0717905 -0.082691275 -0.023700057 -0.015350392 0.05167715 -0.08595726 -0.11341075 -0.07623576 0.07090421 -0.095647864 0.21594656 0.069848 0.15414794 -0.094187096 -0.14490625 -0.026515486 0.019964866 0.0665433 0.123086855 0.100180075 0.099688426 0.037301153 -0.050753575 0.09192307 -0.14373243 -0.051444467 0.006415896 0.019682325 -0.11028272 0.130363 -0.06734169 -0.10707108 -0.14921956 0.062422022 0.1264189 0.0064527565 -0.12857865 0.037803836 -0.053418893 0.07712035 -0.057563387 -0.09767984 -0.12796327 0.034495886
bird 0.06406319 -0.019725794 -0.048540004 -0.066832416 0.04068254 0.091180004 0.057078198 -0.01017303 -0.029505204 0.016933005 -0.0148983095 -0.006094099 0.0011936801 0.0069121597 0.009110294 -0.010543927 -0.040782534 0.047809526 0.0275699 -0.022201782 -0.026274566 -0.018816095 -0.039771605 0.026834719 -0.029335355 0.07596276 0.022917466 -0.005824612 0.012478857 -0.03496899 -0.030993007 0.003225573 -0.004758483 -0.00070944254 -0.059530266 -0.019400196 0.015885446 -0.07049949 -0.055775516 0.0025098422 0.050377745 0.09517847 -0.08092251 0.009909508 0.0019317896 0.049401306 0.0077498956 -0.0023503415 -0.031181445 0.03212412
general 0.01663357 -0.018602837 0.045566462 0.0002303443 0.025797887 -0.027002402 0.008770077 0.03606677 -0.0073623043 0.020382246 0.009059302 -0.008032936 -0.014667179 0.039406102 0.015416497 0.012085316 0.010425427 0.008426968 -0.02883391 0.03863363 0.04515031 0.020675613 -0.022600576 -0.014809948 0.028705893 -0.030568605 -0.016628763 0.030193457 0.037487738 -0.031407602 0.0286279 -0.04201129 0.042665113 -0.0015617139 -0.02176027 -0.013495926 0.02718677 -0.0041889804 -0.046145454 0.0010739041 -0.023273751 0.050328113 0.006675897 -0.008880783 0.055690967 0.012652697 0.04378874 -0.016301105 0.036769643 -0.02830132
our 0.14812262 -0.14638771 -0.09334352 -0.03442548 0.13864839 0.14751627 0.12777384 -0.1101571 -0.065901116 -0.12029997 0.12549672 -0.086477265 -0.14267339 -0.12693542 0.14630975 -0.12624328 0.094282426 0.15671495 0.023636991 -0.09665824 -0.109475315 -0.06813047 -0.12924773 0.13568294 0.047833726 0.12558806 0.086404465 0.06674646 -0.1557059 0.10961899 -0.0658626 -0.11299677 -0.1744721 -0.036716647 -0.12095899 0.05300051 -0.077016115 -0.1320668 -0.059979 0.09197018 0.060972583 0.09165739 -0.12155722 0.15784897 -0.11916907 0.11659828 -0.07257107 -0.10894494 -0.050834198 0.10439313
mistake -0.0490529 -0.0010766495 -0.04458082 0.032113485 -0.019380936 0.0037001527 -0.008963827 0.063161045 0.03136945 -0.025039922 -0.028645542 -0.02804758 -0.0060201427 0.053294994 0.008876669 -0.037208766 -0.024238968 -0.04147206 0.012627857 0.03464597 0.056875363 -0.03794525 0.028290877 -0.05420179 -0.038182594 0.03522396 -0.041544735 -0.012920102 0.038719714 0.052578665 0.003701257 0.024396995 0.05805854 0.056940217 -0.050166868 -0.011395305 0.07454939 -0.016248288 0.019358648 0.0030059104 -0.066447794 0.055646855 -0.044944517 -0.021712994 0.03726945 0.047349077 0.06911861 0.040358376 0.0050215106 -0.025210919
pointed 0.0047001387 -0.029514702 -0.02512169 0.07018944 0.041870136 0.024822833 -0.03096629 -0.020478072 -0.04502475 0.029258313 0.017179368 0.011407112 -0.01657372 0.0057172966 -0.03574425 0.010264667 0.021961931 0.02516438 0.017979445 -0.054268498 -0.016530287 -0.033342596 -0.028427633 -0.0019220847 0.004377307 -0.0027808587 -0.014223164 -0.0028011347 -0.007989935 0.01230625 0.005748377 0.009119419 -0.03865761 -0.031022087 0.018435355 0.044937335 0.010409369 -0.024992697 -0.031325772 0.034449592 0.018598456 -0.008494254 -0.038466163 -0.034678034 -0.013048039 0.0277185 0.02142188 0.044610746 -0.012843529 0.007991862
fishes 0.008506291 -0.060328834 -0.036961365 -0.031386573 0.05932905 0.002575347 -0.020823374 0.018131755 0.008613709 -0.06061373 -0.0015664063 0.017882695 -0.021071853 -0.046851374 -0.017408028 0.047841664 0.064923115 -0.021861786 -0.0055660508 0.0010849285 0.0020269735 0.03104129 0.024877587 -0.020224562 0.056112908 0.04923718 -0.043199938 -0.01574933 0.0043335888 0.014943197 -0.054551236 -0.012721345 0.016612478 -0.0596026 -0.04776843 0.06113445 0.01055197 0.008210728 -0.04734078 -0.010892968 0.023835275 0.04294576 0.037425146 0.053337518 -0.018236099 -0.019481184 -0.062743016 -0.019712707 0.0015450856 0.008525803
head 0.1179586 -0.056879506 -0.06506523 0.022733664 0.12283462 0.1378309 0.052722268 -0.14313905 -0.13944824 0.00083539356 0.102446534 -0.066040054 -0.03622253 -0.12988997 0.1321607 -0.06805029 0.10673485 0.07208762 0.06415997 -0.079330906 -0.06955276 -0.07599611 -0.045875702 0.025011547 0.07815431 0.07180677 0.11887983 0.118702434 -0.13586481 0.13320062 -0.025570111 -0.121712826 -0.053806223 -0.0638687 -0.058310576 0.094320446 0.00026446008 -0.069856495 -0.09995318 0.011787126 0.05394035 0.08775212 -0.076524496 0.1139578 -0.09732593 0.06531115 -0.05944168 -0.04345508 -0.08751364 0.07533617
let 0.18065988 -0.12999552 -0.19017784 0.026968218 0.045713756 0.11952947 0.119701944 -0.112367414 -0.11883528 -0.08089244 0.07210137 -0.09912449 -0.14236125 -0.15837993 0.12710977 -0.15291092 0.13965487 0.17044576 0.11203201 -0.03423282 -0.13999923 -0.1090448 -0.173087 0.110613264 0.13767508 0.18477027 0.14843667 0.14004493 -0.100361146 0.21982262 -0.09959294 -0.18693733 -0.054653652 0.052845523 -0.1978387 0.10546591 -0.019037694 -0.1114098 -0.14340812 0.13603729 0.10315189 0.13437887 -0.14227541 0.14091983 -0.08599926 0.13505597 -0.11549374 -0.15595071 -0.15419966 0.09764001
wonder -0.045174267 0.1555521 0.06961602 -0.1607984 0.061033845 0.21396382 -0.016709125 0.041483857 0.07982709 -0.23110673 -0.08810981 0.0894122 -0.044474788 0.06058363 0.07255572 0.06834937 0.24582526 0.2558189 -0.06790587 -0.14957398 -0.19648403 -0.17499845 0.09302401 0.048700467 0.08037335 -0.058933154 0.100281134 -0.012749591 -0.0521419 0.015512491 -0.050602432 -0.100445054 -0.1934094 0.12723061 0.14596222 0.12760681 -0.232915 0.059301134 0.09768812 0.003502575 0.054376066 -0.13912763 0.09532171 -0.1248244 0.09734614 0.05293555 -0.033319123 0.055219937 0.085223794 -0.13635752
bye 0.00018963136 0.017833762 -0.0595571 0.0062547 -0.0028872034 0.0049508912 0.00041879166 -0.01868994 -0.01634393 0.012656937 0.027896479 -0.029811477 0.021593407 -0.013769013 0.042005938 0.01764171 0.045662686 0.061511215 0.08372264 -0.0037490786 -0.0040135025 -0.0025950894 -0.04393231 0.08320367 -0.0012995326 0.06802096 0.0595511 -0.021746708 -0.018223196 0.01580144 -0.03216908 -0.022652926 -0.032323435 -0.00974144 -0.047008343 0.007547414 -0.015091512 -0.032356184 -0.061641388 -0.003155673 0.009859744 0.038730904 0.020535517 0.037363514 -0.030551646 -0.03696185 -0.03449071 0.00424366 -0.031235687 0.058260128
ran 0.005375984 -0.04715611 0.014340898 0.06532723 0.05494769 0.06384369 0.024874296 -0.09386182 -0.0025630984 -0.010505549 0.057655796 -0.08634201 -0.072617725 -0.06348216 -0.003257781 -0.07805478 -0.047277704 -0.07036546 0.073422655 -0.025698133 0.0696915 -0.13257349 -0.04267179 -0.008742923 0.03318768 0.04793773 0.056031525 0.06471458 0.06441499 0.046420638 0.010191537 -0.09472653 -0.07897949 -0.045390893 -0.030143987 0.05995958 0.008281838 -0.05023744 0.017497886 0.056645963 -0.004715113 0.074800424 0.0240092 0.008387056 0.006636493 0.023559658 0.030834354 -0.045790005 0.04518783 -0.0020214426
hate -0.023815164 0.021211427 -0.07471862 -0.009288697 0.04060296 0.0031509416 -0.015516769 -0.042758625 -0.016486302 -0.00553936 -0.02411098 0.0069870353 -0.03395759 -0.02856495 0.061778553 -0.015245526 0.12474791 0.047902197 -0.021277582 0.023951467 -0.09404269 0.0078949295 -0.032480955 -0.024300242 0.00290496 0.025196193 -0.02195682 -0.0367383 0.045191057 -0.04102922 -0.060281143 0.01175764 -0.047310907 -0.010741715 -0.036838505 0.059227567 -0.02718689 -0.034518797 -0.0011033845 0.02686352 0.014425127 0.006162565 -0.0015140276 0.035379473 0.0017974705 -0.053666994 0.0015695144 0.003957311 -0.036345504 0.007670099
venture 0.0031729266 -0.018003972 -0.009559594 0.027359413 -0.01712339 0.0033849834 -0.019226229 -0.04064759 -0.03550785 -0.012050219 0.030416833 -0.04048445 -0.0041922815 -0.06769892 0.03660707 0.0017589232 -0.0101881735 -0.032883838 -0.0023899088 0.0037547585 0.011301892 0.008381395 0.04591107 -0.039366126 0.041821886 0.027451996 0.047846183 -0.03530559 -0.028824607 0.009479418 -0.008488326 -0.08057848 -0.043695804 0.0489391 -0.03170859 0.00066269224 -0.04250711 -0.017609542 0.031846937 -0.03939729 0.0042387675 0.012978304 0.00010342046 -0.01449467 0.007816769 0.014883613 -0.022399517 0.0246559 0.025707 0.042822916
matter 0.03064821 -0.0030308277 -0.036394343 -0.014600164 0.046561636 -0.0009332689 0.0070928996 -0.07291181 -0.03224712 -0.05365383 0.017167963 -0.013197874 -0.087148204 -0.10236835 0.05797195 -0.06773568 0.044125993 0.08009175 0.08553963 -0.069335975 -0.020019889 -0.006245005 -0.025737816 0.042303294 0.10629236 0.037813142 0.048908874 0.024595305 -0.024335137 0.029701943 -0.09902344 -0.007226192 -0.051732104 -0.054378416 -0.050793253 0.085900426 -0.013598229 -0.066522606 -0.056355495 0.04095239 0.050463583 0.10258729 -0.045427393 0.069260456 -0.0962833 0.035562072 -0.02222448 -0.07296109 -0.0045830696 0.09253053
hippopotamus 0.004295843 -0.026734617 -0.043109015 -0.017904427 0.04066955 -0.012271253 0.06592457 -0.0013818934 -0.023912165 -0.0640315 0.033590138 -0.021065839 -0.025381861 -0.05316813 0.045108177 -0.05838245 0.0779347 0.056562874 -0.016415188 -0.019444436 -0.028119275 -0.04020028 -0.06897835 0.025536384 0.03364567 0.021812566 0.08074351 -0.0059764553 -0.03922226 0.021205714 0.0036603797 -0.07453983 -0.07402889 -0.037101217 -0.07434713 0.061095126 0.02302335 0.0063142926 -0.009562767 0.035435732 0.011026942 0.060019813 0.012200893 0.06214794 -0.06953418 -0.014010429 -0.07234348 -0.07342999 -0.0667251 0.07173188
yesterday 0.077511095 -0.03413616 -0.031972952 -0.04382335 0.017324595 -0.003034705 0.07300142 -0.058609765 -0.024118334 -0.034898188 -0.010144239 -0.069303244 -0.048361477 -0.036627855 0.052367628 -0.021684129 0.0034388918 0.01393681 0.038217116 -0.039864756 -0.049206525 0.0063744932 -0.051933732 0.036035825 0.02256654 0.06607759 0.07537551 -0.007716008 -0.06745024 0.016011667 -0.010592292 -0.013816903 0.021271754 -0.07904149 -0.07902803 0.08926895 -0.034127668 -0.03135237 -0.036902696 0.03789551 0.005691911 0.02482566 0.006454395 0.002670846 -0.03315409 0.0731452 -0.075550765 0.013213316 -0.06462996 0.020801734
get 0.23123339 -0.023043083 -0.10798483 0.03701223 0.16693316 0.08927027 0.08570984 -0.06901834 -0.11916882 -0.036833074 0.037898708 -0.06506198 -0.12086045 -0.16601203 0.1338643 -0.104005076 0.16653755 -0.038450893 0.23260398 -0.0013093908 -0.18008937 -0.11411368 -0.03172962 0.19774993 0.19503245 0.13894048 0.10784576 0.009449085 0.0038496426 0.12163564 -0.05541558 -0.17497346 0.034982786 -0.058436252 -0.12377235 0.13131943 0.085046746 -0.12482068 -0.21350586 0.033784103 0.22387448 0.04735682 -0.15844549 0.06919156 -0.124607675 -0.0047639967 -0.16337858 -0.009679807 -0.008099079 0.11887995
bats 0.022683509 -0.060090676 -0.11375936 -0.021293914 0.10148308 0.09625837 0.08114081 -0.03061645 -0.03616189 -0.06173774 0.03432054 -0.02831513 -0.12782909 -0.053847734 0.09495396 -0.053192765 0.047797784 0.10925928 0.09828042 -0.06193831 -0.07810054 -0.0026436409 -0.024857583 0.08176313 0.071504556 0.06353205 0.09069214 0.10077248 -0.12933359 0.10133571 -0.087138526 -0.11836318 -0.11855485 -0.07340194 -0.11160151 0.113817 -0.08328098 -0.11555566 -0.107009724 0.14815243 0.044523973 0.082802914 -0.08792533 0.060309373 -0.05305275 0.10952068 -0.075215094 -0.037852336 -0.13899666 0.120976895
tale 0.0019662164 -0.024844302 -0.021370882 -0.08388175 -0.012489937 -0.02292796 0.0045287656 0.01968955 -0.051938873 -0.018812068 0.016058141 -0.07347872 0.06394984 -0.047140766 0.061892495 -0.022673452 -0.078003354 0.008246422 -0.10126775 0.07224649 0.021797337 0.04482148 -0.017547479 -0.03075875 -0.0013950695 -0.006317962 -0.012910982 0.0025917199 0.040997222 -0.039129343 0.06573205 0.013384056 -0.018813975 -0.04405657 -0.019173479 -0.054384667 -0.0008079037 -0.010314766 0.051033374 -0.03296993 -0.03684248 0.064078085 -0.0073489575 -0.004572291 0.09458795 -0.06451455 0.074358776 -0.02149785 0.045971174 0.04001169
hedge 0.0062401225 -0.04000093 -0.0040455502 0.01555985 0.051294934 0.010712471 0.019863404 0.018060328 -0.0071836053 0.016927898 0.06478674 -0.06371655 -0.0073731164 -0.022924086 0.056664426 -0.05807644 -0.0145696625 -0.0014249709 -0.016511658 -0.054906875 0.02661192 -0.006496045 -0.028057467 -0.042092655 0.062854715 0.0467591 0.058046497 -0.007955504 -0.036361217 0.011807168 -0.041254524 -0.02685643 -0.008408549 -0.02019283 -0.0056623686 0.032212824 -0.0084474785 -0.018629018 -0.0662009 0.02181419 0.011158616 0.06413736 -0.06930028 0.028956346 -0.005877128 -0.025339914 0.0018995987 0.006510217 0.007545921 0.051632807
nicely 0.0136237815 -0.027838347 -0.012936476 -0.02078156 -0.011040001 0.011477915 0.010065945 -0.018917918 0.013776002 -0.030733427 0.050129104 -0.04654523 -0.07407804 -0.04573208 0.0083377715 -0.07330014 0.015009152 0.025300493 0.013050247 0.0076546744 -0.05647617 -0.059287168 -0.028022446 0.06682721 -0.010677103 0.05419102 0.020973286 0.017263392 -0.032611746 -0.0050562806 -0.06973628 -0.036239255 -0.05541496 -0.029329957 -0.08211833 0.056489993 0.030856831 -0.05447312 -0.07744396 0.017780755 0.0487816 0.041169677 -0.041289914 -0.008577287 -0.008715635 0.08337997 0.0054777563 -0.021199193 0.027480965 0.045434356
pressed 0.07994032 -0.048417594 -0.009109734 0.043661945 0.06006777 0.07726408 0.019321166 -0.06988535 -0.055642176 0.017161893 0.10072517 -0.033057403 -0.009050189 -0.09918257 0.093588226 -0.08693714 0.0706342 0.07641516 0.044959206 -0.08749432 -0.072187535 -0.03858674 -0.014683964 0.05764387 0.028302656 0.010305174 0.017667238 0.08739549 -0.026777685 0.04596357 -0.054682206 -0.062550776 -0.020707075 -0.032861855 -0.07361842 0.04810707 0.017543836 -0.09374802 -0.085476026 0.08543005 0.051899478 0.10238739 -0.003569073 0.058008995 0.0014084275 0.06934198 -0.09087827 -0.09855557 -0.0028366102 0.08606458
seaside 0.016378986 0.017531265 -0.025166009 0.054332476 -0.007617303 -0.010680165 -0.06227569 0.026090212 -0.010815319 0.02760306 -0.02370031 0.05789456 0.06603638 -0.007358631 0.02666591 -0.02220175 -0.035691112 -0.04268489 -0.041600924 0.030913232 0.05371222 0.08153664 0.03896975 0.012528881 0.0028151553 0.030484963 -0.044146787 -0.060914513 0.016587252 0.04044355 0.057038363 0.044928525 0.049254082 -0.019977683 0.001743713 0.0043942626 0.055983733 0.007181474 -0.03938647 -0.03815036 0.0036568702 0.0061682663 0.034424126 0.039760046 -0.009570748 -0.055562805 0.035076503 0.0054872576 -0.036518887 -0.007903772
particular 0.0150141725 -0.043056577 -0.054780554 0.065981366 -0.005694732 0.07239318 0.024725009 -0.01243471 -0.0523569 -0.027798245 0.027247753 0.012005361 -0.01828776 -0.023931652 0.016721487 -0.01627215 -0.019343074 -0.022699133 -0.0045150425 0.009967974 -0.0044545736 0.004292102 0.02866231 0.0037890146 -0.03400569 -0.007634418 0.006122195 0.030914856 -0.033477124 -0.030402923 -0.059501324 -0.061613157 -0.04659657 -0.09263878 -0.027526196 0.02542939 0.018271234 -0.045826804 0.003422078 0.06467943 0.021607053 -0.01826733 -0.018909317 0.04170404 -0.045286927 0.049686383 -0.038214777 0.03709439 -0.0075541628 -0.015512393
field 0.06962117 -0.011914289 -0.0323043 -0.029481689 -0.023145795 -0.021125298 0.012706981 -0.029999267 -0.05392759 -0.026302384 -0.020072825 -0.06986189 -0.045623902 0.017521007 0.023361854 0.015061481 -0.00014847331 0.01407405 0.0017597448 -0.053161785 -0.017955968 -0.016617969 0.012286576 -0.038612556 0.06308084 0.007693412 0.06660311 0.040495068 0.03028528 0.019788306 -0.021377392 -0.028494807 0.018213512 -0.03716503 -0.057019636 -0.00017414242 0.058696814 -0.02610435 -0.06876431 0.027209057 -0.042924475 0.01936813 -0.019400934 0.019458525 -0.0435935 0.029389428 -0.018729163 -0.07068359 0.025878439 0.03768932
legged 0.08725745 -0.048199926 -0.06768194 0.07865719 0.102022745 0.076142654 0.055109773 -0.02882471 -0.009014161 -0.085404046 0.09305108 -0.052333772 -0.0371142 -0.086923614 -0.0002615637 -0.07535763 0.044233184 0.012216562 0.09461938 -0.06358454 -0.030508377 -0.05208466 -0.08925716 0.09115377 0.018525923 0.085796334 0.035520792 0.019816056 -0.03717478 0.047213938 -0.08176436 -0.07015035 -0.06854114 -0.08033837 -0.098971374 0.01851849 -0.012530406 -0.002564519 -0.02436061 0.026467707 0.062947266 0.08107488 -0.05936898 0.029501352 -0.099550106 0.016678585 -0.030099966 -0.10187203 -0.01684052 0.06654426
inches 0.06767657 -0.061774317 -0.05045731 -0.014346422 0.03777533 0.077535525 0.11739383 -0.058819864 -0.08316188 -0.054675322 0.100561656 -0.082472116 -0.08685582 -0.06064375 0.05425519 -0.123746976 0.100136794 0.07847197 0.08671376 -0.004701434 -0.11332098 -0.081797525 -0.095154434 0.072653525 0.039844755 0.082474984 0.052198954 0.047309313 -0.084743835 0.058518562 -0.11418503 -0.07147982 -0.06551704 -0.09569433 -0.124772936 0.087213956 0.023621725 -0.12789553 -0.08763241 0.047632538 0.05021945 0.1053685 -0.042002153 0.111761555 -0.042890422 0.051369715 -0.06944681 -0.10740902 -0.03648353 0.07281113
shoes -0.0048985034 0.018748963 -0.06944435 -0.054119658 0.050945144 0.021555815 0.025401691 0.01465694 -0.025179444 -0.05292535 -0.013763609 -0.042708583 -0.05737482 0.017022902 -0.0017124324 -0.056594446 0.05491975 -0.024859954 0.0011153452 -0.02180725 -0.013170724 0.009252133 -0.05528548 0.059222385 -0.018541332 -0.023048751 0.030551499 0.037121676 -0.02916206 0.02103496 -0.062279865 -0.03408376 0.027044171 -0.0051039746 0.0034918233 0.03245035 -0.028493725 -0.049169824 -0.047298394 0.01811092 0.010511514 -0.035489693 -0.042170145 0.02592628 -0.07453128 -0.043438423 -0.02850045 -0.00387992 0.025670532 0.031013487
rather 0.09617165 -0.08520905 -0.08931178 0.030783389 0.09120686 0.05576367 0.01984757 -0.064202555 -0.07819478 -0.06163092 0.09559565 -0.021139713 -0.038898323 -0.054644935 0.10016441 -0.050837036 0.16622666 0.087761976 0.18080412 -0.13626471 -0.14202255 -0.16394599 -0.07951769 0.16412045 0.082461976 0.12168973 0.08602377 0.055988993 -0.16179645 0.012019109 -0.07968099 -0.036896653 -0.080292724 -0.058906663 -0.03784832 0.116770655 -0.00854874 -0.047336835 -0.094397575 0.06615894 0.088146 0.035482574 -0.08116861 0.104377314 -0.1230079 0.112040415 -0.069841154 -0.07816346 -0.074639075 0.09530166
deeply -0.04079498 -0.030526152 -0.040543385 -0.0770428 0.0060735065 -0.014823922 -0.02046672 0.0021352894 -0.041274995 -0.02510698 -0.0024919445 0.011755035 -0.026194314 -0.032308564 0.023156514 -0.0069310837 0.013557328 -0.00484689 0.024129443 0.04684016 -0.0061935587 -0.0060504875 -0.030808955 0.026810354 0.01824566 -0.020775506 0.012882797 -0.017246889 -0.0026382888 -0.021151457 -0.0062101968 0.0050143376 0.04904593 -0.028193112 0.0054762205 -0.034242783 -0.039833717 -0.0037459314 -0.02575124 -0.014480062 -0.012139422 0.023812007 -0.019885287 0.024009295 -0.020423012 -0.050434716 0.039901737 -0.035829373 0.022348987 0.023593893
advisable 0.020276714 -0.040379062 0.013179256 0.020200985 0.04607788 0.021727918 -0.040522765 0.051486026 0.027547447 -0.03642504 -0.07172697 0.04896034 0.047465026 0.007306864 0.0072443006 0.018431028 0.031508684 -0.0112017095 0.010325188 -0.019146811 -0.028535753 0.019560864 0.04660312 -0.009738885 -0.059826415 -0.019012706 0.0067668403 -0.0056379302 -0.023258826 -0.038972355 0.024695292 0.014558526 -0.00043169857 0.07266874 0.0085921325 -0.016180694 0.026267078 -0.008334857 -0.026613232 0.032879695 -0.00928325 -0.051665213 0.03413588 -0.054151278 -0.04375405 -0.041842386 -0.012365274 0.035828274 0.04551642 -0.043999434
blown -0.0069347844 -0.02702548 0.003890906 0.040690582 -0.016751014 0.0432857 0.032424405 -0.0069089946 -0.03818026 -0.036167115 -0.016212637 -0.065600306 -0.06156875 0.018033966 -0.0112235425 -0.030275324 0.044745788 0.010086798 0.016849669 -0.026883064 -0.04706184 -0.057455294 0.027855188 0.03513335 -0.020796178 0.052382402 -0.021867033 0.01228191 -0.030789692 0.058868602 0.008138094 -0.008184473 0.027611086 -0.07291581 0.0005946529 0.019663379 -0.020768385 -0.04797749 -0.06683084 0.026785903 -0.011858215 0.0592018 -0.017791588 0.0034556598 -0.058282726 0.026977377 0.02258197 -0.06891876 0.032983176 0.011095668
deal 0.054551642 -0.08307762 -0.03230842 -0.070142105 -0.00507386 0.05514561 0.051933035 0.014114755 -0.12778024 -0.0058597736 0.066734955 -0.06689506 0.019864378 -0.120532006 0.1065135 -0.09510743 0.007421873 0.1269996 0.025777144 -0.040324375 -0.013918359 -0.027098553 -0.12120865 0.0027849392 -0.016497625 0.030050905 -0.00930364 0.00057019584 -0.05015285 0.043719064 -0.04531871 0.015607006 -0.10825014 -0.14491478 -0.023060951 0.020135941 -0.030355712 -0.109958395 -0.036027815 0.003817835 0.0089433035 0.05724579 -0.050051272 0.08692076 -0.014712633 -0.014050984 -0.051777367 -0.107127264 -0.05203211 0.036213983
past -0.033427283 -0.023480115 0.0515397 0.04804448 0.018072885 -0.014889259 0.030818714 -0.028867217 0.037443228 -0.037164014 -0.013362428 0.046064164 -0.013062618 0.012045702 0.00028214796 -0.06951615 0.02517072 -0.048381843 0.06449565 -0.05390435 0.04967758 -0.07691131 -0.054748382 0.042153087 -0.028548192 -0.06588249 -0.0018269024 0.032351837 0.03769833 -0.022091892 0.009808907 0.012897127 0.013116691 0.027569309 -0.02612341 -0.022941502 -0.00938538 -0.025186908 0.038821165 -0.007228848 -0.002992495 0.05384336 -0.025560321 0.016490256 0.014130524 0.075584665 0.022988813 -0.0050086086 -0.03363823 -0.015731417
curtsey 0.04758513 0.029990701 0.04486328 -0.010356884 0.008012707 0.06155902 -0.039832536 0.026620004 0.030115215 -0.044989843 -0.05651675 -0.030021535 0.030165454 0.006958971 -0.02058969 -0.022071688 -0.0074302503 -0.07623521 0.081809275 0.012852335 0.04362991 -0.0071782307 0.04568871 0.02706242 0.022910235 -0.0112747615 0.031395532 0.0015033231 -0.03053145 0.033380695 -0.039724875 -0.011214436 0.031457826 -0.003826335 -0.008054595 0.027258562 0.05117991 -0.033390746 0.04527178 0.0407939 -0.0066643916 0.025757631 -0.0054306258 -0.07345054 0.025736658 0.0003646672 0.04019247 0.054432787 0.032739133 -0.043880843
jumped -0.07397249 0.09722623 0.056638718 0.026024655 0.015013996 -0.006144169 -0.032810137 -0.008905548 -0.0032199842 0.054293808 -0.068443485 0.066261165 0.04718505 0.053743314 -0.04070112 -0.02373022 -0.07025859 -0.042336784 -0.055978544 0.055494286 -0.015083995 0.006847189 0.0729675 -0.05111723 -0.019513259 -0.0012717969 -0.053906515 0.0069376603 0.009767412 -0.07910438 0.039138425 0.06916861 0.0511193 0.0346925 0.085044496 -0.041596275 0.034030065 0.079864025 0.029590009 -0.059871376 -0.068633884 -0.055604372 0.02633296 -0.011871977 0.023320919 -0.07615035 -0.022650894 0.06577108 0.0145777315 -0.0064750635
morcar -0.022581743 0.007925848 -0.06469626 0.032477733 -0.012246589 -0.026193447 0.06486083 -0.06612714 -0.060571965 0.050892465 0.014050469 -0.032156665 0.039513435 -0.0076579573 0.0744611 -0.03139199 0.023200989 0.004668012 -0.015146349 -0.013870024 0.002715093 0.042771168 -0.07126011 -0.00072533515 -0.0027420826 0.013019651 0.045443717 -0.0049503483 0.031939182 0.0008053421 -0.02112241 -0.04315833 0.009565169 -0.02023667 -0.0020452556 0.018420218 0.03319079 0.008494344 -0.0057471995 0.0031092982 0.037646484 -0.0164548 0.001213849 0.0042574834 0.023518313 1.209433e-05 -0.057441823 0.009775516 -0.00017986447 0.01286353
able -0.052939445 0.046382286 -0.04475347 -0.030592708 -0.026525006 -0.038902573 -0.010385621 0.025334977 -0.011415585 -0.075844735 -0.05141787 0.026631046 0.033514977 0.008306545 -0.015872687 0.010737469 0.0059031458 0.06460915 -0.0070212544 -0.024890637 -0.00094488845 0.05356933 0.030691879 -0.03559515 -0.031855874 -0.060951695 -0.042115707 -0.07095783 -0.030516077 -0.028050963 0.0014588768 -0.0341313 0.0023907644 -0.015688282 0.0332932 0.019777605 -0.04291125 0.011159831 -0.019326795 -0.04012548 0.004976756 -0.012006603 -0.0010102482 -0.011635204 0.018908773 -0.0026445321 -0.037532102 0.029342582 0.0053734463 0.0052942447
sounded -0.031770855 -0.005980074 -0.049599785 -0.035132512 0.05873396 0.031315662 0.03054546 -0.009723485 0.019944856 0.016708082 -0.031658355 0.0023992606 -0.032731302 -0.053025413 0.011267454 -0.03750324 -0.010934571 0.05333738 0.04509571 0.0012890964 -0.031802244 0.043218274 -0.016246026 -0.023633083 0.063292846 0.0374049 0.022570435 -0.020549972 -0.039826464 0.018271249 -0.04243799 -0.01938805 -0.01712255 -0.05521505 0.014306285 0.046763264 -0.013314365 -0.010041874 0.02300414 0.023294888 -0.022535352 -0.013644771 0.033455472 0.053970102 0.009658742 -0.0216027 0.007828139 -0.002260192 0.011225101 -0.0058053317
jaws 0.04271632 -0.032489724 -0.006547196 0.01866039 0.044923313 0.073674574 0.0518271 -0.052337572 -0.06917834 0.027827399 0.050575703 -0.030979231 -0.03538869 0.016428495 0.0564941 -0.07097967 0.013210072 -0.024858154 0.013280769 0.008522591 -0.01184754 0.028943338 0.016561976 0.06075464 -0.023972914 0.057319667 -0.005276657 0.06291711 0.008895787 -0.006015218 -0.034159668 -0.020001175 -0.0379809 -0.062126264 -0.014469458 0.00065863656 0.03644886 0.0177599 0.01700338 -0.021330094 0.00203118 0.006513758 -0.021687126 0.055439018 -0.017242301 0.072144516 -0.06639365 -0.03230084 -0.018043794 0.052546043
rapidly 0.061503373 -0.07661552 -0.07252602 0.022020672 0.08722808 0.0038289235 0.070278764 -0.053638764 -0.021093685 -0.046065353 0.0009929783 -0.042107888 -0.09383531 -0.03196981 0.06445157 -0.05321337 0.007549938 0.015990905 0.06841938 -0.07385901 -0.06104209 -0.07349339 -0.023842549 0.07154658 0.08168558 0.013057819 0.043600913 0.07227486 -0.059757657 0.030679995 -0.06628462 -0.093360916 -0.068247825 -0.04122643 -0.02802435 0.0062843263 -0.05463963 -0.046024296 -0.031158125 0.012832368 0.021927988 0.003386994 -0.007784894 0.06013241 -0.074866705 0.06240937 -0.05122034 -0.08203915 -0.018463895 0.056694325
meeting 0.0005871906 0.010796135 -0.0027460668 -0.052962072 -0.03839471 -0.057594754 -0.018793387 0.062728204 -0.04948157 -0.0070798118 0.00010979583 -0.028790511 -0.037881784 0.05498903 -0.0085290205 -0.05650917 -0.056313187 -0.020423114 -0.034361232 0.031096661 -0.0207332 0.024016647 0.030582484 0.015715957 -0.01562895 0.016244115 -0.003931029 0.014840189 0.06253369 -0.025210638 0.041495528 -0.017548412 0.03766319 0.035760183 0.032570306 -0.022918344 -0.023270298 0.025900913 0.017734215 0.0028727571 0.006875661 -0.029222358 0.03758193 -0.0010707243 0.04102858 -0.057239167 0.031023262 -0.021795917 -0.017516412 -0.013991021
leaders 0.059462395 0.02229599 0.019489124 0.015470565 0.07577461 0.016686646 -0.00902061 -0.04614082 -0.013768208 -0.055014897 0.03871679 -0.012006797 -0.04584338 -0.0492589 0.0353789 0.02528633 0.05054414 -0.011000871 0.057040095 -0.03362427 -0.013279874 -0.03203779 0.023439521 0.018622091 -0.0024536639 0.07048153 0.0101374565 0.020257983 -0.07077091 -0.010719123 -0.06524055 0.031030238 -0.036136225 0.024923768 -0.05263183 0.012366654 -0.008558054 -0.05497654 0.010000045 0.010834397 -0.016777698 -0.03336165 0.015270407 0.043062523 -0.07077093 -0.04006325 0.009635969 0.022224175 0.027110294 -0.014553066
soothing 0.01818986 0.024499414 0.035882838 -0.025011107 0.008093306 -0.043244734 -0.049950674 0.060666855 0.011602081 0.06697719 0.040671706 -0.00021518674 -0.005616382 -0.03177054 0.026406772 -0.0057970583 -0.055652454 -0.03903423 -0.047196113 -0.04329458 -0.013460064 -0.0042937417 -0.030355796 -0.024533046 -0.04171595 0.008015387 0.037252966 -0.0019957842 0.019697346 -0.030621676 -0.0331212 0.0099779535 0.032788306 0.028586026 0.01767039 -0.06708217 -0.042297836 0.038546614 -0.026037468 0.02377255 -0.0033544083 -0.0016035996 -0.027268592 0.010000374 -0.032076534 -0.021153977 0.029633325 0.021758977 0.05061004 0.0055817864
best 0.09024957 -0.08290667 -0.06758347 -0.025207398 -0.023969224 -0.033962015 0.07964933 0.03581852 -0.077454604 -0.01065218 0.0297682 -0.04751194 -0.034478813 -0.07386571 0.06654016 -0.12953916 0.03782215 0.056223918 -0.04000509 -0.009258219 -0.02827261 0.041321885 -0.0315386 0.038836747 0.12537302 0.08334019 0.097214796 -0.0088967895 0.03782647 0.13460067 -0.022202706 -0.016977167 0.035168894 0.007980438 -0.07333231 0.009022704 0.10899496 -0.038153 -0.11162052 0.035993855 0.07022194 0.0063792113 -0.10566614 0.10793039 0.039970055 0.038942005 -0.039231043 -0.037940457 0.0110821575 -0.037030023
bank -0.052071102 0.0033085567 0.012100992 0.012963728 -0.07076588 -0.0049861856 -0.0057903538 0.0138774775 -0.024722302 0.03784669 0.02307818 0.026560398 0.07941706 0.055591796 0.034517113 -0.019292237 -0.060806368 0.019114954 -0.06476963 0.053915128 -0.014480369 0.046123873 -0.010096785 -0.0067625386 -0.03636646 -0.023065561 -0.053680632 -0.03464217 0.06567714 -0.013340118 -0.009608755 0.05153385 0.09521823 -0.022340884 0.042257812 -0.07405412 0.045271054 0.023126071 0.0028621238 -0.072425246 0.003102454 0.005161961 0.002242042 0.011124365 -0.025027752 -0.038535185 0.067025974 0.01289521 -0.016619794 -0.03868866
cool -0.03319109 0.023136076 -0.02553286 0.03150347 0.05497012 -0.01682721 -0.010357245 -0.0462472 -0.06477975 0.02088222 0.073401935 -0.033781692 -0.007071388 -0.07450708 -0.0073604644 -0.005767217 0.0056884186 -0.011228579 0.005112772 -0.03078959 0.01734359 0.03188409 -0.005685677 -0.005899539 0.0005124754 0.003846773 0.050607998 -0.02436734 -0.03644244 0.06196853 -0.049698524 -0.035499044 -0.00111588 -0.0162995 -0.057133686 -0.031028345 0.021758916 0.030417453 -0.061714023 0.060433168 0.030681236 -0.033951532 -0.025052603 0.037884854 -0.03611531 0.064006895 0.0057413382 -0.0008065528 0.0032557219 0.02054033
declared 0.03475682 -0.011651798 0.028933179 0.024001101 0.014333719 0.08407021 0.023717942 -0.054239117 -0.028040465 -0.012569183 -0.026652582 0.010530806 -0.0074901083 0.002178817 0.004139019 -0.032934744 0.050677687 -0.01529863 0.019788008 0.010850568 -0.0871749 -0.05961113 -0.043731254 0.03950136 0.027981877 0.052222863 0.014569219 0.0018811785 -0.06486575 0.03578879 -0.015510668 -0.022075156 -0.0025570309 -0.0057411 -0.06603489 0.021047221 -0.0032202904 -0.013332742 -0.07838981 0.03598006 0.082346305 0.0092880195 0.028419679 -0.01716728 -0.057289224 0.00012632075 -0.048472684 -0.022703497 -0.04520548 0.06991187
hole 0.13613361 -0.031769212 -0.06887988 0.00032356448 0.02900365 0.03486795 0.11085541 -0.045999926 -0.028118737 -0.015282757 0.11537357 -0.07380205 -0.06642599 -0.09355005 0.111760624 -0.056489296 0.014760309 0.07933207 0.042608604 -0.024446791 0.0016896726 -0.064365186 -0.117412634 -0.04052998 0.045657497 0.031834573 0.105279334 0.014441363 0.028786123 0.05336525 0.032149363 -0.05412015 -0.017997697 -0.09807528 -0.11855637 0.06141203 0.07705308 -0.06408592 -0.0015034882 0.063389115 -0.027893692 0.08925757 -0.060769945 0.10596462 -0.04349657 0.052041292 -0.034630135 -0.12991175 -0.057226002 0.10669297
number 0.018370684 0.02342303 -0.04625361 -0.040221557 -0.015694484 -0.029814813 -0.034225855 0.012875826 0.012611609 0.009020351 0.042307246 0.031213498 0.014569776 -0.033441965 -0.055017058 -0.03894658 -0.004753273 0.03305631 -0.003309375 0.02279612 0.02551495 -0.02613921 -0.037105683 0.01844994 -0.016170923 0.025610248 -0.030594023 0.057722546 -0.021510968 0.024588406 0.030558122 0.037738737 0.02236791 -0.040683873 -0.024997419 0.008321604 -0.0008590288 0.02756789 -0.047006324 -0.016615076 0.0022990166 -0.037125554 -0.05034295 0.024557358 -0.017982824 -0.03109061 -0.0012738707 0.022299774 -0.012344281 -0.03755222
turned 0.027840335 -0.00269219 -0.002216538 -0.042244714 0.06645569 0.045388743 -0.029831922 0.0040007452 0.0040405304 -0.03651193 0.015926726 0.01010024 -0.006126666 0.056379892 -0.009428178 -0.033702966 0.019040298 0.018030688 -0.019641155 0.007456571 0.015335526 0.029330974 0.03040444 0.026268318 0.044216264 0.05371128 0.04780077 0.049765095 -0.064895935 -0.013217298 0.022948036 -0.006499734 -0.06816305 0.057464283 -0.031309288 0.050131336 -0.032973167 -0.061566908 -0.010874059 0.07009554 -0.046817712 0.011328748 0.000966603 0.044025164 -0.008242027 0.039970208 -0.06597746 -0.012338813 -0.027727036 0.043814104
angry 0.036726914 -0.04545225 -0.008586961 0.020018935 0.033161487 0.0009809193 0.0070130248 0.0045573195 -0.056371003 -0.038396142 -0.028390573 -0.039791413 -0.007449149 -0.063435405 0.056947406 -0.038350914 0.048474003 0.021579266 -0.010329348 0.0043242313 -0.012465912 -0.06558961 -0.04265713 0.044655185 -0.0070680426 0.043256726 0.06315727 0.07355209 -0.097761564 -0.0008398115 -0.06215055 -0.069151014 -0.040020343 0.011819637 -0.05443408 0.059051733 -0.0592022 -0.03409502 -0.064884394 -0.03436821 0.015211278 0.011521019 0.010124318 0.063264474 -0.058611378 0.048788924 -0.044253487 0.0066560507 0.023669777 0.07517379
shore -0.048351947 0.04669652 0.08371435 -0.011013436 -0.05389734 -0.02235419 -0.029309368 0.031447344 0.08004929 0.036927268 -0.0131103285 0.02945458 0.020864166 0.03640523 -0.037999645 -0.033619493 -0.030220084 -0.017442722 -0.0118823685 0.07478913 0.051314257 0.037089482 0.043685813 -0.068502285 0.015294064 -0.057634257 -0.01977355 -0.07382663 0.106839925 0.038833212 0.036162555 0.011948702 0.1104318 0.079426594 0.03210732 -0.0930278 0.0014223853 0.07080487 0.084181964 -0.034241397 0.0056371205 -0.047740072 -0.029820843 -0.02295793 0.09230206 -0.0559441 0.099710196 0.011667841 0.0059793284 -0.03353104
cried 0.025750123 -0.055039834 -0.066322766 -0.0413396 0.09150626 0.07473588 0.06443091 -0.06438573 -0.06681274 0.0051468913 0.06371208 -0.08032 -0.019961476 -0.009063657 0.073976606 -0.061754934 0.10147761 0.07733721 0.046843227 -0.044031307 -0.027009597 -0.103039704 -0.080216154 0.034899417 0.041682232 0.04945018 0.11240187 0.08788709 -0.056068752 0.02254177 -0.1051948 -0.09959723 -0.10376767 -0.091807485 -0.13767423 0.1302788 -0.044880275 -0.020343732 -0.13640213 0.104775846 0.062358823 0.12060414 -0.09599347 0.1080947 -0.10283965 0.07274713 -0.06809555 -0.035846256 -0.042449463 0.04926603
apple 0.09766177 -0.02920601 -0.029186301 -0.012274271 0.07709953 0.058803476 0.066139296 -0.060884178 -0.053508867 -0.047971144 0.03184832 -0.08540297 -0.07153709 -0.011476269 0.021680808 -0.043112993 0.084768154 0.0785043 0.024872484 -0.093172856 -0.024837432 0.00038061035 -0.0025731006 0.013372812 0.052551765 0.07556761 0.07707622 0.073429026 -0.07437557 0.01582801 -0.044164047 -0.04033116 -0.048614394 -0.026357496 -0.041129492 0.025065912 -0.037595548 -0.08743346 -0.09713696 0.022449097 0.06419399 0.08399619 -0.007469129 0.07655065 0.0019280661 0.05687192 -0.019210022 -0.06342172 -0.05175684 0.06702646
duchess 0.07359989 -0.045304358 -0.047860775 0.033113968 -0.04505405 -0.036238343 0.1157822 0.08110648 -0.050290942 0.032235406 0.058718786 -0.008529265 -0.026273945 -0.0018608721 0.058318697 -0.0030096564 -0.09019716 0.074049205 -0.016893975 -0.026070757 0.06615285 0.04843801 -0.15789334 -0.027345434 0.09670582 0.051360175 0.029013861 -0.029577348 0.00926522 0.09338879 0.047096696 -0.025469385 0.049158372 0.083670266 -0.07088117 -0.030740524 0.12886402 -0.06083221 0.018582076 0.02217685 0.008968543 0.15049912 -0.066833906 0.085404076 -0.00310157 0.026234169 0.028363531 -0.13980667 -0.007134851 0.0036441016
shut -0.057188682 0.039970186 -0.030329227 -0.044977676 0.029581742 0.010149109 -0.010564219 -0.003343794 0.006723646 -0.05210608 0.034341052 0.032576315 -0.029984618 0.013962118 -0.052669246 0.021532726 0.018596971 -0.0025696359 0.019582888 0.03949784 -0.028849347 -0.026444111 -0.02231901 0.0636336 0.038493697 0.048194904 0.010906875 -0.024743795 -0.0066133933 0.018622257 -0.08054207 -0.041386794 -0.040087122 -0.06988993 0.04104273 0.010815777 -0.04257866 -0.024161734 -0.05025272 0.020144563 0.048479352 0.0098351 -0.03473314 -0.04324631 -0.073973365 -0.030002737 -0.019968607 0.010569996 0.021011312 0.05138761
twice 0.03515663 -0.078502394 -0.015813226 0.014210724 0.07025439 0.004102359 0.040202323 -0.0077474248 -0.013939225 -0.017444264 -0.021807605 -0.065191306 -0.07284989 -0.05254088 0.03684752 -0.08039902 -0.0154056 0.044202607 0.085010484 -0.011430074 0.01743438 -0.055254877 -0.037626896 0.0016198566 -0.030916337 0.007950023 0.057904493 0.008400188 -0.019541552 0.05882351 -0.028268343 -0.024543745 -0.016354308 -0.094264604 -0.0074211205 0.062279295 0.050403062 0.0034650122 -0.039334983 0.0015210537 0.04066581 0.037381895 -0.046062425 0.00060140505 -0.06018708 0.056029573 -0.024028294 0.017724514 -0.0005071154 0.052151617
gravely 0.03860028 -0.031618685 -0.06521575 0.04364249 0.021750664 0.08301958 0.08479261 -0.040040072 -0.0006373261 -0.053953495 0.10856539 -0.040333163 -0.001532342 -0.054913696 0.02999609 -0.09459868 0.09081585 0.08849169 0.040241763 -0.10307056 -0.06963415 -0.01999171 -0.024652563 0.06756757 0.068392076 0.02625041 0.07522326 0.091769956 -0.07109629 0.028458562 -0.096319295 -0.060196433 -0.010894791 -0.016520865 -0.07271091 0.06875994 0.016619537 -0.010843576 -0.04302467 0.046420068 0.08843676 0.042795815 -0.0027675685 0.022178749 -0.09704267 0.033017837 -0.010591617 -0.017590206 -0.005015686 0.09880624
sulky 0.028584402 0.008577807 0.009205384 0.00080102956 0.0026437733 0.028757704 0.07510301 -0.057698444 0.004660815 -0.065725975 0.01190175 -0.066828355 -0.02092032 -0.04665992 0.022164425 -0.04891437 0.02854172 0.05197004 0.04171394 -0.058693778 -0.051463462 -0.03626342 -0.05229883 0.011332702 0.007513919 0.059136648 0.024978545 0.03735752 -0.018149186 -0.004698481 -0.07461892 -0.021235336 -0.027903426 -0.0007408705 0.002734265 0.029993856 -0.06292606 -0.052777883 -0.035526056 0.07392405 0.07651044 0.04580339 -0.047468584 0.049995944 0.0018558704 0.013235293 -0.070491835 0.005152792 0.009341891 0.0017860837
reply -0.010350459 0.03401412 -0.016584683 0.013183653 0.0024913633 -0.022608427 -0.00845629 0.011244334 0.040650938 0.02581501 -0.0061232587 0.033227947 0.0059080226 -0.022087986 0.018359778 0.017493432 -0.024681998 0.037121426 0.036963757 -0.005019961 -0.016078461 0.0043304875 -0.011064996 -0.0039085783 -0.009114609 0.06540214 -0.019377554 -0.036718983 -0.04168859 -0.04104861 0.022882134 -0.009949768 0.033770602 -0.03429032 -0.026452709 0.015684832 -0.015612305 -0.03425046 0.025974022 0.02652465 0.04718875 0.007535905 0.0074921073 0.013728847 0.018138235 0.043696042 -0.011825326 -0.040455252 -0.040475365 0.040924035
c 0.051856704 0.018715948 -0.07216741 -0.048080955 0.036265057 0.00909149 0.033936094 -0.024796154 -0.061275393 -0.0066820392 0.03427563 0.014952967 0.007377147 -0.010016565 0.018925115 -0.07147443 0.045972798 0.023518652 0.048894994 0.012350147 -0.021206206 -0.002179288 -0.03803361 0.0074281823 0.008068783 0.08395661 -0.001362292 0.010100335 -0.058132786 0.046874955 -0.011389656 -0.01134128 -0.039784353 -0.013150657 -0.059134707 0.049181975 -0.015744254 0.0061088875 -0.054199032 0.039777208 -0.008341977 0.008550879 -0.029883659 0.08060097 -0.054955963 0.06797159 -0.068433285 -0.04853882 0.027754443 -0.0039673205
being -0.0126711 -0.061656024 -0.04126081 -0.018292975 0.030826936 -0.023154233 -0.03659491 0.01596758 0.011758356 -0.08771296 0.032307107 -0.04433075 -0.06067438 0.02850254 -0.03144003 -0.027998801 0.060292125 0.008957918 0.05057548 -0.036331788 -0.0039927755 -0.035835437 -0.017845694 0.08546767 0.00040256657 0.06768759 0.05026617 -0.047707662 -0.10216185 -0.03274397 -0.014180301 -0.005865545 0.03875207 -0.025204577 -0.011252076 0.046803463 -0.099098146 0.021782525 -0.034270003 0.013495309 0.04543141 -0.053611733 0.011380563 -0.041900203 -0.07878848 -0.0012089433 -0.036770046 -0.023303999 -0.006446995 -0.022050524
bend 0.038125962 0.021029519 -0.02934016 0.01104373 -0.010874472 -0.011974282 -0.03529033 0.024051012 0.051542904 0.014335878 0.019944154 0.040106125 -0.015185416 0.034289263 -0.01917914 -0.03611277 -0.021339044 0.013017362 0.01734905 -0.05124089 -0.026324641 -0.047080576 0.0034089643 0.046349194 -0.022861674 -0.039196223 -0.034002002 0.0013855795 0.020075612 -0.014781628 -0.03803216 0.022436764 -0.035269473 0.03920643 0.057091303 0.04363201 0.010339989 0.009333296 -0.018117676 -0.032008223 0.022421932 -0.04874145 -0.034279093 -0.0009895217 0.05899938 -0.025298454 0.030716846 -0.0013537023 -0.054256532 -0.0137517955
off 0.23008867 -0.12218427 -0.20225155 0.013334703 0.17206766 0.13976273 0.09701494 -0.17261784 -0.060445722 0.07581403 0.064984106 -0.12481988 -0.14809807 -0.11529147 0.18180418 -0.19280294 0.08759321 0.06684922 0.12590462 -0.090614416 -0.104392156 -0.01876367 -0.13635236 0.12664449 0.2310014 0.10703278 0.18475135 0.13336225 0.015996631 0.14277735 -0.11779814 -0.18102558 -0.10960678 0.042040605 -0.1583879 0.2312039 0.13794634 -0.122960605 -0.18995337 0.14700052 0.07983931 0.10198904 -0.16270505 0.10613506 -0.079964414 0.09988655 -0.08536715 -0.14457026 -0.06627334 0.0048752255
house -0.0046423506 -0.007413391 -0.037632346 -0.041939057 -0.030521905 0.041027565 0.004046165 -0.0480614 -0.0052749105 -0.033587884 0.030279212 0.020867566 -0.003116881 0.032018516 0.063808024 -0.012090907 -0.04017263 -0.011066315 -0.02259066 0.014904553 -0.024303228 -0.068194374 -0.08788258 0.082591735 0.005192014 -0.017385937 0.012380105 0.05088436 -0.06057351 0.000881216 0.02602053 -0.012531959 0.013697509 -0.078832805 -0.056396335 -0.012704213 -0.00816903 -0.018274717 0.013914367 0.008483409 -0.05261731 -0.0073454073 0.023369044 -0.0004925617 0.033602115 0.08255096 -0.024398373 -0.07005616 0.009719813 -0.04306137
thing 0.18626533 -0.17591722 -0.07322964 -0.012486719 0.026728634 0.08534046 0.07379719 -0.019132778 -0.06576717 -0.031524144 0.14736266 -0.1400266 -0.0016575231 0.007993932 0.13415504 -0.07937394 -0.029096927 0.11376604 -0.015150212 0.004606022 -0.005931438 0.04250656 -0.04766428 0.03953931 0.18015054 0.07941739 0.12494733 0.11341006 -0.03350293 0.072586484 0.056359395 -0.02567734 0.020125244 -0.081399485 -0.09030964 -0.039502308 0.08766953 -0.03292202 -0.18597095 0.073459305 0.056495495 0.047532637 -0.17323536 0.1269698 -0.0342817 0.12301824 -0.048632268 -0.0931675 -0.017029028 0.03377537
who 0.16155685 -0.09468367 -0.18322742 0.029754546 0.18493879 0.18577896 0.123095565 -0.10247647 -0.15519968 -0.06046974 0.16321278 -0.17235379 -0.09055952 -0.1543005 0.11731599 -0.114017196 0.18530075 0.21264257 0.08072642 -0.078557014 -0.19968794 -0.055948522 -0.15219684 0.09493687 0.1678516 0.09981041 0.14048702 0.12726647 -0.11363499 0.0911135 -0.09977278 -0.0971201 -0.1412412 -0.054267146 -0.12577151 0.17989194 -0.10655347 -0.078149185 -0.24969171 0.15788661 0.11941609 0.12951687 -0.11357011 0.15519592 -0.060317796 0.07539877 -0.17116304 -0.17765932 -0.15212397 0.046509247
makes 0.045786116 -0.061587665 -0.029388912 0.05092128 0.021708708 0.03680425 0.020885866 0.0034152186 -0.014818969 -0.0024429578 0.00789417 0.012950142 0.017179692 -0.02609309 -0.0035592667 -0.035710245 0.022633456 0.033076975 0.021996621 0.0006091668 -0.015565337 -0.01622049 0.0025311825 0.046013553 -0.017233286 -0.0037745242 -0.009819695 0.0569842 -0.044686098 0.023631558 -0.023804942 0.016762272 -0.019379122 0.025598288 -0.03443474 0.039266806 0.019972721 -0.030118056 -0.018080669 -0.0073892833 0.05633761 0.057984006 -0.01505567 -0.013258902 -0.06461271 -0.0012930762 -0.07029682 -0.023748234 0.01383892 0.017786128
wept 0.015372838 -0.027242169 -0.026284002 0.038739648 0.03158572 0.06884504 -0.029261082 -0.04170138 -0.0035599181 -0.022086706 0.0040662736 -0.020492936 -0.032715894 -0.029944336 0.019647289 -0.087197505 -0.013964501 -0.06863 0.009767321 -0.007898551 0.0037528155 -0.0100279655 0.0009298116 -0.034596775 -0.0653336 0.0127158025 0.0061491285 0.07068933 -0.011568866 0.007846744 -0.010862052 -0.001705267 0.0014919322 -0.019770455 -0.02753783 0.036722794 -0.016771391 -0.052975457 -0.016081266 0.0010596564 0.010548509 -0.015051529 -0.021313695 -0.053380094 0.043421045 0.039827418 0.06391994 0.0069903927 0.06567327 0.05734118
heap -0.0010151326 0.039923362 -0.004635277 -0.04373292 -0.0303986 -0.04433356 -0.030811923 0.050799303 0.050691172 -0.015599744 0.014417799 0.0076900683 0.050548557 -0.020255089 -0.016046675 0.040714987 -0.027532818 -0.038142003 -0.045412313 0.046390288 0.0018845889 -0.030050028 0.046603333 0.02878641 0.041500833 -0.045073234 0.018946078 -0.057950396 0.0038767953 -0.04314254 0.0019920627 0.040645953 0.043964215 0.016279124 -0.00056091277 -0.054562192 0.010950758 0.029302878 0.015960462 -0.030035414 -0.018413406 -0.07050354 0.024219591 -0.03777384 -0.020370558 0.03833728 -0.030947842 0.016621176 0.04533065 -0.014792276
growing -0.025086911 0.006349194 0.029149972 0.017370995 0.05902921 0.022329139 0.052431375 0.0011429491 -0.051686246 -0.04098381 0.015064469 -0.03080852 0.012212711 -0.012575591 0.010572941 -0.051004134 0.049468808 -0.002475091 0.045641176 -0.058284543 -6.824033e-05 0.031176096 -0.012536409 0.007087468 0.02022826 -0.020427955 -0.01703164 0.016991777 0.0055831247 0.013294755 0.034055308 -0.05181325 -0.019966364 0.03703247 -0.047176797 0.03588353 0.03413116 -0.0091317 -0.054060735 -0.04419798 0.027970528 0.029516775 -0.0036262511 0.03326861 -0.0032969723 0.023896115 -0.06472979 0.023151519 0.05038396 0.06777625
waters -0.038169965 0.046090897 0.014272948 0.014811277 -0.028485356 -0.0016361248 0.03166049 0.04433541 -0.030752206 0.03500791 -0.0020185488 -0.012302756 0.002378477 -0.0043939706 0.023647834 -0.018282823 0.02301174 0.025308963 -0.02672727 0.0063081225 -0.009111783 -0.0034872007 -0.05251235 -0.031631485 -0.034964122 -0.015677128 -0.021995304 0.020009212 0.04873234 -0.01218271 0.08616751 0.02908906 0.06995411 -0.0243603 -0.021493992 -0.07656093 -0.01402916 -0.03529621 -0.0049790926 -0.010734783 -0.058024365 -0.050778236 -0.023355009 0.026715325 0.05825326 0.028555045 -0.0037396746 -0.012678841 0.0018917741 -0.08570527
punished 0.007833572 0.020398282 0.023881631 0.00786549 -0.0063024806 -0.02647571 0.022274876 0.028249692 0.04335437 -0.01690249 5.8366917e-05 0.02301315 -0.017233087 -0.029861564 -0.02751187 0.05556362 0.02238562 0.02637969 0.0029097798 0.02972098 0.041513946 0.013426714 0.058813643 0.02332073 0.005521247 0.00866945 -0.010205978 -0.00810988 0.033252142 0.03192684 0.05062367 0.005500707 0.024785573 0.011689313 0.04318594 -0.061010744 -0.02571183 0.054888476 0.04336621 -0.009603647 -0.010096062 -0.04023794 0.023235824 -0.0292273 -0.013652123 0.010417493 0.038612753 0.025699848 0.04732327 0.011729641
occurred 0.0067012133 0.027439617 0.017497107 0.0061902185 -0.050731704 -0.045145746 -0.07027522 0.04317829 0.010515673 -0.030270096 -0.011257616 -0.0011551656 -0.0016219489 0.022320518 0.020119226 0.022709103 -0.038740538 0.019517587 -0.0057983487 0.05885561 -0.0074303662 -0.010644211 -0.01093899 -0.043346424 -0.011865206 0.001753917 -0.0641036 -0.042063754 0.04443862 0.015129127 -0.025305992 0.0007502511 0.0074580787 0.07213325 -0.01638764 -0.014469793 -0.007264807 0.068370424 0.023882378 -0.06305083 -0.02819795 -0.011053737 -0.010394114 -0.0024370607 -0.024093341 -0.05703523 0.05127374 0.06649911 0.02130132 0.028317794
fixed 0.024389988 -0.053879716 0.013778836 -0.0128136 0.03280811 0.013679832 -0.035552002 -0.016570792 -0.04916682 0.015234019 -0.022139631 0.045985665 0.039422788 -0.023375703 0.032716617 -0.052695975 -0.02270929 0.009229956 0.016958125 0.033818237 -0.061132193 -0.0027709738 -0.03567696 0.005899467 0.054109253 0.018786438 -0.04063709 0.03710678 0.014301522 0.03019533 -0.057031915 -0.04221413 -0.0043203547 0.04518584 0.030088041 -0.022319987 0.03416063 -0.05708463 -0.005892883 0.005453449 0.04452472 0.02324652 -0.011189676 -0.038995836 -0.04482121 -0.016965855 0.0293904 -0.053782526 -0.02876026 0.024716336
solemn 0.047844525 -0.006922474 0.009544011 -0.07290579 -0.016204871 -0.010251451 -0.032130208 -0.046496682 0.019238032 -0.024194494 0.012236001 -0.022725778 -0.03495936 -0.045198116 -0.057517417 0.03867317 0.011120633 0.0021471516 0.030770237 0.04665058 -0.034014568 -0.07067208 -0.022803983 0.04695495 0.00059066794 0.034063924 -0.004490112 -0.025743905 -0.044894006 0.0031714898 0.0031674595 0.026042858 0.021839067 0.009738544 0.004480008 -0.031359624 -0.02026421 0.045330763 0.04698739 0.0040137907 0.02180508 0.01841219 0.010750386 -0.06490028 0.010256299 0.030324697 0.033977255 -0.024887588 0.023046961 -0.037890866
find 0.1093863 -0.0038943586 0.02071202 -0.02852025 0.05304374 0.1392779 0.024273757 -0.08720837 -0.0030565325 -0.07092423 0.009538181 -0.0535252 -0.0555429 -0.06924559 -0.0025701795 -0.036737878 0.12644558 0.017505903 0.1080596 -0.057894364 -0.0071414565 -0.011547368 -0.08717635 0.08086716 0.06299582 0.049000118 -0.012645958 0.052901793 -0.06427369 0.059697747 -0.033021126 -0.19545195 -0.08663632 -0.042454254 -0.06267872 0.047877025 0.026871128 0.007847054 -0.086863585 -0.040331442 0.105482 0.06648054 -0.04631182 0.055460617 -0.0771396 0.087225854 0.010333656 -0.03792772 -0.022187898 0.019980341
those 0.060763683 -0.11532087 -0.11776785 0.04617772 0.06486957 0.12549536 0.12054292 -0.097743385 -0.12576899 -0.11005323 0.12977754 -0.091539495 -0.07625269 -0.06551016 0.06329501 -0.08978434 0.12882748 0.14838773 0.08358972 -0.11789737 -0.09484898 -0.07248302 -0.12566382 0.1350405 0.1393496 0.13764869 0.07980454 0.14327244 -0.0900447 0.068604074 -0.09258809 -0.10637299 -0.095089056 -0.087868184 -0.10042699 0.09124132 -0.013361704 -0.07556416 -0.14882973 0.16086957 0.11134313 0.07980543 -0.09715175 0.1549348 -0.14767629 0.1624471 -0.10377951 -0.08228132 -0.046712123 0.07471365
usual -0.023243792 0.031011075 -0.045154937 -0.041909434 0.017260643 0.03403446 0.050267164 0.006165304 0.026500482 -0.023032457 -0.009029272 -0.05373164 -0.05767952 -0.009953564 0.033025276 0.016185487 -0.011696328 -0.01745673 0.03095674 -0.027884949 -0.055593807 -0.027360741 0.017610602 -0.021620374 0.01076547 0.03803093 0.040577114 -0.015102455 0.025697043 0.056125898 0.03313111 -0.035894837 0.027016759 0.028972616 -0.033146426 0.045625836 -0.06273462 -0.032083966 0.012189914 0.047332957 -0.035830673 -9.745127e-06 -0.043985035 0.044735715 -0.01713357 -0.022450035 0.032778572 -0.0012245387 -0.005246416 -0.024144877
climb 0.0364236 0.011000864 -0.011963698 0.031042045 0.05543166 0.04020697 -0.00013355978 -0.040561266 0.045092084 -0.026227554 0.004916806 0.0029775915 -0.030692013 -0.018513791 -0.028513666 0.008291345 0.010157769 0.019207638 -0.01565394 -0.044474646 0.0012267808 0.030725505 0.039760668 -0.0005330405 0.029247168 0.05095268 0.018046763 -0.00095041207 -0.03388615 0.024197198 -0.04812389 -0.03834891 0.05432785 0.022074237 0.03705321 -0.02492092 -0.015784305 -0.028126722 -0.008752767 -0.027789308 0.01782149 0.0064050024 -0.016819144 -0.033239294 -0.064050496 0.0049613654 0.023261147 0.047724094 -0.031443056 0.032078672
hurrying -0.011329697 -0.001133027 -0.012288847 0.029740106 -0.008086294 0.041508216 0.03454044 -0.053943492 -0.0034440998 -0.01322853 -0.007562984 0.03391534 0.010881968 -0.0093666185 -0.011782969 -0.029610898 0.028641997 0.055791702 0.03039202 -0.003416768 -0.059888653 -0.0014345812 -0.048533138 -0.0013043731 0.04473394 0.024853827 0.015603286 0.0072791167 -0.01179399 0.013297154 -0.045656186 -0.017934054 -0.05445527 -0.0038353445 -0.01497183 0.02377886 -0.027104452 0.014952005 -0.04287325 0.00834927 -0.01742118 -0.013603177 0.017572237 0.04945887 -0.020018574 -0.002056878 0.029820092 0.026239906 0.0015466937 0.06463167
but 0.18947107 -0.009073455 -0.2114916 0.079020336 -0.019678589 0.18686971 0.20123154 -0.060132727 -0.1317081 -0.058960464 0.10319937 -0.06260177 -0.09803473 -0.066720605 0.202361 -0.17061724 0.1796348 0.33693206 0.007369915 -0.15651487 -0.26266813 -0.28788057 -0.16783562 0.093819015 0.1334076 0.24477693 0.1849525 0.10427614 -0.0069770594 0.2094785 -0.13792574 -0.103761934 -0.17872939 0.111384794 -0.15861565 0.23939584 -0.03499197 -0.14303774 -0.18724307 0.15888806 0.18134691 0.12736286 -0.10747076 0.03699594 -0.064402044 0.1903125 -0.120832846 -0.11480099 -0.23748472 0.09836681
drop -0.026929058 -0.011371017 0.03452155 -0.06579825 0.039790653 -0.043693908 0.022902079 -0.0056017884 -0.049625307 -0.01828148 -0.031006476 -0.007769771 -0.04407364 0.006610362 -0.030709118 0.026487853 0.015366708 -0.03076135 -0.017716818 0.002737373 0.024465656 0.047579598 -0.0064100903 -0.046221107 0.022405103 0.05595184 0.0149460435 -0.049002357 -0.0028308502 0.058534894 0.009810937 0.011061728 0.043932717 0.008619924 -0.01160987 0.041233785 0.016942134 0.028563343 -0.012847212 0.0027470742 0.023973877 0.003350791 -0.038473453 -0.024011042 0.05470996 0.009431764 0.0011483396 0.008347242 -0.027265085 -0.04438286
splash 0.029791197 0.005431424 -0.03197526 0.049780942 -0.00090367126 0.006910445 0.010473915 0.004582247 -0.023751559 -0.02486227 -0.0023190808 0.01735343 -0.06958036 -0.016392767 0.076674916 0.014443319 0.045732133 0.007435416 0.06560708 0.01936026 -0.060848814 0.02175665 -0.07532565 0.03599675 0.035809297 0.044746418 -0.006681324 0.035689034 -0.06386261 0.04482916 -0.07138186 -0.03250514 -0.033116207 -0.07461727 0.014724456 0.071962096 -0.021964945 -0.0663984 -0.054561973 0.05148047 0.0054707425 0.058354855 -0.053181265 -0.004485386 -0.030905847 0.052686684 -1.4274148e-05 -0.027904881 0.0010631523 0.009539751
age 0.04719267 0.06353736 0.027056018 -0.07950604 -0.05330046 0.061910436 -0.030064475 -0.019236168 -0.056945026 -0.014883495 0.044836 0.036482055 -0.025993858 0.0016724719 0.033087436 -0.021486536 -0.0020885933 0.023579227 0.035425376 0.023321753 0.04529133 0.02263541 -0.050044417 0.036352295 0.025836563 -0.0068457155 -0.0057933787 0.04182014 -0.035619397 -0.036808554 0.01986494 0.009356793 0.00080178364 0.010667544 -0.004632564 -0.026254782 -0.05931002 0.031928625 0.0032307692 0.010935261 -0.0025345152 -0.012894944 0.034826517 -0.035619278 -0.048351504 -0.07159517 0.017290847 -0.024318466 0.043098163 0.015609094
adoption 0.057583362 -0.055864587 -0.060793202 0.008191873 -0.028400276 0.016442861 0.047808073 -0.016169602 -0.0141159035 0.03372672 -0.020223869 -0.013791609 -0.040884178 0.023150755 -0.03628836 0.016737565 -0.020429306 -0.013069664 0.047616202 -0.032486375 0.0035815865 -0.06292268 0.009797984 0.02740724 0.07118187 0.10342895 0.072350465 0.015501749 0.020529702 0.029574873 -0.057609636 -0.01498025 0.0134432 0.0012646012 -0.01413557 -0.041846395 0.026214857 -0.0255316 -0.07942018 0.026132688 0.07636281 -0.019007565 0.007915021 0.07592828 -0.027232224 0.07487736 -0.026500827 -0.062795766 -0.075802974 -0.0070681144
prosecute 0.015974823 0.027145598 -0.037431847 0.005547989 0.03343607 -0.012334574 -0.036713433 -0.048351347 -0.049406197 -0.020026732 -0.0029182434 -0.033030525 0.0225132 0.024970364 0.0013331659 0.015572656 0.037949014 -0.023993898 0.04183847 -0.0026155338 -0.04160162 -0.030920124 0.045168232 0.044288304 0.045273278 -0.019071698 -0.043923616 0.033300642 -0.029370403 -0.024361933 0.00016643852 0.04167554 0.027518604 -0.0015032515 -0.009949099 -0.026680743 0.035989467 -0.044578828 0.010475457 -0.024032915 0.01939154 -0.020928228 0.046993565 -0.040407825 -0.038560748 -0.005438138 0.033086542 0.02937496 0.035798263 0.03622638
question 0.094236195 -0.097706564 -0.12859355 0.045641195 -0.010137531 -0.07342617 0.22011657 0.024788411 -0.16441514 0.048317727 0.19999501 -0.17310704 -0.024739059 -0.040432055 0.21339788 -0.050095525 0.048018385 0.18553375 -0.07843652 -0.037240967 -0.025932884 -0.019829316 -0.1784454 -0.0008573738 0.140924 0.06334295 0.15392295 0.04324594 -0.010682577 0.11667073 0.007111544 -0.046857484 0.04557203 -0.035795745 -0.13197945 -0.053538155 -0.02348444 -0.12930755 -0.054976597 0.07496909 -0.021147389 0.16494372 -0.18563497 0.13476878 0.005117378 0.100113 -0.0088523 -0.13632943 -0.13936117 -0.042115808
put 0.05239313 -0.041957416 -0.033942115 -0.027254904 0.008942587 0.06733906 -0.04078271 -0.044750262 0.029891156 0.032902904 -0.0027634439 0.003038088 -0.04540522 -0.03310917 -0.034505986 -0.036421068 -0.032343645 -0.021717284 0.09630219 -0.067895204 -0.05834075 -0.10974502 -0.054468177 0.068095855 0.0027753306 0.015103218 0.02617142 -0.010770012 -0.00016820416 -0.0017016525 -1.8516956e-05 -0.07734668 -0.036344815 -0.029041832 -0.068013944 0.059467874 0.028142536 -0.004810128 -0.017136147 -0.01400243 -0.012928849 0.04531839 -0.0023533865 -0.02562521 -0.03661216 0.05021165 -0.008483053 -0.015277198 0.053291816 0.038669396
bathing -0.058122482 0.028938664 -0.037902866 -0.01744917 0.019632338 0.03184086 -0.06758945 0.015464093 -0.004476883 -0.029861994 -0.0331837 -0.017809087 0.023318162 -0.019923814 0.015794197 -0.010755253 0.04382046 0.03153083 -0.021541977 0.01770644 -0.03729025 -0.005057747 0.072285526 0.070077054 0.035136003 0.046553146 0.022086244 -0.023881603 -0.023522565 -0.05483726 0.045143478 0.022818962 0.022661677 -0.0147932265 0.011139875 0.0023169164 0.009343579 0.0029365078 0.009178103 -0.0152523015 -0.018554576 0.0009047672 0.028997391 0.050850146 0.006541579 -0.033965718 -0.054164615 0.03188228 0.01683145 -0.056416303
feelings 0.012752417 -0.02036707 -0.048333436 0.004947876 0.074034214 0.07266672 -0.018076753 0.0057277065 -0.059215214 -0.03853356 0.045687016 0.0033574041 -0.0025303124 -0.01136322 0.06785824 -0.05315537 0.010919799 0.0809249 -0.017141368 -0.042740982 -0.053749092 -0.018196937 -0.019161344 0.04454083 0.04534216 -0.014655319 -0.006026499 0.007810796 -0.07257053 -0.002374377 -0.008146597 -0.04116499 -0.045160677 0.0024730242 -0.011152207 0.058283575 -0.010155033 -0.0443079 -0.02313352 -0.015254975 0.034989305 0.039233834 -0.017913733 0.056533128 0.015589145 0.019845245 -0.076099195 -0.020475145 0.047229577 -0.008743316
till -0.027406467 -0.0027023554 0.03468858 0.0068775024 -0.0038779485 0.039928343 0.01666438 0.0324545 -0.03434178 -0.044949032 0.047156688 0.041986015 -0.052045077 0.0026547508 0.0055274097 0.01420783 0.073601276 -0.012472587 0.028605964 -0.021428842 -0.06248594 -0.007953956 0.04128239 0.026771896 0.008310793 -0.028986631 0.012700276 0.029199451 0.010913564 0.053789496 0.008465125 -0.014168896 -0.002975858 0.0017747236 -0.04669834 -0.016790412 -0.057976753 0.03423704 -0.025684642 0.049579106 0.05324995 0.03567783 0.04429879 0.020535868 -0.041013606 0.04967407 0.032909673 -0.002281988 0.015573221 0.023265876
shedding 0.067653045 0.013595118 -0.044957593 0.06304004 0.038477536 -0.026011003 -0.015831651 0.013224988 -0.041032434 0.004248877 0.07586661 -0.03805894 -0.048798367 0.023170806 0.038644757 0.028135804 -0.023387095 0.063378826 0.04499874 -0.014956063 0.0061389003 -0.06206491 -0.066878244 0.0107266605 0.0140264 0.022259356 0.012748123 0.046306908 -0.019990629 0.029597618 0.020502603 -0.012677572 -0.038634565 -0.046546094 0.011410742 0.0046966854 -0.044920772 -0.05657994 0.007206138 0.007486753 0.029304642 0.044029616 -0.07989041 0.016126461 -0.029333962 0.039423563 -0.009108248 -0.028012972 -0.07425999 -0.0037061323
read -0.0044379365 -0.043461498 0.038677294 -0.034694865 0.051372472 0.058628745 -0.039552253 -0.020443622 -0.042091213 -0.04783383 -0.03872802 -0.011267857 -0.055060692 -0.009437058 0.047277667 -0.04157792 0.006603841 0.048051648 -0.005676696 0.0222593 -0.004402045 -0.03620855 -0.002327928 0.061707567 -0.012758855 -0.011467997 0.02236461 0.014905229 0.039693236 0.0359523 0.011166621 -0.005760827 -0.06114635 0.010965099 -0.049721237 0.04259349 -0.000117676915 0.025099736 -0.044909 -0.012383187 0.03950525 -0.030386765 0.045068115 -0.022667797 -0.016790206 -0.010446459 -0.05793964 -0.011789916 0.0156019535 -0.028853213
knot -0.04724275 -0.058872912 0.019589838 -0.0010498425 -0.001168474 0.0441065 -0.020583542 0.04498611 -0.019389441 -0.011054381 0.0028907382 0.014139727 0.01877115 -0.043947197 0.040807802 0.02695795 -0.054291386 -0.08073409 -0.0115454 0.06433167 0.0077752476 0.009740488 0.007667901 0.048517026 0.001152805 0.0028155935 -0.043712795 -0.023501515 0.034509853 0.00669388 -0.04738127 -0.044308074 -3.008137e-05 -0.018526614 -0.017565215 -0.016881777 0.02019576 0.04974452 0.03774051 -0.04678995 0.005564276 0.061167106 0.043429207 0.011203908 -0.05085134 -0.014933334 0.0043784264 0.037926897 0.00707909 -0.0056001367
likely 0.063329495 -0.006024129 -0.0045179576 -0.00500529 0.030015357 0.072667904 -0.018588005 -0.009427998 -0.00081309257 7.439521e-05 0.036465444 -0.052186593 -0.036797326 -0.051457275 -0.027308777 0.0025281426 0.06480943 -0.033498053 0.04878431 -0.009447675 -0.09599965 -0.09946974 -0.07257693 0.010813206 -0.026634399 0.039373003 0.015919687 -0.0048115975 -0.001313724 -0.026783643 -0.06879632 -0.04649641 -0.048782762 0.0054604057 -0.049267564 0.014001264 -0.01049389 0.0029114233 -0.04105445 0.076444894 -0.0012127731 0.016623555 -0.0016032226 0.0039893193 -0.101072416 0.0055922642 -0.0399202 0.016545564 0.04171517 0.041398957
while 0.056680273 -0.13219082 -0.05943242 -0.02621556 0.053935856 0.04721653 0.106590375 -0.056251526 -0.10139372 -0.006448182 0.0660808 -0.0694345 -0.040796794 -0.01344077 0.048968274 -0.079646446 -0.0019083518 0.055570442 -0.030006206 -0.07293001 0.023687169 0.036427695 -0.13518243 0.03099657 0.0693902 0.094287954 0.12334177 0.06300576 -0.01948154 0.12807024 0.01837785 -0.041632142 -0.08331844 -0.08815503 -0.058109652 0.03280104 0.013033528 -0.06456612 -0.068326704 0.13418937 0.09822089 0.14263864 -0.082623586 0.12872148 -0.043670285 0.054367624 0.005474262 -0.053884722 0.028945202 0.029675527
meaning -0.056968227 0.051559575 0.021240644 -0.04189655 -0.048970737 -0.03277571 -0.03985952 0.028033733 0.03675325 -0.009116847 0.020840812 0.008142037 0.0028986242 0.03342336 0.002645721 -0.015550331 -0.029991217 -0.014247104 0.043080818 0.011312615 0.022011848 0.04827942 0.04356464 -0.04552187 0.0017335082 0.01838355 0.021868372 0.032005027 0.005037597 0.04394834 -0.0052159484 0.051563233 0.0061088824 -0.0027166023 0.005575197 0.0038957084 -0.028629785 0.044819742 -0.034339428 -0.006754005 0.00272694 -0.028105604 -0.029880317 0.010079539 -0.01557002 -0.003235865 0.004426143 0.013573272 0.013785191 0.014796956
sighed 0.055416375 -0.013343956 -0.08048503 0.0027673864 0.022669889 0.019248178 0.09434119 0.020025667 -0.07243194 -0.007361695 0.0764568 -0.0017785114 -0.028166806 0.014826429 -0.00096935884 0.0028577275 0.058187604 0.054646228 0.048894208 0.019100817 0.023627533 -0.012182122 0.0014773782 -0.03708928 -0.0037357984 0.0004068457 0.08431019 -0.0061564483 -0.003264804 0.042457953 -0.063375 -0.0698257 -0.011989997 0.0039709588 -0.07037571 0.06333096 -0.050071582 -0.037598006 -0.07684749 0.01551681 0.0023345328 0.033137318 -0.064338684 0.0092878 0.02404869 0.022707084 0.009229514 0.005386585 -0.0604292 0.017683085
means 0.077863894 -0.05967599 -0.013139022 0.049377527 0.08557268 -0.008361055 0.08268959 -0.051810518 -0.03993386 -0.05668926 0.002790331 -0.08068902 -0.02315807 -0.035390772 0.015219029 -0.06222477 0.0020642786 0.01798023 0.0809694 -0.054896317 0.013157562 -0.05265495 -0.087508634 0.045015253 0.03430675 0.04152679 0.01425837 0.0075702816 -0.044212453 0.06855675 -0.053535327 -0.085667446 -0.05403687 0.01491844 -0.04632852 0.04610709 -0.016317936 -0.071483865 0.024341282 0.09262056 0.07513389 0.0354128 -0.09037162 -0.0040659118 -0.09709572 0.10886505 -0.08406017 -0.0316645 0.041430335 0.063578136
then 0.08425298 0.03730752 -0.035556402 -0.06777136 0.15474576 0.10608867 0.02227266 -0.08125955 -0.04361314 -0.02900028 0.026957596 -0.055950813 -0.027784085 -0.06969638 0.059647087 -0.02122118 0.098245926 0.073253386 0.06338154 -0.09655963 -0.10091616 -0.05901823 -0.03729776 0.030301958 0.073054664 0.03926145 0.09081712 -0.022716926 -0.06458308 0.110343315 -0.08651449 -0.116194755 -0.1524229 0.030547526 -0.007642148 0.14081092 -0.03603106 -0.012750155 0.0029817745 0.060836278 -0.007213396 0.0883337 -0.02520014 0.061624948 -0.05298246 0.12607704 -0.104955494 -0.0104814395 0.002330137 0.070605665
dinah 0.12077634 -0.016507948 -0.10880186 -0.0332012 0.13517232 0.14677525 0.085879155 -0.045829542 -0.060449082 -0.20570742 0.058263678 -0.12787363 -0.12261145 -0.14803112 0.07609314 -0.060341366 0.22462846 0.16030416 0.071714595 -0.15883815 -0.18541937 -0.19947654 -0.14364554 0.14237319 0.1344786 0.04859805 0.07367732 0.13668865 -0.06611223 0.07293857 -0.14864752 -0.13100192 -0.20101628 -0.053884912 -0.06341144 0.10590292 -0.076208875 -0.09162891 -0.075333714 0.11244394 0.13728118 0.07978239 -0.037932497 0.0880167 -0.037495796 0.10051472 -0.09856538 -0.1144955 0.013110944 0.069467306
fell 0.051370133 -0.00043518262 0.005877044 0.008506911 0.018718414 0.04386664 0.0037043304 -0.027693486 -0.013232192 -0.017833782 0.045635864 -0.014965555 0.013748771 -0.0692929 0.04869639 -0.07858295 0.009348722 0.06646893 0.009318091 -0.066349216 0.035647873 -0.02672865 -0.074873954 0.050086424 0.07192536 0.0077065188 0.09246194 0.009428222 -0.013092806 0.09010569 0.038511205 -0.07173868 -0.14112079 -0.031721298 -0.048879463 0.0305216 0.026925515 0.017392322 0.04153281 0.018935928 -0.027854247 0.08203672 -0.010887602 0.019588478 0.027852293 0.07665261 0.024012376 -0.0028901862 0.071855664 0.075813204
presented 0.035292387 -0.035766974 0.003372503 -0.013274152 0.035265703 -0.0066227294 0.014595866 -0.039752226 -0.066795245 0.04344387 0.05465069 -0.032043237 -0.019856947 0.03222947 0.047614343 -0.056196086 0.02754796 0.042725183 0.010086227 -0.038398296 0.045037832 0.031487852 -0.004015742 0.025974095 -0.015487511 0.031153327 0.06184843 0.04934974 0.040016267 -0.0040722527 0.013629084 -0.01581977 -0.03693205 -0.012505747 -0.0736637 -0.033676513 0.0277582 -0.020839348 -0.07344062 0.015996652 0.00078683975 0.06903422 -0.016792743 0.012193637 0.015855504 0.05184356 -0.037228115 -0.016517162 -0.045937404 -0.0075880922
pretexts 0.061285336 -0.071068026 -0.054372873 0.029018864 0.012875173 0.034861412 0.05695249 -0.0456741 -0.03479035 -0.04980174 0.010406194 -0.05204136 -0.008471607 -0.0019674392 0.069981046 -0.0557214 0.08181408 0.024237731 0.089514114 -0.06405065 -0.056319233 -0.06537068 -0.094370924 0.007792718 0.0040705875 0.011861682 0.062248733 0.09139754 -0.052994777 0.08139288 -0.035935275 0.00500578 -0.05798927 -0.053550217 -0.07903461 0.078792796 -0.05908214 -0.076322004 -0.06730012 0.03232106 0.044594474 0.04002197 -0.012488853 0.03428552 -0.049498305 -0.007813339 -0.08914665 -0.06195538 0.039590314 0.045767974
iv 0.09395275 -0.02027355 -0.020614244 -0.032967567 0.0021011038 -0.0072170533 0.043746255 -0.012807445 -0.0074424604 -0.010519681 0.07399455 -0.06315915 -0.027055183 0.030654877 0.04537761 -0.088953204 0.017515898 0.0012419771 0.027801882 -0.0053081764 -0.057656642 -0.03407952 -0.025425427 -0.031116644 0.07591438 0.037401788 0.09546982 0.07144232 -0.035831124 0.056718677 -0.02268621 -0.038319346 -0.03284976 -0.011580847 -0.019570002 0.028840076 -0.040515672 -0.055979766 -0.04100585 0.04336256 0.0017798217 0.023859981 -0.058602374 0.052903652 -0.024985926 0.04883675 0.017295882 -0.02195888 0.0035811157 0.052271854
edgar 0.0050998325 -0.06768291 -0.011492672 -0.008939831 0.013642745 0.00404989 0.02934548 -0.038760822 -0.0050185528 -0.007425899 0.0016694666 -0.015930928 -0.037253622 -0.060569733 0.037932485 -0.05674506 0.03569965 -0.008392563 0.027403852 -0.044804294 -0.06756046 -0.06488261 -0.018778179 0.08037182 0.07710401 0.027561087 0.04982805 0.015551811 -0.075944856 0.057703182 -0.078387044 -0.03389836 0.02699893 -0.044559676 -0.029081298 0.049327984 -0.033880726 -0.016285086 -0.010489996 0.022115808 0.0899106 -0.008439243 0.008043687 0.053254556 -0.021136338 -0.011186445 -0.015864175 0.024628479 -0.040655095 0.002622812
think -0.027282637 0.14552025 -0.011065446 -0.14872102 0.0058464045 0.18311879 0.03326103 0.0030259523 0.043755665 -0.41004166 -0.13532163 0.06428578 -0.024169512 -0.131993 0.029956425 0.020821273 0.17377377 0.10795379 0.013951001 -0.18742073 -0.20575805 -0.23657867 0.06904528 0.1298181 0.09217703 -0.024098374 0.07127397 0.009182228 -0.05777782 0.11648414 -0.019605037 -0.13103788 -0.13739245 0.035596933 0.07030884 0.09960156 -0.17570415 -0.020960065 -0.023506096 0.047662385 0.07234988 -0.11757567 -0.044970714 -0.05540441 -0.017801674 0.15918502 -0.05443963 0.03031407 0.037512466 0.027598318
never 0.10217309 0.002071791 -0.048015136 0.048147485 0.07246135 0.121710196 0.025792187 0.011270348 -0.032221373 -0.10781943 -0.034106825 -0.010651099 -0.057096533 -0.072115846 0.05632299 -0.06493276 0.081849724 0.040934984 0.07323525 -0.10605507 -0.09779114 -0.07645965 -0.030131035 0.009152674 0.11918258 0.03622442 0.01885591 -0.02214207 -0.04280681 0.10139708 0.016546892 -0.13090369 -0.13681059 -0.04865062 -0.042081818 0.05306718 -0.017578308 -0.040607296 -0.040389344 0.017811883 0.13439502 0.052436538 -0.106933504 0.02200092 -0.07277652 0.030322948 -0.007917205 -0.012745907 -0.0041915257 0.06699208
remarkable 0.02505369 -0.012467066 0.009719511 -0.057009734 0.037129905 0.03171277 -0.006860402 -0.047580965 -0.006694143 0.0053512934 0.012766891 -0.046775613 -0.08830384 -0.07906613 0.043837305 -0.056262825 0.036985442 0.00046950905 0.0263804 -0.035337485 -0.03585347 0.0031098921 -0.021396033 0.10314464 0.007844842 0.08404909 -0.014815478 0.008745827 -0.042906035 0.0027476388 -0.012742372 -0.07957364 -0.055262193 -0.046731602 -0.006375768 0.0051781265 -0.07948528 -0.058995645 -0.0029114205 0.0362605 0.06208422 0.070111535 -0.0028828306 0.059405483 -0.11946643 0.032943882 -0.010097969 0.012115883 0.080203 0.013954716
o 0.09407683 -0.10049029 -0.06716827 0.038435254 0.045217227 0.115553185 0.12895745 -0.034580115 -0.04685677 -0.013932018 0.12892671 -0.092622645 -0.06114059 -0.12699568 0.034945603 -0.0728067 0.029004239 0.051276714 0.054726426 -0.12767 -0.09054613 -0.08902533 -0.091773905 0.02815028 0.03025312 0.03202008 0.07172621 0.07394394 -0.03641753 0.0850953 -0.06908206 -0.13983932 -0.105450034 -0.12723862 -0.1182554 0.10976254 -0.06631935 -0.03130729 -0.11015307 0.086571075 0.12455113 0.059654187 -0.10853377 0.11528031 -0.088309005 0.03657405 -0.10318661 -0.12912405 -0.08965413 0.096488215
reading -0.06322931 0.050648592 0.041307356 0.0077733155 0.02578543 -0.019794464 -0.0032735472 -0.028723754 0.0017349083 0.026473762 -0.009882857 0.0034891544 0.023851233 0.0039961613 -0.016331978 0.05228773 -0.021571308 -0.010504914 -0.00487174 -0.030475693 -0.010723345 -4.4034896e-05 0.011261227 -0.004028977 -0.013470426 -0.04783257 -0.03820901 -0.059421465 -0.01151597 0.005933933 -0.03187707 0.06154344 0.026101913 -0.0041671824 -0.024213165 0.035629753 -0.0003930676 0.05196362 0.05517061 -0.051595155 -0.0022938938 -0.014954014 0.013513813 0.010941227 0.033391777 -0.024067268 -0.041029155 -0.027212188 0.05960775 -0.025889818
times 0.11784831 -0.08200276 -0.110959195 0.043712813 0.12693313 0.12790129 0.07206751 -0.07594994 -0.16699636 -0.041817218 0.13350332 -0.10037229 -0.17152874 -0.15381435 0.10945802 -0.06922459 0.14254652 0.11402749 0.090965524 -0.121040195 -0.18115513 -0.12213542 -0.08406269 0.14501415 0.08480958 0.15840408 0.10608681 0.16264015 -0.16015895 0.08553629 -0.10733503 -0.12835665 -0.0891819 -0.10410531 -0.14045455 0.12791115 -0.09412234 -0.15110274 -0.11685867 0.09341745 0.17329223 0.11232181 -0.10579669 0.10281716 -0.1678391 0.09864546 -0.12787199 -0.1290155 -0.079330884 0.068810746
lory 0.02984085 -0.0824093 -0.043033935 -0.15446064 -0.04075827 0.023505803 0.057946887 0.053431 -0.060820624 0.08056929 0.05653742 -0.10079419 -0.02773594 0.035962243 0.11363235 -0.065296836 -0.03466837 0.0353569 -0.057581946 0.026658894 0.035188396 0.028294943 -0.04706558 0.0026888454 0.0148231555 0.026285883 0.005976403 0.053748682 0.08657242 0.03162854 0.01765119 -0.017080551 0.06073082 0.03587774 -0.071356274 -0.05199903 0.020293288 -0.08237759 -0.048256107 0.0006109653 -0.053780682 0.08194982 -0.079518 0.03708991 0.031670738 0.0042466107 0.06911599 -0.07711054 -0.019287389 0.021011924
spread 0.078252316 -0.057153054 -0.023522083 0.0052584657 0.02981145 0.0064392583 0.009350709 0.0008780813 -0.04473244 -0.06590377 0.04747757 -0.099586144 -0.08664197 -0.08222906 0.0040177936 -0.06009092 0.022789905 0.093923815 0.08479306 -0.059419233 -0.015133465 -0.013293227 -0.024349332 0.064603545 0.012009612 0.06450778 0.011484144 0.07814172 -0.060995318 0.0058263773 -0.03507856 -0.0521435 -0.06440321 -0.024045035 -0.023359308 0.05633815 -0.0046886047 -0.037881203 -0.0793738 0.0084827095 0.049095884 0.042806745 -0.08507242 0.10230505 -0.07889362 0.09902626 -0.07630451 -0.032143626 0.012226522 0.025232228
actually 0.03356717 -0.062407244 -0.015704976 0.0234103 0.01825855 0.05687732 0.10005886 -0.027915338 -0.054569412 0.048826676 0.053406786 -0.040245257 -0.04937104 -0.028668437 0.030148227 -0.049482174 0.047122624 0.043786306 -0.027438013 -0.03766043 0.050060138 0.05330509 -0.05629818 0.042611282 0.022554839 0.008215097 -0.003649316 0.034081653 -0.049522538 0.019677784 -0.0091557205 -0.023222294 -0.041933257 0.026745295 0.00089137594 -0.02527043 -0.03703848 -0.044006653 0.003889344 -0.029812966 0.01522285 0.09027371 0.009399522 0.07857542 0.00802538 0.010721412 0.0019892978 -0.091402926 0.030507956 -0.021475462
brave 0.03865705 -0.032299213 -0.01740215 0.05659868 0.02155335 0.0083930995 -0.009491861 0.012276257 -0.08092669 -0.0009258633 0.036326256 0.01035329 0.013729137 -0.049998417 0.029895833 0.0052076634 0.008906646 0.003832692 0.007063015 -0.017042719 -0.057268098 -0.035653714 -0.05753435 0.035358384 0.022652013 -0.003008857 0.05558407 0.07615415 -0.056110535 0.07973002 0.0025685183 -0.025574286 -0.029089388 -0.04686319 -0.06630569 -0.005619194 -0.035590652 -0.05417198 -0.05172207 0.0047716107 -0.008574772 0.053579226 -0.07657094 0.018261196 -0.06563903 -0.008124079 -0.03705771 0.006040283 0.026426129 0.02445791
dinner 0.03720791 0.025002835 -0.05661794 0.026189342 0.07135027 -0.027024422 0.03637607 0.016367257 -0.011025278 -0.003070462 0.04252048 0.019736797 -0.0146150915 -0.03662743 -0.015173584 -0.028747573 0.057334043 0.023231002 -0.029460892 0.0023309947 -0.054270495 -0.028769584 -0.0562655 -0.0069670696 -0.026841981 0.05506269 -0.0018184679 0.0547961 -0.016666085 0.04189918 -0.015482521 0.011364093 0.022106891 -0.036588166 0.014002731 0.015317666 -0.03467592 -0.01617575 -0.052441075 -0.01671735 0.04011852 0.036786653 0.0068079927 -0.023417978 0.028216908 -0.007394597 -0.050011847 0.002203194 0.03622111 0.022696013
rats 0.030767262 0.029846376 -0.033176664 -0.06334673 -0.0055175587 -0.05367127 0.06375281 -0.012627666 -0.040541306 0.01630426 0.036001623 -0.004945243 -0.006779824 0.04088461 -0.02549064 -0.019027468 0.015836254 -0.028229196 -0.010677764 -0.019108817 0.062125415 -0.003935152 0.010802666 0.01864456 0.002415252 -0.044753402 -0.011036124 -0.04826492 0.04612521 -0.023193285 -0.019471863 0.03514869 -0.00788974 0.012213902 -0.010023911 0.010508558 0.060477156 -0.0038613975 0.027615935 0.043331355 -0.012064438 0.00198951 -0.018118577 -0.018529141 -0.019804653 0.055253666 0.007788552 0.01544546 0.013558855 0.027132548
feel 0.096141286 -0.034290083 -0.011362637 -0.051602453 0.037270635 0.07076715 0.044372134 -0.061890043 -0.009995274 0.02983254 0.033832002 -0.02360735 0.01684792 -0.04605103 0.05338265 0.015472171 0.059688058 0.069544986 0.023849728 -0.0006810359 -0.06045207 0.022952607 0.03649837 0.046039958 0.10353889 0.011162095 -0.011246596 0.055718146 0.028878102 -0.009988024 0.011016168 -0.017189447 0.019373663 0.009269216 0.005102626 0.041807853 0.017612936 -0.0500093 -0.038424462 -0.023556734 -0.013226434 0.008794787 -0.015759394 -0.011287931 -0.074585885 0.03391208 0.012223881 0.043223295 -0.017062947 -0.01597023
swam 0.07453423 -0.016386498 -0.04083156 -0.022277601 0.06768523 0.12234403 0.040262 -0.03645593 -0.018256983 0.036944967 0.013759717 -0.08911927 -0.07607453 -0.07974595 0.02590372 -0.06443041 0.06307466 0.0095157 0.03294619 0.008158443 0.041729048 0.012987807 -0.021777721 0.04492962 -0.00546688 0.039761424 0.041038603 0.02697213 -0.031945743 0.070651606 -0.032937117 -0.13639224 0.021412546 0.015712705 -0.019863097 0.064535074 0.0782499 -0.025433244 -0.041634064 0.06449777 0.036916044 0.11913781 -0.09122353 0.051278614 -0.00060801534 0.027827596 -0.050714515 -0.05484657 -0.034472555 0.021854008
upon 0.11295873 -0.201878 -0.060237423 0.11221733 0.16717699 0.12740442 0.10285458 -0.1659483 -0.051341876 -0.016475568 0.13206977 -0.18018341 -0.15217742 -0.27426502 0.08610036 -0.22980466 0.030252634 0.032821283 0.1205451 -0.18592909 0.017072834 -0.146316 -0.24439837 0.07145984 0.023401592 0.05008927 0.04048118 0.12662727 0.017803475 0.115537465 -0.08167197 -0.10884694 -0.23426831 -0.1960369 -0.14464197 0.09498295 0.0196199 -0.11041732 0.02175723 0.09896805 0.031831227 0.15520829 -0.12669487 0.16766831 -0.08776413 0.15896793 -0.037464444 -0.0690438 0.042110886 0.17709753
shrinking 0.06458213 -0.039279815 -0.04445531 0.018268218 0.16788723 0.106687896 0.055251423 -0.0857081 -0.107169986 -0.030204542 0.029094633 -0.08036578 -0.07602704 -0.10512152 0.07029188 -0.12374574 0.10819535 0.025335874 0.14735955 -0.07613589 -0.053385556 -0.09441498 -0.13693768 0.048563484 0.06262169 0.1170294 0.1019921 0.039067235 -0.056844875 0.14600167 -0.12602854 -0.15095587 -0.051234577 -0.13052237 -0.05074773 0.07526513 -0.050426237 -0.11077316 -0.067797415 0.058106683 0.077305466 0.042890787 -0.084185705 0.032369196 -0.0583099 0.071182646 -0.09716447 -0.0365348 -0.06271997 0.108174376
thirteen 0.016229315 0.039717674 -0.03229309 -0.009897408 0.02653329 0.021210704 0.03831863 0.008875417 0.017879458 0.02347169 -0.025365075 -0.053148445 0.031192385 -0.027561603 -0.0018347929 -0.017940287 0.03536607 0.022943249 -0.01185949 -0.0029845615 -0.031109411 0.029539034 -0.023344263 -0.034425084 -0.009015465 -0.00526264 0.020767463 -0.022637334 -0.013163276 0.033262346 0.0064474274 -0.030092504 -0.036799006 0.0032108475 -0.05368986 0.017779 0.005840076 -0.014790115 -0.061074205 -0.0052953544 0.027772995 -0.005647181 0.028263517 0.03981114 0.00928105 0.045977086 -0.04526341 -0.046436727 -0.033029784 -0.0029582705
capital 0.010245634 -0.08298358 -0.084364384 -0.0015157794 0.010513364 0.016842335 0.1301023 -0.01578631 -0.06767616 0.04492908 0.1091291 -0.06479145 -0.009437149 0.02607968 0.06148123 0.018735407 -0.0053065447 0.011589652 -0.038370505 -0.03144318 -0.022169288 0.039347738 -0.031125197 -0.010742053 -0.0016447247 -0.0164169 0.023847155 0.04507891 -0.059993636 0.03991323 0.056750633 -0.0448652 0.023879124 -0.059460245 -0.0724595 0.016218683 -0.06474621 0.0070041018 -0.065400906 0.0042047184 0.013206257 0.024526535 -0.096548304 0.06977301 -0.0019781094 -0.011367549 -0.03526377 -0.04976656 0.046413217 -0.031353563
birds 0.07302631 -0.06340952 -0.0870473 0.016670516 0.046557423 0.037928786 0.14736475 -0.056489367 -0.07575049 -0.0006696759 0.13084956 -0.113788255 -0.04301496 -0.024364706 0.11474121 -0.1489543 -0.010288882 0.14154306 -0.020056445 -0.008420944 -0.06699175 0.022375885 -0.093905166 0.07565895 0.06934232 0.075914666 0.091491394 0.11707051 0.009734983 0.09549477 0.0019458116 -0.077448346 -0.026753938 -0.0009859056 -0.14075378 0.06501688 0.04390299 -0.10571527 -0.12697409 0.047441572 0.069989964 0.15628552 -0.14061557 0.08354913 -0.08571639 0.13409047 -0.061210655 -0.06395103 -0.068744734 0.0343638
cat 0.018957136 0.042466227 -0.05532189 -0.10372446 -0.034824792 0.051697463 -0.024562003 0.012555996 -0.020216638 -0.039292865 0.026710395 -0.022277335 0.030585587 0.026710425 0.008112515 -0.022713488 0.01520722 0.012592077 -0.010388697 -0.020314975 -0.036004197 0.00054857694 0.00095735665 -0.015346134 -0.039955884 -0.032811556 -0.032359023 0.00096137763 -0.019406231 -0.028918765 0.030188836 -0.019014427 -0.020811807 0.07343423 0.044745814 -0.014127286 -0.07017455 0.045723803 0.049005654 0.04844272 -0.033654824 -0.03476247 0.020771412 0.038047977 0.016933305 -0.0066559897 0.004447239 0.008321421 -0.044183526 0.009811105
d 0.02703207 -0.040555034 -0.044886213 0.03872896 0.07546293 0.06988504 0.080659404 -0.059244033 -0.017996471 -0.019359987 0.035318393 0.010694996 -0.08340514 -0.034944337 0.059641894 -0.114890516 0.06574113 0.06327342 0.0796954 -0.046414886 -0.06574737 -0.14792615 -0.04144765 0.07709557 0.0481574 0.06726246 0.08366348 0.08702531 -0.10185023 0.10489268 -0.07266131 -0.11826674 -0.12891224 -0.03154306 -0.030489419 0.08527719 -0.0566356 -0.11655409 0.0045852675 0.033699136 0.065387756 0.07127834 -0.081317596 0.087010704 -0.106152244 0.045741886 -0.11836541 -0.039458245 -0.03559327 0.057685737
