1182 50
key 0.08978193 -0.027036073 -0.00599008 0.009256227 0.031043073 0.056657 0.09977662 -0.092128724 -0.010017831 0.083442785 -0.02456855 -0.091131434 0.0045097554 0.043963153 -0.008617487 0.0551192 0.07558608 0.024854127 -0.058376867 0.13012213 0.0054585245 -0.04205067 -0.11392765 0.109021775 -0.065148465 0.018979503 0.07924761 0.11861826 -0.02640811 -0.048207715 -0.0050143898 -0.0972937 -0.031892795 -0.014186327 -0.027224962 0.08411835 -0.01531301 -0.10631331 -0.098658316 0.058604278 0.060653448 0.14971463 0.027048318 0.059978124 0.01885631 0.010612763 -0.038151637 0.030299762 -0.056806922 -0.096170224
rapidly 0.03459447 -0.04384672 -0.060706552 0.048157457 0.07321546 -0.078333005 0.05320217 -0.018263595 0.013656016 -0.02799977 -0.044255987 -0.011389874 -0.08147256 0.017358815 0.029508628 0.016074395 -0.02690849 -0.023758657 0.030980812 -0.029547356 -0.047473565 -0.05296595 0.02294953 0.052594095 0.053648338 -0.021356879 0.02170486 0.057762522 -0.048935357 -0.021656372 -0.043766323 -0.07463469 -0.005541633 0.00097055093 0.035581987 -0.050323468 -0.07772973 -0.012809269 -0.017967887 -0.013508998 -0.0035202396 -0.054560136 0.036291894 0.046683323 -0.027405716 0.037868116 -0.022025967 -0.038738634 -0.019443046 -0.0035187583
finish 0.010098754 0.049844563 -0.05965921 0.030189522 0.011214525 -0.01876366 -0.014560644 -0.018966386 -0.026767695 -0.037269305 0.08575126 0.002970487 -0.043963242 0.030533064 -0.038749725 0.04423618 0.04137372 0.019572165 -0.024434298 0.048566714 0.024332441 -0.061830904 -0.044458076 0.086099416 0.021633198 -0.015396196 0.06983789 0.07592763 -0.030101318 -0.06099472 0.037434563 0.025418855 0.048637494 -0.046848554 0.0020614252 0.080278695 -0.083930954 -0.019572949 -0.07061961 -0.041308846 0.00731654 -0.014595753 -0.04042311 0.055181466 0.09785459 0.08957134 -0.039490886 0.045020226 -0.043590926 -0.055303525
curious -0.014216354 -0.01132944 -0.07324481 -0.037751414 -0.02865188 -0.08802808 0.04438356 0.021199903 -0.033252582 0.015534231 -0.02048489 -0.032347348 -0.056254707 -0.025801009 0.07072985 -0.0015521769 0.046370264 -0.05779265 -0.0025129337 -0.010371852 0.0035148356 -0.065913066 -0.095026985 -0.00943572 -0.06718323 0.03988907 -0.014444283 0.016005686 -0.04105945 -0.09635166 -0.02308236 -0.017680595 0.037004877 -0.03811084 0.061633587 0.077118665 -0.080613576 -0.018150657 -0.03234069 -0.027303616 0.03709848 0.014765562 0.035333462 0.056953713 0.09638546 0.06384421 -0.06428839 -0.010189861 -0.054164153 -0.03967709
rest -0.021744112 0.077299625 0.024854122 -0.027744956 -0.033639304 -0.062830456 -0.0067597684 -0.06782004 -0.012481824 -0.00315631 -0.046472423 0.02747229 0.037933208 -0.014158288 0.047419854 0.019960867 0.04150154 0.009244019 -0.03943857 0.009021451 -0.030942814 0.046276122 0.036494292 0.020413715 0.05760159 -0.014465053 -0.002292955 0.082764804 -0.013012039 0.029667005 0.011117758 -0.0010323038 0.018643087 -0.044336047 -0.008139022 0.04403864 -0.03260308 -0.058950827 -0.039448384 0.045394003 -0.049644783 0.08258448 0.00884611 0.08374295 -0.015950684 0.026240904 -0.0756239 -0.020320298 0.023268443 0.057740167
made 0.1055464 -0.024076331 -0.05991014 0.058272008 0.063403375 -0.11287787 -0.029358529 -0.1197917 -0.071866505 -0.085455336 0.048721198 -0.08367167 -0.10539631 0.03492055 0.006318594 0.07322296 0.047839247 -0.065940656 -0.008162796 0.07121418 -0.015705569 0.010134574 -0.025146905 0.04775176 -0.059385747 0.07553231 0.04972427 -0.019267052 -0.07123377 -0.07720996 -0.029829454 -0.11375978 0.05547273 -0.0028737532 0.017862428 0.05955017 0.026708497 -0.015483598 -0.018456234 -0.020106489 0.018551338 0.030747896 -0.036212545 -0.02538608 0.07020526 -0.0046489704 -0.055376183 0.0053413264 -0.04138587 -0.00733341
drop -0.049863473 0.016630512 0.053558357 -0.05904055 0.066600025 -0.061330207 0.016741911 -0.01774739 -0.06881945 -0.031458985 -0.05249108 -0.008188212 -0.07082 -0.0018278687 -0.050196268 0.07506755 0.03348366 -0.07029978 -0.0022969758 0.00930662 0.0073393746 0.05727409 0.006702278 -0.04565676 -0.0046932017 0.08337346 0.009041322 -0.05680847 -0.022351 0.049933426 -0.0013438344 0.0127852075 0.0674467 -0.020978639 0.005904499 0.07708198 -0.0004930317 0.043401908 -0.017670155 0.010173369 0.039905988 -0.0065053236 -0.042047825 -0.03847922 0.073150985 0.007996142 -0.021496756 0.042761803 -0.033946253 -0.070651054
roof 0.0010619403 0.020860676 0.012760801 0.07467912 -0.037085555 -0.06782521 0.051772643 -0.02051808 0.03264994 0.0146804815 0.023465294 -0.054721586 0.0043741902 0.0067145894 0.025250372 -0.025606208 0.060253676 0.048859753 -0.032020245 -0.06019038 -0.04162064 -0.022255179 -0.07339241 0.012470232 0.03939218 0.0775188 0.032109607 -0.007991399 -0.06695702 0.052934237 -0.07715427 -0.038733594 -0.025207944 -0.05739655 0.023298617 -0.02718842 0.06830777 -0.05344143 0.046008002 0.07286641 -0.021636361 0.076035656 -0.06562816 0.07928579 0.004749658 0.029898383 -0.01392258 0.016739521 -0.06544502 -0.054355923
cheerfully 0.046890065 0.07936105 0.047422845 0.042297408 0.07928663 -0.055119734 -0.0457514 -0.05384071 0.0019427899 0.024996152 -0.05645579 0.016647512 -0.0158908 0.038094707 -0.014723343 0.026924977 0.011213984 -0.05494953 -0.040860754 0.04571085 0.024031032 0.0477114 -0.04583907 0.036406823 -0.040634267 0.054512635 0.06960392 -0.0013663288 0.027130198 -0.015534489 0.045034107 -0.053757258 0.036167067 -0.031733356 -0.014902683 0.06206965 -0.030528514 -0.059228703 0.014702046 -0.038713947 -0.0489525 0.013894646 -0.043587778 -0.051471006 0.07062066 -0.03915057 0.004621735 0.006697594 0.04472379 0.04391469
own 0.035724558 -0.022839228 -0.04047128 0.087594554 0.07828507 -0.098314345 -0.044871476 -0.10831487 -0.043368984 -0.073570214 -0.024782177 -0.054760303 0.0124030495 -0.001518026 0.08779352 0.08914702 0.041124463 -0.1002126 0.10650515 0.11251672 -0.10132382 0.010228147 -0.021703321 0.029333604 0.050792653 -0.01666863 -0.032005217 0.019885961 -0.100985244 0.0024674241 -0.021464715 -0.108662866 -0.05112149 -0.08995316 -0.031019986 0.0073974757 -0.076063484 0.03819444 0.0015418764 0.036460605 0.0035621799 0.094434276 -0.01711343 0.020027613 0.03480577 0.07012151 -0.06642269 -0.010981696 -0.092001654 0.022292048
piece -0.008916672 0.017796729 -0.05866341 0.07287121 -0.056596804 -0.0049716635 -0.044467192 -0.022942413 0.029111262 0.024850227 0.041837197 -0.021518437 -0.001957805 -0.057311505 0.067507654 0.0076340097 0.03548572 -0.04168244 -0.014903244 0.04185587 -0.0064443303 -0.03224153 0.03530297 -0.019439753 0.05375752 0.02290628 -0.015291742 0.011903451 0.039003123 -0.036218747 0.015207333 0.027028438 0.033995666 -0.0027964925 0.039503936 -0.035897322 -0.046526372 -0.041231707 -0.029758034 0.017257702 -0.037284713 0.03932218 0.04172883 0.053502433 0.07326055 0.037916776 -0.032139707 -0.051125094 -0.05826906 -0.058454726
possibly 0.004328368 -0.044050217 -0.013127353 0.010202626 0.061455857 -0.024815403 0.029660806 -0.02457178 0.014050618 0.0451248 0.051351726 0.04432724 -0.079771325 0.009708466 -0.05384777 0.030031024 0.05801665 -0.04003731 0.01313263 0.018070651 -0.061235737 0.024937702 -0.016091514 -0.055356838 -0.06660082 0.06890441 0.034605276 0.06400154 0.016147312 -0.040247176 0.048571624 -0.051378515 0.03116557 -0.014902694 0.008893297 0.06103416 0.05490989 -0.07167696 -0.02337098 -0.036149397 -0.05487106 0.032721173 -0.0676237 -0.02190787 -0.002448173 0.08106741 -0.082219616 -0.019702466 0.011068041 0.011642155
insult 0.016821474 -0.046192314 -0.0054512913 0.011195254 0.035985533 0.05352538 -0.022444272 -0.0048250156 0.019916102 -0.0171665 0.07845845 0.03659735 -0.036414005 -0.026796486 0.042045046 -0.053655818 0.056344397 -0.006651812 0.06870036 -0.034707647 -0.014061113 0.02137382 0.0071800207 0.08015724 -0.043702453 0.015592545 0.05868107 0.045232102 0.03862048 0.034097586 -0.054573674 0.01897176 -0.031055238 0.03893275 0.05138496 0.037735265 0.01114513 0.01669632 0.006659276 0.06625844 -0.027924731 0.005068847 0.058047537 -0.005964785 0.036026966 -0.022421163 0.020929743 0.035857268 0.03317934 0.019662807
solemn 0.08005792 -0.02704339 -0.018134441 -0.046896674 -0.0012848673 -0.043974806 -0.012692583 -0.06341027 0.00928051 -0.00871357 0.034869604 -0.052067023 -0.049280275 -0.067263365 -0.062854126 0.059596073 0.04205417 0.029038344 0.04247392 0.07715944 -0.06327059 -0.08104225 -0.056133598 0.05661359 0.0135882385 0.063733116 0.015386395 -0.013049249 -0.068767756 0.029245535 0.003887257 0.032320365 0.042853747 0.012828303 0.0043200855 -0.052570138 -0.0062018917 0.047177587 0.044771075 0.020456512 0.06060328 0.033832192 -0.0038472493 -0.058364775 0.035762843 0.06599413 0.035712063 -0.039282937 -0.018263025 -0.07776825
ii 0.058230545 0.0016016256 0.015201138 0.051225398 0.022223847 -0.023103664 0.04680565 -0.056805138 -0.02999864 0.052613974 0.0007928341 -0.04353034 -0.07562814 0.033537388 -0.023703776 -0.01155059 0.039364293 0.060941227 0.020298606 -0.01921072 -0.031056207 -0.022475865 0.045761395 -0.004388503 -0.074506186 -0.008519578 0.077890515 0.07751953 -0.045543566 -0.027589625 0.015164461 -0.05282576 0.052433096 0.03373914 0.05506224 -0.051479857 -0.073835075 0.03734893 0.004940779 -0.00012318359 0.028148849 -0.025523286 -0.04272139 -0.026593829 0.078144625 0.038504757 0.023803316 0.044272117 0.04868609 0.042563125
liked -0.023049265 -0.04924728 -0.04337358 -0.01799986 0.035606813 0.012790611 0.023533395 -0.0143842595 -0.073054835 -0.052941408 0.04949387 0.014024802 -0.09119481 -0.08085641 0.0041779154 -0.05717504 0.058993883 -0.03338135 -0.015310197 0.061004385 -0.06722023 -0.068094015 0.0020472577 -0.046381835 -0.0757968 0.026464965 0.021629931 -0.04706656 -0.07362421 0.02078222 -0.07353959 -0.020694222 -0.042473134 -0.022264807 -0.0506682 0.047038462 -0.0026648487 0.027818967 0.043903414 0.019332774 0.07917162 0.031172153 -0.025703622 0.06560285 0.0009731611 0.06447739 -0.05907189 0.020687895 0.040910736 0.044823073
occurred 0.039972804 -0.01143111 0.008759877 0.01949614 -0.041835442 -0.030095074 -0.0743969 0.04180813 -0.020357471 -0.05600306 0.009778201 -0.023959275 -0.031001147 -0.014544684 0.0474701 -0.013602227 -0.030473009 0.054303486 0.034766234 0.058597703 -0.04357433 -0.03197992 -0.033750463 -0.040454023 0.027194234 0.026679981 -0.07092171 -0.024460448 0.04481559 0.045216445 -0.05447827 -0.03127251 -0.022431362 0.07498789 -0.04569875 0.003150119 -0.01288649 0.06792669 -0.0032690438 -0.06093579 -0.0056027435 -0.001806138 -0.05734196 0.02147966 -0.05761142 -0.058637265 0.047782008 0.062994234 0.016904892 0.082246445
trying 0.108991936 0.024032252 -0.08572981 0.018184317 0.063566506 -0.054559037 0.024443632 -0.05302419 -0.064219266 0.07823492 0.04795546 -0.0112773115 -0.07139946 0.040174536 -0.033635926 0.04878181 0.102268636 -0.035999447 -0.00094372337 0.009211135 -0.0952364 -0.004194784 -0.0833985 0.06945146 0.016951848 0.03714394 0.06931462 0.11855855 0.048830073 0.057246402 -0.013508524 -0.008359034 0.09013788 -0.057885878 0.081479765 -0.006010889 -0.021619609 -0.031557582 -0.07301986 0.057619452 0.09617664 0.036813926 -0.041217875 0.00080360693 0.07363042 0.0019581234 -0.04640446 0.11553411 0.006704172 -0.026319921
waters -0.033672895 0.05764036 0.007850402 0.040774442 0.009711012 0.044775438 0.045321368 0.016037215 -0.06323415 0.03825398 -0.0011665489 -0.033881716 -0.036137667 -0.0496051 0.04643384 -0.030691108 0.06562965 0.0060046143 0.0012305273 -0.0049370816 -0.03938568 -0.04527525 -0.07224662 -0.0022121537 -0.06535667 -0.0022445307 -0.025061779 0.05122406 0.051832017 -0.016794678 0.06307062 0.0057968986 0.063164584 -0.06544246 -0.056261495 -0.050145857 -0.029667858 -0.053075347 -0.01973789 -0.008814335 -0.05558177 -0.05334779 -0.044759076 0.03112412 0.050513107 0.0400525 -0.042094193 -0.006231838 -0.013027459 -0.0718895
severely 0.010345255 0.059744287 0.04611515 -0.04307301 0.07027615 -0.07787798 -0.044474762 -0.07343499 -0.062454898 -0.092769414 0.030447941 -0.079554014 -0.0022383167 0.016900355 -0.01984048 0.047980968 -0.028470743 -0.06795399 -0.036736067 0.014931298 -0.05951653 -0.018503891 -0.018088043 -0.018405298 -0.08274147 0.02821786 -0.01790744 0.060146276 -0.042320155 -0.030101107 0.039699797 -0.006833072 0.074740686 -0.034532625 0.003481074 0.053873416 -0.07353434 0.016115654 0.019698119 0.008092293 -0.028258428 -0.01774274 0.023857588 -0.018442055 -0.012310627 -0.0010759197 -0.089978136 0.0039433795 0.017334383 -0.024273202
doesn 0.11974106 -0.005000997 -0.08282282 0.016066624 -0.017267877 -0.059582274 0.010140207 -0.08592774 -0.07513612 0.007132092 0.079465434 -0.038216032 -0.07360116 -0.10329484 0.018553281 0.06952614 0.0012591815 -0.06770985 0.009536723 0.010591021 -0.064844795 -0.13440579 -0.049033288 0.0055369334 -0.0010577427 -0.017518993 0.103773974 0.024011508 -0.0074274074 -0.08372568 -0.023586385 -0.05352322 0.13833213 -0.079938985 0.078978725 0.094124906 -0.03473271 -0.13247223 -0.030142777 0.13227072 0.043436453 0.04081794 0.0019676127 0.05858506 -0.022522101 0.065061495 -0.08966611 0.053224962 -0.024916893 0.007800154
wrapping 0.004449364 0.018852834 -0.06692921 -0.036720037 0.05238085 -0.082767315 0.02688719 0.014029464 -0.03182498 -0.0043276316 0.007386864 0.03066976 0.020000223 0.016496522 0.039299462 0.03480279 -0.044196088 0.04497277 -0.03071725 -0.02964165 0.021492025 -0.058679804 -0.01787944 -0.04552693 0.053594835 -0.023374725 0.011550615 -0.014954995 0.011331096 0.006208082 0.016158864 0.021833897 0.06638243 0.023305243 0.07135429 0.047398 -0.053465202 -0.056717537 -0.075314924 -0.043481592 0.036979116 -0.04584556 -0.043699395 -0.01853196 0.006689358 -0.048161276 0.0423533 0.05929306 -0.0013957826 -0.04083825
largest -0.040947568 0.05031501 -0.08373847 0.03590387 -0.035502363 -0.022819333 -0.01651619 0.032646995 -0.014017006 0.040319126 -0.05120008 -0.06698317 -0.038712148 0.055108353 0.08299529 0.054192767 -0.020068921 0.001692851 -0.022666758 -0.016692212 -0.05785682 0.034937058 -0.026559016 0.012955623 0.015870035 0.018851593 0.063466676 -0.058106065 0.015581739 -0.059763525 -0.0066024046 -0.004305631 0.0377496 -0.053742986 0.005841248 0.060352765 -0.0071088686 0.023312196 -0.081613325 0.07965833 -0.020420926 -0.0047074975 0.0022177533 0.026908956 0.020861322 -0.03545451 -0.008713186 -0.01948493 -0.026507173 -0.05443753
started 0.06936012 0.04162555 0.06651443 0.03321015 -0.022473978 -0.007826051 0.050036773 0.025134068 -0.01888338 -0.044271376 0.03158166 0.024406988 0.00949567 -0.0013101933 -0.06460298 -0.056466326 -0.06670129 0.05214471 -0.043856207 0.03563949 0.049636006 -0.05919855 -0.022257196 0.057638403 0.044823173 -0.011276614 -0.0029778935 0.07245661 0.04169374 -0.013254674 -0.040942926 -0.032328643 -0.04728138 0.05153374 -0.04501536 0.0155396685 0.031184677 0.066063404 0.029168494 -0.005301791 0.06903195 0.0032803677 -0.063493036 0.0382011 0.00950168 -0.041263826 -0.049054384 0.06261506 -0.049247712 0.014922044
roast 0.062325537 0.022818241 0.021521097 0.042073146 0.016377425 -0.064335436 0.0038536997 0.012290623 0.025329325 -0.0047043357 0.0476882 -0.0045215227 0.007909718 -0.06436488 0.02916485 -0.04680341 -0.007179876 0.04212591 -0.0043925336 -0.052044414 -0.06625095 -0.007835748 -0.004272337 -0.026069798 -0.0609131 0.04760211 0.030863497 -0.0015393046 -0.07350752 0.0025430853 0.0034649475 0.05444754 -0.023471778 0.005997015 0.0005535822 0.033924572 -0.012905985 0.024596315 0.02200721 0.016453695 0.03598589 -0.0014852812 0.010810828 0.068639815 -0.01923813 0.019839557 -0.054194584 -0.05688022 0.05347135 0.036324635
despair 0.009679799 -0.038745124 -0.06418401 -0.026116524 -0.009413519 -0.004143265 -0.016136594 0.019905668 0.0006359883 0.044180106 0.04131966 -0.07819491 -0.039508972 0.034761608 -0.05970397 0.06389483 -0.023916537 0.041079752 0.05833449 0.0008439177 0.047252525 -0.019261276 -0.06789685 -0.026736462 -0.020491809 -0.050032426 0.04702598 -0.029707074 -0.06370852 0.025427494 -0.07175979 -0.027244357 0.041334342 0.049991935 0.0707812 0.00361091 0.019531628 -0.07578089 0.023016026 -0.006496201 0.048318144 0.0778739 0.037591543 0.0007054999 -0.010780096 -0.057943236 -0.040875442 0.06126291 0.028354542 -0.012025775
pardon -0.02261932 0.03458011 -0.07640992 0.09849487 -0.003145915 -0.02018383 0.09477547 -0.007022149 0.0016761039 -0.0055739125 0.0024548532 -0.09374679 0.0036012973 -0.07024691 0.09764904 0.02942017 0.06469603 -0.105251774 0.060192283 0.026991647 -0.011791326 -0.0039704097 -0.012825165 0.100566894 0.015989624 0.1221787 0.05194591 0.03180417 -0.09158032 -0.084523775 -0.04140483 0.00770662 0.027660169 -0.067134075 0.07882297 0.008291025 -0.10619674 0.000511931 -0.106791556 0.07304983 0.036742046 0.04008965 -0.065912545 0.04775373 -0.021074878 0.012203459 -0.016559115 0.110259295 0.018921992 -0.09582274
don 0.060507674 0.14962986 0.007208964 0.038355373 0.006206398 -0.04809838 0.09618349 -0.020324962 -0.016822454 -0.08424558 -0.07854461 -0.029994586 -0.0012404318 -0.04330136 0.01736444 0.14654553 0.049067635 -0.017957367 0.03168331 0.07397952 -0.050372142 -0.07538366 -0.0473184 0.07418657 0.013443018 0.041804537 0.032021735 0.04922244 -0.11489809 -0.08064231 -0.012800051 -0.073149696 -0.048235316 -0.06519747 0.028782025 0.12004543 -0.14700063 -0.13020244 -0.093249515 0.0041718157 0.0411431 -0.06299249 0.07056412 0.051402707 0.006861266 0.08488202 -0.08356182 -0.009187491 0.012705527 0.008687075
very 0.09238491 -0.025072163 -0.0603109 0.077690005 0.091278665 -0.107738174 -0.007049817 -0.014863629 -0.018153455 -0.05018487 0.04210466 -0.11763617 0.0054630586 -0.06204569 0.014570888 0.023046715 0.036843862 0.004322708 0.13203472 0.03896006 -0.07250329 -0.0868793 -0.04571705 0.07125665 -0.03404719 0.047757965 0.05020626 0.072098725 -0.062216625 -0.068094596 0.003653147 -0.04695839 -0.040804904 -0.018777391 0.08376423 -0.028501477 0.02866095 -0.09483989 -0.048449 0.081223205 0.118214004 0.00015952176 -0.07803001 -0.01995445 0.06601567 -0.021601679 -0.12558588 0.10219595 -0.02438514 0.056127142
have 0.034909923 0.072212905 0.014967622 -0.0029557191 0.06050266 -0.05195574 0.0609953 -0.10161826 -0.022773853 -0.03447453 0.031807184 -0.062603675 -0.03517241 -0.17166121 0.049433768 0.012249095 0.022045955 -0.059062555 0.087126136 -0.010768362 -0.13549691 0.01254835 0.061203126 -0.020008001 -0.025111977 0.027647 0.06658219 -0.043288738 -0.04913555 0.039319206 -0.07598066 -0.08551489 0.015837068 -0.004993333 0.12255299 0.056276154 -0.051768996 -0.110686935 -0.089438386 0.13102846 0.0068893577 0.008532672 -0.03955775 0.09074136 0.11975658 0.0037741265 -0.13122587 -0.07066526 -0.0038435585 -0.06222378
ve 0.06486337 0.1361506 -0.12384419 2.7084374e-05 0.019947857 0.026529899 0.022779701 -0.050838564 -0.008755228 -0.07979504 -0.10246922 0.04095179 -0.0753629 -0.06581283 0.055143718 0.15181401 0.13600986 0.013550061 0.03617584 -0.012218581 -0.02559368 -0.042431295 0.03998692 0.12246509 0.023121346 -0.04770506 0.02076924 -0.048234545 -0.042771503 -0.06264398 -0.010582792 -0.14034213 -0.02856673 -0.053132515 0.04086316 0.06454373 -0.042142503 -0.012133532 -0.04354271 0.1186695 0.10444789 -0.07546701 -0.011272509 -0.009151574 0.0968571 0.14179054 -0.1185901 -0.035006847 0.0015942894 -0.12122429
tumbling -0.02807635 -0.034209006 0.029996507 0.07986537 0.049791887 0.039237972 -0.031889 0.052528393 0.007816704 0.002616519 0.007331367 -0.058168456 0.033121243 0.04422259 -0.003607979 -0.014168676 -0.04837301 -0.052249644 -0.02283015 -0.021127798 -0.011179342 -0.02041698 -0.074408144 0.0188886 0.03655251 -0.022473905 0.01806615 0.045732062 -0.018138435 -0.010027168 -0.008528308 0.051568918 -0.024489157 -0.0025434261 0.014948362 0.051312152 0.04398409 0.018780641 0.05618752 -0.03347076 0.07775934 0.060751874 0.012749774 0.05227862 -0.009037095 -0.041558843 -0.07447445 0.017680908 -0.08345301 0.0025302595
moderate 0.06430799 0.019215245 0.019402238 -0.031431697 0.034904405 0.0015543398 0.06283112 0.056132883 -0.036773503 -0.027549721 0.031271294 -0.032853257 -0.018805573 0.019894948 0.06316207 -0.05162364 0.04547135 0.00053799595 -0.008276833 -0.062794134 -0.029814446 -0.053896736 -0.05423359 0.060670074 0.04186176 -0.05390453 0.0006133333 -0.0093056075 -0.030662369 -0.07461844 -0.07251262 -0.069887266 0.07341252 -0.0046895016 -0.01323765 -0.018677915 0.0077146487 0.03539717 -0.014451835 -0.04276964 0.006895424 0.023996653 0.035533674 -0.04331284 0.057721812 0.07167311 0.029287457 0.06104989 0.007222134 0.06307332
both -0.010753119 -0.05332659 -0.020408908 -0.030676745 -0.054439362 0.024736604 0.043993365 -0.019313276 0.011405528 0.046255648 0.04338492 0.058115713 0.005472664 -0.063650206 -0.0055527845 0.07514369 -0.041609302 0.03192763 0.015450695 0.011348179 0.0074463114 -0.07236613 0.025721643 -0.019490443 0.018191865 -0.0501187 0.05573817 0.014642758 -0.054963227 0.043093674 -0.07285688 0.028440151 0.0061944164 0.009666249 0.08105933 -0.05681015 -0.06422089 0.041562792 0.01451206 -0.0508929 0.052087616 0.02036749 -0.079565525 0.030787598 -0.009833356 -0.034481205 -0.0742682 0.012673896 -0.07872954 0.01831178
luckily 0.012591889 -0.051710643 -0.046539113 0.021657204 0.0761829 -0.061346184 -0.01624226 0.02804398 -0.07699269 0.005251452 -0.027432712 -0.068157546 0.02802833 0.045316752 0.01868889 0.0016465796 0.03588841 -0.028016515 -0.0015284349 0.007152104 -0.054933846 0.05308786 -0.014769971 0.047374364 -0.07037866 -0.051846843 -0.04785281 -0.006268002 -0.07491678 -0.03489558 0.018849563 -0.009020686 0.04902944 -0.056011125 -0.024297325 0.080633834 0.060664497 0.059841186 -0.040779416 -0.008489964 0.06609058 0.029224755 -0.027757384 0.024196109 -0.061321143 -0.04921591 -0.023801195 -0.00018036051 0.0036442732 -0.07145086
nile -0.027875885 -0.026719851 0.050952706 0.008781455 0.050431695 -0.03008948 0.06116448 0.017709037 -0.03215866 0.03816638 0.0013604531 -0.01118168 0.04306029 0.0050332095 0.031589407 -0.0027130083 0.04187792 0.026308134 0.02768908 0.048117522 -0.052304596 0.051702503 -0.07341318 -0.07742453 0.025779879 -0.056983892 -0.0008166735 -0.04795268 -0.0066695763 -0.010535665 0.029564079 -0.002018624 -0.032236934 -0.032928836 0.030118862 -0.026169619 -0.052816704 -0.026182195 -0.03721987 0.02759753 -0.054116033 0.048679467 -0.036712833 -0.017013509 -0.044669386 0.029842284 0.03662526 -0.005328567 0.02650852 -0.008932188
kid 0.015516065 -0.00056582456 -0.108518004 0.07411543 0.09396463 -0.07517309 0.01635222 0.023362424 -0.025307978 0.010021803 0.03495388 -0.10477697 -0.06211336 0.049677286 -0.0112989275 0.10236778 0.08412279 -0.11486794 0.06173739 0.10115208 -0.09772738 -0.064278975 -0.001768753 0.053413786 -0.023715338 0.08459028 -0.0034348555 0.03034763 -0.03345683 -0.07001269 -0.04095809 0.010703251 0.0015961713 -0.019288633 -0.0019746856 0.09160125 -0.1040389 0.0025976058 -0.019329647 0.090609856 0.009266078 0.018186925 -0.06925134 0.0045126523 0.054835144 0.09664337 0.0039175227 0.056555554 -0.07429221 -0.06285273
spirited -0.035063215 -0.040214773 0.052358896 -0.05531482 0.02247592 -0.03908028 -0.012356765 -0.07185799 0.017462974 0.0792405 -0.0440571 0.050402984 -0.035324533 -0.07390692 0.06327149 0.062803105 -0.054835487 -0.045285705 0.016824797 0.0043043224 0.03349652 -0.04307252 -0.06344632 0.023672603 0.053165626 0.010963692 -0.008701922 -0.021372294 0.028384905 -0.030478917 -0.06362606 -0.009315781 -0.019537237 -0.028305307 -0.01707123 0.01679177 -0.004562828 -0.058112193 0.04109772 -0.019178156 -0.028408578 0.0003742337 0.013702377 -0.034983594 0.006614253 -0.0016115742 -0.036679156 -0.013294922 0.014092426 -0.04972252
meaning -0.055368904 0.07971296 0.0072349557 -0.048593745 -0.038746085 -0.034797143 -0.039773356 0.025850877 0.027788743 -0.008403158 0.044786315 -0.0031738826 -0.01813202 0.018481752 0.025216531 -0.025090683 -0.031629246 -0.031287618 0.07282253 0.027168356 0.026038297 0.052056294 0.047022916 -0.053269193 -0.009231495 0.036631264 0.045335047 0.05858697 0.012497598 0.05853933 -0.028976912 0.04461488 -0.00081691146 -0.01073 0.0032538637 0.03013383 -0.025121782 0.057806805 -0.04962457 -0.0014057055 0.013559955 -0.012452119 -0.055120386 0.023368606 -0.0098756235 -0.0016002965 -0.0041636187 0.023696423 0.031498197 0.033662226
eaglet 0.0961428 0.014252692 -0.091834225 0.05440763 0.0739263 -0.039937273 0.041682716 0.009036233 0.016627502 0.05446584 0.05221158 -0.038668536 -0.012054654 -0.06209119 0.06304952 0.059321176 0.08857475 0.027929734 -0.017076038 -0.015939565 -0.034683455 -0.04929916 -0.04182747 0.06369127 -0.043806788 0.104472 0.019425156 0.07917669 -0.05836442 -0.08098238 -0.052986767 -0.040414374 0.0970548 -0.060254175 -0.038733244 0.089391425 -0.018388253 -0.01692786 -0.101865314 0.08739359 -0.036514886 0.06163892 -0.03786117 0.008811149 0.065213196 -0.008376022 0.021544948 -0.0032184953 -0.026148697 -0.005850431
hair 0.031057978 -0.033901673 0.017693287 -0.038780235 0.03474999 0.03989539 0.010309724 0.024584632 -0.010296848 -0.0187067 0.022111544 -0.055588372 0.019538626 -0.035450187 0.020498682 0.04813528 0.019456698 -0.07579819 0.0012909378 -0.045646038 -0.04991357 -0.03987251 0.015404323 0.04672296 0.024661839 0.009712871 0.015817598 0.02940143 -0.07775275 -0.0777817 -0.079541 -0.06146542 0.0600681 -0.037870113 -0.027468186 0.029654346 0.03360382 0.029025996 0.02474171 -0.043309476 0.08470106 0.06534742 0.033159383 0.08462736 -0.022068363 -0.003982052 -0.069098115 -0.0017404223 0.0021726966 0.042811915
by 0.006714436 0.041435726 -0.10981531 0.06807988 0.08512896 0.016014896 -0.0055441833 0.014893856 -0.06277823 -0.02697053 0.087924145 -0.034511615 -0.058511015 0.0548374 0.097633705 0.12862752 0.0065146545 0.017039204 0.034066446 0.047945473 -0.07422885 -0.031042963 -0.051186334 -0.026012316 0.06476341 0.11100309 0.04807509 0.088308655 -0.0058150487 -0.089430556 -0.032322746 -0.050587352 -0.01401012 -0.06756051 -0.04196405 0.07780931 -0.026337914 -0.05878455 -0.10854997 0.08809698 0.00378381 0.12068685 -0.10395773 0.1225852 0.08347257 0.0142049035 0.0052424646 0.08970573 -0.1207411 -0.027358124
insolence -0.0042710844 0.060813893 0.0032157418 0.027261866 0.075828165 0.0106147565 -0.009780707 0.017679 0.041154787 0.017859519 -0.02902888 -0.0030545585 -0.0030538589 -0.006095785 -0.0028490894 -0.02690475 0.018658923 -0.0021579086 -0.047849927 -0.023421008 0.012891715 -0.04302733 -0.01786975 0.03973386 -4.5311055e-05 -0.01487832 -0.020581648 -0.035375908 0.03296363 0.003424382 -0.027456643 0.00572333 -0.0040588146 -0.08299749 0.03325911 -0.02987453 -0.06711856 0.016250758 -0.04367194 0.006077593 -0.028450338 -0.040808693 0.011050508 -0.0072126123 -0.036212306 -0.015076351 0.016176827 -0.03010996 0.03515824 0.03917142
over 0.07953858 0.023510205 -0.10553636 0.10093007 0.003659363 -0.010371415 0.06992484 -0.08975554 -0.102479815 -0.009466823 0.07036568 -0.02155984 0.02387973 -0.056052472 -0.06462727 0.05349809 0.013876612 0.0014067346 0.10915961 0.017859176 -0.013590696 -0.10346697 -0.1218618 0.11051989 -0.064260975 -0.026490852 0.028878067 -0.009037278 0.063454755 -0.072765395 -0.089231715 -0.07038217 0.08151568 -0.0116408495 0.04028617 0.017617753 -0.044581283 -0.12858178 -0.005646656 -0.0057232464 0.11008052 0.06787888 -0.0074501843 -0.0745717 -0.02235082 0.01455116 -0.084556766 0.036467507 -0.04498332 -0.0378405
seemed 0.10847365 0.04057415 -0.06558578 0.050553832 -0.024251921 -0.10037731 0.045767386 0.041627508 -0.080004044 -0.010116985 0.049099714 -0.000702334 0.0037198165 -0.1475958 -0.014020557 0.09006807 0.1255502 -0.04083222 0.12670201 0.10385191 0.00889779 0.0033529513 0.069382444 0.0332805 -0.030054199 -0.042230424 0.08946819 0.10448167 0.028050821 0.0023242899 -0.071965754 -0.11759117 0.08572179 -0.020603027 0.010111842 -0.027355658 -0.031895734 -0.08485078 -0.032016754 0.016036516 0.13604516 -0.031536635 -0.0963688 0.0553015 0.11427454 0.018434465 -0.06953508 0.04793153 0.01791787 -0.03194387
important -0.03967906 0.042721517 -0.033629715 -0.017067757 0.036694147 0.03202878 0.03772437 0.031239353 0.01672357 -0.034065135 0.04664217 0.005529889 0.02594465 0.003200254 -0.013205528 -0.013995267 -0.022204535 -0.04338132 0.017621703 0.036153432 -0.0052192723 -0.007934454 0.046256147 -0.052364137 -0.08066994 0.060848076 0.075628914 -0.029962666 -0.021777729 -0.013514954 0.0080977995 0.02579077 -0.02745458 0.04347692 0.019268334 0.036033224 -0.042399053 0.035177287 -0.059436932 -0.050652996 0.06936246 0.044875856 0.016035441 -0.0075255083 -0.0011002971 -0.016516272 0.01728014 0.04866988 -0.055436026 0.045004502
dark 0.01963668 0.008716634 -0.026051952 0.03658554 0.067474894 -0.013444875 -0.016912095 -0.088027634 -0.07373802 -0.020658644 0.028539516 -0.023107935 -0.005549477 -0.030933036 0.009215874 0.026707636 0.074572206 -0.0390684 0.05458373 0.021681558 0.029646004 0.04153207 0.0419441 -0.032886177 -0.08981301 0.098846786 -0.03350294 0.08762918 -0.042217266 0.02653233 -0.008332405 -0.08135856 0.051671855 0.029712053 -0.004309331 0.023790006 -0.07838742 -0.053118072 -0.011103083 0.017044036 0.0054547708 0.07769105 0.014662093 -0.028438114 0.04889474 -0.0353889 -0.013083198 0.065432385 -0.045454923 -0.039840084
without 0.10603963 -0.0055379393 0.013630421 0.013880712 0.0893768 -0.03770319 0.08250691 -0.089836776 -0.08849889 -0.016226236 0.059705436 -0.026804129 -0.11306482 -0.04474148 -0.02094926 0.018108161 0.042998113 -0.06326918 0.026632637 -0.008486188 -0.04438889 -0.05937893 0.007641198 0.09706358 -0.0355529 0.035740007 0.050957322 0.09896724 -0.0035506282 -0.020556306 -0.07986911 -0.07375352 0.036051743 -0.05219936 0.003612136 0.06811577 -0.05933763 0.019490274 -0.00042604806 0.028295297 -0.02038178 0.0681036 -0.012813522 0.0786711 0.0790416 -0.0031713825 -0.026655441 0.06934086 -0.0692343 0.048053376
meeting -0.00013005454 0.026203442 -0.013520097 -0.03567345 -0.015680086 -0.054918885 -0.022212056 0.05269069 -0.07766294 -0.028154012 0.008270727 -0.041602302 -0.083565034 0.064839385 -0.012343368 -0.058426086 -0.041571416 -0.02921536 -0.006212946 0.029179085 -0.066979356 0.008562814 0.04344875 0.065011315 -0.028687442 0.04599705 0.00065524294 0.036419425 0.047856703 -0.042972602 0.024376184 -0.042676665 0.05375684 0.0054781735 0.047931477 0.0101814885 -0.045157228 0.02333667 0.0012787053 0.03698943 0.040136773 -0.03866394 0.040585157 0.009325389 0.023661673 -0.057065357 0.004305642 -0.005106341 -0.06970038 -0.009145807
catch 0.013361393 0.06698867 0.04660495 0.031228948 -0.00018227717 -0.05664158 -0.016771777 0.041525695 0.0132630225 -0.06393479 -0.02834925 -0.056441154 0.033685055 -0.086570546 0.07235806 0.06515087 0.028374603 0.031296875 -0.011654481 0.013980329 -0.073321626 -0.08497661 -0.050344158 0.017413653 4.0168292e-05 0.07461896 0.018338382 0.083480805 -0.027369155 -0.01040389 -0.059111837 -0.061256185 9.857502e-05 0.030576939 0.05835534 0.058502935 0.020413471 -0.093017675 -0.07001515 0.046729345 0.054119647 0.012558809 -0.062853605 0.09112134 -0.0060874997 0.029571084 -0.0088477135 0.03462751 -0.05679997 -0.034107897
farmer 0.07309926 -0.05063468 0.023497656 0.0074947095 -0.08071233 -0.061003603 -0.028290203 -0.032261856 0.06537751 -0.054140426 -0.007871402 0.014188949 -0.034057252 -0.022262955 0.0389572 -0.07084574 -0.032143254 -0.041338082 -0.024205377 -0.08255244 -0.03225752 -0.01838186 -0.011307144 -0.04107588 0.023362178 0.037536375 0.0091246115 0.027940327 0.04430995 0.03453055 0.071192786 -0.0064882147 -0.038667087 -0.033225533 0.0258653 0.04027283 -0.013951782 0.08033269 -0.02132366 -0.05792988 -0.026207812 -0.018361775 -0.07297889 -0.051249888 -0.037558742 -0.00531339 -0.046257224 0.04877354 0.0077464897 -0.0037801424
shrinking -0.02466704 0.053293318 0.009452167 0.03190388 0.09369934 -0.038568206 -0.00943618 -0.008987322 -0.075081274 0.04031941 -0.038628343 -0.011291468 -0.0016577744 -0.023569804 0.010070486 0.010276271 0.04597355 -0.068015285 0.050815914 0.030805392 0.024648003 -0.033049554 -0.08514705 -0.03849328 -0.05134532 0.08490205 0.056553647 -0.03850259 -0.024485247 0.04795068 -0.078670286 -0.08989909 0.07929301 -0.06682503 0.07863349 -0.012083941 -0.07964277 -0.050405554 -0.021651518 0.0052936785 0.009012006 -0.04442311 -0.014182655 -0.034547724 0.09348665 -0.0068837474 -0.01756481 0.09130923 -0.04580978 -0.0048972135
eat 0.062941276 0.066425286 -0.093307704 0.023220414 -0.01801435 -0.05390302 -0.0013086116 -0.010588142 -0.027779143 -0.123692 0.051713735 -0.09913465 -0.0061686058 -0.08052526 0.109184995 -0.031581286 0.05339499 0.0151817445 0.023196485 -0.029365253 -0.104666755 0.03180868 -0.092500955 0.012748772 -0.08138957 0.053991616 0.03770491 0.04651208 -0.056999855 0.0027943742 -0.022582589 -0.06003362 0.04636096 -0.04568756 0.037352145 0.121224664 -0.07666648 -0.09470556 -0.06792398 0.039040018 0.02649429 -0.021112492 0.020002961 0.070391946 0.08329216 -0.00884708 0.010056572 0.039573655 -0.042465854 0.03634737
prizes -0.011894006 0.092679456 -0.0422543 0.0669817 0.045455243 -0.11564243 0.08901466 -0.02031694 -0.044486165 0.022726372 0.05031302 -0.03768643 -0.10285708 -0.019389655 0.0026405172 0.08779053 0.011363877 -0.0030797282 0.039264437 0.02868151 -0.0061117085 -4.437193e-05 -0.058183778 0.09207792 -0.062916264 0.12839274 0.03949836 0.061742406 -0.109236315 -0.017133398 0.015664382 0.008028652 0.08257338 -0.045525312 0.04291692 -0.011344902 -0.09387074 -0.03670959 -0.096491985 0.020355973 0.10198808 0.07882354 0.011298028 -0.011763121 0.0146277 0.0065196753 0.013273511 -0.014164129 -0.097158246 0.018110327
timid 0.0397358 -0.033644482 -0.07613923 0.057239868 0.01687536 -0.021390636 0.07654571 0.012747688 -0.078052916 -0.06116727 0.020814724 -0.020429121 0.050306868 -0.044010248 0.034745656 0.07661776 0.02155668 -0.0371722 0.047197655 -0.040175565 -0.0108981915 -0.035722464 -0.027822424 0.017758118 0.048634607 -0.02433436 -0.042296626 0.014732679 -0.012707574 -0.0065114023 0.0053780195 -0.045121633 0.005955838 -0.053941857 0.04244631 0.06316293 -0.014386525 -0.03594926 -0.0022494914 0.075293615 -0.049361415 -0.0131313605 -0.06267552 0.026051562 0.025738083 0.013992317 0.022698075 -0.0065181274 -0.0030598168 0.028156498
too 0.026283544 0.044750135 -0.040692903 0.10065135 -0.027964907 0.011099043 0.04643618 -0.1001146 -0.029051866 0.004762394 0.071244635 -0.062170114 -0.04608215 -0.121646866 -0.057659134 -0.005971574 0.02809636 -0.0017021417 0.08885585 0.017084558 -0.032902427 -0.052297954 0.01635294 0.10140468 -0.0056569064 -0.024272963 -0.04651535 0.02747451 0.001471128 -0.08590886 0.015025541 -0.0974357 0.07376845 -0.005425421 -0.030490428 0.09775985 -0.108010076 -0.0049522785 -0.09621877 0.013320856 0.007858375 0.08605436 -0.049326025 0.02359472 0.0109900655 0.12453132 -0.07909627 0.008698534 -0.065292455 -0.009141841
passion 0.02505987 -0.012700851 -0.05228228 0.010025591 -0.0353064 0.045099936 0.050108925 0.048970528 0.007841489 0.03066024 0.01807186 -0.012315024 -0.051763285 -0.067747906 -0.009237305 0.05734104 -0.016960861 -0.08189632 0.008650861 0.02206315 0.051342085 0.005154896 0.024324667 -0.041824564 -0.05775819 -0.052206393 -0.011751683 -0.051664833 0.008278683 0.048194937 -0.06671139 -0.035940174 0.07636186 0.052088268 0.03511994 -0.03455247 -0.059839923 -0.04413349 -0.007965393 0.023184163 0.0045840573 0.050645225 0.05882838 -8.5426844e-05 -0.028088786 -0.009489197 0.016318154 0.048671655 -0.040005088 -0.047799785
middle -0.023300827 0.017978996 0.01158043 0.05362227 0.056246467 -0.077159405 0.0904177 -0.015371 0.0007393741 0.056819905 0.039799225 0.021713201 -0.065124996 0.03488255 -0.034271684 -0.027940137 0.03893378 -0.04576426 -0.04840218 0.08210802 -0.05457623 -0.067294806 -0.036437914 -0.017659187 -0.017965842 -0.040002916 0.07204026 -0.012562113 0.027820902 0.035173528 -0.066832274 0.020279275 -0.03354705 0.037406195 0.03766119 0.027653556 -0.02161725 -0.06985414 -0.034762777 -0.02451707 0.003170564 0.045887027 -0.023748945 0.03532407 0.007089243 0.07305548 0.040854055 0.037729822 0.00045607623 -0.031978033
move 0.054832075 0.08059366 0.02205663 0.02792206 0.039525792 -0.046763252 0.0068892823 0.05568391 0.036679633 -0.067621134 -0.016880857 0.0062821065 -0.04923748 -0.00715202 0.07997564 0.03554721 -0.019589705 0.0011929007 -0.03920246 -0.040163323 -0.045443658 0.011500205 0.01658749 0.021421373 -0.006352631 -0.008085009 0.019619016 -0.030993838 0.0165351 0.042856712 0.028006189 -0.010900109 0.057230275 0.034147896 -0.0036322246 -0.029529102 0.037692547 -0.044273388 -0.051006466 -0.0040632943 0.019805972 -0.016998883 0.03174003 -0.040382326 0.008049414 -0.048504155 -0.07622509 0.067064576 -0.023544807 0.0031555388
written -0.0119791515 -0.04814074 -0.056862157 0.039986055 -0.04473517 -0.041389022 0.060783774 0.042174682 -0.05945229 -0.08021055 -0.012545217 -0.056250528 0.045693286 0.021556674 0.0015652449 -0.02389335 0.057427853 -0.056689713 0.024129683 0.024925001 0.007881381 0.002913121 0.0318571 0.05050724 0.034240924 -0.048100192 -0.014798296 0.06797305 -0.060854062 -0.03005253 -0.0025322451 0.0067614755 0.026198711 -0.082595244 0.047151875 -0.047778822 -0.023688495 0.026185963 0.008340063 -0.017344482 -0.053520832 0.025426593 0.011930807 0.032478645 -0.0017795727 0.061746266 0.05090322 -0.019336289 -0.07679601 -0.05661445
london 0.005686952 0.059032895 -0.00022778148 0.08052047 -0.015221377 0.015767109 0.019032905 0.023296589 0.054652054 0.013684599 -0.014151614 -0.04723008 -0.07981969 0.023706052 -0.030586595 -0.05181132 -0.022778885 0.042064514 0.068010144 0.05484993 -0.0055003418 0.062219854 -0.083537705 -0.004695192 -0.0355437 0.013735658 0.061628122 0.022998396 0.056176353 0.060598247 0.018944588 0.02814686 -0.009265669 -0.041498337 0.044179473 -0.003618753 -0.02753792 -0.0057405187 0.019833334 0.040597383 0.066376716 -0.025984587 -0.01552279 -0.054133333 0.03133853 0.032577075 -0.051934876 0.07300115 0.040255092 0.051581584
led -0.032654002 0.044278543 0.023701819 0.058743317 0.0047857924 0.02351843 0.05335772 0.033229515 0.028559987 0.0017907565 0.06693643 0.012223746 -0.045820367 -0.033321775 0.011475404 -0.0434364 -0.029112522 -0.017794374 0.049867865 -0.03594165 -0.05475187 -3.9165374e-05 -0.026486907 0.038248874 -0.063752435 0.07852369 0.05885064 -0.017822158 -0.06328148 -0.03989447 -0.04043201 -0.062696315 0.054625846 -0.08000405 0.04615799 -0.017455032 0.023603965 0.0044163903 0.01461336 0.0694672 -0.03993124 0.048839685 0.04512826 0.0316089 0.049002055 -0.03132944 0.010418378 -0.019253567 -0.004058116 0.034602392
hoped -0.04082894 -0.058224868 0.0066046556 -0.04153697 -0.014469835 -0.06790089 0.02055804 -0.08286221 -0.07448695 -0.029185526 0.006497396 -0.0058270306 0.016549136 0.006778803 0.050471216 -0.023254711 -0.009726561 -0.038670734 -0.047579095 0.07389922 0.05170916 0.012758455 -0.043743793 -0.03857937 -0.0043559424 -0.048671715 -0.012106343 -0.037705418 0.053873897 0.016962674 -0.064288504 0.009586813 -0.044065025 0.051021624 0.046965778 0.018553397 0.041832685 -0.035185587 -0.010442139 -0.03144756 -0.048401482 0.034956366 0.018375052 -0.009292725 0.07318614 0.008326711 -0.050483305 0.04650827 -0.06950395 0.022880549
another -0.046332065 0.026257077 0.04238282 0.005751193 0.088171564 -0.051882327 0.029234182 0.026444169 -0.0044666743 -0.022788106 0.007327525 0.043107774 0.049371652 -0.08665839 -0.018230394 0.0025176085 0.06533435 -0.041515637 0.0656464 0.076091275 0.025991103 0.03815706 0.021260623 0.050817505 0.024408605 0.061543357 0.011526781 -0.0060077077 -0.06710319 -0.046199724 -0.035584804 -0.085824415 0.042457316 -0.09367016 0.019423192 -0.038318723 0.01933373 -0.06404866 -0.00601499 0.035025597 0.014929762 -0.001741605 -0.04643659 -0.024509788 0.07064203 0.03824333 -0.02178399 0.08183992 -0.05191144 0.0317982
caucus 0.038620654 0.04697774 -0.093689516 0.07175576 0.027869703 -0.07675382 -0.012252287 -0.012490584 0.030886361 0.07469395 0.08914217 -0.08973648 -0.113550894 -0.05328379 0.0053390954 0.10441324 0.064718485 -0.054475807 0.054218333 0.013482458 -0.045165043 -0.010093447 -0.0030629826 0.015440769 -0.032188732 0.08355808 0.09715759 0.0013286835 -0.039182074 -0.08082692 0.03746725 -0.028923543 -0.054699216 -0.04467385 -0.004863984 0.061301682 -0.016496344 -0.054554567 -0.046864662 0.055080827 0.0745547 0.029965805 0.01733672 0.0742229 0.10597571 -0.036173064 0.015449367 0.07669087 -0.061284576 -0.060004357
away 0.05548152 0.13431813 -0.050829966 -0.01790594 0.11529904 -0.034511272 0.106038064 -0.002930261 -0.094782166 -0.01075417 -0.01266813 -0.07394168 0.028398959 -0.04357852 -0.006253996 0.07108504 0.06366995 -0.09100679 0.031036329 0.11947451 -0.039981868 -0.073351935 -0.067062005 -0.017513385 -0.016667934 0.04405839 -0.0066271434 0.020428726 -0.08280355 -0.04553537 -0.02194731 -0.030380158 -0.011921711 0.01759034 0.0974167 0.063842125 -0.11666114 -0.08559087 -0.07574204 -0.024014382 0.026196744 0.0035091867 -0.04635707 0.08304785 0.09129989 0.04353138 -0.025240144 -0.00058464333 -0.04598753 0.007035738
bright 0.054369044 -0.041598514 0.004448822 -0.015707202 0.06581589 -0.08292575 0.029545866 0.018603913 -0.102369085 -0.032054473 0.05834936 -0.011731923 0.006680583 -0.031041998 -0.005909871 0.058138583 0.044957615 0.00340342 -0.01797572 -0.025576897 -0.05486493 0.039362732 -0.016089821 0.10174351 -0.007032449 0.073966146 -0.030482193 0.088873535 0.02350339 -0.083005786 -0.092496045 -0.0009636411 0.09108215 -0.09401678 0.08984785 0.013576334 -0.043848436 -0.08212568 0.026909687 0.055848487 -0.024342272 -0.009355444 -0.023663666 -0.023728075 0.025515502 0.017755643 -0.010675862 0.04956376 -0.060143095 0.05123331
however 0.04764961 0.02452103 -0.05449449 0.07804738 0.0841831 -0.026496485 0.004683543 -0.08671698 -0.12433433 -0.028532986 0.11964602 -0.07952183 -0.014275564 -0.02679343 -0.06267606 0.018060852 0.09334612 -0.004857781 0.0578288 0.03126721 0.011069985 -0.055056844 -0.076477855 0.08815256 -0.107442096 0.024723507 0.11154545 0.06516463 -0.01595237 0.0491315 0.0019919581 -0.010704243 0.12547392 0.010380619 0.048906386 0.0668149 -0.025238037 -0.111415036 -0.008701487 0.072759256 -0.0044583585 0.043993108 0.056491088 0.045513704 0.064043015 0.06336317 -0.01582877 0.002612941 -0.11061362 0.02162244
him 0.07258739 0.060562424 -0.026081221 0.052787438 -0.017263088 -0.049221016 0.025894068 -0.046670016 -0.042389005 0.0054376777 0.009735923 -0.018136136 -0.0435342 0.030041955 -0.010794317 0.032155715 -0.036307346 0.0072444817 0.07512425 0.058488175 -0.014725886 -0.03618658 -0.07632302 0.037813865 -0.06000123 -0.0024652432 0.07425163 0.11717081 -0.08713089 -0.07914903 -0.035521034 0.038793698 0.032526564 -0.11577387 -0.047111526 0.04629035 0.023743112 0.016575594 -0.019386228 0.096107125 0.03812705 0.094699144 -0.1179275 0.09070681 0.06911909 0.10084815 -0.057549376 0.05515367 -0.047568154 -0.060648613
pope -0.053558093 -0.052905954 0.009497522 0.014271487 0.012545215 0.061025333 0.009746568 -0.031436484 -0.07449637 -0.035666205 0.014943065 -0.012647992 0.01108743 -0.055974387 0.051883403 -0.04193235 0.054174144 -0.075054556 0.009585982 0.07778324 -0.023166265 0.014177842 -0.025520304 0.012679419 0.035575107 -0.016298976 -0.015961586 -0.034401365 -0.0638302 -0.03500298 -0.0019505111 -0.05084422 0.056017086 0.05572459 0.008441413 -0.016030744 0.031778596 -0.023088207 0.0317043 -0.0024972055 -0.03611154 -0.037019778 -0.055783365 -0.048498392 -0.019719632 0.018107746 0.00072533917 0.06594715 0.0114589995 -0.068941064
wooden 0.023283752 -0.051261637 0.00424992 0.01610167 0.07894859 -0.01242526 0.07490117 0.029079381 0.023768187 0.010474542 -0.03765413 -0.015642453 -0.005810333 -0.078625605 0.033023424 0.044023328 -0.0023536775 -0.04649113 0.048629142 0.057944853 -0.0072444445 0.010062382 0.031569596 0.001559774 -0.029844085 0.037428692 -0.01822938 0.06558297 -0.026457833 0.019937789 0.04363468 -0.056226257 0.00019172102 -0.06442408 -0.0185095 0.016022276 0.04988042 0.055118583 0.014804788 -0.053461775 0.026889857 0.04076718 -0.0052271187 0.070854634 0.05030283 0.028583437 0.054602645 -0.018936865 -0.024966508 -0.055051975
later -0.034191005 0.015618764 0.011307325 0.009078669 0.026663195 -0.014274187 0.034074243 -0.08121271 -0.035367884 0.02178373 0.081220016 -0.042914707 0.02839027 0.0067911353 0.057399124 -0.0054269265 0.015870051 0.0049747135 0.02931984 0.071694076 -0.007860554 0.012950286 0.049591098 -0.050370015 -0.04403024 -0.018417599 -0.0037063623 0.07541773 0.023587776 0.01623201 -0.063672654 -0.0073798858 0.042277582 0.0008770181 0.010923652 -0.014282791 0.031938635 0.011144549 -0.055670828 -0.014100077 0.0005161512 0.0726107 -0.03455584 0.009190638 -0.045253858 0.034919664 -0.047401633 -0.049969245 0.013543256 -0.01942195
vulgar 0.008784313 0.049661275 -0.02569827 0.051793735 0.017137751 0.0016448805 0.028171018 -0.021879984 0.01525788 -0.01019025 -0.04850224 -0.024593554 -0.06229407 0.012515772 0.063791044 0.032541905 -0.02634018 -0.033585165 0.055359557 -0.006411094 0.05440367 0.027764115 -0.045769867 -0.009651264 -0.0410983 -0.052701455 -0.049183343 0.058055107 -0.0528564 0.02215734 -0.010761032 -0.039940678 -0.006123342 -0.05002825 0.065464534 0.0784827 0.006094585 -0.07127805 0.0064672567 -0.02533016 -0.018258678 -0.0043847905 0.050082482 -0.05020571 -0.021112638 0.04618735 -0.0648519 0.07817596 0.021659104 0.0039716233
than -0.0052455612 -0.012412399 0.0138339205 0.00083195977 -0.014234589 -0.06799845 0.107122116 0.0145173725 -0.03492438 -0.030326536 0.030780932 -0.08210647 -0.07600888 -0.06384089 -0.004622287 0.034916166 0.101963095 -0.064049415 0.041070454 0.034309577 -0.00017536513 -0.03308408 -0.120883934 0.05776945 -0.029257609 0.105116434 0.10833457 0.10990918 0.025669806 -0.084055506 -0.050844684 -0.07818803 0.009180479 -0.1075052 0.03822989 0.08691904 -0.091850124 -0.10699878 -0.085606515 0.08422383 0.07522226 0.024594793 -0.07376513 0.05807602 0.049793765 0.080444336 -0.054311424 0.112476945 -0.032707207 0.029166555
coming -0.059368465 -0.03496084 0.06922197 0.03768047 0.04417921 -0.051412467 -0.0010222826 0.029562267 -0.009055463 0.027382268 0.07100688 -0.039476447 -0.044088904 -0.08672314 0.040536705 -0.01021487 0.060038388 -0.07132393 -0.042587005 0.07254541 -0.01400991 -0.06374245 0.061898705 0.10268597 -0.08264739 -0.023125092 0.024239695 -0.054485396 -0.08924499 0.016333107 -0.011030711 -0.05071313 -0.03733108 -0.015843604 0.05248472 0.031238198 0.008958151 0.03794852 0.030682202 -0.011835298 -0.003076539 0.07351525 0.0048592207 0.030161904 0.07256879 0.033717506 0.0016132335 0.06296874 -0.03641684 -0.0020356232
her 0.009726736 -0.14696264 -0.048926327 0.11026874 0.16134433 -0.032818157 -0.08171049 -0.031220466 0.09690262 0.21180823 -0.076684736 0.027670955 -0.063678294 -0.16789661 -0.09220333 0.028302465 0.05395036 -0.18982805 0.12204117 0.108127125 -0.1314001 0.10701331 0.1005942 0.13837351 0.09287639 -0.018584596 -0.08907569 0.1538512 -0.0379976 -0.09330467 -0.1474034 -0.03913462 0.17368047 -0.060880426 0.11735498 0.03118462 -0.043759264 -0.13236223 0.023621697 0.030419542 0.17967354 -0.022877071 -0.009484045 0.098805286 0.07685542 -0.059098396 -0.1761708 0.12736008 -0.07787607 -0.17628725
flashed 0.002628894 0.004224392 0.036456563 -0.006079327 0.022051878 0.027980007 -0.019251384 -0.05797601 0.048407692 0.009135803 0.0445873 -0.011460565 -0.018220162 -0.01062605 -0.06567172 0.041882347 0.06661626 -0.023264693 -0.04794722 -0.054295976 -0.0694245 0.028457215 -0.04246978 -0.040006924 -0.05394766 -0.0418295 -0.006618587 0.013948347 -0.032287657 -0.07194803 0.05694314 -0.011099277 0.028188625 0.009451029 -0.004948884 -0.005798618 0.036762297 -0.07652067 0.01606312 -0.05191311 0.011068202 0.065528676 0.01671767 -0.05776127 -0.046165336 0.020154268 -0.015706562 0.022929614 -0.041134767 0.050492246
words 0.018267352 0.115285106 -0.09139329 0.07309025 0.011041195 -0.076590516 0.03422128 -0.02032416 -0.025219247 0.03962572 0.109542854 -0.022054981 -0.015084364 -0.03548839 0.119184926 0.09822212 0.015810851 -0.08456085 0.06846789 0.11456616 0.0029023595 -0.034643024 -0.021167988 0.075561 0.0079166815 0.07680925 0.13488774 0.020940542 -0.060413174 0.01699669 -0.12402844 -0.06839767 0.14100574 0.015944185 -0.0056183855 0.07789889 -0.038799398 0.03549318 -0.05519562 0.03198968 -0.006743806 0.03117715 -0.042492963 0.028337227 -0.0049034357 -0.038202737 -0.0097482 0.0806333 -0.06623763 0.031753514
lonely 0.027080707 0.038555108 -0.079788126 -0.050531022 0.025590114 0.043569002 0.051750153 -0.029630862 -0.06092598 0.034726247 0.0006592269 -0.033391435 -0.021779168 -0.03384061 -0.026598098 0.07952044 0.010266665 0.046456054 0.000901276 -0.014564723 -0.04636901 -0.07327278 -0.050371516 0.048626274 -0.02386861 -0.030781724 0.07532158 0.073991545 -0.05840447 0.03949979 0.018337395 -0.05827686 -0.0075330255 0.007040263 -0.0151629485 -0.015250789 0.0009829802 0.04163387 0.030055065 -0.042422865 0.026138648 0.046270106 0.05770398 -0.01591985 0.0023562252 0.07824161 -0.028176539 0.03071545 -0.043103784 0.030652372
corner -0.043747827 0.036813688 -0.020795032 -0.03143828 0.060332943 -0.013600691 0.07191474 -0.06876844 0.037390627 -0.017523995 0.08478633 -0.044086963 0.025766842 -0.0097014075 -0.040989064 0.037947536 -0.0021117728 0.004590861 -0.05116939 -0.036834776 -0.038972758 -0.052452803 -0.037443876 0.06308048 -0.043347966 0.08468571 0.019305764 -0.0043292297 -0.0023848144 -0.058585837 0.035153084 0.0057424586 0.081299275 0.005600557 -0.06453304 -0.03038059 -0.031949002 -0.03567297 0.02497128 0.011965984 -0.015478633 0.08624884 0.0069379797 -0.028127452 0.0017901339 -0.0031300697 0.056646988 0.0044497466 -0.037903987 -0.04466493
darkness 0.06608248 -0.013702279 0.04393076 0.038870722 0.022468695 0.037107486 0.03779565 -0.03826709 -0.07200793 0.0392692 -0.005945557 -0.005769327 -0.07342882 -0.055597443 -0.032834854 0.04760467 0.07293005 -0.068558894 -0.044431962 0.041464895 -0.052174117 0.039836857 0.015754882 0.07471481 -0.06694132 -0.024380391 -0.003324322 0.0043876017 -0.07706711 -0.029467592 0.0023796125 -0.07394657 0.052884266 -0.052937794 -0.00684137 0.050268814 0.014412474 -0.04402516 0.0358895 -0.031869445 0.013171763 0.07257937 -0.017139792 0.0706185 0.004849282 -0.048705675 -0.07234476 -0.03971932 -0.022934115 0.045959678
know 0.03594061 0.15427828 0.035067372 -0.046187155 0.037833225 -0.07308968 0.007970017 -0.041321293 -0.079502694 -0.108205974 0.033711486 0.008372209 -0.039810907 -0.039562643 0.13724189 0.055622444 0.12291377 -0.015881676 -0.03568036 0.022942519 -0.13270913 -0.103431754 0.020484954 -0.06958114 -0.048469342 0.07475778 0.08510344 0.056416225 0.039438013 0.05883381 0.048945263 -0.13228257 -0.09377118 0.00232356 -0.030072335 0.10293533 -0.13284384 -0.049362853 -0.13087349 0.007618859 0.042651623 -0.08287961 -0.07252253 0.09248829 0.1224026 0.0071651777 -0.0677626 -0.03457493 -0.02699615 -0.024500716
matter 0.0041109864 0.09234603 -0.00089869543 0.0143283745 0.02831088 -0.08623738 -0.03920733 -0.06460896 0.012404406 -0.047549617 -0.019669406 0.019303028 -0.07718066 -0.07885235 0.017388545 0.0042992877 0.027251687 0.024385989 0.056321893 -0.0039611496 0.016830496 0.033133857 0.006897774 0.012092734 0.048464213 0.008530194 0.03149496 -0.010623209 0.030548379 -0.04667732 -0.08705766 0.034818158 0.023738077 -0.03991869 0.022179628 0.08753684 -0.0041613383 -0.048450936 -0.031786196 0.021530839 0.02904956 0.088517666 -0.019161899 0.05453992 -0.03514995 0.01370064 0.02687645 -0.018621575 -0.0058181644 0.033264663
considering -0.011280378 -0.04516022 0.012565893 -0.014444431 0.03597561 0.018976483 -0.013940827 0.047465317 -0.052707855 0.055115905 0.022172615 -0.07168651 0.060441267 -0.044010885 0.064427316 -0.07223629 0.027907856 -0.05970382 0.03971276 -0.020393968 0.008192147 0.060443 -0.06876418 -0.021184186 0.028858855 -0.034647815 0.07161603 0.045250643 0.0023956432 0.0013187657 -0.050251763 -0.06794059 0.06084914 -0.051399924 0.013471199 -0.03172791 -0.03728639 0.017799633 0.044010565 -0.046284243 -0.04503618 -0.06911445 -0.017115906 0.031831 0.0014075027 0.022478057 0.032693192 0.040224776 -0.025440741 -0.034509744
softly -0.04325664 0.072054006 -0.039317302 0.010040912 -0.059592824 -0.0036246432 -0.0389064 -0.046012387 -0.009061552 0.04926897 -0.0466893 -0.057650752 -0.07165332 -0.061867986 -0.03157068 0.04654742 0.045247484 -0.03896293 0.030116547 -0.02324001 -0.06903341 0.0015186438 -0.058216754 -0.020210456 -0.062400468 0.053959504 0.0382048 -0.0035302541 0.02413254 0.00867886 -0.04630586 -0.041159853 -0.01730025 0.038655356 -0.009660704 -0.060680576 0.055545293 -0.07414679 0.034102738 0.051965296 0.047425095 -0.011149488 -0.07465794 -0.03506968 -0.032049213 0.039944205 -0.063385785 -0.0042851646 -0.06890244 0.019037733
lit -0.02224958 0.0041004987 0.047911886 -0.021514285 0.0031883258 -0.07856834 0.06906184 0.027593672 0.04333318 -0.0019267725 -0.04919714 0.04535959 -0.027711505 -0.00749584 0.047777195 -0.029708963 -0.043782208 -0.078453414 -0.013284206 0.07406954 -0.038890254 -0.01961297 -0.07530661 0.078821406 -0.07620833 0.04888376 0.009122498 -0.04957788 -0.05884016 -0.07234006 -0.07309163 -0.034521595 0.04692229 0.028078254 -0.005353875 -0.00015060685 0.0036973488 -0.005256197 -0.008921313 0.017446537 0.018818386 0.028450292 -0.070424706 -0.030889232 0.011937303 0.048376694 0.051718265 0.00091127877 -0.055666987 -0.047777165
eye 0.032208703 0.012746405 0.036677647 0.039932635 0.039212544 -0.09680512 0.055947244 0.01798886 0.02415857 -0.029254913 0.08211167 -0.070824854 -0.003586453 -0.042060804 -0.03815469 0.06454763 0.036099546 -0.07322343 0.10962115 0.03826935 -0.048097756 -0.08739886 -0.029648751 -0.008773575 0.04343742 -0.012244412 -0.019885091 0.0034983791 -0.036863305 0.017816715 -0.0049978145 0.02474209 0.08671369 -0.09083429 0.007718117 0.060800366 0.013811362 0.0024514352 -0.008753097 -0.010193215 0.07921354 0.07256026 0.021124538 0.03634105 0.016861418 0.015473355 -0.08357812 -0.0015561641 -0.07025179 0.04240582
edwin 0.03906412 -0.011110673 -0.023545403 0.08512516 0.011461172 0.0272201 0.033469502 0.011019007 0.028085843 -0.032531694 0.032041714 -0.041961852 -0.00026755384 -0.06608667 -0.016118055 -0.03843511 0.011774344 -0.069066495 0.034106202 -0.03865749 -0.02668117 -0.0016691185 -0.060073026 0.07386707 0.013400277 0.076495305 0.07971015 -0.010289327 0.034564357 -0.071863815 -0.09240615 -0.0749026 0.013223345 -0.006390194 -0.008674936 0.06858979 -0.07378322 -0.07379412 0.01974285 0.07059106 0.0756375 0.053498197 -0.063880086 -0.03216804 0.021309769 0.09425556 -0.07606684 -0.03397489 0.0046012932 -0.06108398
capital -0.012396301 -0.0067517627 -0.1163332 0.016681213 0.04333216 -0.011580166 0.1031656 -0.0613662 -0.07566495 0.030566461 0.058527105 0.01779342 -0.056329004 0.05798609 0.04358192 0.10178285 0.03437578 -0.065491766 -0.0046543917 0.024861528 -0.06441984 0.0043618074 0.011064202 0.033598255 -0.077719025 0.005855024 0.05179578 0.08684034 -0.08271336 -0.044376545 0.022982432 -0.06768995 0.07072512 0.011786523 -0.026628062 0.08695937 -0.06802063 0.006185374 -0.09706599 0.043770734 0.024414334 0.025001165 -0.111228466 -0.0025323858 0.030545933 -0.0262768 -0.08943644 0.064451165 -0.006551932 -0.0684547
quiver -0.0258445 -0.054976676 -0.011812229 0.0014047934 -0.054536026 -0.073157296 -0.0045324513 0.036035545 -0.037202735 -0.03513132 0.010307209 0.008116537 -0.073268496 -0.012379202 -0.03886466 0.0038830847 0.045829613 -0.069436654 0.036800146 -0.051776398 -0.048576705 -0.06850327 -0.011267019 0.038889635 0.039179925 -0.04942901 -0.024509422 0.031420216 -0.012887204 0.014253911 0.046350107 0.030633844 -0.022160612 -0.027903657 -0.05433646 0.045221917 0.01756975 -0.05622582 -0.035247814 0.018151881 0.035066828 0.06292926 0.038291566 0.02345649 -0.030807454 0.032631047 -0.021777615 -0.021799142 -0.025429996 -0.03893918
hall 0.073351055 0.024329338 -0.030348165 -0.033223286 -0.0009356106 -0.07219948 0.08918304 -0.06429499 0.0131643955 0.09785139 0.090613425 0.046033114 -0.024695594 0.024188638 -0.007995436 0.051966555 -0.031357616 -0.040974423 0.042686366 0.023001358 -0.018888813 -0.0255276 -0.14790447 0.058788214 -0.06343669 0.07778797 0.0040028924 0.08749228 0.06505967 0.0034731436 -0.06645958 -0.0062183924 0.1399706 -0.12178215 -0.06103918 0.08213924 -0.010721194 0.010073611 -0.110726625 0.022575803 0.070677765 0.08362793 -0.06587335 0.05365672 -0.019464485 0.06805759 -0.02273111 0.03300462 -0.029064808 -0.05225643
pointed -0.0029965676 -0.014298876 -0.053950667 0.08371412 0.03629948 -0.005721338 -0.04379856 -0.040116813 -0.0717116 0.050594572 0.035384737 0.01569635 -0.019968234 0.030817263 -0.05612552 0.061738264 0.01174216 0.02544209 0.0002002375 -0.04976818 -0.023230879 -0.019725513 -0.034913998 -0.006392565 -0.036781527 0.0023194086 -0.018339075 -0.006244603 -0.023882452 -0.036842722 0.009366306 0.047279086 -0.01573341 -0.057545934 0.05647335 0.067483455 -0.028235171 -0.0412375 -0.048352383 0.040499568 0.013010072 -0.014531939 -0.028931439 -0.04602137 0.01081134 0.041433968 0.024665546 0.07754223 -0.040332533 -0.0042456686
death 0.05562581 0.06511229 -0.051745236 0.041967846 0.037310764 0.003903374 -0.05230434 0.011577979 -0.009766627 -0.0026258975 0.034808256 0.05145052 -0.0057283267 -0.05224651 0.06528376 0.06444375 0.04497815 -0.050391473 -0.05474182 0.04196149 -0.010223631 -0.031391975 0.027345322 0.02317889 0.016991898 -0.04957687 -0.056708705 -0.04869174 -0.028315924 -0.065798506 0.0017322153 -0.031362668 0.064955205 -0.011033624 -0.003806278 -0.027645856 -0.051748663 -0.014975097 -0.04408001 -0.052396446 -0.057732146 0.05170326 -0.04960275 0.023776911 0.0039784983 0.02933047 0.010911614 0.04005175 0.033115424 0.0056507513
thump 0.031481177 0.06538085 -0.046304766 0.04847106 0.051426463 0.044916444 0.07303744 -0.016247924 0.023007568 0.025616288 0.05414671 -0.052314878 0.010684078 -0.05804059 -0.058623917 -0.0034120558 0.02734192 0.00814904 -0.00666615 -0.017593848 -0.042957425 0.044086006 -0.08514665 0.047739338 -0.016719298 0.031695105 0.07316767 0.0053268373 -0.051066842 0.032360494 -0.07557636 0.04217104 0.0033234342 0.037172195 -0.021275235 -0.04671123 0.022277504 -0.047382087 0.024305427 0.08985254 0.06332079 -0.037010867 -0.061570257 0.054825258 -0.029414019 -0.019385673 -0.041589614 0.0053916746 -0.0065227505 -0.0868218
english 0.062073182 0.05251825 -0.059930194 -0.018656434 0.028112015 -0.042352844 0.07375603 -0.074541226 -0.049323954 -0.057977468 0.060450975 -0.06436112 -0.089759305 -0.01968845 0.09911488 0.08986365 0.0860694 0.012572887 -0.0017092694 0.099269524 -0.045512415 -0.006489316 -0.08564364 0.037866693 -0.08576842 0.008141798 0.117276214 0.06849681 0.047205854 -0.040725786 0.021860331 -0.0646089 0.07279954 -0.088624984 -0.05427 0.04973262 -0.006416231 -0.09032914 -0.11428991 0.047717974 0.0853402 0.011062982 0.00066044217 0.017231846 0.0471107 -0.006701209 -0.013475577 -0.021771003 -0.055712752 -0.051880985
until 0.05400468 -0.04845803 0.035226922 -0.0010120925 -0.03126583 0.0442749 0.025245901 -0.010608955 0.034195922 0.027701208 0.05489228 0.036491774 0.052107785 -0.024251247 -0.05632902 -0.033645105 0.028705224 -0.018761715 0.040884778 -0.019895563 0.008623936 -0.080825984 -0.055231437 -0.021238083 0.04663579 0.0061172936 0.037511464 -0.0019999798 -0.017678011 -0.028216152 -0.041890066 -0.014454173 -0.015456081 -0.07659652 -0.05761442 0.014988437 -0.05501398 0.0024411746 -0.08086838 0.00041907327 0.008498158 0.033389386 0.049417764 0.038392738 0.047372904 -0.012054469 -0.00036035106 0.07096543 -0.00534894 -0.028355816
ones 0.0485804 0.048167363 0.052287526 -0.04074096 0.07700113 -0.07497222 0.06447749 0.05099744 0.01966115 -0.017838545 -0.045719735 0.027587652 -0.029067334 0.023746429 0.01862066 -0.012062952 -0.027808722 -0.00041872647 -0.013497591 0.05518516 -0.016887859 -0.05708275 -0.056107763 -0.04772426 0.04590527 -0.014917593 -0.029790081 0.07748471 0.043455176 0.027237479 0.0019723969 0.0058030393 -0.024818247 0.03231704 -0.0030677845 -0.015357411 -0.046388444 0.046371825 0.038903575 -0.02253193 0.0065395115 0.0004231868 -0.0112837935 0.04880312 -0.05831651 -0.0059545436 0.007673407 -0.048931785 -0.051311873 0.035479713
there 0.035306085 -0.011650831 0.010386398 0.12382203 0.121115595 0.08317566 0.029684398 -0.00077352626 -0.09691408 0.048435483 0.020983549 0.0026756346 -0.0003974213 -0.18895513 0.029051049 -0.101232775 0.036047272 -0.027578792 0.098791294 0.021409342 -0.04280793 0.019109955 -0.10452337 0.16616526 -0.07389777 0.19202085 -0.1289605 0.019108528 -0.12459273 -0.09009026 -0.09935212 -0.12329089 0.0026467317 0.0689763 0.040677648 -0.045968276 -0.011962781 0.01975211 0.064938866 0.106082805 0.102508806 0.08063622 0.10287225 -0.13812712 0.11367317 0.019583259 -0.112436496 0.1290627 -0.005748053 -0.019070126
jumped -0.057185233 0.07143388 0.029138483 0.070813514 0.04942449 0.0001706439 0.034059968 -0.03284905 -0.0716986 0.05665314 -0.052482706 0.02748619 0.00852497 0.02516783 -0.015929634 -0.05888445 -0.04866906 -0.024104241 -0.04898458 0.041881874 -0.06170871 -0.021147722 0.03221766 -0.025826614 0.02087141 0.052355055 -0.027335104 0.06656563 -0.031045876 -0.06421108 0.034155093 0.045245443 0.045533784 0.03825269 0.07429848 -0.044889163 0.043148175 0.048279036 -0.003212519 -0.040461212 -0.013935287 -0.02181724 -0.022485279 0.04726743 0.015973434 -0.047562666 -0.06765749 0.036100004 -0.010758653 0.017944396
toast 0.007759084 0.05975487 -0.06186524 0.02493246 -0.009304501 0.014308849 0.02993502 -0.03425542 -0.06097965 -0.01147222 -0.035071746 -0.05971104 0.029605096 0.01946291 0.038965005 -0.044003446 -0.045373254 -0.008254958 0.037812848 -0.0010208455 0.05277158 -0.055083554 0.021964291 0.02909887 0.010273393 -0.008050958 -0.022768859 0.042397726 0.039238255 -0.070336245 -0.03322254 -0.04297057 0.0070797033 0.0066827484 -0.0014607961 0.05325063 0.0254385 -0.028568313 -0.023257317 0.024637412 0.00044720084 0.062123924 0.00800009 0.06065936 -0.006703243 -0.04245317 0.060044147 0.003249431 -0.05503461 0.03724155
nurse 0.011830483 -0.043801326 -0.054962248 -0.038432077 0.07369796 -0.0134375915 -0.0014495931 -0.018016966 -0.028308876 0.00020258105 0.022318158 0.041203868 0.014890145 0.017049778 0.063574664 0.014691735 0.08483955 -0.061486878 -0.008507738 0.056391165 -0.06434215 0.029276155 0.07657313 0.035571426 -0.047016494 -0.004207803 -0.005298399 0.050735977 0.058452234 -0.013831793 -0.010247835 -0.040727075 -0.05728914 0.010675159 -0.04430738 0.07313686 0.0022856868 -0.03260223 0.049559698 -0.038368378 0.011550644 0.06343462 0.0045178058 -0.033650205 0.07133773 -0.01864152 0.0005687012 -0.022426011 0.027965529 -0.03445605
other 0.10341101 0.10142466 -0.11788744 0.037450742 0.045873713 -0.02285947 0.06102629 -0.003703743 -0.03249281 0.025368407 0.07796867 0.03338791 0.017844407 -0.0030890694 0.043586243 0.12664384 0.025384935 0.0035208021 0.014801721 0.08525098 -0.06935092 -0.103862345 -0.014815698 0.007695182 -0.055962075 0.014539436 0.05133283 0.054819096 -0.039411172 -0.09944634 -0.040114503 0.024938976 0.10199697 -0.055418693 -0.039329804 0.06601977 -0.012039986 -0.019226631 -0.031812083 0.089984 0.070838444 0.082509734 -0.06997945 0.00024802133 -0.0021253866 -0.007653291 -0.026439166 0.10062822 -0.065695494 -0.02470092
hunting 0.0046535255 -0.047520407 -0.0184525 0.04593576 0.08887442 -0.08438147 0.009502113 -0.023808599 -0.04190493 0.054467127 -0.057174556 -0.0790121 -0.00014938263 -0.075100675 0.04585066 -0.008165262 0.039637752 -0.06913322 0.0066711344 0.02147939 0.014088357 -0.04979132 -0.06024663 0.06963575 -0.004913413 0.0422919 0.061071746 0.044655677 -0.013206904 0.02289278 -0.0064072716 -0.04962449 0.026598772 -0.020528909 0.042273384 0.06052013 0.017720593 0.040052358 -0.021181 -0.03680807 -0.0025441842 -0.023523277 0.0038067626 0.07237036 -0.016219864 0.0076975627 0.040744513 -0.014529387 -0.02375735 0.0058740424
washing -0.03604649 -0.014609211 0.038930617 -0.017240386 -0.024438523 -0.03692022 0.04901532 -0.067516044 -0.07825549 -0.060347624 0.049718797 0.014696058 -0.052614562 -0.0316887 0.034455806 0.044466488 -0.052679434 0.011553157 -0.023304775 0.013980852 -0.035403658 0.013535644 -0.03139601 0.05307054 -0.02082911 0.02008305 -0.01785824 0.012214728 0.04211179 -0.049610678 -0.03701659 -0.066264555 -0.04908152 -0.05250573 0.019959388 -0.0012680851 -0.07145493 0.022260824 -0.024236714 -0.028346442 -0.052140914 0.036015037 0.055701874 -0.017011855 0.039899725 0.06109894 0.039217792 0.0011961464 -0.07137401 -0.005002206
quicker -0.052078433 -0.017897706 -0.033421427 -0.04888044 -0.05047976 -0.0694188 0.06593023 -0.060207423 -0.07332496 -0.005636135 -0.04980004 0.03634862 -0.08073963 -0.015705194 0.05008232 0.024196014 0.040885113 0.012167929 -0.03078085 -0.025429524 0.00857226 0.038547628 -0.026363216 -0.026488585 0.00873287 0.029844105 -0.0019879441 0.033663284 0.003637629 0.011869573 -0.024204845 -0.064663805 -0.053992957 0.030848926 -0.050716616 -0.0026156274 -0.029395519 -0.021526672 -0.014829446 0.063832104 0.042970967 -0.05331566 -0.052522343 0.01444447 0.06584115 0.008086699 0.059805423 -0.0112327235 0.04857204 0.027014455
ma 0.02751419 0.011568041 -0.06279573 0.057644706 0.03991769 -0.059866194 0.09564438 -0.014624943 -0.037159882 -0.01285035 0.05155882 -0.062898666 -0.08389802 -0.059976164 -0.03247168 0.028739668 0.09611892 -0.073751755 0.09467461 0.061463483 -0.061381884 0.022244014 0.022657815 0.08484704 0.024156362 0.059092045 0.092628844 0.022652853 0.03558033 -0.091445684 -0.040439796 -0.09654158 0.0252501 -0.06991689 -0.041665334 0.028264068 -0.05307067 -0.03170578 -0.07993748 0.03245411 0.08738274 -0.03387363 -0.092045784 -0.016467419 0.056284323 0.09195712 -0.042881735 0.07374815 -0.015733693 -0.09333877
completely -0.016104523 -0.019235289 -0.037808686 -0.044952516 0.0417649 0.029170543 -0.047875766 0.03565297 -0.01047939 0.035500046 -0.023583528 0.054128245 -0.07900497 0.031472836 0.037169114 0.048684042 0.0350644 0.051076435 -0.05536727 0.046763524 0.017460791 -0.06645114 -0.03697214 -0.01451597 -0.02953356 0.07854551 -0.036801998 -0.02803475 -0.023574233 -0.012905 0.023588927 0.005277911 -0.044648685 0.056308683 -0.010281564 0.07115628 -0.0481976 0.045102388 0.04434634 0.033045713 -0.02255475 0.04525503 -0.05585185 0.00894629 0.016517363 -0.005440964 -0.0001204306 0.023629008 -0.060106445 0.048552606
yesterday 0.08219646 0.0017019839 -0.0126256235 -0.04948096 -0.03280916 -0.076302335 0.07336536 -0.04123574 0.0024453385 -0.032612067 -0.049758118 -0.06531782 -0.027256895 -0.015559319 0.036753614 0.026050277 -0.0400428 -0.045519654 0.010407033 -0.010959717 -0.027245885 0.025441442 -0.044005375 0.003061078 -0.02231243 0.056803536 0.06626676 -0.041475613 -0.05988173 -0.02163618 0.053990938 0.010320736 0.08160075 -0.082953826 -0.04841524 0.070216164 -0.032483157 -0.00809803 -0.018462878 0.011819368 -0.028607689 0.00014983409 0.039023623 -0.021869723 0.02422062 0.07826472 -0.061616246 0.073776565 -0.06003291 -0.03898685
shelves -0.051968895 -0.042971544 -0.07909689 -0.036005016 0.024608351 0.012270826 0.05544452 -0.01877798 -0.062070835 0.045269933 0.03544557 -0.006399536 0.012903447 0.05067976 -0.048668593 0.030283295 0.050200056 -0.027619392 0.016545074 -0.057540596 0.007139274 -0.07014501 0.032878827 0.04191274 0.016631568 0.07822076 0.026493823 0.02559511 0.0028370412 -0.02531736 0.029879086 0.03241493 0.042923924 -0.022633813 0.03931933 0.008385628 0.053162586 -0.06742524 -0.048513975 -0.025321975 -0.0015070434 0.047118075 0.007316141 -0.048766814 0.06440928 -0.023629503 0.014695577 0.016613873 -0.0668054 0.027040973
beg 0.039893314 0.08276364 -0.124258764 -0.019117167 0.063245945 -0.035565555 0.0038274722 -0.04879088 -0.0300901 -0.009458327 0.01550046 -0.110716805 0.009182904 -0.120009735 0.13374905 0.13522626 0.020397881 -0.047780015 0.011358812 0.076785736 -0.13569483 -0.05597101 0.04873195 -0.005006342 -0.08626588 0.062260132 0.0051270886 0.012088419 -0.047622964 -0.017051905 -0.08398169 -0.12796988 -0.025617408 -0.09554822 0.07552029 0.086575285 -0.052036688 -0.038147863 -0.020002587 0.011542278 0.06878919 -0.008670783 -0.049972933 -0.01721318 -0.0067742765 0.057706162 -0.018474314 -0.046172425 -0.09562361 -0.04884566
nearer -0.027799133 0.049905077 -0.046244092 -0.04066608 -0.02650852 -0.06308394 -0.036981378 0.033202104 -0.0758549 -0.07053343 -0.04059947 -0.066515185 -0.030560847 -0.028818578 -0.038020346 -0.045976955 0.025154045 -0.060639206 0.05730877 -0.057453983 0.024622878 -0.06951206 0.057342973 0.043561693 -0.051046427 0.07181577 0.0042521963 0.052935015 -0.06419045 0.028024498 -0.072378665 -0.024006171 -0.0039652935 0.0028928262 -0.038460888 0.037208907 -0.067378774 0.05318442 0.03664626 0.08208736 -0.02602933 0.019164179 0.040460613 0.0022422355 -0.0041732946 -0.046385694 0.010270875 -0.011502416 0.051406607 0.039454978
left 0.1017147 -0.026318705 -0.0016128918 0.050377768 0.0021630262 -0.045504622 0.05566234 0.004506493 0.012626954 0.016466074 0.010648724 0.014975749 -0.06142371 -0.07173621 0.03789687 0.0825739 0.030737823 -0.0047226558 0.054076016 0.048379514 -0.06739882 -0.09958233 -0.04065853 0.036813814 -0.102053344 0.016293816 0.032227054 0.04245166 -0.010779118 -0.10292939 -0.02184697 0.025027491 0.04016612 -0.076757625 0.0023362332 0.041805904 0.015469322 -0.045509987 -0.059415832 0.032495797 0.06337664 0.015114842 -0.06706319 -0.03506283 -0.022849714 -0.03438232 -0.01842056 -0.0013187289 -0.003567941 -0.09874662
guessed 0.06934739 -0.0143739935 -0.05516625 0.023169711 0.002833445 0.03343229 -0.00890536 0.029667128 -0.017231025 0.014227806 0.08178433 0.057088386 -0.022723516 -0.06367319 0.065741576 0.00027595612 0.067900084 -0.054240946 0.03048672 -0.018892039 -0.0050810664 -0.026702814 0.015165777 0.0731229 -0.043454975 -0.030764258 -0.012642766 0.013757768 -0.01749753 -0.028915511 -0.048822716 0.02922381 0.016965145 -0.012603909 0.05396367 0.0043739914 0.05097499 0.011035314 -0.03676312 -0.015467027 -0.033853736 0.004600068 0.043982774 0.059124626 0.022291373 -0.023823867 -0.040121295 -0.048756316 -0.036253013 0.022506796
lazily 0.005121502 -0.017830653 0.010857656 -0.019823477 0.08177815 -0.056731146 0.0263451 0.050079502 0.03601821 -0.031881522 0.031976193 0.012123188 -0.07244973 0.047202747 -0.015194456 -0.043765664 0.0641085 0.0088830255 -0.05569616 0.013170697 0.0063688233 0.032927033 0.055363834 -0.02083831 -0.05955214 -0.0541693 0.06034814 0.04118756 0.02191849 -0.016921477 -0.07981068 0.038627934 0.0020475513 -0.013349757 -0.0048665404 0.06558929 -0.0081712045 -0.031690728 -0.04375245 -0.02705262 -0.030440893 0.05359166 0.059108183 0.064050905 0.06679589 0.07399364 -0.06368086 -0.018653704 -0.040756084 -0.04136986
new 0.07350002 0.046393063 -0.08236976 -0.044991303 -0.0431647 -0.08082613 0.057513677 -0.0407638 -0.08066438 -0.012406897 0.04777426 -0.025380543 -0.009657735 0.04930544 0.073735915 -0.037206743 0.03512848 0.025319887 0.041441113 -0.02735427 -0.063429326 -0.0017699369 -0.022904973 0.027611729 -0.06512536 0.052809183 0.073639296 0.05187042 -0.07522222 -0.05035038 -0.03201252 -0.08113444 -0.01669817 0.01491167 -0.011810041 0.03749894 -0.05599982 -0.05267645 -0.041890923 -0.04169002 0.029858598 0.077707686 -0.001181055 -0.014204385 0.0687921 -0.00165131 -0.09414664 0.06297515 -0.019172896 -0.051167022
across -0.020501113 -0.0007963255 -0.076735795 0.0008359129 0.07665701 0.0034348338 0.011406384 -0.077841796 0.0010472451 -0.04820392 0.08146443 -0.0751858 0.03338687 -0.05336528 -0.073010385 -0.024692293 0.043232284 0.0027762773 -0.030617606 0.022690449 0.010331957 -0.007977783 -0.094691314 0.052221186 0.016806783 0.044877753 0.028148362 0.0711685 0.05305974 -0.052997876 0.052894134 0.012946579 0.006820916 -0.06421804 0.059305426 0.014166923 0.045625888 -0.0009934513 -0.06543338 -0.042290386 0.02431132 0.09685288 -0.03997352 -0.028008932 0.03395571 -0.027006824 0.019690195 -0.014597063 0.03133111 -0.030120138
low 0.008229305 0.08576086 -0.041227818 0.1160177 0.010367937 -0.06601511 0.10918947 -0.06304706 0.015226103 -0.009792679 0.071913265 -0.03155812 -0.06914641 -0.02200459 -0.03475509 0.07016467 -0.011693554 -0.031108273 -0.010734046 -0.033778436 0.023031984 -6.316695e-05 -0.035142995 0.08801434 -0.034585107 0.10668956 0.029986493 0.056569338 0.015088658 -0.0067711123 -0.0075937263 -0.008235506 -0.0024558215 -0.037440594 0.10773537 0.09370131 0.006360407 -0.027891401 -0.053960092 0.051287234 -0.0126618305 0.12008466 0.027568884 0.025951533 0.02625894 0.05054369 -0.04416327 0.08684891 -0.023466654 -0.079153374
struck -0.019358765 -0.039366327 -0.05548808 0.016024344 0.0023502107 -0.062661685 0.02428891 0.022880748 0.055971112 0.055497676 0.03266752 0.034815088 0.046654254 0.04177635 0.034391753 0.005376109 0.061922166 -0.07418733 -0.06406261 0.034610115 -0.005743602 -0.07433067 -0.043183874 0.061911665 -0.06733642 0.051150855 0.040659815 0.036407646 0.008659243 0.056769423 -0.037467673 -0.078960486 -0.048088133 0.034872036 0.0644992 -0.051116023 0.0051099584 0.022232901 -0.04131315 0.06748179 0.06750204 -0.010595524 0.035166882 0.07185912 -0.03194673 0.033648897 -0.071754135 0.055041164 -0.011755256 -0.019168198
opened -0.0004292765 0.034850024 -0.027819345 0.08196009 -0.0023145282 -0.050170362 -0.027961817 -0.02283228 -0.064807825 0.010346755 -0.025088992 0.017614823 0.035388093 0.03474869 -0.043203425 0.06632531 0.016079621 -0.026757345 0.054016482 0.0067238947 -0.0148312645 0.042515717 -0.045555852 0.023990693 0.026704071 0.057737865 0.035235997 0.0142498445 -0.038045637 -0.043723147 0.018956058 -0.05434717 0.012684846 -0.06307101 -0.08315363 -0.038908757 0.009466201 -0.05180861 0.021699306 0.0023908273 0.030171478 0.026637804 0.014632831 0.03293375 -0.03440771 0.07749714 0.062448602 -0.023489958 0.008492425 0.035908673
filled -0.03214777 0.003189205 -0.053754643 -0.044277962 0.06442058 -0.09284027 -0.0064568706 0.022971418 -0.003356006 0.018518796 0.023756681 0.04182284 0.021232981 -0.022290733 0.07182277 0.0631784 0.0707511 -0.06319476 -0.02784976 -0.026322618 0.0066503976 0.011163466 0.045798864 0.027816517 -0.014321178 0.04965519 0.010846298 0.08294797 -0.03813408 -0.031543285 -0.04563118 -0.0054908805 0.07186177 -0.01757479 0.03672384 0.06291654 0.0011011626 0.020010322 -0.07619333 0.024754943 0.03398663 0.02852944 0.022530004 0.06834493 0.039974738 0.001411129 0.0050746743 0.004261119 -0.032021828 -0.00995645
half 0.0015195895 0.07830498 -0.049291916 0.03219225 0.009421277 0.018333787 0.022066608 -0.007796138 -0.044825032 0.014283334 0.06174374 -0.053367645 -0.08507599 0.004847621 0.081568666 -0.034036223 -0.014882093 -0.040191233 0.06677817 -0.006939016 -0.053941526 -0.032546595 -0.02487894 0.11972608 -0.079061925 0.022210436 0.0618704 0.08721114 -0.070179395 0.029242566 -0.034793977 -0.07997317 0.096081376 -0.03156755 0.01039201 -0.0078013125 -0.030625165 -0.075996496 -0.010250606 0.090019435 0.053878386 0.105616555 -0.07271659 0.09789137 0.03306177 0.014534168 -0.07149412 0.08203788 -0.043396946 -0.060152713
look 0.018176587 0.00977908 -0.088807516 0.04058609 0.0061890045 0.00041659398 -0.004338488 -0.08502817 -0.12068916 0.0020715273 -0.078131646 -0.03178125 0.0102147935 -0.041041482 0.03190125 0.05773076 0.12468377 -0.0031144375 0.030009083 0.07389846 -0.06916322 -0.06671627 -0.020555727 0.050467625 -0.0300726 0.07405067 0.07961464 0.0039262595 -0.11995522 0.020428915 -0.04445124 -0.046730373 0.1153937 0.013265531 0.0023619435 0.021163806 0.012251838 -0.016251469 -0.06547209 0.08195541 0.019407753 0.001134105 -0.09909692 0.04031674 0.012053021 0.06984765 -0.06177718 0.0486952 -0.091535375 -0.019548377
i 0.12501533 0.42500144 0.23936646 -0.06993725 -0.35908422 -0.26215395 -0.113036215 -0.14564039 0.035845757 -0.5881841 0.07769549 -0.14939381 -0.11753302 0.3195309 0.7359408 0.05187457 0.25784943 -0.122087725 0.10078909 0.18212403 0.13291016 -0.18545873 -0.27000678 -0.06667578 0.2101661 0.07945326 0.3300183 -0.17317016 -0.11028573 0.6331582 -0.1500672 -0.12823054 0.25660598 -0.16142692 0.1440101 0.10344609 -0.47969693 -0.20647234 0.10046681 0.045123275 0.04511079 -0.5539182 0.32629997 0.23674168 0.20805337 0.08914505 -0.20494264 -0.1438502 0.22828646 0.39040747
sorrowful 0.021686349 -0.041195277 0.08073846 0.03670551 -0.06903964 0.03755702 -0.032651752 0.06794396 0.05512012 0.052865382 0.018892283 0.028594645 0.013959662 -0.020007191 0.041413248 -0.05880194 0.049626376 -0.044911344 0.020116154 -0.030289643 0.04059947 -0.055238463 0.065373085 0.02497403 0.06158059 0.01902573 0.05636812 -0.03555713 -0.027477475 -0.06771499 0.06009319 -0.0011825681 0.01633823 -0.007937389 0.057399094 -0.01565974 -0.039352283 -0.019445876 0.052348718 -0.019456333 -0.027646132 0.06231408 0.03240906 -0.05408209 -0.02508202 0.0068319114 0.08313937 -0.020746712 0.07065761 -0.043780506
again 0.11397097 0.11266413 -0.021546142 0.080420144 -0.008418992 -0.028363122 0.013744562 -0.047039606 -0.08455941 0.02446028 -0.017362477 -0.10783849 -0.012316119 -0.020098519 -0.023441179 0.04089448 0.105834566 0.01940113 0.12947933 0.0038061915 -0.042246427 -0.054409146 -0.12145471 0.045301545 0.019699331 0.008182556 0.06378555 0.079822086 -0.05559247 -0.043677967 -0.00168128 -0.09374625 0.054826524 -0.013643686 0.09979169 0.12327027 0.024254456 -0.11478928 -0.027081389 0.04887041 0.005513748 0.014324814 0.027217366 0.018391658 0.07152065 0.04247397 -0.022774026 0.09107114 0.0018964157 0.015101919
creatures -0.0022847103 0.05822644 -0.07213664 0.021154374 -0.05812698 -0.013142098 0.03663709 -0.027974185 0.013598489 0.035536412 -0.018062223 0.047656287 -0.0748373 0.00096440734 -0.017449476 0.020067059 0.046368804 -0.011903366 0.06975908 0.057897497 -0.04484801 0.007053931 0.038194142 0.08367939 -0.03919713 0.010956552 0.049962554 -0.030410632 -0.025906947 -0.025337763 0.03203268 -0.02951032 -0.0055602486 0.0134693645 0.016710097 -0.025296021 -0.07698804 0.035599433 0.014968747 -0.03505571 0.03673721 -0.029207686 -0.052230667 0.06575314 0.038705412 0.019370647 -0.007373452 0.04138231 0.048689846 0.03085514
strange 0.05187544 0.0037801005 0.020739129 0.050890785 0.017036408 0.036109995 0.08155736 0.040462222 -0.012061393 0.07862859 0.0027559972 -0.034552317 0.006690184 0.03456359 0.056261692 0.07483915 -0.0027984432 0.05288394 -0.034059644 0.057868343 -0.016175928 -0.037134774 -0.073797256 0.020214804 0.028929474 0.08012825 0.004283826 0.0060921004 0.051242914 -0.06746106 0.045290112 -0.04436276 0.06671321 -0.037375074 0.036968175 -0.043882992 0.043199565 0.011207597 0.031538803 -0.034332983 0.0154851675 0.05080663 -0.001442599 -0.05124764 -0.057129074 -0.051605117 -0.0057563977 -0.007663085 0.048441604 -0.054637153
temper -0.016525807 -0.020407865 -0.06423651 -0.0048702713 0.002604154 0.026526816 0.0033287862 -0.009030909 0.039959513 0.028648736 -0.040212806 -0.0768139 -0.0071954993 -0.040561493 0.037121624 0.066642776 0.035564218 0.041515667 -0.006082222 0.0009585159 -0.008868792 0.05340238 0.04721657 -0.05305462 0.0070097204 0.052094284 0.07623713 -0.05152143 -0.05597644 0.032694753 0.017385606 -0.011807414 -0.04742183 0.026185594 0.0028101772 -0.05196304 -0.0037257033 0.051847372 0.037440985 0.053855248 0.03199756 0.07716011 -0.07628152 -0.039783023 0.03403495 -0.030967668 -0.055366203 -0.004536748 0.037025698 0.03154832
hurt -0.009307208 0.011036962 0.037597608 0.09053829 0.079547435 0.017041398 0.052299317 -0.017912304 -0.06246091 -0.024468862 -0.0029681658 -0.096935496 -0.08281577 -0.010845637 -0.061287157 -0.059375495 -0.042511463 0.022376375 0.02669111 -0.0044214837 -0.031543143 -0.070658274 -0.060896933 -0.005236946 0.027893601 -0.024193197 0.053458977 0.071124904 -0.026745025 0.047421828 0.023369398 0.018740699 -0.03751375 0.011273336 0.027399521 -0.013636776 -0.011929689 -0.045752108 0.06632659 0.0034765443 0.02123022 0.047950864 0.0002992131 0.010837648 0.017024934 -0.040694065 0.01600543 0.08526116 -0.016568499 -0.03068431
sound 0.06774843 0.006099115 -0.036603622 0.030632835 0.011459551 0.044547398 0.031327005 -0.02133752 -0.046656094 -0.0014919312 -0.037030302 0.019807842 -0.04576137 0.00899447 -0.024692325 0.031914335 -0.019708872 0.042435624 0.0045660986 0.023550108 0.040902417 -0.02842788 -0.021865742 0.076711625 -0.04616075 0.0732946 -0.018656943 0.057735376 -0.05792674 0.01250623 -0.050380096 0.004149244 0.041745268 -0.04202663 -0.011284503 0.024631875 -0.020606546 0.035787262 -0.015278328 -0.048962638 0.07375285 0.0039490773 -0.036853123 -0.051774114 -0.0013407478 0.004587419 -0.056379095 0.00029389106 0.01599276 -0.063132755
sulky 0.01472111 0.064295694 0.04018034 0.026578495 -0.038574085 -0.024962178 0.0793173 -0.04324511 0.040236145 -0.071390234 -0.019497328 -0.06259531 -0.0014378282 -0.031309243 0.0012956127 -0.013817795 0.003445489 0.017014496 0.021752382 -0.033972558 -0.03131901 -0.028472396 -0.045809403 -0.015657831 -0.042511545 0.053540897 0.006187399 0.0243768 0.0065510236 -0.05840396 -0.0629297 0.0013135936 0.010192111 0.024291767 0.061851148 0.0074348524 -0.067507826 -0.037032466 -0.017098278 0.06659305 0.070295945 0.035956874 -0.04077756 0.03787396 0.06622577 -0.0069256527 -0.06374616 0.06081199 0.040134303 -0.056136154
explain 0.041850384 -0.012642875 -0.004247875 0.035955038 0.05382331 0.01743959 -0.011254192 -0.04745429 -0.00025703048 0.011181522 0.051871315 -0.016309153 -0.06445939 -0.039144028 -0.04535973 0.046689432 0.042915147 0.009195393 -0.0412489 -0.04909755 -0.020200757 -0.06854111 0.042019755 0.007453455 0.014777489 -0.019756712 0.02113737 0.034864735 -0.011351062 0.012292532 0.051132604 0.035259545 0.059855744 -0.001384553 0.05478082 0.07642159 0.0016304515 -0.0541409 -0.0866911 0.032898232 -0.018397141 0.07518419 0.017775211 -0.0066636926 0.08483079 0.074729644 -0.08140435 -0.038440544 -0.055256587 -0.035813674
knew 0.0700314 0.06224807 0.023971036 -0.04344141 0.026887927 0.037134632 0.047963973 -0.022583544 -0.025798341 -0.017476536 0.06697444 -0.041591603 0.024980793 -0.014236791 -0.057306305 0.074854605 0.016229715 -0.057624843 0.07885542 0.052428156 0.031077005 -0.07127236 -0.025994247 -0.004134019 -0.012494122 0.08554146 -0.024438294 0.021516616 -0.04079676 0.05603892 0.00134208 -0.045052085 0.062005598 -0.0013014283 0.027076816 -0.034304105 -0.001461173 -0.05981155 -0.020937856 0.07214289 -0.007284595 0.010738586 0.021892754 -0.015855711 0.03691082 0.01901896 0.020723928 0.040866442 -0.0033779913 0.0440072
hopeless 0.012763672 0.025905915 0.0025943867 -0.0015111144 -0.04171845 -0.028231809 0.018936306 -0.0055188946 -0.028322674 -0.047508713 -0.04032161 -0.0050847647 -0.051103182 -0.046523944 -0.05099538 -0.027781162 0.037665628 0.05160364 0.008518398 0.06308982 -0.053903088 -0.07182921 0.03174229 -0.0038137222 0.03754166 0.051675983 0.07908867 0.050824672 0.047143485 -0.06665795 -0.0011473928 -0.08354546 0.03291019 -0.08236559 -0.023606002 0.0318385 0.030129798 -0.057532072 0.01688533 0.012522124 0.06404899 -0.025257023 -0.048706535 0.007831402 0.032571413 -0.049186993 0.029800028 0.042976685 0.022752078 -0.020912975
question 0.0016296835 0.06854601 -0.014367312 0.07911964 0.020910876 -0.07378703 0.12684679 0.02723408 -0.09336428 0.010334092 0.07180835 -0.07110836 -0.0064402106 -0.023395574 0.12665525 0.10436599 0.06658689 0.025626063 -0.06405318 -0.009965917 -0.07630475 -0.05651306 -0.070927106 0.049483035 -0.062211305 0.061801415 0.057663154 0.033968404 -0.06390097 -0.019512173 -0.03380695 -0.04208265 0.12373524 -0.13254988 -0.027913844 0.0045933817 -0.06511043 -0.05430633 -0.024184838 0.05203061 -0.057686206 0.08479974 -0.12631297 0.012600122 -0.0029199123 0.01971555 -0.040142685 0.08528757 -0.11654441 -0.06464637
nervous 0.07696117 -0.055358574 -0.03410931 -0.01804756 0.042302415 0.017940124 0.07382997 0.015660323 0.021308498 -0.02214494 0.07232006 0.0004399775 -0.06878743 -0.025615567 0.03251873 0.068135336 0.00046809122 -0.0036860628 0.0148782525 0.001982332 0.03021371 -0.043301105 0.050776783 -0.01962731 0.023552455 -0.050306294 0.0005453684 0.009981188 -0.07328234 0.0029272393 -0.0521785 -0.040665027 0.041636765 0.04822577 0.0148270475 -0.059044812 0.04939347 0.016339106 0.008607792 0.073906764 -0.037416708 0.04181948 -0.011214035 -0.033461493 -0.004714165 -0.007116505 -0.0065717846 -0.040674653 0.03557584 0.01085916
bye -0.012205806 0.060238272 -0.07285077 0.036714934 -0.014539713 -0.04235983 -0.01140648 -0.009769012 -0.0030405554 0.034018286 0.025805164 -0.031821586 0.0433323 -0.0019060299 0.04193883 0.05780965 0.057299066 0.047559172 0.079754785 0.028144786 0.03166343 0.014118477 -0.05029396 0.07158354 -0.031078424 0.049405895 0.071795374 -0.040635023 0.012016661 -0.0087516755 -0.009792336 -0.01705854 -0.01935441 0.017179964 -0.031484686 -0.02762124 -0.00047338556 -0.037312124 -0.047269274 -0.014371168 -0.0016142813 0.04419748 0.047017224 0.046264134 0.022277234 -0.056912757 -0.0099735595 0.035645317 -0.03422945 0.026243152
trembling 0.06659766 0.014920077 -0.00018222223 0.06358457 -0.018482348 0.002121773 0.06472528 0.0012602315 0.013536099 -0.013976143 0.06296593 -0.041566838 -0.024635036 -0.10216985 0.017407501 -0.02169947 0.013419825 -0.0917905 0.098065175 -0.032033112 -0.01934414 -0.0555712 -0.04536557 0.043777794 -0.056133855 0.04163903 -0.050786115 0.05603304 -0.081731975 -0.059502255 0.0034245513 -0.071454585 0.018994424 -0.09747461 0.054361213 0.083260804 -0.005221339 0.03324812 -0.021618761 -0.034127664 0.046673987 0.060669236 -0.02184416 0.08325675 0.027548756 0.036757294 -0.026646702 -0.024306353 0.027614668 0.035630137
fanning 0.048098672 0.04453302 0.007191089 0.031021312 0.044336356 0.02606386 0.02352208 -0.076914676 -0.0686995 -0.007864028 -0.042774856 -0.045527518 0.050358962 0.037399553 -0.022044295 -0.050369408 0.077330455 -0.033904884 0.024790347 0.002613209 -0.02726815 -0.054411862 0.04153078 -0.023453621 -0.05042831 -0.020858549 0.04461883 0.0668138 -0.027185442 -0.012216641 -0.045953434 0.037931032 0.05125191 0.024652142 0.026030868 0.017309707 -0.04356192 0.039434765 0.028174467 -0.042905364 -0.03222688 -0.044764493 0.02162908 0.04029367 0.018944854 0.016339546 -0.03867406 0.04275767 -0.005655974 -0.040578432
uncomfortable -0.020699773 0.022005633 -0.029520126 -0.012499744 0.030528903 -0.065475084 0.03595396 0.040072255 -0.05821269 0.034101803 0.05464431 -0.040964272 0.027492337 0.004346164 -0.0017568333 0.062089324 0.07732323 -0.04887477 0.050013553 0.0013172901 0.009449176 -0.044510014 0.022601014 0.054433547 -0.051766925 -0.02344504 0.022271004 0.0006379917 0.01615703 -0.05968574 -0.068751425 -0.074350394 0.06667361 0.061393682 0.032616533 0.030487895 0.014305072 0.022501646 -0.03584787 0.0563444 0.06937133 0.021319311 -0.0012791909 0.054978523 0.07760239 -0.049358588 -0.02298919 -0.052151244 -0.031583384 -0.043836813
lose 0.041581213 -0.008760541 0.04244934 -0.045184392 -0.03746732 -0.0077660815 -0.01094334 0.045139432 -0.054577585 -0.00854557 -0.014197267 -0.0050619137 0.011454809 0.0074461387 0.04694534 0.0633828 -0.039741624 -0.0381203 -0.0077734953 0.008259416 -0.06753028 -0.052486554 -0.025828777 -0.026712323 -0.0132644465 -0.029838622 -0.020930115 -0.00542006 -0.07624391 0.013223525 -0.017418366 -0.056988727 0.07726652 -0.020083979 -0.0069489707 0.015861431 0.03145529 -0.011819268 -0.05671474 0.070615016 -0.022609426 0.0063810498 0.009692218 0.023449665 0.044404063 0.04723382 0.010789857 0.052847445 -0.014226744 -0.05830153
simply 0.035684306 -0.019718971 0.008494787 -0.025961488 0.00078717 -0.051458087 -0.014880039 -0.07799118 0.016407149 0.015607749 -0.058241077 -0.065012 -0.03286581 -0.049849622 0.009771949 -0.04937193 -0.05579221 0.04781141 -0.028405234 0.051586494 0.045545936 -0.032850735 -0.02236976 0.02470929 0.034865513 0.02008779 -0.006850488 0.04004585 -0.042230375 -0.049561832 -0.02404677 0.03716329 0.067638725 0.015289252 -0.013050092 -0.05593459 -0.029841775 -0.01626905 0.0042336974 0.011409951 0.02593731 -0.010576157 0.02502219 0.048736285 0.027258283 -0.044530414 0.014479756 -0.02681429 -0.06541903 0.03402028
s 0.046373177 0.11941687 -0.03639061 0.07284799 0.05003833 0.10349049 0.057264622 -0.099513315 -0.08671588 -0.083631545 0.07445171 -0.0055307415 0.045616858 -0.04559397 0.01573101 0.038891636 0.057512954 -0.09708305 0.050798867 -0.0059020533 0.059654288 -0.06717233 -0.031499784 0.07836971 -0.1002252 0.013345538 0.07576059 0.069331735 0.07795862 -0.014237681 -0.0659253 -0.12705721 -0.020767057 -0.057581726 -0.053609736 0.05855514 -0.023514858 -0.032664195 -0.078959465 0.0037584144 0.032530513 0.1530776 -0.05952189 0.031789076 0.016407762 0.040254474 -0.08107797 -0.014097791 -0.014772585 -0.10997133
friends -0.010510616 0.0075360425 0.033721123 0.04180667 0.0006715404 0.04792462 0.026259989 -0.052907698 0.051849514 -0.025907606 0.063932195 -0.035454094 0.03941223 -0.052667703 0.050023224 0.015472524 0.06886959 -0.04310701 0.05512978 0.06392765 -0.077804066 0.04676789 0.04374555 -0.022884399 -0.06625447 0.068494186 -0.04140811 0.038239125 -0.060001217 0.01964424 0.036175676 0.020313367 0.067777775 -0.033577297 -0.011750326 0.020551005 0.037670363 0.04445596 0.01853137 -0.036875755 -0.033796553 0.0146021545 0.0035252213 0.01954125 -0.01698233 0.023337327 -0.010310066 0.0399668 0.051307894 0.06226063
direction -0.00460646 0.055526 -0.032305468 0.053910576 -0.04332487 0.057167653 0.007972077 -0.009740029 0.006160859 -0.0127668055 -0.052529696 0.01315137 0.052650552 -0.0131868785 0.03773732 0.074525945 0.04276786 0.009925447 0.06775876 -0.04385851 0.019862872 -0.07355686 0.048588026 -0.028311912 -0.05664294 0.028809672 0.0036979136 0.048555 0.0124164075 -0.007421015 -0.049593277 0.015045291 -0.04384091 0.0140855815 -0.06761514 -0.024121102 0.041220453 -0.050927717 0.010963445 -0.052262135 0.061630763 -0.018170286 -0.058654714 0.009356749 -0.054335617 -0.028960528 0.061355304 0.06975339 0.0019073478 -0.042192172
smaller -0.030061882 -0.04126466 -0.06635147 0.052376483 0.07331932 0.0056052324 0.037472785 -0.021611655 -0.014842692 -0.050967224 0.023730835 0.006074564 0.053666417 0.019703342 -0.056706388 -0.0060930946 0.06511673 -0.06310431 0.0113961585 -0.0006858641 -0.029810127 0.054750886 0.03435468 0.07231258 -0.0024050744 -0.05196077 -0.052554604 0.05317584 0.043793026 -0.028874552 -0.060119182 0.03909273 0.065752916 -0.06456804 0.06696516 0.023367882 -0.051669177 -0.011541282 -0.0015299221 0.038276777 0.023039628 0.05771329 -0.06447999 -0.027890723 0.047382757 0.076178156 0.04856761 -0.017762063 0.058374945 -0.05657038
nice 0.049386468 0.022007884 -0.11222464 0.1007077 0.048616737 0.0286124 0.070854425 -0.07313277 0.005810719 -0.06879074 0.08707132 0.015705768 -0.045551747 -0.11130873 0.081184775 0.018952051 0.08964875 -0.033892695 0.047783162 0.022844208 0.0049953223 -0.1127967 -0.09583994 0.0742929 -0.09737813 0.070607245 0.054910343 -0.01798784 0.024762908 -0.05190116 -0.011989431 -0.07978102 -0.032423526 -0.026102994 0.025905242 0.059546255 -0.024749404 -0.10816407 -0.0072085983 -0.022396633 0.10099144 0.056453034 -0.09044742 0.058340628 0.07314822 0.059172135 0.004756081 0.03547231 0.024840599 0.01105186
even -0.011476041 0.105609395 -0.106891036 0.07849048 0.02645081 -0.010792711 0.018149298 -0.074294366 -0.06649308 -0.06375078 -0.024815764 -0.024376152 -0.10441371 0.019038446 0.08964436 0.09717749 0.06757839 0.018520754 0.03944467 0.059070352 -0.038673643 -0.044310775 -0.0701223 0.083990425 -0.041222405 0.02383624 0.092484 -0.023021128 -0.020453397 -0.046510413 -0.09882671 -0.032247603 0.0063596815 -0.030657193 0.05237414 -0.015711129 -0.08199629 -0.04231115 -0.020712847 0.006553544 0.08234616 0.022291124 -0.099736325 0.015346481 0.04662383 0.07353574 0.006090828 -0.024607182 -0.016641399 -0.1064896
maps -0.044384837 0.031387903 -0.028187795 0.025401618 -0.045383316 -0.04644852 0.026108801 -0.050624475 -0.023377309 -0.021595338 0.055708133 -0.032891944 0.026421232 0.042293813 0.020917913 0.04244649 -0.010190917 0.033504866 0.0059070364 0.021243284 0.05400688 -0.05737728 -0.08189759 0.008874222 0.012791544 0.034728024 0.0054930947 -0.02872425 0.04337897 0.002513779 0.0071951565 -0.06788892 -0.020121336 -0.021228543 0.052252125 0.05595684 0.009429843 -0.061451394 -0.017328968 0.015635295 0.037258897 -0.030894214 0.05360666 0.069015436 -0.0184833 -0.03442607 -0.050480634 -0.014020417 -0.041292418 0.022070676
inches 0.021690639 0.051180538 0.011083141 -0.003891995 -0.011663791 -0.009756276 0.09119075 0.0024000183 -0.05635756 -0.07333311 0.07473922 -0.038004268 -0.06412023 -4.804763e-05 -0.02699908 -0.022319559 0.07975404 -0.027945317 0.05512073 0.096653126 -0.08867697 -0.06505001 -0.03575357 0.06146213 -0.07284039 0.046534155 0.0028416617 -0.0021914486 -0.08946413 -0.05169051 -0.097467735 -0.019336734 0.037230853 -0.08527231 -0.028396914 0.050491385 0.019234408 -0.09743263 -0.09375285 -0.007699034 0.020094179 0.064182475 0.011844676 0.09320415 0.06878549 -0.0053542177 -0.044544548 0.0029546465 -0.042949922 -0.04056203
old 0.06922136 -0.019605404 -0.054119125 0.0077169705 0.009676971 -0.09884632 0.015770782 -0.0699335 0.0037731207 -0.10184745 0.11373031 -0.09462774 -0.015758645 -0.024272237 -0.022943242 -0.013488151 0.02338499 -0.039449032 0.05857394 0.014630812 -0.100700594 0.011582636 -0.08741261 -0.0077822404 -0.07493655 -0.0156335 0.043600958 -0.0014649951 -0.008935589 -0.10541487 -0.07445899 -0.0011002383 0.112404935 -0.0010640005 0.039708514 0.118161425 -0.081086375 -0.018462546 -0.099157035 0.090009 0.10289331 0.0059782937 0.013104913 0.10281948 0.089055106 0.06988521 -0.02586737 0.08450094 -0.028706143 0.021723008
showing 0.069061495 -0.016298823 0.054115746 -0.012046751 0.07288487 -0.0705698 0.041343223 0.0550922 0.038756195 0.044974018 0.066159494 -0.077602424 -0.0017873961 0.04007857 0.016897656 0.026384696 0.0071501303 0.032942455 0.024796326 -0.027864296 -0.018194616 -0.009383645 0.037869778 -0.03431356 -0.01272652 0.019174887 -0.04988807 0.016733421 0.02365635 0.025357159 -0.0003518276 -0.0070764865 -0.014856683 0.032854244 -0.0012580175 0.077175215 -0.038911883 0.027766615 -0.07380334 0.0790684 0.026891252 0.07013698 0.05637951 0.032184284 0.01039323 0.051414892 -0.06270613 0.013895391 0.023467148 0.013482669
six 0.02996446 -0.006810845 -0.061233707 -0.041973483 -0.043602232 -0.033200145 -0.026129935 -0.07297917 -0.073473915 0.015679128 0.0362994 -0.061842337 0.039571974 -0.025340268 0.04653709 0.0015820212 0.021557575 -0.052041646 0.03409812 0.056757558 0.050363388 -0.031404145 -0.07234217 0.0064219637 0.0009746583 -0.008195099 0.08322107 -0.009567406 -0.013451336 0.02546896 0.02674928 -0.0707912 -0.0033801422 -0.029773058 -0.04767862 -0.036383886 -0.05811665 -0.017789092 0.029826485 -0.055249035 -0.04586817 0.03705315 -0.05956475 0.038142476 0.07448686 -0.036066037 0.037021924 0.07359432 -0.042362403 -0.021050083
small 0.085540555 -0.0028942027 0.024211157 0.0050672386 0.037799437 -0.032564558 0.04824557 -0.019516572 -0.055516545 0.06359135 0.0655238 -0.09066312 -0.02180685 -0.1031155 -0.0005198055 0.07763305 0.06688623 -0.0057995855 0.05779555 0.0552441 -0.062418118 -0.06515111 -0.08583459 0.010588847 -0.058724694 0.064481534 -0.015660971 0.038186885 -0.033704404 -0.0034688446 0.0041321875 -0.010602297 0.09526594 -0.05365613 0.044095866 0.03733556 -0.101365015 -0.068306446 0.016059134 0.099936046 0.015472473 0.0035367273 0.01353939 0.0683914 0.10678145 -0.009509657 -0.07377137 0.012490652 -0.062901855 -0.058136296
five 0.07935403 -0.027130771 -0.057423074 0.0011976376 0.05328733 -0.01349414 0.0035915752 -0.07101394 0.03652167 0.036913157 0.037632637 0.041770775 -0.07701045 0.03985221 0.035552673 0.051481504 0.080079526 -0.025445895 0.07287644 0.0078208065 0.005521968 0.021037135 -0.0061311177 -0.00842423 0.0049987584 -0.0044519585 -0.04709728 0.046981137 -0.04005355 -0.02424793 -0.05738372 0.052650224 0.013166117 -0.07068219 -0.0065489844 -0.037995562 0.043857507 -0.07230456 -0.0015132738 -0.03307719 0.055679396 -0.032995712 -0.07602313 -0.03067733 -0.04061987 -0.02802386 -0.042985875 0.048978917 -0.048500776 -0.059542637
useful 0.06522985 0.03240782 -0.031348724 0.0033320938 -0.009442957 0.031329274 -0.00937355 0.030340899 -0.08401889 -0.056683145 0.08277226 -0.06946192 -0.05957122 -0.050072383 -0.024686325 0.031966075 0.08752561 0.03869738 -0.024053356 0.08254384 -0.010856237 -0.08163796 -0.072794236 0.03196508 -0.08034664 0.08153506 0.08355262 0.08021128 -0.006011904 0.01808739 -0.026213046 -0.015085391 0.00083452126 -0.07527577 0.06419215 0.07447709 0.007408711 -0.03334122 -0.007189082 -0.008233832 -0.0059033595 0.01735057 -0.027073717 0.050131667 0.089389935 0.0010860247 -0.055875655 -0.012369113 -0.08618264 -0.07694409
sighed 0.037214145 0.048346326 -0.06999024 0.022343833 0.01858291 -0.0074144267 0.08286246 0.037801202 -0.06371208 -0.0088041825 0.056933016 0.041706458 -0.011874678 0.047207512 -0.040904287 0.071166195 0.068780914 -0.00075134065 0.064157695 0.066901155 0.04140846 -0.0045747263 0.051878005 -0.056073982 -0.072429925 -0.03373132 0.071587466 -0.044886194 0.004861989 -0.0039537563 -0.07951709 -0.07347827 0.02909256 0.01470403 -0.035103146 0.07817894 -0.05294238 -0.016878856 -0.07086469 -0.008334057 -0.021177119 0.00077622605 -0.04801923 -0.0345622 0.064022094 -0.0055238153 0.021982197 0.07998218 -0.07600247 -0.019428283
multiplication 0.0035479069 0.02993172 -0.048839204 0.06533226 -0.05231402 0.004380517 -0.037262365 -0.028686926 0.009697076 0.03403006 0.007464204 -0.07348846 -0.014255555 0.024790924 -0.006466978 -0.012170833 0.04838254 0.043542795 -0.058622915 -0.0026851567 0.0071426956 0.053893648 -0.034848765 -0.038989387 -0.06642315 -0.053114712 0.04670048 0.050411988 -0.039812244 0.045514517 -0.024186915 -0.0770491 0.010050002 -0.03756478 -0.041485373 0.00058595417 -0.010425901 -0.029727664 -0.021250404 -0.028404925 -0.010885293 0.05212497 0.05174439 0.06669261 0.013919661 0.014650039 0.01296179 -0.011643859 -0.04389605 0.025580455
open 0.062182494 -0.040240947 0.0045046937 0.08330779 -0.031123146 0.044291094 0.053854268 -0.058767367 -0.0006945246 -0.07233225 0.080672346 0.03397352 0.01462493 -0.04151977 0.050922368 0.03846325 0.02188384 -0.03450836 0.020396343 0.047533702 0.041051183 -0.032892954 -0.009766691 0.048114125 -0.066414036 0.07049169 -0.059153773 0.029470563 -0.07899169 -0.05413162 0.01673313 -0.026944987 0.06599905 -0.00663918 0.03172291 0.05484739 0.03725453 -0.034533292 0.053052615 0.05882263 0.009383341 0.02662684 0.0197928 0.06322313 0.03905439 0.066032134 -0.08091895 0.063447185 0.018930644 0.039751835
if 0.08909379 0.20262927 -0.032952264 -0.04538074 -0.052761685 0.031535573 0.05624274 -0.07354799 -0.03854593 -0.12090426 -0.084748894 0.045762625 0.02598809 -0.12385422 0.059182074 0.115322255 0.16647567 -0.045965344 0.06942031 0.04616638 -0.15946911 -0.11353539 -0.08724751 0.07465687 -0.08189122 0.015607281 0.036881793 -0.124948844 0.006795015 0.25977013 0.0341022 -0.18205872 -0.14031349 0.04730188 0.061816007 0.1619204 -0.1227923 -0.10527072 -0.007300707 0.06138202 0.05821324 -0.10323695 0.04622334 -0.08978233 0.16472575 0.16163208 -0.14372729 -0.043975774 0.08737262 -0.055526357
heads 0.01772034 -0.015683448 -0.09877864 0.10277872 -0.0004940649 -0.028160078 0.041329075 -0.09423959 -0.056232255 -0.00047082442 0.07229906 -0.0127759995 -0.021860072 -0.090536185 -0.020304343 0.03133278 0.02264055 0.012765477 0.042791348 0.03630778 0.015763381 -0.009253846 -0.10526606 0.012237822 -0.062211476 0.016499827 0.060122184 0.09508632 -0.034098092 -0.063866496 0.02237786 -0.0868815 0.02971418 0.012633678 0.043975446 0.066421896 -0.049164325 0.028514812 0.024221275 0.058932267 -0.003941786 -0.012260119 -0.012680461 -0.021324703 0.06695942 0.10753511 0.021502972 -0.011059814 -0.04907301 0.035363503
walrus 0.06006825 -0.034587458 -0.017713515 0.022359269 0.0099222995 0.019372439 -0.0073205666 -0.05051489 0.044471916 -0.05782396 0.029973175 -0.03053312 -0.008197043 -0.07512288 -0.037503347 -0.028129213 -0.015239688 0.061223578 -0.03790807 0.08149527 -0.074565135 -0.0124391 -0.03584995 -0.010649678 0.059879526 -0.02561406 -0.027270708 0.049255665 -0.011028999 -0.04193198 0.03845309 -0.0025977776 0.048646346 0.029689278 0.019573178 -0.030212611 -0.0015737031 0.057962514 -0.027339032 0.0060939165 0.039827965 -0.0009320596 0.016377762 -0.04371138 0.06581 0.0152623905 -0.04469486 -0.0008076632 -0.06737444 0.04136455
