1182 50
comfits 0.010753219 0.035314333 -0.05847028 -0.029355465 0.05715637 -0.0030752262 0.025543375 0.014625893 0.033393566 0.052357018 0.043373715 -0.0054400885 -0.0022677695 0.03232261 0.05384622 0.004155605 0.009499169 -0.011351129 0.010352513 0.022292424 0.08097905 -0.002444391 0.044551093 -0.025120588 -0.05242999 -0.063619256 -0.020722928 0.056229312 0.03542906 0.004629369 0.012248893 0.0064984383 -0.026140535 -0.026007168 0.06878406 -0.041680392 -0.008471247 -0.008006324 -0.012894683 0.07311004 -0.00509994 -0.072329536 -0.049446218 -0.04636061 0.058877863 0.03207548 -0.070252985 -0.015112635 -0.007914936 -0.061525565
moment -0.008013481 0.0030602699 0.040158395 0.012296967 0.016450612 0.017369594 0.032616496 0.0237825 0.046847843 0.077562526 0.10246428 -0.025182052 0.01778477 -0.009894302 0.10423795 -0.02032626 0.004596282 -0.07094383 0.0038164356 0.06637804 0.027235875 -0.06844446 0.058933854 0.027503828 0.003287348 0.058865115 -0.08006925 0.03374062 0.0014106699 -0.03138 -0.053238023 -0.08196548 -0.026604926 -0.067289025 0.04971893 0.018678421 0.05143973 -0.009404106 -0.021121362 -0.017621722 -0.066632874 -0.025657218 0.004373488 -0.0074393447 0.005914846 0.052676667 -0.07577384 0.0049841227 0.08333853 -0.010688751
pointing -0.0061490885 -0.0225512 -0.020153971 0.020592395 0.03064956 -0.06773182 -0.034939483 0.04374889 -0.058978986 -0.0006073593 -0.0495986 0.00060113013 -0.05133112 0.012821897 -0.041066594 -0.055011697 -0.07592124 0.0293083 -0.024368461 0.039508846 0.009432141 0.034484617 -0.037521496 -0.049585458 0.06240512 0.009469881 -0.07979051 -0.019605584 0.016064128 -0.037575137 -0.014376769 -0.046557646 -0.03288997 0.016847253 -0.030147972 0.039956953 0.011871278 0.014031928 0.01511469 -0.07118306 -0.043285225 0.027251683 -0.0049524526 -0.003804152 -0.0016431342 0.006238855 0.014233916 0.014250524 -0.023692144 -0.00569614
seems -0.0063920715 -0.06267316 0.024562966 0.026753327 0.034307614 -0.0183324 -0.022572935 0.072725005 -0.016779177 -0.074675374 -0.039050084 -0.019793363 -0.03925993 0.0011243266 0.016513119 -0.011591285 -0.062017232 0.029580321 0.017579183 -0.020796003 -0.033006925 0.009048391 -0.041484427 0.039327137 0.06030737 0.044346336 -0.001464917 0.0074657057 0.00082667964 -0.012477934 0.03376527 -0.046941753 0.010538779 -0.019981984 -0.04619586 -0.019558456 -0.037043024 0.0559002 -0.002998834 -0.047030073 0.02166322 0.028065305 -0.033734053 0.018445538 0.04534095 -0.074940875 -0.046315067 -0.0006239163 0.019498138 -0.011369215
and 0.08235672 -0.2810391 0.18856478 0.16308793 -0.36853155 0.2575021 -0.12838754 0.11722075 -0.023567103 -0.17107545 -0.3209728 0.3456943 0.07003539 0.059643656 -0.12413001 0.06089889 0.32545757 0.08542746 0.17649557 -0.15000233 0.3414197 0.16670825 -0.105836265 0.21423721 0.06034326 -0.20191509 0.09901387 0.15301432 0.36656174 0.28974083 0.3157935 -0.145902 0.27965835 -0.043169737 0.29446235 0.056792777 0.06929315 -0.15605664 0.2079489 0.18965434 -0.17776582 0.008966905 -0.039565384 0.008117689 -0.14553732 -0.22399217 0.28632814 -0.23085976 0.004550913 0.0979081
distance 0.029008316 0.0003441181 -0.0028575922 -0.07046896 0.030987673 -0.087736905 -0.014969712 -0.055510096 0.033050332 0.08532007 0.0398447 -0.041042753 0.0400935 -0.03309753 0.037171334 -0.033292763 -0.012704779 0.0018740532 -0.076050006 0.0728722 0.048883703 -0.061883263 0.060745437 -0.0047888225 0.046799794 0.06465288 -0.08363215 0.037307978 0.048612386 -0.016160531 -0.040464662 -0.04357412 -0.06411478 -0.03231465 0.017659342 0.02256237 -0.0119563835 0.01900522 -0.0025098282 -0.013797672 -0.029055197 -0.0076511055 -0.059879895 -0.0100807855 0.008010927 0.05140356 -0.067283094 0.050050408 0.039417032 -0.057697
day 0.05465963 0.018162878 0.03993917 -0.006394556 -0.0438335 0.02969676 -0.0064183096 0.091607876 -0.0864837 -0.04249574 -0.0042871614 0.06727953 -0.018142879 0.04381722 0.013053776 0.08168147 -0.07092619 0.012344497 -0.0066812667 -0.019575099 -0.020084444 0.060011547 0.0055267825 0.09242643 -0.0021786722 -0.04843291 0.0073901517 -0.052125577 -0.008965073 0.0068662483 -0.03511913 0.023002109 -0.022872776 -0.007423891 -0.05251681 0.0009551741 -0.027712205 0.01998647 -0.049074873 0.049018987 -0.07507069 -0.0037679886 0.009960198 0.0006305027 0.06199691 0.032532845 0.07691567 -0.06584932 -0.059720885 0.050170068
after -0.0011666168 0.028005492 0.051806625 -0.05439461 0.00014284276 -0.06809857 -0.024818191 0.01924446 0.13389048 0.04222598 0.01651039 -0.10213837 0.10661162 -0.051499937 0.035830643 0.014694981 0.017773 -0.018505443 -0.08359015 0.018315008 -0.0066896696 -0.06983512 0.058611907 -0.014766637 -0.061679326 -0.02135263 -0.016485594 0.07170036 0.09181028 -0.04274009 -0.03732098 -0.08971935 -0.077058144 0.04972619 0.0064356383 0.014788655 0.0540826 0.0011597241 -0.014978153 -0.00427402 0.0062198434 -0.018764175 0.060701787 0.07877505 -0.076756105 -0.061470687 0.009949668 -0.01553862 -0.040288746 -0.01060098
own -0.025987323 -0.05623929 0.011098083 0.07616658 -0.034849275 0.025372602 -0.018833615 0.06121818 0.029154515 -0.07189882 0.0035848408 0.090435915 0.07672262 0.027746698 -0.0728359 0.087745115 0.027259354 0.11962838 0.063340135 -0.020377835 -0.13129278 0.028875543 -0.0035355946 0.0576194 0.03521421 0.037386667 0.04441754 0.11554344 0.014539493 -0.042142946 0.023456316 0.11397319 0.036092956 -0.006633558 0.048509944 0.026071627 0.03711018 0.04016792 0.081776336 0.08923175 0.015507302 0.03925594 0.10675487 0.017573778 0.0007469824 -0.08255862 0.044896193 -0.03546467 0.007912611 0.07181553
life -0.01252418 -0.014471084 0.061717078 -0.017765943 -0.02296821 -0.042094994 -0.069090515 -0.01258165 -0.009553448 -0.004950051 -0.034553394 0.019554647 0.018305333 -0.008885188 -0.03649418 0.035015583 -0.053055942 0.024341807 -0.091731474 0.0052836966 -0.030603273 0.00067049684 -0.0151689155 -0.04749216 0.044221923 0.06920484 -0.01985532 -0.012284145 0.0039571696 -0.0025532981 -0.06747115 0.019693948 0.021619104 0.015339892 0.004531447 0.09986436 0.059975293 0.06435134 -0.038985614 -0.021318467 -0.050580855 -0.066767916 0.029204588 0.001386819 0.014972029 -0.021292018 -0.059552077 0.026044128 0.03307278 -0.021006484
doth -0.039506752 0.02516592 -0.0007252591 -0.030355487 0.026225798 0.011276077 0.029815214 -0.07304797 0.07468802 -0.00034322857 0.069736026 -0.051745016 0.045601547 0.03387339 0.04133844 -0.04991632 0.02137682 0.011564117 -0.03680797 0.028316863 0.012502432 0.0012200631 0.049354017 -0.0640832 -0.01217023 -0.02951235 0.008144423 -0.04035799 0.071277104 0.035308372 -0.033931315 -0.046450194 -0.030131739 0.015023631 0.005147746 -0.040175773 0.031078799 0.0475199 -0.024922306 -0.011429694 0.083929874 -0.04253891 -0.052971095 -0.037475936 0.019972295 0.042590182 0.045744095 -0.037950374 0.0110884495 -0.04316924
bright 0.04296846 -0.033024095 -0.03129771 -0.017813824 -0.0014470237 0.030826101 -0.047390554 -0.011257774 -0.050292876 -0.018333342 0.010866575 -0.043483496 -0.04330951 -0.013807209 0.038907513 -0.010956327 -0.016523898 -0.017293958 0.010854972 0.07369192 -0.009013361 -0.025769778 0.034517724 -0.061284117 0.012241903 0.022140756 0.019705664 -0.054271128 0.017837115 -0.041690256 0.0343975 0.02160832 0.013347322 -0.010605349 0.02513998 0.035597146 0.00097414624 -0.023821779 0.0011731075 -0.024745956 -0.02335556 0.03645097 -0.022833828 0.00068061554 0.029916178 0.06631729 -0.022488294 -0.023699855 0.030082723 0.032717224
disagree -0.018367399 0.027248863 0.0023952895 0.02565064 -0.044040658 0.060398404 -0.026418991 0.02718634 -0.041360367 0.036566842 0.047471505 0.05464724 -0.053223465 -0.035061974 -0.07078482 -0.01136796 -0.011030127 -0.0067208987 -0.05848396 0.0063437023 0.0027396067 -0.0058371914 -0.036537644 -0.0119655635 -0.030287785 0.061439015 0.008996305 -0.0019445219 -0.035821423 -0.03855201 -0.05533023 0.026374461 -0.044185497 -0.0036518234 0.020121705 -0.020863743 -0.0044436245 0.015586175 0.05305504 -0.04726279 0.036736067 0.050518017 0.01872378 0.034459203 0.019923948 -0.0116414465 -0.04227236 0.007089655 0.07141786 -0.009521314
measure 0.0066579366 -0.0048897928 -0.006375849 -0.0016973092 -0.020072218 0.04446462 -0.018723952 -0.02613005 -0.060069498 -0.035889976 0.01417881 -0.034877382 0.0045585246 -0.017269641 -0.010266476 -0.018119255 -0.041674122 0.005600896 -0.042769186 0.030753724 -0.0022155682 0.020987771 0.036665592 -0.018238045 0.021304414 0.045028567 -0.048467908 0.04592728 -0.03261556 -0.05013767 -0.027875522 -0.04622876 -0.031603035 -0.051050838 -0.05058081 -0.01670801 -0.0069785034 -0.0074596265 -0.0021213554 -0.023535866 -0.044346455 0.001292184 0.0042234333 -0.0372762 0.05927542 -0.012570787 -0.014788841 -0.026712062 0.03843897 0.029946461
uncomfortable 0.038731303 -0.032935344 0.044471934 -0.00484463 -0.0025723167 -0.008349445 -0.010999243 0.044224285 -0.010388879 -0.0036977094 0.0077452473 0.060205832 0.036101356 0.011746701 -0.019167865 0.027000494 -0.0053838613 -0.029242225 -0.036714207 0.030027129 -0.02171146 -0.008061546 0.027127381 0.04129142 -0.009219646 0.01752994 -0.01619109 0.033844844 -0.020977931 -0.053082787 -0.016191747 0.01278992 0.0044762283 0.006652286 -0.030107716 0.046915185 -0.034419615 -0.019890666 0.031898253 -0.02401483 0.011002718 -0.0042619705 0.01781608 0.028000196 -0.049195874 0.042947903 0.029808741 -0.047501177 -0.008093398 0.01971311
vanished 0.03662398 0.0025662868 -0.03783667 0.041642316 0.034739576 -0.031153085 0.0077621243 0.05286252 0.042600557 -0.0045010964 -0.048934843 -0.03436821 0.054081045 0.07384637 0.037063472 0.0032819826 0.050503794 -0.047569685 -0.0063748797 -0.06962949 0.06049191 0.020950295 0.028282821 0.05643954 0.03605717 -0.037077617 -0.021046523 -0.005710723 -0.026066596 -0.042568177 0.0507226 0.0382629 0.06169473 0.028179117 0.014287409 0.012080685 0.01820239 0.0097084185 0.032609537 0.03269275 -0.026155677 0.05326413 -0.02116719 -0.01546956 -0.016634764 -0.0028234595 -0.013451263 0.019345563 -0.048983946 -0.018100142
her 0.03373164 -0.13458005 0.08652965 0.38007417 -0.23074295 0.26068944 -0.033673808 0.030097898 0.10922352 -0.2644144 -0.2763903 0.12517713 0.07497064 0.09869875 -0.035643253 0.40909657 0.09281712 0.10241691 0.20592503 -0.20312178 -0.03526217 0.12653314 -0.15094976 0.19916753 -0.12551095 -0.12016754 0.20604989 0.20206343 0.1544214 -0.011170058 0.3312937 0.03821968 0.21915933 0.06463791 0.13408925 0.16737896 0.13456587 -0.17762806 0.11324096 0.30392194 -0.035999287 0.14037472 0.24148968 0.05237039 0.023165602 -0.2530494 0.2225782 -0.29958695 -0.106402054 0.106067255
normans -0.012609221 0.014511521 0.010030259 0.00724071 0.011653556 0.0016651521 0.0106677655 0.0075372155 -0.04558104 -0.069010325 -0.0124721285 -0.039301597 -0.012178439 -0.02159253 0.003928349 0.029670212 -0.04843253 -0.019182311 -0.005655719 0.0062028384 0.010918023 -0.0039726533 -0.002970349 -0.016371407 0.033352636 -0.037835613 0.043465663 -0.040382646 -0.038510796 -0.013460856 -0.038566776 0.025583476 -0.05193345 0.0014908928 -0.0021310241 0.011515091 -0.040355384 -0.03648207 -0.048969388 0.057164237 -0.018314738 -0.0027036886 -0.005304923 0.0074747815 -0.042148676 -0.031255405 0.0068987887 0.030266142 -0.05791028 -0.055010874
chain -0.0034766805 0.014524038 0.002085122 -0.051059216 0.03820354 -0.015689323 0.06375798 0.03969528 -0.024468388 -0.0056631356 0.036753505 -0.043380894 -0.035579063 0.035636395 -0.03730972 0.048493788 0.021986907 0.016562201 -0.03398129 -0.03142926 -0.019106092 -0.0109616695 -0.00020552454 0.026564976 -0.050014358 -0.060355395 -0.0027583712 0.03770142 0.053755265 0.0025962288 0.008914884 0.006285322 -0.019306958 -0.031902507 -0.018752443 -0.054975513 0.010823801 0.04279037 -0.06261147 -0.02437363 0.017646613 0.0359373 0.0064679417 0.010566587 0.0175623 0.007137647 -0.028941058 -0.041202415 -0.04442982 0.030889466
funny 0.01439318 -0.07864914 0.052292686 -0.057146724 0.03332568 -0.06903695 -0.09597038 -0.016791174 0.013243026 -0.06849571 0.021740474 0.029956091 -0.025524812 0.06425301 -0.027302759 -0.04545799 -0.06506222 0.04194952 0.007605762 -0.0330766 0.011755062 -0.01862436 0.0376569 -0.017560396 0.0011625721 -0.02621123 0.0356727 0.01775115 0.041632634 -0.04580898 -0.01749222 0.03376444 0.023032801 0.043416895 -0.021791855 0.03933051 0.063183405 0.04093431 0.019444568 0.034799527 0.0026158951 -0.010912718 0.003356757 -0.019501578 -0.053805474 -0.08275996 0.021340478 -0.04250909 0.006870217 -0.015117346
fanning 0.009172848 -0.010719958 0.020667663 -0.04296721 0.016498953 0.00568013 -0.045867294 0.04809675 0.049601115 -0.03542875 -0.02514896 -0.029031841 -0.01350751 0.049358036 -0.038653605 0.043865886 -0.01338225 -0.042213216 -0.02052135 -0.04034397 0.025784055 0.034340665 -0.025798414 0.027741017 -0.013504602 0.03458797 0.028022386 0.026894813 0.03588229 -0.03196571 -0.026504863 -0.012650136 0.037099212 -0.038261328 0.059765548 -0.03396302 0.0040975735 -0.0067356667 -0.0043352824 0.030637342 0.0703897 0.03927761 -0.007578749 -0.019217866 0.01694418 -0.03872421 0.0066091083 -0.011665357 -0.05339261 -0.01287698
noise 0.026713565 0.024546536 0.02352645 0.037062623 -0.051659986 -0.013773842 -0.010087912 0.039082997 0.02505194 0.03022019 -0.034414705 -0.020430267 -0.01787791 -0.0007410961 -0.034070227 0.022962715 0.034662645 -0.001808846 6.540457e-05 0.02304604 -0.016095113 -0.052721802 0.03349476 -0.02574705 -0.02520083 -0.055347107 -0.0006623511 0.021498164 -0.01251392 -0.055436663 0.018689731 0.02492632 -0.03181784 0.00022024379 0.042467393 0.02265306 -0.003596367 -0.0541466 -0.011973413 0.04085107 -0.01111549 -0.024451762 0.04504447 -0.058128078 -0.02025217 0.0373524 0.017764917 -0.026710453 0.01432266 -0.027860723
since 0.00016508822 0.010686101 -0.04028976 -0.039735593 -0.064592585 -0.020499952 0.0027919447 0.058134824 0.026595945 -0.029061174 -0.007244218 0.07228158 0.021032456 0.008975661 0.015252762 -0.046196923 0.019526321 0.020779725 -0.0021093506 -0.04209609 -0.004893338 0.06928356 -0.037733402 0.025439134 -0.062598765 0.03193323 0.043869082 -0.012524597 0.021793619 0.0300446 0.037430085 -0.034368843 0.05483662 -0.030519817 -0.032078218 -0.010912055 -0.03138609 0.0666493 0.0020889265 0.028044062 -0.009675493 0.0011992521 -0.008133833 -0.0005541559 0.0014342355 -0.056952745 -0.012220468 -0.048913766 -0.031023161 0.03124315
close 0.04551755 -0.01362239 -0.021655923 0.01501774 0.029041063 -0.022774532 -0.009444186 0.019299792 -0.02964102 0.03619078 -0.0057867276 -0.038944826 -0.03400494 -0.00920615 -0.018667892 -0.031497862 0.0061889132 0.03732779 0.013628166 -0.021793397 0.03483528 0.030699724 0.015571851 -0.0647148 -0.0038522137 0.011547838 -0.03658227 0.008449127 -0.014863482 0.02507919 -0.04539047 -0.06536473 0.03343085 0.041327104 0.02374989 -0.006896047 -0.009701325 0.042520776 -0.014444219 0.026001992 -0.019570557 0.034937117 0.018606262 0.028965242 0.06178618 -0.016911661 -0.008206078 -0.028022528 0.052383106 -0.040217005
toys -0.014875512 0.011601032 -0.03949656 -0.032365076 -0.020045782 -0.0046535083 -0.029374493 0.0335261 0.03059084 -0.04483968 0.045013737 -0.028280573 -0.031372372 0.06651791 0.034688484 0.043457102 -0.03814839 0.019385755 -0.055349775 0.029421302 0.0458113 -0.053595223 0.044667408 0.007849737 0.051237665 -0.012181329 -0.012825728 -0.0056326254 -0.039639592 -0.045185704 0.033731364 0.0054076514 -0.034380127 -0.025545562 -0.0407001 0.041635178 0.042039316 0.048358794 -0.022502383 -0.02723643 -0.016974231 -0.015609563 0.025615977 0.0022480616 0.031152682 -0.0058208597 -0.025056856 0.0006021169 0.06113315 -0.0011365075
moderate 0.013274869 0.03885356 -0.021774372 0.033673923 -0.029485233 -0.050853282 -0.0351582 -0.06301798 -0.021045817 -0.04644609 -0.0027341847 -0.031431586 -0.016994819 0.0025769267 -0.047312595 -0.06578588 -0.04012118 0.01824356 -0.08009664 0.01196626 -0.038441177 -0.033237655 0.00821814 -0.007812751 -0.023910379 0.03556624 -0.061102916 0.0044594686 0.0059555564 -0.025484083 -0.0305107 -0.051288705 -0.03132007 -0.0073936265 -0.011202269 0.010365922 -0.013701932 0.07013505 0.015139997 -0.01933423 -0.034063518 0.027370933 -0.023570023 0.021423375 -0.00073966314 -0.0069032665 -0.025212094 0.07638559 -0.034141243 -0.059194062
welcome 0.02719374 -0.06225818 -0.037882127 0.024479566 0.016326685 0.019242419 0.02407254 -0.0064610546 -0.01143109 -0.061044183 0.0002820918 0.021283878 -0.0050083986 0.014503035 0.0068551544 0.04702685 0.03532086 -0.012979179 0.029386053 -0.0012715238 -0.039457858 0.025443722 -0.045744266 -0.037369445 -0.007523537 -0.03325759 -0.006453369 0.008913405 -0.023639506 -0.020179799 0.014811611 -0.031778827 -0.06080451 0.033314716 -0.03454186 0.017839588 -0.029785112 -0.007564784 -0.00527917 0.0151688205 0.021547183 -0.02210047 0.06450152 0.050296895 -0.03856404 -0.028793313 -0.0152895665 -0.0120883165 -0.025965631 0.03836977
pulled 0.005195193 -0.029430278 0.04597778 -0.058602765 -0.0050957305 -0.011118663 0.011626687 0.011059476 -0.0014502838 -0.00044035295 0.02519135 0.059149142 -0.009094922 0.02229466 0.061252292 0.013374772 0.0073748473 -0.059571523 0.029351555 -0.0029602053 -0.020493476 -0.07171673 -0.009109037 0.0044521703 -0.012886086 -0.040994443 0.032284517 0.045704212 0.049255606 -0.028646998 -0.01453103 0.016388899 0.021848777 -0.011221048 -0.041959796 0.011604403 -0.013585341 -0.042696223 0.022037126 0.032930132 -0.03470038 -0.036092196 0.00059902953 0.06858139 0.010674447 -0.06006895 -0.0065394402 0.0406224 0.01552533 -0.01108733
high 0.034477763 -0.046675187 0.045715176 0.034777973 -0.012068309 -0.022735551 -0.032172784 0.03899722 -0.06197035 -0.015757563 -0.070913434 0.022397468 0.013413575 -0.027948607 0.011816887 0.05103264 -0.049358644 -0.04966629 0.016661577 -0.032305427 0.018112732 -0.05673675 0.07129807 0.0148245655 0.0030279967 -0.037193835 -0.028012406 0.0028000355 0.013729118 0.009343863 -0.030936345 0.041913815 -0.0017866248 -0.018854037 -0.07123301 -0.013809719 -0.045343615 0.01689743 -0.013693626 0.039406434 -0.008106916 0.007885701 0.03820367 0.028344616 -0.0062950365 -0.015563729 0.036125094 0.0120266285 0.057685334 -0.02165493
presents -0.04669223 -0.022254953 0.027587747 0.014730416 0.015849032 0.0024096374 0.016419422 0.030135367 0.023372361 -0.043512344 0.024458261 0.035401467 -0.058782276 0.049871955 0.039662804 0.04488069 0.03733708 0.008878194 0.009515374 -0.034094863 -0.0044334913 -0.06176433 0.0033521857 0.014787043 0.021897975 -0.016076319 -0.006415501 -0.05076605 0.010629703 -0.017595967 -0.030340578 -0.030184707 -0.019109866 0.037678566 0.023335153 -0.0037371481 0.022418946 0.0280673 0.003938768 -0.03869616 0.01588514 0.021218257 0.016571252 0.0100550335 0.04523645 0.03560333 -0.059211593 -0.0148947565 0.020384822 -0.010782727
dare -0.008867023 0.01147388 0.04642398 0.015433936 -0.03701314 0.05896967 0.022299623 0.026587306 -0.00715994 0.011452915 -0.007450022 0.034641102 0.0007454114 -0.000575146 -0.043607187 0.02350175 0.032962974 0.020744992 -0.02164952 0.033978757 0.0036064112 -0.05675554 0.014776917 -0.0014939178 -0.02519291 0.011887966 0.01452504 -0.008424248 -0.07027383 -0.050514832 8.584695e-05 -0.03538274 -0.0457825 0.011465088 0.027124742 0.05144204 -0.01842757 -0.034820396 0.02756859 -0.06226451 -0.0038177914 -0.01613223 0.032559577 -0.040682394 0.04983864 -0.031902768 0.02598292 -0.057533767 0.0154779265 -0.0013705288
eaglet -0.05236242 0.028110446 -0.029422475 -0.06242163 0.012613504 -0.029529685 0.011309243 -0.011829325 0.10163712 -0.0073489165 0.029641893 -0.049648095 0.042376958 -0.012518731 0.054940045 0.014231897 -0.051525183 0.0134512335 0.013519265 -0.027197365 0.036821354 0.014809471 -0.009083681 -0.022861527 -0.020424709 -0.021475438 -0.050519433 0.032083794 0.09174167 0.07133938 -0.06692465 -0.0031863546 0.029600127 0.034203764 -0.020472484 0.00856541 0.016151398 -0.00040744862 0.054256357 -0.0049204146 -0.04679956 -0.0734734 -0.026025955 0.05719699 0.018040178 -0.012964035 -0.028568571 -0.02212992 0.0036694668 0.030575892
go 0.089833535 0.05358508 0.08921038 0.0512668 -0.02758373 0.09345442 0.00896786 0.21193899 0.06102243 -0.084903136 -0.0435749 -0.043870177 -0.026287377 0.017090704 0.058756664 0.15633306 0.020212337 0.020437278 0.019186553 -0.08228203 -0.0330227 0.06708962 -0.043138795 0.10245795 -0.045583174 0.031268027 0.016373381 0.054399915 -0.025918553 -0.13791649 0.11763576 0.04576055 -0.054429155 -0.13114695 0.06821884 0.013922361 -0.06372508 0.038583457 0.017729092 0.07620681 -0.039569814 0.011052832 0.09791741 -0.07672278 -0.0056381603 -0.112159945 0.103865094 -0.09756604 0.023136884 0.11203021
bird -0.026421566 -0.0075353626 -0.007563104 0.030105257 -0.009748672 0.03646969 -0.0020437771 0.033829708 0.025014536 0.039359495 -0.062103808 0.054586858 0.047887392 0.03732493 -0.019325716 -0.054411527 -0.052592225 0.0599858 -0.011465866 -0.0063961227 0.012019853 -0.026261928 -0.018120551 -0.014831929 -0.01572546 -0.06446088 0.064309634 -0.013501659 0.03906026 0.00941061 0.016354356 -0.044044964 0.036362693 0.04053387 0.01280864 0.033227462 -0.0042126584 0.043676652 0.015034869 -0.021233156 -0.04260564 -0.047177367 0.0047794837 -0.03880612 -0.015948402 -0.03922801 0.027659968 -0.016533744 -0.02037102 -0.0013564299
general 0.0013949702 -0.017474186 -0.019475374 -0.0057126456 0.029889531 0.010112874 0.010879173 -0.0045851087 0.020611994 -0.026044562 0.045848917 -0.010124668 0.0054633804 0.059225295 -0.023294427 -0.04576172 0.028816612 0.008816796 -0.04204556 0.029922593 0.00036440126 -0.025676252 0.017916873 0.04294142 0.05021672 -0.019352952 -0.040028557 0.035563 0.0036710892 -0.026885292 0.0053041657 -0.009885108 0.024796532 -0.027747395 0.03216762 0.047306456 -0.013381443 -0.0018981944 -0.014636628 0.021321476 0.01706037 0.006238207 0.04008934 -0.05886279 -0.004816488 0.049026795 -0.026145985 -0.041740015 0.008044367 0.031342033
our 0.0790238 -0.033134103 0.038532782 -0.009108053 0.0057927 0.117646046 0.0049905637 0.09081385 0.07928594 -0.008514481 -0.018673288 -0.045043137 -0.04809202 -0.017511183 0.048053883 0.036493707 0.07900187 0.0139478035 0.072905995 -0.05798682 0.06393463 -0.06112159 0.091952786 0.016419834 -0.0340763 -0.07768122 0.03509167 0.066838734 -0.018634917 -0.02123622 0.034025136 0.067416705 -0.055264283 -0.06433898 0.00421708 0.06810039 -0.063276455 0.0024225798 -0.016067466 0.04558786 -0.054137234 0.05341684 0.061449766 0.0022682492 -0.080750406 -0.03406175 0.0484166 -0.037430044 -0.021708876 0.06406111
mistake 0.03340981 0.068527445 0.021431154 0.01837452 -0.0073036505 0.008987181 0.056571133 0.00061279663 -0.017883731 0.08079193 0.047998726 0.0025865347 0.05070177 0.029571185 -0.024301719 0.012833891 -0.049296536 -0.052994106 -0.059502915 0.053520117 -0.036772627 -0.024470754 -0.049629703 -0.0654332 0.011274814 0.028905313 -0.018648958 0.028434653 0.056427866 0.036322642 -0.0193501 0.028665213 0.022544578 0.03811679 -0.024345834 -0.048872508 -0.035077807 -0.034015127 -0.013442838 -0.0037083118 0.017347148 -0.053171426 -0.03961532 -0.015050779 -0.043848157 0.04103985 -0.0016643486 0.044771247 0.038676392 0.015085276
pointed 0.009555657 -0.0343405 0.041086353 -0.017969884 0.03029417 0.048381798 -0.0091112815 -0.035821706 -0.010893734 0.015804423 -0.01358692 0.020638892 0.031883787 -0.03806562 -0.026227772 0.033432957 0.005384354 0.020440249 0.019664373 -0.012673272 0.045373715 0.0010887433 -0.058140725 0.0116502745 0.03702338 -0.037911184 0.021951048 0.013977057 0.005494924 0.032582723 -0.031378914 -0.037344974 0.01892206 -0.018731073 0.0067161405 -0.04473649 -0.029680774 -0.04361283 0.024417587 -0.03407905 0.034372285 -0.0038730067 -0.012048079 0.0043384084 -0.03741312 0.007573018 0.0014421735 0.04962251 0.05741916 0.02406577
fishes 0.013772443 -0.043982092 -0.007353003 0.075300284 0.0022853715 -0.028932864 -0.010170513 0.07714303 -0.07636308 -0.072061695 -0.006693188 -0.009308438 0.024677766 0.00084039406 0.000553163 -0.0068865363 -0.023988478 0.054360893 -0.04981918 0.02856999 -0.04722862 0.062254954 -0.056394525 0.0447402 -0.011587273 0.036867045 -0.042188324 0.03644711 -0.03750121 -0.010012617 -0.007610091 0.043434728 0.037450917 -0.01797575 -0.018302267 -0.009196846 -0.048825793 0.027575176 0.022656621 -0.039661385 -0.059510596 0.046500698 0.07452717 0.048816513 -0.0013376593 -0.01133495 -0.025770124 0.010749903 -0.023703797 0.00037910882
head -0.038942657 -0.006961146 -0.031772733 -0.059721585 -0.022939255 -0.00198739 -0.02046331 0.043171946 0.088797644 -0.036725633 -0.041987862 -0.0073696524 0.10960015 0.10454589 0.016246736 0.03083262 -0.0034220228 0.016187392 0.04960088 -0.0627389 -0.02659566 0.056656927 -0.032376528 0.107483245 -0.051103324 -0.019011484 0.0074443026 0.05623453 0.097620346 -0.048330225 0.050959356 -0.014834727 -0.025058066 -0.016357852 0.089439005 0.01514794 0.013305338 0.05341932 0.012127051 0.10328099 0.009062034 -0.03215492 0.013879411 0.009867921 -0.07651814 -0.10080731 0.07407271 -0.09316275 -0.047644444 0.014223482
let -0.024934946 -0.01668044 -0.01722682 -0.061558228 -0.06666554 0.1087954 0.024108032 0.058393963 0.14800508 -0.026254632 0.009558887 -0.11225161 -0.0043984777 0.03673384 -0.012829454 0.09722457 -0.013980143 -0.010302956 0.108143725 -0.097329445 0.1537755 0.08836658 -0.036677282 0.15132004 -0.104507074 -0.035787117 0.0572358 0.0883571 0.14854202 0.14613774 0.044134337 -0.11041717 -0.12948044 -0.062781654 0.04745949 -0.05326453 0.059722293 0.05450377 -0.060945917 0.14565195 0.0031399683 -0.029148838 0.018658608 -0.035100803 -0.07169977 -0.12247863 0.12320374 -0.1473098 -0.1714038 0.07687657
wonder 0.07308398 0.015212523 0.10082022 -0.034444302 0.016807118 0.02251117 0.06848758 0.11788084 -0.017303033 -0.086584575 0.05921599 -0.047673084 -0.07846564 -0.03981078 0.10872689 -0.095508955 -0.1221844 0.06539541 -0.1085939 -0.034101397 0.030036058 0.06807599 0.11138134 -0.09570532 -0.034118775 0.07438729 -0.08218122 -0.013911884 -0.00094531215 0.092770696 -0.09823474 -0.05694499 -0.13211624 -0.0781699 -0.022362363 -0.0015038182 -0.02746558 0.09301735 -0.110032305 -0.03828735 -0.05236503 -0.052241288 -0.047755316 -0.10294451 0.035479177 -0.002986095 0.01745616 -0.008832517 -0.04835744 -0.07934457
bye -0.053810284 0.028454803 -0.03281738 0.05803014 0.0024388211 0.023405531 -0.059193317 0.011644014 -0.028512562 -0.00040087098 -0.02049587 -0.0135002425 -0.031820383 -0.013821599 -7.811905e-06 0.007580053 -0.01958506 0.010243101 0.04782548 -0.040068727 -0.0052758646 0.049521785 -0.027810438 0.03374565 0.038647093 0.035092384 -0.040914457 0.020910185 -0.0068934225 -0.0072322176 0.0020572664 0.048946764 0.010480763 -0.0019917001 -0.015377437 0.023260774 -0.0020234573 0.01513696 -0.024831586 -0.024583621 0.028936058 0.010138772 0.034094233 -0.027542638 -0.042002857 0.009045004 -0.030793834 -0.005972664 -0.00478679 -0.01435665
ran 0.0019497867 -0.101231754 -0.026866877 -0.030213157 -0.044365052 0.013579202 -0.03447096 -0.05194135 0.06953771 -0.0015947281 -0.09772788 0.09082506 0.08338002 0.068834275 0.03780138 -0.09593406 -0.0023021954 0.007864618 0.022293296 0.027527524 0.041266963 0.08096381 -0.06255553 0.03275566 -0.0026370669 -0.027673937 -0.008412307 -0.047032785 0.03745359 0.0033990156 -0.01334651 -0.070922084 0.013230072 0.04790827 -0.048365135 0.061885852 0.03533622 0.045184925 -0.030868782 -0.02217007 -0.06481637 -0.049096115 0.010286657 0.04723358 0.018136036 -0.06368311 0.033641927 0.04120129 -0.08717738 -0.04581985
hate 0.017792795 0.049415477 0.028713543 0.0038709044 -0.017135127 0.017710073 -0.017246919 0.017230377 0.011914325 -0.030279564 0.028730726 -0.019692838 -0.0491844 -0.029811129 0.005432795 0.030461336 0.011406554 -0.019438557 0.041422594 -0.0081105875 -0.02245977 -0.014926964 0.0066964603 0.034844633 -0.026274165 0.022950564 -0.050822463 -0.04127559 -0.072236024 0.046656523 0.0027743494 -0.045558393 -0.08751813 -0.06538289 0.04652294 -0.0093692895 0.0053937496 0.07648763 -0.046750117 0.0056094187 -0.044118203 -0.06141619 0.0071317824 -0.015209395 0.016791599 -0.032105424 0.0636258 -0.0214442 -0.024839249 0.05994734
venture -0.019663146 0.047882326 0.007418964 -0.011444027 0.04660311 0.034424316 0.017483713 0.047771618 -0.046425678 -0.0037822314 0.06426116 0.0044661406 -0.03547592 0.015145563 0.016224725 -0.012456029 0.009996528 -0.022850614 0.019711692 -0.0082550375 0.012940308 -0.032337524 0.02995025 -0.034644283 0.028255032 0.042875312 0.0060304627 -0.031048177 -0.01368862 0.05062149 -0.018098675 -0.001031921 0.018794583 0.005852894 0.016214622 -0.0019306231 0.02817472 0.0025510853 0.0230345 0.027358139 -0.019912599 -0.05203341 0.011988969 0.021916179 0.076231785 -0.038858775 -0.013204109 0.031343956 -0.044598475 -0.040492885
matter 0.030575812 0.004190868 0.046685573 0.0015653606 -0.06535857 0.016411422 0.0237652 0.0067075435 0.029363714 0.014213412 -0.02446369 0.014481572 0.017451765 0.052002415 -0.009332261 0.0030819024 0.01136068 0.025924765 0.056740135 -0.027963033 -0.016333167 -0.015088536 -0.029423364 0.06535255 -0.06047142 -0.020485928 0.082376115 0.060470715 0.0057241926 -0.042941503 0.04624921 0.005471795 -0.005379077 0.011880742 0.025374338 0.012419425 0.07346426 0.027754733 -0.01379773 0.04515959 0.015324843 0.053102236 0.01655677 -0.031880565 -0.046603788 0.016900554 0.018687103 -0.024216002 -0.050659917 0.0018781679
hippopotamus 0.035356626 -0.042648166 0.042707596 0.016137173 0.031354606 -0.01793585 -0.005636793 -0.04867647 0.01339041 0.020746734 -0.011069269 0.023623802 0.05722303 -0.032976843 -0.028840255 -0.029255847 -0.011586792 0.00039199053 0.06149361 -0.025471603 0.035896294 0.02649845 0.019132437 -0.009651075 0.03659439 -0.030902551 -0.024445549 0.0046517826 0.031592853 -0.037020095 0.0500523 0.008298242 0.044523545 0.03277024 0.0008753082 0.027242083 -0.03267555 -0.034981705 -0.00088997686 0.05291702 -0.0061049704 0.04427837 0.027550636 0.0009774849 -0.020051016 -0.0553923 -0.0053274957 -0.058501825 0.025787247 -0.031406235
yesterday 0.03163934 -0.01568163 -0.011526766 0.05167862 0.019353379 0.041712273 -0.020668713 -0.004441882 0.049788043 -0.012360593 -0.013688898 0.03307365 0.009765362 0.03421297 -0.031321283 0.048597254 -0.051405106 -0.018413972 0.053875636 -0.053095803 -0.050789975 0.010083729 -0.039935518 0.03366042 -0.050651927 -0.06459571 -0.00771565 0.04360941 0.0021681143 -0.013836168 0.023077637 0.061730098 -0.020695282 0.00237275 -0.0023843527 0.060258415 0.02370767 -0.019763852 0.020958684 0.0047009243 -0.04261731 0.034428243 -0.017730724 -0.011303449 0.005202478 -0.013768973 -0.023224985 -0.076956674 -0.0659166 -0.031256963
get 0.027439058 -0.110148154 0.10647092 0.12439101 -0.15297599 0.173497 -0.040414836 0.10984051 0.0221045 -0.07707207 0.019142888 0.017226715 0.080575176 0.1965875 -0.07335758 0.10758937 0.094513796 0.03345554 0.09276052 -0.087052114 -0.051681027 0.028752733 -0.006994584 0.14084855 -0.056004714 -0.10151003 0.08994008 0.074195035 -0.08078982 -0.10071449 0.06525106 0.032729752 -0.029251413 -0.034805425 0.07133344 0.038546838 -0.019943327 -0.00978826 0.08666144 0.03263685 -0.03137308 -0.020879196 0.18775202 -0.120399766 0.07497936 -0.055763144 0.09625379 -0.13322736 -0.1135535 0.1173006
bats 0.030260116 -0.012258366 0.040231656 -0.05471068 -0.008857679 0.028689755 0.044097837 0.10589185 -0.019519199 -0.007739547 -0.036827847 -0.022059998 0.008717817 0.005473636 0.040681187 0.032869104 0.07537101 0.07456457 0.026696194 -0.08446645 -0.009754769 -0.028020903 -0.011028253 0.03294454 -0.03285669 -0.06290237 0.057069767 0.042686835 -0.018862981 0.06168532 0.06833288 -0.008772918 -0.084740356 -0.058073014 0.052242015 -0.07160243 0.0053126593 0.017082753 -0.036169656 0.0032258576 0.013990153 0.00955952 0.016045809 -0.053857237 -0.03365606 -0.051996063 0.08766759 -0.08219877 -0.08020275 0.039149597
tale -0.038275678 0.045742657 -0.06426898 -0.057098746 0.0017141567 -0.02285479 0.07043128 -0.018751357 -0.04377056 0.04521517 0.02005284 -0.023078887 -0.004768807 -0.014107257 0.009473173 -0.01055799 0.06016475 -0.04724634 -0.03786515 0.0018498152 0.03993324 -0.011307613 0.06831719 -0.0019369094 -0.00069192355 -0.014037223 -0.04339507 -0.011587703 -0.03635236 0.014726845 -0.062079363 0.00731528 -0.0047479263 -0.03921946 9.72742e-05 -0.045833644 -0.021602122 0.020100633 0.03951357 0.02227606 0.034523427 -0.025142344 -0.03238309 0.03231638 0.007542986 0.04180556 -0.046477474 0.02589017 0.045215964 -0.017152125
hedge 0.022919519 0.0317886 0.029060634 0.011731388 0.043572832 0.041316696 -0.006675758 -0.0050566653 0.00074027816 0.031959977 0.010694022 -0.03146248 0.04742951 0.054353315 -0.021223271 -0.0018137112 -0.009266865 -0.02428941 0.02535073 -0.008851079 -0.016618721 -0.04097116 0.0017631853 -0.027362783 -0.03196536 0.021199564 0.050133545 0.053659916 0.003948765 -0.025344696 0.03012174 -0.034727965 0.026756318 -0.029848062 -0.030901324 -0.008364305 -0.050814804 -0.037400562 -0.0053783758 -0.028979994 0.014080075 -0.033940732 -0.020463385 -0.012589575 0.020633413 0.052657384 -0.043869797 0.042174328 0.0188305 0.018274238
nicely 0.002651902 0.06382057 -0.020855833 0.038152296 0.025299631 -0.04395662 0.006612191 0.044101097 0.01571028 -0.037474323 -0.034555987 -0.037309214 0.063673556 -0.009326268 0.044276252 -0.026677893 -0.026096767 -0.06285344 0.043433107 -0.006000488 0.018642824 0.0041951584 0.030577611 -0.00757265 -0.026039893 -0.062171146 0.047391642 0.0017166894 0.015752146 -0.046013497 0.026831316 -0.013895989 0.050986968 -0.007914133 0.02261149 0.044735663 0.023509666 0.0015303681 0.0034315907 0.0008719766 0.048719715 0.0210688 0.025527667 0.024060952 -0.015073662 0.035928153 0.055937108 0.020325974 -0.034793887 0.033114716
pressed 0.07593819 -0.022457829 -0.0703842 -0.010023761 0.046570353 0.04961964 0.08564159 0.032655045 -0.021529837 0.023005545 -0.067554615 0.03983865 -0.06550876 0.021319866 0.043966006 -0.0056349747 0.062123142 -0.07420183 0.07922886 -0.036771823 0.07910403 -0.0027955412 0.03168063 0.022599874 0.023111876 -0.03631615 0.013706421 0.021588154 0.06854792 -0.01724348 0.10342095 -0.032420516 0.014366825 -0.030304348 0.016605794 -0.018091315 -0.07039419 0.0053952076 -0.037627704 0.055597287 -0.04273772 -0.0063833483 -0.0136979595 -0.058111932 0.012689769 0.030916177 -0.010787687 -0.018063297 0.02291374 -0.03154595
seaside 0.004504576 0.026905801 -0.015389258 -0.016232582 0.048714258 0.030355653 0.034838244 -0.04357973 -0.031271134 0.024740715 0.010397082 -0.060094647 -0.009845866 0.001553272 0.02535445 -0.0135367615 0.0014062474 -0.05632185 -0.0695245 0.060539518 0.001254231 -0.029603241 -0.028732695 0.0005208091 -0.017276712 0.00017292914 -0.007796412 0.036343925 0.011147056 0.03205919 0.036809903 0.031206403 0.03326759 0.0041028317 -0.0029649395 -0.048736833 -0.058992404 -0.03372821 0.017315377 0.0019681337 -0.035947464 -0.045512944 -0.036999084 -0.04057958 -0.017965788 0.015620007 -0.031656526 0.007994848 0.03891859 -0.03427273
particular 0.01588358 -0.0666857 -0.036754232 0.01889721 -0.041232876 0.031955652 -0.058460563 0.008977581 -0.006801184 0.013128724 -0.07912939 0.049105152 0.029953761 -0.045670193 0.013277972 0.018354814 -0.010188421 -0.014269274 0.026289895 -0.02738566 -0.0061210333 0.030671129 -0.0633878 0.027271107 0.06913721 -0.001075131 -0.01818892 0.04321338 -0.05807022 -0.0066357926 0.03717742 -0.009159398 -0.001187499 0.03261461 -0.041499857 0.02136077 0.0369698 -0.014563187 -0.038758665 -0.06348423 -0.05157324 0.018885655 -0.0412838 0.0057996158 -0.020412777 -0.060372964 0.03917913 -0.0044864696 -0.035415642 -0.015481034
field -0.041728757 -0.03857782 -0.05802469 0.0011554287 -0.01833531 0.03486881 0.013077417 -0.041373983 0.03490173 -0.013981083 -0.041877832 -0.0487676 0.012589416 0.02527183 0.015100792 0.009019887 0.03994522 -0.046110585 -0.014160461 -0.026334109 0.059088655 -0.044378888 0.013124874 0.009115739 -0.03718605 0.02857886 -0.0046968204 0.061090443 -0.019421902 -0.02916551 0.0380204 -0.049089786 0.006233803 -0.057631236 0.023450833 -0.052636094 -0.03433345 0.027687132 -0.03672282 -0.020407237 -0.027802803 0.014615106 0.04488429 -0.06328929 0.029041868 -0.007885916 0.04873046 0.0040010186 0.030168926 -0.008804122
legged -0.008501815 -0.017935675 -0.0036012742 -0.013902283 -0.06292123 0.0076325126 -0.017087441 0.019251037 -0.008162473 -0.058605455 -0.012449119 0.024588294 -0.013959331 -0.014475205 -0.007087004 -0.007250566 0.023961144 0.06330838 0.055298842 -0.02582377 0.009777628 0.018317256 -0.051470835 -0.014921855 0.020667046 -0.061382584 -0.00028231234 0.051131766 -0.034537558 -0.005965256 -0.0059972983 0.06889674 0.057947807 -0.015271952 -0.001992085 0.060447767 -0.006185227 -0.037126288 -0.032809414 0.06710356 0.013134071 -0.001024229 0.02300149 0.005510429 -0.013428935 -0.063441984 0.03073031 -0.0010284985 0.011061527 0.02595497
inches -0.04649756 0.042385448 -0.008461992 -0.016437905 -0.004677471 -0.0406306 0.057318088 0.018523589 0.011477995 0.020232597 -0.072386116 0.031206775 0.024765812 -0.03470822 0.07059796 -0.029175444 -0.030198425 0.01611573 0.07285983 -0.030221269 -0.0073625236 -0.028393144 -0.022381764 0.0421771 -0.024768282 -0.03161014 0.0908288 0.08450621 0.018474866 -0.02228036 0.06221012 0.012346806 -0.029569238 -0.055118285 0.019876536 -0.059725232 -0.045511317 -0.08936766 0.012574154 0.061727367 -0.009440391 -0.012519234 -0.012148173 0.033602722 0.0094118435 0.013845852 0.09846462 -0.0631449 -0.07101735 0.04462376
shoes -0.064557776 -0.04127068 -0.028256632 0.0379795 0.0043496634 -0.046526097 -0.045870334 0.0026316475 -0.014694273 -0.06696537 -0.030612756 0.007814494 0.035420697 0.0069778794 0.02620058 0.017378878 0.034236412 0.05836339 -0.049579766 0.030547583 0.013703012 0.026379036 -0.022904553 -0.01951444 0.02354549 0.04203991 -0.03308152 0.04803076 -0.030640438 0.0047054845 0.00046173285 0.060589064 -0.028051982 0.06369185 -0.059483405 0.06599839 -0.013645043 -0.03953128 0.039054748 0.009635083 -0.0062279166 0.051421165 0.008526397 -0.026965287 -0.01935674 -0.05532765 -0.017420765 0.03702842 0.01637282 0.062344875
rather 0.018984072 0.0077007506 0.043673966 0.09740219 -0.026048325 0.090126425 -0.0093273055 0.042051457 0.0335431 -0.046403214 -0.074379064 -0.012254959 -0.091369115 0.00215948 -0.083903536 0.0085205175 0.07693113 -0.0016889684 0.07223517 -0.07241377 0.04429649 -0.03198435 0.01265442 0.028636448 -0.05722398 -0.03261076 -0.01278316 0.025881585 -0.0461161 0.008197156 0.046523936 0.08491747 0.057562478 -0.048981268 0.081443585 0.0010950697 -0.041261423 -0.029838525 -0.019031795 -0.023401462 0.06713618 0.02288182 -0.0027005165 -0.07425897 0.05053337 -0.033771515 0.01362318 -0.062498707 0.046749618 0.080747046
deeply -0.011837961 -0.005743481 0.044354055 -0.039778877 0.008933948 -0.011615046 -0.039330207 -0.072684206 0.021682717 0.053328656 0.023944806 0.02830071 0.042218752 -0.03080405 0.0241575 -0.013632018 0.025753245 -0.034758907 -0.020274125 -0.014212153 0.006284282 -0.036332417 0.0055466373 -0.08535726 -0.04665784 0.056363158 0.010914619 -0.024662822 0.012724319 0.052862383 0.0048502893 0.02572661 -0.038204335 -0.015903637 -0.017818607 0.006112056 -0.0010471676 -0.016277995 0.035060376 -0.0149868 -0.016971905 -0.05056095 0.018320188 -0.0113018295 -0.021053784 0.03001715 -0.05654887 -0.0128041655 0.021800404 -0.034211338
advisable -0.032647762 -0.01509992 -0.032142032 -0.0019279564 -0.067406476 -0.06739725 -0.0358237 -0.048879564 -0.04162779 0.01188446 0.021170639 0.06899789 -0.049744207 0.042071577 0.027106741 0.0077027837 -0.022196945 0.023397844 0.009562348 -0.022428129 -0.06304928 0.04212366 -0.04772924 -0.042528886 0.048998628 0.047016144 -0.010408998 -0.05948063 -0.014667205 0.01554739 0.018837245 -0.024990307 -0.019098507 0.014867226 -0.02789082 0.028204603 -0.04152993 0.065784685 0.029238153 -0.039880555 0.004242436 0.04320845 0.030693388 0.020545823 -0.003924523 0.036436148 -0.039616402 -0.026288407 -0.032603983 -0.020030966
blown -0.0336133 0.04741268 0.04182765 -0.041730113 0.042700782 -0.04353961 0.021796564 -0.002309303 0.028355377 0.048244745 -0.040853105 -0.036465805 0.010073072 0.024439374 0.018810634 0.03550961 0.053796038 -0.042765304 0.004257508 0.0065053445 -0.02104568 0.040155746 -0.0006731842 0.05840946 0.009690953 0.040386885 0.04390591 -0.010776002 0.033972044 -0.030442577 0.016816713 -0.03544515 0.0002619502 -0.058392003 -0.013823856 0.043931574 0.034564126 0.0252431 -0.008935377 0.06413989 -0.018620737 0.04139907 0.02268334 0.0023584827 0.004784168 0.014289804 0.029100874 -0.021732721 0.004443046 -0.032663625
deal -0.052063018 0.00069868506 0.029002214 0.014958768 -0.052063115 0.017749112 -0.01881688 -0.05186847 -0.029344343 -0.0016828335 -0.05309306 0.030656675 0.05370042 -0.07816398 0.014071571 0.08131401 0.06248118 0.024292562 0.060923986 0.02653804 0.030329997 -0.016946636 -0.0007740642 0.027433539 0.021845076 -0.105301544 0.032343924 -0.037310135 0.098602735 0.014323385 0.038883924 0.00073615694 0.021419324 -0.0032595205 0.050169565 -0.032273658 -0.011554487 -0.020840514 0.039687093 0.06487398 0.03667966 -0.014016601 -0.051104087 -0.024481073 -0.025950752 0.05637637 0.032015644 -0.036661737 0.014638351 -0.010732303
past 0.039087255 -0.024157206 -0.0050296113 -0.022650495 0.01759462 0.034077473 -0.08408547 -0.0332467 -0.009633248 -0.037334435 0.013155306 0.05619201 0.050386913 -0.023920776 -0.0097714905 -0.0020775835 -0.055452447 0.013285272 -0.045429856 -0.032427844 0.017914757 -0.017174944 -0.046811167 -0.03445823 0.02178598 0.04164494 -0.009363534 -0.021965502 -0.03636744 -0.01896321 0.009607421 -0.041172005 0.037352502 -0.005675655 0.004575393 0.05077863 0.005418699 0.058622517 0.03402572 0.0028752747 -0.01386936 0.017308073 0.0412706 0.037964247 0.011928514 0.018704927 0.029375095 -0.029171783 0.0074774157 -0.030226432
curtsey -0.02495292 -0.013597331 -0.0061836494 0.03131828 -0.022714678 -0.005111684 0.038573444 0.031579345 -0.060261488 0.008313182 -0.027116502 -0.02187931 -0.024345594 -0.035217207 0.0066035674 0.013418389 0.018129075 -0.019491669 -0.034145016 0.0014683418 0.0043174513 0.020048592 0.060447805 0.013505918 -0.0070430245 0.052951757 -0.023764372 -0.046847187 -0.03245224 -0.023555664 0.028108088 0.036562983 -0.006209559 -0.04928014 -0.023890425 0.03259306 -0.02141115 0.042127036 -0.01171524 0.011123216 -0.057595253 0.019766351 -0.0429567 0.0073423563 0.056250542 -0.016401686 -0.0306859 0.042235445 -0.014491951 -0.023587147
jumped -0.001191697 0.0026573646 -0.0033411062 -0.014207646 -0.02757792 -0.0134924855 -0.018111568 -0.060719483 0.02068658 -0.013577628 0.001859885 0.0187862 0.01490272 -0.04445685 0.013466548 -0.054101866 -0.06446598 0.008276792 -0.07018188 0.0665709 -0.036418516 -0.007717056 0.039038185 -0.03881934 -0.017414449 0.028178746 -0.059423123 0.0010279182 -0.02054637 0.00082626985 -0.027000442 -0.0019460322 -0.030093996 -0.0013616952 0.014570605 0.047448672 0.03591863 0.0037629767 -0.04121905 -0.034046527 -0.0012219882 -0.056246236 -0.006150596 0.04670797 0.018100282 -0.029208774 -0.0020770135 0.0771682 0.05096698 0.029767167
morcar 0.049171694 0.016763533 0.029526694 0.02387487 0.022173725 -0.070843905 0.00024142384 -0.04128873 -0.016671438 0.03917025 0.044274665 -0.041173927 0.042583402 -0.001405776 -0.041568585 -0.034053598 -0.022608485 0.05719878 -0.0015634578 0.041029505 0.07259172 -0.040618174 -0.024899656 -0.026796106 0.011818151 -0.0065279966 0.0291252 0.04478511 0.065107815 0.022211907 -0.044959452 0.0051405 -0.054192323 0.011584546 -0.048725292 -0.045245655 0.03551306 -0.009144028 -0.021289963 -0.014803913 0.029056672 -0.03330429 0.004813579 -0.00016867393 -0.009990269 0.0060503287 0.027846523 0.034244206 -0.03461156 -0.034296587
able -0.021171285 -0.007522407 0.0482899 -0.0021762282 0.05545426 0.00909891 0.03725679 0.009945003 -0.012846071 -0.0075807604 -0.0037720855 -0.05497431 -0.04515265 -0.037896995 -0.0417535 -0.015394104 0.015496108 -0.047622047 -0.026454927 0.07628776 -0.023463652 -0.008318783 0.032209445 -0.07401969 0.009156806 0.0517947 -0.05196592 -0.062456273 0.018653955 -0.022333559 -0.008033033 -0.016628575 -0.055477653 -0.039235223 0.014828224 0.007832567 0.03505738 -0.009465657 0.021915535 0.0027755983 0.025697136 0.0037388299 -0.05140059 -0.0027369238 0.006858443 0.038211677 0.00087603135 0.024930272 0.018932682 -0.060280945
sounded 0.0003010885 -0.014047897 0.053035166 -0.031655315 -0.044090375 -0.01429836 0.02791662 0.04247136 0.046675473 0.01742084 -0.04040634 0.030903762 -0.017967908 0.044257604 -0.050304007 -0.018561706 -0.029205833 0.043082774 0.041915823 -0.010231081 0.014464013 -0.008538789 0.0027720686 0.03395965 -0.01911743 0.015703935 0.01613708 0.06369553 -0.04881218 -0.0143440105 0.03240055 0.017916849 -0.022370422 -0.023530418 0.031607162 0.058881965 -0.0027674278 0.05452509 0.019722361 0.01053128 -0.036505293 0.033332642 0.0034788167 0.004116823 0.016313767 0.0018973738 0.018690063 0.036449857 -0.0055405814 -0.03659875
jaws 0.058322947 -0.0048725214 -0.04679571 -0.05488554 -0.0146645615 0.016918987 0.06599941 -0.03231481 0.058012106 -0.045010775 0.036950864 0.034102473 -0.009461382 -0.0470827 0.0012469487 0.008812278 0.048290536 -0.025250092 0.05485635 -0.046258777 0.0076710545 0.047631964 0.00010876544 -0.02106319 -0.02373597 0.013588329 0.050954886 0.049451035 -0.021689553 -0.0042269197 -0.008048907 -0.0014679013 0.043316543 -0.020992963 0.048466865 0.032546505 0.02451168 0.046719674 -0.04415619 -0.0060881344 0.024041617 -0.0034216815 0.024364032 -0.034485828 0.0022524477 -0.0036263894 0.016460426 -0.050109483 0.023980105 0.025898017
rapidly -0.019280203 -0.073005185 -0.0019449118 0.033765953 -0.034228608 -0.033188663 -0.04309176 0.024338556 0.03201158 0.009834133 -0.053223114 0.040366095 0.055903457 -0.008460573 -0.016527217 0.034630988 -0.049983397 0.05643338 0.06822961 -0.08097099 -0.05008023 -0.015528984 -0.011424397 0.023432888 -0.031017728 -0.015418968 -0.0010936374 0.024924597 0.041207876 -0.041711222 0.058614153 -0.036919992 0.054448873 0.08651705 0.025918601 0.01013489 0.0020988812 0.014908364 -0.03355563 -0.015167804 0.038680173 0.05326469 0.059840985 0.058593374 -0.04203706 -0.027751897 0.05093241 0.0020268578 0.017410522 -0.048165016
meeting -0.06417723 -0.017457645 0.043030657 -0.068004295 -0.027628671 -0.017152395 0.008271175 -0.0062037325 0.0002503898 0.07132137 0.069385976 -0.0146003645 -0.008089638 -0.034492236 -0.019743983 -0.06844976 -0.040005937 -0.034296855 -0.029962426 0.035122044 0.061883297 -0.012479999 0.041590437 -0.0441915 0.020666322 0.05384229 -0.014984807 -0.046032 -0.005851865 0.043440733 -0.01235865 0.014636546 -0.010792449 0.041623574 0.026638642 -0.018188285 -0.010962057 -0.024309576 -0.052845966 -0.029087244 0.02145802 0.005696306 -0.014291974 0.00705689 -0.058827564 -0.010480188 -0.033305157 0.011333572 -0.04640186 -0.061431613
leaders -0.034401357 -0.04174177 -0.009086426 0.010936429 -0.03587812 0.03666705 0.012584763 0.013885312 -0.016402027 -0.049552638 0.011364505 0.036765378 0.024379516 -0.014606804 -0.059402898 -0.011352386 -0.039180774 -0.017534662 0.0037510544 0.008716654 -0.030867226 0.0069856383 0.027298434 0.04268366 0.014886467 -0.029363684 -0.035668332 -0.0034648646 -0.008890554 -0.020561367 -0.025241593 0.009257563 0.001226499 0.029065438 -0.02943721 0.040881194 -0.012249688 -0.037063986 -0.011432772 0.024810227 -0.061840553 -0.0044820393 0.047861107 0.02235081 0.025677562 -0.0040337793 0.040245958 -0.058255073 0.061604258 0.048122413
soothing -0.042106457 0.03128831 0.03488207 -0.013749562 0.0055431724 -0.054586913 0.023691539 -0.034618057 -0.032865662 0.06079348 0.038669422 0.007675855 0.019248113 -0.0528301 -0.03751988 -0.06070889 -0.056864247 -0.0050964705 0.03057589 0.023623332 -0.003351386 -0.02765331 0.03343862 0.045795597 -0.020645387 -0.015396356 -0.0028556138 -0.0017070912 -0.019853929 -0.0149717955 -0.060222138 0.004120683 0.016199833 -0.0071699293 -0.026227102 -0.06744522 -0.0281262 0.0062182234 0.016513988 -0.015820704 0.009917701 -0.013870078 0.00137779 0.010842742 0.028753318 -0.020175638 -0.014408628 -0.021580968 -0.036526512 -0.057426173
best 0.022046331 0.064806595 -0.011243325 0.007048447 0.044197626 0.04717037 0.0326057 -0.05942417 0.034360882 -0.006358288 0.023607474 -0.072325215 0.032470006 0.08315138 0.044857297 0.02519106 -0.001033473 0.008385522 -0.04532387 0.059380166 -8.978776e-05 -0.040056195 -0.028887153 -0.056118496 -0.058467668 -0.0273408 -0.032982383 -0.039590284 0.065451615 -0.015784739 0.05543277 -0.05617241 0.022957113 0.024315163 -0.03888136 -0.06003148 -0.11380846 -0.048507575 -0.043660957 -0.024976742 0.019962644 -0.008609077 -0.0051383907 -0.03125701 0.034936238 0.005779158 -0.011738775 0.022804962 -0.03459567 0.020597814
bank -0.031945966 0.03851863 -0.0064225025 -0.0653989 0.026842572 -0.056696016 0.050688896 0.012056832 0.0075429967 0.026797263 0.012354939 -0.060924064 -0.020408947 0.02949074 -0.018085103 -0.048267074 0.00019691081 0.018373605 -0.10193223 0.03135353 -0.027514307 -0.04843518 -0.0335934 0.0044612866 -0.058203 0.07521262 -0.07788278 -0.0784901 0.06646612 0.015228413 -0.08391915 -0.038887482 0.007759655 0.031702522 0.0093901 0.02751914 0.03928833 -0.013360483 0.024015216 -0.0059952475 0.0644561 -0.073664345 -0.047020268 0.018359294 0.040685143 0.035958946 -0.0066701523 0.035967503 -0.017104696 -0.04627499
cool -0.025701884 -0.019435065 -0.008941839 -0.03907033 0.045709655 -0.015069393 -0.010574276 0.032976907 -0.018243287 -0.025811095 0.030172784 -0.044390082 0.037713733 -0.032366864 0.005515877 0.047566652 0.039428197 0.047818016 -0.010966021 -0.05746441 -0.022669272 -0.0026047172 -0.047573276 0.017120752 0.016318543 0.0110771535 -0.00028689756 -0.024768736 0.046795677 0.046587855 0.018358432 -0.002219095 -0.0027253032 -0.015722686 0.009796698 -0.008299121 0.041112624 0.00019996217 0.007482865 -0.011498578 0.044792823 -0.039992336 0.050708935 0.044912238 0.037009425 -0.033005174 0.04054658 -0.038924735 -0.014232255 -0.011875156
declared 0.009495619 0.0013687683 0.0097934995 0.04376419 0.019953238 -0.0071375677 0.025800167 0.033938803 0.012106151 0.009235944 0.012514702 0.059463944 0.030562311 -0.0019265376 -0.03996015 -0.0018071586 -0.04275611 -0.007033694 -0.022842158 -0.072089404 -0.007652576 -0.027776591 0.04493156 -0.022908295 -0.014178398 -0.038031925 -0.01376701 -0.010334089 -0.033499096 -0.029776163 -0.007970863 -0.03603566 0.05254927 0.04430567 0.021457057 0.016886229 0.0081083225 0.05001373 0.020284208 -0.0054403893 -0.040778633 0.030552847 0.020218248 0.015932791 0.0046305885 -0.066052556 -0.023217238 -0.032149967 0.023347517 -0.013815597
hole -0.065385155 -0.0761457 -0.0021169048 0.024298044 -0.003780811 0.01946288 0.0068285433 0.016089696 0.047312044 -0.019427912 -0.02430474 -0.001983535 0.03550459 0.09384128 -0.021178007 -0.037905484 0.05583679 -0.10580382 0.08656896 -0.063534595 0.08800926 0.010166645 -0.07476441 -0.03188736 -0.067439206 -0.008016614 -0.017430654 0.026172148 0.054905955 0.07436161 0.027070317 0.028946111 0.09595779 0.066142075 0.022401484 0.03167434 0.019412035 -0.049275935 -0.044012267 0.030307634 0.051300813 -0.02858408 -0.006226866 -0.042473804 -0.016877498 0.029076904 0.039200075 -0.0047890726 -0.011149626 0.03394686
number -0.0045194235 -0.03559621 0.03459133 -0.0063984864 0.030095626 0.054827742 -0.0334206 -0.018222662 -0.030837454 -0.013962397 -0.041468352 -0.037649024 -0.0019318397 0.0012801595 -0.05562205 0.04061337 -0.010540693 -0.0067952704 0.017211238 0.015538733 -0.02961045 0.03705705 0.02444318 -0.008262157 -0.03966641 -0.05165461 -0.04192615 0.02705803 0.03390696 0.01911364 -0.03731167 0.00079342094 0.015555269 -0.0025618533 -0.03025302 -0.009738209 0.00087965466 -0.032553032 0.02234284 0.023556584 -0.03526422 0.005786028 -0.023265937 -0.022352813 -0.015885567 0.038566306 -0.021784196 -0.014897186 0.06281424 0.0065685464
turned -0.032672875 0.027540065 0.0031229656 0.05496526 -0.0072963433 -0.03523729 -0.054729916 0.0008635529 0.028690228 0.008751043 -0.008624075 0.0705829 0.052842174 -0.017807884 0.024257803 0.03472552 -0.0027816612 -0.037857447 -0.027656458 0.07004663 0.008771062 0.029760525 0.0068383096 -0.0650601 0.012684187 0.044493373 -0.043488022 0.029171357 -0.032458626 -0.0066159894 -0.028987115 -0.051106244 0.03257357 0.09062318 -0.0010398043 -0.018120311 0.012980809 0.011976853 0.07803794 0.006819264 0.018903637 -0.0131658465 0.031051522 0.009868669 -0.028317029 -0.06438423 0.001079323 0.06374543 0.04118476 -0.036916126
angry -0.016737795 0.035900045 0.019368265 0.012441495 0.058196988 0.06947092 0.017980255 0.025282217 -0.047327295 0.03762071 0.009096857 0.051975653 -0.03756623 -0.015046247 -0.022246685 0.02014954 -0.0029355383 -0.0071701724 0.0468596 -0.023819132 0.017174497 -0.0024175495 -0.003984395 0.003564579 0.036789834 -0.03580318 0.014435237 0.024686046 -0.036214914 -0.049603123 0.0048426487 0.004070055 -0.038853347 -0.02481334 0.04715178 -0.020190025 0.033809878 -0.04872455 0.045150384 0.07943213 -0.062018283 0.06778629 0.046764422 0.006257462 -0.029567165 0.032172102 0.041422896 -0.06007364 0.040417954 0.013741079
shore -0.060069405 -0.01673093 0.0035552708 -0.025243333 0.09427196 -0.056936067 0.024682416 -0.035551447 -0.014480183 0.011595581 0.060939573 -0.032661363 -0.04037228 -0.035685312 0.077663615 -0.07874675 -0.069790795 -0.038006287 -0.027323173 0.09552738 -0.009858182 0.0039730524 -0.00054601073 0.0023016827 -0.020378634 0.06675282 -0.08789019 -0.05903564 -0.018729517 0.028759811 0.0052217566 0.0026258288 -0.07308022 -0.020820204 -0.056263108 -0.03526419 -0.008868841 0.010173833 0.004219775 -0.0063386476 0.044991482 -0.07136432 -0.049827293 0.029977133 0.05787578 0.025896028 -0.037210938 0.028955594 -0.018601095 -0.012540918
cried -0.014182693 0.03551629 0.010478315 -0.02517662 -0.01774149 0.059997726 0.033851136 0.13115259 0.08466317 -0.0996498 0.051729295 -0.005139858 0.02382385 -0.0330291 -0.006265676 0.13977067 -0.0199588 -0.032082405 0.020901477 -0.0625866 0.07555619 -0.10850482 0.13325432 -0.006986577 -0.05278382 -0.01975067 0.010542085 0.09312921 0.005897087 0.006489596 0.024828253 -0.037484705 -0.035149787 0.0058904816 0.014010885 -0.03737451 -0.04311988 0.013305582 0.012782046 -0.07285545 0.007150122 0.017830279 0.07911198 -0.01616516 -0.08701056 -0.011356933 -0.026924685 -0.016630322 -0.07468353 0.019413307
apple -0.0086619975 0.011549925 -0.00020863442 -0.058498807 0.0067202817 0.062244043 0.017320015 0.0059377393 -0.054880954 -0.010786258 -0.0154295275 0.016540281 -0.04374201 -0.060437735 0.051555958 0.056682102 -0.018413313 0.021395829 0.038408257 -0.013960075 0.02482604 -0.0069315145 -0.01932703 0.014357292 -0.03976063 0.0075927777 0.06544029 0.038772058 0.061538976 0.0296126 0.004687808 -0.03671232 0.026416164 -0.021538928 -0.038331144 -0.043020613 0.0052332003 -0.015007864 -0.030144075 0.0134128295 -0.053128023 0.021695465 0.015652213 -0.0031739967 0.014649128 0.0055451086 0.017058222 -0.030586336 0.015605506 0.03184486
duchess -0.080086164 0.117401876 0.015431895 -0.073971085 0.023441715 -0.058543928 0.077719726 -0.041450918 0.09110098 0.051890515 0.08986215 -0.073026806 0.0664516 0.026683476 0.047229502 -0.048066113 0.06342853 -0.09096337 -0.046185188 -0.014491114 0.027040847 0.0015224762 0.03177732 -0.035018757 -0.07162838 -0.026899822 0.008140681 0.051958673 0.04355125 0.06612271 0.024726374 -0.08902982 -0.007516407 -0.006977402 0.087491594 -0.13511927 -0.012291951 -0.009403766 -0.021599183 0.013763652 0.11241646 -0.05500826 -0.09084983 -0.10493241 -0.04866589 0.005026425 -0.03760003 -0.016867762 -0.05254794 -0.089563414
shut 0.024673123 -0.0037336305 -0.018929148 0.056573763 -0.024516132 -0.05224993 0.010772962 -0.0044332338 -0.015989099 0.006927937 0.019892646 0.07193742 0.04168406 0.025933126 -0.028648224 0.012186408 0.041147158 -0.025301103 0.035862524 -0.0024377191 -0.012471267 -0.002010157 -0.009962687 0.07216907 -0.017948937 0.042658534 0.009266879 0.002915275 0.044966325 -0.04094501 -0.002567795 -0.010968642 -0.01912479 0.04333435 0.046058454 0.009823032 0.0012786159 0.023034077 -0.044581402 0.045806758 0.028685752 0.008189951 0.033666987 0.010458317 -0.014990846 0.018425263 0.03095006 -0.046278566 0.034714505 0.041393895
twice 0.027535692 0.008071712 -0.03209796 0.044972487 -0.0047925054 0.020523652 0.008238215 0.00805445 0.026714036 -0.028826527 -0.025283953 0.024313277 -0.028758748 0.009619669 0.032235898 -0.04521098 0.046873778 0.0113589745 -0.04406 -0.058486555 -0.053341247 0.03051007 0.013293888 0.06098734 -0.0312788 -0.053199496 -0.03749555 0.0028390521 -0.039542526 0.027768182 0.002378612 0.0021426228 -0.025739541 0.046389636 -0.03660845 0.023557601 -0.018416211 -0.028379545 0.0020126682 0.002047634 -0.019010678 0.035776105 0.033821233 0.0009167191 -0.025957583 0.0027169927 0.03782537 -0.004833381 0.0124073215 -0.008102293
gravely 0.037270404 0.013470424 0.040766887 0.061200492 -0.022001283 0.06208893 -0.036725156 0.07090304 0.0046656937 -0.04113551 -0.08056549 0.022960281 0.027614705 0.07583996 -0.06780776 0.038174845 0.031277962 0.0025233922 0.083383106 -0.056123618 -0.059743878 -0.013617968 -0.013798061 0.0016584379 -0.00073395285 -0.024584537 0.04360173 0.053011306 -0.06654248 -0.02605604 0.05033739 0.077030964 0.018353093 0.033843033 0.043093503 0.0480318 0.021067504 -0.052415833 -0.0299746 0.032720882 0.00480852 0.032326896 0.08474799 -0.039419614 0.045253646 -0.042080205 0.0851646 -0.062569015 -0.012364739 0.0077650636
sulky 0.015075489 -0.013481633 -0.004048423 0.05273793 -0.028006896 0.009847074 -0.035519186 0.039287776 0.019969838 -0.001753199 -0.031195182 0.077666014 0.069058634 -0.035733983 -0.024700275 0.009872075 -0.0044790697 0.016527569 -0.0036318845 -0.047683597 -0.032647613 0.0033709996 0.043873835 -0.0316284 -0.019598035 0.036175977 0.016566692 0.024187481 0.004183737 -0.011576605 -0.03267346 0.024015611 0.0072998726 0.007819004 0.022480903 0.03391981 0.056846928 0.021949079 -0.010490005 0.0036411597 -0.025412798 -0.009225329 0.05746808 -0.04136021 0.012571838 -0.06897064 -0.030196149 -0.046552364 -0.021746863 0.03996215
reply 0.012344863 -0.0020988476 0.041506547 -0.008670516 -0.04880977 -0.016782945 0.020255843 0.05477931 -0.056628704 0.02841405 -0.035575263 0.010002223 0.036945824 -0.05779542 -0.04941773 -0.019681666 0.028097894 -0.009188174 -0.027171578 0.037588738 -0.034338914 0.02979728 0.02971061 0.024881229 0.019889906 0.025686929 -0.034974605 -0.012261964 0.020692168 -0.018801425 0.059717167 0.018425563 0.036286335 -0.023939159 0.012975789 -0.03652186 0.021336243 -0.016715499 -0.03407579 -0.0058519593 -0.047591086 0.049716022 0.042891327 0.019426376 -0.024447955 -0.0095567275 -0.02218418 0.011036692 -0.033503298 0.04078233
c 0.015256323 -0.03992432 -0.045327418 0.035914175 -0.0035481276 0.01724991 0.014394304 0.032484867 -0.018032286 0.053218827 0.0027037323 0.014430678 -0.032209292 -0.02180327 0.0015077867 0.045837525 0.06333151 0.014053918 -0.009436178 -0.0616162 0.039212372 -0.052035864 -0.029745251 0.027026124 0.026054917 -0.0005693353 0.04724496 0.06293103 0.020523034 -0.008659844 0.071742825 0.00074305054 -0.049968235 -0.013613721 0.056495763 -0.049967017 0.03668538 -0.055989902 -0.017813722 -0.03202832 0.05813884 -0.009787647 -0.027067395 0.032901287 -0.052709214 -0.047786146 -0.026946748 -0.026150573 0.023191392 0.016505446
being 0.0027848557 -0.044198476 -0.024441516 0.0677458 0.011622096 0.001607509 0.026396861 0.045692064 -0.060466267 -0.05674201 -0.020094417 0.0042791427 -0.0013912031 0.02776995 -0.035392046 0.022659527 0.024294792 -0.0106716715 -0.023169218 -0.01934126 0.008428807 0.07821767 0.011837607 0.044636775 0.04167283 -0.016560195 -0.04454576 -0.0253033 -0.051247194 0.013799489 -0.0209594 -0.029835265 -0.0043801717 0.053452093 -0.04094305 0.026850987 -0.019561782 -0.0036042647 0.045166053 -0.061587676 -0.00983835 0.00114282 0.016957965 0.019356638 0.07529798 0.01404984 -0.0018261303 0.02210125 0.03869421 0.027560055
bend 0.056326922 -0.0218627 0.026942022 -0.03320442 -0.048670538 0.012440171 -0.0056618922 0.024229204 -0.0010640585 0.015877986 0.018272987 0.009487589 0.020993443 -0.015275689 0.0069446787 -0.06185149 0.012853682 -0.026025057 0.036831975 -0.003296741 -0.029800447 0.04364629 0.035584714 0.035527565 0.035550456 0.032453038 0.01565463 -0.04591471 0.019068332 0.056727596 -0.034531686 -0.015013684 -0.010153888 0.032761298 0.030591447 0.035591073 -0.012945944 -0.015688803 0.030508175 0.016429324 0.021540595 -0.028268578 0.01274564 -0.026560297 0.006082027 0.01690594 0.019604506 -0.041869264 -0.006895694 -0.021233475
off 0.030529168 -0.04304914 -0.053021364 0.00931728 -0.02730066 -0.03781444 -0.11754601 0.062229536 0.06627106 -0.042129975 0.002733624 0.045746 0.016841128 0.05665599 0.056029502 -0.028064344 0.030989576 -0.006164273 0.074510336 -0.076027006 -0.048485067 -0.035009596 -0.04521503 0.042387687 0.052705072 -0.026596788 0.03430697 0.0501591 0.022662021 -0.044362497 0.064093634 -0.02104587 -0.01811318 -0.045639403 -0.006229908 0.05652586 0.015275066 -0.06262735 -0.040482406 0.10938207 -0.017162684 -0.0003180271 0.08838551 0.009175946 -0.012411239 -0.06002482 0.044481684 -0.036521167 -0.06483556 -0.006836332
house 0.06586105 0.03113972 0.058300734 -0.010740941 0.00064085703 -0.062017214 0.006604848 -0.05455808 -0.056798335 -0.040834293 0.05793696 -0.07443315 0.006476281 -0.0046785926 0.003958657 -0.029589102 -0.083698444 0.0005457819 -0.0678668 -0.0076239714 -0.005738101 0.016013889 0.017397871 -0.04532603 -0.03774071 0.015745742 -0.004578286 -0.028275287 0.051574968 0.033510834 -0.07960536 -0.104067214 0.04451287 0.05171203 -0.023884477 0.019934187 0.003146887 -0.0099567 -0.08352492 -0.058965813 -0.021322822 -0.016859893 -0.06391175 -0.035408627 0.050522722 0.014437646 -0.042090222 0.062780574 0.020008238 -0.059141733
thing 0.024489695 0.023039468 0.002089468 0.03828218 -0.019623179 0.062441174 0.07083211 0.039351154 0.02318671 -0.032569133 -0.034108143 -0.036812805 0.04992985 0.10211749 -0.023195568 0.03835401 0.115206346 -0.0012649149 -0.008248267 -0.039905693 0.057901926 -0.12592502 -0.053153604 0.02571841 -0.06814505 -0.0039205146 0.05905939 0.0503884 0.040628668 0.021529336 0.05321493 -0.07661822 0.07113994 0.0327655 0.09267016 -0.015130985 -0.08721219 -0.11658454 0.0015934908 0.0068757595 0.014214176 0.028390825 -0.0009204929 -0.07802488 0.066240236 0.05282416 0.065053046 -0.047099464 0.06298697 0.05187234
who -0.011749205 -0.026443966 0.03508611 0.13493565 0.0060692243 0.043208316 -0.057270683 0.1044584 -0.030400764 -0.1534666 -0.052324962 0.03571154 0.013075504 0.07069114 -0.051736694 0.11303345 0.002509388 0.017082682 0.07606611 -0.10375039 0.06356712 0.037808836 -0.07008983 0.11580125 0.025417173 -0.038435604 0.09437832 0.123564 0.040000282 0.04186172 0.05361781 0.09971742 0.014862562 -0.0049361303 0.016401084 0.122848704 0.063339755 -0.05995092 0.052520268 0.09572438 0.035483204 0.05967141 0.124991894 0.028548127 -0.05737072 -0.100560375 0.05924992 -0.069276996 -0.02289674 0.07047764
makes -0.0023809527 -0.021482322 -0.011604995 0.015010354 0.05180228 0.04874884 0.0064943098 0.022749325 0.0760428 -0.070217215 -0.017332468 0.038556874 0.042025376 -0.0061390204 -0.020408368 -0.044835374 -0.07653895 0.092345566 0.06817617 -0.043030154 -0.006072958 -0.024163583 -0.04873303 0.017495379 -0.06362552 -0.008663076 0.00552211 0.021037318 0.0326235 -0.017118413 0.0142897265 -0.05396537 0.012744829 -0.015541104 0.06568505 -0.0059916805 0.018452134 -0.023117915 -0.056727257 0.040478837 0.035475727 -0.019136062 0.06369982 0.009968714 -0.06114734 -0.062003206 0.03532203 -0.054920103 0.010270613 0.061427016
wept -0.051626097 0.016286388 0.021889854 0.039883565 -0.007757906 -0.002873009 0.0025316598 -0.07913003 0.022439707 0.023913488 -0.052952066 0.0106161665 0.019080909 -0.006332318 -0.00047210918 -0.012467009 0.017640915 0.018689359 -0.0048521636 0.024702443 0.021589411 0.0026775459 -0.011678298 -0.029305354 0.089631096 0.04398027 -0.018108716 -0.03667571 0.02373115 0.038379453 0.011628595 -0.038072485 -0.014849067 -0.0067703724 -0.0651533 0.0027153862 0.03455159 0.009800298 0.027744323 0.0033728941 -0.0017606511 -0.02745085 0.02963654 0.027407087 -0.06370903 0.038395803 -0.023052372 -0.021315325 0.012065333 -0.003791063
heap 0.033710018 -0.020424675 0.012874022 -0.042480387 -0.022469144 -0.00029445335 -0.01852705 -0.009514178 -0.047741447 0.035969317 0.06202217 0.004094947 -0.02481568 -0.027689965 0.041897558 -0.0442716 0.036068987 -0.01683095 -0.07195674 0.045955073 -0.040119234 -0.020485613 -0.016869666 -0.06034966 -0.037421513 0.057380144 -0.013494904 0.022634264 -0.032797907 0.022283167 -0.0059022033 0.011257572 0.026199482 0.05215757 -0.0037673062 -0.035885584 0.029953014 0.029863589 0.05200589 -0.034717172 0.012516781 0.038422383 0.020675305 -0.015109532 0.034657337 0.0003989871 0.020682164 0.025052471 0.0326673 -0.010179952
growing 0.07039065 -0.015124134 -0.02764956 -0.032129504 0.02223819 0.01105948 -0.037697226 0.009968389 0.010289509 -0.06426185 0.01285283 0.028736902 -0.005677388 -0.047862545 0.009495749 0.015264693 -0.006333778 0.03156535 0.021872006 0.015352269 -0.018933475 0.029253088 -0.009220767 0.0019486722 0.044812225 -0.007493085 0.021710549 -0.0111203585 -0.021688387 -0.07233765 -0.018456805 0.014547106 0.0145709645 -0.08068757 -0.020024728 0.023181869 0.016589891 0.0479009 -0.061098475 0.03148128 -0.0136302505 -0.03543577 0.0031577675 -0.008806207 0.009277284 -0.027781434 0.021681141 -0.047723047 -0.002047669 0.02595446
waters -0.035954952 -0.030363163 0.003596731 -0.038861908 0.050873403 -0.042793006 0.038513742 -0.008047389 0.0047039897 -0.009254945 0.027213775 -0.044166904 -0.01861639 -0.02290196 -0.035028115 0.0127914585 0.0077879266 0.0066674543 -0.006557393 0.003143263 0.037806418 -0.0024441609 0.00022296463 -0.029373178 0.060924295 -0.00042421615 -0.067315266 -0.052765444 -0.025089728 -0.0021639522 -0.05151225 -0.0571996 -0.06905939 -0.02434959 -0.016584758 -0.027431903 -0.013390844 0.013056322 -0.034589667 -0.018306911 0.02395005 -0.0424608 -0.04129974 0.0012728883 -0.0140851 0.06133021 -0.05058183 0.08053296 0.04142232 -0.007405189
punished -0.0168533 -0.0056323567 0.045637473 -0.026491378 -0.009092292 -0.011164526 0.00826682 -0.035196163 0.029050782 0.011745106 0.018588988 0.029756833 -0.0131033845 0.059836842 0.005909733 -0.018810319 0.008498727 0.0063011004 -0.021461125 0.032828808 0.03835926 0.0045426255 -0.04671543 -0.01560186 0.008819024 0.019240107 -0.023835843 0.01814714 -0.036238518 -0.04822345 -0.0007428059 0.047604125 0.044352986 0.05932273 0.023223596 0.0016984805 -0.008616273 -0.012275297 -0.014545229 -0.005094173 0.0033874922 -0.0055407155 -0.011117116 0.057463977 0.0068808515 -0.039861836 -0.0559628 0.056370426 -0.011791148 -0.012343495
occurred -0.02405914 0.06771935 -0.006688201 -0.072143726 0.053392097 0.03094782 -0.028137248 -0.03733976 0.017216211 -0.0082360795 -0.0113109425 -0.022618204 -0.022929482 0.0017056441 -0.010511931 -0.043936316 -0.013147241 0.056688353 0.0060379286 0.01704331 -0.0010825762 -0.016578455 0.044830542 0.025298683 -0.0019720183 0.017838415 -0.0013421664 -0.010576564 0.009358268 0.021134123 -0.028352 0.019764282 -0.000697035 -0.048061237 -0.060223866 -0.039034314 -0.023958448 0.0033723717 -0.022940187 -0.050786067 -0.0031451667 0.0087481765 0.02113479 -0.027000308 0.054402705 0.040237278 -0.061997864 0.047116924 -0.03322535 0.009910819
fixed 0.038190942 0.05016979 -0.013084667 0.042464208 -0.056630455 -0.020841816 -0.023038903 -0.002749863 0.009952726 -0.0061761406 -0.044759333 -0.021495292 -0.06707208 -0.02058635 0.042719763 0.012437269 -0.008135815 0.04950673 0.01578929 0.042670544 -0.00014276021 -0.021967378 0.006725246 0.04603636 0.0093096765 0.025313858 0.007375663 -0.035878524 -0.02530851 -0.020793522 -0.040429145 -0.024762 0.026141629 -0.038841996 -0.034897245 -0.005014763 0.011225511 -0.011244693 0.03844969 -0.05245732 -0.002963938 0.04788025 -0.007197385 0.029427344 0.027706752 0.013172131 0.04099968 0.037965063 -0.0246907 -0.03882984
solemn -0.013173003 -0.040743954 0.06258224 -0.011304949 -0.044091787 0.0016876867 -0.030632187 0.04660977 0.027060188 0.010988116 -0.03866618 0.0160064 -0.033212733 0.04598774 -0.016873265 -0.022743639 -0.005103445 -0.021901669 -0.031889442 0.005158485 -0.030264482 -0.027582625 0.017685346 -0.03238387 0.009582147 -0.029310076 -0.0047127097 0.030317912 0.020742971 0.011734152 0.0035791795 -0.0044239108 -0.01077513 -0.01577791 -0.036612965 -0.027386568 0.015764723 0.03277546 -0.044083763 -0.011397916 0.047548015 0.0027856252 -0.040338486 0.04485924 0.03979865 -0.05008114 0.061223097 0.007816358 -0.024247322 0.031020196
find -0.024770211 0.006771437 -0.016468924 0.0018433036 -0.04277734 -0.056059282 0.071293466 0.056371793 0.012632795 -0.014780222 0.0036629776 0.05153106 0.037829194 0.05954127 -0.0022370731 -0.0069134557 0.009450403 -0.0024330067 0.0020200987 0.0111054005 0.014488118 -0.029524479 0.007896614 0.02605473 0.0061245365 -0.02997631 -0.052895933 -0.041358773 0.03561867 -0.022610713 0.0063377856 -0.017379979 0.007966851 -0.10280665 -0.009764037 0.002999458 -0.026917813 0.040736634 0.00010956492 -0.019841043 0.04475804 -0.025729513 -0.04942744 -0.04628756 -0.034396272 0.022365684 0.059187226 -0.02172307 -0.0035068286 -0.022985226
those 0.078896254 0.017502053 0.012300577 0.04075194 -0.097593606 0.0665968 0.047655515 0.015766062 -0.020644404 -0.108644895 -0.04344858 0.03196442 0.017512118 0.001752986 -0.02859461 0.06058365 0.036120277 0.0071148286 0.0685085 -0.044169795 -0.0020426637 0.051947627 -0.05098558 0.09336889 -0.023403365 -0.07343967 0.033385027 0.024654854 0.030465651 0.06104532 0.053461906 0.073322795 0.07038992 -0.051594235 0.049842 -0.023352267 -0.042722054 -0.03350227 -0.022709114 0.11146042 -0.0095200855 0.008604619 -0.00075223483 0.018415675 -0.028315147 -0.01693444 0.06379367 -0.06054985 -0.0020566143 0.034218296
usual -0.021965194 0.037954852 0.036852952 -0.015045824 -0.01734959 0.0040260367 -0.06795282 0.06568989 0.059030287 0.027448157 0.0037007732 -0.026784219 0.057669833 0.05718369 0.04305017 0.011684786 -0.020607563 0.021359796 -0.0029042177 0.01629439 -0.05182198 -0.034501463 -0.05062137 0.004633905 0.008607877 0.01696796 0.04303815 0.013135773 0.014292156 -0.05986099 -0.0039562904 -0.01357129 -0.03185641 -0.02399788 -0.038315177 0.056484085 -0.0099175945 -0.036620796 0.037329637 0.024379376 -0.029274225 0.0036223372 -0.032701917 0.0026946124 0.041546486 -0.048245642 0.026031593 -0.05166007 0.011460907 -0.017787537
climb -0.0058639636 -0.06522386 -0.032100122 0.025149139 -0.048932478 -0.005332289 -0.013753634 -0.023090802 -0.03542262 0.014033346 0.002220517 0.0652476 0.017298926 0.02343703 -0.044328284 0.026528599 -0.009002792 0.04226475 0.019906672 -0.055053174 0.0009867584 0.01994379 -0.01726278 -0.008559662 -0.01604864 -0.009704838 -0.0015581883 -0.019083343 0.027135856 0.00638636 0.0015126194 -0.030874845 -0.0046413383 0.003045512 0.024788788 -0.011807769 -0.0037808279 0.043432657 -0.032446094 -0.024244634 -0.04093489 -0.016411286 0.045427654 -0.04541069 -0.011486396 0.0008341766 -0.026205657 -0.006964936 0.018535357 -0.013671869
hurrying -0.027522607 0.017103322 -0.031748887 0.0046906173 -0.039479006 -0.004331263 0.008787863 0.027035935 -0.024296027 -0.017255552 -0.0133393025 -0.031160492 0.033725474 -0.028772725 -0.005732344 0.043494463 -0.010111133 0.048879843 -0.012965578 -0.041331172 0.0014133931 -0.025946986 0.01714327 0.03074392 -0.019355988 -0.018773466 0.031718355 -0.019702438 -0.056327384 -0.012260934 0.029058091 0.04892906 0.034867287 -0.008475538 0.03158455 0.014327002 -0.027866224 0.005451039 0.040216167 0.0052482877 -0.034942918 0.020304557 0.030194461 -0.054388285 -0.0020556236 -0.04982793 -0.01776087 0.0068225693 -0.019962758 0.049984552
but 0.1187887 -0.05111802 0.08299197 0.07155789 -0.030291887 0.19200204 -0.017500103 0.16869195 0.1555877 -0.19993982 -0.017435469 0.046219837 0.026738921 0.050999925 -0.016690627 0.12896894 0.11326454 0.036697306 0.11453228 -0.13529855 0.2306776 0.1855505 0.025420245 0.12741476 -0.10658524 -0.101761185 0.11577071 0.09373936 0.22368418 0.17361395 0.1780421 -0.038361453 0.08740218 -0.032853004 0.12579027 0.017080763 0.020800935 0.014609253 0.045092084 0.16082485 -0.014936006 0.007476613 0.0281761 -0.0753848 -0.104486205 -0.12502612 0.15690008 -0.19420578 -0.116472274 0.116548985
drop -0.0011596761 -0.0068785828 0.03120536 -0.009688653 0.040495533 0.0030467464 0.007836353 0.02745939 0.04636447 -0.038706243 0.007295155 0.01943359 0.050919607 -0.038024627 -0.031882077 -0.037817046 -0.019378299 -0.03764821 0.023312202 0.04969341 0.018586315 0.0070155864 0.023871575 -0.020977793 0.010446342 0.015286259 0.040550187 0.013096181 0.045701645 0.03330289 -0.046723388 0.012824666 -0.058440164 -0.019087633 -0.016352788 0.019459367 -0.028628102 0.053349666 -0.04128341 0.046228852 -0.0155337285 0.019984668 0.029784363 -0.011412296 -0.030528685 0.00467691 -0.012041603 0.048032038 -0.021478616 0.0055147614
splash 0.054321136 0.0054102615 0.0026780046 0.0103124315 -0.008137113 0.002668765 0.039340552 0.002252258 0.06405832 -0.017627059 -0.05495136 -0.04723422 0.029147664 -0.06038401 -0.011818333 -0.0072031603 0.07445012 0.0110132685 -0.020828996 -0.05789279 -0.012088068 0.036772743 -0.010062417 0.0015518987 0.02213661 -0.037918806 0.03940883 0.051462274 -0.025793178 -0.021768212 0.06639205 -0.034223385 0.0456939 0.013144469 0.008922803 -0.023079503 0.006310713 -0.026350586 -0.024787435 -0.0031376628 0.0030142753 -0.022158472 0.033484653 0.03098812 0.006554002 -0.04846392 0.05025668 -0.06678457 0.029485099 -0.03120211
age -0.059922867 -0.08173123 -0.024736619 0.074604385 -0.046432048 -0.019705553 -0.022510186 -0.075282425 0.026369914 -0.039914172 0.011667757 0.005370176 -0.010267966 0.05002865 -0.05662044 0.022964522 -0.0058177025 0.02429883 0.020658143 0.0046611307 0.016833777 -0.0074481904 0.044435445 -0.02119419 0.007076923 0.031226225 0.01541545 0.011202994 -0.0042066104 -0.031452164 0.022295801 -0.024923282 -0.039783962 0.07832146 -0.018302608 -0.017492106 0.047440723 -0.0016677859 0.039005954 -0.041254774 0.029628426 0.040542126 0.06787185 -0.008969584 0.005829572 -0.0298846 -0.0422747 -0.01587131 0.07705412 0.033267967
adoption -0.042916894 0.040073417 0.003973074 0.026688874 -0.036258798 -0.014631025 -0.044606872 0.023420092 0.030051526 -0.039295327 0.0021930588 -0.02264082 0.009759684 0.042957522 -0.0039550643 0.04413055 0.015979437 -0.026472334 0.018296078 -0.015105216 -0.020719042 -0.048907448 0.039593827 0.018161317 -0.020814363 -0.03862995 -0.009603359 0.033754304 0.008425895 0.013600319 -0.0011557811 0.048494976 -0.006240165 0.027587043 -0.03684235 0.03419433 -0.056635704 0.02615036 0.053594433 0.040786702 0.017643232 -0.0057372055 0.012997859 0.009624737 0.040251926 -0.018351758 -0.02347261 -0.038194895 0.0043473095 0.026930861
prosecute 0.03647119 0.021277044 0.010039937 0.038776364 -0.015420161 -0.036747493 -0.03740566 -0.009423386 0.010942459 -0.043073844 0.026544038 -0.028967166 0.0010868311 0.041061725 -0.03277582 0.029723022 -0.016536154 -0.012200881 -0.020243322 0.03294507 0.033708964 0.009837411 -0.03713665 -0.0010483153 0.039003316 0.035779703 0.038689923 -0.013920009 0.04914992 -0.046409454 0.02420156 0.017935064 0.028922092 -0.032107104 0.008787215 -0.036846567 -0.0074744 -0.04402385 0.006281901 0.03208972 -0.018825484 0.003930021 -0.039719857 -0.00928811 0.005337514 0.04759456 -0.030443728 0.04848105 -0.009675968 0.014182124
question -0.05362319 0.0816556 0.020235443 -0.043358874 -0.013262614 0.045232385 0.007113073 -0.003977713 0.05358213 0.060856905 0.1185398 -0.053932674 0.026216947 0.09463945 0.0030346047 -0.0063127335 0.0731759 -0.03829799 0.026052698 -0.068774365 0.1196225 0.0045861546 -0.06508029 0.025692508 -0.13561435 -0.009364416 -0.023277886 0.10743016 0.019807786 0.080645315 0.026182938 -0.043392953 0.034120094 0.017207429 0.08454195 -0.026524168 -0.014859835 -0.030967802 0.031113481 0.09269423 0.113079205 -0.013897506 0.006646385 -0.014460673 -0.019397117 0.007621286 0.04814802 -0.032550935 -0.09654676 0.064822495
put 0.016031858 -0.037662346 -0.03633355 -0.06792821 -0.05596516 -0.025562366 0.08788902 -0.010921894 0.05094619 -0.007651813 0.028228268 -0.028403187 -0.0032302756 0.060596403 -0.031298745 -0.0037401675 -0.0389123 0.0049599768 -0.022807505 -0.010502824 0.046287816 0.083250225 -0.07065008 0.03565552 -0.019215854 -0.048047334 -0.031929016 0.0014215817 0.14790629 0.06449326 0.004078949 -0.08296527 0.12723507 0.013940562 -0.053262632 -0.03282866 -0.029142117 0.087337986 0.0043154676 0.044558045 0.014285055 0.04709985 -0.033421315 0.00948025 0.024010915 -0.057827905 -0.005962022 0.035099555 -0.03396172 -0.054994307
bathing 0.009688187 0.038346894 -0.022117987 0.058695395 -0.03440138 0.063150585 0.05441529 0.044105303 0.031482734 -0.0011218339 -0.05672625 -0.02886372 -0.040409353 -0.05029784 -0.04055812 -0.014173084 -0.008367864 -0.0428894 -0.0072407112 -0.028938055 0.002890861 7.0558686e-05 0.0245866 -0.024931632 -0.020663694 -0.018011903 0.02909407 -0.023531387 0.032074153 0.014892982 -0.018055134 0.023411084 0.07782519 0.032739453 -0.048290033 -0.024519166 -0.039359298 0.044697355 0.043015044 -0.005333008 0.029109197 0.044056285 0.018095933 0.029432235 0.003245507 -0.04015004 0.0059889485 0.031287488 0.00638354 0.047214698
feelings 0.06343072 0.010875851 0.02957487 0.047020026 0.03142207 0.0009234332 -0.0030644708 0.0019356549 -0.0036737218 -0.048441228 -0.0011571309 -0.056585453 -0.007383377 -0.059391312 -0.0034880517 0.0047779703 0.018599087 0.026293384 0.006272862 -0.03090915 -0.03383926 0.01506902 0.05866439 0.033232465 -0.0008646976 0.03459292 -0.027826387 0.03235267 0.0013542896 -0.043396607 0.050639372 -0.02145174 -0.066561915 -0.0736358 -0.01948453 0.00038750994 -0.04536672 0.025888287 -0.04287049 0.039496165 0.0001272212 -0.04386114 -0.0421719 -0.010457202 0.017864382 0.021987977 0.001508903 0.018037414 0.031700805 0.057543147
till 0.04933192 -0.015798153 0.05221757 -0.01057869 -0.00367773 -0.026866406 -0.0033682268 0.05798285 0.0014815162 -0.002764113 0.004024772 -0.015940987 -0.024033826 0.046892233 -0.011333981 0.0121983 -0.0067865048 0.015208993 0.016008636 0.0125538595 0.022435818 0.06701943 -0.0067560766 0.0017314854 -0.016702963 -0.01176894 -0.032018654 0.012923816 0.020019274 0.046767555 0.028519176 -0.054762345 -0.048292212 -0.048514146 -0.007202315 -0.029239615 -0.05150087 -0.021112021 -0.0603241 0.0071703205 -0.016866641 0.0063618138 0.023534304 -0.028955363 -0.034459226 0.02046725 0.023112815 -0.061708406 -0.0024918974 -0.00017692847
shedding 0.0007759986 0.010431214 0.00203447 -0.016024966 0.025630932 0.00028712512 0.06550694 0.053962864 -0.04907644 -0.04036573 0.038960606 0.025313972 0.008355087 -0.001066352 0.031052902 0.004925998 -0.022701688 -0.027892495 -0.019098666 0.016139718 0.014625615 0.007669443 -0.008562692 0.060801636 0.008229037 -0.0036486469 -0.011569926 -0.018656515 0.006193243 0.017686957 0.044299845 0.054842886 0.04417008 0.03129577 0.008662937 0.0026525818 -0.03932245 -0.027420068 0.031657245 -0.0019244805 -0.01293641 0.043615017 -0.033374723 -0.019027278 -0.025656004 -0.0054087164 -0.042395476 -0.03647119 -0.0028516399 0.011975067
read 0.037880376 0.02845277 -0.00979723 0.010092511 -0.026803123 -0.013885962 0.014290408 -0.03820603 -0.02087566 -0.026395401 0.002155663 0.048125774 0.01575347 0.0090802675 0.006076199 -0.025515987 0.0048260116 0.014250651 0.01036367 -0.026444001 -0.009696091 0.08395987 0.003163666 -0.02489893 -0.048369147 0.022537118 0.027750531 -0.014083977 0.00308115 0.032009285 -0.015736727 0.018414363 0.02384839 0.018524664 -0.031680863 -0.04724171 -0.028520029 0.029815838 -0.044736702 0.014793415 0.029821381 0.016443951 -0.014331141 0.04750066 -0.057894427 0.0051151495 -0.028773328 -0.025616422 -0.030414496 -0.049827043
knot 0.011646915 -0.049617786 0.063716605 0.021956652 -0.009799643 -0.029848073 -0.03031469 0.004244601 0.040537283 -0.00996555 0.052677196 0.025589384 0.06949777 0.017059583 0.014375262 0.01773234 0.01317429 0.043602027 -0.015860517 -0.0035574164 0.020321917 0.031670168 -7.5043063e-06 -0.038099106 -0.017148755 0.048231773 -0.067204446 -0.015452201 0.028199732 -0.036208007 -0.002357327 0.034279797 0.03509535 0.043997113 -0.037876055 -0.032372233 0.031704083 0.03804134 0.07782627 -0.046450943 0.05487699 0.041485716 0.0016750719 0.042314887 -0.040907383 -0.012980289 -0.03772937 -0.024412308 0.03372425 -0.033507794
likely 0.043270107 -0.04868986 0.0010355908 0.089044705 -0.025951214 -0.02372631 -0.08384867 -0.03937752 0.005732846 -0.039155908 -0.029861057 0.054400705 0.005103968 0.010958983 -0.06415322 -0.014425438 0.04985179 0.04270762 0.010943446 0.019385405 -0.023496494 -0.027978605 -0.06207671 -0.038155455 0.06695727 -0.026189093 0.007771961 0.0904584 -0.043441918 -0.00715626 0.022297772 0.050931875 0.015477957 0.051414605 0.030703245 0.054979887 0.0028140624 -0.05846831 0.036167298 0.021624379 -0.011423053 0.057555057 -0.0031239705 0.05728064 -0.01565783 -0.024373693 0.024644954 -0.04788805 0.02794293 -0.033043012
while -0.042230707 -0.03905904 -0.0040529957 -0.06839027 0.02457523 -0.05051953 0.032497503 -0.00024633383 0.00544065 0.002947707 -0.0507797 0.019605009 0.060523387 0.00347954 0.07581957 -0.031840682 0.041464947 0.0023607318 -0.02316894 -0.026442917 0.037701346 0.005391317 -0.0066690836 -0.03519996 0.0021436345 -0.03540076 0.03236405 -0.025672076 0.13005228 0.07598675 0.054910067 -0.030289449 0.043718 0.05264773 0.050246194 0.00011357549 -0.006028842 0.0054697166 -0.00012078576 0.051198646 0.0016059289 0.040507115 -0.07675419 -0.003478643 0.02054236 0.06569755 0.016053509 0.039201565 -0.07266578 -0.01507855
meaning 0.033609096 0.047237143 -0.025642 -0.045532964 0.008741035 -0.0058261915 0.030215308 0.028240982 -0.0039632213 0.046526574 0.019130195 -0.025998883 -0.040803146 -0.023083344 -0.059498183 -0.029376648 -0.040089447 -0.034551598 0.03178247 0.03451376 -0.03296318 -0.033681016 -0.0007528959 -0.017905528 -0.016100565 0.008209626 -0.02774124 0.03174963 0.047086205 0.03364894 -0.012340842 -0.06327552 0.017505659 0.040327072 0.017711906 -0.030018639 -0.032869834 -0.014646068 0.0030025146 -0.012047835 -0.033248875 0.0037411635 0.02134924 0.010468862 0.022170834 0.0076596984 0.034461994 -0.023827551 0.008362848 -0.055166934
sighed -0.047108658 0.020345153 -0.03724776 -0.0468727 -0.01890749 0.05152924 0.060919378 -0.02040803 0.0069970246 0.0517307 0.009889756 -0.040330045 0.011545842 0.06556066 0.009452153 0.059089318 0.0050207633 0.044207845 0.067168914 -0.0066621783 -0.0071216114 0.012165553 0.0010801436 -0.032149415 -0.019058062 -0.038427837 0.06483698 -0.009004678 0.04727155 -0.01672521 0.0016157284 0.031669054 -0.054004263 -0.036911692 -0.030410403 0.023350945 -0.061266277 0.026105346 -0.0015716522 0.0065673757 -0.007708142 -0.03877512 -0.03633383 -0.0011037709 0.00036326598 -0.011919596 -0.0024071592 -0.04527949 0.006597588 -0.010490443
means -0.01896576 -0.03054253 -0.032852788 -0.006690561 0.0062124035 -0.030478869 0.00626886 -0.006697643 -0.0102612255 0.016870812 -0.056262095 0.062339574 0.015578334 0.0011680378 -0.00097154453 0.018559791 0.018183943 -0.03328721 0.049910728 -0.038019177 -0.0077913213 0.02208011 -0.04180098 -0.022073202 0.026110712 -0.027704692 -0.0068118414 0.05257779 0.041918576 -0.042958997 0.050840337 0.012026566 0.0108517995 -0.013475019 -0.02223199 0.023073278 0.045440197 0.029512176 -0.0030253972 -0.036472205 0.010489449 -0.024704283 -0.016420372 0.024543952 -0.075665854 -0.027886933 0.037558198 0.029850408 -0.032031354 0.05234758
then 0.06497652 -0.055701107 0.033156957 0.019572921 -0.03823074 -0.043118052 0.023484223 0.07579034 0.1042995 -0.20894529 0.012112769 -0.0009511643 0.089984365 0.009484256 0.03096931 0.0037800139 -0.09807262 0.122572936 -0.037298765 -0.04453585 -0.022929214 0.07877486 0.006670137 -0.011039636 -0.06817701 0.022848707 -0.0028241063 0.0918751 0.09363581 0.021200122 -0.011593503 -0.09171046 0.039790925 0.11536566 0.032806423 0.06154066 0.036973655 0.07787185 0.012623127 -0.015873572 -0.015660498 -0.040241078 0.0025564597 -0.0012682638 -0.008126208 -0.09275708 0.092421755 -0.09423758 -0.09056049 -0.06429608
dinah 0.064598605 -0.009522618 -0.031093976 -0.034165874 -0.047972884 0.013842325 0.12437241 0.10106624 0.023975631 -0.090638004 -0.0032826352 -0.009546705 -0.053832125 0.04944 -0.0030589385 -0.0359601 -0.03868334 -0.017146043 0.08921448 -0.06839426 0.045571398 -0.007756787 0.04627268 0.10026007 0.034064986 -0.012573352 0.010353763 0.021840725 0.08243878 0.11109826 0.03890857 -0.021628989 -0.06313677 -0.016228503 0.06300817 -0.012186917 0.010081362 0.009391205 -0.0039563165 0.062533 -0.10205702 0.040954746 0.07330094 -0.08105455 0.000649799 -0.018455945 0.10346493 -0.11116898 -0.04877704 -0.026698075
fell 0.006023595 0.05099898 -0.015580955 0.0028206012 -0.016057137 -0.098378964 0.022122454 -0.019668605 0.05542567 0.053308383 0.04191259 0.05275442 0.058060303 0.01597856 0.067901276 -0.06313326 -0.06892148 -0.010097381 0.0039297966 0.068703815 0.0017525736 -0.03039894 0.01119912 -0.08239198 0.04146429 0.0010410671 -0.08903203 -0.06172318 0.055405546 0.010145774 -0.030185984 -0.11684177 -0.053300012 -0.036530904 -0.00016190787 0.025601229 0.0047573764 0.06697383 -0.07499425 0.013472421 0.04318221 -0.04168531 -0.015346684 0.021802744 0.033477433 0.014562135 0.022294095 0.02571261 -0.013691229 -0.071058705
presented -0.020197205 -0.021743173 -0.03534307 0.011720154 0.0463446 -0.04646967 -0.032995 -0.044025257 0.011709045 -0.015656764 0.008046755 -0.024877379 0.00015197217 0.050480723 -0.030918797 -0.054239377 -0.007931289 0.009007727 0.0655569 -0.0057508317 0.008175624 0.022060823 -0.037952352 0.01072495 -0.046583757 -0.06932473 -0.043650698 -0.009097239 -0.00022993104 0.04445583 0.022162698 -0.012325344 0.007976326 -0.04741869 0.027976878 -0.03292453 0.009396722 -0.044764623 0.015949687 0.008431386 -0.016566016 0.00023117015 -0.057009846 -0.0106951995 0.009428041 -0.0009205935 -0.043778747 0.041898366 0.028093915 -0.016982459
pretexts -0.008245572 -0.040559623 -0.010411245 0.058718313 -0.01684316 0.035569172 -0.033934098 -0.04161414 0.007939441 -0.02212389 0.018753253 0.0007597057 0.053068914 -0.018767945 0.031460386 0.04126813 0.010363323 0.011910528 0.05821421 -0.036911737 -0.012078743 -0.03828057 -0.0045641 0.024504859 0.021509238 -0.034979954 0.049284734 0.04656674 0.05946169 -0.031624883 0.027829528 0.007909927 -0.01924444 0.04881483 -0.010133955 -0.04124057 0.012505255 -0.026292983 0.021807421 0.014282298 0.04049385 0.02226319 0.022892842 -0.008225029 0.003040148 0.0433092 -0.02227569 0.0075880922 -0.048420813 -0.05541465
iv -0.0049434 -0.0019999489 0.011988746 -0.032871448 0.046176396 -0.020461615 -0.013821155 -0.01998851 -0.02908569 0.00840541 0.0152210025 -0.016924096 0.0034222477 0.0065169395 0.02143592 0.023623433 0.016837599 -0.044900604 0.04405582 0.03486057 0.072382346 -0.05009217 6.973464e-05 -0.020837443 0.023570197 -0.025750082 0.057661965 0.050117347 0.06637196 0.034549743 0.039885264 0.033829592 -0.024937872 0.010934044 0.008024544 0.011808177 -0.022261549 -0.06441995 -0.049981993 0.042796068 -0.008236189 -0.026075102 -0.0033970021 0.033748753 -0.042671908 -0.01734886 0.03518066 -0.027916493 -0.00019687897 -0.032751456
edgar -0.0004419213 -0.030361049 0.0193833 0.028784305 0.0046528513 0.07341853 -0.043170653 -0.0012541795 -0.0057907198 -0.037029468 -0.025691895 0.009206447 -0.046704724 -0.009996567 -0.020546222 0.038451195 0.022120893 0.06854311 0.006620128 -0.03309017 0.0031887866 -0.004546016 -0.015295373 -0.017495176 -0.040509023 -0.02713175 0.034960903 -0.0057496773 0.03513194 -0.05798485 0.01001602 -0.0009896434 -0.0066952 -0.0014364221 0.058910113 0.06575073 -0.022023195 -0.040509548 0.033642802 -0.022563191 0.010698326 0.017628124 0.034962215 -0.03363727 -0.020023469 -0.0003273671 0.026835028 -0.03253755 0.023067923 0.007378613
think 0.08661218 0.077689365 -0.0018326142 -0.09396412 -0.04811818 0.11229873 -0.0005434519 0.14391932 -0.003024323 -0.012695771 -0.023000857 -0.048297614 -0.073379315 -0.048177794 0.082533315 -0.026469572 -0.049670905 0.001959231 -0.059817553 -0.01634996 0.09015629 0.05902571 0.0334245 0.016786035 -0.071185164 0.023853885 -0.025537645 -0.014377928 -0.032684702 0.08312444 -0.022792067 -0.07089102 -0.064200535 -0.15063503 0.06449873 -0.026028529 -0.022047805 0.13272996 -0.09076957 0.0201838 -0.1036539 -0.071924135 0.03047013 -0.06573419 -0.03705841 -0.04635281 -0.033570074 -0.023779541 -0.030624922 0.045522723
never 0.009712849 -0.006270476 -0.01739438 0.05063367 0.005416261 0.097834356 -0.0056412634 0.12923332 0.029118126 0.028555397 -0.037490256 -0.028385002 0.0411123 -0.02331817 -0.052225802 -0.01532867 -0.0367709 0.036188275 -0.025267728 -0.048922427 -0.013534731 0.055056106 0.044512164 0.04128508 0.05088136 -0.001702204 -0.018866666 0.012143453 -0.040153835 -0.02397365 0.023677504 -0.013291188 -0.041185673 -0.046912786 0.056409266 0.051676754 0.018709749 0.04638837 -0.040368635 -0.062520154 -0.057022315 0.04775267 0.060608197 -0.02744555 -0.02823743 0.030128766 -0.004499096 0.013286425 0.053180605 0.090496905
remarkable -0.020914802 -0.029363433 0.08274617 0.064553164 -0.026481433 0.002078798 0.019148778 0.01529816 0.0022686515 -0.0055305976 0.007130873 0.008611251 0.015958097 0.028556148 0.008475963 0.003154466 0.029237334 -0.0014492809 -0.005019005 -0.039132327 -0.042231876 0.025001649 -0.017000413 -0.029377688 -0.023553316 0.0025118422 -0.029102484 0.0040589524 -0.06540348 0.0108089205 -0.008504519 0.06541595 0.08115272 0.016009051 -0.0060135657 0.017769776 -0.010375358 0.004491947 0.08974731 -0.030321822 -0.0042035896 0.04562718 -0.0054021985 0.04783911 0.022426443 -0.047210336 -0.04258818 -0.0019641884 -0.013013841 0.0512748
o 0.015539631 -0.037445813 0.017117023 0.104335636 -0.027698409 0.07705812 -0.01189526 0.09057738 0.044112273 -0.03146865 -0.038179103 0.011175759 -0.0031380951 -0.00072574493 0.0057967636 0.06565063 0.10811361 -0.0389448 0.06130492 0.0051472024 0.005824774 -0.035043176 0.027891235 0.0015987073 -0.026791118 -0.057599064 0.025215667 0.06764273 0.0046957666 -0.08598303 0.048949163 0.09233935 0.034114584 -0.049646515 0.071971655 0.008125722 -0.005474433 0.024163816 -0.014163569 -0.024545055 -0.033536963 0.11483079 0.043923926 -0.010679395 -0.0010649135 -0.023831405 0.034191765 -0.0696571 0.017750522 0.07889786
reading 0.013867291 0.01758583 0.056862824 -0.042372275 -0.02474513 0.0057163537 -0.016329337 -0.040560864 -0.026872704 -0.024426557 -0.017877871 -0.027237715 0.006035291 -0.050582103 0.007452504 0.0024276678 -0.029369375 -0.013852821 -0.0661017 0.04980387 0.03277144 0.005498236 -0.038658284 -0.04164846 -0.0027852284 -0.027930753 0.01395518 -0.0661926 -0.020662786 0.021529878 -0.03023627 -0.011977756 0.06370763 0.068435915 -0.05972343 -0.019690294 -0.026810538 0.0425114 0.040190633 -0.023841491 -0.0053496608 0.05953625 0.025739448 0.0027963782 0.046844594 -0.07440231 0.010755831 -0.0073923133 0.020044599 -0.011618509
times 0.028872143 0.02891871 0.060112003 0.0053118467 0.025538497 0.09317955 -0.014016766 0.021136614 0.029695258 -0.08994181 0.017644916 -0.06803979 0.041130155 -0.046690736 -0.025148505 0.13475294 0.11022176 0.061517607 0.06676781 -0.1147101 0.026322277 0.11459765 0.0029326177 -0.010864326 -0.087929726 -0.010113813 0.098040074 0.006337051 0.05779024 -0.0041706134 0.08308138 0.10684958 0.02605439 0.06163995 0.10975713 0.03441577 -0.02555859 0.022563487 0.06598945 0.08122795 -0.0285866 0.09308635 -0.030968443 -0.0075558214 -0.040682036 -0.11502861 0.083846666 -0.11923028 -0.085628584 0.07621304
lory -0.0661553 0.08347304 -0.036608238 -0.052128635 0.14404324 -0.080778055 0.012830103 -0.06968611 0.081359796 0.046462107 0.09738633 -0.056372534 0.057135098 -0.019103847 0.05715266 0.025727363 0.012729058 -0.04608712 -0.06473068 -0.017402055 0.11958474 -0.106445216 0.040606175 -0.13569234 -0.031793624 0.03568052 -0.03265971 -0.038892757 0.031769585 0.012828846 -0.057104863 -0.094617836 -0.07443448 -0.038892314 0.043927796 -0.11214205 0.06108497 -0.011180114 -0.046911594 0.026833117 0.09440596 -0.047135606 -0.019583466 0.031916264 -0.023933267 0.0062700575 -0.03522187 0.015177941 -0.0021820362 0.029547427
spread 0.06555507 -0.007845188 -0.01677074 -0.015928285 -0.0491337 0.012608003 0.051298436 -0.0091296155 0.07080297 -0.08807906 0.034692187 0.020242428 0.050190657 0.009217728 0.0317624 0.07059519 0.017881569 0.04936732 0.017827101 -0.08774823 0.012939053 0.03374423 -0.070556045 0.0016116274 -0.06475901 -0.028697792 -0.0018851219 0.009141742 -0.0022948266 -0.007681493 0.019825486 0.0011619037 0.024105376 0.056935832 0.03549203 -0.035646956 0.017618436 0.048244458 0.008044913 0.01941072 -0.020225417 0.051183484 0.007862594 0.0039402703 -0.04478415 -0.10078878 0.036104992 -0.056975503 -0.10390453 -0.039918236
actually 0.026137345 0.05925052 0.016549502 0.045786995 -0.021791648 -0.04304531 0.03376604 -0.010155427 -0.003160958 0.025785506 0.036253743 -0.014795141 -0.0026025495 -0.043814838 -0.032914452 -0.02741742 0.031223083 0.004790774 0.0509236 0.025336081 -0.0048830155 -0.019649183 0.037709944 -0.03584902 0.030351087 0.008171227 0.044675086 0.0015054413 0.022384603 -0.017835962 -0.02027056 -0.014726593 -0.031391133 -0.053946283 -0.015216336 -0.06848247 -0.02691413 -0.017243177 0.038939584 -0.0026543303 0.055320892 -0.04374033 0.0122427195 0.01182828 -0.051442996 -0.018596547 -0.04688458 0.008474288 0.030367423 -0.008431301
brave 0.046242453 0.0056927395 -0.012730279 0.011935989 0.02979897 0.038760908 0.0017519079 0.036421485 0.04955809 -0.057304986 0.0009209068 -0.013276653 0.017808093 0.054443628 0.045100767 0.045173664 -0.02808664 -0.029135613 0.0042060874 -0.027958136 0.03452183 0.030142553 -0.009219717 -0.016472371 -0.007268507 -0.032599915 -0.026731063 0.056442518 -0.004832812 0.038249917 0.027041228 -0.005483899 -0.01780734 -0.042065952 0.06432713 -0.042346466 0.03988992 0.040259816 -0.04503189 0.0032331534 0.027508497 -0.036729008 -0.01717043 -0.053628426 -0.051738914 -0.054540273 0.040603798 -0.034752842 -0.021772716 -0.032444082
dinner -0.03893606 -0.04727875 0.025996316 -0.03448448 0.011979519 0.017289326 -0.031495605 0.041113205 -0.036974385 -0.067590706 -0.02848503 -0.026405549 -0.03342945 0.029653508 -0.03756686 -0.020276565 -0.017877309 -0.0041724257 -0.0013973983 0.041987024 0.015127177 0.025918178 -0.046746496 0.015271516 0.01709956 0.022383692 0.018130325 0.007939841 0.0026619516 0.015150294 -0.0023762279 -0.020405423 -0.02743817 0.03623706 0.0007664507 -0.03131682 0.043106157 -0.02692905 -0.023499232 0.013048907 0.06312596 -0.0037693284 -0.037788842 0.019529367 -0.0076254965 -0.009544433 0.00928543 0.022068495 0.039193854 0.01132862
rats -0.04682641 0.020244481 0.008539512 -0.06526435 0.027312854 -0.0015740264 -0.027171856 -0.028625496 0.07000237 0.010724595 -0.006757568 -0.031289753 0.019119425 0.03073678 0.051623352 -0.008818672 -0.021934513 -0.038416233 -0.0467813 0.048497774 0.00086601183 -0.043695506 0.033375666 0.0031663454 0.026757699 0.015199131 -0.0037273061 0.028613755 0.022524437 0.019265113 -0.004536054 -0.08647481 -0.081524186 0.051152 0.024816692 -0.020745916 0.043568652 -0.031127645 -0.029179256 -0.0137819145 -0.01883774 -0.0046665343 -0.036584046 -0.045903128 0.007902057 0.052100625 -0.005110749 0.057941608 -0.054926064 -0.04714136
feel -0.043723006 0.043801785 0.060020547 0.044781737 -0.026384315 -0.020909684 -0.04667376 -0.053263247 0.03659962 -0.04728053 -0.0040981304 0.03460678 -0.009460735 0.03334858 -0.028847205 0.02901141 0.002084368 0.055213846 0.030964978 -0.013738475 0.010428727 -0.029508375 0.035959635 0.046418544 0.030363325 -0.046034582 -0.0030585323 -0.026850581 0.0023237113 0.00873846 0.04164714 0.0012836487 0.021048324 -0.0230171 0.027754383 -0.046633758 0.013907459 -0.011872351 -0.014932977 0.022411235 0.02702956 0.0080214655 0.06583906 -0.03308216 -0.014846087 -0.06145924 -0.00013041377 -0.009859741 0.022637783 0.007686682
swam 0.060770277 -0.06795665 -0.018806368 0.011065746 -0.10260541 -0.092448115 -0.036459737 0.01340824 0.0010837443 -0.008186005 -0.027072925 0.071585745 0.04292703 0.06761197 0.04349932 -0.038080413 -0.0555733 0.004497621 0.02333616 -0.03928558 -0.010114529 -0.04728777 -0.01670429 -0.03987235 -0.019203644 -0.035653047 -0.02448139 -0.01812053 0.039980505 -0.010761989 -0.016774373 -0.081578486 0.07007563 0.023764042 0.026245968 -0.015868578 0.035022303 0.029935652 -0.023939122 0.007321244 0.0015299084 -0.055508487 -0.06576134 0.08298764 -0.038513046 -0.047204234 0.05874384 -0.012793351 -0.022950908 -0.002106675
upon 0.06155863 -0.11208582 -0.0015937884 0.02134215 -0.07270616 0.0073960964 -0.016294345 -0.028621469 0.03655253 0.00027306133 -0.1087174 0.06685956 -0.014188518 -0.0075626792 0.06143975 -0.0901337 -0.026627954 0.012387539 0.07276252 0.0044286125 0.031161737 0.07239266 -0.02773611 -0.0026966992 0.047541577 -0.070409425 0.06398147 0.07341624 0.14850675 -0.0028817975 0.016904226 -0.025431447 0.03977086 0.015996724 -0.07874753 0.016019672 0.04445221 0.07860726 -0.05474822 0.077531636 -0.1132811 0.060486816 -0.073449686 0.03157144 -0.015450328 -0.00076698564 0.04992568 -0.0221169 -0.052701946 -0.025631066
shrinking 0.055523105 -0.026573172 0.045254316 0.024984343 -0.030091288 0.06570527 0.019248217 0.016496371 -0.011475898 -0.006857424 -0.034776244 0.054052606 0.09456254 0.013043756 0.032041464 0.029874459 -0.0231697 0.020051157 0.027261194 -0.111403026 0.035664607 0.05449456 -0.09815194 0.067134775 0.022078663 -0.08200503 0.063481584 0.041620955 0.024261607 -0.049267918 -0.0064655705 0.016711932 0.02066289 0.1100502 0.017041642 0.032754947 0.060320012 0.053687308 0.021714177 0.07440936 0.033317704 0.05461165 0.005770215 0.009756389 -0.04789389 -0.09849169 0.04463336 -0.08179176 -0.08314658 0.037219487
thirteen 0.01960209 0.049034428 0.04002143 -0.041017056 -0.013359106 -0.021688478 -0.019080944 0.022408348 0.024275325 0.03600806 -0.004446764 -0.010378236 0.036345046 0.013161059 -0.016654348 0.02303305 0.02067634 -0.016799683 0.048420634 -0.008176255 -0.00045639498 -0.032992717 0.0386843 -0.0011838372 0.02673463 0.020960884 -0.014954586 0.013830486 -0.00580315 0.005880664 -0.03493262 0.021877287 -0.02542361 0.01021423 -0.03563672 0.016350778 -0.04659979 0.049201537 -0.0042712195 -0.0033051765 -0.037110575 0.0048100417 0.0187554 0.032947928 0.049650602 0.029836345 -0.03729079 -0.03316049 -0.005686222 0.005911264
capital -0.016268026 0.0381228 0.05226753 -0.0071201674 0.07051785 -0.027998818 -0.06540399 -0.010900473 0.0035060854 0.061798595 -0.012239057 -0.025861828 -0.044963203 -0.05189594 0.032012787 -0.059025746 -0.0113420095 -0.060944833 -0.06640766 0.087441206 0.07971158 -0.08126088 0.12288561 -0.04601692 0.04386375 -0.0075578867 0.0028485532 0.034370612 0.02702766 0.025164478 -0.040059492 -0.048489988 -0.051974997 0.0393594 0.021794964 0.038628805 0.032902945 -0.002230057 -0.034454122 -0.016620276 -0.00089852273 -0.009200327 -0.024331203 -0.002003257 -0.040122554 0.019980345 -0.059758466 0.035534427 0.0256795 -0.05588811
birds -0.039618935 0.015732732 -0.05517171 0.011416867 0.0057671443 0.041474506 -0.058350127 -0.059084423 0.06408302 0.024412815 -0.0005863468 0.07137814 0.06848312 0.0203661 -0.03875114 -0.018531999 0.024060672 -0.06453911 0.08047485 0.014731193 0.043517563 -0.026436087 -0.047441956 0.016296552 -0.03905956 -0.025948672 0.031943217 0.08217425 0.020092977 -0.023763632 0.1197053 0.030513545 0.021242509 0.058294404 0.01295753 0.0009967627 -0.05114066 -0.0915326 -0.030907156 0.03765672 0.008359254 0.04435119 -0.03304161 -0.028871508 -0.047175907 0.0025076957 -0.008348172 -0.012211276 -0.06549742 0.039709434
cat 0.028298572 0.0018667348 -0.04468646 -0.03519037 0.07774562 0.00012355368 0.027300606 -0.032436065 -0.03714365 -0.019607138 0.024153955 -0.031085242 -0.06176559 -0.022004042 0.056027215 -0.0037344536 -0.038371563 0.020379357 -0.03602199 0.089248985 0.046278913 -0.045651425 0.07543278 0.0022281138 -0.020892285 0.065008275 -0.013821388 -0.07281674 0.012066118 0.019718613 0.031110594 0.024356881 0.012532349 0.034536395 -0.04887536 -0.039477665 -0.053979717 0.052468177 -0.059197243 -0.00487513 0.006700673 -0.01081057 -0.04676843 0.020813249 -0.02304248 0.053671055 -0.0063801557 0.033078328 -0.031253092 -0.080372915
